svm_type c_svc
kernel_type rbf
gamma 0.00900901
nr_class 5
total_sv 366
rho -0.984745 -1.00966 -1.00977 -0.978008 -0.997025 -1.00246 -0.862472 -1.0027 -0.816447 -0.733652
label 5 4 3 2 1
nr_sv 177 138 40 8 3
SV
1 1 0.9840679041807441 0.08047753883994717 8:0.0147929 
0.6331411710051456 0 0 0 8:0.0304311 16:0.025641 19:0.027027 34:0.1 35:0.0322581 48:0.166667 50:0.125 73:0.0392157 82:0.111111 88:0.0277778 90:0.125 101:0.142857 
1 0.1154603780295803 0 0 1:0.047619 8:0.00362275 9:0.025974 13:0.012987 16:0.003663 19:0.003861 20:0.00621118 30:0.0102041 34:0.0142857 35:0.00460829 48:0.0238095 50:0.0178571 51:0.012987 67:0.047619 73:0.00560224 82:0.015873 88:0.00396825 90:0.0178571 101:0.0408163 
0 0 0 0.1863834696105807 1:0.0833333 8:0.0069738 9:0.0454545 13:0.0227273 16:0.00641026 19:0.00675676 20:0.0108696 30:0.0178571 34:0.025 35:0.00806452 48:0.0416667 50:0.03125 51:0.0227273 59:0.00735294 67:0.0833333 73:0.0147059 82:0.0277778 88:0.00694444 90:0.03125 101:0.0714286 
1 0.7466434135604654 0.5772594623224827 0 1:0.00900901 9:0.004914 13:0.002457 16:0.000693001 19:0.00146092 20:0.00117509 30:0.00579151 34:0.0027027 35:0.00087184 48:0.0045045 50:0.00337838 51:0.002457 59:0.000794913 61:0.00225225 67:0.00900901 69:0.00158983 73:0.00158983 81:0.004914 82:0.003003 88:0.000750751 90:0.00337838 98:0.000794913 101:0.00772201 
1 0.2849981936107402 0.3461078049905397 0 1:0.0833333 8:0.0147929 9:0.0454545 13:0.0227273 16:0.00641026 19:0.0202703 20:0.0108696 30:0.0535714 34:0.025 35:0.00806452 48:0.0416667 50:0.03125 51:0.0454545 59:0.0147059 61:0.0208333 67:0.0833333 68:0.25 69:0.0147059 73:0.0196078 81:0.0454545 82:0.0277778 88:0.00694444 90:0.03125 93:0.25 98:0.00735294 99:0.25 101:0.0714286 
1 0.7574776784752537 0 0 1:0.0138889 8:0.00176106 9:0.00757576 13:0.00378788 16:0.00106838 19:0.00337838 20:0.00271739 30:0.00892857 34:0.00416667 35:0.00134409 48:0.00694444 50:0.00520833 51:0.00757576 59:0.00245098 61:0.00347222 67:0.0138889 68:0.0416667 69:0.00245098 72:0.00245098 73:0.00326797 81:0.00757576 82:0.00462963 88:0.00115741 90:0.00520833 93:0.0416667 98:0.00122549 99:0.0416667 100:0.00297619 101:0.0119048 
1 1 1 0 1:0.037037 8:0.00610501 9:0.030303 10:0.0031746 13:0.010101 16:0.002849 19:0.00900901 20:0.00724638 30:0.0238095 34:0.0111111 35:0.00358423 37:0.111111 48:0.0185185 50:0.0138889 51:0.020202 59:0.00980392 61:0.00925926 65:0.037037 67:0.037037 68:0.111111 69:0.00653595 72:0.00653595 73:0.0087146 81:0.030303 82:0.0123457 88:0.00308642 90:0.0138889 93:0.111111 98:0.00326797 99:0.111111 100:0.00793651 101:0.031746 
1 0.284712605619309 0 0 1:0.0833333 8:0.0147929 9:0.0681818 10:0.00714286 13:0.0227273 16:0.00641026 18:0.025 19:0.0202703 20:0.0217391 29:0.125 30:0.0535714 34:0.025 35:0.00806452 37:0.25 43:0.01 48:0.0416667 50:0.03125 51:0.0454545 59:0.0220588 61:0.0208333 65:0.0833333 67:0.0833333 68:0.25 69:0.0147059 72:0.0294118 73:0.0196078 80:0.00746269 81:0.0681818 82:0.0277778 88:0.00694444 90:0.03125 93:0.25 95:0.0833333 98:0.00735294 99:0.25 100:0.0178571 101:0.0714286 106:0.125 
0.9833743029771164 0.517490946261436 0.1268596386347351 0 1:0.333333 8:0.0617075 9:0.272727 10:0.0285714 13:0.0909091 16:0.025641 18:0.1 19:0.0810811 20:0.0869565 29:0.5 30:0.214286 34:0.1 35:0.0322581 37:1 43:0.04 48:0.166667 50:0.125 51:0.181818 59:0.0882353 61:0.0833333 65:0.333333 67:0.333333 68:1 69:0.0588235 72:0.176471 73:0.0784314 80:0.0298507 81:0.272727 82:0.111111 88:0.0277778 90:0.125 93:1 95:0.333333 98:0.0294118 99:1 100:0.0714286 101:0.285714 106:0.5 
1 0 0.0445739107940781 0 1:0.047619 8:0.00809081 9:0.038961 10:0.00816327 13:0.012987 16:0.003663 18:0.0142857 19:0.011583 20:0.0124224 29:0.0714286 30:0.0306122 34:0.0142857 35:0.00460829 37:0.142857 43:0.00571429 48:0.0238095 50:0.0178571 51:0.025974 59:0.012605 61:0.0119048 65:0.047619 66:0.142857 67:0.047619 68:0.142857 69:0.00840336 72:0.0252101 73:0.0140056 80:0.00426439 81:0.038961 82:0.015873 86:0.142857 88:0.00396825 90:0.0535714 93:0.142857 95:0.047619 98:0.00420168 99:0.142857 100:0.0102041 101:0.0408163 106:0.0714286 107:0.047619 110:0.142857 
0.04940790186709634 0 0 0 1:0.0555556 8:0.00958016 9:0.0454545 10:0.00952381 13:0.0151515 16:0.0128205 18:0.0166667 19:0.0135135 20:0.0144928 21:0.0151515 29:0.0833333 30:0.0357143 34:0.0166667 35:0.016129 37:0.166667 43:0.00666667 48:0.0277778 50:0.0208333 51:0.030303 59:0.0147059 61:0.0138889 65:0.0555556 66:0.166667 67:0.0555556 68:0.166667 69:0.00980392 72:0.0294118 73:0.0196078 80:0.00497512 81:0.0454545 82:0.0185185 86:0.166667 88:0.00462963 90:0.0625 93:0.166667 95:0.0555556 98:0.00490196 99:0.166667 100:0.0119048 101:0.047619 106:0.0833333 107:0.0555556 110:0.166667 
0 0 0.03713221908652092 0 1:0.0833333 8:0.022612 9:0.0681818 10:0.0142857 13:0.0227273 16:0.0192308 18:0.025 19:0.0202703 20:0.0271739 21:0.0227273 29:0.125 30:0.0535714 34:0.025 35:0.0241935 37:0.25 43:0.01 48:0.0416667 50:0.03125 51:0.0454545 59:0.0220588 61:0.0208333 65:0.0833333 66:0.25 67:0.0833333 68:0.25 69:0.0147059 72:0.0441176 73:0.0294118 80:0.011194 81:0.0681818 82:0.0277778 86:0.25 88:0.00694444 90:0.09375 93:0.25 95:0.0833333 98:0.00735294 99:0.25 100:0.0178571 101:0.0714286 106:0.125 107:0.0833333 110:0.25 
1 0 0 0 1:0.030303 8:0.00768462 9:0.0247934 10:0.00519481 13:0.00826446 16:0.00699301 18:0.00909091 19:0.00737101 20:0.00988142 21:0.00826446 29:0.0454545 30:0.0194805 34:0.00909091 35:0.0117302 37:0.0909091 43:0.00363636 48:0.0151515 50:0.0113636 51:0.0165289 59:0.00802139 61:0.00757576 65:0.030303 66:0.0909091 67:0.030303 68:0.0909091 69:0.00534759 72:0.0213904 73:0.0106952 80:0.00407056 81:0.0247934 82:0.010101 86:0.0909091 88:0.00252525 90:0.0340909 93:0.0909091 95:0.030303 98:0.0026738 99:0.0909091 100:0.00649351 101:0.025974 106:0.0454545 107:0.030303 110:0.0909091 
0 0 0.1187750629996987 0.009861932748632549 1:0.333333 8:0.0929839 9:0.272727 10:0.0571429 13:0.0909091 16:0.0769231 18:0.1 19:0.0810811 20:0.108696 21:0.0909091 29:0.5 30:0.214286 34:0.1 35:0.129032 37:1 43:0.04 48:0.166667 50:0.125 51:0.181818 59:0.0882353 61:0.0833333 65:0.333333 66:1 67:0.333333 68:1 69:0.0588235 72:0.235294 73:0.117647 80:0.0447761 81:0.272727 82:0.111111 86:1 88:0.0277778 90:0.375 93:1 95:0.333333 98:0.0294118 99:1 100:0.0714286 101:0.285714 106:0.5 107:0.333333 110:1 
0.1849478927643531 0 0.1841206821052566 0 1:0.166667 8:0.0460693 9:0.136364 10:0.0285714 13:0.0454545 16:0.0384615 18:0.05 19:0.0405405 20:0.0543478 21:0.0454545 29:0.25 30:0.107143 34:0.05 35:0.0645161 37:0.5 43:0.02 48:0.0833333 50:0.0625 51:0.0909091 59:0.0441176 61:0.0416667 65:0.166667 66:0.5 67:0.166667 68:0.5 69:0.0294118 72:0.117647 73:0.0588235 80:0.0223881 81:0.136364 82:0.0555556 86:0.5 88:0.0138889 90:0.1875 93:0.5 95:0.166667 98:0.0147059 99:0.5 100:0.0357143 101:0.142857 106:0.25 107:0.166667 110:0.5 
0 0.9123546132753546 0.0186274423160766 0 1:0.111111 8:0.0408566 9:0.0909091 10:0.0190476 13:0.030303 16:0.034188 18:0.0333333 19:0.027027 20:0.0362319 21:0.030303 27:0.0222222 29:0.166667 30:0.0714286 34:0.0333333 35:0.0430108 37:0.333333 43:0.0133333 48:0.0555556 50:0.0416667 51:0.0606061 59:0.0392157 61:0.0277778 65:0.111111 66:0.333333 67:0.111111 68:0.333333 69:0.0196078 72:0.0784314 73:0.0392157 80:0.0149254 81:0.0909091 82:0.037037 86:0.333333 88:0.00925926 90:0.125 93:0.333333 95:0.111111 98:0.00980392 99:0.333333 100:0.0238095 101:0.0952381 106:0.166667 107:0.111111 110:0.333333 
1 0 0 0 1:0.0185185 8:0.00610501 9:0.0151515 10:0.0031746 13:0.00505051 16:0.00712251 18:0.00555556 19:0.0045045 20:0.00724638 21:0.00505051 27:0.0037037 29:0.0277778 30:0.0119048 34:0.00555556 35:0.00716846 37:0.0555556 43:0.00222222 48:0.00925926 50:0.00694444 51:0.0151515 59:0.00653595 61:0.00925926 65:0.0185185 66:0.0555556 67:0.0185185 68:0.0555556 69:0.00326797 72:0.0130719 73:0.00762527 80:0.00331675 81:0.0151515 82:0.00617284 86:0.0555556 88:0.00154321 90:0.0208333 93:0.0555556 95:0.0185185 98:0.00326797 99:0.0555556 100:0.00396825 101:0.015873 106:0.0277778 107:0.0185185 110:0.0555556 
0.1600206426074388 0 0 0 1:0.111111 8:0.0408566 9:0.0909091 10:0.0190476 13:0.030303 16:0.042735 18:0.0333333 19:0.027027 20:0.0434783 21:0.030303 27:0.0222222 29:0.166667 30:0.0714286 34:0.0333333 35:0.0537634 37:0.333333 43:0.0133333 48:0.0555556 49:0.0114943 50:0.0416667 51:0.0909091 59:0.0392157 61:0.0555556 65:0.111111 66:0.333333 67:0.111111 68:0.333333 69:0.0196078 72:0.0784314 73:0.0457516 80:0.0199005 81:0.0909091 82:0.037037 86:0.333333 88:0.00925926 90:0.125 93:0.333333 95:0.111111 98:0.0196078 99:0.333333 100:0.0238095 101:0.0952381 106:0.166667 107:0.111111 110:0.333333 
1 0 0 0 1:0.0555556 8:0.0200056 9:0.0454545 10:0.0190476 13:0.0151515 16:0.0213675 18:0.0166667 19:0.0135135 20:0.0217391 21:0.0151515 27:0.0111111 29:0.0833333 30:0.0357143 34:0.0166667 35:0.0268817 37:0.166667 38:0.0119048 43:0.00666667 48:0.0277778 49:0.00574713 50:0.0208333 51:0.0454545 59:0.0196078 61:0.0277778 65:0.0555556 66:0.166667 67:0.0555556 68:0.166667 69:0.00980392 72:0.0392157 73:0.0228758 80:0.00995025 81:0.0454545 82:0.0185185 86:0.166667 88:0.00462963 90:0.0625 93:0.166667 95:0.0555556 98:0.00980392 99:0.166667 100:0.0119048 101:0.047619 106:0.0833333 107:0.0555556 110:0.166667 
1 0 0 0 1:0.0833333 8:0.0382502 9:0.0681818 10:0.0285714 13:0.0227273 16:0.0320513 18:0.025 19:0.0202703 20:0.0326087 21:0.0227273 27:0.0166667 29:0.125 30:0.0535714 34:0.025 35:0.0403226 37:0.25 38:0.0178571 43:0.01 48:0.0416667 49:0.00862069 50:0.03125 51:0.0681818 59:0.0294118 61:0.0625 65:0.0833333 66:0.25 67:0.0833333 68:0.25 69:0.0147059 72:0.0588235 73:0.0343137 80:0.0149254 81:0.0681818 82:0.0277778 86:0.25 88:0.00694444 90:0.125 93:0.25 95:0.0833333 98:0.0147059 99:0.25 100:0.0178571 101:0.0714286 106:0.125 107:0.0833333 110:0.25 
1 0 0 0 1:0.166667 8:0.0773457 9:0.136364 10:0.0571429 13:0.0454545 16:0.0641026 18:0.05 19:0.0405405 20:0.0652174 21:0.0909091 27:0.0333333 29:0.25 30:0.107143 34:0.05 35:0.0806452 37:0.5 38:0.0357143 43:0.02 48:0.0833333 49:0.0172414 50:0.0625 51:0.136364 59:0.0588235 61:0.125 65:0.166667 66:0.5 67:0.166667 68:0.5 69:0.0294118 72:0.117647 73:0.0686275 80:0.0298507 81:0.136364 82:0.0555556 86:0.5 88:0.0138889 90:0.25 93:0.5 95:0.166667 98:0.0294118 99:0.5 100:0.0357143 101:0.142857 106:0.25 107:0.166667 110:0.5 
1 0 0 0 1:0.0277778 8:0.0121865 9:0.0227273 10:0.00952381 13:0.00757576 16:0.0106838 18:0.00833333 19:0.00675676 20:0.0108696 21:0.0151515 27:0.00555556 29:0.0416667 30:0.0178571 34:0.00833333 35:0.0134409 37:0.0833333 38:0.00595238 43:0.00666667 48:0.0138889 49:0.00287356 50:0.0104167 51:0.0227273 59:0.00980392 61:0.0208333 65:0.0277778 66:0.0833333 67:0.0277778 68:0.0833333 69:0.00490196 72:0.0196078 73:0.0114379 80:0.00497512 81:0.0227273 82:0.00925926 86:0.0833333 88:0.00231481 90:0.0416667 93:0.0833333 95:0.0277778 98:0.00490196 99:0.0833333 100:0.00595238 101:0.0238095 106:0.0416667 107:0.0277778 110:0.0833333 
0 0.1417868417522482 0 0 1:0.333333 8:0.155537 9:0.272727 10:0.114286 13:0.0909091 16:0.128205 18:0.1 19:0.0810811 20:0.130435 21:0.181818 27:0.0666667 29:0.5 30:0.214286 34:0.1 35:0.16129 37:1 38:0.0714286 43:0.08 48:0.166667 49:0.0344828 50:0.125 51:0.272727 59:0.117647 61:0.25 65:0.333333 66:1 67:0.333333 68:1 69:0.0588235 72:0.235294 73:0.137255 80:0.0597015 81:0.272727 82:0.111111 86:1 88:0.0277778 90:0.5 93:1 95:0.333333 98:0.0588235 99:1 100:0.0714286 101:0.285714 106:0.5 107:0.333333 110:1 
1 0 0 0 1:0.025641 8:0.0111841 9:0.020979 10:0.00879121 13:0.00699301 14:0.00248139 16:0.0118343 18:0.00769231 19:0.00623701 20:0.0100334 21:0.013986 27:0.00512821 29:0.0384615 30:0.0164835 34:0.00769231 35:0.0124069 37:0.0769231 38:0.00549451 43:0.00615385 48:0.0128205 49:0.00265252 50:0.00961538 51:0.020979 59:0.00904977 61:0.0192308 65:0.0512821 66:0.0769231 67:0.025641 68:0.0769231 69:0.00452489 72:0.0180995 73:0.0105581 80:0.00459242 81:0.020979 82:0.00854701 86:0.0769231 88:0.00213675 90:0.0384615 93:0.0769231 95:0.025641 98:0.00678733 99:0.0769231 100:0.010989 101:0.021978 106:0.0384615 107:0.025641 110:0.0769231 
1 0.5258109235921593 0 0 1:0.015873 8:0.00660146 9:0.012987 10:0.00544218 13:0.004329 14:0.0015361 16:0.00732601 18:0.0047619 19:0.00514801 20:0.00621118 21:0.00865801 27:0.0031746 29:0.0238095 30:0.0102041 34:0.0047619 35:0.00768049 37:0.047619 38:0.00340136 43:0.00380952 48:0.00793651 49:0.00164204 50:0.00595238 51:0.017316 59:0.00560224 61:0.0119048 65:0.031746 66:0.047619 67:0.015873 68:0.047619 69:0.00560224 72:0.0112045 73:0.00653595 80:0.00284293 81:0.012987 82:0.00529101 86:0.047619 88:0.0026455 90:0.0238095 93:0.047619 95:0.015873 96:0.00453515 98:0.00560224 99:0.047619 100:0.00680272 101:0.0136054 106:0.0238095 107:0.015873 110:0.047619 
0.8041596556257259 1 0.02133117549418735 0 1:0.333333 8:0.0773457 9:0.136364 10:0.0571429 13:0.0454545 14:0.016129 16:0.0897436 18:0.05 19:0.0675676 20:0.0652174 21:0.0909091 26:0.5 27:0.0666667 29:0.25 30:0.107143 34:0.05 35:0.0967742 37:0.5 38:0.0357143 43:0.06 47:0.0625 48:0.0833333 49:0.0172414 50:0.0625 51:0.181818 59:0.0588235 61:0.125 65:0.333333 66:0.5 67:0.166667 68:0.5 69:0.0588235 72:0.147059 73:0.0784314 80:0.0298507 81:0.136364 82:0.0555556 86:0.5 88:0.0277778 90:0.25 93:0.5 95:0.166667 96:0.047619 98:0.0588235 99:0.5 100:0.0714286 101:0.142857 106:0.25 107:0.166667 110:0.5 
1 0 0 0 1:0.166667 8:0.0382502 9:0.0681818 10:0.0285714 13:0.0227273 14:0.00806452 16:0.0448718 18:0.025 19:0.0337838 20:0.0380435 21:0.0454545 26:0.25 27:0.0333333 29:0.125 30:0.0535714 34:0.025 35:0.0483871 37:0.25 38:0.0178571 43:0.03 47:0.03125 48:0.0416667 49:0.00862069 50:0.03125 51:0.0909091 59:0.0294118 61:0.0625 65:0.166667 66:0.25 67:0.0833333 68:0.25 69:0.0294118 72:0.0735294 73:0.0392157 80:0.0223881 81:0.0681818 82:0.0277778 86:0.25 88:0.0138889 90:0.125 93:0.25 95:0.0833333 96:0.0238095 98:0.0294118 99:0.25 100:0.0357143 101:0.0714286 106:0.125 107:0.0833333 110:0.25 
0.5127051592589738 0.5614182386710478 0 0 1:0.666667 8:0.155537 9:0.272727 10:0.114286 13:0.0909091 14:0.0322581 16:0.179487 18:0.1 19:0.135135 20:0.152174 21:0.181818 26:1 27:0.133333 29:0.5 30:0.214286 34:0.1 35:0.193548 37:1 38:0.0714286 43:0.12 47:0.125 48:0.166667 49:0.0344828 50:0.125 51:0.363636 59:0.117647 61:0.25 65:0.666667 66:1 67:0.333333 68:1 69:0.117647 72:0.294118 73:0.156863 80:0.0895522 81:0.272727 82:0.111111 86:1 88:0.0555556 90:0.5 93:1 95:0.333333 96:0.0952381 98:0.117647 99:1 100:0.142857 101:0.285714 106:0.5 107:0.333333 110:1 
1 0 0 0 1:0.0444444 8:0.00958016 9:0.0181818 10:0.00761905 13:0.00606061 14:0.00430108 16:0.0136752 18:0.0133333 19:0.00900901 20:0.0101449 21:0.0121212 26:0.0666667 27:0.00888889 29:0.0333333 30:0.0142857 34:0.00666667 35:0.0129032 37:0.0666667 38:0.00952381 43:0.0106667 47:0.00833333 48:0.0111111 49:0.0045977 50:0.00833333 51:0.0242424 59:0.00784314 61:0.0166667 65:0.0444444 66:0.0666667 67:0.0222222 68:0.0666667 69:0.0196078 72:0.0196078 73:0.0104575 80:0.00597015 81:0.0181818 82:0.00740741 86:0.0666667 88:0.0037037 90:0.0333333 93:0.0666667 95:0.0222222 96:0.00634921 98:0.00980392 99:0.0666667 100:0.00952381 101:0.0190476 106:0.0333333 107:0.0222222 110:0.0666667 
0 1 0 0 1:0.222222 8:0.0512821 9:0.0909091 10:0.0380952 13:0.030303 14:0.0215054 16:0.0683761 18:0.0666667 19:0.045045 20:0.0507246 21:0.0606061 23:0.333333 26:0.333333 27:0.0444444 29:0.166667 30:0.0714286 34:0.0333333 35:0.0645161 37:0.333333 38:0.047619 43:0.0533333 47:0.0416667 48:0.0555556 49:0.0229885 50:0.0416667 51:0.121212 59:0.0392157 61:0.0833333 64:0.0416667 65:0.222222 66:0.333333 67:0.111111 68:0.333333 69:0.0980392 72:0.0980392 73:0.0522876 80:0.0298507 81:0.0909091 82:0.037037 86:0.333333 88:0.0185185 90:0.166667 93:0.333333 95:0.111111 96:0.031746 98:0.0490196 99:0.333333 100:0.047619 101:0.0952381 106:0.166667 107:0.111111 110:0.333333 
1 1 0 0 1:0.0136054 8:0.00234616 9:0.00556586 10:0.00233236 13:0.00185529 14:0.00263331 16:0.00470958 18:0.00408163 19:0.00275786 20:0.00310559 21:0.00371058 23:0.0204082 26:0.0204082 27:0.00272109 29:0.0102041 30:0.00437318 34:0.00204082 35:0.00394997 37:0.0204082 38:0.00291545 43:0.00326531 47:0.00255102 48:0.00340136 49:0.00140746 50:0.00255102 51:0.00742115 59:0.00240096 60:0.00291545 61:0.00510204 64:0.00255102 65:0.0136054 66:0.0204082 67:0.00680272 68:0.0204082 69:0.0060024 72:0.0060024 73:0.00320128 80:0.0018276 81:0.00742115 82:0.00226757 86:0.0204082 87:0.0102041 88:0.00283447 90:0.0102041 93:0.0204082 94:0.00255102 95:0.00680272 96:0.00388727 98:0.00360144 99:0.0204082 100:0.00291545 101:0.0058309 106:0.0102041 107:0.00680272 110:0.0204082 
1 0 0 0 1:0.0238095 8:0.00473977 9:0.00974026 10:0.00408163 13:0.00324675 14:0.00460829 16:0.00824176 18:0.00714286 19:0.00675676 20:0.00621118 21:0.00649351 23:0.0357143 26:0.0357143 27:0.0047619 29:0.0178571 30:0.00765306 34:0.00357143 35:0.00691244 37:0.0357143 38:0.00510204 43:0.00571429 47:0.00446429 48:0.00595238 49:0.00246305 50:0.00892857 51:0.012987 59:0.00420168 60:0.00510204 61:0.00892857 64:0.00446429 65:0.0238095 66:0.0357143 67:0.0119048 68:0.0357143 69:0.0105042 72:0.0105042 73:0.00560224 80:0.00319829 81:0.012987 82:0.00396825 86:0.0357143 87:0.0178571 88:0.00496032 90:0.0178571 93:0.0357143 94:0.00446429 95:0.0119048 96:0.00680272 98:0.00630252 99:0.0357143 100:0.00510204 101:0.0102041 106:0.0178571 107:0.0119048 110:0.0357143 
0 0 0.01474903617224541 0 1:0.222222 8:0.0512821 9:0.0909091 10:0.0380952 13:0.030303 14:0.0430108 16:0.0769231 18:0.0666667 19:0.0630631 20:0.0652174 21:0.0606061 23:0.333333 26:0.333333 27:0.0444444 29:0.166667 30:0.0714286 34:0.0333333 35:0.0645161 37:0.333333 38:0.047619 43:0.0533333 47:0.0416667 48:0.0555556 49:0.0229885 50:0.0833333 51:0.121212 59:0.0392157 60:0.047619 61:0.0833333 64:0.0416667 65:0.222222 66:0.333333 67:0.111111 68:0.333333 69:0.0980392 72:0.0980392 73:0.0522876 80:0.0348259 81:0.121212 82:0.037037 86:0.333333 87:0.166667 88:0.0462963 90:0.166667 93:0.333333 94:0.0416667 95:0.111111 96:0.0634921 98:0.0588235 99:0.333333 100:0.047619 101:0.0952381 106:0.166667 107:0.111111 110:0.333333 
0 1 0 0 1:0.166667 8:0.0382502 9:0.0681818 10:0.0285714 13:0.0227273 14:0.0322581 16:0.0576923 18:0.05 19:0.0472973 20:0.048913 21:0.0681818 23:0.25 26:0.25 27:0.0333333 29:0.125 30:0.0535714 34:0.025 35:0.0483871 37:0.25 38:0.0357143 43:0.04 47:0.03125 48:0.0416667 49:0.0172414 50:0.0625 51:0.0909091 59:0.0294118 60:0.0357143 61:0.0625 64:0.03125 65:0.166667 66:0.25 67:0.0833333 68:0.25 69:0.0735294 72:0.0735294 73:0.0392157 80:0.0261194 81:0.0909091 82:0.0277778 86:0.25 87:0.125 88:0.0347222 90:0.125 93:0.25 94:0.03125 95:0.0833333 96:0.047619 98:0.0441176 99:0.25 100:0.0357143 101:0.0714286 106:0.125 107:0.0833333 110:0.25 
1 0.0368482535388312 0 0.03516852107483726 1:0.666667 8:0.155537 9:0.272727 10:0.142857 13:0.0909091 14:0.129032 16:0.230769 18:0.2 19:0.189189 20:0.195652 21:0.272727 23:1 26:1 27:0.133333 29:0.5 30:0.214286 34:0.1 35:0.193548 37:1 38:0.142857 43:0.16 47:0.125 48:0.166667 49:0.0689655 50:0.25 51:0.454545 59:0.117647 60:0.142857 61:0.25 64:0.125 65:0.666667 66:1 67:0.333333 68:1 69:0.294118 72:0.294118 73:0.156863 80:0.104478 81:0.363636 82:0.111111 86:1 87:0.5 88:0.138889 90:0.5 93:1 94:0.125 95:0.333333 96:0.190476 98:0.176471 99:1 100:0.142857 101:0.285714 106:0.5 107:0.333333 110:1 
0.5156075240833284 0 0 0 1:0.333333 7:0.0333333 8:0.108622 9:0.136364 10:0.0714286 13:0.0454545 14:0.0645161 16:0.115385 18:0.1 19:0.108108 20:0.0978261 21:0.136364 23:0.5 26:0.5 27:0.0666667 29:0.25 30:0.107143 34:0.05 35:0.0967742 37:0.5 38:0.0714286 43:0.08 47:0.0625 48:0.0833333 49:0.0344828 50:0.125 51:0.227273 59:0.0588235 60:0.0714286 61:0.125 64:0.0625 65:0.333333 66:0.5 67:0.166667 68:0.5 69:0.147059 72:0.176471 73:0.0882353 80:0.0522388 81:0.181818 82:0.0555556 86:0.5 87:0.25 88:0.0833333 90:0.25 93:0.5 94:0.0625 95:0.166667 96:0.0952381 98:0.0882353 99:0.5 100:0.0714286 101:0.142857 106:0.25 107:0.166667 110:0.5 
1 0 0 0 1:0.111111 7:0.0111111 8:0.0356438 9:0.0454545 10:0.0285714 13:0.0151515 14:0.0215054 16:0.0384615 18:0.0333333 19:0.036036 20:0.0326087 21:0.0454545 23:0.166667 26:0.166667 27:0.0222222 29:0.0833333 30:0.0357143 34:0.0166667 35:0.0322581 37:0.166667 38:0.0238095 43:0.0266667 47:0.0208333 48:0.0277778 49:0.0114943 50:0.0416667 51:0.0757576 59:0.0196078 60:0.0238095 61:0.0416667 64:0.0208333 65:0.111111 66:0.166667 67:0.0555556 68:0.166667 69:0.0490196 72:0.0588235 73:0.0294118 80:0.0174129 81:0.0606061 82:0.0185185 86:0.166667 87:0.0833333 88:0.0277778 90:0.0833333 93:0.166667 94:0.0208333 95:0.0555556 96:0.031746 98:0.0294118 99:0.166667 100:0.0238095 101:0.047619 106:0.0833333 107:0.0555556 110:0.166667 
0.07680885770278764 0 0 0 1:0.333333 7:0.0333333 8:0.12426 9:0.136364 10:0.0857143 13:0.0454545 14:0.0645161 16:0.115385 18:0.1 19:0.108108 20:0.0978261 21:0.136364 23:0.5 26:0.5 27:0.0666667 29:0.25 30:0.107143 34:0.05 35:0.0967742 37:0.5 38:0.0714286 43:0.08 47:0.0625 48:0.0833333 49:0.0344828 50:0.125 51:0.227273 59:0.0735294 60:0.0714286 61:0.125 64:0.0625 65:0.333333 66:0.5 67:0.166667 68:0.5 69:0.147059 72:0.205882 73:0.0882353 80:0.0597015 81:0.181818 82:0.0555556 86:0.5 87:0.25 88:0.0833333 90:0.25 93:0.5 94:0.0625 95:0.166667 96:0.0952381 98:0.0882353 99:0.5 100:0.0714286 101:0.142857 106:0.25 107:0.166667 110:0.5 
1 0 0 0 1:0.0350877 7:0.00350877 8:0.0123237 9:0.0143541 10:0.00902256 13:0.00478469 14:0.00679117 16:0.0121457 18:0.0105263 19:0.0113798 20:0.0102975 21:0.0143541 23:0.0526316 26:0.0526316 27:0.0105263 29:0.0263158 30:0.0112782 34:0.00526316 35:0.0101868 37:0.0526316 38:0.0075188 43:0.0105263 47:0.00657895 48:0.00877193 49:0.00544465 50:0.0131579 51:0.0239234 59:0.00773994 60:0.0075188 61:0.0131579 64:0.00657895 65:0.0350877 66:0.0526316 67:0.0175439 68:0.0526316 69:0.0154799 72:0.0216718 73:0.00928793 80:0.00628437 81:0.0191388 82:0.00584795 86:0.0526316 87:0.0263158 88:0.0102339 89:0.00877193 90:0.0263158 93:0.0526316 94:0.00657895 95:0.0175439 96:0.0100251 98:0.00928793 99:0.0526316 100:0.0075188 101:0.0150376 106:0.0263158 107:0.0175439 110:0.0526316 
0.3507583769299772 0.1861484674982905 0 0 1:0.166667 7:0.0166667 8:0.0617075 9:0.0681818 10:0.0428571 13:0.0227273 14:0.0322581 16:0.0576923 18:0.05 19:0.0540541 20:0.0543478 21:0.0681818 23:0.25 26:0.25 27:0.05 29:0.125 30:0.0535714 34:0.025 35:0.0483871 37:0.25 38:0.0357143 43:0.05 47:0.03125 48:0.0416667 49:0.0258621 50:0.0625 51:0.113636 59:0.0367647 60:0.0357143 61:0.0625 64:0.03125 65:0.166667 66:0.25 67:0.0833333 68:0.25 69:0.0735294 72:0.102941 73:0.0441176 80:0.0373134 81:0.0909091 82:0.0277778 86:0.25 87:0.125 88:0.0486111 89:0.0416667 90:0.125 93:0.25 94:0.03125 95:0.0833333 96:0.047619 98:0.0441176 99:0.25 100:0.0357143 101:0.0714286 106:0.125 107:0.0833333 110:0.25 
1 0 0 0 1:0.222222 7:0.0222222 8:0.0825585 9:0.0909091 10:0.0571429 13:0.030303 14:0.0430108 16:0.0769231 18:0.0666667 19:0.0720721 20:0.0724638 21:0.0909091 23:0.333333 26:0.333333 27:0.0666667 29:0.166667 30:0.0714286 34:0.0333333 35:0.0645161 37:0.333333 38:0.047619 43:0.0666667 47:0.0416667 48:0.0555556 49:0.045977 50:0.0833333 51:0.151515 59:0.0490196 60:0.047619 61:0.0833333 64:0.0416667 65:0.222222 66:0.333333 67:0.111111 68:0.333333 69:0.0980392 72:0.137255 73:0.0588235 80:0.0497512 81:0.121212 82:0.037037 86:0.333333 87:0.166667 88:0.0648148 89:0.0555556 90:0.166667 93:0.333333 94:0.0416667 95:0.111111 96:0.0634921 98:0.0588235 99:0.333333 100:0.0714286 101:0.0952381 106:0.166667 107:0.111111 110:0.333333 
1 0 0 0 1:0.666667 7:0.0666667 8:0.249366 9:0.272727 10:0.171429 13:0.0909091 14:0.129032 16:0.230769 18:0.2 19:0.216216 20:0.217391 21:0.272727 23:1 26:1 27:0.2 29:0.5 30:0.214286 34:0.1 35:0.193548 37:1 38:0.142857 43:0.2 47:0.125 48:0.166667 49:0.137931 50:0.25 51:0.454545 59:0.147059 60:0.142857 61:0.25 64:0.125 65:0.666667 66:1 67:0.333333 68:1 69:0.294118 72:0.411765 73:0.176471 80:0.149254 81:0.363636 82:0.111111 86:1 87:0.5 88:0.194444 89:0.166667 90:0.5 93:1 94:0.125 95:0.333333 96:0.190476 98:0.176471 99:1 100:0.214286 101:0.285714 106:0.5 107:0.333333 110:1 
1 0 0 0 1:0.133333 7:0.0133333 8:0.049197 9:0.0545455 10:0.04 13:0.0181818 14:0.0258065 16:0.0461538 18:0.04 19:0.0432432 20:0.0434783 21:0.0545455 23:0.2 26:0.2 27:0.04 29:0.1 30:0.0428571 34:0.02 35:0.0387097 37:0.2 38:0.0285714 43:0.04 47:0.025 48:0.0333333 49:0.0275862 50:0.05 51:0.0909091 59:0.0294118 60:0.0285714 61:0.05 64:0.025 65:0.133333 66:0.2 67:0.0666667 68:0.2 69:0.0588235 72:0.0823529 73:0.0352941 80:0.0298507 81:0.0727273 82:0.0222222 86:0.2 87:0.1 88:0.0388889 89:0.0333333 90:0.1 93:0.2 94:0.025 95:0.0666667 96:0.0380952 98:0.0352941 99:0.2 100:0.0428571 101:0.0857143 106:0.1 107:0.0666667 110:0.2 
0.8396251551085092 0 0 0 1:0.047619 7:0.0047619 8:0.019261 9:0.0194805 10:0.0163265 13:0.00649351 14:0.0115207 16:0.0164835 18:0.0142857 19:0.0173745 20:0.015528 21:0.0194805 23:0.0714286 26:0.0714286 27:0.0142857 29:0.0357143 30:0.0153061 34:0.0142857 35:0.016129 37:0.0714286 38:0.0102041 43:0.0142857 47:0.00892857 48:0.0119048 49:0.00985222 50:0.0178571 51:0.0324675 59:0.0105042 60:0.0102041 61:0.0178571 64:0.00892857 65:0.047619 66:0.0714286 67:0.0238095 68:0.0714286 69:0.0210084 72:0.0294118 73:0.012605 80:0.010661 81:0.025974 82:0.00793651 86:0.0714286 87:0.0357143 88:0.0138889 89:0.0119048 90:0.0357143 93:0.0714286 94:0.00892857 95:0.0238095 96:0.0136054 98:0.012605 99:0.0714286 100:0.0153061 101:0.0306122 106:0.0357143 107:0.0238095 109:0.00714286 110:0.0714286 111:0.0142857 
1 0 0 0 1:0.333333 7:0.0333333 8:0.139899 9:0.136364 10:0.114286 13:0.0454545 14:0.0967742 16:0.115385 18:0.1 19:0.121622 20:0.108696 21:0.136364 23:0.5 26:0.5 27:0.1 29:0.25 30:0.107143 34:0.1 35:0.112903 37:0.5 38:0.0714286 43:0.1 47:0.0625 48:0.0833333 49:0.0689655 50:0.125 51:0.227273 59:0.0735294 60:0.142857 61:0.125 64:0.0625 65:0.333333 66:0.5 67:0.166667 68:0.5 69:0.147059 72:0.205882 73:0.0882353 80:0.0746269 81:0.181818 82:0.0555556 86:0.5 87:0.25 88:0.0972222 89:0.0833333 90:0.25 93:0.5 94:0.0625 95:0.166667 96:0.0952381 98:0.102941 99:0.5 100:0.107143 101:0.214286 106:0.25 107:0.166667 109:0.05 110:0.5 111:0.1 
1 1 0 0 1:0.0162602 7:0.00162602 8:0.00602025 9:0.00665188 10:0.00557491 13:0.00221729 14:0.00472069 16:0.00625391 18:0.00731707 19:0.00659196 20:0.00583245 21:0.00665188 23:0.0243902 25:0.00609756 26:0.0243902 27:0.00487805 29:0.0121951 30:0.00522648 34:0.00487805 35:0.00629426 37:0.0243902 38:0.00348432 43:0.00487805 46:0.00203252 47:0.00304878 48:0.00406504 49:0.00504626 50:0.00609756 51:0.0110865 59:0.0035868 60:0.00696864 61:0.00609756 64:0.00304878 65:0.0162602 66:0.0243902 67:0.00813008 68:0.0243902 69:0.010043 72:0.010043 73:0.0047824 80:0.00400437 81:0.00886918 82:0.00542005 86:0.0243902 87:0.0121951 88:0.00609756 89:0.00406504 90:0.0121951 93:0.0243902 94:0.00914634 95:0.00813008 96:0.0058072 98:0.00573888 99:0.0243902 100:0.00522648 101:0.010453 106:0.0121951 107:0.00813008 109:0.00243902 110:0.0243902 111:0.00487805 
1 0 0 0 1:0.333333 7:0.0333333 8:0.139899 9:0.136364 10:0.114286 13:0.0454545 14:0.0967742 16:0.128205 18:0.15 19:0.135135 20:0.119565 21:0.136364 23:0.5 25:0.125 26:0.5 27:0.1 29:0.25 30:0.107143 34:0.15 35:0.129032 37:0.5 38:0.0714286 43:0.1 46:0.0416667 47:0.0625 48:0.0833333 49:0.103448 50:0.125 51:0.227273 59:0.0882353 60:0.142857 61:0.125 64:0.0625 65:0.333333 66:0.5 67:0.166667 68:0.5 69:0.205882 72:0.205882 73:0.0980392 80:0.0820896 81:0.181818 82:0.111111 86:0.5 87:0.25 88:0.125 89:0.0833333 90:0.25 93:0.5 94:0.1875 95:0.166667 96:0.119048 98:0.117647 99:0.5 100:0.107143 101:0.214286 106:0.25 107:0.166667 109:0.05 110:0.5 111:0.1 
1 0 0 0 1:0.133333 7:0.0266667 8:0.0554522 9:0.0545455 10:0.0457143 13:0.0181818 14:0.0387097 16:0.0512821 18:0.06 19:0.0540541 20:0.0478261 21:0.0545455 23:0.2 25:0.05 26:0.2 27:0.04 29:0.1 30:0.0428571 34:0.06 35:0.0516129 37:0.2 38:0.0285714 43:0.04 46:0.0166667 47:0.025 48:0.0333333 49:0.0413793 50:0.05 51:0.0909091 59:0.0352941 60:0.0571429 61:0.05 64:0.025 65:0.133333 66:0.2 67:0.0666667 68:0.2 69:0.0823529 72:0.0823529 73:0.0392157 80:0.0328358 81:0.0727273 82:0.0444444 86:0.2 87:0.1 88:0.05 89:0.0333333 90:0.1 93:0.2 94:0.075 95:0.0666667 96:0.047619 98:0.0470588 99:0.2 100:0.0428571 101:0.0857143 106:0.1 107:0.0666667 109:0.02 110:0.2 111:0.04 
1 0 0 0 1:0.166667 7:0.0333333 8:0.0695266 9:0.0681818 10:0.0571429 13:0.0227273 14:0.0483871 16:0.0641026 18:0.075 19:0.0743243 20:0.0597826 21:0.0681818 23:0.25 25:0.0625 26:0.25 27:0.05 29:0.125 30:0.0535714 34:0.075 35:0.0645161 37:0.25 38:0.0357143 43:0.05 46:0.0208333 47:0.03125 48:0.0416667 49:0.0517241 50:0.0625 51:0.113636 59:0.0441176 60:0.0714286 61:0.0625 64:0.03125 65:0.166667 66:0.25 67:0.0833333 68:0.25 69:0.102941 72:0.102941 73:0.0490196 80:0.0410448 81:0.0909091 82:0.0555556 86:0.25 87:0.125 88:0.0625 89:0.0416667 90:0.125 93:0.25 94:0.09375 95:0.0833333 96:0.0595238 98:0.0661765 99:0.25 100:0.0535714 101:0.107143 106:0.125 107:0.0833333 109:0.025 110:0.25 111:0.05 
1 0 0 0 1:0.666667 7:0.2 8:0.280642 9:0.272727 10:0.228571 13:0.181818 14:0.258065 16:0.282051 18:0.3 19:0.297297 20:0.23913 21:0.454545 23:1 25:0.25 26:1 27:0.2 29:0.5 30:0.285714 34:0.3 35:0.258065 37:1 38:0.142857 43:0.28 46:0.166667 47:0.125 48:0.333333 49:0.241379 50:0.25 51:0.454545 58:0.5 59:0.176471 60:0.285714 61:0.25 64:0.125 65:0.666667 66:1 67:0.666667 68:1 69:0.411765 72:0.411765 73:0.27451 80:0.223881 81:0.363636 82:0.333333 86:1 87:0.5 88:0.25 89:0.166667 90:0.5 93:1 94:0.5 95:0.333333 96:0.238095 97:0.142857 98:0.264706 99:1 100:0.285714 101:0.428571 106:0.5 107:0.333333 109:0.2 110:1 111:0.2 
1 0 0 0 1:0.0289855 3:0.00869565 7:0.0115942 8:0.0154728 9:0.0118577 10:0.00993789 13:0.00790514 14:0.0140252 16:0.0122631 18:0.0130435 19:0.012926 20:0.010397 21:0.0237154 23:0.0434783 24:0.00869565 25:0.0108696 26:0.0434783 27:0.00869565 29:0.0217391 30:0.0124224 34:0.0130435 35:0.0112202 37:0.0434783 38:0.00621118 39:0.00869565 43:0.0156522 46:0.00724638 47:0.00543478 48:0.0144928 49:0.011994 50:0.0108696 51:0.0197628 58:0.0217391 59:0.00895141 60:0.0124224 61:0.0108696 64:0.0108696 65:0.0289855 66:0.0434783 67:0.0434783 68:0.0434783 69:0.0179028 71:0.0144928 72:0.0179028 73:0.0127877 80:0.00973394 81:0.0158103 82:0.0144928 86:0.0434783 87:0.0217391 88:0.0144928 89:0.00724638 90:0.0217391 93:0.0434783 94:0.0271739 95:0.0144928 96:0.010352 97:0.0124224 98:0.011509 99:0.0434783 100:0.015528 101:0.0186335 106:0.0217391 107:0.0144928 109:0.00869565 110:0.0434783 111:0.00869565 
0.8986518254892693 0 0 0 1:0.0952381 3:0.0285714 7:0.047619 8:0.0572395 9:0.038961 10:0.0367347 12:0.047619 13:0.025974 14:0.0506912 16:0.040293 18:0.0428571 19:0.046332 20:0.0341615 21:0.0779221 23:0.142857 24:0.0285714 25:0.0357143 26:0.142857 27:0.0380952 29:0.0714286 30:0.0408163 34:0.0571429 35:0.0368664 37:0.142857 38:0.0204082 39:0.0285714 43:0.0571429 46:0.0357143 47:0.0178571 48:0.047619 49:0.0394089 50:0.0357143 51:0.0649351 53:0.0357143 58:0.0714286 59:0.0462185 60:0.0408163 61:0.047619 64:0.0357143 65:0.0952381 66:0.142857 67:0.142857 68:0.142857 69:0.0588235 71:0.047619 72:0.0588235 73:0.0504202 80:0.0319829 81:0.0519481 82:0.047619 86:0.142857 87:0.0714286 88:0.047619 89:0.0238095 90:0.0892857 93:0.142857 94:0.0892857 95:0.047619 96:0.0340136 97:0.0408163 98:0.0462185 99:0.142857 100:0.0510204 101:0.0612245 106:0.0714286 107:0.047619 109:0.0428571 110:0.142857 111:0.0285714 
1 0 0 0 1:0.666667 3:0.2 7:0.333333 8:0.405748 9:0.272727 10:0.257143 12:0.333333 13:0.181818 14:0.354839 16:0.282051 18:0.3 19:0.324324 20:0.23913 21:0.545455 23:1 24:0.2 25:0.25 26:1 27:0.266667 29:0.5 30:0.285714 34:0.4 35:0.258065 37:1 38:0.142857 39:0.2 43:0.4 46:0.25 47:0.125 48:0.333333 49:0.275862 50:0.25 51:0.454545 53:0.25 58:0.5 59:0.323529 60:0.285714 61:0.333333 64:0.25 65:0.666667 66:1 67:1 68:1 69:0.411765 71:0.333333 72:0.411765 73:0.352941 80:0.223881 81:0.363636 82:0.333333 86:1 87:0.5 88:0.333333 89:0.166667 90:0.625 93:1 94:0.625 95:0.333333 96:0.238095 97:0.285714 98:0.323529 99:1 100:0.357143 101:0.428571 106:0.5 107:0.333333 109:0.3 110:1 111:0.2 
0.8194434976062277 0 0 0 1:0.0666667 3:0.02 7:0.0333333 8:0.039814 9:0.0272727 10:0.0257143 12:0.0333333 13:0.0181818 14:0.0354839 16:0.0282051 18:0.03 19:0.0324324 20:0.026087 21:0.0545455 23:0.1 24:0.02 25:0.025 26:0.1 27:0.0266667 29:0.05 30:0.0285714 34:0.04 35:0.0258065 37:0.1 38:0.0214286 39:0.02 43:0.04 46:0.025 47:0.0125 48:0.0333333 49:0.0275862 50:0.025 51:0.0454545 53:0.025 58:0.05 59:0.0323529 60:0.0285714 61:0.0333333 64:0.025 65:0.0666667 66:0.1 67:0.1 68:0.1 69:0.0411765 71:0.0333333 72:0.0411765 73:0.0352941 80:0.0223881 81:0.0363636 82:0.0333333 86:0.1 87:0.05 88:0.0333333 89:0.0166667 90:0.0625 93:0.1 94:0.0625 95:0.0333333 96:0.0238095 97:0.0285714 98:0.0323529 99:0.1 100:0.0357143 101:0.0428571 106:0.05 107:0.0333333 109:0.03 110:0.1 111:0.02 
1 0.3741531127383869 0 0 1:0.333333 3:0.1 7:0.166667 8:0.202451 9:0.136364 10:0.128571 12:0.166667 13:0.0909091 14:0.177419 16:0.141026 18:0.15 19:0.162162 20:0.130435 21:0.272727 23:0.5 24:0.1 25:0.125 26:0.5 27:0.133333 29:0.25 30:0.142857 34:0.2 35:0.129032 37:0.5 38:0.107143 39:0.1 43:0.2 46:0.125 47:0.0625 48:0.166667 49:0.137931 50:0.125 51:0.227273 53:0.125 58:0.25 59:0.161765 60:0.142857 61:0.166667 64:0.125 65:0.333333 66:0.5 67:0.5 68:0.5 69:0.205882 71:0.166667 72:0.205882 73:0.176471 80:0.11194 81:0.181818 82:0.166667 86:0.5 87:0.25 88:0.166667 89:0.0833333 90:0.3125 93:0.5 94:0.3125 95:0.166667 96:0.119048 97:0.142857 98:0.161765 99:0.5 100:0.178571 101:0.214286 106:0.25 107:0.166667 109:0.15 110:0.5 111:0.1 
0.9075374635253651 0 0 0.2340385816215604 1:0.666667 3:0.2 7:0.333333 8:0.405748 9:0.272727 10:0.257143 12:0.333333 13:0.181818 14:0.354839 16:0.282051 18:0.3 19:0.378378 20:0.26087 21:0.545455 23:1 24:0.2 25:0.25 26:1 27:0.266667 29:0.5 30:0.357143 34:0.4 35:0.290323 37:1 38:0.214286 39:0.2 43:0.4 46:0.25 47:0.25 48:0.333333 49:0.310345 50:0.25 51:0.545455 53:0.25 58:0.5 59:0.323529 60:0.285714 61:0.333333 64:0.25 65:0.666667 66:1 67:1 68:1 69:0.411765 70:0.5 71:0.333333 72:0.411765 73:0.352941 80:0.223881 81:0.363636 82:0.333333 86:1 87:0.5 88:0.333333 89:0.166667 90:0.625 93:1 94:0.625 95:0.333333 96:0.285714 97:0.285714 98:0.323529 99:1 100:0.357143 101:0.428571 106:0.5 107:0.333333 109:0.3 110:1 111:0.2 
1 0.7893407469777554 0 0.7046239178309257 1:0.666667 3:0.4 7:0.333333 8:0.405748 9:0.272727 10:0.285714 12:0.333333 13:0.181818 14:0.387097 16:0.307692 18:0.3 19:0.378378 20:0.26087 21:0.636364 23:1 24:0.2 25:0.25 26:1 27:0.333333 29:0.5 30:0.357143 34:0.4 35:0.290323 37:1 38:0.357143 39:0.2 42:0.142857 43:0.4 44:0.5 46:0.25 47:0.25 48:0.333333 49:0.413793 50:0.25 51:0.545455 53:0.25 58:0.5 59:0.323529 60:0.285714 61:0.333333 64:0.25 65:0.666667 66:1 67:1 68:1 69:0.411765 70:0.5 71:0.333333 72:0.411765 73:0.352941 80:0.223881 81:0.363636 82:0.333333 86:1 87:0.5 88:0.333333 89:0.166667 90:0.625 93:1 94:0.625 95:0.333333 96:0.285714 97:0.428571 98:0.352941 99:1 100:0.357143 101:0.428571 106:0.5 107:0.333333 109:0.3 110:1 111:0.2 
0.0963498647748226 1 0 0.03978719274175595 1:0.333333 3:0.2 7:0.2 8:0.21809 9:0.136364 10:0.171429 12:0.166667 13:0.0909091 14:0.209677 16:0.179487 18:0.15 19:0.189189 20:0.152174 21:0.363636 23:0.5 24:0.1 25:0.125 26:0.5 27:0.166667 29:0.25 30:0.178571 34:0.2 35:0.145161 37:0.5 38:0.178571 39:0.1 42:0.0714286 43:0.22 44:0.25 46:0.166667 47:0.125 48:0.166667 49:0.206897 50:0.125 51:0.272727 53:0.125 58:0.25 59:0.161765 60:0.142857 61:0.166667 64:0.125 65:0.333333 66:0.5 67:0.5 68:0.5 69:0.235294 70:0.25 71:0.166667 72:0.205882 73:0.196078 80:0.141791 81:0.181818 82:0.166667 86:0.5 87:0.25 88:0.166667 89:0.0833333 90:0.3125 93:0.5 94:0.3125 95:0.166667 96:0.142857 97:0.214286 98:0.191176 99:0.5 100:0.214286 101:0.214286 106:0.25 107:0.166667 109:0.15 110:0.5 111:0.1 
0 0.2688628174719386 0 0 1:0.222222 3:0.133333 7:0.133333 8:0.145111 9:0.0909091 10:0.114286 12:0.111111 13:0.0606061 14:0.139785 16:0.119658 18:0.1 19:0.126126 20:0.101449 21:0.242424 23:0.333333 24:0.0666667 25:0.0833333 26:0.333333 27:0.111111 29:0.166667 30:0.119048 34:0.133333 35:0.0967742 37:0.333333 38:0.119048 39:0.0666667 42:0.047619 43:0.146667 44:0.166667 46:0.111111 47:0.0833333 48:0.111111 49:0.137931 50:0.0833333 51:0.181818 53:0.0833333 58:0.166667 59:0.107843 60:0.0952381 61:0.111111 64:0.0833333 65:0.222222 66:0.333333 67:0.333333 68:0.333333 69:0.156863 70:0.166667 71:0.111111 72:0.137255 73:0.130719 80:0.0945274 81:0.121212 82:0.111111 86:0.333333 87:0.166667 88:0.111111 89:0.0555556 90:0.208333 93:0.333333 94:0.208333 95:0.111111 96:0.0952381 97:0.142857 98:0.127451 99:0.333333 100:0.142857 101:0.142857 106:0.166667 107:0.111111 109:0.1 110:0.333333 111:0.0666667 
0.755317493256512 0.8752325168912056 0 0 1:0.222222 3:0.133333 7:0.133333 8:0.145111 9:0.0909091 10:0.114286 12:0.111111 13:0.0606061 14:0.150538 16:0.119658 18:0.1 19:0.126126 20:0.115942 21:0.242424 23:0.333333 24:0.0666667 25:0.0833333 26:0.333333 27:0.111111 29:0.166667 30:0.119048 34:0.133333 35:0.0967742 37:0.333333 38:0.119048 39:0.0666667 42:0.047619 43:0.146667 44:0.166667 46:0.111111 47:0.0833333 48:0.111111 49:0.137931 50:0.0833333 51:0.181818 53:0.0833333 58:0.166667 59:0.107843 60:0.0952381 61:0.111111 64:0.0833333 65:0.222222 66:0.333333 67:0.333333 68:0.333333 69:0.156863 70:0.166667 71:0.111111 72:0.137255 73:0.130719 80:0.104478 81:0.121212 82:0.111111 86:0.333333 87:0.166667 88:0.111111 89:0.111111 90:0.208333 93:0.333333 94:0.208333 95:0.111111 96:0.111111 97:0.142857 98:0.127451 99:0.333333 100:0.166667 101:0.142857 106:0.166667 107:0.111111 109:0.1 110:0.333333 111:0.0666667 
1 1 0 0 1:0.666667 3:0.4 7:0.4 8:0.437025 9:0.272727 10:0.371429 12:0.333333 13:0.181818 14:0.483871 16:0.384615 18:0.3 19:0.378378 20:0.347826 21:0.727273 23:1 24:0.2 25:0.25 26:1 27:0.333333 29:0.5 30:0.357143 34:0.4 35:0.322581 37:1 38:0.357143 39:0.2 42:0.142857 43:0.44 44:0.5 46:0.333333 47:0.25 48:0.333333 49:0.448276 50:0.25 51:0.545455 53:0.25 58:0.5 59:0.323529 60:0.285714 61:0.333333 64:0.25 65:0.666667 66:1 67:1 68:1 69:0.470588 70:0.5 71:0.333333 72:0.470588 73:0.392157 80:0.313433 81:0.363636 82:0.333333 86:1 87:0.5 88:0.333333 89:0.333333 90:0.625 93:1 94:0.625 95:0.333333 96:0.333333 97:0.428571 98:0.411765 99:1 100:0.5 101:0.428571 106:0.5 107:0.333333 109:0.3 110:1 111:0.2 
1 0.05983113376577033 0 0 1:0.111111 3:0.0666667 7:0.0666667 8:0.0773457 9:0.0454545 10:0.0619048 12:0.0555556 13:0.030303 14:0.0806452 16:0.0641026 18:0.05 19:0.0630631 20:0.057971 21:0.121212 23:0.166667 24:0.0333333 25:0.0416667 26:0.166667 27:0.0555556 29:0.0833333 30:0.0595238 34:0.0666667 35:0.0537634 37:0.166667 38:0.0595238 39:0.0333333 42:0.0238095 43:0.0733333 44:0.0833333 46:0.0555556 47:0.0416667 48:0.0555556 49:0.0747126 50:0.0416667 51:0.0909091 53:0.0416667 58:0.0833333 59:0.0539216 60:0.047619 61:0.0555556 64:0.0416667 65:0.111111 66:0.166667 67:0.166667 68:0.166667 69:0.0784314 70:0.0833333 71:0.0555556 72:0.0784314 73:0.0686275 80:0.0522388 81:0.0606061 82:0.0555556 86:0.166667 87:0.0833333 88:0.0555556 89:0.0555556 90:0.104167 93:0.166667 94:0.104167 95:0.0555556 96:0.0555556 97:0.0714286 98:0.0686275 99:0.166667 100:0.0952381 101:0.0714286 106:0.0833333 107:0.0555556 109:0.05 110:0.166667 111:0.0333333 
1 0 0 0 1:0.133333 3:0.08 7:0.08 8:0.0929839 9:0.0545455 10:0.0742857 12:0.0666667 13:0.0363636 14:0.0967742 16:0.0769231 18:0.06 19:0.0810811 20:0.0695652 21:0.145455 23:0.2 24:0.04 25:0.05 26:0.2 27:0.0666667 29:0.1 30:0.0714286 34:0.08 35:0.0774194 37:0.2 38:0.0714286 39:0.04 42:0.0285714 43:0.088 44:0.1 46:0.0666667 47:0.05 48:0.0666667 49:0.0896552 50:0.05 51:0.127273 53:0.05 58:0.1 59:0.0647059 60:0.0571429 61:0.0666667 64:0.05 65:0.133333 66:0.2 67:0.2 68:0.2 69:0.0941176 70:0.1 71:0.0666667 72:0.0941176 73:0.0862745 80:0.0626866 81:0.0727273 82:0.0666667 86:0.2 87:0.1 88:0.0666667 89:0.0666667 90:0.125 93:0.2 94:0.125 95:0.0666667 96:0.0666667 97:0.0857143 98:0.0882353 99:0.2 100:0.114286 101:0.0857143 106:0.1 107:0.0666667 109:0.06 110:0.2 111:0.04 
1 0.5238905029813297 0 0 1:0.166667 3:0.1 7:0.1 8:0.12426 9:0.0681818 10:0.0928571 12:0.0833333 13:0.0454545 14:0.120968 16:0.0961538 18:0.075 19:0.101351 20:0.0869565 21:0.181818 23:0.25 24:0.05 25:0.0625 26:0.25 27:0.0833333 29:0.125 30:0.0892857 34:0.1 35:0.0967742 37:0.25 38:0.0892857 39:0.05 42:0.0357143 43:0.11 44:0.125 46:0.0833333 47:0.0625 48:0.0833333 49:0.112069 50:0.0625 51:0.159091 53:0.0625 58:0.125 59:0.0808824 60:0.0714286 61:0.0833333 64:0.0625 65:0.166667 66:0.25 67:0.25 68:0.25 69:0.117647 70:0.125 71:0.0833333 72:0.117647 73:0.107843 80:0.0783582 81:0.0909091 82:0.0833333 86:0.25 87:0.125 88:0.0833333 89:0.0833333 90:0.15625 93:0.25 94:0.15625 95:0.0833333 96:0.0833333 97:0.107143 98:0.110294 99:0.25 100:0.142857 101:0.107143 106:0.125 107:0.0833333 109:0.075 110:0.25 111:0.05 
1 1 0 0 1:0.010101 3:0.00606061 7:0.00606061 8:0.00673685 9:0.00413223 10:0.00606061 12:0.00505051 13:0.00275482 14:0.00733138 16:0.00582751 18:0.00454545 19:0.00614251 20:0.00527009 21:0.0110193 23:0.0151515 24:0.0030303 25:0.00378788 26:0.0151515 27:0.00505051 29:0.00757576 30:0.00541126 34:0.00606061 35:0.0058651 37:0.0151515 38:0.00541126 39:0.0030303 42:0.0021645 43:0.00666667 44:0.00757576 46:0.00505051 47:0.00378788 48:0.00505051 49:0.00731452 50:0.00378788 51:0.00964187 53:0.00378788 58:0.00757576 59:0.00490196 60:0.004329 61:0.00505051 64:0.00378788 65:0.010101 66:0.0151515 67:0.0151515 68:0.0151515 69:0.00713012 70:0.00757576 71:0.00505051 72:0.00802139 73:0.00683304 80:0.00474898 81:0.00550964 82:0.00505051 86:0.0151515 87:0.00757576 88:0.00505051 89:0.00505051 90:0.0094697 93:0.0151515 94:0.0094697 95:0.00505051 96:0.00505051 97:0.00649351 98:0.00668449 99:0.0151515 100:0.00865801 101:0.00649351 106:0.00757576 107:0.00505051 109:0.00454545 110:0.0151515 111:0.0030303 
1 0 0 0 1:0.0277778 3:0.0166667 5:0.0416667 7:0.0166667 8:0.0213088 9:0.0113636 10:0.0166667 12:0.0138889 13:0.00757576 14:0.0201613 16:0.0160256 18:0.0125 19:0.0168919 20:0.0144928 21:0.030303 23:0.0416667 24:0.025 25:0.0104167 26:0.0416667 27:0.0166667 29:0.0208333 30:0.014881 34:0.0166667 35:0.016129 37:0.0416667 38:0.014881 39:0.00833333 41:0.0416667 42:0.00595238 43:0.0183333 44:0.0208333 46:0.0138889 47:0.0104167 48:0.0208333 49:0.0215517 50:0.0104167 51:0.0265152 53:0.0104167 58:0.0208333 59:0.0134804 60:0.0119048 61:0.0173611 64:0.0104167 65:0.0277778 66:0.0416667 67:0.0416667 68:0.0416667 69:0.0196078 70:0.0208333 71:0.0138889 72:0.0220588 73:0.0204248 75:0.0416667 80:0.0136816 81:0.0151515 82:0.0138889 85:0.0416667 86:0.0416667 87:0.0208333 88:0.0138889 89:0.0138889 90:0.0260417 93:0.0416667 94:0.0260417 95:0.0138889 96:0.0138889 97:0.0178571 98:0.0183824 99:0.0416667 100:0.0238095 101:0.0178571 106:0.0208333 107:0.0138889 109:0.0125 110:0.0416667 111:0.00833333 
1 1 0.08714447286141065 0 1:0.222222 3:0.133333 5:0.333333 7:0.155556 8:0.186813 9:0.0909091 10:0.133333 12:0.111111 13:0.0606061 14:0.172043 16:0.128205 18:0.1 19:0.135135 20:0.115942 21:0.242424 23:0.333333 24:0.2 25:0.166667 26:0.333333 27:0.133333 29:0.166667 30:0.119048 34:0.133333 35:0.129032 37:0.333333 38:0.119048 39:0.0666667 41:0.333333 42:0.047619 43:0.146667 44:0.166667 46:0.138889 47:0.0833333 48:0.166667 49:0.172414 50:0.0833333 51:0.212121 53:0.0833333 58:0.166667 59:0.107843 60:0.0952381 61:0.166667 64:0.0833333 65:0.222222 66:0.333333 67:0.333333 68:0.333333 69:0.156863 70:0.166667 71:0.111111 72:0.176471 73:0.163399 75:0.333333 80:0.109453 81:0.121212 82:0.111111 85:0.333333 86:0.333333 87:0.166667 88:0.111111 89:0.111111 90:0.208333 93:0.333333 94:0.208333 95:0.111111 96:0.111111 97:0.142857 98:0.147059 99:0.333333 100:0.190476 101:0.142857 106:0.166667 107:0.111111 109:0.1 110:0.333333 111:0.0666667 
1 0 0 0 1:0.030303 3:0.0181818 5:0.0454545 7:0.0212121 8:0.0247445 9:0.0123967 10:0.0194805 12:0.0151515 13:0.00826446 14:0.0234604 16:0.0174825 18:0.0136364 19:0.0184275 20:0.0158103 21:0.0330579 23:0.0454545 24:0.0272727 25:0.0227273 26:0.0454545 27:0.0181818 29:0.0227273 30:0.0162338 34:0.0181818 35:0.0175953 37:0.0454545 38:0.0162338 39:0.00909091 41:0.0454545 42:0.00649351 43:0.02 44:0.0227273 46:0.0189394 47:0.0113636 48:0.0227273 49:0.0250784 50:0.0113636 51:0.0289256 53:0.0113636 58:0.0227273 59:0.0147059 60:0.012987 61:0.0227273 64:0.0113636 65:0.030303 66:0.0454545 67:0.0454545 68:0.0454545 69:0.0213904 70:0.0227273 71:0.0151515 72:0.0240642 73:0.0240642 75:0.0454545 80:0.0149254 81:0.0206612 82:0.0151515 85:0.0454545 86:0.0454545 87:0.0227273 88:0.0151515 89:0.0151515 90:0.0284091 93:0.0454545 94:0.0284091 95:0.0151515 96:0.0151515 97:0.0194805 98:0.0200535 99:0.0454545 100:0.025974 101:0.0194805 106:0.0227273 107:0.0151515 109:0.0136364 110:0.0454545 111:0.00909091 
1 0 0 0 1:0.031746 3:0.0190476 5:0.047619 7:0.0222222 8:0.025963 9:0.012987 10:0.0204082 12:0.015873 13:0.00865801 14:0.0245776 16:0.019536 18:0.0142857 19:0.019305 20:0.0186335 21:0.034632 23:0.047619 24:0.0285714 25:0.0238095 26:0.047619 27:0.0190476 29:0.0238095 30:0.0204082 34:0.0190476 35:0.0199693 37:0.047619 38:0.0170068 39:0.00952381 41:0.047619 42:0.00680272 43:0.0228571 44:0.0238095 46:0.0198413 47:0.0119048 48:0.0238095 49:0.0262726 50:0.0119048 51:0.030303 53:0.0119048 58:0.0238095 59:0.0154062 60:0.0136054 61:0.0238095 64:0.0119048 65:0.031746 66:0.047619 67:0.047619 68:0.047619 69:0.022409 70:0.0238095 71:0.015873 72:0.0252101 73:0.0252101 75:0.047619 80:0.0177683 81:0.021645 82:0.015873 85:0.047619 86:0.047619 87:0.0238095 88:0.0185185 89:0.015873 90:0.0297619 93:0.047619 94:0.0297619 95:0.015873 96:0.015873 97:0.0204082 98:0.022409 99:0.047619 100:0.0272109 101:0.0204082 106:0.0238095 107:0.015873 109:0.0142857 110:0.047619 111:0.00952381 
1 0 0 0 1:0.0555556 3:0.0333333 5:0.0833333 7:0.0388889 8:0.0460693 9:0.0227273 10:0.0404762 12:0.0277778 13:0.0151515 14:0.0430108 16:0.034188 18:0.025 19:0.0337838 20:0.0326087 21:0.0606061 23:0.0833333 24:0.05 25:0.0416667 26:0.0833333 27:0.0333333 29:0.0833333 30:0.0357143 34:0.0333333 35:0.0349462 37:0.0833333 38:0.0297619 39:0.0166667 41:0.0833333 42:0.0119048 43:0.04 44:0.0416667 46:0.0347222 47:0.0208333 48:0.0416667 49:0.045977 50:0.0208333 51:0.0530303 53:0.0208333 58:0.0416667 59:0.0269608 60:0.0238095 61:0.0416667 64:0.0208333 65:0.0555556 66:0.0833333 67:0.0833333 68:0.0833333 69:0.0392157 70:0.0416667 71:0.0277778 72:0.0490196 73:0.0457516 75:0.0833333 80:0.0310945 81:0.0378788 82:0.0277778 85:0.0833333 86:0.0833333 87:0.0416667 88:0.0324074 89:0.0277778 90:0.0520833 93:0.0833333 94:0.0520833 95:0.0277778 96:0.0277778 97:0.0357143 98:0.0392157 99:0.0833333 100:0.047619 101:0.0357143 106:0.0416667 107:0.0277778 109:0.025 110:0.0833333 111:0.0166667 
1 0 0 0 1:0.666667 3:0.4 5:1 7:0.466667 8:0.56213 9:0.272727 10:0.485714 12:0.333333 13:0.181818 14:0.516129 16:0.410256 18:0.3 19:0.405405 20:0.391304 21:0.727273 23:1 24:0.6 25:0.5 26:1 27:0.4 29:1 30:0.428571 34:0.4 35:0.419355 37:1 38:0.357143 39:0.2 41:1 42:0.142857 43:0.48 44:0.5 46:0.416667 47:0.25 48:0.5 49:0.551724 50:0.25 51:0.636364 53:0.25 58:0.5 59:0.323529 60:0.285714 61:0.5 64:0.25 65:0.666667 66:1 67:1 68:1 69:0.470588 70:0.5 71:0.333333 72:0.588235 73:0.54902 75:1 80:0.373134 81:0.454545 82:0.333333 85:1 86:1 87:0.5 88:0.388889 89:0.333333 90:0.625 93:1 94:0.625 95:0.333333 96:0.333333 97:0.428571 98:0.470588 99:1 100:0.571429 101:0.428571 106:0.5 107:0.333333 109:0.3 110:1 111:0.2 
1 1 0 0 1:0.222222 3:0.133333 5:0.333333 7:0.155556 8:0.186813 9:0.0909091 10:0.161905 12:0.111111 13:0.0909091 14:0.172043 16:0.136752 18:0.133333 19:0.153153 20:0.137681 21:0.242424 23:0.333333 24:0.2 25:0.166667 26:0.333333 27:0.133333 29:0.333333 30:0.142857 32:0.111111 34:0.133333 35:0.139785 37:0.333333 38:0.119048 39:0.0666667 41:0.333333 42:0.047619 43:0.16 44:0.166667 46:0.138889 47:0.0833333 48:0.166667 49:0.183908 50:0.0833333 51:0.212121 53:0.0833333 58:0.166667 59:0.137255 60:0.0952381 61:0.166667 64:0.0833333 65:0.222222 66:0.333333 67:0.333333 68:0.333333 69:0.156863 70:0.25 71:0.111111 72:0.196078 73:0.183007 75:0.333333 80:0.129353 81:0.151515 82:0.111111 85:0.333333 86:0.333333 87:0.166667 88:0.148148 89:0.111111 90:0.208333 93:0.333333 94:0.208333 95:0.111111 96:0.111111 97:0.142857 98:0.166667 99:0.333333 100:0.190476 101:0.190476 106:0.166667 107:0.111111 109:0.1 110:0.333333 111:0.0666667 
1 0 0 0 1:0.0416667 3:0.025 5:0.0625 7:0.0291667 8:0.0343407 9:0.0170455 10:0.0321429 12:0.0208333 13:0.0170455 14:0.0322581 16:0.0272436 18:0.025 19:0.0304054 20:0.0258152 21:0.0454545 23:0.0625 24:0.0375 25:0.03125 26:0.0625 27:0.025 29:0.0625 30:0.0267857 32:0.0208333 34:0.025 35:0.0262097 37:0.0625 38:0.0223214 39:0.0125 41:0.0625 42:0.00892857 43:0.03 44:0.03125 46:0.0260417 47:0.015625 48:0.03125 49:0.0344828 50:0.015625 51:0.0397727 53:0.015625 58:0.03125 59:0.0275735 60:0.0178571 61:0.03125 64:0.015625 65:0.0416667 66:0.0625 67:0.0625 68:0.0625 69:0.0294118 70:0.046875 71:0.0208333 72:0.0367647 73:0.0343137 75:0.0625 80:0.0242537 81:0.0284091 82:0.0208333 85:0.0625 86:0.0625 87:0.03125 88:0.0277778 89:0.0208333 90:0.0390625 93:0.0625 94:0.0390625 95:0.0208333 96:0.0238095 97:0.0267857 98:0.03125 99:0.0625 100:0.0357143 101:0.0357143 106:0.03125 107:0.0208333 109:0.01875 110:0.0625 111:0.0125 
1 0 0 0 1:0.166667 3:0.1 5:0.25 7:0.116667 8:0.139899 9:0.0681818 10:0.128571 12:0.0833333 13:0.0681818 14:0.129032 16:0.108974 18:0.1 19:0.121622 20:0.103261 21:0.181818 23:0.25 24:0.15 25:0.125 26:0.25 27:0.1 29:0.25 30:0.107143 32:0.0833333 34:0.1 35:0.104839 37:0.25 38:0.0892857 39:0.05 41:0.25 42:0.0357143 43:0.12 44:0.125 46:0.104167 47:0.0625 48:0.125 49:0.146552 50:0.0625 51:0.159091 53:0.0625 58:0.125 59:0.117647 60:0.0714286 61:0.125 64:0.0625 65:0.166667 66:0.25 67:0.25 68:0.25 69:0.117647 70:0.1875 71:0.0833333 72:0.147059 73:0.137255 75:0.25 80:0.0970149 81:0.113636 82:0.0833333 85:0.25 86:0.25 87:0.125 88:0.111111 89:0.0833333 90:0.15625 93:0.25 94:0.15625 95:0.0833333 96:0.107143 97:0.107143 98:0.125 99:0.25 100:0.142857 101:0.142857 106:0.125 107:0.0833333 109:0.075 110:0.25 111:0.05 
1 0 0 0 1:0.0666667 3:0.04 5:0.1 7:0.0466667 8:0.0554522 9:0.0363636 10:0.0514286 12:0.0333333 13:0.0272727 14:0.0516129 16:0.0435897 18:0.04 19:0.0486486 20:0.0456522 21:0.0727273 23:0.1 24:0.06 25:0.05 26:0.1 27:0.04 29:0.1 30:0.0428571 32:0.0333333 34:0.04 35:0.0419355 37:0.1 38:0.0357143 39:0.02 41:0.1 42:0.0142857 43:0.048 44:0.05 46:0.0416667 47:0.025 48:0.05 49:0.0586207 50:0.025 51:0.0636364 53:0.025 58:0.05 59:0.0470588 60:0.0285714 61:0.05 64:0.025 65:0.0666667 66:0.1 67:0.1 68:0.1 69:0.0470588 70:0.075 71:0.0333333 72:0.0588235 73:0.054902 75:0.1 80:0.0402985 81:0.0454545 82:0.0333333 85:0.1 86:0.1 87:0.05 88:0.0444444 89:0.0333333 90:0.0625 93:0.1 94:0.0625 95:0.0333333 96:0.0428571 97:0.0428571 98:0.05 99:0.1 100:0.0571429 101:0.0571429 106:0.05 107:0.0333333 109:0.03 110:0.1 111:0.02 
1 0 0 0 1:0.0222222 3:0.0133333 5:0.0333333 7:0.0155556 8:0.0179205 9:0.0121212 10:0.0171429 12:0.0111111 13:0.00909091 14:0.0172043 16:0.0153846 18:0.0133333 19:0.0162162 20:0.0152174 21:0.0242424 23:0.0333333 24:0.02 25:0.0166667 26:0.0333333 27:0.0133333 29:0.0333333 30:0.0142857 32:0.0111111 34:0.0133333 35:0.0150538 37:0.0333333 38:0.0119048 39:0.00666667 41:0.0333333 42:0.0047619 43:0.0173333 44:0.0166667 46:0.0138889 47:0.00833333 48:0.0166667 49:0.0195402 50:0.00833333 51:0.0212121 53:0.00833333 58:0.0166667 59:0.0176471 60:0.00952381 61:0.0166667 64:0.00833333 65:0.0222222 66:0.0333333 67:0.0333333 68:0.0333333 69:0.0176471 70:0.025 71:0.0111111 72:0.0196078 73:0.0196078 75:0.0333333 80:0.0134328 81:0.0151515 82:0.0111111 85:0.0333333 86:0.0333333 87:0.0166667 88:0.0157407 89:0.0111111 90:0.0208333 93:0.0333333 94:0.0208333 95:0.0111111 96:0.0142857 97:0.0142857 98:0.0166667 99:0.0333333 100:0.0190476 101:0.0190476 106:0.0166667 107:0.0111111 109:0.01 110:0.0333333 111:0.00666667 
1 0 0 0 1:0.222222 3:0.133333 5:0.333333 7:0.155556 8:0.186813 9:0.121212 10:0.171429 12:0.111111 13:0.0909091 14:0.172043 16:0.153846 18:0.133333 19:0.162162 20:0.152174 21:0.242424 23:0.333333 24:0.2 25:0.166667 26:0.333333 27:0.133333 29:0.333333 30:0.142857 32:0.111111 34:0.133333 35:0.150538 37:0.333333 38:0.119048 39:0.0666667 41:0.333333 42:0.047619 43:0.173333 44:0.166667 46:0.138889 47:0.0833333 48:0.166667 49:0.195402 50:0.0833333 51:0.212121 53:0.0833333 58:0.166667 59:0.176471 60:0.0952381 61:0.166667 64:0.0833333 65:0.222222 66:0.333333 67:0.333333 68:0.333333 69:0.176471 70:0.25 71:0.111111 72:0.196078 73:0.196078 75:0.333333 80:0.134328 81:0.151515 82:0.111111 85:0.333333 86:0.333333 87:0.166667 88:0.157407 89:0.111111 90:0.208333 93:0.333333 94:0.208333 95:0.111111 96:0.142857 97:0.142857 98:0.166667 99:0.333333 100:0.190476 101:0.190476 106:0.166667 107:0.111111 109:0.1 110:0.333333 111:0.0666667 
1 0 0 0 1:0.222222 3:0.133333 5:0.333333 7:0.155556 8:0.186813 9:0.121212 10:0.171429 12:0.111111 13:0.0909091 14:0.172043 16:0.162393 18:0.133333 19:0.162162 20:0.152174 21:0.242424 23:0.333333 24:0.2 25:0.166667 26:0.333333 27:0.133333 29:0.333333 30:0.142857 32:0.111111 34:0.133333 35:0.150538 37:0.333333 38:0.119048 39:0.0666667 41:0.333333 42:0.047619 43:0.173333 44:0.166667 46:0.138889 47:0.0833333 48:0.166667 49:0.195402 50:0.0833333 51:0.212121 53:0.0833333 58:0.166667 59:0.176471 60:0.0952381 61:0.166667 64:0.0833333 65:0.222222 66:0.333333 67:0.333333 68:0.333333 69:0.176471 70:0.25 71:0.111111 72:0.196078 73:0.196078 75:0.333333 80:0.134328 81:0.151515 82:0.111111 85:0.333333 86:0.333333 87:0.166667 88:0.157407 89:0.111111 90:0.208333 93:0.333333 94:0.208333 95:0.111111 96:0.142857 97:0.142857 98:0.166667 99:0.333333 100:0.190476 101:0.190476 106:0.166667 107:0.111111 109:0.1 110:0.333333 111:0.0666667 
1 0 0 0 1:0.333333 3:0.2 5:0.5 7:0.233333 8:0.280642 9:0.181818 10:0.257143 12:0.166667 13:0.136364 14:0.258065 16:0.24359 18:0.2 19:0.243243 20:0.228261 21:0.363636 23:0.5 24:0.3 25:0.25 26:0.5 27:0.2 29:0.5 30:0.214286 32:0.166667 34:0.2 35:0.225806 37:0.5 38:0.178571 39:0.1 41:0.5 42:0.0714286 43:0.26 44:0.25 46:0.208333 47:0.125 48:0.25 49:0.293103 50:0.125 51:0.318182 53:0.125 58:0.25 59:0.264706 60:0.142857 61:0.25 64:0.125 65:0.333333 66:0.5 67:0.5 68:0.5 69:0.264706 70:0.375 71:0.166667 72:0.294118 73:0.294118 75:0.5 80:0.201493 81:0.227273 82:0.166667 85:0.5 86:0.5 87:0.25 88:0.236111 89:0.166667 90:0.3125 93:0.5 94:0.3125 95:0.166667 96:0.214286 97:0.214286 98:0.25 99:0.5 100:0.285714 101:0.285714 106:0.25 107:0.166667 109:0.15 110:0.5 111:0.1 
1 0 0 0 1:0.166667 3:0.1 5:0.25 7:0.116667 8:0.139899 9:0.0909091 10:0.128571 12:0.0833333 13:0.0681818 14:0.129032 16:0.121795 18:0.1 19:0.121622 20:0.11413 21:0.181818 23:0.25 24:0.15 25:0.125 26:0.25 27:0.1 29:0.25 30:0.107143 32:0.0833333 34:0.1 35:0.112903 37:0.25 38:0.0892857 39:0.05 41:0.25 42:0.0357143 43:0.13 44:0.125 46:0.104167 47:0.0625 48:0.125 49:0.146552 50:0.0625 51:0.159091 53:0.0625 58:0.125 59:0.132353 60:0.0714286 61:0.125 64:0.0625 65:0.166667 66:0.25 67:0.25 68:0.25 69:0.132353 70:0.1875 71:0.0833333 72:0.147059 73:0.147059 75:0.25 80:0.100746 81:0.113636 82:0.0833333 85:0.25 86:0.25 87:0.125 88:0.118056 89:0.0833333 90:0.15625 93:0.25 94:0.15625 95:0.0833333 96:0.107143 97:0.107143 98:0.125 99:0.25 100:0.142857 101:0.142857 106:0.125 107:0.0833333 109:0.075 110:0.25 111:0.05 
1 0 0 0 1:0.222222 3:0.133333 5:0.333333 7:0.155556 8:0.186813 9:0.121212 10:0.171429 12:0.111111 13:0.0909091 14:0.172043 16:0.162393 18:0.133333 19:0.162162 20:0.152174 21:0.242424 23:0.333333 24:0.266667 25:0.166667 26:0.333333 27:0.133333 29:0.333333 30:0.142857 32:0.111111 34:0.133333 35:0.16129 37:0.333333 38:0.119048 39:0.0666667 41:0.333333 42:0.047619 43:0.173333 44:0.166667 46:0.138889 47:0.0833333 48:0.166667 49:0.195402 50:0.0833333 51:0.212121 53:0.0833333 58:0.166667 59:0.176471 60:0.0952381 61:0.166667 64:0.0833333 65:0.222222 66:0.333333 67:0.333333 68:0.333333 69:0.176471 70:0.25 71:0.111111 72:0.196078 73:0.196078 75:0.333333 80:0.134328 81:0.151515 82:0.111111 85:0.333333 86:0.333333 87:0.166667 88:0.157407 89:0.111111 90:0.208333 93:0.333333 94:0.208333 95:0.111111 96:0.142857 97:0.142857 98:0.166667 99:0.333333 100:0.190476 101:0.190476 106:0.166667 107:0.111111 109:0.1 110:0.333333 111:0.0666667 
1 0 0 0 1:0.0952381 3:0.0571429 5:0.142857 7:0.0666667 8:0.0795798 9:0.0519481 10:0.077551 12:0.047619 13:0.038961 14:0.0737327 16:0.0732601 18:0.0571429 19:0.0733591 20:0.0652174 21:0.103896 23:0.142857 24:0.114286 25:0.0714286 26:0.142857 27:0.0666667 29:0.142857 30:0.0612245 32:0.047619 34:0.0714286 35:0.0737327 37:0.142857 38:0.0510204 39:0.0285714 41:0.142857 42:0.0204082 43:0.0742857 44:0.0714286 46:0.0595238 47:0.0357143 48:0.0714286 49:0.0837438 50:0.0357143 51:0.0909091 53:0.0714286 58:0.0714286 59:0.0756303 60:0.0408163 61:0.0714286 64:0.0357143 65:0.0952381 66:0.142857 67:0.142857 68:0.142857 69:0.0756303 70:0.107143 71:0.047619 72:0.0840336 73:0.0840336 75:0.142857 80:0.0575693 81:0.0649351 82:0.047619 85:0.142857 86:0.142857 87:0.0714286 88:0.0674603 89:0.047619 90:0.0892857 93:0.142857 94:0.0892857 95:0.047619 96:0.0612245 97:0.0612245 98:0.0714286 99:0.142857 100:0.0816327 101:0.0816327 106:0.0714286 107:0.047619 109:0.0428571 110:0.142857 111:0.0285714 
1 0 0 0 1:0.025641 3:0.0230769 5:0.0384615 7:0.0179487 8:0.0208076 9:0.013986 10:0.021978 12:0.0128205 13:0.0104895 14:0.0210918 16:0.0207101 18:0.0153846 19:0.0197505 20:0.0175585 21:0.027972 23:0.0384615 24:0.0307692 25:0.0192308 26:0.0384615 27:0.0179487 29:0.0384615 30:0.0164835 32:0.0128205 34:0.0192308 35:0.0198511 37:0.0384615 38:0.0137363 39:0.00769231 41:0.0384615 42:0.00549451 43:0.02 44:0.0192308 46:0.0160256 47:0.00961538 48:0.0192308 49:0.0238727 50:0.00961538 51:0.027972 53:0.0192308 58:0.0192308 59:0.020362 60:0.010989 61:0.0224359 64:0.00961538 65:0.025641 66:0.0384615 67:0.0384615 68:0.0384615 69:0.020362 70:0.0288462 71:0.0128205 72:0.0226244 73:0.0226244 75:0.0384615 80:0.0154994 81:0.0174825 82:0.017094 85:0.0384615 86:0.0384615 87:0.0192308 88:0.0181624 89:0.0128205 90:0.0240385 93:0.0384615 94:0.0240385 95:0.0128205 96:0.0164835 97:0.0164835 98:0.020362 99:0.0384615 100:0.021978 101:0.021978 106:0.0192308 107:0.0128205 109:0.0115385 110:0.0384615 111:0.00769231 
1 0 0 0 1:0.333333 3:0.3 5:0.5 7:0.233333 8:0.280642 9:0.181818 10:0.285714 12:0.166667 13:0.227273 14:0.274194 16:0.282051 18:0.25 19:0.256757 20:0.228261 21:0.363636 23:0.5 24:0.4 25:0.25 26:0.5 27:0.233333 29:0.5 30:0.285714 32:0.166667 34:0.25 35:0.274194 37:0.5 38:0.178571 39:0.1 41:0.5 42:0.142857 43:0.26 44:0.25 46:0.208333 47:0.125 48:0.25 49:0.362069 50:0.125 51:0.409091 53:0.25 54:0.25 58:0.25 59:0.264706 60:0.142857 61:0.291667 64:0.1875 65:0.333333 66:0.5 67:0.5 68:0.5 69:0.264706 70:0.375 71:0.166667 72:0.294118 73:0.303922 75:0.5 80:0.201493 81:0.227273 82:0.222222 85:0.5 86:0.5 87:0.25 88:0.236111 89:0.166667 90:0.3125 93:0.5 94:0.3125 95:0.166667 96:0.214286 97:0.214286 98:0.264706 99:0.5 100:0.285714 101:0.285714 106:0.25 107:0.166667 109:0.2 110:0.5 111:0.1 
1 0 0 0 1:0.222222 3:0.2 5:0.333333 7:0.155556 8:0.186813 9:0.151515 10:0.190476 12:0.111111 13:0.151515 14:0.182796 16:0.188034 18:0.166667 19:0.171171 20:0.152174 21:0.242424 23:0.333333 24:0.266667 25:0.166667 26:0.333333 27:0.155556 29:0.333333 30:0.190476 32:0.111111 34:0.166667 35:0.182796 37:0.333333 38:0.119048 39:0.0666667 41:0.333333 42:0.0952381 43:0.173333 44:0.166667 46:0.138889 47:0.0833333 48:0.166667 49:0.241379 50:0.0833333 51:0.272727 53:0.166667 54:0.166667 58:0.166667 59:0.176471 60:0.0952381 61:0.194444 64:0.125 65:0.222222 66:0.333333 67:0.333333 68:0.333333 69:0.176471 70:0.25 71:0.111111 72:0.196078 73:0.202614 75:0.333333 80:0.134328 81:0.151515 82:0.148148 85:0.333333 86:0.333333 87:0.166667 88:0.157407 89:0.111111 90:0.208333 93:0.333333 94:0.208333 95:0.111111 96:0.142857 97:0.142857 98:0.176471 99:0.333333 100:0.190476 101:0.190476 106:0.166667 107:0.111111 109:0.133333 110:0.333333 111:0.133333 
1 0 0 0 1:0.222222 3:0.2 5:0.333333 7:0.155556 8:0.186813 9:0.151515 10:0.190476 12:0.111111 13:0.151515 14:0.182796 16:0.205128 18:0.166667 19:0.171171 20:0.15942 21:0.242424 23:0.333333 24:0.266667 25:0.166667 26:0.333333 27:0.155556 29:0.333333 30:0.190476 32:0.222222 34:0.166667 35:0.182796 37:0.333333 38:0.119048 39:0.0666667 40:0.333333 41:0.333333 42:0.0952381 43:0.173333 44:0.166667 46:0.138889 47:0.125 48:0.166667 49:0.241379 50:0.0833333 51:0.30303 53:0.166667 54:0.166667 55:0.166667 58:0.166667 59:0.186275 60:0.0952381 61:0.194444 64:0.125 65:0.222222 66:0.333333 67:0.333333 68:0.333333 69:0.176471 70:0.25 71:0.111111 72:0.196078 73:0.202614 75:0.333333 78:0.333333 79:0.333333 80:0.149254 81:0.151515 82:0.148148 85:0.333333 86:0.333333 87:0.166667 88:0.157407 89:0.111111 90:0.208333 93:0.333333 94:0.208333 95:0.111111 96:0.142857 97:0.142857 98:0.186275 99:0.333333 100:0.190476 101:0.190476 106:0.166667 107:0.111111 109:0.133333 110:0.333333 111:0.133333 
1 0 0 0.02292589603336258 1:0.0740741 3:0.0666667 5:0.111111 7:0.0518519 8:0.0617075 9:0.0505051 10:0.0634921 12:0.037037 13:0.0505051 14:0.0609319 16:0.0712251 18:0.0555556 19:0.0570571 20:0.057971 21:0.0808081 23:0.111111 24:0.0888889 25:0.0555556 26:0.111111 27:0.0518519 29:0.111111 30:0.0634921 32:0.0740741 34:0.0555556 35:0.0609319 37:0.111111 38:0.0396825 39:0.0222222 40:0.111111 41:0.111111 42:0.031746 43:0.0622222 44:0.0555556 46:0.0462963 47:0.0416667 48:0.0555556 49:0.0804598 50:0.0277778 51:0.10101 53:0.0555556 54:0.0555556 55:0.0555556 58:0.0555556 59:0.0620915 60:0.031746 61:0.0648148 64:0.0416667 65:0.0740741 66:0.111111 67:0.111111 68:0.111111 69:0.0718954 70:0.111111 71:0.037037 72:0.0653595 73:0.0675381 75:0.111111 78:0.111111 79:0.111111 80:0.0514096 81:0.0606061 82:0.0493827 85:0.111111 86:0.111111 87:0.0555556 88:0.0555556 89:0.037037 90:0.0694444 93:0.111111 94:0.0694444 95:0.037037 96:0.0529101 97:0.0793651 98:0.0620915 99:0.111111 100:0.0634921 101:0.0634921 106:0.0555556 107:0.037037 109:0.0444444 110:0.111111 111:0.0444444 
1 0 0 0 1:0.0952381 3:0.0857143 5:0.142857 7:0.0666667 8:0.0795798 9:0.0649351 10:0.0816327 12:0.047619 13:0.0649351 14:0.078341 16:0.0952381 18:0.0714286 19:0.0733591 20:0.0745342 21:0.116883 23:0.142857 24:0.114286 25:0.0714286 26:0.142857 27:0.0666667 29:0.142857 30:0.0816327 32:0.0952381 34:0.0714286 35:0.078341 37:0.142857 38:0.0510204 39:0.0285714 40:0.142857 41:0.142857 42:0.0408163 43:0.08 44:0.0714286 46:0.0595238 47:0.0535714 48:0.0714286 49:0.103448 50:0.0357143 51:0.12987 53:0.0714286 54:0.0714286 55:0.0714286 58:0.0714286 59:0.0840336 60:0.0408163 61:0.0833333 64:0.0535714 65:0.0952381 66:0.142857 67:0.142857 68:0.142857 69:0.092437 70:0.142857 71:0.047619 72:0.0840336 73:0.0896359 75:0.142857 78:0.142857 79:0.142857 80:0.0660981 81:0.0779221 82:0.0793651 85:0.142857 86:0.142857 87:0.0714286 88:0.0714286 89:0.047619 90:0.0892857 93:0.142857 94:0.0892857 95:0.047619 96:0.0680272 97:0.102041 98:0.0798319 99:0.142857 100:0.0816327 101:0.0816327 106:0.0714286 107:0.047619 109:0.0571429 110:0.142857 111:0.0571429 
1 0 0 0 1:0.666667 3:0.6 5:1 7:0.466667 8:0.56213 9:0.454545 10:0.571429 12:0.333333 13:0.454545 14:0.548387 16:0.666667 18:0.5 19:0.513514 20:0.521739 21:0.818182 23:1 24:0.8 25:0.5 26:1 27:0.466667 29:1 30:0.571429 32:0.666667 34:0.5 35:0.548387 37:1 38:0.357143 39:0.2 40:1 41:1 42:0.285714 43:0.56 44:0.5 46:0.416667 47:0.375 48:0.5 49:0.724138 50:0.25 51:0.909091 53:0.5 54:0.5 55:0.5 58:0.5 59:0.588235 60:0.285714 61:0.583333 64:0.375 65:0.666667 66:1 67:1 68:1 69:0.647059 70:1 71:0.333333 72:0.588235 73:0.627451 75:1 78:1 79:1 80:0.462687 81:0.545455 82:0.555556 85:1 86:1 87:0.5 88:0.5 89:0.333333 90:0.625 93:1 94:0.625 95:0.333333 96:0.47619 97:0.714286 98:0.558824 99:1 100:0.571429 101:0.571429 106:0.5 107:0.333333 109:0.4 110:1 111:0.4 
1 0.5165213038269219 0 0 1:0.222222 3:0.2 5:0.333333 7:0.155556 8:0.186813 9:0.151515 10:0.190476 12:0.111111 13:0.151515 14:0.182796 16:0.222222 18:0.166667 19:0.171171 20:0.173913 21:0.272727 23:0.333333 24:0.266667 25:0.166667 26:0.333333 27:0.155556 29:0.333333 30:0.190476 32:0.222222 34:0.166667 35:0.182796 37:0.333333 38:0.119048 39:0.0666667 40:0.333333 41:0.333333 42:0.0952381 43:0.186667 44:0.166667 46:0.138889 47:0.125 48:0.166667 49:0.241379 50:0.0833333 51:0.30303 53:0.166667 54:0.166667 55:0.166667 58:0.166667 59:0.196078 60:0.0952381 61:0.194444 64:0.125 65:0.222222 66:0.333333 67:0.333333 68:0.333333 69:0.215686 70:0.333333 71:0.111111 72:0.215686 73:0.215686 75:0.333333 78:0.333333 79:0.333333 80:0.154229 81:0.181818 82:0.185185 85:0.333333 86:0.333333 87:0.166667 88:0.166667 89:0.111111 90:0.208333 93:0.333333 94:0.208333 95:0.111111 96:0.15873 97:0.238095 98:0.186275 99:0.333333 100:0.214286 101:0.190476 106:0.166667 107:0.111111 109:0.133333 110:0.333333 111:0.133333 
1 0 0 0 1:0.222222 2:0.166667 3:0.2 5:0.333333 7:0.155556 8:0.186813 9:0.151515 10:0.190476 12:0.111111 13:0.151515 14:0.182796 16:0.222222 18:0.166667 19:0.171171 20:0.181159 21:0.272727 23:0.333333 24:0.266667 25:0.166667 26:0.333333 27:0.155556 29:0.333333 30:0.190476 32:0.222222 34:0.166667 35:0.182796 37:0.333333 38:0.119048 39:0.0666667 40:0.333333 41:0.333333 42:0.0952381 43:0.186667 44:0.166667 46:0.138889 47:0.166667 48:0.166667 49:0.241379 50:0.0833333 51:0.30303 53:0.166667 54:0.166667 55:0.166667 58:0.166667 59:0.196078 60:0.0952381 61:0.194444 64:0.125 65:0.222222 66:0.333333 67:0.333333 68:0.333333 69:0.215686 70:0.333333 71:0.111111 72:0.235294 73:0.215686 75:0.333333 78:0.333333 79:0.333333 80:0.154229 81:0.181818 82:0.185185 85:0.333333 86:0.333333 87:0.166667 88:0.166667 89:0.111111 90:0.208333 93:0.333333 94:0.208333 95:0.111111 96:0.15873 97:0.238095 98:0.186275 99:0.333333 100:0.238095 101:0.190476 106:0.166667 107:0.111111 109:0.133333 110:0.333333 111:0.133333 
1 0.2807000207540935 0 0 1:0.222222 2:0.166667 3:0.2 5:0.333333 7:0.155556 8:0.186813 9:0.151515 10:0.190476 12:0.111111 13:0.151515 14:0.182796 16:0.222222 18:0.166667 19:0.171171 20:0.181159 21:0.272727 23:0.333333 24:0.266667 25:0.166667 26:0.333333 27:0.155556 29:0.333333 30:0.190476 32:0.222222 34:0.166667 35:0.182796 37:0.333333 38:0.142857 39:0.2 40:0.333333 41:0.333333 42:0.0952381 43:0.186667 44:0.166667 46:0.138889 47:0.166667 48:0.166667 49:0.241379 50:0.0833333 51:0.30303 53:0.166667 54:0.166667 55:0.166667 58:0.166667 59:0.196078 60:0.0952381 61:0.194444 64:0.125 65:0.222222 66:0.333333 67:0.333333 68:0.333333 69:0.215686 70:0.333333 71:0.111111 72:0.235294 73:0.222222 75:0.333333 78:0.333333 79:0.333333 80:0.154229 81:0.181818 82:0.185185 85:0.333333 86:0.333333 87:0.166667 88:0.166667 89:0.111111 90:0.208333 93:0.333333 94:0.208333 95:0.111111 96:0.174603 97:0.238095 98:0.196078 99:0.333333 100:0.238095 101:0.190476 106:0.166667 107:0.111111 109:0.133333 110:0.333333 111:0.133333 
1 0 0 0 1:0.166667 2:0.125 3:0.15 5:0.25 7:0.116667 8:0.139899 9:0.113636 10:0.142857 12:0.0833333 13:0.113636 14:0.137097 16:0.166667 18:0.125 19:0.128378 20:0.141304 21:0.204545 23:0.25 24:0.2 25:0.125 26:0.25 27:0.116667 29:0.25 30:0.142857 32:0.166667 34:0.125 35:0.137097 37:0.25 38:0.107143 39:0.15 40:0.25 41:0.25 42:0.0714286 43:0.14 44:0.125 46:0.104167 47:0.125 48:0.125 49:0.181034 50:0.0625 51:0.227273 53:0.125 54:0.125 55:0.125 58:0.125 59:0.147059 60:0.0714286 61:0.145833 64:0.09375 65:0.166667 66:0.25 67:0.25 68:0.25 69:0.161765 70:0.25 71:0.0833333 72:0.176471 73:0.166667 75:0.25 78:0.25 79:0.25 80:0.123134 81:0.136364 82:0.138889 85:0.25 86:0.25 87:0.125 88:0.125 89:0.0833333 90:0.15625 93:0.25 94:0.15625 95:0.0833333 96:0.130952 97:0.178571 98:0.147059 99:0.25 100:0.178571 101:0.142857 106:0.125 107:0.0833333 109:0.1 110:0.25 111:0.1 
0.04963440078980315 0 0 0 1:0.133333 2:0.1 3:0.16 5:0.2 7:0.0933333 8:0.11175 9:0.109091 10:0.114286 12:0.0666667 13:0.109091 14:0.109677 16:0.133333 18:0.1 19:0.102703 20:0.121739 21:0.163636 23:0.2 24:0.16 25:0.1 26:0.2 27:0.0933333 29:0.2 30:0.114286 32:0.133333 34:0.1 35:0.116129 37:0.2 38:0.0857143 39:0.12 40:0.2 41:0.2 42:0.0571429 43:0.12 44:0.1 46:0.0833333 47:0.1 48:0.1 49:0.144828 50:0.05 51:0.181818 53:0.1 54:0.1 55:0.1 58:0.1 59:0.117647 60:0.0571429 61:0.116667 64:0.075 65:0.133333 66:0.2 67:0.2 68:0.2 69:0.129412 70:0.2 71:0.0666667 72:0.152941 73:0.137255 75:0.2 78:0.2 79:0.2 80:0.104478 81:0.109091 82:0.111111 85:0.2 86:0.2 87:0.1 88:0.1 89:0.0666667 90:0.125 93:0.2 94:0.125 95:0.0666667 96:0.104762 97:0.142857 98:0.117647 99:0.2 100:0.142857 101:0.114286 106:0.1 107:0.0666667 109:0.08 110:0.2 111:0.08 
1 0 0 0 1:0.333333 2:0.25 3:0.4 5:0.5 7:0.233333 8:0.280642 9:0.272727 10:0.285714 12:0.166667 13:0.272727 14:0.274194 16:0.333333 18:0.25 19:0.256757 20:0.315217 21:0.409091 23:0.5 24:0.4 25:0.25 26:0.5 27:0.233333 29:0.5 30:0.285714 32:0.333333 34:0.25 35:0.290323 37:0.5 38:0.214286 39:0.3 40:0.5 41:0.5 42:0.142857 43:0.3 44:0.25 46:0.208333 47:0.25 48:0.25 49:0.362069 50:0.125 51:0.454545 53:0.25 54:0.25 55:0.25 58:0.25 59:0.294118 60:0.142857 61:0.291667 64:0.1875 65:0.333333 66:0.5 67:0.5 68:0.5 69:0.323529 70:0.5 71:0.166667 72:0.382353 73:0.343137 75:0.5 78:0.5 79:0.5 80:0.268657 81:0.272727 82:0.277778 85:0.5 86:0.5 87:0.25 88:0.25 89:0.166667 90:0.3125 93:0.5 94:0.3125 95:0.166667 96:0.261905 97:0.357143 98:0.294118 99:0.5 100:0.357143 101:0.285714 106:0.25 107:0.166667 109:0.2 110:0.5 111:0.2 
0.22736733377414 1 0 0 1:0.015873 2:0.0119048 3:0.0190476 5:0.0238095 7:0.0111111 8:0.0125589 9:0.012987 10:0.014966 12:0.00793651 13:0.0151515 14:0.0130568 16:0.0164835 18:0.0119048 19:0.0122265 20:0.015528 21:0.0194805 23:0.0238095 24:0.0190476 25:0.0238095 26:0.0238095 27:0.0126984 29:0.0238095 30:0.0136054 32:0.015873 34:0.0119048 35:0.015361 37:0.0238095 38:0.0102041 39:0.0142857 40:0.0238095 41:0.0238095 42:0.00680272 43:0.0161905 44:0.0119048 46:0.00992063 47:0.0119048 48:0.0119048 49:0.0172414 50:0.00892857 51:0.021645 53:0.0119048 54:0.0119048 55:0.0119048 58:0.0119048 59:0.0161064 60:0.00680272 61:0.0138889 64:0.00892857 65:0.015873 66:0.0238095 67:0.0238095 68:0.0238095 69:0.0168067 70:0.0238095 71:0.00793651 72:0.0182073 73:0.0163399 75:0.0238095 78:0.0238095 79:0.0238095 80:0.0135039 81:0.012987 82:0.0132275 85:0.0238095 86:0.0238095 87:0.0119048 88:0.0138889 89:0.00793651 90:0.014881 93:0.0238095 94:0.014881 95:0.00793651 96:0.0124717 97:0.0170068 98:0.0154062 99:0.0238095 100:0.0170068 101:0.0136054 106:0.0119048 107:0.00793651 109:0.00952381 110:0.0238095 111:0.00952381 
1 0 0 0 1:0.0666667 2:0.05 3:0.08 5:0.1 7:0.0466667 8:0.0554522 9:0.0545455 10:0.0628571 12:0.0333333 13:0.0636364 14:0.0548387 16:0.0692308 18:0.05 19:0.0513514 20:0.0652174 21:0.0818182 23:0.1 24:0.08 25:0.1 26:0.1 27:0.0533333 29:0.1 30:0.0571429 32:0.0666667 34:0.05 35:0.0645161 37:0.1 38:0.05 39:0.06 40:0.1 41:0.1 42:0.0285714 43:0.068 44:0.05 46:0.0416667 47:0.05 48:0.05 49:0.0724138 50:0.0375 51:0.0909091 53:0.05 54:0.05 55:0.05 58:0.05 59:0.0676471 60:0.0285714 61:0.0583333 64:0.0375 65:0.0666667 66:0.1 67:0.1 68:0.1 69:0.0705882 70:0.1 71:0.0333333 72:0.0764706 73:0.0686275 75:0.1 78:0.1 79:0.1 80:0.0567164 81:0.0545455 82:0.0555556 85:0.1 86:0.1 87:0.05 88:0.0583333 89:0.0333333 90:0.0625 93:0.1 94:0.0625 95:0.0333333 96:0.0571429 97:0.0714286 98:0.0647059 99:0.1 100:0.0714286 101:0.0571429 102:0.1 106:0.05 107:0.0333333 109:0.04 110:0.1 111:0.04 
0.632826343785748 0.0515444082519859 0 0 1:0.0740741 2:0.0555556 3:0.0888889 5:0.111111 7:0.0518519 8:0.0651827 9:0.0606061 10:0.0698413 12:0.037037 13:0.0707071 14:0.0681004 16:0.0769231 18:0.0555556 19:0.0570571 20:0.0724638 21:0.10101 23:0.111111 24:0.0888889 25:0.111111 26:0.111111 27:0.0592593 29:0.111111 30:0.0634921 32:0.0740741 34:0.0555556 35:0.0716846 37:0.111111 38:0.0555556 39:0.0888889 40:0.111111 41:0.111111 42:0.031746 43:0.0755556 44:0.0555556 46:0.0462963 47:0.0555556 48:0.0555556 49:0.0804598 50:0.0416667 51:0.10101 53:0.0555556 54:0.0555556 55:0.0555556 58:0.0555556 59:0.0751634 60:0.031746 61:0.0648148 64:0.0416667 65:0.0740741 66:0.111111 67:0.111111 68:0.111111 69:0.0784314 70:0.111111 71:0.037037 72:0.0849673 73:0.0762527 75:0.111111 78:0.111111 79:0.111111 80:0.0630182 81:0.0606061 82:0.0617284 85:0.111111 86:0.111111 87:0.0555556 88:0.0648148 89:0.037037 90:0.0694444 93:0.111111 94:0.0694444 95:0.037037 96:0.0634921 97:0.0793651 98:0.0718954 99:0.111111 100:0.0793651 101:0.0634921 102:0.111111 106:0.0555556 107:0.037037 109:0.0444444 110:0.111111 111:0.0444444 
1 0 0 0 1:0.030303 2:0.0227273 3:0.0363636 5:0.0454545 7:0.0212121 8:0.0275878 9:0.0247934 10:0.0298701 12:0.0151515 13:0.0330579 14:0.0278592 16:0.0314685 18:0.0227273 19:0.0233415 20:0.0296443 21:0.0413223 23:0.0454545 24:0.0363636 25:0.0454545 26:0.0454545 27:0.0242424 29:0.0454545 30:0.025974 32:0.030303 34:0.0227273 35:0.0293255 37:0.0454545 38:0.025974 39:0.0363636 40:0.0454545 41:0.0454545 42:0.012987 43:0.0309091 44:0.0227273 46:0.0189394 47:0.0227273 48:0.0227273 49:0.0329154 50:0.0170455 51:0.0413223 53:0.0227273 54:0.0227273 55:0.0227273 58:0.0227273 59:0.0307487 60:0.012987 61:0.0265152 62:0.0454545 64:0.0170455 65:0.030303 66:0.0454545 67:0.0454545 68:0.0454545 69:0.0320856 70:0.0454545 71:0.0151515 72:0.0374332 73:0.0311943 75:0.0454545 78:0.0454545 79:0.0454545 80:0.0264586 81:0.0247934 82:0.0252525 85:0.0454545 86:0.0454545 87:0.0227273 88:0.0277778 89:0.0227273 90:0.0284091 93:0.0454545 94:0.0284091 95:0.0151515 96:0.025974 97:0.0324675 98:0.0307487 99:0.0454545 100:0.0324675 101:0.025974 102:0.0454545 106:0.0227273 107:0.0151515 109:0.0181818 110:0.0454545 111:0.0181818 
1 0.1418866831785068 0.4551659197680277 0 1:0.333333 2:0.25 3:0.4 5:0.5 7:0.233333 8:0.311919 9:0.272727 10:0.328571 12:0.166667 13:0.363636 14:0.306452 16:0.346154 18:0.25 19:0.256757 20:0.326087 21:0.454545 23:0.5 24:0.4 25:0.5 26:0.5 27:0.266667 29:0.5 30:0.321429 32:0.333333 34:0.25 35:0.322581 37:0.5 38:0.285714 39:0.4 40:0.5 41:0.5 42:0.142857 43:0.34 44:0.25 46:0.208333 47:0.25 48:0.25 49:0.362069 50:0.1875 51:0.454545 53:0.25 54:0.25 55:0.25 58:0.25 59:0.338235 60:0.142857 61:0.291667 62:0.5 64:0.1875 65:0.333333 66:0.5 67:0.5 68:0.5 69:0.352941 70:0.5 71:0.166667 72:0.411765 73:0.343137 75:0.5 78:0.5 79:0.5 80:0.291045 81:0.272727 82:0.277778 85:0.5 86:0.5 87:0.25 88:0.305556 89:0.25 90:0.3125 93:0.5 94:0.3125 95:0.166667 96:0.285714 97:0.357143 98:0.338235 99:0.5 100:0.357143 101:0.285714 102:0.5 106:0.25 107:0.166667 109:0.2 110:0.5 111:0.2 
1 1 0 0 1:0.0136054 2:0.0102041 3:0.0163265 5:0.0204082 7:0.00952381 8:0.0125589 9:0.012987 10:0.0134111 12:0.00680272 13:0.0148423 14:0.0131666 16:0.0141287 18:0.0122449 19:0.0110314 20:0.0133097 21:0.0185529 23:0.0204082 24:0.0163265 25:0.0204082 26:0.0204082 27:0.0136054 29:0.0204082 30:0.0131195 32:0.0136054 34:0.0102041 35:0.0131666 37:0.0204082 38:0.0116618 39:0.0163265 40:0.0204082 41:0.0204082 42:0.0058309 43:0.0138776 44:0.0102041 46:0.0102041 47:0.0102041 48:0.0102041 49:0.0147783 50:0.00765306 51:0.0185529 53:0.0102041 54:0.0102041 55:0.0102041 58:0.0102041 59:0.0138055 60:0.0058309 61:0.0119048 62:0.0204082 64:0.00765306 65:0.0136054 66:0.0204082 67:0.0204082 68:0.0204082 69:0.0156062 70:0.0204082 71:0.00680272 72:0.0168067 73:0.0144058 75:0.0204082 78:0.0204082 79:0.0204082 80:0.012184 81:0.0111317 82:0.0136054 85:0.0204082 86:0.0204082 87:0.0102041 88:0.0124717 89:0.0136054 90:0.0127551 93:0.0204082 94:0.0127551 95:0.00680272 96:0.0126336 97:0.0145773 98:0.0138055 99:0.0204082 100:0.0145773 101:0.0116618 102:0.0204082 106:0.0102041 107:0.00680272 109:0.00816327 110:0.0204082 111:0.00816327 
1 0.3412609098359813 0 0 1:0.222222 2:0.166667 3:0.266667 5:0.333333 7:0.177778 8:0.21809 9:0.212121 10:0.228571 12:0.111111 13:0.242424 14:0.215054 16:0.239316 18:0.2 19:0.18018 20:0.231884 21:0.30303 23:0.333333 24:0.266667 25:0.333333 26:0.333333 27:0.222222 29:0.333333 30:0.214286 32:0.222222 34:0.166667 35:0.215054 37:0.333333 38:0.190476 39:0.266667 40:0.333333 41:0.333333 42:0.0952381 43:0.226667 44:0.166667 46:0.166667 47:0.166667 48:0.166667 49:0.241379 50:0.125 51:0.30303 53:0.166667 54:0.166667 55:0.166667 58:0.166667 59:0.22549 60:0.0952381 61:0.194444 62:0.333333 64:0.125 65:0.222222 66:0.333333 67:0.333333 68:0.333333 69:0.254902 70:0.333333 71:0.111111 72:0.27451 73:0.24183 75:0.333333 78:0.333333 79:0.333333 80:0.208955 81:0.181818 82:0.222222 85:0.333333 86:0.333333 87:0.166667 88:0.203704 89:0.222222 90:0.208333 93:0.333333 94:0.208333 95:0.111111 96:0.206349 97:0.238095 98:0.235294 99:0.333333 100:0.238095 101:0.190476 102:0.333333 106:0.166667 107:0.111111 109:0.133333 110:0.333333 111:0.133333 
0.1323702904214935 0 0 0 1:0.222222 2:0.166667 3:0.266667 5:0.333333 7:0.177778 8:0.21809 9:0.212121 10:0.238095 12:0.111111 13:0.242424 14:0.215054 16:0.239316 18:0.233333 19:0.189189 20:0.23913 21:0.30303 23:0.333333 24:0.266667 25:0.333333 26:0.333333 27:0.222222 29:0.333333 30:0.214286 32:0.222222 34:0.166667 35:0.215054 37:0.333333 38:0.190476 39:0.266667 40:0.333333 41:0.333333 42:0.0952381 43:0.226667 44:0.166667 46:0.166667 47:0.208333 48:0.166667 49:0.241379 50:0.125 51:0.30303 53:0.166667 54:0.166667 55:0.166667 58:0.166667 59:0.22549 60:0.0952381 61:0.194444 62:0.333333 64:0.125 65:0.222222 66:0.333333 67:0.333333 68:0.333333 69:0.254902 70:0.333333 71:0.111111 72:0.27451 73:0.24183 75:0.333333 78:0.333333 79:0.333333 80:0.208955 81:0.181818 82:0.259259 85:0.333333 86:0.333333 87:0.166667 88:0.203704 89:0.222222 90:0.208333 93:0.333333 94:0.208333 95:0.111111 96:0.206349 97:0.238095 98:0.235294 99:0.333333 100:0.238095 101:0.190476 102:0.333333 106:0.166667 107:0.111111 109:0.133333 110:0.333333 111:0.133333 
1 0 0 0 1:0.333333 2:0.25 3:0.4 5:0.5 7:0.266667 8:0.343195 9:0.318182 10:0.371429 12:0.166667 13:0.363636 14:0.322581 16:0.358974 18:0.35 19:0.283784 20:0.358696 21:0.454545 23:0.5 24:0.4 25:0.5 26:0.5 27:0.333333 29:0.5 30:0.321429 32:0.333333 34:0.25 35:0.322581 37:0.5 38:0.285714 39:0.4 40:0.5 41:0.5 42:0.142857 43:0.34 44:0.25 46:0.25 47:0.3125 48:0.25 49:0.362069 50:0.1875 51:0.454545 53:0.25 54:0.25 55:0.25 58:0.25 59:0.338235 60:0.142857 61:0.291667 62:0.5 64:0.25 65:0.333333 66:0.5 67:0.5 68:0.5 69:0.382353 70:0.5 71:0.166667 72:0.411765 73:0.362745 75:0.5 78:0.5 79:0.5 80:0.313433 81:0.272727 82:0.388889 85:0.5 86:0.5 87:0.25 88:0.305556 89:0.333333 90:0.3125 93:0.5 94:0.3125 95:0.166667 96:0.309524 97:0.357143 98:0.352941 99:0.5 100:0.357143 101:0.285714 102:0.5 106:0.25 107:0.166667 109:0.2 110:0.5 111:0.2 
1 0 0 0 1:0.333333 2:0.25 3:0.4 5:0.5 7:0.266667 8:0.343195 9:0.318182 10:0.371429 12:0.166667 13:0.363636 14:0.322581 16:0.358974 18:0.35 19:0.283784 20:0.358696 21:0.454545 23:0.5 24:0.4 25:0.5 26:0.5 27:0.333333 29:0.5 30:0.321429 32:0.333333 34:0.25 35:0.322581 37:0.5 38:0.285714 39:0.4 40:0.5 41:0.5 42:0.142857 43:0.34 44:0.25 46:0.25 47:0.3125 48:0.25 49:0.362069 50:0.1875 51:0.454545 53:0.25 54:0.25 55:0.25 58:0.25 59:0.338235 60:0.142857 61:0.291667 62:0.5 64:0.25 65:0.333333 66:0.5 67:0.5 68:0.5 69:0.382353 70:0.5 71:0.166667 72:0.411765 73:0.362745 75:0.5 78:0.5 79:0.5 80:0.313433 81:0.272727 82:0.388889 85:0.5 86:0.5 87:0.25 88:0.305556 89:0.333333 90:0.3125 93:0.5 94:0.3125 95:0.166667 96:0.309524 97:0.357143 98:0.352941 99:0.5 100:0.357143 101:0.285714 102:0.5 106:0.25 107:0.166667 109:0.2 110:0.5 111:0.2 
1 0 0 0 1:0.0555556 2:0.0416667 3:0.0666667 5:0.0833333 7:0.05 8:0.0564948 9:0.0530303 10:0.0619048 12:0.0277778 13:0.0606061 14:0.0537634 16:0.0598291 18:0.0583333 19:0.0472973 20:0.0597826 21:0.0757576 23:0.0833333 24:0.0666667 25:0.0833333 26:0.0833333 27:0.0555556 29:0.0833333 30:0.0535714 32:0.0555556 34:0.0416667 35:0.0537634 37:0.0833333 38:0.047619 39:0.0666667 40:0.0833333 41:0.0833333 42:0.0238095 43:0.0566667 44:0.0416667 46:0.0416667 47:0.0520833 48:0.0416667 49:0.0603448 50:0.03125 51:0.0757576 53:0.0625 54:0.0416667 55:0.0416667 58:0.0416667 59:0.0563725 60:0.0238095 61:0.0486111 62:0.0833333 64:0.0416667 65:0.0555556 66:0.0833333 67:0.0833333 68:0.0833333 69:0.0637255 70:0.0833333 71:0.0277778 72:0.0686275 73:0.0637255 75:0.0833333 78:0.0833333 79:0.0833333 80:0.0522388 81:0.0454545 82:0.0648148 85:0.0833333 86:0.0833333 87:0.0416667 88:0.0532407 89:0.0555556 90:0.0520833 93:0.0833333 94:0.0520833 95:0.0277778 96:0.0515873 97:0.0595238 98:0.0612745 99:0.0833333 100:0.0595238 101:0.047619 102:0.0833333 106:0.0416667 107:0.0277778 109:0.0333333 110:0.0833333 111:0.0333333 
1 0 0 0 1:0.0740741 2:0.0555556 3:0.0888889 5:0.111111 7:0.0666667 8:0.0790833 9:0.0707071 10:0.0825397 12:0.037037 13:0.0808081 14:0.0716846 16:0.0797721 18:0.0777778 19:0.0630631 20:0.0797101 21:0.10101 23:0.111111 24:0.0888889 25:0.111111 26:0.111111 27:0.0740741 29:0.111111 30:0.0714286 32:0.0740741 34:0.0555556 35:0.0716846 37:0.111111 38:0.0634921 39:0.0888889 40:0.111111 41:0.111111 42:0.031746 43:0.0755556 44:0.0555556 46:0.0555556 47:0.0694444 48:0.0555556 49:0.0804598 50:0.0416667 51:0.10101 53:0.0833333 54:0.0555556 55:0.0555556 58:0.0555556 59:0.0751634 60:0.031746 61:0.0648148 62:0.111111 64:0.0555556 65:0.0740741 66:0.111111 67:0.111111 68:0.111111 69:0.0849673 70:0.111111 71:0.037037 72:0.0915033 73:0.0849673 75:0.111111 78:0.111111 79:0.111111 80:0.0696517 81:0.0606061 82:0.0864198 85:0.111111 86:0.111111 87:0.0555556 88:0.0709877 89:0.0740741 90:0.0694444 93:0.111111 94:0.0694444 95:0.037037 96:0.0687831 97:0.0793651 98:0.0816993 99:0.111111 100:0.0793651 101:0.0634921 102:0.111111 106:0.0555556 107:0.037037 109:0.0444444 110:0.111111 111:0.0444444 
1 0 0 0 1:0.222222 2:0.166667 3:0.266667 5:0.333333 7:0.2 8:0.238941 9:0.212121 10:0.247619 12:0.111111 13:0.272727 14:0.215054 16:0.239316 18:0.266667 19:0.198198 20:0.23913 21:0.30303 23:0.333333 24:0.266667 25:0.333333 26:0.333333 27:0.222222 29:0.333333 30:0.214286 32:0.222222 34:0.166667 35:0.215054 37:0.333333 38:0.190476 39:0.266667 40:0.333333 41:0.333333 42:0.0952381 43:0.226667 44:0.166667 46:0.166667 47:0.208333 48:0.166667 49:0.241379 50:0.125 51:0.30303 53:0.25 54:0.166667 55:0.166667 58:0.166667 59:0.235294 60:0.0952381 61:0.194444 62:0.333333 64:0.166667 65:0.222222 66:0.333333 67:0.333333 68:0.333333 69:0.254902 70:0.333333 71:0.111111 72:0.27451 73:0.254902 75:0.333333 78:0.333333 79:0.333333 80:0.208955 81:0.181818 82:0.259259 85:0.333333 86:0.333333 87:0.166667 88:0.212963 89:0.222222 90:0.25 93:0.333333 94:0.208333 95:0.111111 96:0.206349 97:0.238095 98:0.245098 99:0.333333 100:0.238095 101:0.190476 102:0.333333 106:0.166667 107:0.111111 109:0.133333 110:0.333333 111:0.133333 
0.9828386660272401 0 0 0 1:1 2:0.5 3:0.8 5:1 7:0.6 8:0.718512 9:0.636364 10:0.742857 12:0.333333 13:0.818182 14:0.645161 16:0.717949 18:0.8 19:0.648649 20:0.717391 21:0.909091 23:1 24:1 25:1 26:1 27:0.666667 29:1 30:0.642857 31:0.5 32:0.666667 34:0.6 35:0.645161 37:1 38:0.571429 39:0.8 40:1 41:1 42:0.285714 43:0.76 44:0.5 46:0.5 47:0.625 48:0.5 49:0.724138 50:0.375 51:1 53:0.75 54:0.5 55:0.5 58:0.5 59:0.735294 60:0.285714 61:0.583333 62:1 64:0.625 65:0.666667 66:1 67:1 68:1 69:0.764706 70:1 71:0.333333 72:0.823529 73:0.764706 75:1 78:1 79:1 80:0.626866 81:0.545455 82:0.777778 85:1 86:1 87:0.5 88:0.638889 89:0.666667 90:0.75 93:1 94:0.625 95:0.333333 96:0.619048 97:0.714286 98:0.735294 99:1 100:0.714286 101:0.571429 102:1 106:0.5 107:0.333333 109:0.4 110:1 111:0.4 
1 0 0 0 1:0.037037 2:0.0185185 3:0.0296296 5:0.037037 7:0.0222222 8:0.026956 9:0.023569 10:0.0285714 12:0.0123457 13:0.030303 14:0.0238949 16:0.0275404 18:0.0296296 19:0.024024 20:0.02657 21:0.03367 23:0.037037 24:0.037037 25:0.037037 26:0.037037 27:0.0246914 29:0.037037 30:0.0238095 31:0.0185185 32:0.0246914 34:0.0222222 35:0.0238949 37:0.037037 38:0.021164 39:0.0296296 40:0.037037 41:0.037037 42:0.010582 43:0.0281481 44:0.0185185 46:0.0185185 47:0.0231481 48:0.0185185 49:0.0268199 50:0.0138889 51:0.037037 53:0.0277778 54:0.0185185 55:0.0185185 58:0.0185185 59:0.0283224 60:0.010582 61:0.0216049 62:0.037037 64:0.0231481 65:0.0246914 66:0.037037 67:0.037037 68:0.037037 69:0.0283224 70:0.037037 71:0.0123457 72:0.0305011 73:0.0283224 75:0.037037 78:0.037037 79:0.037037 80:0.02377 81:0.020202 82:0.0288066 85:0.037037 86:0.037037 87:0.0185185 88:0.0246914 89:0.0246914 90:0.0277778 93:0.037037 94:0.0277778 95:0.0123457 96:0.0229277 97:0.026455 98:0.0272331 99:0.037037 100:0.026455 101:0.021164 102:0.037037 106:0.0185185 107:0.0123457 109:0.0185185 110:0.037037 111:0.0148148 
0.730670412191493 0 0 0 1:0.111111 2:0.0555556 3:0.0888889 5:0.111111 7:0.0666667 8:0.0825585 9:0.0707071 10:0.0857143 12:0.037037 13:0.0909091 14:0.0716846 16:0.0826211 18:0.0888889 19:0.0720721 20:0.0797101 21:0.10101 23:0.111111 24:0.111111 25:0.111111 26:0.111111 27:0.0740741 29:0.111111 30:0.0714286 31:0.0555556 32:0.0740741 34:0.0666667 35:0.0716846 37:0.111111 38:0.0634921 39:0.0888889 40:0.111111 41:0.111111 42:0.031746 43:0.0844444 44:0.0555556 46:0.0555556 47:0.0694444 48:0.0555556 49:0.0804598 50:0.0416667 51:0.111111 53:0.0833333 54:0.0555556 55:0.0555556 58:0.0555556 59:0.0849673 60:0.031746 61:0.0648148 62:0.111111 64:0.0972222 65:0.0740741 66:0.111111 67:0.111111 68:0.111111 69:0.0849673 70:0.111111 71:0.037037 72:0.0915033 73:0.087146 75:0.111111 78:0.111111 79:0.111111 80:0.0713101 81:0.0606061 82:0.0864198 85:0.111111 86:0.111111 87:0.0555556 88:0.0740741 89:0.0740741 90:0.0833333 93:0.111111 94:0.0833333 95:0.037037 96:0.0687831 97:0.0793651 98:0.0816993 99:0.111111 100:0.0793651 101:0.0634921 102:0.111111 106:0.0555556 107:0.037037 109:0.0555556 110:0.111111 111:0.0444444 
0.8775972853671056 0.6209457468388685 0 0 1:0.5 2:0.25 3:0.4 5:0.5 7:0.3 8:0.374472 9:0.318182 10:0.4 12:0.166667 13:0.409091 14:0.322581 16:0.371795 18:0.4 19:0.324324 20:0.358696 21:0.454545 23:0.5 24:0.5 25:0.5 26:0.5 27:0.333333 29:0.5 30:0.321429 31:0.25 32:0.333333 34:0.3 35:0.322581 37:0.5 38:0.285714 39:0.4 40:0.5 41:0.5 42:0.142857 43:0.38 44:0.25 46:0.25 47:0.3125 48:0.25 49:0.362069 50:0.1875 51:0.5 53:0.375 54:0.25 55:0.25 58:0.25 59:0.382353 60:0.142857 61:0.291667 62:0.5 64:0.4375 65:0.333333 66:0.5 67:0.5 68:0.5 69:0.382353 70:0.5 71:0.166667 72:0.411765 73:0.401961 75:0.5 78:0.5 79:0.5 80:0.320896 81:0.272727 82:0.388889 85:0.5 86:0.5 87:0.25 88:0.333333 89:0.333333 90:0.375 93:0.5 94:0.375 95:0.166667 96:0.309524 97:0.357143 98:0.367647 99:0.5 100:0.357143 101:0.285714 102:0.5 106:0.25 107:0.166667 109:0.25 110:0.5 111:0.2 
0.316595719306346 0 0 0 1:0.2 2:0.1 3:0.16 5:0.2 7:0.12 8:0.149281 9:0.127273 10:0.16 12:0.0666667 13:0.163636 14:0.129032 16:0.148718 18:0.16 19:0.12973 20:0.143478 21:0.181818 23:0.2 24:0.2 25:0.2 26:0.2 27:0.133333 29:0.2 30:0.128571 31:0.1 32:0.133333 34:0.12 35:0.129032 37:0.2 38:0.128571 39:0.16 40:0.2 41:0.2 42:0.0571429 43:0.152 44:0.1 46:0.116667 47:0.125 48:0.1 49:0.144828 50:0.1 51:0.2 53:0.15 54:0.1 55:0.1 58:0.1 59:0.152941 60:0.0571429 61:0.116667 62:0.2 64:0.175 65:0.133333 66:0.2 67:0.2 68:0.2 69:0.152941 70:0.2 71:0.0666667 72:0.164706 73:0.160784 75:0.2 78:0.2 79:0.2 80:0.128358 81:0.109091 82:0.155556 85:0.2 86:0.2 87:0.1 88:0.133333 89:0.133333 90:0.15 93:0.2 94:0.15 95:0.0666667 96:0.12381 97:0.142857 98:0.147059 99:0.2 100:0.142857 101:0.114286 102:0.2 106:0.1 107:0.0666667 109:0.1 110:0.2 111:0.08 
1 0 0 0 1:0.0833333 2:0.0416667 3:0.0666667 5:0.0833333 7:0.05 8:0.0617075 9:0.0530303 10:0.0666667 12:0.0277778 13:0.0681818 14:0.0564516 16:0.0619658 18:0.0666667 19:0.0540541 20:0.0597826 21:0.0757576 23:0.0833333 24:0.0833333 25:0.0833333 26:0.0833333 27:0.0555556 29:0.0833333 30:0.0535714 31:0.0416667 32:0.0555556 34:0.05 35:0.0537634 37:0.0833333 38:0.0595238 39:0.0666667 40:0.0833333 41:0.0833333 42:0.0238095 43:0.0633333 44:0.0416667 46:0.0486111 47:0.0520833 48:0.0416667 49:0.0632184 50:0.0416667 51:0.0833333 53:0.0625 54:0.0416667 55:0.0416667 58:0.0416667 59:0.0637255 60:0.0357143 61:0.0486111 62:0.0833333 64:0.0729167 65:0.0555556 66:0.0833333 67:0.0833333 68:0.0833333 69:0.0637255 70:0.0833333 71:0.0277778 72:0.0686275 73:0.0669935 75:0.0833333 78:0.0833333 79:0.0833333 80:0.0534826 81:0.0454545 82:0.0648148 85:0.0833333 86:0.0833333 87:0.0416667 88:0.0578704 89:0.0555556 90:0.0625 93:0.0833333 94:0.0625 95:0.0277778 96:0.0515873 97:0.0595238 98:0.0612745 99:0.0833333 100:0.0595238 101:0.0595238 102:0.0833333 106:0.0416667 107:0.0277778 109:0.0416667 110:0.0833333 111:0.0333333 
0.5672497656910492 0 0 0 1:0.25 2:0.125 3:0.2 5:0.25 7:0.15 8:0.186813 9:0.159091 10:0.2 12:0.0833333 13:0.204545 14:0.169355 16:0.185897 18:0.2 19:0.162162 20:0.179348 21:0.227273 23:0.25 24:0.25 25:0.25 26:0.25 27:0.166667 29:0.25 30:0.160714 31:0.125 32:0.166667 34:0.15 35:0.16129 37:0.25 38:0.178571 39:0.2 40:0.25 41:0.25 42:0.0714286 43:0.19 44:0.125 46:0.145833 47:0.15625 48:0.125 49:0.189655 50:0.125 51:0.25 53:0.1875 54:0.125 55:0.125 58:0.125 59:0.191176 60:0.107143 61:0.145833 62:0.25 64:0.21875 65:0.166667 66:0.25 67:0.25 68:0.25 69:0.191176 70:0.25 71:0.0833333 72:0.205882 73:0.20098 75:0.25 78:0.25 79:0.25 80:0.160448 81:0.136364 82:0.194444 85:0.25 86:0.25 87:0.125 88:0.173611 89:0.166667 90:0.1875 93:0.25 94:0.1875 95:0.0833333 96:0.154762 97:0.178571 98:0.183824 99:0.25 100:0.178571 101:0.178571 102:0.25 106:0.125 107:0.0833333 109:0.125 110:0.25 111:0.1 
0.1003909781310825 0.2716655179952621 0.3815253648817745 0 1:0.25 2:0.125 3:0.2 5:0.25 7:0.15 8:0.186813 9:0.159091 10:0.2 12:0.0833333 13:0.204545 14:0.169355 16:0.185897 18:0.2 19:0.162162 20:0.179348 21:0.227273 23:0.25 24:0.25 25:0.25 26:0.25 27:0.166667 29:0.25 30:0.160714 31:0.25 32:0.166667 33:0.25 34:0.15 35:0.169355 37:0.25 38:0.178571 39:0.2 40:0.25 41:0.25 42:0.0714286 43:0.19 44:0.125 46:0.145833 47:0.1875 48:0.125 49:0.189655 50:0.125 51:0.25 52:0.25 53:0.1875 54:0.125 55:0.125 57:0.125 58:0.125 59:0.191176 60:0.107143 61:0.145833 62:0.25 64:0.21875 65:0.166667 66:0.25 67:0.25 68:0.25 69:0.191176 70:0.25 71:0.166667 72:0.205882 73:0.20098 75:0.25 77:0.125 78:0.25 79:0.25 80:0.160448 81:0.136364 82:0.194444 85:0.25 86:0.25 87:0.125 88:0.173611 89:0.166667 90:0.1875 93:0.25 94:0.1875 95:0.0833333 96:0.154762 97:0.178571 98:0.183824 99:0.25 100:0.178571 101:0.178571 102:0.25 104:0.25 106:0.125 107:0.0833333 109:0.125 110:0.25 111:0.1 
1 0 0.4780818294133485 0 1:0.5 2:0.25 3:0.4 5:0.5 6:0.5 7:0.3 8:0.374472 9:0.318182 10:0.4 12:0.166667 13:0.409091 14:0.33871 16:0.371795 18:0.4 19:0.324324 20:0.358696 21:0.454545 23:0.5 24:0.5 25:0.5 26:0.5 27:0.333333 29:0.5 30:0.321429 31:0.5 32:0.333333 33:0.5 34:0.3 35:0.354839 37:0.5 38:0.357143 39:0.4 40:0.5 41:0.5 42:0.142857 43:0.38 44:0.25 46:0.291667 47:0.375 48:0.25 49:0.37931 50:0.25 51:0.5 52:0.5 53:0.375 54:0.25 55:0.25 57:0.25 58:0.25 59:0.382353 60:0.214286 61:0.291667 62:0.5 64:0.4375 65:0.333333 66:0.5 67:0.5 68:0.5 69:0.382353 70:0.5 71:0.333333 72:0.411765 73:0.401961 75:0.5 77:0.25 78:0.5 79:0.5 80:0.328358 81:0.272727 82:0.388889 85:0.5 86:0.5 87:0.25 88:0.347222 89:0.333333 90:0.375 93:0.5 94:0.375 95:0.333333 96:0.309524 97:0.357143 98:0.367647 99:0.5 100:0.357143 101:0.357143 102:0.5 104:0.5 106:0.25 107:0.166667 109:0.25 110:0.5 111:0.2 
0 0.4152969735404196 0.7714875939883938 0 1:1 2:0.5 3:0.8 5:1 6:1 7:0.6 8:0.749789 9:0.636364 10:0.8 12:0.333333 13:0.818182 14:0.677419 16:0.74359 18:0.8 19:0.675676 20:0.717391 21:0.909091 23:1 24:1 25:1 26:1 27:0.666667 29:1 30:0.642857 31:1 32:0.666667 33:1 34:0.6 35:0.709677 37:1 38:0.714286 39:0.8 40:1 41:1 42:0.285714 43:0.76 44:0.5 46:0.583333 47:0.75 48:0.5 49:0.758621 50:0.5 51:1 52:1 53:0.75 54:0.5 55:0.5 57:0.5 58:0.5 59:0.764706 60:0.428571 61:0.583333 62:1 64:0.875 65:0.666667 66:1 67:1 68:1 69:0.764706 70:1 71:0.666667 72:0.823529 73:0.803922 75:1 77:0.5 78:1 79:1 80:0.656716 81:0.545455 82:0.777778 85:1 86:1 87:0.5 88:0.694444 89:0.666667 90:0.75 93:1 94:0.75 95:0.666667 96:0.619048 97:0.714286 98:0.735294 99:1 100:0.714286 101:0.714286 102:1 104:1 106:0.5 107:0.333333 109:0.5 110:1 111:0.6 
1 0 0 0 1:0.025 2:0.0125 3:0.02 5:0.025 6:0.025 7:0.015 8:0.0194844 9:0.0159091 10:0.0207143 12:0.00833333 13:0.0204545 14:0.0185484 16:0.0192308 18:0.02 19:0.0175676 20:0.0184783 21:0.0227273 23:0.025 24:0.025 25:0.025 26:0.025 27:0.0166667 29:0.025 30:0.0160714 31:0.025 32:0.0166667 33:0.025 34:0.015 35:0.0185484 37:0.025 38:0.0196429 39:0.02 40:0.025 41:0.025 42:0.00714286 43:0.02 44:0.0125 46:0.0166667 47:0.01875 48:0.0125 49:0.0189655 50:0.0125 51:0.025 52:0.025 53:0.01875 54:0.0125 55:0.0125 57:0.0125 58:0.0125 59:0.0191176 60:0.0142857 61:0.0145833 62:0.025 64:0.021875 65:0.0166667 66:0.025 67:0.025 68:0.025 69:0.0191176 70:0.025 71:0.0166667 72:0.0205882 73:0.020098 75:0.025 77:0.0125 78:0.025 79:0.025 80:0.0175373 81:0.0136364 82:0.0194444 85:0.025 86:0.025 87:0.0125 88:0.0173611 89:0.0166667 90:0.01875 93:0.025 94:0.025 95:0.025 96:0.0166667 97:0.0178571 98:0.0198529 99:0.025 100:0.0178571 101:0.0178571 102:0.025 104:0.025 106:0.0125 107:0.00833333 109:0.015 110:0.025 111:0.015 
0.6591969315374913 0.4640773698359842 0 0 1:0.333333 2:0.166667 3:0.266667 5:0.333333 6:0.333333 7:0.2 8:0.270217 9:0.212121 10:0.27619 12:0.111111 13:0.272727 14:0.247312 16:0.25641 18:0.266667 19:0.234234 20:0.253623 21:0.30303 23:0.333333 24:0.333333 25:0.333333 26:0.333333 27:0.222222 29:0.333333 30:0.214286 31:0.333333 32:0.222222 33:0.333333 34:0.2 35:0.247312 37:0.333333 38:0.261905 39:0.266667 40:0.333333 41:0.333333 42:0.0952381 43:0.266667 44:0.166667 46:0.222222 47:0.25 48:0.166667 49:0.252874 50:0.166667 51:0.333333 52:0.333333 53:0.25 54:0.166667 55:0.166667 57:0.166667 58:0.166667 59:0.254902 60:0.190476 61:0.194444 62:0.333333 64:0.291667 65:0.222222 66:0.333333 67:0.333333 68:0.333333 69:0.254902 70:0.333333 71:0.222222 72:0.27451 73:0.267974 75:0.333333 77:0.166667 78:0.333333 79:0.333333 80:0.238806 81:0.181818 82:0.259259 85:0.333333 86:0.333333 87:0.166667 88:0.231481 89:0.222222 90:0.25 93:0.333333 94:0.333333 95:0.333333 96:0.222222 97:0.238095 98:0.264706 99:0.333333 100:0.238095 101:0.238095 102:0.333333 104:0.333333 106:0.166667 107:0.111111 109:0.2 110:0.333333 111:0.2 
1 0 0 0 1:0.0227273 2:0.0113636 3:0.0181818 5:0.0227273 6:0.0227273 7:0.0151515 8:0.0176362 9:0.0144628 10:0.0188312 12:0.00757576 13:0.018595 14:0.0168622 16:0.0174825 18:0.0181818 19:0.0159705 20:0.0172925 21:0.0206612 23:0.0227273 24:0.0227273 25:0.0227273 26:0.0227273 27:0.0166667 29:0.0227273 30:0.0162338 31:0.0227273 32:0.0151515 33:0.0227273 34:0.0136364 35:0.0168622 37:0.0227273 38:0.0178571 39:0.0181818 40:0.0227273 41:0.0227273 42:0.00649351 43:0.0181818 44:0.0113636 46:0.0170455 47:0.0170455 48:0.0151515 49:0.0172414 50:0.0142045 51:0.0227273 52:0.0227273 53:0.0170455 54:0.0113636 55:0.0113636 57:0.0113636 58:0.0113636 59:0.0173797 60:0.0162338 61:0.0132576 62:0.0227273 64:0.0198864 65:0.0151515 66:0.0227273 67:0.0227273 68:0.0227273 69:0.0187166 70:0.0227273 71:0.0151515 72:0.0187166 73:0.0182709 75:0.0227273 77:0.0113636 78:0.0227273 79:0.0227273 80:0.0176391 81:0.0123967 82:0.0176768 85:0.0227273 86:0.0227273 87:0.0113636 88:0.0164141 89:0.0151515 90:0.0170455 93:0.0227273 94:0.0227273 95:0.0227273 96:0.017316 97:0.0162338 98:0.0187166 99:0.0227273 100:0.0194805 101:0.0162338 102:0.0227273 104:0.0227273 106:0.0113636 107:0.00757576 109:0.0136364 110:0.0227273 111:0.0136364 
0.1427643232352029 0 0 0 1:0.25 2:0.125 3:0.2 5:0.25 6:0.25 7:0.166667 8:0.202451 9:0.159091 10:0.214286 12:0.0833333 13:0.204545 14:0.185484 16:0.205128 18:0.2 19:0.175676 20:0.195652 21:0.227273 23:0.25 24:0.25 25:0.25 26:0.25 27:0.183333 29:0.25 30:0.178571 31:0.25 32:0.166667 33:0.25 34:0.15 35:0.185484 37:0.25 38:0.196429 39:0.2 40:0.25 41:0.25 42:0.0714286 43:0.2 44:0.125 46:0.1875 47:0.1875 48:0.166667 49:0.189655 50:0.15625 51:0.25 52:0.25 53:0.1875 54:0.125 55:0.125 57:0.125 58:0.125 59:0.191176 60:0.178571 61:0.145833 62:0.25 64:0.21875 65:0.166667 66:0.25 67:0.25 68:0.25 69:0.205882 70:0.25 71:0.166667 72:0.205882 73:0.205882 75:0.25 77:0.125 78:0.25 79:0.25 80:0.197761 81:0.136364 82:0.194444 85:0.25 86:0.25 87:0.125 88:0.180556 89:0.166667 90:0.1875 93:0.25 94:0.25 95:0.25 96:0.202381 97:0.178571 98:0.205882 99:0.25 100:0.214286 101:0.178571 102:0.25 104:0.25 106:0.25 107:0.0833333 109:0.15 110:0.25 111:0.15 
1 0 0 0 1:0.0769231 2:0.0384615 3:0.0615385 5:0.0769231 6:0.0769231 7:0.0512821 8:0.0617075 9:0.048951 10:0.0659341 12:0.025641 13:0.0699301 14:0.057072 16:0.0631164 18:0.0615385 19:0.0561331 20:0.0618729 21:0.0699301 23:0.0769231 24:0.0769231 25:0.0769231 26:0.0769231 27:0.0564103 29:0.0769231 30:0.0659341 31:0.0769231 32:0.0512821 33:0.0769231 34:0.0461538 35:0.057072 37:0.0769231 38:0.0604396 39:0.0615385 40:0.0769231 41:0.0769231 42:0.021978 43:0.0615385 44:0.0384615 46:0.0576923 47:0.0576923 48:0.0512821 49:0.0583554 50:0.0480769 51:0.0769231 52:0.0769231 53:0.0576923 54:0.0384615 55:0.0384615 57:0.0384615 58:0.0384615 59:0.061086 60:0.0549451 61:0.0448718 62:0.0769231 64:0.0673077 65:0.0512821 66:0.0769231 67:0.0769231 68:0.0769231 69:0.0633484 70:0.0769231 71:0.0512821 72:0.0633484 73:0.0633484 75:0.0769231 77:0.0384615 78:0.0769231 79:0.0769231 80:0.0619977 81:0.041958 82:0.0598291 85:0.0769231 86:0.0769231 87:0.0384615 88:0.0555556 89:0.0512821 90:0.0576923 93:0.0769231 94:0.0769231 95:0.0769231 96:0.0622711 97:0.0549451 98:0.0633484 99:0.0769231 100:0.0659341 101:0.0549451 102:0.0769231 104:0.0769231 106:0.0769231 107:0.025641 109:0.0538462 110:0.0769231 111:0.0461538 
1 1 0 0 1:0.125 2:0.0625 3:0.1 5:0.125 6:0.125 7:0.0833333 8:0.100803 9:0.0795455 10:0.107143 12:0.0416667 13:0.113636 14:0.0927419 16:0.102564 18:0.1 19:0.0912162 20:0.103261 21:0.113636 23:0.125 24:0.125 25:0.125 26:0.125 27:0.0916667 29:0.125 30:0.116071 31:0.125 32:0.0833333 33:0.125 34:0.075 35:0.0927419 37:0.125 38:0.0982143 39:0.1 40:0.125 41:0.125 42:0.0535714 43:0.1 44:0.0625 46:0.09375 47:0.09375 48:0.0833333 49:0.0991379 50:0.078125 51:0.125 52:0.125 53:0.09375 54:0.0625 55:0.0625 57:0.0625 58:0.0625 59:0.0992647 60:0.0892857 61:0.0729167 62:0.125 64:0.109375 65:0.0833333 66:0.125 67:0.125 68:0.125 69:0.102941 70:0.125 71:0.0833333 72:0.102941 73:0.102941 75:0.125 77:0.0625 78:0.125 79:0.125 80:0.102612 81:0.0681818 82:0.0972222 85:0.125 86:0.125 87:0.0625 88:0.0902778 89:0.0833333 90:0.09375 93:0.125 94:0.125 95:0.125 96:0.10119 97:0.0892857 98:0.102941 99:0.125 100:0.116071 101:0.0892857 102:0.125 104:0.125 106:0.125 107:0.0416667 109:0.0875 110:0.125 111:0.075 
1 0.8033452387725242 0 0 1:0.5 2:0.25 3:0.4 5:0.5 6:0.5 7:0.333333 8:0.405748 9:0.318182 10:0.428571 12:0.166667 13:0.454545 14:0.370968 16:0.410256 18:0.4 19:0.364865 20:0.413043 21:0.454545 23:0.5 24:0.5 25:0.5 26:0.5 27:0.366667 29:0.5 30:0.464286 31:0.5 32:0.333333 33:0.5 34:0.35 35:0.370968 37:0.5 38:0.392857 39:0.4 40:0.5 41:0.5 42:0.214286 43:0.4 44:0.25 46:0.375 47:0.375 48:0.333333 49:0.396552 50:0.3125 51:0.5 52:0.5 53:0.375 54:0.25 55:0.25 57:0.25 58:0.25 59:0.397059 60:0.357143 61:0.291667 62:0.5 64:0.4375 65:0.333333 66:0.5 67:0.5 68:0.5 69:0.411765 70:0.5 71:0.333333 72:0.411765 73:0.411765 75:0.5 77:0.25 78:0.5 79:0.5 80:0.410448 81:0.272727 82:0.388889 85:0.5 86:0.5 87:0.25 88:0.361111 89:0.333333 90:0.375 93:0.5 94:0.5 95:0.5 96:0.404762 97:0.357143 98:0.411765 99:0.5 100:0.464286 101:0.357143 102:0.5 104:0.5 106:0.5 107:0.166667 109:0.35 110:0.5 111:0.3 
1 0 0 0 1:0.5 2:0.25 3:0.4 5:0.5 6:0.5 7:0.333333 8:0.405748 9:0.318182 10:0.428571 12:0.166667 13:0.454545 14:0.370968 16:0.410256 18:0.4 19:0.364865 20:0.413043 21:0.454545 22:0.25 23:0.5 24:0.5 25:0.5 26:0.5 27:0.366667 29:0.5 30:0.464286 31:0.5 32:0.333333 33:0.5 34:0.35 35:0.370968 37:0.5 38:0.392857 39:0.4 40:0.5 41:0.5 42:0.214286 43:0.4 44:0.25 46:0.375 47:0.375 48:0.333333 49:0.413793 50:0.3125 51:0.5 52:0.5 53:0.375 54:0.25 55:0.25 57:0.25 58:0.25 59:0.397059 60:0.357143 61:0.291667 62:0.5 64:0.4375 65:0.333333 66:0.5 67:0.5 68:0.5 69:0.411765 70:0.5 71:0.333333 72:0.411765 73:0.411765 75:0.5 77:0.25 78:0.5 79:0.5 80:0.410448 81:0.272727 82:0.388889 85:0.5 86:0.5 87:0.25 88:0.361111 89:0.333333 90:0.375 93:0.5 94:0.5 95:0.5 96:0.404762 97:0.357143 98:0.411765 99:0.5 100:0.464286 101:0.357143 102:0.5 104:0.5 106:0.5 107:0.166667 109:0.4 110:0.5 111:0.3 
