svm_type c_svc
kernel_type rbf
gamma 0.00934579
nr_class 4
total_sv 383
rho -0.863314 -1.00188 -0.984156 -0.979458 -0.983802 -0.970129
label 5 4 3 2
nr_sv 168 159 53 3
SV
1 0.6887149144176094 1 
1 0 0 1:0.0175439 24:0.142857 68:0.25 106:0.0243902 
1 1 0.4754952533522855 1:0.0015949 9:0.00206612 14:0.00649351 18:0.0227273 24:0.00649351 28:0.00454545 39:0.00478469 46:0.0113636 68:0.0113636 76:0.00324675 88:0.00649351 106:0.00221729 
1 0 0 1:0.0175439 9:0.0227273 12:0.166667 14:0.0714286 18:0.25 24:0.0714286 28:0.1 36:0.0217391 39:0.0789474 46:0.25 48:0.0833333 65:0.0625 68:0.25 76:0.0357143 81:0.0454545 88:0.0714286 95:0.0192308 100:0.0277778 106:0.0365854 
1 0 0 1:0.0140351 7:0.00833333 9:0.00909091 12:0.0666667 14:0.0285714 18:0.1 24:0.0285714 28:0.04 36:0.00869565 38:0.02 39:0.0421053 42:0.0333333 44:0.00493827 46:0.1 48:0.0333333 52:0.025 65:0.025 68:0.1 73:0.0117647 75:0.00952381 76:0.0142857 81:0.0181818 84:0.0666667 88:0.0285714 95:0.00769231 100:0.0111111 106:0.0146341 
1 0 0 1:0.0140351 7:0.00833333 9:0.00909091 12:0.0666667 14:0.0285714 18:0.1 24:0.0285714 28:0.04 36:0.00869565 38:0.02 39:0.0421053 42:0.0333333 44:0.00493827 46:0.1 48:0.0333333 52:0.025 65:0.025 68:0.1 73:0.0117647 75:0.00952381 76:0.0142857 81:0.0181818 84:0.0666667 88:0.0285714 95:0.00769231 100:0.0111111 106:0.0146341 
1 0.1299372754339565 0 1:0.00877193 7:0.00520833 9:0.0113636 12:0.0416667 14:0.0178571 17:0.015625 18:0.0625 24:0.0178571 28:0.025 30:0.015625 36:0.0108696 38:0.0125 39:0.0263158 42:0.0208333 44:0.00308642 46:0.0625 48:0.0208333 52:0.015625 65:0.015625 68:0.0625 73:0.00735294 75:0.00595238 76:0.00892857 81:0.0170455 84:0.0416667 88:0.0178571 95:0.00480769 100:0.00694444 101:0.00297619 106:0.00914634 
1 0.3480765144830931 0 1:0.0877193 7:0.0416667 9:0.136364 12:0.333333 14:0.142857 17:0.25 18:0.5 24:0.285714 28:0.2 30:0.125 36:0.0869565 38:0.1 39:0.210526 42:0.166667 44:0.0246914 46:0.5 48:0.333333 52:0.125 55:0.25 65:0.125 68:0.75 73:0.0588235 75:0.047619 76:0.0714286 81:0.136364 83:0.1 84:0.333333 88:0.142857 95:0.0384615 100:0.111111 101:0.047619 103:0.25 106:0.097561 
1 0 0 1:0.0292398 7:0.0138889 9:0.0454545 12:0.111111 14:0.047619 17:0.0833333 18:0.166667 24:0.0952381 28:0.0666667 30:0.0416667 36:0.0289855 38:0.0333333 39:0.0701754 42:0.0555556 44:0.00823045 46:0.166667 48:0.111111 52:0.0416667 55:0.0833333 65:0.0416667 68:0.25 73:0.0196078 75:0.015873 76:0.0238095 81:0.0454545 83:0.0333333 84:0.111111 88:0.047619 95:0.0128205 100:0.037037 101:0.015873 103:0.0833333 106:0.0325203 
1 0 0 1:0.0125313 7:0.00595238 9:0.0194805 12:0.047619 14:0.0204082 17:0.0535714 18:0.0714286 24:0.0408163 28:0.0285714 30:0.0178571 36:0.0124224 38:0.0142857 39:0.0300752 42:0.047619 44:0.00352734 46:0.0714286 48:0.047619 52:0.0178571 55:0.0357143 65:0.0178571 68:0.107143 73:0.00840336 75:0.00680272 76:0.0102041 81:0.0194805 83:0.0142857 84:0.047619 88:0.0204082 95:0.00549451 100:0.015873 101:0.00680272 103:0.0357143 106:0.0139373 
1 0.1643316994700363 0 1:0.0877193 7:0.0416667 9:0.136364 12:0.333333 14:0.142857 17:0.375 18:0.5 24:0.285714 28:0.2 30:0.125 36:0.0869565 38:0.1 39:0.263158 42:0.333333 44:0.0246914 46:0.5 48:0.333333 52:0.125 55:0.25 65:0.125 68:0.75 73:0.0588235 75:0.047619 76:0.0714286 81:0.136364 83:0.1 84:0.333333 88:0.142857 95:0.0384615 100:0.111111 101:0.047619 103:0.25 106:0.097561 
1 0 0 1:0.0219298 2:0.0625 7:0.0104167 9:0.0340909 12:0.0833333 14:0.0357143 17:0.09375 18:0.125 24:0.0714286 28:0.05 30:0.03125 36:0.0326087 38:0.025 39:0.0657895 42:0.0833333 44:0.00617284 46:0.125 48:0.0833333 52:0.03125 55:0.0625 65:0.03125 68:0.1875 73:0.0147059 75:0.0119048 76:0.0178571 81:0.0340909 83:0.025 84:0.0833333 88:0.0357143 95:0.00961538 100:0.0277778 101:0.0119048 103:0.0625 106:0.0243902 
1 0 0 1:0.0109649 2:0.03125 7:0.00520833 9:0.0227273 12:0.0416667 14:0.0178571 17:0.046875 18:0.0625 24:0.0357143 28:0.025 30:0.015625 36:0.0163043 38:0.0125 39:0.0328947 42:0.0416667 44:0.00462963 46:0.0625 48:0.0416667 52:0.015625 55:0.03125 65:0.015625 68:0.09375 73:0.00735294 75:0.00595238 76:0.00892857 81:0.0170455 83:0.0125 84:0.0416667 88:0.0178571 90:0.025 95:0.00480769 100:0.0138889 101:0.00892857 103:0.03125 106:0.0121951 
1 0 0 1:0.0210526 2:0.05 3:0.0285714 7:0.00833333 9:0.0363636 12:0.0666667 14:0.0285714 17:0.075 18:0.1 24:0.0571429 28:0.04 30:0.025 36:0.026087 38:0.02 39:0.0526316 42:0.0666667 44:0.00740741 46:0.1 48:0.0666667 52:0.025 55:0.05 65:0.025 68:0.15 73:0.0117647 75:0.00952381 76:0.0142857 81:0.0272727 83:0.02 84:0.0666667 88:0.0285714 90:0.04 95:0.0153846 100:0.0222222 101:0.0142857 103:0.05 106:0.0195122 
1 0.01403959826388696 0 1:0.0701754 2:0.125 3:0.0714286 7:0.0208333 9:0.0909091 12:0.166667 14:0.0714286 17:0.1875 18:0.25 24:0.142857 28:0.1 30:0.0625 36:0.0652174 38:0.05 39:0.131579 42:0.166667 44:0.0185185 46:0.25 48:0.166667 52:0.0625 55:0.125 65:0.0625 68:0.375 73:0.0294118 75:0.0238095 76:0.0357143 81:0.0681818 83:0.05 84:0.166667 88:0.0714286 90:0.1 95:0.0576923 100:0.0555556 101:0.0357143 103:0.125 106:0.0487805 
1 0 0 1:0.0467836 2:0.0833333 3:0.0952381 7:0.0138889 9:0.0757576 12:0.111111 14:0.047619 17:0.125 18:0.166667 24:0.0952381 28:0.0666667 30:0.0416667 36:0.0434783 38:0.0333333 39:0.0877193 42:0.111111 44:0.0205761 46:0.166667 48:0.111111 52:0.0416667 55:0.0833333 65:0.0416667 68:0.25 73:0.0196078 75:0.015873 76:0.0238095 81:0.0454545 83:0.0333333 84:0.111111 88:0.047619 90:0.0666667 95:0.0384615 100:0.037037 101:0.0238095 102:0.0833333 103:0.0833333 106:0.0325203 
1 1 0 1:0.0100251 2:0.0178571 3:0.0204082 7:0.00297619 9:0.0162338 12:0.0238095 14:0.0102041 17:0.0267857 18:0.0357143 24:0.0204082 28:0.0142857 30:0.00892857 36:0.00931677 38:0.00714286 39:0.018797 42:0.0238095 44:0.00440917 45:0.0357143 46:0.0357143 48:0.0238095 52:0.00892857 55:0.0178571 65:0.00892857 68:0.0535714 73:0.00840336 75:0.00340136 76:0.00510204 81:0.00974026 83:0.00714286 84:0.0238095 88:0.0102041 90:0.0142857 95:0.00824176 100:0.00793651 101:0.00510204 102:0.0178571 103:0.0178571 106:0.00696864 
1 1 0 1:0.0292398 2:0.0416667 3:0.047619 7:0.00694444 9:0.0378788 12:0.0555556 14:0.0238095 17:0.0625 18:0.0833333 24:0.047619 28:0.0333333 30:0.0208333 36:0.0289855 38:0.0166667 39:0.0438596 42:0.0555556 44:0.0102881 45:0.0833333 46:0.0833333 48:0.0555556 52:0.0208333 55:0.0416667 65:0.0208333 68:0.125 73:0.0196078 75:0.00793651 76:0.0119048 81:0.0227273 83:0.0166667 84:0.0555556 88:0.0238095 90:0.0333333 95:0.0192308 100:0.0185185 101:0.0119048 102:0.0416667 103:0.0416667 106:0.0162602 
1 1 0 1:0.0438596 2:0.0625 3:0.0714286 7:0.0208333 9:0.0568182 12:0.0833333 14:0.0357143 17:0.09375 18:0.125 24:0.0714286 28:0.05 30:0.03125 36:0.0434783 38:0.025 39:0.0657895 42:0.0833333 44:0.0185185 45:0.125 46:0.125 48:0.125 52:0.03125 55:0.0625 65:0.03125 68:0.1875 73:0.0294118 75:0.0119048 76:0.0178571 81:0.0340909 83:0.025 84:0.0833333 88:0.0357143 90:0.05 95:0.0288462 100:0.0277778 101:0.0178571 102:0.0625 103:0.0625 106:0.0243902 
1 0 0 1:0.0438596 2:0.0625 3:0.0714286 4:0.0357143 7:0.0208333 9:0.0568182 12:0.0833333 14:0.0357143 17:0.09375 18:0.125 24:0.0714286 28:0.05 30:0.03125 36:0.0434783 38:0.025 39:0.0657895 42:0.0833333 44:0.0185185 45:0.125 46:0.125 48:0.125 52:0.03125 55:0.0625 65:0.03125 68:0.1875 73:0.0294118 75:0.0119048 76:0.0178571 81:0.0340909 83:0.025 84:0.0833333 88:0.0357143 90:0.05 95:0.0288462 100:0.0277778 101:0.0178571 102:0.0625 103:0.0625 106:0.0304878 
1 0 0 1:0.0438596 2:0.0625 3:0.0714286 4:0.0357143 7:0.0208333 9:0.0568182 12:0.0833333 14:0.0357143 17:0.09375 18:0.125 24:0.0714286 28:0.05 30:0.03125 36:0.0434783 38:0.025 39:0.0657895 42:0.125 44:0.0216049 45:0.125 46:0.125 48:0.125 52:0.03125 55:0.0625 65:0.03125 68:0.1875 73:0.0294118 75:0.0119048 76:0.0178571 81:0.0340909 83:0.025 84:0.0833333 88:0.0357143 90:0.1 95:0.0288462 100:0.0277778 101:0.0178571 102:0.0625 103:0.0625 106:0.0304878 
1 1 0 1:0.175439 2:0.25 3:0.285714 4:0.142857 7:0.0833333 9:0.227273 12:0.333333 14:0.142857 17:0.375 18:0.5 24:0.285714 28:0.2 30:0.125 36:0.173913 38:0.1 39:0.263158 42:0.5 44:0.0864198 45:0.5 46:0.5 48:0.5 52:0.125 55:0.25 65:0.125 68:0.75 73:0.117647 75:0.047619 76:0.0714286 81:0.136364 83:0.1 84:0.333333 88:0.142857 90:0.4 95:0.115385 100:0.111111 101:0.0714286 102:0.25 103:0.25 106:0.121951 
1 0.9631897853823295 0 1:0.0482456 2:0.0625 3:0.0714286 4:0.0357143 7:0.0208333 9:0.0568182 12:0.0833333 14:0.0357143 17:0.09375 18:0.125 24:0.0714286 28:0.05 30:0.03125 36:0.0543478 38:0.025 39:0.0657895 42:0.125 44:0.0277778 45:0.125 46:0.125 48:0.125 52:0.03125 55:0.0625 59:0.03125 65:0.03125 68:0.1875 73:0.0294118 75:0.0238095 76:0.0178571 81:0.0568182 83:0.05 84:0.0833333 88:0.0357143 90:0.1 95:0.0288462 100:0.0277778 101:0.0297619 102:0.0625 103:0.0625 106:0.0426829 
1 1 0 1:0.0148448 2:0.0192308 3:0.021978 4:0.010989 7:0.00641026 9:0.0174825 12:0.025641 14:0.014652 17:0.0288462 18:0.0384615 24:0.021978 28:0.0153846 30:0.0192308 36:0.0167224 38:0.00769231 39:0.0202429 42:0.0384615 44:0.00854701 45:0.0384615 46:0.0384615 48:0.0384615 52:0.00961538 55:0.0192308 58:0.00549451 59:0.00961538 60:0.0128205 65:0.00961538 68:0.0576923 73:0.00904977 75:0.00732601 76:0.00549451 81:0.0174825 83:0.0153846 84:0.025641 88:0.010989 90:0.0307692 95:0.00887574 100:0.00854701 101:0.00915751 102:0.0192308 103:0.0192308 106:0.0150094 
1 0 0 1:0.0526316 2:0.0625 3:0.0714286 4:0.0357143 7:0.0208333 9:0.0568182 12:0.0833333 14:0.047619 17:0.09375 18:0.125 24:0.0714286 28:0.075 30:0.0625 36:0.0543478 38:0.05 39:0.0657895 42:0.125 44:0.0277778 45:0.125 46:0.125 48:0.125 52:0.03125 55:0.0625 58:0.0178571 59:0.03125 60:0.0416667 65:0.03125 68:0.1875 73:0.0294118 75:0.0238095 76:0.0178571 81:0.0568182 83:0.05 84:0.0833333 88:0.0357143 90:0.1 95:0.0288462 100:0.0277778 101:0.0297619 102:0.0625 103:0.0625 106:0.0487805 
1 1 0 1:0.0161943 2:0.0192308 3:0.021978 4:0.010989 7:0.00961538 9:0.0174825 12:0.025641 14:0.018315 17:0.0288462 18:0.0384615 24:0.021978 28:0.0230769 30:0.0192308 31:0.025641 36:0.0167224 38:0.0153846 39:0.0202429 42:0.0384615 44:0.00949668 45:0.0384615 46:0.0384615 48:0.0384615 52:0.00961538 55:0.0192308 58:0.00549451 59:0.00961538 60:0.0128205 65:0.00961538 68:0.0576923 73:0.00904977 75:0.00732601 76:0.00549451 81:0.0174825 83:0.0153846 84:0.025641 88:0.010989 90:0.0307692 95:0.00887574 100:0.00854701 101:0.010989 102:0.0192308 103:0.0192308 106:0.0150094 
1 0 0 1:0.0701754 2:0.0833333 3:0.142857 4:0.047619 7:0.0555556 9:0.0757576 12:0.111111 14:0.0793651 17:0.125 18:0.166667 24:0.0952381 28:0.1 30:0.0833333 31:0.111111 36:0.0724638 38:0.0666667 39:0.0877193 42:0.166667 44:0.0452675 45:0.166667 46:0.166667 48:0.166667 52:0.0416667 55:0.0833333 58:0.0238095 59:0.0416667 60:0.0555556 65:0.0416667 68:0.25 73:0.0392157 75:0.031746 76:0.0238095 81:0.0757576 83:0.0666667 84:0.111111 88:0.047619 90:0.133333 95:0.0384615 100:0.037037 101:0.0555556 102:0.0833333 103:0.0833333 106:0.0731707 
1 0.1729133204307894 0 1:0.210526 2:0.25 3:0.428571 4:0.142857 7:0.208333 9:0.227273 12:0.333333 14:0.238095 17:0.375 18:0.5 24:0.285714 28:0.3 30:0.25 31:0.333333 36:0.217391 38:0.2 39:0.263158 42:0.5 44:0.148148 45:0.5 46:0.5 48:0.5 52:0.125 55:0.25 58:0.0714286 59:0.125 60:0.333333 65:0.125 68:0.75 73:0.176471 75:0.0952381 76:0.0714286 81:0.227273 83:0.2 84:0.333333 88:0.142857 90:0.4 95:0.115385 100:0.111111 101:0.166667 102:0.25 103:0.25 106:0.219512 
1 0.9471356026230319 0 1:0.0701754 2:0.0833333 3:0.142857 4:0.047619 7:0.0694444 9:0.0757576 12:0.111111 14:0.0793651 17:0.125 18:0.166667 24:0.0952381 28:0.1 30:0.0833333 31:0.111111 36:0.0724638 38:0.0666667 39:0.0877193 42:0.166667 44:0.0493827 45:0.166667 46:0.166667 48:0.166667 52:0.0416667 55:0.0833333 58:0.0238095 59:0.0416667 60:0.111111 65:0.0416667 68:0.25 73:0.0588235 75:0.031746 76:0.0238095 81:0.0757576 83:0.0666667 84:0.111111 88:0.047619 90:0.133333 95:0.0384615 100:0.037037 101:0.0555556 102:0.0833333 103:0.0833333 106:0.0731707 
1 1 0 1:0.22807 2:0.25 3:0.428571 4:0.142857 7:0.208333 9:0.227273 12:0.333333 14:0.238095 17:0.375 18:0.5 23:0.0714286 24:0.285714 28:0.3 30:0.25 31:0.333333 36:0.217391 38:0.2 39:0.263158 42:0.5 44:0.160494 45:0.5 46:0.5 48:0.5 52:0.125 55:0.25 58:0.0714286 59:0.125 60:0.333333 65:0.125 68:0.75 73:0.176471 75:0.0952381 76:0.0714286 81:0.227273 83:0.2 84:0.333333 88:0.142857 90:0.4 95:0.115385 100:0.111111 101:0.166667 102:0.25 103:0.25 106:0.243902 
0.5846068104596195 0 0 1:0.245614 2:0.25 3:0.428571 4:0.142857 7:0.208333 9:0.227273 12:0.333333 14:0.238095 17:0.375 18:0.5 23:0.0714286 24:0.285714 25:0.333333 28:0.3 30:0.25 31:0.333333 36:0.217391 38:0.2 39:0.263158 42:0.5 44:0.160494 45:0.5 46:0.5 48:0.5 52:0.125 55:0.25 56:0.333333 58:0.0714286 59:0.125 60:0.333333 65:0.125 68:0.75 73:0.176471 75:0.0952381 76:0.0714286 81:0.227273 83:0.2 84:0.333333 88:0.142857 90:0.4 95:0.115385 100:0.111111 101:0.190476 102:0.25 103:0.25 106:0.243902 
1 0 0 1:0.0657895 2:0.0625 3:0.107143 4:0.0357143 7:0.0520833 9:0.0568182 12:0.0833333 14:0.0595238 17:0.09375 18:0.125 23:0.0178571 24:0.0714286 25:0.0833333 28:0.075 30:0.0625 31:0.0833333 36:0.0543478 38:0.05 39:0.0657895 42:0.125 44:0.0401235 45:0.125 46:0.125 48:0.125 52:0.03125 55:0.125 56:0.0833333 58:0.0178571 59:0.03125 60:0.0833333 65:0.03125 68:0.1875 73:0.0441176 75:0.0238095 76:0.0178571 81:0.0568182 83:0.05 84:0.0833333 88:0.0357143 90:0.1 95:0.0384615 100:0.0277778 101:0.0535714 102:0.0625 103:0.125 106:0.0609756 
1 0 0 1:0.140351 2:0.125 3:0.214286 4:0.0714286 7:0.104167 9:0.113636 12:0.166667 14:0.119048 17:0.1875 18:0.25 23:0.0357143 24:0.142857 25:0.166667 28:0.15 30:0.125 31:0.166667 36:0.108696 38:0.1 39:0.131579 42:0.25 44:0.0802469 45:0.25 46:0.25 48:0.25 52:0.0625 55:0.25 56:0.166667 58:0.0357143 59:0.0625 60:0.166667 65:0.0625 68:0.375 73:0.0882353 75:0.047619 76:0.0357143 81:0.113636 83:0.1 84:0.166667 88:0.0714286 90:0.2 95:0.0769231 100:0.0555556 101:0.107143 102:0.125 103:0.25 106:0.121951 
1 0 0 1:0.0561404 2:0.05 3:0.0857143 4:0.0285714 7:0.0416667 9:0.0454545 12:0.0666667 14:0.047619 17:0.075 18:0.1 23:0.0142857 24:0.0571429 25:0.0666667 28:0.06 30:0.05 31:0.0666667 36:0.0434783 38:0.04 39:0.0526316 42:0.1 44:0.0320988 45:0.1 46:0.1 48:0.1 52:0.025 55:0.1 56:0.0666667 58:0.0142857 59:0.025 60:0.0666667 65:0.025 68:0.15 73:0.0352941 75:0.0190476 76:0.0142857 79:0.0285714 81:0.0454545 83:0.04 84:0.0666667 88:0.0285714 90:0.08 95:0.0307692 100:0.0222222 101:0.0428571 102:0.05 103:0.1 106:0.0487805 
1 0 0 1:0.0467836 2:0.0416667 3:0.0714286 4:0.0238095 7:0.0347222 9:0.0378788 12:0.0555556 14:0.0396825 17:0.0625 18:0.0833333 23:0.0119048 24:0.047619 25:0.0555556 28:0.05 30:0.0416667 31:0.0555556 36:0.0362319 38:0.0333333 39:0.0438596 42:0.0833333 44:0.026749 45:0.0833333 46:0.0833333 48:0.0833333 51:0.0185185 52:0.0208333 55:0.0833333 56:0.0555556 58:0.0119048 59:0.0208333 60:0.0555556 65:0.0208333 68:0.125 73:0.0294118 75:0.015873 76:0.0119048 79:0.0238095 81:0.0378788 83:0.0333333 84:0.0555556 88:0.0238095 90:0.0666667 95:0.025641 100:0.0185185 101:0.0357143 102:0.0416667 103:0.0833333 106:0.0406504 
1 0 0 1:0.0401003 2:0.0357143 3:0.0612245 4:0.0204082 7:0.0297619 9:0.0324675 12:0.047619 14:0.0340136 17:0.0535714 18:0.0714286 23:0.0102041 24:0.0408163 25:0.047619 28:0.0428571 30:0.0535714 31:0.047619 36:0.0310559 38:0.0285714 39:0.037594 42:0.0714286 44:0.0229277 45:0.0714286 46:0.0714286 48:0.0714286 51:0.015873 52:0.0178571 55:0.0714286 56:0.047619 58:0.0102041 59:0.0178571 60:0.047619 65:0.0357143 68:0.107143 73:0.0252101 75:0.0136054 76:0.0102041 79:0.0204082 81:0.038961 83:0.0285714 84:0.047619 88:0.0204082 90:0.0571429 95:0.021978 100:0.015873 101:0.0306122 102:0.0357143 103:0.0714286 106:0.0348432 
1 0 0 1:0.140351 2:0.125 3:0.214286 4:0.0714286 7:0.104167 9:0.113636 12:0.166667 14:0.119048 17:0.1875 18:0.25 23:0.0357143 24:0.142857 25:0.166667 28:0.15 30:0.1875 31:0.166667 36:0.108696 38:0.1 39:0.131579 42:0.25 44:0.0864198 45:0.25 46:0.25 48:0.25 51:0.0555556 52:0.0625 55:0.25 56:0.166667 58:0.0357143 59:0.0625 60:0.166667 65:0.125 68:0.375 73:0.0882353 75:0.0714286 76:0.0357143 79:0.0714286 81:0.136364 83:0.1 84:0.166667 88:0.0714286 90:0.2 95:0.0769231 100:0.0555556 101:0.107143 102:0.125 103:0.25 106:0.121951 
1 0.3286003629259674 0 1:0.149123 2:0.125 3:0.214286 4:0.0714286 7:0.104167 9:0.113636 12:0.166667 14:0.119048 17:0.1875 18:0.25 23:0.0357143 24:0.142857 25:0.166667 28:0.15 30:0.1875 31:0.166667 36:0.108696 38:0.1 39:0.131579 42:0.25 44:0.0925926 45:0.25 46:0.25 48:0.25 51:0.0555556 52:0.0625 55:0.25 56:0.166667 58:0.0357143 59:0.0625 60:0.166667 65:0.125 68:0.375 73:0.0882353 75:0.0714286 76:0.0357143 79:0.0714286 81:0.136364 83:0.1 84:0.166667 88:0.0714286 90:0.2 95:0.0769231 100:0.0555556 101:0.107143 102:0.125 103:0.375 104:0.166667 106:0.121951 
1 0 0 1:0.149123 2:0.125 3:0.214286 4:0.0714286 7:0.104167 9:0.113636 12:0.166667 14:0.119048 17:0.1875 18:0.25 23:0.0357143 24:0.142857 25:0.166667 28:0.15 30:0.1875 31:0.166667 36:0.108696 38:0.1 39:0.131579 42:0.25 44:0.0925926 45:0.25 46:0.25 48:0.25 51:0.0555556 52:0.0625 55:0.25 56:0.166667 58:0.0357143 59:0.0625 60:0.166667 63:0.0227273 65:0.125 68:0.375 73:0.0882353 75:0.0714286 76:0.0357143 79:0.0714286 81:0.136364 83:0.1 84:0.166667 88:0.0714286 90:0.2 95:0.0769231 100:0.0555556 101:0.107143 102:0.125 103:0.375 104:0.166667 106:0.121951 
1 0 0 1:0.0426065 2:0.0357143 3:0.0612245 4:0.0204082 7:0.0357143 9:0.0324675 12:0.047619 14:0.0340136 17:0.0535714 18:0.0714286 23:0.0102041 24:0.0408163 25:0.047619 28:0.0428571 30:0.0714286 31:0.047619 36:0.0310559 38:0.0285714 39:0.037594 42:0.0714286 44:0.026455 45:0.0714286 46:0.0714286 48:0.0714286 51:0.015873 52:0.0178571 55:0.0714286 56:0.047619 58:0.0102041 59:0.0178571 60:0.047619 63:0.00649351 65:0.0357143 68:0.107143 73:0.0336134 75:0.0204082 76:0.0102041 79:0.0204082 81:0.038961 83:0.0285714 84:0.047619 88:0.0204082 90:0.0571429 95:0.021978 100:0.015873 101:0.0340136 102:0.0357143 103:0.107143 104:0.047619 106:0.0348432 
1 0 0 1:0.157895 2:0.125 3:0.214286 4:0.0714286 7:0.125 9:0.113636 12:0.166667 14:0.142857 17:0.1875 18:0.25 23:0.0357143 24:0.142857 25:0.166667 28:0.15 30:0.25 31:0.166667 36:0.108696 38:0.1 39:0.157895 42:0.25 44:0.0925926 45:0.25 46:0.25 48:0.25 51:0.0555556 52:0.0625 55:0.25 56:0.166667 58:0.0357143 59:0.0625 60:0.166667 63:0.0227273 65:0.125 68:0.375 73:0.117647 75:0.0714286 76:0.0357143 79:0.0714286 81:0.136364 83:0.1 84:0.166667 88:0.0714286 90:0.2 95:0.0769231 100:0.0555556 101:0.119048 102:0.125 103:0.375 104:0.166667 106:0.121951 
1 0 0 1:0.0789474 2:0.0625 3:0.107143 4:0.0357143 6:0.0138889 7:0.0625 9:0.0568182 12:0.0833333 14:0.0714286 17:0.09375 18:0.125 23:0.0178571 24:0.0714286 25:0.0833333 28:0.075 30:0.125 31:0.0833333 36:0.0543478 38:0.05 39:0.0789474 42:0.125 44:0.0493827 45:0.125 46:0.125 48:0.125 51:0.0277778 52:0.03125 55:0.125 56:0.0833333 58:0.0178571 59:0.03125 60:0.0833333 63:0.0113636 65:0.0625 68:0.1875 73:0.0588235 75:0.0357143 76:0.0178571 79:0.0357143 81:0.0681818 83:0.05 84:0.0833333 88:0.0357143 90:0.1 95:0.0384615 100:0.0277778 101:0.0595238 102:0.0625 103:0.1875 104:0.0833333 106:0.0609756 
0 0.1776612696677108 0 1:0.333333 2:0.25 3:0.428571 4:0.142857 6:0.0555556 7:0.25 9:0.227273 12:0.333333 14:0.285714 17:0.375 18:0.5 23:0.0714286 24:0.285714 25:0.333333 28:0.3 30:0.5 31:0.333333 36:0.217391 38:0.2 39:0.315789 42:0.5 44:0.197531 45:0.5 46:0.5 48:0.5 51:0.111111 52:0.125 55:0.5 56:0.333333 58:0.0714286 59:0.125 60:0.333333 63:0.0454545 65:0.25 68:0.75 73:0.235294 75:0.142857 76:0.0714286 79:0.142857 81:0.272727 83:0.2 84:0.333333 88:0.142857 90:0.4 95:0.153846 100:0.111111 101:0.238095 102:0.25 103:0.75 104:0.333333 106:0.243902 
1 0 0 1:0.166667 2:0.125 3:0.214286 4:0.0714286 6:0.0277778 7:0.125 9:0.113636 12:0.166667 14:0.142857 17:0.1875 18:0.25 23:0.0357143 24:0.142857 25:0.166667 28:0.15 30:0.25 31:0.166667 36:0.108696 38:0.1 39:0.157895 42:0.25 44:0.0987654 45:0.25 46:0.25 48:0.25 51:0.0555556 52:0.0625 55:0.25 56:0.166667 58:0.0357143 59:0.0625 60:0.166667 63:0.0227273 65:0.125 68:0.375 73:0.117647 75:0.0714286 76:0.0357143 79:0.0714286 81:0.136364 83:0.1 84:0.166667 88:0.0714286 90:0.2 95:0.0769231 100:0.0555556 101:0.119048 102:0.125 103:0.375 104:0.166667 105:0.1 106:0.121951 
1 1 0 1:0.0138889 2:0.0104167 3:0.0178571 4:0.00595238 6:0.00231481 7:0.0104167 9:0.0094697 12:0.0138889 14:0.0119048 17:0.015625 18:0.0208333 23:0.00297619 24:0.0119048 25:0.0138889 28:0.0125 30:0.0260417 31:0.0138889 36:0.00905797 38:0.00833333 39:0.0131579 42:0.0208333 44:0.00874486 45:0.0208333 46:0.0208333 48:0.0208333 51:0.00462963 52:0.00520833 55:0.0208333 56:0.0138889 58:0.00297619 59:0.00520833 60:0.0138889 63:0.00189394 65:0.0104167 68:0.03125 73:0.00980392 75:0.00992063 76:0.00297619 79:0.00595238 81:0.0132576 83:0.00833333 84:0.0138889 88:0.00595238 90:0.0166667 95:0.00641026 100:0.00694444 101:0.0109127 102:0.0104167 103:0.03125 104:0.0138889 105:0.00833333 106:0.0111789 
1 1 0 1:0.0666667 2:0.05 3:0.0857143 4:0.0285714 6:0.0111111 7:0.0583333 9:0.0454545 12:0.0666667 14:0.0571429 17:0.075 18:0.1 23:0.0142857 24:0.0571429 25:0.0666667 28:0.06 30:0.125 31:0.0666667 36:0.0434783 38:0.06 39:0.0631579 42:0.1 44:0.0444444 45:0.1 46:0.1 48:0.1 51:0.0222222 52:0.025 55:0.1 56:0.0666667 58:0.0142857 59:0.025 60:0.0666667 63:0.00909091 65:0.05 68:0.15 73:0.0470588 75:0.047619 76:0.0142857 79:0.0285714 81:0.0636364 83:0.04 84:0.0666667 88:0.0285714 90:0.12 95:0.0384615 100:0.0444444 101:0.0571429 102:0.05 103:0.15 104:0.0666667 105:0.04 106:0.0585366 
1 0.6924667541458096 0 1:0.166667 2:0.125 3:0.214286 4:0.0714286 6:0.0277778 7:0.145833 9:0.113636 12:0.166667 14:0.142857 17:0.1875 18:0.25 23:0.0357143 24:0.142857 25:0.166667 28:0.15 30:0.3125 31:0.166667 36:0.108696 38:0.15 39:0.184211 42:0.25 44:0.117284 45:0.25 46:0.25 48:0.25 51:0.0555556 52:0.0625 55:0.25 56:0.166667 58:0.0357143 59:0.0625 60:0.166667 63:0.0227273 65:0.125 68:0.375 73:0.117647 75:0.142857 76:0.0357143 79:0.0714286 81:0.159091 83:0.1 84:0.166667 88:0.0714286 90:0.3 95:0.0961538 100:0.111111 101:0.142857 102:0.125 103:0.375 104:0.166667 105:0.1 106:0.146341 
1 1 0 1:0.0833333 2:0.0625 3:0.107143 4:0.0714286 6:0.0138889 7:0.0729167 9:0.0568182 12:0.0833333 14:0.0714286 17:0.09375 18:0.125 21:0.25 23:0.0178571 24:0.0714286 25:0.0833333 28:0.075 30:0.15625 31:0.0833333 36:0.0543478 38:0.075 39:0.0921053 42:0.125 44:0.058642 45:0.125 46:0.125 48:0.125 51:0.0277778 52:0.03125 55:0.125 56:0.0833333 58:0.0178571 59:0.03125 60:0.0833333 63:0.0227273 64:0.25 65:0.0625 68:0.1875 73:0.0588235 75:0.0714286 76:0.0178571 79:0.0357143 81:0.0795455 83:0.05 84:0.0833333 88:0.0357143 90:0.15 95:0.0480769 100:0.0833333 101:0.0714286 102:0.0625 103:0.1875 104:0.0833333 105:0.05 106:0.0731707 
1 0.3704445050952097 0 1:0.166667 2:0.125 3:0.214286 4:0.142857 6:0.0833333 7:0.145833 9:0.113636 12:0.166667 14:0.142857 17:0.25 18:0.25 21:0.5 22:0.125 23:0.0357143 24:0.142857 25:0.166667 28:0.15 30:0.3125 31:0.166667 36:0.108696 38:0.15 39:0.184211 42:0.25 44:0.117284 45:0.25 46:0.25 48:0.25 51:0.0555556 52:0.0625 55:0.25 56:0.166667 57:0.5 58:0.0714286 59:0.125 60:0.166667 63:0.0454545 64:0.5 65:0.125 68:0.5 73:0.117647 75:0.166667 76:0.0714286 79:0.0714286 81:0.204545 83:0.1 84:0.166667 88:0.0714286 90:0.3 95:0.0961538 98:0.125 100:0.194444 101:0.142857 102:0.125 103:0.375 104:0.166667 105:0.1 106:0.158537 107:0.25 
1 0.1062546235823776 0 1:0.116959 2:0.0833333 3:0.142857 4:0.0952381 6:0.0555556 7:0.0972222 9:0.0757576 12:0.111111 14:0.0952381 17:0.166667 18:0.166667 21:0.333333 22:0.0833333 23:0.0238095 24:0.0952381 25:0.111111 28:0.1 30:0.208333 31:0.111111 36:0.0724638 38:0.1 39:0.122807 42:0.166667 44:0.0781893 45:0.166667 46:0.166667 48:0.166667 51:0.037037 52:0.0416667 55:0.166667 56:0.111111 57:0.333333 58:0.047619 59:0.0833333 60:0.111111 63:0.0454545 64:0.333333 65:0.0833333 68:0.333333 73:0.0784314 75:0.111111 76:0.047619 79:0.047619 81:0.136364 83:0.0666667 84:0.111111 88:0.047619 90:0.2 95:0.0769231 98:0.0833333 100:0.12963 101:0.0952381 102:0.0833333 103:0.25 104:0.111111 105:0.0666667 106:0.105691 107:0.166667 
1 0 0 1:0.0614035 2:0.0416667 3:0.0714286 4:0.047619 6:0.0277778 7:0.0486111 9:0.0378788 12:0.0555556 14:0.047619 17:0.0833333 18:0.0833333 21:0.166667 22:0.0416667 23:0.0119048 24:0.047619 25:0.0555556 28:0.05 30:0.104167 31:0.0555556 36:0.0362319 38:0.05 39:0.0614035 42:0.0833333 44:0.0390947 45:0.0833333 46:0.0833333 48:0.0833333 51:0.0185185 52:0.0208333 55:0.0833333 56:0.0555556 57:0.166667 58:0.0238095 59:0.0416667 60:0.0555556 63:0.0227273 64:0.166667 65:0.0416667 68:0.166667 73:0.0392157 75:0.0555556 76:0.0238095 79:0.0238095 81:0.0681818 83:0.0333333 84:0.0555556 88:0.0238095 90:0.1 95:0.0384615 98:0.0416667 100:0.0648148 101:0.047619 102:0.0416667 103:0.125 104:0.0555556 105:0.0333333 106:0.0528455 107:0.0833333 
1 0 0 1:0.368421 2:0.25 3:0.428571 4:0.285714 6:0.166667 7:0.291667 9:0.227273 12:0.333333 14:0.285714 17:0.5 18:0.5 21:1 22:0.25 23:0.0714286 24:0.285714 25:0.333333 28:0.3 30:0.625 31:0.333333 36:0.217391 38:0.3 39:0.421053 42:0.5 44:0.234568 45:0.5 46:0.5 48:0.5 51:0.111111 52:0.125 55:0.5 56:0.333333 57:1 58:0.142857 59:0.25 60:0.333333 63:0.136364 64:1 65:0.25 68:1 73:0.235294 75:0.333333 76:0.142857 79:0.142857 81:0.409091 83:0.2 84:0.333333 88:0.142857 90:0.6 95:0.230769 98:0.25 100:0.388889 101:0.285714 102:0.25 103:0.75 104:0.333333 105:0.2 106:0.317073 107:0.5 
1 0.1102147393812461 0 1:0.192982 2:0.125 3:0.214286 4:0.142857 6:0.0833333 7:0.145833 9:0.113636 12:0.166667 14:0.142857 17:0.25 18:0.25 21:0.5 22:0.125 23:0.0714286 24:0.142857 25:0.166667 28:0.15 30:0.3125 31:0.166667 36:0.108696 38:0.15 39:0.210526 42:0.25 44:0.117284 45:0.25 46:0.25 48:0.25 51:0.0555556 52:0.0625 55:0.25 56:0.166667 57:0.5 58:0.0714286 59:0.125 60:0.25 63:0.0909091 64:0.5 65:0.125 68:0.5 73:0.117647 75:0.166667 76:0.0714286 79:0.0714286 81:0.227273 83:0.1 84:0.166667 88:0.0714286 90:0.3 95:0.134615 98:0.125 100:0.194444 101:0.142857 102:0.125 103:0.375 104:0.166667 105:0.1 106:0.170732 107:0.25 
1 0.1510824106910216 0 1:0.0672515 2:0.0416667 3:0.0714286 4:0.047619 6:0.0277778 7:0.0486111 9:0.0378788 12:0.0555556 14:0.0555556 17:0.0833333 18:0.0833333 21:0.166667 22:0.0416667 23:0.0238095 24:0.047619 25:0.0555556 28:0.05 30:0.125 31:0.0555556 36:0.0434783 38:0.05 39:0.0701754 42:0.0833333 44:0.0432099 45:0.0833333 46:0.0833333 48:0.0833333 51:0.0185185 52:0.0208333 55:0.0833333 56:0.0555556 57:0.166667 58:0.0238095 59:0.0416667 60:0.0833333 63:0.0454545 64:0.166667 65:0.0416667 68:0.166667 73:0.0490196 75:0.0555556 76:0.0238095 79:0.0238095 81:0.0757576 83:0.0333333 84:0.0555556 88:0.0238095 90:0.1 95:0.0448718 98:0.0416667 100:0.0740741 101:0.0515873 102:0.0416667 103:0.125 104:0.0555556 105:0.0333333 106:0.0569106 107:0.0833333 
1 0.2014023185573649 0 1:0.201754 2:0.125 3:0.214286 4:0.142857 6:0.0833333 7:0.145833 9:0.113636 12:0.166667 14:0.166667 17:0.25 18:0.25 21:0.5 22:0.125 23:0.0714286 24:0.142857 25:0.166667 28:0.15 30:0.375 31:0.166667 36:0.152174 38:0.15 39:0.210526 42:0.25 44:0.12963 45:0.25 46:0.25 48:0.25 51:0.111111 52:0.0625 55:0.25 56:0.166667 57:0.5 58:0.0714286 59:0.125 60:0.25 63:0.136364 64:0.5 65:0.125 68:0.5 73:0.147059 75:0.166667 76:0.0714286 79:0.0714286 81:0.227273 83:0.1 84:0.166667 88:0.0714286 90:0.3 95:0.134615 98:0.125 100:0.222222 101:0.154762 102:0.125 103:0.375 104:0.166667 105:0.1 106:0.170732 107:0.25 
1 0 0 1:0.105263 2:0.0625 3:0.107143 4:0.0714286 6:0.0416667 7:0.0729167 9:0.0568182 12:0.0833333 14:0.0833333 17:0.125 18:0.125 21:0.25 22:0.0625 23:0.0357143 24:0.0714286 25:0.0833333 28:0.075 30:0.1875 31:0.0833333 36:0.076087 38:0.075 39:0.105263 42:0.125 44:0.0679012 45:0.125 46:0.125 48:0.125 51:0.0555556 52:0.03125 55:0.125 56:0.0833333 57:0.25 58:0.0357143 59:0.0625 60:0.125 63:0.0681818 64:0.25 65:0.0625 68:0.25 73:0.0735294 75:0.0833333 76:0.0357143 79:0.0357143 81:0.113636 83:0.05 84:0.0833333 88:0.0357143 90:0.15 95:0.0673077 98:0.0625 100:0.111111 101:0.077381 102:0.0625 103:0.1875 104:0.0833333 105:0.05 106:0.0853659 107:0.125 
1 0 0 1:0.140351 2:0.0833333 3:0.142857 4:0.0952381 6:0.0555556 7:0.0972222 9:0.0757576 12:0.111111 14:0.111111 17:0.166667 18:0.166667 21:0.333333 22:0.0833333 23:0.047619 24:0.0952381 25:0.111111 28:0.1 30:0.25 31:0.111111 36:0.115942 38:0.1 39:0.140351 42:0.166667 44:0.090535 45:0.166667 46:0.166667 48:0.166667 51:0.0740741 52:0.0416667 55:0.166667 56:0.111111 57:0.333333 58:0.047619 59:0.0833333 60:0.166667 63:0.0909091 64:0.333333 65:0.0833333 68:0.333333 73:0.117647 75:0.126984 76:0.047619 79:0.047619 81:0.151515 83:0.0666667 84:0.111111 88:0.047619 90:0.2 95:0.0897436 98:0.0833333 100:0.148148 101:0.103175 102:0.0833333 103:0.25 104:0.111111 105:0.0666667 106:0.113821 107:0.166667 
1 0 0 1:0.210526 2:0.125 3:0.214286 4:0.142857 6:0.0833333 7:0.166667 9:0.113636 12:0.166667 14:0.166667 17:0.25 18:0.25 21:0.5 22:0.125 23:0.0714286 24:0.142857 25:0.166667 28:0.15 30:0.375 31:0.166667 36:0.173913 38:0.15 39:0.236842 42:0.25 44:0.135802 45:0.25 46:0.25 48:0.25 51:0.111111 52:0.0625 55:0.25 56:0.166667 57:0.5 58:0.0714286 59:0.125 60:0.25 63:0.136364 64:0.5 65:0.125 68:0.5 73:0.176471 75:0.190476 76:0.0714286 79:0.0714286 81:0.227273 83:0.1 84:0.166667 88:0.0714286 90:0.3 95:0.134615 98:0.125 100:0.222222 101:0.154762 102:0.125 103:0.375 104:0.166667 105:0.1 106:0.170732 107:0.25 
1 1 0 1:0.0382775 2:0.0227273 3:0.038961 4:0.025974 6:0.0151515 7:0.030303 9:0.0206612 12:0.030303 13:0.0227273 14:0.030303 17:0.0454545 18:0.0454545 21:0.0909091 22:0.0227273 23:0.025974 24:0.025974 25:0.030303 28:0.0272727 30:0.0681818 31:0.030303 36:0.0316206 38:0.0272727 39:0.0430622 40:0.0113636 42:0.0454545 44:0.026936 45:0.0454545 46:0.0454545 48:0.0454545 51:0.020202 52:0.0113636 55:0.0454545 56:0.030303 57:0.0909091 58:0.012987 59:0.0227273 60:0.0454545 63:0.0247934 64:0.0909091 65:0.0227273 68:0.0909091 71:0.0909091 73:0.0320856 75:0.034632 76:0.0194805 79:0.012987 81:0.0454545 83:0.0181818 84:0.030303 88:0.025974 90:0.0545455 95:0.0244755 98:0.0227273 100:0.040404 101:0.0281385 102:0.0227273 103:0.0681818 104:0.030303 105:0.0181818 106:0.0310421 107:0.0454545 
1 0 0 1:0.0701754 2:0.0416667 3:0.0714286 4:0.047619 5:0.0416667 6:0.0277778 7:0.0555556 9:0.0378788 12:0.0555556 13:0.0416667 14:0.0555556 17:0.0833333 18:0.0833333 21:0.166667 22:0.0416667 23:0.047619 24:0.047619 25:0.0555556 28:0.05 30:0.125 31:0.0555556 34:0.166667 36:0.057971 38:0.05 39:0.0877193 40:0.0416667 42:0.0833333 44:0.0534979 45:0.0833333 46:0.0833333 48:0.0833333 51:0.037037 52:0.0208333 55:0.0833333 56:0.0555556 57:0.166667 58:0.0238095 59:0.0416667 60:0.0833333 63:0.0454545 64:0.166667 65:0.0416667 68:0.166667 71:0.166667 73:0.0686275 75:0.0634921 76:0.047619 79:0.0238095 81:0.0833333 83:0.0333333 84:0.0555556 88:0.047619 90:0.1 95:0.0448718 98:0.0416667 99:0.0833333 100:0.0740741 101:0.0555556 102:0.0416667 103:0.125 104:0.0555556 105:0.0333333 106:0.0569106 107:0.0833333 
1 0.8501639665960683 0 1:0.210526 2:0.125 3:0.214286 4:0.142857 5:0.125 6:0.0833333 7:0.166667 9:0.113636 12:0.166667 13:0.125 14:0.166667 17:0.25 18:0.25 21:0.5 22:0.125 23:0.142857 24:0.142857 25:0.166667 28:0.15 30:0.375 31:0.166667 34:0.5 36:0.173913 38:0.15 39:0.263158 40:0.125 42:0.25 44:0.166667 45:0.25 46:0.25 48:0.25 51:0.111111 52:0.0625 55:0.25 56:0.166667 57:0.5 58:0.0714286 59:0.125 60:0.25 63:0.136364 64:0.5 65:0.125 68:0.5 71:0.5 73:0.205882 75:0.190476 76:0.142857 79:0.0714286 81:0.25 83:0.1 84:0.166667 88:0.142857 90:0.3 95:0.134615 98:0.125 99:0.25 100:0.222222 101:0.166667 102:0.125 103:0.375 104:0.166667 105:0.1 106:0.170732 107:0.25 
1 0.6684756114636643 0 1:0.140351 2:0.0833333 3:0.142857 4:0.0952381 5:0.0833333 6:0.0555556 7:0.125 9:0.0909091 12:0.222222 13:0.0833333 14:0.15873 17:0.166667 18:0.166667 21:0.333333 22:0.0833333 23:0.166667 24:0.0952381 25:0.111111 28:0.1 30:0.25 31:0.111111 34:0.333333 36:0.115942 38:0.1 39:0.175439 40:0.166667 42:0.166667 44:0.127572 45:0.166667 46:0.166667 48:0.166667 51:0.0740741 52:0.0833333 55:0.166667 56:0.111111 57:0.333333 58:0.047619 59:0.0833333 60:0.166667 63:0.0909091 64:0.333333 65:0.0833333 68:0.333333 71:0.333333 72:0.0666667 73:0.137255 75:0.126984 76:0.119048 79:0.047619 80:0.111111 81:0.181818 83:0.0666667 84:0.111111 88:0.0952381 90:0.2 94:0.333333 95:0.115385 98:0.0833333 99:0.166667 100:0.148148 101:0.119048 102:0.0833333 103:0.25 104:0.111111 105:0.0666667 106:0.121951 107:0.166667 
1 0 0 1:0.0350877 2:0.0208333 3:0.0357143 4:0.0238095 5:0.0208333 6:0.0138889 7:0.0347222 9:0.0227273 12:0.0555556 13:0.0208333 14:0.0396825 17:0.0416667 18:0.0416667 21:0.0833333 22:0.0208333 23:0.0416667 24:0.0238095 25:0.0277778 28:0.025 30:0.0625 31:0.0277778 34:0.0833333 36:0.0289855 38:0.025 39:0.0438596 40:0.0416667 42:0.0416667 44:0.031893 45:0.0416667 46:0.0416667 48:0.0416667 51:0.0185185 52:0.0208333 55:0.0625 56:0.0277778 57:0.0833333 58:0.0119048 59:0.0208333 60:0.0416667 63:0.0227273 64:0.0833333 65:0.03125 68:0.0833333 71:0.0833333 72:0.0166667 73:0.0343137 75:0.031746 76:0.0297619 79:0.0119048 80:0.0277778 81:0.0454545 83:0.0166667 84:0.0277778 88:0.0238095 90:0.05 94:0.0833333 95:0.0288462 98:0.0208333 99:0.0416667 100:0.037037 101:0.0297619 102:0.0208333 103:0.0625 104:0.0277778 105:0.0166667 106:0.0325203 107:0.0416667 
1 0 0 1:0.114035 2:0.0625 3:0.107143 4:0.0714286 5:0.125 6:0.0555556 7:0.104167 9:0.0681818 12:0.166667 13:0.0625 14:0.119048 16:0.0416667 17:0.125 18:0.125 21:0.25 22:0.0625 23:0.125 24:0.0714286 25:0.0833333 28:0.075 30:0.1875 31:0.0833333 34:0.25 36:0.0869565 38:0.075 39:0.131579 40:0.125 42:0.125 44:0.095679 45:0.125 46:0.125 48:0.125 51:0.0555556 52:0.0625 55:0.1875 56:0.0833333 57:0.25 58:0.0535714 59:0.0625 60:0.125 63:0.0681818 64:0.25 65:0.09375 68:0.25 71:0.25 72:0.05 73:0.102941 75:0.0952381 76:0.0892857 79:0.0357143 80:0.0833333 81:0.136364 83:0.05 84:0.0833333 88:0.0714286 90:0.15 94:0.25 95:0.0961538 98:0.0625 99:0.125 100:0.111111 101:0.0892857 102:0.0625 103:0.1875 104:0.0833333 105:0.05 106:0.097561 107:0.125 
1 0.3128893052785096 0 1:0.0912281 2:0.05 3:0.0857143 4:0.0571429 5:0.1 6:0.0555556 7:0.0833333 9:0.0636364 10:0.2 12:0.133333 13:0.05 14:0.0952381 16:0.0333333 17:0.1 18:0.1 21:0.2 22:0.05 23:0.1 24:0.0571429 25:0.0666667 28:0.06 30:0.15 31:0.0666667 34:0.2 36:0.0695652 38:0.06 39:0.115789 40:0.1 42:0.1 44:0.0765432 45:0.1 46:0.1 48:0.1 51:0.0444444 52:0.05 55:0.15 56:0.0666667 57:0.2 58:0.0428571 59:0.05 60:0.133333 63:0.0545455 64:0.2 65:0.075 68:0.2 71:0.2 72:0.04 73:0.0941176 75:0.0761905 76:0.0714286 79:0.0285714 80:0.0666667 81:0.118182 83:0.04 84:0.0666667 88:0.0571429 90:0.12 94:0.2 95:0.0769231 98:0.05 99:0.1 100:0.0888889 101:0.0761905 102:0.05 103:0.15 104:0.0666667 105:0.04 106:0.0780488 107:0.1 
1 0 0 1:0.45614 2:0.25 3:0.428571 4:0.285714 5:0.5 6:0.277778 7:0.416667 9:0.318182 10:1 12:0.666667 13:0.25 14:0.47619 16:0.166667 17:0.5 18:0.5 21:1 22:0.25 23:0.5 24:0.285714 25:0.333333 28:0.3 30:0.75 31:0.333333 34:1 36:0.347826 38:0.3 39:0.578947 40:0.5 42:0.5 44:0.382716 45:0.5 46:0.5 48:0.5 51:0.222222 52:0.375 55:0.75 56:0.333333 57:1 58:0.214286 59:0.375 60:0.666667 63:0.272727 64:1 65:0.375 68:1 71:1 72:0.2 73:0.470588 75:0.380952 76:0.357143 79:0.142857 80:0.333333 81:0.590909 83:0.2 84:0.333333 88:0.285714 90:0.6 94:1 95:0.423077 98:0.25 99:0.5 100:0.444444 101:0.380952 102:0.25 103:0.75 104:0.333333 105:0.2 106:0.390244 107:0.5 
1 0.02745532708168131 0 1:0.0592105 2:0.03125 3:0.0535714 4:0.0357143 5:0.0625 6:0.0347222 7:0.0520833 9:0.0397727 10:0.125 12:0.0833333 13:0.03125 14:0.0595238 16:0.0416667 17:0.0625 18:0.0625 21:0.125 22:0.03125 23:0.0625 24:0.0357143 25:0.0416667 28:0.0375 30:0.109375 31:0.0416667 34:0.125 36:0.0434783 37:0.125 38:0.0375 39:0.0723684 40:0.0625 42:0.0625 44:0.0478395 45:0.0625 46:0.0625 48:0.0625 51:0.0277778 52:0.046875 53:0.0178571 55:0.09375 56:0.0416667 57:0.125 58:0.0535714 59:0.046875 60:0.0833333 63:0.0340909 64:0.125 65:0.046875 68:0.125 71:0.125 72:0.025 73:0.0588235 75:0.047619 76:0.0446429 79:0.0178571 80:0.0416667 81:0.0795455 83:0.025 84:0.0416667 86:0.125 88:0.0357143 90:0.075 94:0.125 95:0.0576923 98:0.03125 99:0.0625 100:0.0555556 101:0.0505952 102:0.03125 103:0.09375 104:0.0416667 105:0.025 106:0.0518293 107:0.0625 
1 0 0 1:0.0676692 2:0.0357143 3:0.0612245 4:0.0408163 5:0.0714286 6:0.0396825 7:0.0595238 9:0.0454545 10:0.142857 12:0.0952381 13:0.0357143 14:0.0748299 16:0.047619 17:0.0714286 18:0.0714286 21:0.142857 22:0.0357143 23:0.0714286 24:0.0408163 25:0.047619 28:0.0428571 30:0.125 31:0.047619 34:0.142857 36:0.0496894 37:0.142857 38:0.0428571 39:0.0827068 40:0.0714286 42:0.0714286 44:0.0546737 45:0.0714286 46:0.0714286 48:0.0714286 51:0.047619 52:0.0535714 53:0.0408163 55:0.107143 56:0.047619 57:0.142857 58:0.0612245 59:0.0535714 60:0.0952381 63:0.038961 64:0.142857 65:0.0535714 68:0.142857 71:0.142857 72:0.0285714 73:0.0672269 75:0.0544218 76:0.0510204 79:0.0204082 80:0.047619 81:0.0909091 83:0.0285714 84:0.047619 86:0.142857 88:0.0408163 90:0.0857143 93:0.0714286 94:0.142857 95:0.0659341 98:0.0357143 99:0.0714286 100:0.0634921 101:0.0578231 102:0.0357143 103:0.107143 104:0.047619 105:0.0285714 106:0.0592334 107:0.0714286 
1 0 0 1:0.0545809 2:0.0277778 3:0.047619 4:0.031746 5:0.0555556 6:0.0308642 7:0.0462963 9:0.0353535 10:0.111111 12:0.0740741 13:0.0277778 14:0.0582011 16:0.037037 17:0.0555556 18:0.0555556 21:0.111111 22:0.0277778 23:0.0555556 24:0.031746 25:0.037037 28:0.0333333 30:0.0972222 31:0.037037 34:0.111111 36:0.0386473 37:0.111111 38:0.0333333 39:0.0643275 40:0.0555556 42:0.0555556 44:0.042524 45:0.0555556 46:0.0555556 48:0.0555556 51:0.037037 52:0.0416667 53:0.031746 55:0.0833333 56:0.037037 57:0.111111 58:0.047619 59:0.0416667 60:0.0740741 63:0.030303 64:0.111111 65:0.0416667 68:0.111111 71:0.111111 72:0.0222222 73:0.0522876 75:0.042328 76:0.0396825 79:0.015873 80:0.037037 81:0.0707071 83:0.0222222 84:0.037037 86:0.111111 88:0.031746 90:0.0666667 93:0.0555556 94:0.111111 95:0.0512821 98:0.0277778 99:0.0555556 100:0.0493827 101:0.0449735 102:0.0277778 103:0.0833333 104:0.037037 105:0.0222222 106:0.0460705 107:0.0555556 
1 0 0 1:0.0491228 2:0.025 3:0.0428571 4:0.0285714 5:0.05 6:0.0277778 7:0.0416667 9:0.0318182 10:0.1 12:0.0666667 13:0.025 14:0.052381 16:0.0333333 17:0.0625 18:0.05 21:0.1 22:0.05 23:0.05 24:0.0285714 25:0.0333333 28:0.03 30:0.0875 31:0.0333333 34:0.1 36:0.0347826 37:0.1 38:0.03 39:0.0631579 40:0.05 42:0.05 44:0.0382716 45:0.05 46:0.05 48:0.05 51:0.0333333 52:0.0375 53:0.0285714 55:0.075 56:0.0333333 57:0.1 58:0.0428571 59:0.0375 60:0.0666667 63:0.0272727 64:0.1 65:0.0375 68:0.1 71:0.1 72:0.02 73:0.0529412 75:0.0428571 76:0.0428571 79:0.0142857 80:0.0333333 81:0.0636364 83:0.02 84:0.0333333 86:0.1 88:0.0285714 90:0.06 93:0.05 94:0.1 95:0.0461538 98:0.025 99:0.05 100:0.0444444 101:0.0404762 102:0.05 103:0.075 104:0.0333333 105:0.02 106:0.0414634 107:0.05 
1 0.118039473474115 0 1:0.163743 2:0.0833333 3:0.142857 4:0.0952381 5:0.166667 6:0.0925926 7:0.138889 9:0.106061 10:0.333333 12:0.222222 13:0.0833333 14:0.174603 16:0.111111 17:0.208333 18:0.166667 21:0.333333 22:0.166667 23:0.166667 24:0.0952381 25:0.111111 28:0.1 30:0.291667 31:0.111111 34:0.333333 36:0.115942 37:0.333333 38:0.1 39:0.210526 40:0.166667 42:0.166667 44:0.127572 45:0.166667 46:0.166667 48:0.166667 51:0.111111 52:0.125 53:0.0952381 55:0.25 56:0.111111 57:0.333333 58:0.142857 59:0.125 60:0.222222 63:0.106061 64:0.333333 65:0.125 68:0.333333 71:0.333333 72:0.0666667 73:0.176471 75:0.142857 76:0.142857 79:0.047619 80:0.111111 81:0.212121 83:0.0666667 84:0.111111 86:0.333333 88:0.0952381 90:0.2 93:0.166667 94:0.333333 95:0.153846 98:0.0833333 99:0.166667 100:0.148148 101:0.134921 102:0.166667 103:0.25 104:0.111111 105:0.0666667 106:0.138211 107:0.166667 
1 0.1450362095992004 0 1:0.491228 2:0.25 3:0.428571 4:0.285714 5:0.5 6:0.277778 7:0.416667 9:0.318182 10:1 12:0.666667 13:0.25 14:0.52381 16:0.333333 17:0.625 18:0.5 21:1 22:0.5 23:0.5 24:0.285714 25:0.333333 28:0.3 30:0.875 31:0.333333 34:1 36:0.347826 37:1 38:0.3 39:0.631579 40:0.5 42:0.5 44:0.382716 45:0.5 46:0.5 48:0.5 51:0.333333 52:0.375 53:0.285714 55:0.75 56:0.333333 57:1 58:0.428571 59:0.375 60:0.666667 63:0.318182 64:1 65:0.375 68:1 71:1 72:0.2 73:0.529412 75:0.428571 76:0.428571 79:0.142857 80:0.333333 81:0.636364 83:0.2 84:0.333333 86:1 88:0.285714 90:0.6 93:0.5 94:1 95:0.461538 98:0.25 99:0.5 100:0.444444 101:0.404762 102:0.5 103:0.75 104:0.333333 105:0.2 106:0.439024 107:0.5 
1 0 0 1:0.0545809 2:0.0277778 3:0.047619 4:0.031746 5:0.0555556 6:0.0308642 7:0.0509259 9:0.0353535 10:0.111111 12:0.0740741 13:0.0277778 14:0.0634921 16:0.037037 17:0.0694444 18:0.0555556 21:0.111111 22:0.0555556 23:0.0555556 24:0.031746 25:0.037037 28:0.0333333 30:0.0972222 31:0.037037 34:0.111111 36:0.0386473 37:0.111111 38:0.0333333 39:0.0701754 40:0.0555556 42:0.0555556 44:0.042524 45:0.0555556 46:0.0555556 48:0.0555556 51:0.037037 52:0.0416667 53:0.031746 55:0.0833333 56:0.037037 57:0.111111 58:0.047619 59:0.0416667 60:0.0925926 63:0.040404 64:0.111111 65:0.0416667 68:0.111111 71:0.111111 72:0.0222222 73:0.0588235 75:0.047619 76:0.047619 79:0.015873 80:0.037037 81:0.0707071 83:0.0222222 84:0.037037 86:0.111111 88:0.031746 90:0.0666667 93:0.0555556 94:0.111111 95:0.0512821 98:0.0277778 99:0.0555556 100:0.0555556 101:0.047619 102:0.0555556 103:0.0833333 104:0.037037 105:0.0222222 106:0.0487805 107:0.0555556 
1 0.4211625752036607 0 1:0.245614 2:0.125 3:0.285714 4:0.142857 5:0.25 6:0.166667 7:0.229167 9:0.159091 10:0.5 12:0.333333 13:0.125 14:0.285714 16:0.166667 17:0.3125 18:0.25 21:0.5 22:0.25 23:0.25 24:0.142857 25:0.333333 28:0.15 30:0.4375 31:0.166667 34:0.5 36:0.173913 37:0.5 38:0.15 39:0.315789 40:0.25 42:0.25 44:0.191358 45:0.25 46:0.25 48:0.25 51:0.166667 52:0.1875 53:0.142857 55:0.375 56:0.166667 57:0.5 58:0.214286 59:0.1875 60:0.416667 63:0.181818 64:0.5 65:0.1875 68:0.5 71:0.5 72:0.1 73:0.264706 75:0.214286 76:0.214286 79:0.0714286 80:0.166667 81:0.340909 83:0.1 84:0.166667 86:0.5 88:0.142857 90:0.3 93:0.25 94:0.5 95:0.230769 98:0.125 99:0.25 100:0.25 101:0.214286 102:0.25 103:0.375 104:0.166667 105:0.1 106:0.219512 107:0.25 
1 1 0 1:0.245614 2:0.25 3:0.285714 4:0.142857 5:0.25 6:0.166667 7:0.229167 9:0.159091 10:0.5 12:0.333333 13:0.125 14:0.285714 16:0.166667 17:0.3125 18:0.25 21:0.5 22:0.25 23:0.25 24:0.142857 25:0.333333 28:0.15 30:0.4375 31:0.166667 34:0.5 36:0.173913 37:0.5 38:0.15 39:0.315789 40:0.25 42:0.25 44:0.191358 45:0.25 46:0.25 48:0.25 51:0.166667 52:0.1875 53:0.142857 55:0.375 56:0.166667 57:0.5 58:0.214286 59:0.1875 60:0.416667 63:0.181818 64:0.5 65:0.1875 68:0.5 71:0.5 72:0.1 73:0.264706 75:0.214286 76:0.214286 79:0.0714286 80:0.166667 81:0.340909 83:0.1 84:0.166667 86:0.5 88:0.142857 90:0.3 93:0.25 94:0.5 95:0.230769 98:0.125 99:0.25 100:0.25 101:0.214286 102:0.25 103:0.375 104:0.166667 105:0.1 106:0.219512 107:0.25 
1 0.08028476343323544 0 1:0.0818713 2:0.0833333 3:0.0952381 4:0.047619 5:0.125 6:0.0555556 7:0.0763889 9:0.0606061 10:0.166667 12:0.111111 13:0.0416667 14:0.0952381 16:0.0555556 17:0.104167 18:0.0833333 21:0.166667 22:0.0833333 23:0.0833333 24:0.047619 25:0.111111 28:0.05 30:0.145833 31:0.0555556 34:0.166667 36:0.0652174 37:0.166667 38:0.05 39:0.105263 40:0.0833333 42:0.0833333 44:0.063786 45:0.0833333 46:0.0833333 48:0.0833333 51:0.0555556 52:0.0625 53:0.047619 55:0.125 56:0.0555556 57:0.166667 58:0.0714286 59:0.0625 60:0.138889 63:0.0606061 64:0.166667 65:0.0625 68:0.166667 71:0.166667 72:0.0333333 73:0.0882353 75:0.0714286 76:0.0714286 79:0.0238095 80:0.0555556 81:0.113636 83:0.0333333 84:0.0555556 86:0.166667 88:0.047619 90:0.1 93:0.0833333 94:0.166667 95:0.0769231 98:0.0416667 99:0.0833333 100:0.0833333 101:0.0753968 102:0.0833333 103:0.125 104:0.0555556 105:0.0666667 106:0.0731707 107:0.0833333 
1 0 0 1:0.245614 2:0.25 3:0.285714 4:0.142857 5:0.375 6:0.166667 7:0.229167 9:0.181818 10:0.5 12:0.333333 13:0.125 14:0.285714 16:0.166667 17:0.3125 18:0.25 21:0.5 22:0.25 23:0.25 24:0.142857 25:0.333333 28:0.15 30:0.4375 31:0.166667 34:0.5 36:0.195652 37:0.5 38:0.15 39:0.315789 40:0.25 42:0.25 44:0.191358 45:0.25 46:0.25 48:0.25 51:0.166667 52:0.1875 53:0.142857 55:0.375 56:0.166667 57:0.5 58:0.214286 59:0.1875 60:0.416667 63:0.181818 64:0.5 65:0.1875 68:0.5 71:0.5 72:0.1 73:0.264706 75:0.214286 76:0.214286 79:0.0714286 80:0.166667 81:0.340909 83:0.1 84:0.166667 86:0.5 88:0.142857 90:0.3 93:0.25 94:0.5 95:0.230769 98:0.125 99:0.25 100:0.25 101:0.22619 102:0.25 103:0.375 104:0.166667 105:0.2 106:0.219512 107:0.25 
1 0 0 1:0.0726817 2:0.0714286 3:0.0816327 4:0.0408163 5:0.107143 6:0.0714286 7:0.0654762 9:0.0519481 10:0.142857 12:0.0952381 13:0.0714286 14:0.0816327 16:0.047619 17:0.107143 18:0.0714286 21:0.142857 22:0.0714286 23:0.0816327 24:0.0408163 25:0.0952381 28:0.0428571 30:0.125 31:0.047619 34:0.142857 36:0.0745342 37:0.142857 38:0.0428571 39:0.0902256 40:0.0714286 42:0.0714286 44:0.0564374 45:0.0714286 46:0.0714286 48:0.0714286 51:0.047619 52:0.0535714 53:0.0408163 55:0.107143 56:0.047619 57:0.142857 58:0.0714286 59:0.0535714 60:0.119048 61:0.142857 63:0.0519481 64:0.142857 65:0.0714286 68:0.142857 71:0.142857 72:0.0285714 73:0.0840336 75:0.0680272 76:0.0714286 79:0.0204082 80:0.047619 81:0.103896 83:0.0285714 84:0.047619 86:0.142857 88:0.0408163 90:0.114286 93:0.0714286 94:0.142857 95:0.0659341 98:0.0357143 99:0.0714286 100:0.0714286 101:0.0646259 102:0.0714286 103:0.107143 104:0.047619 105:0.0571429 106:0.0627178 107:0.142857 
1 0.2665681121707609 0 1:0.175439 2:0.166667 3:0.190476 4:0.0952381 5:0.25 6:0.166667 7:0.152778 9:0.121212 10:0.333333 12:0.222222 13:0.166667 14:0.190476 16:0.111111 17:0.25 18:0.166667 21:0.333333 22:0.166667 23:0.190476 24:0.0952381 25:0.222222 28:0.1 30:0.291667 31:0.111111 34:0.333333 36:0.173913 37:0.333333 38:0.1 39:0.210526 40:0.166667 42:0.166667 44:0.135802 45:0.166667 46:0.166667 48:0.166667 51:0.111111 52:0.125 53:0.0952381 55:0.25 56:0.111111 57:0.333333 58:0.166667 59:0.125 60:0.277778 61:0.333333 63:0.121212 64:0.333333 65:0.166667 68:0.333333 71:0.333333 72:0.0666667 73:0.215686 75:0.174603 76:0.166667 79:0.047619 80:0.111111 81:0.242424 83:0.0666667 84:0.111111 86:0.333333 88:0.0952381 90:0.266667 93:0.166667 94:0.333333 95:0.153846 98:0.0833333 99:0.166667 100:0.166667 101:0.150794 102:0.166667 103:0.25 104:0.111111 105:0.133333 106:0.146341 107:0.333333 
1 1 0 1:0.131579 2:0.125 3:0.142857 4:0.0714286 5:0.1875 6:0.125 7:0.114583 9:0.0909091 10:0.25 12:0.166667 13:0.125 14:0.142857 16:0.0833333 17:0.1875 18:0.125 21:0.25 22:0.125 23:0.142857 24:0.0714286 25:0.166667 28:0.075 30:0.21875 31:0.0833333 34:0.25 36:0.130435 37:0.25 38:0.075 39:0.171053 40:0.125 42:0.125 44:0.101852 45:0.125 46:0.125 48:0.125 51:0.0833333 52:0.09375 53:0.0714286 55:0.1875 56:0.0833333 57:0.25 58:0.125 59:0.125 60:0.208333 61:0.25 63:0.102273 64:0.25 65:0.125 68:0.25 71:0.25 72:0.05 73:0.161765 75:0.130952 76:0.125 79:0.0357143 80:0.0833333 81:0.181818 83:0.075 84:0.0833333 86:0.25 88:0.0714286 90:0.2 93:0.125 94:0.25 95:0.115385 98:0.0625 99:0.125 100:0.125 101:0.113095 102:0.125 103:0.1875 104:0.0833333 105:0.1 106:0.109756 107:0.25 
1 1 0 1:0.0328947 2:0.03125 3:0.0357143 4:0.0178571 5:0.046875 6:0.03125 7:0.0286458 9:0.0227273 10:0.0625 12:0.0416667 13:0.03125 14:0.0357143 16:0.0208333 17:0.046875 18:0.03125 21:0.0625 22:0.03125 23:0.0357143 24:0.0178571 25:0.0416667 28:0.01875 30:0.0546875 31:0.0208333 34:0.0625 36:0.0326087 37:0.0625 38:0.01875 39:0.0427632 40:0.03125 42:0.03125 44:0.0262346 45:0.03125 46:0.03125 48:0.03125 51:0.0208333 52:0.0234375 53:0.0178571 55:0.046875 56:0.0208333 57:0.0625 58:0.03125 59:0.03125 60:0.0520833 61:0.0625 63:0.0255682 64:0.0625 65:0.03125 68:0.0625 71:0.0625 72:0.0125 73:0.0404412 75:0.0327381 76:0.03125 79:0.0178571 80:0.0208333 81:0.0454545 83:0.01875 84:0.0208333 86:0.0625 88:0.0178571 90:0.05 93:0.03125 94:0.0625 95:0.0288462 98:0.015625 99:0.03125 100:0.03125 101:0.0282738 102:0.03125 103:0.046875 104:0.0208333 105:0.025 106:0.0289634 107:0.0625 
1 1 0 1:0.263158 2:0.25 3:0.285714 4:0.142857 5:0.375 6:0.25 7:0.229167 9:0.181818 10:0.5 12:0.333333 13:0.375 14:0.285714 16:0.25 17:0.375 18:0.25 21:0.5 22:0.25 23:0.321429 24:0.142857 25:0.333333 28:0.15 30:0.4375 31:0.166667 34:0.5 36:0.26087 37:0.5 38:0.15 39:0.342105 40:0.25 42:0.25 44:0.209877 45:0.25 46:0.25 48:0.333333 51:0.222222 52:0.1875 53:0.142857 55:0.375 56:0.166667 57:0.5 58:0.25 59:0.25 60:0.5 61:0.5 63:0.227273 64:0.5 65:0.25 68:0.5 71:0.5 72:0.1 73:0.323529 75:0.261905 76:0.25 79:0.142857 80:0.166667 81:0.363636 83:0.15 84:0.166667 86:0.5 88:0.142857 90:0.4 93:0.25 94:0.5 95:0.230769 98:0.125 99:0.25 100:0.25 101:0.22619 102:0.25 103:0.375 104:0.166667 105:0.2 106:0.243902 107:0.5 
1 1 0 1:0.135965 2:0.125 3:0.142857 4:0.0714286 5:0.1875 6:0.125 7:0.114583 9:0.0909091 10:0.25 12:0.166667 13:0.1875 14:0.142857 16:0.125 17:0.1875 18:0.125 21:0.25 22:0.125 23:0.160714 24:0.0714286 25:0.166667 28:0.075 30:0.21875 31:0.0833333 34:0.25 36:0.130435 37:0.25 38:0.075 39:0.171053 40:0.125 42:0.125 44:0.104938 45:0.125 46:0.125 48:0.166667 51:0.111111 52:0.09375 53:0.0714286 55:0.1875 56:0.0833333 57:0.25 58:0.125 59:0.125 60:0.25 61:0.25 63:0.113636 64:0.25 65:0.125 68:0.25 71:0.25 72:0.05 73:0.161765 75:0.130952 76:0.125 79:0.0714286 80:0.0833333 81:0.181818 83:0.075 84:0.0833333 86:0.25 88:0.0714286 90:0.2 93:0.125 94:0.25 95:0.115385 98:0.0625 99:0.125 100:0.125 101:0.113095 102:0.125 103:0.1875 104:0.0833333 105:0.1 106:0.128049 107:0.25 
1 0.8989133660397076 0 1:0.135965 2:0.125 3:0.142857 4:0.0714286 5:0.1875 6:0.125 7:0.114583 9:0.102273 10:0.25 12:0.166667 13:0.1875 14:0.142857 16:0.166667 17:0.1875 18:0.125 21:0.25 22:0.125 23:0.160714 24:0.0714286 25:0.166667 28:0.075 30:0.21875 31:0.0833333 34:0.25 36:0.130435 37:0.25 38:0.075 39:0.171053 40:0.125 42:0.125 44:0.108025 45:0.125 46:0.125 48:0.166667 51:0.111111 52:0.09375 53:0.107143 55:0.1875 56:0.0833333 57:0.25 58:0.142857 59:0.125 60:0.25 61:0.25 63:0.113636 64:0.25 65:0.125 68:0.25 71:0.25 72:0.05 73:0.161765 75:0.130952 76:0.125 79:0.0714286 80:0.0833333 81:0.181818 83:0.075 84:0.0833333 86:0.25 88:0.0714286 90:0.2 93:0.125 94:0.25 95:0.115385 98:0.0625 99:0.125 100:0.125 101:0.119048 102:0.125 103:0.1875 104:0.0833333 105:0.1 106:0.134146 107:0.25 
1 0.7850147771214027 0 1:0.187135 2:0.166667 3:0.190476 4:0.0952381 5:0.25 6:0.185185 7:0.166667 9:0.136364 10:0.333333 12:0.222222 13:0.25 14:0.190476 16:0.222222 17:0.25 18:0.166667 21:0.333333 22:0.166667 23:0.214286 24:0.0952381 25:0.333333 28:0.1 30:0.291667 31:0.111111 33:0.166667 34:0.333333 36:0.173913 37:0.333333 38:0.1 39:0.22807 40:0.166667 42:0.166667 44:0.144033 45:0.166667 46:0.166667 48:0.222222 51:0.148148 52:0.125 53:0.142857 55:0.25 56:0.111111 57:0.333333 58:0.190476 59:0.166667 60:0.333333 61:0.333333 63:0.151515 64:0.333333 65:0.166667 68:0.333333 71:0.333333 72:0.0666667 73:0.215686 75:0.174603 76:0.190476 79:0.0952381 80:0.111111 81:0.242424 83:0.1 84:0.111111 86:0.333333 88:0.0952381 90:0.266667 92:0.333333 93:0.166667 94:0.333333 95:0.153846 98:0.0833333 99:0.166667 100:0.166667 101:0.15873 102:0.166667 103:0.25 104:0.111111 105:0.133333 106:0.178862 107:0.333333 
1 0.2103595659708469 0 1:0.0935673 2:0.0833333 3:0.119048 4:0.047619 5:0.125 6:0.101852 7:0.0833333 9:0.0757576 10:0.166667 12:0.111111 13:0.125 14:0.0952381 16:0.111111 17:0.125 18:0.0833333 19:0.0833333 21:0.166667 22:0.0833333 23:0.107143 24:0.047619 25:0.166667 28:0.05 30:0.145833 31:0.0555556 33:0.0833333 34:0.166667 36:0.0869565 37:0.166667 38:0.05 39:0.122807 40:0.0833333 42:0.0833333 44:0.0761317 45:0.0833333 46:0.0833333 48:0.111111 51:0.0740741 52:0.0833333 53:0.0714286 55:0.125 56:0.0555556 57:0.166667 58:0.0952381 59:0.0833333 60:0.166667 61:0.166667 63:0.0757576 64:0.166667 65:0.0833333 68:0.166667 71:0.166667 72:0.0666667 73:0.107843 75:0.0873016 76:0.0952381 79:0.047619 80:0.0555556 81:0.121212 83:0.05 84:0.0555556 86:0.166667 88:0.047619 90:0.133333 92:0.166667 93:0.0833333 94:0.166667 95:0.0769231 97:0.166667 98:0.0416667 99:0.0833333 100:0.0833333 101:0.0793651 102:0.0833333 103:0.125 104:0.111111 105:0.0666667 106:0.0894309 107:0.166667 
1 0 0 1:0.0561404 2:0.05 3:0.0714286 4:0.0285714 5:0.075 6:0.0611111 7:0.05 9:0.0454545 10:0.1 12:0.0666667 13:0.075 14:0.0571429 16:0.0666667 17:0.075 18:0.05 19:0.05 21:0.1 22:0.05 23:0.0642857 24:0.0285714 25:0.1 28:0.03 30:0.0875 31:0.0333333 33:0.05 34:0.1 36:0.0521739 37:0.1 38:0.03 39:0.0736842 40:0.05 42:0.05 44:0.045679 45:0.05 46:0.05 48:0.0666667 51:0.0444444 52:0.05 53:0.0428571 55:0.075 56:0.0333333 57:0.1 58:0.0571429 59:0.05 60:0.1 61:0.1 63:0.0454545 64:0.1 65:0.05 68:0.1 71:0.1 72:0.04 73:0.0647059 75:0.0571429 76:0.0571429 79:0.0285714 80:0.0333333 81:0.0727273 83:0.03 84:0.0333333 86:0.1 88:0.0285714 90:0.08 92:0.1 93:0.05 94:0.1 95:0.0461538 97:0.1 98:0.025 99:0.05 100:0.05 101:0.047619 102:0.05 103:0.075 104:0.0666667 105:0.04 106:0.0536585 107:0.1 
1 0 0 1:0.0623782 2:0.0555556 3:0.0793651 4:0.031746 5:0.0833333 6:0.0679012 7:0.0648148 9:0.0505051 10:0.111111 12:0.0740741 13:0.0833333 14:0.0634921 16:0.0740741 17:0.0833333 18:0.0555556 19:0.0555556 21:0.111111 22:0.0555556 23:0.0714286 24:0.031746 25:0.111111 28:0.0555556 30:0.111111 31:0.037037 33:0.0555556 34:0.111111 36:0.0676329 37:0.111111 38:0.0333333 39:0.0818713 40:0.0555556 42:0.0555556 44:0.0507545 45:0.0555556 46:0.0555556 48:0.0740741 51:0.0493827 52:0.0555556 53:0.047619 55:0.0833333 56:0.037037 57:0.111111 58:0.0634921 59:0.0555556 60:0.111111 61:0.111111 63:0.0555556 64:0.111111 65:0.0555556 68:0.111111 71:0.111111 72:0.0444444 73:0.0718954 75:0.0634921 76:0.0634921 79:0.031746 80:0.037037 81:0.0808081 83:0.0333333 84:0.037037 86:0.111111 88:0.031746 90:0.0888889 92:0.111111 93:0.0555556 94:0.111111 95:0.0512821 97:0.111111 98:0.0277778 99:0.0555556 100:0.0555556 101:0.0529101 102:0.0555556 103:0.0833333 104:0.0740741 105:0.0444444 106:0.0596206 107:0.111111 
1 0.110052228947533 0 1:0.187135 2:0.166667 3:0.238095 4:0.0952381 5:0.25 6:0.203704 7:0.194444 9:0.151515 10:0.333333 12:0.222222 13:0.25 14:0.190476 16:0.222222 17:0.25 18:0.166667 19:0.166667 21:0.333333 22:0.166667 23:0.214286 24:0.0952381 25:0.333333 28:0.166667 30:0.333333 31:0.111111 33:0.166667 34:0.333333 36:0.202899 37:0.333333 38:0.1 39:0.245614 40:0.166667 42:0.166667 44:0.152263 45:0.166667 46:0.166667 48:0.222222 51:0.148148 52:0.166667 53:0.142857 55:0.25 56:0.111111 57:0.333333 58:0.190476 59:0.166667 60:0.333333 61:0.333333 63:0.166667 64:0.333333 65:0.166667 68:0.333333 71:0.333333 72:0.133333 73:0.215686 75:0.190476 76:0.214286 79:0.0952381 80:0.111111 81:0.242424 83:0.1 84:0.111111 86:0.333333 88:0.0952381 90:0.266667 92:0.333333 93:0.166667 94:0.333333 95:0.153846 97:0.333333 98:0.0833333 99:0.166667 100:0.166667 101:0.15873 102:0.166667 103:0.25 104:0.222222 105:0.133333 106:0.186992 107:0.333333 
1 1 0 1:0.280702 2:0.25 3:0.357143 4:0.142857 5:0.375 6:0.305556 7:0.291667 9:0.227273 10:0.5 12:0.333333 13:0.375 14:0.285714 16:0.333333 17:0.375 18:0.25 19:0.25 21:0.5 22:0.25 23:0.321429 24:0.142857 25:0.5 28:0.25 30:0.5 31:0.166667 33:0.25 34:0.5 36:0.304348 37:0.5 38:0.2 39:0.368421 40:0.25 42:0.25 44:0.228395 45:0.25 46:0.25 48:0.333333 51:0.222222 52:0.3125 53:0.214286 55:0.375 56:0.166667 57:0.5 58:0.285714 59:0.25 60:0.5 61:0.5 63:0.25 64:0.5 65:0.25 68:0.5 71:0.5 72:0.2 73:0.323529 75:0.285714 76:0.321429 79:0.142857 80:0.166667 81:0.363636 83:0.15 84:0.166667 86:0.5 88:0.142857 90:0.4 92:0.5 93:0.25 94:0.5 95:0.230769 97:0.5 98:0.125 99:0.25 100:0.25 101:0.238095 102:0.25 103:0.375 104:0.333333 105:0.2 106:0.280488 107:0.5 
1 0 0 1:0.140351 2:0.125 3:0.178571 4:0.107143 5:0.1875 6:0.152778 7:0.145833 9:0.113636 10:0.25 12:0.166667 13:0.1875 14:0.142857 16:0.166667 17:0.1875 18:0.125 19:0.125 21:0.25 22:0.125 23:0.160714 24:0.0714286 25:0.25 28:0.125 30:0.25 31:0.0833333 33:0.125 34:0.25 36:0.163043 37:0.25 38:0.1 39:0.184211 40:0.125 42:0.125 44:0.114198 45:0.125 46:0.125 48:0.166667 51:0.111111 52:0.15625 53:0.107143 55:0.1875 56:0.0833333 57:0.25 58:0.142857 59:0.125 60:0.25 61:0.25 63:0.125 64:0.25 65:0.125 68:0.25 71:0.25 72:0.1 73:0.161765 75:0.142857 76:0.160714 79:0.0714286 80:0.0833333 81:0.181818 83:0.075 84:0.0833333 86:0.25 88:0.0714286 90:0.2 92:0.25 93:0.125 94:0.25 95:0.115385 97:0.25 98:0.125 99:0.125 100:0.125 101:0.119048 102:0.125 103:0.1875 104:0.166667 105:0.1 106:0.140244 107:0.25 
1 1 0 1:0.561404 2:0.5 3:0.714286 4:0.428571 5:0.75 6:0.611111 7:0.583333 9:0.454545 10:1 12:0.666667 13:0.75 14:0.571429 16:0.666667 17:0.75 18:0.5 19:0.5 21:1 22:0.5 23:0.642857 24:0.285714 25:1 28:0.5 30:1 31:0.333333 33:0.5 34:1 36:0.652174 37:1 38:0.4 39:0.736842 40:0.5 42:0.5 44:0.481481 45:0.5 46:0.5 48:0.666667 51:0.444444 52:0.625 53:0.428571 55:0.75 56:0.333333 57:1 58:0.571429 59:0.5 60:1 61:1 63:0.5 64:1 65:0.5 68:1 71:1 72:0.4 73:0.647059 75:0.571429 76:0.642857 79:0.285714 80:0.333333 81:0.727273 83:0.3 84:0.333333 86:1 88:0.285714 90:0.8 92:1 93:0.5 94:1 95:0.5 97:1 98:0.5 99:0.5 100:0.5 101:0.47619 102:0.5 103:0.75 104:0.666667 105:0.6 106:0.560976 107:1 
1 0 0 1:0.289474 2:0.25 3:0.357143 4:0.214286 5:0.375 6:0.305556 7:0.291667 9:0.227273 10:0.5 12:0.333333 13:0.375 14:0.285714 16:0.333333 17:0.375 18:0.25 19:0.25 21:0.5 22:0.25 23:0.321429 24:0.142857 25:0.5 28:0.25 30:0.5 31:0.166667 33:0.25 34:0.5 36:0.326087 37:0.5 38:0.2 39:0.368421 40:0.25 42:0.25 44:0.240741 45:0.25 46:0.25 48:0.333333 51:0.222222 52:0.3125 53:0.214286 55:0.375 56:0.166667 57:0.5 58:0.285714 59:0.25 60:0.5 61:0.5 63:0.25 64:0.5 65:0.25 68:0.5 71:0.5 72:0.2 73:0.323529 75:0.285714 76:0.321429 79:0.142857 80:0.166667 81:0.363636 83:0.15 84:0.166667 86:0.5 88:0.142857 90:0.4 92:0.5 93:0.25 94:0.5 95:0.25 97:0.5 98:0.25 99:0.25 100:0.25 101:0.238095 102:0.25 103:0.375 104:0.333333 105:0.3 106:0.280488 107:0.5 
1 0 0 1:0.289474 2:0.25 3:0.357143 4:0.214286 5:0.375 6:0.305556 7:0.291667 9:0.227273 10:0.5 12:0.333333 13:0.375 14:0.285714 16:0.333333 17:0.375 18:0.25 19:0.25 21:0.5 22:0.25 23:0.321429 24:0.142857 25:0.5 28:0.25 30:0.5 31:0.166667 33:0.25 34:0.5 36:0.326087 37:0.5 38:0.2 39:0.368421 40:0.25 42:0.25 44:0.246914 45:0.25 46:0.25 48:0.333333 51:0.222222 52:0.3125 53:0.214286 55:0.375 56:0.166667 57:0.5 58:0.285714 59:0.25 60:0.5 61:0.5 63:0.25 64:0.5 65:0.25 68:0.5 71:0.5 72:0.2 73:0.323529 75:0.285714 76:0.321429 79:0.142857 80:0.166667 81:0.363636 83:0.15 84:0.166667 86:0.5 88:0.142857 90:0.4 92:0.5 93:0.25 94:0.5 95:0.25 97:0.5 98:0.25 99:0.25 100:0.25 101:0.238095 102:0.25 103:0.375 104:0.333333 105:0.3 106:0.280488 107:0.5 
1 0.8422534365835744 0 1:0.192982 2:0.25 3:0.238095 4:0.142857 5:0.25 6:0.203704 7:0.194444 9:0.151515 10:0.333333 12:0.222222 13:0.25 14:0.190476 16:0.222222 17:0.25 18:0.166667 19:0.166667 21:0.333333 22:0.166667 23:0.214286 24:0.0952381 25:0.333333 28:0.166667 30:0.333333 31:0.111111 33:0.166667 34:0.333333 36:0.217391 37:0.333333 38:0.133333 39:0.245614 40:0.166667 42:0.166667 44:0.168724 45:0.166667 46:0.166667 48:0.222222 51:0.148148 52:0.208333 53:0.142857 55:0.25 56:0.111111 57:0.333333 58:0.190476 59:0.166667 60:0.333333 61:0.333333 63:0.166667 64:0.333333 65:0.208333 68:0.333333 71:0.333333 72:0.133333 73:0.215686 75:0.190476 76:0.214286 78:0.333333 79:0.0952381 80:0.111111 81:0.242424 83:0.1 84:0.111111 86:0.333333 88:0.0952381 90:0.266667 92:0.333333 93:0.166667 94:0.333333 95:0.166667 97:0.333333 98:0.166667 99:0.166667 100:0.166667 101:0.174603 102:0.166667 103:0.25 104:0.222222 105:0.2 106:0.186992 107:0.333333 
1 0.4859265922460677 0 1:0.0682261 2:0.0833333 3:0.0793651 4:0.0634921 5:0.0833333 6:0.0740741 7:0.0694444 9:0.0505051 10:0.111111 12:0.0740741 13:0.0833333 14:0.0634921 16:0.0740741 17:0.0833333 18:0.0555556 19:0.0555556 21:0.111111 22:0.0555556 23:0.0714286 24:0.031746 25:0.111111 27:0.031746 28:0.0555556 30:0.111111 31:0.037037 33:0.0555556 34:0.111111 36:0.0772947 37:0.111111 38:0.0555556 39:0.0818713 40:0.0555556 42:0.0555556 44:0.0576132 45:0.0555556 46:0.0555556 48:0.0740741 51:0.0493827 52:0.0694444 53:0.047619 55:0.0833333 56:0.037037 57:0.111111 58:0.0634921 59:0.0555556 60:0.111111 61:0.111111 63:0.0555556 64:0.111111 65:0.0694444 68:0.111111 71:0.111111 72:0.0666667 73:0.0718954 75:0.0634921 76:0.0714286 78:0.111111 79:0.031746 80:0.037037 81:0.0858586 83:0.0444444 84:0.037037 86:0.111111 88:0.031746 90:0.0888889 92:0.111111 93:0.0555556 94:0.111111 95:0.0598291 97:0.111111 98:0.0555556 99:0.0555556 100:0.0555556 101:0.0582011 102:0.0833333 103:0.0833333 104:0.0740741 105:0.0666667 106:0.0677507 107:0.111111 
1 0 0 1:0.0371517 2:0.0441176 3:0.0420168 4:0.0336134 5:0.0441176 6:0.0392157 7:0.0367647 9:0.0294118 10:0.0588235 12:0.0392157 13:0.0441176 14:0.0364146 16:0.0392157 17:0.0441176 18:0.0294118 19:0.0294118 21:0.0588235 22:0.0294118 23:0.0378151 24:0.0252101 25:0.0588235 27:0.0168067 28:0.0294118 30:0.0588235 31:0.0196078 33:0.0294118 34:0.0588235 36:0.0409207 37:0.0588235 38:0.0294118 39:0.0433437 40:0.0294118 42:0.0294118 44:0.0305011 45:0.0294118 46:0.0294118 48:0.0392157 51:0.0326797 52:0.0367647 53:0.0252101 55:0.0441176 56:0.0196078 57:0.0588235 58:0.0336134 59:0.0294118 60:0.0588235 61:0.0588235 63:0.0294118 64:0.0588235 65:0.0367647 68:0.0588235 71:0.0588235 72:0.0352941 73:0.0380623 75:0.0336134 76:0.0378151 78:0.0588235 79:0.0252101 80:0.0196078 81:0.0454545 83:0.0235294 84:0.0196078 86:0.0588235 88:0.0168067 90:0.0470588 92:0.0588235 93:0.0294118 94:0.0588235 95:0.0339367 97:0.0588235 98:0.0294118 99:0.0294118 100:0.0294118 101:0.0322129 102:0.0441176 103:0.0441176 104:0.0392157 105:0.0352941 106:0.035868 107:0.0588235 
1 0.8216206866084834 0 1:0.324561 2:0.375 3:0.357143 4:0.285714 5:0.375 6:0.333333 7:0.3125 9:0.25 10:0.5 12:0.333333 13:0.375 14:0.309524 16:0.333333 17:0.375 18:0.25 19:0.25 21:0.5 22:0.25 23:0.321429 24:0.214286 25:0.5 27:0.142857 28:0.25 30:0.5 31:0.166667 33:0.25 34:0.5 36:0.347826 37:0.5 38:0.25 39:0.368421 40:0.25 42:0.25 44:0.259259 45:0.25 46:0.25 48:0.333333 51:0.277778 52:0.3125 53:0.214286 55:0.375 56:0.166667 57:0.5 58:0.285714 59:0.25 60:0.5 61:0.5 63:0.25 64:0.5 65:0.3125 68:0.5 71:0.5 72:0.3 73:0.323529 75:0.285714 76:0.321429 78:0.5 79:0.214286 80:0.166667 81:0.386364 83:0.2 84:0.166667 86:0.5 88:0.142857 90:0.4 92:0.5 93:0.25 94:0.5 95:0.307692 97:0.5 98:0.25 99:0.25 100:0.25 101:0.27381 102:0.375 103:0.375 104:0.333333 105:0.3 106:0.304878 107:0.5 
1 1 0 1:0.0463659 2:0.0535714 3:0.0510204 4:0.0408163 5:0.0535714 6:0.047619 7:0.0446429 9:0.0357143 10:0.0714286 12:0.047619 13:0.0535714 14:0.0442177 16:0.047619 17:0.0535714 18:0.0357143 19:0.0357143 21:0.0714286 22:0.0357143 23:0.0459184 24:0.0306122 25:0.0714286 27:0.0204082 28:0.0357143 30:0.0714286 31:0.0238095 33:0.0357143 34:0.0714286 36:0.0496894 37:0.0714286 38:0.0357143 39:0.0526316 40:0.0357143 42:0.0357143 44:0.037037 45:0.0535714 46:0.0357143 48:0.047619 51:0.0396825 52:0.0446429 53:0.0306122 55:0.0535714 56:0.0238095 57:0.0714286 58:0.0459184 59:0.0357143 60:0.0714286 61:0.0714286 63:0.0357143 64:0.0714286 65:0.0446429 68:0.0714286 71:0.0714286 72:0.0428571 73:0.0504202 75:0.0408163 76:0.0459184 78:0.0714286 79:0.0306122 80:0.0238095 81:0.0551948 83:0.0285714 84:0.0238095 86:0.0714286 88:0.0204082 90:0.0571429 92:0.0714286 93:0.0357143 94:0.0714286 95:0.043956 97:0.0714286 98:0.0357143 99:0.0357143 100:0.0357143 101:0.0391156 102:0.0535714 103:0.0535714 104:0.047619 105:0.0428571 106:0.043554 107:0.0714286 
1 1 0.1544443705526009 1:0.649123 2:0.75 3:0.714286 4:0.571429 5:0.75 6:0.666667 7:0.625 9:0.5 10:1 12:0.666667 13:0.75 14:0.619048 16:0.666667 17:0.75 18:0.5 19:0.5 21:1 22:0.5 23:0.642857 24:0.428571 25:1 27:0.285714 28:0.5 30:1 31:0.333333 33:0.5 34:1 36:0.695652 37:1 38:0.5 39:0.736842 40:0.5 42:0.5 44:0.530864 45:0.75 46:0.5 48:0.666667 51:0.555556 52:0.625 53:0.571429 55:0.75 56:0.333333 57:1 58:0.642857 59:0.5 60:1 61:1 63:0.5 64:1 65:0.625 68:1 71:1 72:0.6 73:0.705882 75:0.571429 76:0.642857 78:1 79:0.428571 80:0.333333 81:0.772727 83:0.4 84:0.333333 86:1 88:0.285714 90:0.8 92:1 93:0.5 94:1 95:0.615385 97:1 98:0.5 99:0.5 100:0.5 101:0.547619 102:0.75 103:0.75 104:0.666667 105:0.6 106:0.609756 107:1 
1 0 0 1:0.216374 2:0.25 3:0.285714 4:0.190476 5:0.25 6:0.222222 7:0.222222 9:0.166667 10:0.333333 12:0.222222 13:0.25 14:0.238095 16:0.222222 17:0.25 18:0.166667 19:0.166667 21:0.333333 22:0.25 23:0.214286 24:0.142857 25:0.333333 27:0.0952381 28:0.166667 30:0.333333 31:0.111111 33:0.166667 34:0.333333 36:0.231884 37:0.333333 38:0.166667 39:0.263158 40:0.166667 42:0.166667 44:0.176955 45:0.25 46:0.166667 48:0.222222 51:0.185185 52:0.208333 53:0.190476 55:0.25 56:0.111111 57:0.333333 58:0.238095 59:0.166667 60:0.333333 61:0.333333 63:0.166667 64:0.333333 65:0.208333 68:0.333333 71:0.333333 72:0.2 73:0.235294 75:0.190476 76:0.214286 78:0.333333 79:0.142857 80:0.111111 81:0.272727 83:0.133333 84:0.111111 86:0.333333 88:0.0952381 90:0.333333 92:0.333333 93:0.166667 94:0.333333 95:0.205128 97:0.333333 98:0.166667 99:0.166667 100:0.166667 101:0.18254 102:0.25 103:0.25 104:0.222222 105:0.2 106:0.211382 107:0.333333 
1 0 0 1:0.162281 2:0.1875 3:0.214286 4:0.142857 5:0.1875 6:0.166667 7:0.166667 9:0.136364 10:0.25 12:0.166667 13:0.1875 14:0.178571 16:0.166667 17:0.1875 18:0.125 19:0.125 21:0.25 22:0.1875 23:0.160714 24:0.107143 25:0.25 27:0.0714286 28:0.125 30:0.25 31:0.0833333 33:0.125 34:0.25 36:0.173913 37:0.25 38:0.125 39:0.197368 40:0.15625 42:0.125 44:0.132716 45:0.1875 46:0.125 48:0.166667 51:0.138889 52:0.15625 53:0.142857 55:0.1875 56:0.0833333 57:0.25 58:0.178571 59:0.125 60:0.25 61:0.25 63:0.125 64:0.25 65:0.15625 68:0.25 71:0.25 72:0.15 73:0.176471 75:0.142857 76:0.160714 78:0.25 79:0.107143 80:0.0833333 81:0.204545 83:0.1 84:0.0833333 86:0.25 88:0.0714286 90:0.25 92:0.25 93:0.125 94:0.25 95:0.153846 97:0.25 98:0.125 99:0.125 100:0.125 101:0.136905 102:0.1875 103:0.1875 104:0.166667 105:0.15 106:0.158537 107:0.25 
1 0.4919520040947051 0 1:0.0721248 2:0.0833333 3:0.0952381 4:0.0634921 5:0.0833333 6:0.0740741 7:0.0740741 9:0.0606061 10:0.111111 12:0.0740741 13:0.0833333 14:0.0793651 16:0.0740741 17:0.0833333 18:0.0555556 19:0.0555556 21:0.111111 22:0.0833333 23:0.0714286 24:0.047619 25:0.111111 27:0.031746 28:0.0555556 30:0.111111 31:0.037037 33:0.0555556 34:0.111111 36:0.0772947 37:0.111111 38:0.0555556 39:0.0877193 40:0.0694444 42:0.0555556 44:0.0603567 45:0.0833333 46:0.0555556 48:0.0740741 51:0.0617284 52:0.0694444 53:0.0634921 55:0.0833333 56:0.037037 57:0.111111 58:0.0793651 59:0.0694444 60:0.111111 61:0.111111 63:0.0555556 64:0.111111 65:0.0694444 68:0.111111 71:0.111111 72:0.0666667 73:0.0784314 75:0.0634921 76:0.0714286 78:0.111111 79:0.047619 80:0.037037 81:0.0909091 83:0.0555556 84:0.037037 86:0.111111 88:0.031746 90:0.111111 92:0.111111 93:0.0555556 94:0.111111 95:0.0683761 97:0.111111 98:0.0555556 99:0.0555556 100:0.0555556 101:0.0634921 102:0.0833333 103:0.0833333 104:0.0740741 105:0.0666667 106:0.0704607 107:0.111111 
1 1 0 1:0.324561 2:0.375 3:0.428571 4:0.285714 5:0.375 6:0.333333 7:0.333333 9:0.272727 10:0.5 12:0.333333 13:0.375 14:0.357143 16:0.416667 17:0.375 18:0.25 19:0.25 21:0.5 22:0.375 23:0.321429 24:0.214286 25:0.5 27:0.142857 28:0.25 30:0.5 31:0.166667 33:0.25 34:0.5 36:0.369565 37:0.5 38:0.25 39:0.394737 40:0.3125 42:0.25 44:0.271605 45:0.375 46:0.25 48:0.333333 51:0.277778 52:0.3125 53:0.285714 55:0.375 56:0.166667 57:0.5 58:0.357143 59:0.3125 60:0.5 61:0.5 63:0.25 64:0.5 65:0.3125 68:0.5 71:0.5 72:0.3 73:0.352941 75:0.285714 76:0.357143 78:0.5 79:0.214286 80:0.166667 81:0.409091 83:0.25 84:0.166667 86:0.5 88:0.142857 90:0.5 92:0.5 93:0.25 94:0.5 95:0.307692 97:0.5 98:0.25 99:0.25 100:0.25 101:0.297619 102:0.375 103:0.375 104:0.333333 105:0.3 106:0.317073 107:0.5 
0.8296300991757992 0 0 1:0.216374 2:0.25 3:0.285714 4:0.190476 5:0.25 6:0.222222 7:0.222222 9:0.181818 10:0.333333 12:0.222222 13:0.25 14:0.238095 16:0.277778 17:0.25 18:0.166667 19:0.166667 21:0.333333 22:0.25 23:0.214286 24:0.142857 25:0.333333 27:0.0952381 28:0.166667 30:0.333333 31:0.111111 33:0.166667 34:0.333333 36:0.246377 37:0.333333 38:0.166667 39:0.263158 40:0.208333 42:0.166667 44:0.185185 45:0.25 46:0.166667 48:0.222222 51:0.185185 52:0.208333 53:0.190476 55:0.25 56:0.111111 57:0.333333 58:0.238095 59:0.208333 60:0.333333 61:0.333333 63:0.166667 64:0.333333 65:0.208333 68:0.333333 71:0.333333 72:0.2 73:0.235294 75:0.190476 76:0.238095 78:0.333333 79:0.142857 80:0.111111 81:0.272727 83:0.2 84:0.111111 86:0.333333 88:0.0952381 90:0.333333 92:0.333333 93:0.166667 94:0.333333 95:0.217949 97:0.333333 98:0.166667 99:0.166667 100:0.166667 101:0.198413 102:0.25 103:0.25 104:0.222222 105:0.2 106:0.211382 107:0.333333 
1 0.8024554106799609 0.00933606964787732 1:0.162281 2:0.1875 3:0.214286 4:0.142857 5:0.1875 6:0.166667 7:0.177083 9:0.136364 10:0.25 12:0.166667 13:0.1875 14:0.178571 16:0.208333 17:0.1875 18:0.125 19:0.125 21:0.25 22:0.1875 23:0.178571 24:0.107143 25:0.25 27:0.107143 28:0.125 30:0.25 31:0.0833333 33:0.125 34:0.25 36:0.184783 37:0.25 38:0.125 39:0.197368 40:0.15625 42:0.125 44:0.138889 45:0.1875 46:0.125 48:0.208333 51:0.138889 52:0.15625 53:0.142857 55:0.1875 56:0.0833333 57:0.25 58:0.178571 59:0.15625 60:0.25 61:0.25 63:0.125 64:0.25 65:0.1875 68:0.25 69:0.25 71:0.25 72:0.15 73:0.176471 75:0.142857 76:0.196429 77:0.0833333 78:0.25 79:0.142857 80:0.0833333 81:0.204545 83:0.15 84:0.0833333 86:0.25 88:0.0714286 90:0.25 92:0.25 93:0.125 94:0.25 95:0.163462 97:0.25 98:0.125 99:0.125 100:0.125 101:0.14881 102:0.1875 103:0.1875 104:0.25 105:0.15 106:0.158537 107:0.25 
0 0 0.1172005757782417 1:0.324561 2:0.375 3:0.428571 4:0.285714 5:0.375 6:0.333333 7:0.354167 9:0.272727 10:0.5 12:0.333333 13:0.375 14:0.357143 16:0.416667 17:0.375 18:0.25 19:0.25 21:0.5 22:0.375 23:0.357143 24:0.214286 25:0.5 27:0.214286 28:0.25 30:0.5 31:0.166667 33:0.25 34:0.5 36:0.369565 37:0.5 38:0.25 39:0.394737 40:0.3125 42:0.25 44:0.283951 45:0.375 46:0.25 48:0.416667 51:0.277778 52:0.3125 53:0.357143 55:0.375 56:0.166667 57:0.5 58:0.357143 59:0.3125 60:0.5 61:0.5 63:0.25 64:0.5 65:0.375 68:0.5 69:0.5 71:0.5 72:0.3 73:0.352941 75:0.285714 76:0.392857 77:0.166667 78:0.5 79:0.285714 80:0.166667 81:0.409091 83:0.3 84:0.166667 86:0.5 88:0.142857 90:0.5 92:0.5 93:0.25 94:0.5 95:0.326923 97:0.5 98:0.25 99:0.25 100:0.277778 101:0.297619 102:0.375 103:0.375 104:0.5 105:0.3 106:0.317073 107:0.5 
1 1 0 1:0.111111 2:0.125 3:0.142857 4:0.0952381 5:0.125 6:0.111111 7:0.118056 9:0.0909091 10:0.166667 12:0.111111 13:0.125 14:0.119048 16:0.138889 17:0.125 18:0.0833333 19:0.0833333 21:0.166667 22:0.125 23:0.119048 24:0.0714286 25:0.166667 27:0.0714286 28:0.0833333 30:0.166667 31:0.0555556 33:0.0833333 34:0.166667 36:0.123188 37:0.166667 38:0.0833333 39:0.131579 40:0.104167 42:0.0833333 44:0.0967078 45:0.125 46:0.125 48:0.138889 51:0.0925926 52:0.104167 53:0.119048 55:0.125 56:0.0555556 57:0.166667 58:0.119048 59:0.104167 60:0.166667 61:0.166667 63:0.0833333 64:0.166667 65:0.125 68:0.166667 69:0.166667 71:0.166667 72:0.1 73:0.127451 75:0.0952381 76:0.130952 77:0.0555556 78:0.166667 79:0.0952381 80:0.0555556 81:0.136364 83:0.1 84:0.0555556 86:0.166667 88:0.047619 90:0.166667 92:0.166667 93:0.0833333 94:0.166667 95:0.108974 97:0.166667 98:0.0833333 99:0.0833333 100:0.101852 101:0.107143 102:0.125 103:0.125 104:0.166667 105:0.1 106:0.117886 107:0.166667 
1 0 0 1:0.171053 2:0.1875 3:0.214286 4:0.142857 5:0.1875 6:0.166667 7:0.177083 9:0.136364 10:0.25 12:0.166667 13:0.1875 14:0.178571 16:0.208333 17:0.1875 18:0.125 19:0.125 21:0.25 22:0.1875 23:0.178571 24:0.107143 25:0.25 27:0.107143 28:0.125 30:0.25 31:0.0833333 33:0.125 34:0.25 36:0.184783 37:0.25 38:0.175 39:0.223684 40:0.15625 42:0.125 44:0.148148 45:0.1875 46:0.1875 48:0.208333 51:0.138889 52:0.15625 53:0.178571 55:0.1875 56:0.0833333 57:0.25 58:0.196429 59:0.15625 60:0.25 61:0.25 63:0.136364 64:0.25 65:0.1875 68:0.25 69:0.25 71:0.25 72:0.15 73:0.191176 75:0.142857 76:0.196429 77:0.0833333 78:0.25 79:0.142857 80:0.0833333 81:0.204545 83:0.15 84:0.0833333 86:0.25 88:0.0714286 90:0.25 92:0.25 93:0.125 94:0.25 95:0.163462 97:0.25 98:0.125 99:0.125 100:0.152778 101:0.160714 102:0.1875 103:0.1875 104:0.25 105:0.15 106:0.176829 107:0.25 
0 0.158254394573686 0 1:0.342105 2:0.375 3:0.428571 4:0.285714 5:0.375 6:0.333333 7:0.354167 9:0.272727 10:0.5 12:0.333333 13:0.375 14:0.357143 16:0.416667 17:0.375 18:0.25 19:0.25 21:0.5 22:0.375 23:0.357143 24:0.214286 25:0.5 27:0.214286 28:0.25 30:0.5 31:0.166667 33:0.25 34:0.5 36:0.369565 37:0.5 38:0.35 39:0.447368 40:0.3125 42:0.25 44:0.302469 45:0.375 46:0.375 48:0.416667 51:0.277778 52:0.3125 53:0.357143 55:0.375 56:0.166667 57:0.5 58:0.392857 59:0.3125 60:0.5 61:0.5 63:0.272727 64:0.5 65:0.375 68:0.5 69:0.5 71:0.5 72:0.3 73:0.382353 75:0.285714 76:0.392857 77:0.166667 78:0.5 79:0.285714 80:0.166667 81:0.409091 83:0.3 84:0.166667 86:0.5 88:0.142857 90:0.5 92:0.5 93:0.25 94:0.5 95:0.326923 97:0.5 98:0.25 99:0.25 100:0.305556 101:0.345238 102:0.375 103:0.375 104:0.5 105:0.3 106:0.353659 107:0.5 
0.09420296322887722 0 0 1:0.350877 2:0.375 3:0.428571 4:0.285714 5:0.375 6:0.333333 7:0.354167 9:0.272727 10:0.5 12:0.333333 13:0.375 14:0.357143 16:0.416667 17:0.375 18:0.25 19:0.25 21:0.5 22:0.375 23:0.357143 24:0.214286 25:0.5 27:0.214286 28:0.25 30:0.5 31:0.166667 33:0.25 34:0.5 36:0.369565 37:0.5 38:0.35 39:0.447368 40:0.3125 42:0.25 44:0.302469 45:0.375 46:0.375 48:0.416667 51:0.277778 52:0.3125 53:0.357143 55:0.375 56:0.166667 57:0.5 58:0.392857 59:0.3125 60:0.5 61:0.5 63:0.272727 64:0.5 65:0.375 68:0.5 69:0.5 71:0.5 72:0.3 73:0.382353 75:0.285714 76:0.392857 77:0.166667 78:0.5 79:0.285714 80:0.166667 81:0.409091 83:0.3 84:0.166667 86:0.5 88:0.142857 90:0.5 92:0.5 93:0.25 94:0.5 95:0.346154 97:0.5 98:0.25 99:0.25 100:0.305556 101:0.345238 102:0.375 103:0.375 104:0.5 105:0.3 106:0.353659 107:0.5 
1 0.02362082632624452 0 1:0.350877 2:0.375 3:0.428571 4:0.285714 5:0.375 6:0.333333 7:0.354167 9:0.272727 10:0.5 12:0.333333 13:0.375 14:0.357143 16:0.416667 17:0.375 18:0.25 19:0.25 21:0.5 22:0.375 23:0.357143 24:0.214286 25:0.5 27:0.214286 28:0.25 30:0.5 31:0.166667 33:0.25 34:0.5 36:0.369565 37:0.5 38:0.35 39:0.447368 40:0.3125 42:0.25 44:0.302469 45:0.375 46:0.375 48:0.416667 51:0.277778 52:0.3125 53:0.357143 55:0.375 56:0.166667 57:0.5 58:0.392857 59:0.3125 60:0.5 61:0.5 63:0.272727 64:0.5 65:0.375 68:0.5 69:0.5 71:0.5 72:0.3 73:0.382353 75:0.285714 76:0.392857 77:0.166667 78:0.5 79:0.285714 80:0.166667 81:0.409091 83:0.3 84:0.166667 86:0.5 88:0.142857 90:0.5 92:0.5 93:0.25 94:0.5 95:0.346154 97:0.5 98:0.25 99:0.25 100:0.305556 101:0.345238 102:0.375 103:0.375 104:0.5 105:0.3 106:0.353659 107:0.5 
1 0.5605869360479927 0.8011444466150944 1:0.701754 2:0.75 3:0.857143 4:0.571429 5:0.75 6:0.666667 7:0.708333 9:0.545455 10:1 12:0.666667 13:0.75 14:0.714286 16:0.833333 17:0.75 18:0.5 19:0.5 21:1 22:0.75 23:0.714286 24:0.428571 25:1 27:0.428571 28:0.5 30:1 31:0.333333 33:0.5 34:1 36:0.73913 37:1 38:0.7 39:0.894737 40:0.625 42:0.5 44:0.617284 45:0.75 46:0.75 48:0.833333 51:0.555556 52:0.625 53:0.714286 55:0.75 56:0.333333 57:1 58:0.785714 59:0.625 60:1 61:1 63:0.545455 64:1 65:0.75 68:1 69:1 71:1 72:0.6 73:0.764706 75:0.571429 76:0.785714 77:0.333333 78:1 79:0.571429 80:0.333333 81:0.818182 83:0.6 84:0.333333 86:1 88:0.285714 90:1 92:1 93:0.5 94:1 95:0.692308 97:1 98:0.5 99:0.5 100:0.666667 101:0.690476 102:0.75 103:0.75 104:1 105:0.6 106:0.707317 107:1 
1 0 0 1:0.140351 2:0.15 3:0.171429 4:0.114286 5:0.15 6:0.133333 7:0.15 9:0.127273 10:0.2 12:0.133333 13:0.15 14:0.142857 16:0.166667 17:0.15 18:0.1 19:0.1 21:0.2 22:0.2 23:0.142857 24:0.0857143 25:0.2 27:0.0857143 28:0.12 30:0.2 31:0.0666667 33:0.1 34:0.2 36:0.147826 37:0.2 38:0.16 39:0.178947 40:0.125 42:0.1 44:0.130864 45:0.15 46:0.15 48:0.166667 51:0.111111 52:0.125 53:0.142857 55:0.15 56:0.0666667 57:0.2 58:0.157143 59:0.125 60:0.2 61:0.2 63:0.109091 64:0.2 65:0.15 68:0.2 69:0.2 71:0.2 72:0.12 73:0.152941 75:0.12381 76:0.157143 77:0.0666667 78:0.2 79:0.114286 80:0.133333 81:0.172727 83:0.12 84:0.133333 86:0.2 88:0.0571429 90:0.2 92:0.2 93:0.1 94:0.2 95:0.138462 97:0.2 98:0.1 99:0.1 100:0.133333 101:0.138095 102:0.15 103:0.15 104:0.2 105:0.12 106:0.141463 107:0.2 
1 0 0 1:0.350877 2:0.375 3:0.428571 4:0.285714 5:0.375 6:0.333333 7:0.375 9:0.318182 10:0.5 12:0.333333 13:0.375 14:0.357143 16:0.416667 17:0.375 18:0.25 19:0.25 21:0.5 22:0.5 23:0.357143 24:0.214286 25:0.5 27:0.214286 28:0.3 30:0.5 31:0.166667 33:0.25 34:0.5 36:0.369565 37:0.5 38:0.4 39:0.447368 40:0.3125 42:0.25 44:0.32716 45:0.375 46:0.375 48:0.416667 51:0.277778 52:0.3125 53:0.357143 55:0.375 56:0.166667 57:0.5 58:0.392857 59:0.3125 60:0.5 61:0.5 63:0.272727 64:0.5 65:0.375 68:0.5 69:0.5 71:0.5 72:0.3 73:0.382353 75:0.309524 76:0.392857 77:0.166667 78:0.5 79:0.285714 80:0.333333 81:0.431818 83:0.3 84:0.333333 86:0.5 88:0.142857 90:0.5 92:0.5 93:0.25 94:0.5 95:0.346154 97:0.5 98:0.25 99:0.25 100:0.333333 101:0.357143 102:0.375 103:0.375 104:0.5 105:0.3 106:0.365854 107:0.5 
0.5246962908166373 0 0 1:0.350877 2:0.375 3:0.428571 4:0.285714 5:0.375 6:0.333333 7:0.375 9:0.318182 10:0.5 12:0.333333 13:0.375 14:0.357143 16:0.416667 17:0.375 18:0.25 19:0.25 21:0.5 22:0.5 23:0.357143 24:0.214286 25:0.5 27:0.214286 28:0.3 30:0.5 31:0.166667 33:0.25 34:0.5 36:0.369565 37:0.5 38:0.4 39:0.447368 40:0.3125 42:0.25 44:0.32716 45:0.375 46:0.375 48:0.416667 51:0.277778 52:0.3125 53:0.357143 55:0.375 56:0.166667 57:0.5 58:0.392857 59:0.3125 60:0.5 61:0.5 63:0.272727 64:0.5 65:0.375 68:0.5 69:0.5 71:0.5 72:0.3 73:0.382353 75:0.309524 76:0.392857 77:0.166667 78:0.5 79:0.285714 80:0.333333 81:0.431818 83:0.3 84:0.333333 86:0.5 88:0.142857 90:0.5 92:0.5 93:0.25 94:0.5 95:0.346154 97:0.5 98:0.25 99:0.25 100:0.333333 101:0.357143 102:0.375 103:0.375 104:0.5 105:0.3 106:0.365854 107:0.5 
1 0 0 1:0.350877 2:0.375 3:0.428571 4:0.285714 5:0.375 6:0.333333 7:0.375 9:0.318182 10:0.5 12:0.333333 13:0.375 14:0.357143 16:0.416667 17:0.375 18:0.25 19:0.25 21:0.5 22:0.5 23:0.357143 24:0.214286 25:0.5 27:0.214286 28:0.3 30:0.5 31:0.166667 33:0.25 34:0.5 36:0.369565 37:0.5 38:0.4 39:0.447368 40:0.3125 42:0.25 44:0.333333 45:0.375 46:0.375 48:0.416667 51:0.277778 52:0.3125 53:0.357143 55:0.375 56:0.166667 57:0.5 58:0.392857 59:0.3125 60:0.5 61:0.5 63:0.272727 64:0.5 65:0.375 68:0.5 69:0.5 71:0.5 72:0.3 73:0.382353 75:0.309524 76:0.392857 77:0.166667 78:0.5 79:0.285714 80:0.333333 81:0.431818 83:0.3 84:0.333333 86:0.5 88:0.142857 90:0.5 92:0.5 93:0.25 94:0.5 95:0.365385 97:0.5 98:0.25 99:0.25 100:0.333333 101:0.357143 102:0.375 103:0.375 104:0.5 105:0.3 106:0.365854 107:0.5 
0.8155702858349702 0.7000541286118349 0 1:0.359649 2:0.375 3:0.428571 4:0.285714 5:0.375 6:0.333333 7:0.375 9:0.318182 10:0.5 12:0.333333 13:0.375 14:0.357143 16:0.416667 17:0.375 18:0.25 19:0.25 21:0.5 22:0.5 23:0.357143 24:0.214286 25:0.5 27:0.214286 28:0.3 30:0.5 31:0.166667 33:0.25 34:0.5 36:0.369565 37:0.5 38:0.45 39:0.447368 40:0.3125 42:0.25 44:0.333333 45:0.375 46:0.375 48:0.416667 51:0.277778 52:0.3125 53:0.357143 55:0.375 56:0.166667 57:0.5 58:0.392857 59:0.3125 60:0.5 61:0.5 63:0.272727 64:0.5 65:0.375 68:0.5 69:0.5 71:0.5 72:0.3 73:0.382353 75:0.333333 76:0.392857 77:0.166667 78:0.5 79:0.357143 80:0.333333 81:0.431818 83:0.3 84:0.333333 86:0.5 88:0.142857 90:0.5 92:0.5 93:0.25 94:0.5 95:0.365385 97:0.5 98:0.25 99:0.25 100:0.333333 101:0.357143 102:0.375 103:0.375 104:0.5 105:0.3 106:0.365854 107:0.5 
1 0.08409258297628409 0 1:0.184211 2:0.1875 3:0.214286 4:0.142857 5:0.1875 6:0.166667 7:0.1875 9:0.159091 10:0.25 12:0.166667 13:0.1875 14:0.178571 16:0.208333 17:0.1875 18:0.125 19:0.125 21:0.25 22:0.25 23:0.196429 24:0.107143 25:0.25 27:0.107143 28:0.15 30:0.25 31:0.0833333 33:0.125 34:0.25 36:0.184783 37:0.25 38:0.225 39:0.223684 40:0.15625 42:0.125 44:0.166667 45:0.1875 46:0.1875 48:0.208333 51:0.138889 52:0.15625 53:0.178571 55:0.1875 56:0.0833333 57:0.25 58:0.196429 59:0.15625 60:0.25 61:0.25 63:0.136364 64:0.25 65:0.1875 68:0.25 69:0.25 71:0.25 72:0.15 73:0.191176 75:0.166667 76:0.196429 77:0.0833333 78:0.25 79:0.178571 80:0.166667 81:0.215909 83:0.15 84:0.166667 86:0.25 88:0.0714286 90:0.25 92:0.25 93:0.125 94:0.25 95:0.182692 97:0.25 98:0.125 99:0.125 100:0.180556 101:0.178571 102:0.1875 103:0.1875 104:0.25 105:0.15 106:0.182927 107:0.25 
1 1 0 1:0.0526316 2:0.0535714 3:0.0612245 4:0.0408163 5:0.0535714 6:0.047619 7:0.0535714 9:0.0454545 10:0.0714286 12:0.047619 13:0.0535714 14:0.0510204 16:0.0595238 17:0.0535714 18:0.0357143 19:0.0357143 21:0.0714286 22:0.0714286 23:0.0561224 24:0.0306122 25:0.0714286 27:0.0306122 28:0.0428571 30:0.0714286 31:0.0238095 33:0.0357143 34:0.0714286 36:0.052795 37:0.0714286 38:0.0642857 39:0.0639098 40:0.0446429 42:0.0357143 44:0.0485009 45:0.0535714 46:0.0535714 48:0.0595238 51:0.047619 52:0.0446429 53:0.0510204 55:0.0535714 56:0.0238095 57:0.0714286 58:0.0561224 59:0.0446429 60:0.0714286 61:0.0714286 63:0.038961 64:0.0714286 65:0.0535714 68:0.0714286 69:0.0714286 71:0.0714286 72:0.0428571 73:0.0546218 75:0.047619 76:0.0561224 77:0.0238095 78:0.0714286 79:0.0510204 80:0.047619 81:0.0649351 83:0.0428571 84:0.047619 86:0.0714286 88:0.0204082 90:0.0714286 92:0.0714286 93:0.0357143 94:0.0714286 95:0.0521978 97:0.0714286 98:0.0357143 99:0.0357143 100:0.0515873 101:0.0510204 102:0.0535714 103:0.0535714 104:0.0714286 105:0.0428571 106:0.0522648 107:0.0714286 
1 0 0 1:0.105263 2:0.107143 3:0.122449 4:0.0816327 5:0.107143 6:0.0952381 7:0.107143 9:0.0909091 10:0.142857 12:0.0952381 13:0.107143 14:0.102041 16:0.119048 17:0.107143 18:0.0714286 19:0.0714286 21:0.142857 22:0.142857 23:0.112245 24:0.0612245 25:0.142857 27:0.0612245 28:0.0857143 30:0.142857 31:0.0952381 33:0.0714286 34:0.142857 36:0.10559 37:0.142857 38:0.128571 39:0.12782 40:0.0892857 42:0.0714286 44:0.0970018 45:0.107143 46:0.107143 48:0.119048 51:0.0952381 52:0.107143 53:0.102041 55:0.107143 56:0.047619 57:0.142857 58:0.112245 59:0.0892857 60:0.142857 61:0.142857 63:0.0779221 64:0.142857 65:0.125 68:0.142857 69:0.142857 71:0.142857 72:0.0857143 73:0.109244 75:0.0952381 76:0.112245 77:0.047619 78:0.142857 79:0.102041 80:0.0952381 81:0.12987 83:0.0857143 84:0.0952381 86:0.142857 88:0.0408163 90:0.142857 92:0.142857 93:0.0714286 94:0.142857 95:0.104396 97:0.142857 98:0.0714286 99:0.0714286 100:0.103175 101:0.102041 102:0.107143 103:0.107143 104:0.142857 105:0.0857143 106:0.10453 107:0.142857 
1 0 0 1:0.188596 2:0.1875 3:0.214286 4:0.142857 5:0.1875 6:0.166667 7:0.1875 9:0.159091 10:0.25 12:0.166667 13:0.1875 14:0.178571 16:0.208333 17:0.1875 18:0.125 19:0.125 21:0.25 22:0.25 23:0.196429 24:0.107143 25:0.25 27:0.142857 28:0.15 30:0.25 31:0.166667 33:0.125 34:0.25 36:0.184783 37:0.25 38:0.225 39:0.223684 40:0.15625 42:0.125 44:0.169753 45:0.1875 46:0.1875 48:0.208333 51:0.166667 52:0.1875 53:0.214286 55:0.1875 56:0.0833333 57:0.25 58:0.196429 59:0.15625 60:0.25 61:0.25 63:0.136364 64:0.25 65:0.21875 68:0.25 69:0.25 71:0.25 72:0.15 73:0.191176 75:0.166667 76:0.196429 77:0.0833333 78:0.25 79:0.178571 80:0.166667 81:0.227273 83:0.15 84:0.166667 86:0.25 88:0.0714286 90:0.25 92:0.25 93:0.125 94:0.25 95:0.182692 97:0.25 98:0.125 99:0.125 100:0.180556 101:0.178571 102:0.1875 103:0.1875 104:0.25 105:0.15 106:0.182927 107:0.25 
0.1849231277919564 0.09511292991833299 0 1:0.377193 2:0.5 3:0.428571 4:0.285714 5:0.375 6:0.333333 7:0.375 9:0.318182 10:0.5 12:0.333333 13:0.375 14:0.357143 16:0.416667 17:0.375 18:0.25 19:0.25 21:0.5 22:0.5 23:0.392857 24:0.214286 25:0.5 27:0.285714 28:0.3 30:0.5 31:0.333333 33:0.25 34:0.5 36:0.369565 37:0.5 38:0.45 39:0.447368 40:0.3125 42:0.25 44:0.345679 45:0.375 46:0.375 48:0.416667 51:0.333333 52:0.375 53:0.428571 55:0.375 56:0.166667 57:0.5 58:0.392857 59:0.3125 60:0.5 61:0.5 63:0.272727 64:0.5 65:0.4375 68:0.5 69:0.5 71:0.5 72:0.3 73:0.382353 75:0.333333 76:0.392857 77:0.166667 78:0.5 79:0.357143 80:0.333333 81:0.454545 83:0.3 84:0.333333 86:0.5 88:0.142857 90:0.5 92:0.5 93:0.25 94:0.5 95:0.365385 97:0.5 98:0.25 99:0.25 100:0.361111 101:0.357143 102:0.375 103:0.375 104:0.5 105:0.3 106:0.365854 107:0.5 
1 0 0 1:0.150877 2:0.2 3:0.171429 4:0.142857 5:0.15 6:0.133333 7:0.15 9:0.127273 10:0.2 12:0.133333 13:0.15 14:0.152381 16:0.166667 17:0.15 18:0.1 19:0.1 21:0.2 22:0.2 23:0.157143 24:0.0857143 25:0.2 27:0.114286 28:0.12 30:0.2 31:0.133333 33:0.1 34:0.2 36:0.147826 37:0.2 38:0.18 39:0.178947 40:0.125 42:0.1 44:0.140741 45:0.15 46:0.15 48:0.2 51:0.133333 52:0.15 53:0.171429 55:0.15 56:0.0666667 57:0.2 58:0.157143 59:0.125 60:0.2 61:0.2 63:0.109091 64:0.2 65:0.175 68:0.2 69:0.2 71:0.2 72:0.12 73:0.152941 75:0.133333 76:0.157143 77:0.0666667 78:0.2 79:0.142857 80:0.133333 81:0.181818 83:0.12 84:0.133333 86:0.2 88:0.0571429 90:0.2 92:0.2 93:0.1 94:0.2 95:0.146154 97:0.2 98:0.1 99:0.1 100:0.155556 101:0.142857 102:0.15 103:0.15 104:0.2 105:0.12 106:0.146341 107:0.2 
1 0 0 1:0.125731 2:0.166667 3:0.142857 4:0.119048 5:0.125 6:0.12037 7:0.125 9:0.106061 10:0.166667 12:0.111111 13:0.125 14:0.126984 16:0.138889 17:0.125 18:0.0833333 19:0.0833333 21:0.166667 22:0.166667 23:0.130952 24:0.0714286 25:0.166667 27:0.0952381 28:0.1 30:0.166667 31:0.111111 33:0.0833333 34:0.166667 36:0.123188 37:0.166667 38:0.15 39:0.149123 40:0.104167 42:0.0833333 44:0.117284 45:0.125 46:0.125 48:0.166667 51:0.111111 52:0.125 53:0.142857 55:0.125 56:0.0555556 57:0.166667 58:0.130952 59:0.104167 60:0.166667 61:0.166667 63:0.0909091 64:0.166667 65:0.145833 68:0.166667 69:0.166667 71:0.166667 72:0.1 73:0.127451 75:0.111111 76:0.130952 77:0.0555556 78:0.166667 79:0.119048 80:0.111111 81:0.151515 83:0.1 84:0.111111 86:0.166667 88:0.0714286 90:0.166667 92:0.166667 93:0.0833333 94:0.166667 95:0.121795 97:0.166667 98:0.0833333 99:0.0833333 100:0.12963 101:0.119048 102:0.125 103:0.125 104:0.166667 105:0.1 106:0.121951 107:0.166667 
1 1 0 1:0.377193 2:0.5 3:0.428571 4:0.357143 5:0.375 6:0.361111 7:0.395833 9:0.318182 10:0.5 11:0.25 12:0.333333 13:0.375 14:0.380952 16:0.416667 17:0.375 18:0.25 19:0.25 21:0.5 22:0.5 23:0.392857 24:0.214286 25:0.5 27:0.285714 28:0.3 30:0.5 31:0.333333 33:0.25 34:0.5 36:0.369565 37:0.5 38:0.45 39:0.447368 40:0.3125 42:0.25 44:0.364198 45:0.375 46:0.375 48:0.5 51:0.333333 52:0.375 53:0.428571 55:0.375 56:0.166667 57:0.5 58:0.392857 59:0.3125 60:0.5 61:0.5 63:0.295455 64:0.5 65:0.4375 68:0.5 69:0.5 71:0.5 72:0.3 73:0.382353 75:0.333333 76:0.392857 77:0.166667 78:0.5 79:0.357143 80:0.333333 81:0.454545 83:0.3 84:0.333333 86:0.5 88:0.214286 90:0.5 92:0.5 93:0.25 94:0.5 95:0.365385 97:0.5 98:0.25 99:0.25 100:0.388889 101:0.357143 102:0.375 103:0.375 104:0.5 105:0.3 106:0.365854 107:0.5 
1 1 0 1:0.0942982 2:0.125 3:0.107143 4:0.0892857 5:0.09375 6:0.0902778 7:0.104167 9:0.0795455 10:0.125 11:0.0625 12:0.0833333 13:0.09375 14:0.0952381 16:0.104167 17:0.09375 18:0.0625 19:0.0625 21:0.125 22:0.125 23:0.107143 24:0.0714286 25:0.125 27:0.0892857 28:0.075 30:0.125 31:0.125 33:0.0625 34:0.125 36:0.0923913 37:0.125 38:0.1125 39:0.111842 40:0.078125 42:0.0625 44:0.0925926 45:0.09375 46:0.09375 48:0.125 51:0.0833333 52:0.09375 53:0.107143 55:0.09375 56:0.0416667 57:0.125 58:0.0982143 59:0.078125 60:0.125 61:0.125 63:0.0738636 64:0.125 65:0.109375 68:0.125 69:0.125 71:0.125 72:0.075 73:0.0955882 75:0.0833333 76:0.0982143 77:0.0416667 78:0.125 79:0.0892857 80:0.0833333 81:0.113636 83:0.075 84:0.0833333 86:0.125 88:0.0535714 90:0.125 92:0.125 93:0.0625 94:0.125 95:0.0913462 97:0.125 98:0.0625 99:0.0625 100:0.0972222 101:0.0892857 102:0.09375 103:0.09375 104:0.125 105:0.075 106:0.0914634 107:0.125 
1 0 0 1:0.251462 2:0.333333 3:0.285714 4:0.238095 5:0.25 6:0.259259 7:0.291667 9:0.212121 10:0.333333 11:0.166667 12:0.222222 13:0.25 14:0.253968 16:0.277778 17:0.25 18:0.166667 19:0.166667 21:0.333333 22:0.333333 23:0.285714 24:0.190476 25:0.333333 27:0.238095 28:0.2 30:0.333333 31:0.333333 33:0.166667 34:0.333333 36:0.246377 37:0.333333 38:0.3 39:0.298246 40:0.208333 42:0.166667 44:0.255144 45:0.25 46:0.25 48:0.333333 51:0.222222 52:0.25 53:0.285714 55:0.25 56:0.111111 57:0.333333 58:0.261905 59:0.208333 60:0.333333 61:0.333333 63:0.19697 64:0.333333 65:0.291667 68:0.333333 69:0.333333 71:0.333333 72:0.266667 73:0.254902 75:0.222222 76:0.285714 77:0.111111 78:0.333333 79:0.238095 80:0.222222 81:0.30303 83:0.2 84:0.222222 86:0.333333 88:0.142857 90:0.333333 92:0.333333 93:0.166667 94:0.333333 95:0.24359 97:0.333333 98:0.25 99:0.166667 100:0.259259 101:0.246032 102:0.25 103:0.25 104:0.333333 105:0.2 106:0.252033 107:0.333333 
1 0 0 1:0.150877 2:0.2 3:0.171429 4:0.142857 5:0.15 6:0.155556 7:0.175 9:0.127273 10:0.2 11:0.1 12:0.133333 13:0.15 14:0.152381 16:0.166667 17:0.15 18:0.1 19:0.1 21:0.2 22:0.2 23:0.171429 24:0.114286 25:0.2 27:0.142857 28:0.12 30:0.2 31:0.2 33:0.1 34:0.2 36:0.147826 37:0.2 38:0.18 39:0.178947 40:0.125 42:0.1 44:0.155556 45:0.15 46:0.15 48:0.2 51:0.133333 52:0.15 53:0.171429 55:0.15 56:0.0666667 57:0.2 58:0.171429 59:0.125 60:0.2 61:0.2 63:0.118182 64:0.2 65:0.175 68:0.2 69:0.2 71:0.2 72:0.16 73:0.152941 75:0.133333 76:0.171429 77:0.0666667 78:0.2 79:0.142857 80:0.133333 81:0.181818 83:0.12 84:0.133333 86:0.2 88:0.0857143 90:0.2 92:0.2 93:0.1 94:0.2 95:0.146154 97:0.2 98:0.15 99:0.1 100:0.155556 101:0.147619 102:0.15 103:0.15 104:0.2 105:0.12 106:0.15122 107:0.2 
1 0 0 1:0.125731 2:0.166667 3:0.142857 4:0.119048 5:0.125 6:0.12963 7:0.145833 9:0.106061 10:0.166667 11:0.0833333 12:0.111111 13:0.166667 14:0.126984 16:0.138889 17:0.125 18:0.0833333 19:0.0833333 21:0.166667 22:0.166667 23:0.142857 24:0.0952381 25:0.166667 27:0.119048 28:0.1 30:0.166667 31:0.166667 33:0.0833333 34:0.166667 36:0.123188 37:0.166667 38:0.15 39:0.149123 40:0.104167 42:0.0833333 44:0.12963 45:0.125 46:0.125 48:0.166667 51:0.111111 52:0.125 53:0.142857 55:0.125 56:0.0555556 57:0.166667 58:0.142857 59:0.104167 60:0.166667 61:0.166667 63:0.0984848 64:0.166667 65:0.145833 68:0.166667 69:0.166667 71:0.166667 72:0.133333 73:0.127451 75:0.111111 76:0.142857 77:0.0555556 78:0.166667 79:0.119048 80:0.111111 81:0.159091 83:0.1 84:0.111111 86:0.166667 88:0.0714286 90:0.166667 92:0.166667 93:0.0833333 94:0.166667 95:0.121795 97:0.166667 98:0.125 99:0.0833333 100:0.12963 101:0.123016 102:0.125 103:0.125 104:0.166667 105:0.1 106:0.126016 107:0.166667 
1 0 0 1:0.107769 2:0.142857 3:0.122449 4:0.102041 5:0.107143 6:0.111111 7:0.125 9:0.0909091 10:0.142857 11:0.0714286 12:0.0952381 13:0.142857 14:0.108844 16:0.142857 17:0.107143 18:0.0714286 19:0.0714286 21:0.142857 22:0.142857 23:0.122449 24:0.0816327 25:0.142857 27:0.102041 28:0.0857143 30:0.142857 31:0.142857 33:0.0714286 34:0.142857 36:0.10559 37:0.142857 38:0.128571 39:0.12782 40:0.0892857 42:0.0714286 44:0.111111 45:0.107143 46:0.107143 48:0.142857 51:0.0952381 52:0.107143 53:0.122449 55:0.107143 56:0.047619 57:0.142857 58:0.122449 59:0.0892857 60:0.142857 61:0.142857 63:0.0844156 64:0.142857 65:0.125 68:0.142857 69:0.142857 71:0.142857 72:0.114286 73:0.109244 75:0.0952381 76:0.122449 77:0.047619 78:0.142857 79:0.102041 80:0.0952381 81:0.136364 83:0.0857143 84:0.0952381 86:0.142857 88:0.0816327 90:0.142857 92:0.142857 93:0.0714286 94:0.142857 95:0.104396 97:0.142857 98:0.107143 99:0.0714286 100:0.111111 101:0.105442 102:0.107143 103:0.107143 104:0.142857 105:0.0857143 106:0.111498 107:0.142857 
1 0 0 1:0.150877 2:0.2 3:0.171429 4:0.142857 5:0.15 6:0.166667 7:0.175 9:0.127273 10:0.2 11:0.1 12:0.133333 13:0.2 14:0.152381 16:0.2 17:0.15 18:0.1 19:0.1 21:0.2 22:0.2 23:0.171429 24:0.114286 25:0.2 27:0.142857 28:0.12 30:0.2 31:0.2 33:0.1 34:0.2 36:0.147826 37:0.2 38:0.18 39:0.178947 40:0.125 42:0.1 44:0.158025 45:0.15 46:0.15 48:0.2 51:0.133333 52:0.15 53:0.171429 55:0.15 56:0.0666667 57:0.2 58:0.171429 59:0.125 60:0.2 61:0.2 63:0.118182 64:0.2 65:0.175 68:0.2 69:0.2 71:0.2 72:0.16 73:0.152941 75:0.133333 76:0.171429 77:0.0666667 78:0.2 79:0.142857 80:0.133333 81:0.190909 83:0.12 84:0.133333 86:0.2 88:0.114286 90:0.2 92:0.2 93:0.1 94:0.2 95:0.146154 97:0.2 98:0.15 99:0.1 100:0.155556 101:0.161905 102:0.15 103:0.15 104:0.2 105:0.12 106:0.165854 107:0.2 
1 0 0 1:0.150877 2:0.2 3:0.171429 4:0.142857 5:0.15 6:0.166667 7:0.175 9:0.127273 10:0.2 11:0.1 12:0.133333 13:0.2 14:0.152381 16:0.2 17:0.15 18:0.1 19:0.1 21:0.2 22:0.2 23:0.171429 24:0.114286 25:0.2 27:0.142857 28:0.12 30:0.2 31:0.2 33:0.1 34:0.2 36:0.156522 37:0.2 38:0.18 39:0.178947 40:0.125 42:0.1 44:0.158025 45:0.15 46:0.15 48:0.2 51:0.133333 52:0.175 53:0.171429 55:0.15 56:0.0666667 57:0.2 58:0.171429 59:0.125 60:0.2 61:0.2 63:0.127273 64:0.2 65:0.175 68:0.2 69:0.2 71:0.2 72:0.16 73:0.152941 75:0.133333 76:0.171429 77:0.0666667 78:0.2 79:0.142857 80:0.133333 81:0.190909 83:0.12 84:0.133333 86:0.2 88:0.142857 90:0.2 92:0.2 93:0.1 94:0.2 95:0.153846 97:0.2 98:0.15 99:0.1 100:0.155556 101:0.166667 102:0.15 103:0.15 104:0.2 105:0.12 106:0.165854 107:0.2 
1 0 0 1:0.251462 2:0.333333 3:0.285714 4:0.238095 5:0.25 6:0.277778 7:0.291667 9:0.212121 10:0.333333 11:0.166667 12:0.222222 13:0.333333 14:0.253968 16:0.333333 17:0.25 18:0.166667 19:0.166667 21:0.333333 22:0.333333 23:0.285714 24:0.238095 25:0.333333 27:0.238095 28:0.2 30:0.333333 31:0.333333 33:0.166667 34:0.333333 35:0.333333 36:0.26087 37:0.333333 38:0.3 39:0.298246 40:0.208333 42:0.166667 44:0.271605 45:0.25 46:0.25 48:0.333333 51:0.222222 52:0.291667 53:0.285714 55:0.25 56:0.111111 57:0.333333 58:0.285714 59:0.208333 60:0.333333 61:0.333333 63:0.212121 64:0.333333 65:0.291667 68:0.333333 69:0.333333 71:0.333333 72:0.266667 73:0.27451 75:0.253968 76:0.285714 77:0.222222 78:0.333333 79:0.238095 80:0.222222 81:0.318182 83:0.2 84:0.222222 86:0.333333 88:0.238095 90:0.333333 92:0.333333 93:0.166667 94:0.333333 95:0.25641 96:0.333333 97:0.333333 98:0.25 99:0.166667 100:0.277778 101:0.277778 102:0.25 103:0.25 104:0.333333 105:0.2 106:0.276423 107:0.333333 
1 1 0 1:0.0377193 2:0.05 3:0.0428571 4:0.0357143 5:0.0375 6:0.0416667 7:0.04375 9:0.0318182 10:0.05 11:0.025 12:0.0333333 13:0.05 14:0.0380952 16:0.05 17:0.0375 18:0.025 19:0.025 21:0.05 22:0.05 23:0.0428571 24:0.0357143 25:0.05 27:0.0357143 28:0.03 30:0.05 31:0.05 33:0.025 34:0.05 35:0.05 36:0.0391304 37:0.05 38:0.045 39:0.0473684 40:0.03125 42:0.025 44:0.041358 45:0.0375 46:0.0375 48:0.05 51:0.0333333 52:0.04375 53:0.0428571 55:0.05 56:0.0166667 57:0.05 58:0.0428571 59:0.0375 60:0.05 61:0.05 63:0.0318182 64:0.05 65:0.04375 68:0.05 69:0.05 71:0.05 72:0.04 73:0.0411765 75:0.0380952 76:0.0428571 77:0.0333333 78:0.05 79:0.0357143 80:0.05 81:0.0477273 83:0.035 84:0.0333333 86:0.05 88:0.0357143 90:0.05 92:0.05 93:0.025 94:0.05 95:0.0384615 96:0.05 97:0.05 98:0.0375 99:0.025 100:0.0416667 101:0.0416667 102:0.0375 103:0.0375 104:0.05 105:0.03 106:0.0414634 107:0.05 
1 0 0 1:0.125731 2:0.166667 3:0.142857 4:0.119048 5:0.125 6:0.138889 7:0.145833 9:0.121212 10:0.166667 11:0.0833333 12:0.111111 13:0.166667 14:0.142857 16:0.166667 17:0.125 18:0.0833333 19:0.0833333 21:0.166667 22:0.166667 23:0.142857 24:0.119048 25:0.166667 27:0.119048 28:0.1 30:0.166667 31:0.166667 33:0.0833333 34:0.166667 35:0.166667 36:0.130435 37:0.166667 38:0.15 39:0.157895 40:0.125 42:0.0833333 44:0.139918 45:0.125 46:0.166667 48:0.166667 51:0.12963 52:0.145833 53:0.142857 55:0.166667 56:0.0555556 57:0.166667 58:0.142857 59:0.125 60:0.166667 61:0.166667 63:0.106061 64:0.166667 65:0.145833 68:0.166667 69:0.166667 71:0.166667 72:0.133333 73:0.137255 75:0.126984 76:0.142857 77:0.111111 78:0.166667 79:0.119048 80:0.166667 81:0.159091 83:0.116667 84:0.111111 86:0.166667 88:0.142857 90:0.166667 92:0.166667 93:0.0833333 94:0.166667 95:0.128205 96:0.166667 97:0.166667 98:0.125 99:0.0833333 100:0.138889 101:0.138889 102:0.125 103:0.125 104:0.166667 105:0.1 106:0.142276 107:0.166667 
1 0 0 1:0.188596 2:0.25 3:0.214286 4:0.178571 5:0.1875 6:0.208333 7:0.21875 9:0.181818 10:0.25 11:0.125 12:0.166667 13:0.25 14:0.214286 16:0.25 17:0.1875 18:0.125 19:0.125 21:0.25 22:0.25 23:0.214286 24:0.178571 25:0.25 27:0.178571 28:0.15 30:0.25 31:0.25 33:0.125 34:0.25 35:0.25 36:0.195652 37:0.25 38:0.225 39:0.236842 40:0.1875 42:0.125 44:0.209877 45:0.1875 46:0.25 48:0.25 51:0.194444 52:0.21875 53:0.214286 55:0.25 56:0.0833333 57:0.25 58:0.214286 59:0.21875 60:0.25 61:0.25 63:0.170455 64:0.25 65:0.21875 68:0.25 69:0.25 71:0.25 72:0.2 73:0.205882 75:0.190476 76:0.214286 77:0.166667 78:0.25 79:0.178571 80:0.25 81:0.238636 83:0.2 84:0.166667 86:0.25 88:0.214286 90:0.25 92:0.25 93:0.125 94:0.25 95:0.192308 96:0.25 97:0.25 98:0.1875 99:0.125 100:0.208333 101:0.208333 102:0.1875 103:0.1875 104:0.25 105:0.15 106:0.213415 107:0.25 
1 0.2800853006681965 0 1:0.251462 2:0.333333 3:0.285714 4:0.238095 5:0.25 6:0.277778 7:0.291667 9:0.242424 10:0.333333 11:0.166667 12:0.222222 13:0.333333 14:0.285714 16:0.333333 17:0.25 18:0.166667 19:0.166667 21:0.333333 22:0.333333 23:0.285714 24:0.238095 25:0.333333 27:0.238095 28:0.2 30:0.333333 31:0.333333 33:0.166667 34:0.333333 35:0.333333 36:0.26087 37:0.333333 38:0.3 39:0.315789 40:0.25 42:0.166667 44:0.283951 45:0.25 46:0.333333 48:0.333333 51:0.259259 52:0.291667 53:0.285714 55:0.333333 56:0.111111 57:0.333333 58:0.285714 59:0.291667 60:0.333333 61:0.333333 63:0.242424 64:0.333333 65:0.291667 68:0.333333 69:0.333333 71:0.333333 72:0.266667 73:0.27451 75:0.253968 76:0.285714 77:0.222222 78:0.333333 79:0.238095 80:0.333333 81:0.318182 83:0.266667 84:0.222222 86:0.333333 88:0.285714 90:0.333333 92:0.333333 93:0.166667 94:0.333333 95:0.25641 96:0.333333 97:0.333333 98:0.25 99:0.166667 100:0.277778 101:0.285714 102:0.25 103:0.25 104:0.333333 105:0.2 106:0.284553 107:0.333333 
1 0.8088783374602755 0 1:0.77193 2:1 3:0.857143 4:0.714286 5:0.75 6:0.833333 7:0.875 9:0.727273 10:1 11:0.5 12:0.666667 13:1 14:0.857143 16:1 17:0.75 18:0.5 19:0.5 21:1 22:1 23:0.857143 24:0.714286 25:1 27:0.714286 28:0.6 30:1 31:1 33:0.5 34:1 35:1 36:0.782609 37:1 38:0.9 39:0.947368 40:0.75 42:0.5 44:0.851852 45:0.75 46:1 48:1 51:0.777778 52:0.875 53:0.857143 55:1 56:0.333333 57:1 58:0.857143 59:0.875 60:1 61:1 63:0.727273 64:1 65:0.875 68:1 69:1 71:1 72:0.8 73:0.823529 75:0.761905 76:0.857143 77:0.666667 78:1 79:0.714286 80:1 81:0.954545 83:0.8 84:0.666667 86:1 88:0.857143 90:1 92:1 93:0.5 94:1 95:0.769231 96:1 97:1 98:0.75 99:0.5 100:0.833333 101:0.857143 102:0.75 103:0.75 104:1 105:0.6 106:0.853659 107:1 
1 0.6551391566864926 0 1:0.192982 2:0.25 3:0.214286 4:0.178571 5:0.1875 6:0.222222 7:0.21875 9:0.181818 10:0.25 11:0.125 12:0.166667 13:0.25 14:0.214286 16:0.25 17:0.1875 18:0.125 19:0.125 21:0.25 22:0.25 23:0.214286 24:0.214286 25:0.25 27:0.178571 28:0.15 30:0.25 31:0.25 33:0.125 34:0.25 35:0.25 36:0.195652 37:0.25 38:0.225 39:0.236842 40:0.1875 42:0.125 44:0.219136 45:0.1875 46:0.25 48:0.25 51:0.194444 52:0.21875 53:0.214286 55:0.25 56:0.0833333 57:0.25 58:0.214286 59:0.21875 60:0.25 61:0.25 63:0.181818 64:0.25 65:0.21875 68:0.25 69:0.25 71:0.25 72:0.2 73:0.205882 75:0.190476 76:0.214286 77:0.166667 78:0.25 79:0.178571 80:0.25 81:0.238636 83:0.2 84:0.166667 86:0.25 88:0.214286 90:0.25 92:0.25 93:0.125 94:0.25 95:0.192308 96:0.25 97:0.25 98:0.1875 99:0.125 100:0.208333 101:0.220238 102:0.1875 103:0.1875 104:0.25 105:0.15 106:0.213415 107:0.25 
1 0.910575947255003 0 1:0.385965 2:0.5 3:0.428571 4:0.357143 5:0.375 6:0.444444 7:0.4375 9:0.363636 10:0.5 11:0.25 12:0.333333 13:0.5 14:0.428571 16:0.5 17:0.4375 18:0.25 19:0.25 21:0.5 22:0.5 23:0.428571 24:0.428571 25:0.5 27:0.357143 28:0.3 30:0.5 31:0.5 33:0.25 34:0.5 35:0.5 36:0.391304 37:0.5 38:0.45 39:0.473684 40:0.375 42:0.25 44:0.438272 45:0.375 46:0.5 48:0.5 51:0.388889 52:0.4375 53:0.428571 55:0.5 56:0.166667 57:0.5 58:0.428571 59:0.4375 60:0.5 61:0.5 63:0.363636 64:0.5 65:0.4375 68:0.5 69:0.5 71:0.5 72:0.4 73:0.411765 75:0.380952 76:0.428571 77:0.333333 78:0.5 79:0.357143 80:0.5 81:0.477273 83:0.4 84:0.333333 86:0.5 88:0.428571 90:0.5 92:0.5 93:0.25 94:0.5 95:0.384615 96:0.5 97:0.5 98:0.375 99:0.25 100:0.416667 101:0.440476 102:0.375 103:0.375 104:0.5 105:0.3 106:0.426829 107:0.5 
