svm_type c_svc
kernel_type rbf
gamma 0.00892857
nr_class 5
total_sv 263
rho -0.989999 -1.0099 -1.01058 -1.0129 -0.992433 -1.01118 -1.00617 -1.0003 -1.00168 -1.00683
label 5 4 3 2 1
nr_sv 144 96 19 3 1
SV
1 0.92581722807537 0 0 5:0.00586114 
1 0.08757140904839106 0 0.4995112226448746 5:0.0015575 71:0.0015674 
1 1 0 0 21:0.00196078 61:0.0025641 71:0.00114943 83:0.000641026 86:0.00070922 
1 1 0 0 5:0.002104 11:0.00364299 21:0.00653595 37:0.00308642 46:0.00347222 61:0.00854701 66:0.00740741 71:0.00383142 74:0.00411523 83:0.0042735 86:0.00236407 
1 1 0 0 5:0.00010019 11:0.00242866 21:0.00217865 31:0.00102881 35:0.000474834 37:0.00205761 46:0.00231481 61:0.002849 65:0.00172265 66:0.00246914 71:0.00127714 74:0.00274348 83:0.0014245 86:0.00157604 90:0.0016835 109:0.002849 
1 0 0 0 5:0.00450857 11:0.0131148 21:0.0117647 31:0.00555556 35:0.0025641 37:0.0111111 46:0.0125 61:0.0153846 65:0.00930233 66:0.0133333 71:0.00689655 74:0.0148148 83:0.00769231 86:0.00851064 90:0.00909091 109:0.0153846 
1 0 0 0 5:0.00135257 11:0.00546448 21:0.00490196 31:0.00231481 35:0.00106838 37:0.00462963 38:0.00595238 40:0.00362319 46:0.00520833 61:0.00641026 64:0.00595238 65:0.00387597 66:0.00555556 71:0.00287356 74:0.00617284 83:0.00480769 86:0.0035461 90:0.00757576 109:0.00641026 
1 0 0 0 5:0.00296277 10:0.0357143 11:0.0117096 20:0.0357143 21:0.00840336 23:0.142857 31:0.00793651 35:0.003663 37:0.0119048 38:0.0102041 40:0.00621118 46:0.00892857 53:0.0714286 61:0.010989 64:0.0102041 65:0.00996678 66:0.00952381 71:0.00492611 74:0.010582 83:0.010989 86:0.00607903 90:0.012987 102:0.00649351 109:0.010989 
1 0 0 0 5:0.00360685 10:0.0416667 11:0.0136612 20:0.0416667 21:0.00980392 23:0.166667 31:0.0138889 35:0.00641026 37:0.0138889 38:0.0119048 40:0.00724638 46:0.0104167 53:0.0833333 61:0.0128205 63:0.0833333 64:0.0119048 65:0.0116279 66:0.0111111 71:0.00574713 74:0.0123457 83:0.0160256 86:0.0106383 90:0.0151515 102:0.00757576 109:0.0128205 
1 0.941734025963197 0 0 5:0.00811542 10:0.0416667 11:0.0136612 20:0.0833333 21:0.00980392 23:0.166667 31:0.0138889 35:0.00854701 37:0.0138889 38:0.0119048 40:0.00724638 45:0.0104167 46:0.0104167 53:0.0833333 61:0.0128205 63:0.0833333 64:0.0238095 65:0.0116279 66:0.0111111 68:0.00925926 71:0.00574713 74:0.0123457 83:0.0192308 86:0.0106383 90:0.0151515 94:0.0555556 102:0.00757576 109:0.0128205 
1 0 0 0 5:0.00682726 10:0.0357143 11:0.0117096 20:0.0714286 21:0.00840336 23:0.142857 31:0.0119048 33:0.0714286 35:0.00732601 37:0.0119048 38:0.0102041 40:0.00621118 45:0.00892857 46:0.00892857 53:0.0714286 61:0.010989 63:0.0714286 64:0.0204082 65:0.00996678 66:0.00952381 68:0.00793651 71:0.00492611 74:0.010582 83:0.0164835 86:0.00911854 90:0.012987 94:0.047619 102:0.00649351 109:0.010989 112:0.0178571 
1 0 0 0 5:0.00360685 8:0.00641026 10:0.0208333 11:0.0068306 20:0.0416667 21:0.00490196 23:0.0833333 31:0.00694444 33:0.0416667 35:0.0042735 37:0.00694444 38:0.00595238 40:0.00362319 45:0.00520833 46:0.00520833 49:0.0166667 52:0.0416667 53:0.0416667 59:0.0416667 61:0.00641026 63:0.0416667 64:0.0178571 65:0.00581395 66:0.00555556 67:0.0277778 68:0.00462963 71:0.00431034 74:0.00617284 78:0.0416667 83:0.0144231 86:0.0070922 90:0.00757576 94:0.0277778 98:0.0277778 102:0.00378788 109:0.00641026 111:0.00694444 112:0.0104167 
1 0.7838179908843836 0 0 5:0.00135257 8:0.00320513 10:0.0104167 11:0.0034153 20:0.0208333 21:0.00245098 23:0.0416667 31:0.00462963 33:0.0208333 35:0.00213675 37:0.00347222 38:0.00595238 40:0.00181159 45:0.00260417 46:0.00260417 49:0.00833333 52:0.0208333 53:0.0208333 59:0.0208333 61:0.00320513 63:0.0208333 64:0.00892857 65:0.00387597 66:0.00277778 67:0.0138889 68:0.00231481 71:0.00359195 74:0.00308642 78:0.0208333 83:0.00721154 86:0.0035461 90:0.00568182 94:0.0138889 95:0.0208333 98:0.0138889 102:0.00378788 109:0.00320513 111:0.00347222 112:0.00520833 
1 0 0 0 5:0.00296277 8:0.00549451 10:0.0178571 11:0.00702576 20:0.0357143 21:0.00420168 23:0.0714286 31:0.00793651 33:0.0357143 35:0.003663 37:0.00793651 38:0.0102041 40:0.00310559 45:0.00446429 46:0.00669643 49:0.0142857 52:0.0357143 53:0.0357143 59:0.0357143 61:0.00549451 63:0.0357143 64:0.0204082 65:0.00664452 66:0.0047619 67:0.0238095 68:0.00396825 71:0.00615764 74:0.00793651 78:0.0357143 82:0.00285714 83:0.0123626 86:0.00607903 90:0.00974026 94:0.0238095 95:0.0357143 98:0.0238095 102:0.00649351 107:0.0357143 109:0.00549451 111:0.00595238 112:0.00892857 
1 0 0 0 5:0.00534092 8:0.00591716 10:0.0192308 11:0.0075662 20:0.0384615 21:0.00452489 23:0.0769231 31:0.00854701 33:0.0384615 35:0.00493097 37:0.00854701 38:0.010989 40:0.00334448 45:0.00480769 46:0.00721154 49:0.0153846 52:0.0384615 53:0.0384615 59:0.0384615 61:0.00591716 63:0.0384615 64:0.021978 65:0.00715564 66:0.00512821 67:0.025641 68:0.0042735 71:0.00795756 74:0.00854701 78:0.0384615 82:0.00307692 83:0.0133136 86:0.00654664 90:0.0104895 94:0.025641 95:0.0384615 98:0.025641 102:0.00699301 107:0.0384615 109:0.00591716 111:0.00641026 112:0.00961538 
1 0 0.5665529633288209 0 5:0.00924256 6:0.00595238 8:0.00961538 10:0.03125 11:0.0122951 20:0.0625 21:0.0147059 23:0.125 31:0.0138889 33:0.0625 35:0.00801282 37:0.0138889 38:0.0178571 40:0.00543478 45:0.0078125 46:0.0117188 49:0.025 52:0.0625 53:0.0625 59:0.0625 61:0.00961538 63:0.0625 64:0.0357143 65:0.0116279 66:0.00833333 67:0.0416667 68:0.00694444 71:0.012931 74:0.0138889 78:0.0625 82:0.005 83:0.0216346 86:0.0106383 90:0.0170455 94:0.0416667 95:0.0625 98:0.0416667 102:0.0113636 107:0.0625 109:0.00961538 111:0.0104167 112:0.015625 
1 0 0 0 5:0.003156 6:0.00238095 8:0.00384615 10:0.0125 11:0.00491803 14:0.00555556 20:0.025 21:0.00588235 23:0.05 31:0.00555556 33:0.025 35:0.00384615 37:0.00555556 38:0.00714286 40:0.00217391 45:0.003125 46:0.0046875 49:0.01 52:0.025 53:0.025 59:0.025 61:0.00384615 63:0.025 64:0.0142857 65:0.00581395 66:0.00333333 67:0.0166667 68:0.00277778 71:0.00517241 74:0.00555556 75:0.005 78:0.025 82:0.002 83:0.00865385 86:0.00425532 90:0.00681818 94:0.0166667 95:0.025 98:0.0166667 102:0.00681818 107:0.025 109:0.00384615 111:0.00416667 112:0.00625 
1 0 1 0 5:0.012624 6:0.00793651 8:0.0128205 10:0.0416667 11:0.0163934 14:0.0185185 20:0.0833333 21:0.0196078 23:0.166667 30:0.0138889 31:0.0185185 33:0.0833333 35:0.0128205 37:0.0185185 38:0.0238095 40:0.00724638 45:0.0104167 46:0.015625 49:0.0333333 52:0.0833333 53:0.0833333 59:0.0833333 61:0.0128205 63:0.0833333 64:0.047619 65:0.0193798 66:0.0111111 67:0.0555556 68:0.00925926 71:0.0172414 74:0.0185185 75:0.0166667 78:0.0833333 82:0.0133333 83:0.0288462 86:0.0141844 87:0.166667 90:0.0227273 94:0.0555556 95:0.0833333 98:0.0555556 102:0.0227273 107:0.0833333 109:0.0128205 111:0.0138889 112:0.0208333 
1 0 0 0 5:0.0396754 6:0.0238095 8:0.0384615 10:0.125 11:0.0491803 14:0.0555556 20:0.25 21:0.0588235 23:0.5 28:0.5 30:0.0416667 31:0.0555556 33:0.25 35:0.0448718 37:0.0555556 38:0.0714286 40:0.0217391 45:0.03125 46:0.046875 49:0.1 52:0.25 53:0.25 59:0.25 61:0.0384615 63:0.25 64:0.142857 65:0.0581395 66:0.0333333 67:0.166667 68:0.0277778 71:0.0517241 74:0.0555556 75:0.05 78:0.25 82:0.04 83:0.0865385 86:0.0425532 87:0.5 90:0.0681818 94:0.166667 95:0.25 98:0.166667 102:0.0681818 107:0.25 109:0.0384615 111:0.0416667 112:0.0625 
0 0.7405038909968603 0.5373330832894495 0.5004887773551254 5:0.0802525 6:0.047619 8:0.0769231 10:0.25 11:0.0983607 14:0.111111 20:0.5 21:0.117647 23:1 28:1 30:0.0833333 31:0.111111 33:0.5 35:0.0897436 37:0.111111 38:0.142857 40:0.0434783 45:0.0625 46:0.09375 49:0.2 52:0.5 53:0.5 59:0.5 61:0.0769231 63:0.5 64:0.285714 65:0.116279 66:0.0666667 67:0.333333 68:0.0555556 71:0.103448 74:0.111111 75:0.1 78:0.5 82:0.08 83:0.173077 86:0.0851064 87:1 90:0.136364 94:0.333333 95:0.5 98:0.333333 102:0.136364 107:0.5 109:0.0769231 111:0.0833333 112:0.125 
0.7158389731763387 0 0 0 5:0.012624 6:0.00595238 8:0.00961538 10:0.03125 11:0.0122951 14:0.0138889 20:0.0625 21:0.0147059 23:0.125 28:0.125 30:0.0104167 31:0.0173611 33:0.0625 35:0.0144231 37:0.0138889 38:0.0178571 40:0.00543478 45:0.0078125 46:0.0117188 49:0.025 52:0.0625 53:0.0625 59:0.0625 61:0.00961538 63:0.0625 64:0.0357143 65:0.0174419 66:0.00833333 67:0.0416667 68:0.00694444 71:0.0150862 74:0.0138889 75:0.0125 78:0.0625 82:0.01 83:0.0216346 86:0.0132979 87:0.125 90:0.0227273 94:0.0416667 95:0.0625 98:0.0416667 102:0.0227273 107:0.0625 109:0.00961538 111:0.0104167 112:0.015625 
1 0 0 0 5:0.0041078 6:0.00176367 8:0.002849 10:0.00925926 11:0.00485732 14:0.00411523 17:0.0185185 20:0.0277778 21:0.0043573 23:0.037037 25:0.00925926 28:0.037037 30:0.00308642 31:0.00617284 33:0.0185185 35:0.00522317 37:0.00617284 38:0.00793651 40:0.00161031 45:0.00231481 46:0.00347222 49:0.0148148 52:0.0185185 53:0.0185185 59:0.0185185 61:0.002849 63:0.037037 64:0.0132275 65:0.00689061 66:0.00246914 67:0.0123457 68:0.00205761 71:0.00574713 74:0.00411523 75:0.0037037 78:0.0185185 82:0.00296296 83:0.00712251 86:0.00472813 87:0.037037 90:0.00841751 94:0.0123457 95:0.0185185 98:0.0123457 102:0.00841751 107:0.0185185 109:0.002849 111:0.00308642 112:0.00462963 
1 0 0 0 5:0.00360685 6:0.00132275 8:0.00213675 10:0.00694444 11:0.00364299 14:0.00308642 17:0.0138889 18:0.00185185 20:0.0208333 21:0.00326797 23:0.0277778 25:0.00694444 28:0.0277778 30:0.00231481 31:0.00462963 33:0.0138889 35:0.0042735 37:0.00462963 38:0.00595238 40:0.00120773 45:0.00173611 46:0.00260417 47:0.00396825 49:0.0111111 52:0.0138889 53:0.0138889 59:0.0138889 60:0.00231481 61:0.0042735 63:0.0277778 64:0.00992063 65:0.00516796 66:0.00185185 67:0.00925926 68:0.00154321 71:0.00478927 74:0.00308642 75:0.00277778 78:0.0138889 82:0.00222222 83:0.00534188 86:0.0035461 87:0.0277778 90:0.00757576 94:0.00925926 95:0.0138889 98:0.00925926 102:0.00631313 107:0.0138889 109:0.00213675 111:0.00231481 112:0.00347222 
1 0.5607615479028749 0 0 5:0.0532011 6:0.015873 8:0.0512821 10:0.0833333 11:0.0437158 14:0.037037 17:0.166667 18:0.0222222 20:0.25 21:0.0392157 23:0.333333 25:0.0833333 28:0.333333 30:0.0277778 31:0.0555556 33:0.166667 35:0.0512821 37:0.0555556 38:0.0714286 40:0.0144928 45:0.0208333 46:0.03125 47:0.047619 49:0.133333 52:0.166667 53:0.166667 59:0.166667 60:0.0277778 61:0.0512821 63:0.333333 64:0.119048 65:0.0620155 66:0.0222222 67:0.111111 68:0.0185185 71:0.0574713 74:0.037037 75:0.0333333 78:0.166667 82:0.0266667 83:0.0641026 86:0.0425532 87:0.333333 90:0.0909091 94:0.111111 95:0.166667 98:0.111111 102:0.0757576 107:0.166667 109:0.025641 111:0.0555556 112:0.0416667 
0.6416835947757724 0 0 0 5:0.0396754 6:0.0119048 8:0.0384615 10:0.0625 11:0.0327869 14:0.0277778 17:0.125 18:0.0166667 20:0.1875 21:0.0294118 23:0.25 25:0.0625 28:0.25 30:0.0208333 31:0.0416667 33:0.125 35:0.0384615 37:0.0416667 38:0.0535714 40:0.0108696 45:0.015625 46:0.0234375 47:0.0357143 49:0.1 52:0.125 53:0.125 59:0.125 60:0.0208333 61:0.0384615 63:0.25 64:0.0892857 65:0.0465116 66:0.0166667 67:0.0833333 68:0.0138889 71:0.0431034 74:0.0277778 75:0.025 78:0.125 82:0.02 83:0.0480769 86:0.0319149 87:0.25 90:0.0681818 94:0.0833333 95:0.125 98:0.0833333 102:0.0568182 107:0.125 109:0.0192308 111:0.0416667 112:0.03125 
0.4264413073383661 0 0 0 5:0.0802525 6:0.0238095 8:0.0769231 10:0.125 11:0.0819672 12:0.25 14:0.0555556 17:0.25 18:0.0333333 20:0.375 21:0.0588235 23:0.5 25:0.125 28:0.5 30:0.0416667 31:0.0833333 33:0.25 35:0.0769231 37:0.0972222 38:0.107143 40:0.0217391 45:0.03125 46:0.0625 47:0.0714286 49:0.2 52:0.25 53:0.25 59:0.25 60:0.0416667 61:0.0769231 63:0.5 64:0.178571 65:0.0930233 66:0.0333333 67:0.166667 68:0.0277778 71:0.0862069 74:0.0740741 75:0.05 78:0.25 82:0.04 83:0.0961538 86:0.0744681 87:0.5 90:0.136364 94:0.166667 95:0.25 98:0.166667 102:0.113636 107:0.25 109:0.0384615 111:0.0833333 112:0.0625 
0 0.001055541698478366 0 0 5:0.161407 6:0.047619 8:0.153846 10:0.25 11:0.163934 12:0.5 14:0.111111 17:0.5 18:0.0666667 20:0.75 21:0.117647 23:1 25:0.25 28:1 30:0.0833333 31:0.166667 33:0.5 35:0.153846 37:0.194444 38:0.214286 40:0.0434783 45:0.0625 46:0.125 47:0.142857 49:0.4 52:0.5 53:0.5 59:0.5 60:0.0833333 61:0.153846 63:1 64:0.357143 65:0.186047 66:0.0666667 67:0.333333 68:0.0555556 71:0.172414 74:0.148148 75:0.1 78:0.5 82:0.08 83:0.192308 86:0.170213 87:1 90:0.272727 94:0.333333 95:0.5 98:0.333333 102:0.227273 107:0.5 109:0.0769231 111:0.166667 112:0.125 
0 0.1174374606625477 0 0 5:0.107304 6:0.0714286 8:0.0769231 10:0.125 11:0.0901639 12:0.25 14:0.0555556 17:0.25 18:0.0333333 20:0.375 21:0.0588235 23:0.5 25:0.125 28:0.5 30:0.0416667 31:0.0972222 33:0.25 35:0.0769231 36:0.0555556 37:0.111111 38:0.107143 40:0.0217391 45:0.03125 46:0.0625 47:0.0714286 49:0.2 52:0.25 53:0.25 59:0.25 60:0.0416667 61:0.115385 63:0.5 64:0.178571 65:0.0930233 66:0.0333333 67:0.166667 68:0.0555556 71:0.0948276 74:0.0740741 75:0.05 78:0.25 82:0.04 83:0.0961538 86:0.0957447 87:0.5 90:0.136364 94:0.166667 95:0.25 98:0.166667 102:0.113636 107:0.25 109:0.0384615 111:0.0833333 112:0.0625 
1 0 0 0 5:0.012624 6:0.00892857 8:0.00961538 10:0.015625 11:0.0112705 12:0.03125 14:0.00694444 17:0.03125 18:0.00416667 20:0.046875 21:0.00735294 23:0.0625 25:0.015625 28:0.0625 30:0.00520833 31:0.0121528 33:0.03125 35:0.0104167 36:0.00694444 37:0.0138889 38:0.0133929 40:0.00271739 45:0.00390625 46:0.0078125 47:0.00892857 49:0.025 52:0.03125 53:0.03125 59:0.03125 60:0.00520833 61:0.0144231 63:0.0625 64:0.0223214 65:0.0116279 66:0.00416667 67:0.0208333 68:0.00694444 71:0.0118534 74:0.00925926 75:0.00625 78:0.0625 82:0.005 83:0.0120192 86:0.0132979 87:0.0625 90:0.0198864 94:0.0208333 95:0.03125 98:0.0208333 102:0.0170455 107:0.03125 109:0.00480769 111:0.0104167 112:0.0078125 
0.0799547107529924 0 0 0 5:0.023144 6:0.015873 8:0.017094 10:0.0277778 11:0.0200364 12:0.0555556 14:0.0123457 17:0.0555556 18:0.0148148 20:0.0833333 21:0.0130719 23:0.111111 25:0.0277778 28:0.111111 30:0.00925926 31:0.0216049 33:0.0555556 35:0.0185185 36:0.0123457 37:0.0246914 38:0.0238095 40:0.00483092 45:0.00694444 46:0.0138889 47:0.015873 49:0.0444444 52:0.0555556 53:0.0555556 59:0.0555556 60:0.00925926 61:0.025641 63:0.111111 64:0.0396825 65:0.0206718 66:0.00740741 67:0.037037 68:0.0123457 71:0.0210728 74:0.0164609 75:0.0111111 78:0.111111 82:0.00888889 83:0.0213675 86:0.0236407 87:0.111111 90:0.0353535 94:0.037037 95:0.0555556 98:0.037037 102:0.030303 107:0.0555556 109:0.00854701 111:0.0185185 112:0.0138889 
0.007973407122948138 0 0.07558053710484639 0 5:0.215509 6:0.142857 8:0.153846 10:0.25 11:0.180328 12:0.5 14:0.111111 17:0.5 18:0.133333 20:0.75 21:0.117647 23:1 25:0.25 28:1 30:0.0833333 31:0.194444 33:0.5 35:0.166667 36:0.111111 37:0.222222 38:0.214286 40:0.0434783 45:0.0625 46:0.125 47:0.142857 49:0.4 52:0.5 53:0.5 59:0.5 60:0.0833333 61:0.230769 63:1 64:0.357143 65:0.186047 66:0.0666667 67:0.333333 68:0.111111 71:0.189655 74:0.148148 75:0.1 78:1 82:0.08 83:0.192308 86:0.212766 87:1 90:0.318182 94:0.333333 95:0.5 98:0.333333 102:0.272727 107:0.5 109:0.0769231 111:0.166667 112:0.125 
0 0.4621841269754655 0 0 5:0.107304 6:0.0714286 8:0.0769231 10:0.125 11:0.0901639 12:0.25 14:0.0555556 17:0.25 18:0.0666667 19:0.5 20:0.375 21:0.0588235 23:0.5 25:0.125 28:0.5 30:0.0416667 31:0.0972222 33:0.25 35:0.0833333 36:0.0555556 37:0.111111 38:0.107143 39:0.25 40:0.0217391 41:0.5 43:0.166667 45:0.03125 46:0.0625 47:0.0714286 49:0.2 52:0.25 53:0.25 59:0.25 60:0.0416667 61:0.115385 63:0.5 64:0.178571 65:0.0930233 66:0.0333333 67:0.166667 68:0.0555556 71:0.0948276 74:0.0740741 75:0.05 78:0.5 82:0.04 83:0.0961538 86:0.106383 87:0.5 90:0.159091 94:0.166667 95:0.25 98:0.166667 102:0.136364 107:0.25 109:0.0384615 111:0.0833333 112:0.0625 
1 0 0 0 5:0.00631199 6:0.0047619 8:0.00512821 10:0.00833333 11:0.00601093 12:0.0166667 14:0.0037037 17:0.0166667 18:0.00444444 19:0.0333333 20:0.025 21:0.00392157 23:0.0333333 25:0.00833333 27:0.00666667 28:0.0333333 30:0.00277778 31:0.00648148 33:0.0166667 35:0.00683761 36:0.0037037 37:0.00740741 38:0.00714286 39:0.0166667 40:0.00144928 41:0.0333333 43:0.0111111 45:0.00208333 46:0.00416667 47:0.0047619 49:0.0133333 52:0.0166667 53:0.0166667 59:0.0166667 60:0.00277778 61:0.00769231 63:0.0333333 64:0.0119048 65:0.00620155 66:0.00222222 67:0.0111111 68:0.00555556 71:0.00747126 74:0.00493827 75:0.00333333 78:0.0333333 82:0.00933333 83:0.00641026 86:0.00780142 87:0.0333333 90:0.0106061 94:0.0111111 95:0.0166667 98:0.0111111 102:0.00909091 107:0.0166667 109:0.0025641 111:0.00555556 112:0.00416667 
0.2546110808771296 0 0 0 5:0.107304 6:0.0952381 8:0.0769231 10:0.125 11:0.0901639 12:0.25 14:0.0555556 17:0.25 18:0.1 19:0.5 20:0.5 21:0.0588235 23:0.5 25:0.125 27:0.1 28:0.5 30:0.0416667 31:0.0972222 33:0.25 35:0.102564 36:0.0555556 37:0.111111 38:0.107143 39:0.25 40:0.0217391 41:0.5 43:0.166667 45:0.03125 46:0.0625 47:0.0714286 49:0.2 52:0.25 53:0.25 59:0.25 60:0.0416667 61:0.115385 63:0.5 64:0.178571 65:0.0930233 66:0.0333333 67:0.166667 68:0.0833333 71:0.112069 74:0.0740741 75:0.05 78:0.5 82:0.14 83:0.0961538 86:0.117021 87:0.5 90:0.159091 94:0.5 95:0.25 98:0.333333 102:0.136364 107:0.25 109:0.0384615 110:0.0714286 111:0.0833333 112:0.0625 
0 0.05825407150866829 0 0 5:0.0532011 6:0.047619 8:0.0384615 10:0.0625 11:0.045082 12:0.125 14:0.0277778 17:0.125 18:0.05 19:0.25 20:0.25 21:0.0294118 23:0.25 25:0.0625 27:0.05 28:0.25 30:0.0208333 31:0.0486111 33:0.125 35:0.0512821 36:0.0277778 37:0.0555556 38:0.0535714 39:0.125 40:0.0108696 41:0.25 43:0.0833333 45:0.015625 46:0.03125 47:0.0357143 49:0.1 52:0.125 53:0.125 59:0.125 60:0.0208333 61:0.0576923 63:0.25 64:0.0892857 65:0.0465116 66:0.0166667 67:0.0833333 68:0.0416667 71:0.0560345 74:0.037037 75:0.025 78:0.25 82:0.07 83:0.0480769 86:0.0585106 87:0.25 90:0.0795455 94:0.25 95:0.125 98:0.166667 102:0.0681818 107:0.125 109:0.0192308 110:0.0357143 111:0.0416667 112:0.03125 
1 0 0 0 5:0.00742179 6:0.00732601 8:0.00591716 10:0.0192308 11:0.00819672 12:0.0192308 14:0.0042735 17:0.0192308 18:0.0102564 19:0.0384615 20:0.0384615 21:0.00452489 23:0.0384615 25:0.00961538 27:0.00769231 28:0.0384615 30:0.00320513 31:0.00747863 33:0.0192308 35:0.00788955 36:0.0042735 37:0.00854701 38:0.00824176 39:0.0192308 40:0.00167224 41:0.0384615 43:0.0128205 45:0.00240385 46:0.00480769 47:0.00549451 49:0.0153846 52:0.0192308 53:0.0192308 59:0.0192308 60:0.00320513 61:0.00887574 63:0.0384615 64:0.0137363 65:0.00715564 66:0.0025641 67:0.0128205 68:0.00641026 71:0.00862069 74:0.00569801 75:0.00384615 78:0.0384615 82:0.0107692 83:0.00813609 86:0.00900164 87:0.0384615 90:0.0122378 94:0.0384615 95:0.0192308 98:0.025641 102:0.0104895 107:0.0192308 109:0.00295858 110:0.00549451 111:0.00641026 112:0.00480769 
0 0.3692956626790582 0 0 5:0.0712353 6:0.0634921 8:0.0512821 10:0.166667 11:0.0710383 12:0.166667 14:0.037037 17:0.166667 18:0.0888889 19:0.333333 20:0.333333 21:0.0392157 23:0.333333 25:0.0833333 27:0.0666667 28:0.333333 30:0.0277778 31:0.0648148 33:0.166667 35:0.0683761 36:0.037037 37:0.0740741 38:0.0714286 39:0.166667 40:0.0144928 41:0.333333 43:0.111111 45:0.0208333 46:0.0416667 47:0.047619 49:0.133333 52:0.166667 53:0.166667 59:0.166667 60:0.0277778 61:0.0769231 63:0.333333 64:0.119048 65:0.0620155 66:0.0222222 67:0.111111 68:0.0555556 71:0.0747126 74:0.0493827 75:0.0333333 78:0.333333 82:0.0933333 83:0.0705128 86:0.0780142 87:0.333333 90:0.106061 94:0.333333 95:0.166667 98:0.222222 102:0.0909091 107:0.166667 109:0.025641 110:0.047619 111:0.0555556 112:0.0416667 
0 0.753519483683646 0 0 5:0.0351668 6:0.031746 8:0.025641 10:0.0833333 11:0.0409836 12:0.0833333 14:0.0185185 17:0.0833333 18:0.0444444 19:0.166667 20:0.166667 21:0.0196078 23:0.166667 25:0.0416667 27:0.0333333 28:0.166667 30:0.0138889 31:0.0324074 33:0.0833333 35:0.034188 36:0.0185185 37:0.0416667 38:0.0357143 39:0.0833333 40:0.00724638 41:0.166667 43:0.0555556 45:0.0104167 46:0.0260417 47:0.0238095 49:0.0666667 52:0.0833333 53:0.0833333 59:0.0833333 60:0.0138889 61:0.0384615 63:0.166667 64:0.0595238 65:0.0310078 66:0.0111111 67:0.0555556 68:0.0277778 71:0.0373563 74:0.0308642 75:0.0166667 78:0.166667 82:0.0466667 83:0.0352564 86:0.0390071 87:0.166667 90:0.0530303 94:0.166667 95:0.0833333 98:0.111111 102:0.0454545 107:0.0833333 109:0.0128205 110:0.0238095 111:0.0277778 112:0.0208333 
1 0 0 0 5:0.0712353 6:0.0793651 8:0.0512821 10:0.166667 11:0.0819672 12:0.166667 14:0.037037 17:0.166667 18:0.0888889 19:0.333333 20:0.333333 21:0.0392157 23:0.333333 25:0.0833333 27:0.0666667 28:0.333333 30:0.0277778 31:0.0740741 33:0.166667 35:0.0683761 36:0.037037 37:0.0833333 38:0.0952381 39:0.166667 40:0.0144928 41:0.333333 43:0.111111 45:0.0208333 46:0.0520833 47:0.047619 49:0.133333 52:0.166667 53:0.166667 59:0.166667 60:0.0277778 61:0.0769231 63:0.333333 64:0.142857 65:0.0697674 66:0.0222222 67:0.111111 68:0.0555556 71:0.0747126 74:0.0617284 75:0.0333333 78:0.333333 82:0.0933333 83:0.0705128 86:0.0851064 87:0.333333 90:0.106061 94:0.333333 95:0.166667 98:0.222222 102:0.0909091 107:0.166667 109:0.025641 110:0.047619 111:0.0555556 112:0.0416667 
1 0 0 0 5:0.107304 6:0.119048 8:0.0769231 10:0.25 11:0.122951 12:0.25 14:0.0555556 17:0.25 18:0.133333 19:0.5 20:0.5 21:0.0588235 23:0.5 25:0.125 27:0.1 28:0.5 30:0.0416667 31:0.125 33:0.25 35:0.108974 36:0.0555556 37:0.125 38:0.142857 39:0.25 40:0.0217391 41:0.5 43:0.166667 45:0.03125 46:0.078125 47:0.0714286 49:0.2 52:0.25 53:0.25 59:0.25 60:0.0416667 61:0.115385 63:0.5 64:0.214286 65:0.116279 66:0.0333333 67:0.166667 68:0.0833333 71:0.112069 74:0.0925926 75:0.05 78:0.5 82:0.14 83:0.105769 86:0.12766 87:0.5 90:0.159091 94:0.5 95:0.25 98:0.333333 102:0.136364 107:0.25 109:0.0384615 110:0.0714286 111:0.0833333 112:0.0625 
0.03930885011553026 0 0 0 5:0.0104883 6:0.0125313 8:0.0121457 10:0.0263158 11:0.0129422 12:0.0263158 14:0.00584795 17:0.0263158 18:0.0175439 19:0.0526316 20:0.0526316 21:0.00619195 23:0.0526316 25:0.0131579 27:0.0105263 28:0.0526316 30:0.00438596 31:0.0131579 33:0.0263158 35:0.0121457 36:0.0116959 37:0.0131579 38:0.0150376 39:0.0263158 40:0.00457666 41:0.0526316 43:0.0175439 45:0.00328947 46:0.00822368 47:0.0075188 49:0.0210526 52:0.0263158 53:0.0263158 59:0.0263158 60:0.00877193 61:0.0121457 63:0.0526316 64:0.0225564 65:0.0122399 66:0.00350877 67:0.0175439 68:0.00877193 71:0.0127042 74:0.00974659 75:0.00526316 78:0.0526316 82:0.0147368 83:0.0111336 86:0.0145577 87:0.0526316 90:0.0167464 94:0.0526316 95:0.0263158 98:0.0350877 102:0.0143541 107:0.0263158 109:0.00404858 110:0.0075188 111:0.0131579 112:0.0131579 
1 0.1121377341251009 0 0 5:0.12083 6:0.119048 8:0.153846 10:0.25 11:0.122951 12:0.25 14:0.0555556 17:0.25 18:0.166667 19:0.5 20:0.5 21:0.0588235 23:0.5 25:0.125 27:0.1 28:0.5 30:0.0416667 31:0.125 33:0.25 35:0.115385 36:0.111111 37:0.125 38:0.142857 39:0.25 40:0.0434783 41:0.5 43:0.166667 45:0.03125 46:0.078125 47:0.0714286 49:0.2 52:0.25 53:0.25 59:0.25 60:0.0833333 61:0.115385 63:0.5 64:0.214286 65:0.116279 66:0.0333333 67:0.166667 68:0.0833333 71:0.12069 74:0.0925926 75:0.05 78:0.5 82:0.14 83:0.105769 86:0.138298 87:0.5 90:0.159091 94:0.5 95:0.25 98:0.333333 102:0.136364 107:0.25 109:0.0384615 110:0.0714286 111:0.166667 112:0.125 
0.8946420369761138 0 0 0 5:0.0396754 6:0.0396825 8:0.0512821 10:0.0833333 11:0.0409836 12:0.0833333 14:0.0185185 17:0.0833333 18:0.0555556 19:0.166667 20:0.166667 21:0.0196078 23:0.166667 25:0.0416667 27:0.0333333 28:0.166667 30:0.0138889 31:0.0416667 33:0.0833333 35:0.0405983 36:0.037037 37:0.0416667 38:0.047619 39:0.0833333 40:0.0144928 41:0.166667 43:0.0555556 45:0.0104167 46:0.0260417 47:0.0238095 49:0.0666667 52:0.0833333 53:0.0833333 59:0.0833333 60:0.0277778 61:0.0384615 63:0.166667 64:0.0714286 65:0.0387597 66:0.0111111 67:0.0555556 68:0.0277778 71:0.0402299 74:0.0308642 75:0.0166667 78:0.166667 82:0.0466667 83:0.0352564 86:0.0460993 87:0.166667 90:0.0530303 94:0.166667 95:0.0833333 98:0.111111 102:0.0454545 107:0.0833333 109:0.0128205 110:0.0238095 111:0.0555556 112:0.0625 
0.2860468641724554 0 0 0 5:0.0295311 6:0.0297619 8:0.0384615 10:0.0625 11:0.0348361 12:0.0625 14:0.0138889 17:0.0625 18:0.0416667 19:0.125 20:0.125 21:0.0147059 23:0.125 25:0.03125 27:0.025 28:0.125 30:0.0104167 31:0.03125 33:0.0625 35:0.0304487 36:0.0277778 37:0.0347222 38:0.0357143 39:0.0625 40:0.0108696 41:0.125 43:0.0416667 45:0.0078125 46:0.0234375 47:0.0178571 49:0.05 52:0.0625 53:0.0625 59:0.0625 60:0.0208333 61:0.0288462 63:0.125 64:0.0535714 65:0.0290698 66:0.00833333 67:0.0416667 68:0.0208333 71:0.0301724 74:0.0277778 75:0.0125 78:0.125 82:0.035 83:0.0264423 86:0.0345745 87:0.125 90:0.0397727 94:0.125 95:0.0625 98:0.0833333 102:0.0340909 107:0.0625 109:0.00961538 110:0.0178571 111:0.0416667 112:0.046875 
0.1493203369348453 0.5980832889722276 0 0 5:0.269612 6:0.285714 8:0.307692 10:0.5 11:0.278689 12:0.5 14:0.111111 17:0.5 18:0.333333 19:1 20:1 21:0.117647 23:1 25:0.25 27:0.2 28:1 30:0.0833333 31:0.25 33:0.5 35:0.25641 36:0.222222 37:0.277778 38:0.285714 39:0.5 40:0.0869565 41:1 43:0.333333 45:0.0625 46:0.1875 47:0.142857 49:0.4 52:0.5 53:0.5 59:0.5 60:0.166667 61:0.230769 63:1 64:0.428571 65:0.232558 66:0.0666667 67:0.333333 68:0.166667 71:0.241379 74:0.222222 75:0.1 77:0.2 78:1 82:0.28 83:0.211538 86:0.276596 87:1 90:0.363636 94:1 95:0.5 98:0.666667 102:0.272727 107:0.5 109:0.0769231 110:0.142857 111:0.333333 112:0.375 
0.5729996344529006 0 0.02133838678735316 0 5:0.134355 6:0.142857 8:0.153846 10:0.25 11:0.139344 12:0.25 14:0.0555556 17:0.25 18:0.166667 19:0.5 20:0.5 21:0.0588235 23:0.5 25:0.125 27:0.1 28:0.5 30:0.0416667 31:0.125 33:0.25 35:0.128205 36:0.111111 37:0.138889 38:0.142857 39:0.25 40:0.0434783 41:0.5 43:0.166667 44:0.5 45:0.03125 46:0.09375 47:0.0714286 49:0.2 52:0.25 53:0.25 59:0.25 60:0.125 61:0.115385 63:0.5 64:0.214286 65:0.116279 66:0.0333333 67:0.166667 68:0.0833333 71:0.12069 74:0.111111 75:0.1 77:0.1 78:0.5 82:0.14 83:0.105769 86:0.138298 87:0.5 90:0.181818 93:0.0833333 94:0.5 95:0.25 98:0.333333 102:0.136364 107:0.25 109:0.0384615 110:0.0714286 111:0.166667 112:0.1875 
0 0.9197439727762894 0 0 5:0.0734896 6:0.0714286 8:0.0769231 10:0.125 11:0.0696721 12:0.125 14:0.0277778 17:0.125 18:0.0833333 19:0.25 20:0.25 21:0.0294118 23:0.25 25:0.0625 27:0.05 28:0.25 30:0.0208333 31:0.0694444 33:0.125 35:0.0673077 36:0.0555556 37:0.0694444 38:0.0714286 39:0.125 40:0.0217391 41:0.25 43:0.0833333 44:0.25 45:0.015625 46:0.046875 47:0.0357143 49:0.1 52:0.125 53:0.125 59:0.125 60:0.0625 61:0.0576923 63:0.25 64:0.125 65:0.0581395 66:0.0333333 67:0.0833333 68:0.0416667 71:0.0603448 74:0.0555556 75:0.05 77:0.05 78:0.25 82:0.07 83:0.0576923 86:0.0691489 87:0.25 90:0.0909091 93:0.0416667 94:0.25 95:0.125 98:0.166667 102:0.0681818 107:0.125 109:0.0192308 110:0.0357143 111:0.0833333 112:0.09375 
0.3546875198762856 0 0 0 5:0.296664 6:0.285714 8:0.307692 10:0.5 11:0.278689 12:0.5 14:0.111111 17:0.5 18:0.333333 19:1 20:1 21:0.117647 23:1 25:0.5 27:0.2 28:1 30:0.0833333 31:0.277778 33:0.5 35:0.269231 36:0.333333 37:0.277778 38:0.285714 39:0.5 40:0.0869565 41:1 43:0.333333 44:1 45:0.125 46:0.1875 47:0.142857 49:0.4 52:0.5 53:0.5 59:0.5 60:0.25 61:0.230769 63:1 64:0.5 65:0.232558 66:0.133333 67:0.666667 68:0.166667 71:0.241379 74:0.222222 75:0.2 77:0.2 78:1 82:0.32 83:0.230769 86:0.319149 87:1 90:0.409091 93:0.166667 94:1 95:0.5 98:0.666667 102:0.318182 107:0.5 109:0.0769231 110:0.142857 111:0.333333 112:0.5 
0.7693625375633193 0 0 0 5:0.0982867 6:0.0952381 8:0.102564 10:0.166667 11:0.0928962 12:0.166667 14:0.037037 17:0.166667 18:0.111111 19:0.333333 20:0.333333 21:0.0392157 23:0.333333 25:0.166667 27:0.0666667 28:0.333333 30:0.0277778 31:0.0925926 33:0.166667 35:0.0897436 36:0.111111 37:0.0925926 38:0.0952381 39:0.166667 40:0.0289855 41:0.333333 43:0.111111 44:0.333333 45:0.0416667 46:0.0625 47:0.047619 49:0.133333 52:0.166667 53:0.166667 59:0.166667 60:0.0833333 61:0.0769231 63:0.333333 64:0.166667 65:0.0775194 66:0.0444444 67:0.222222 68:0.0555556 71:0.0804598 74:0.0740741 75:0.0666667 77:0.0666667 78:0.333333 82:0.106667 83:0.0769231 86:0.106383 87:0.333333 90:0.136364 93:0.0555556 94:0.333333 95:0.166667 98:0.222222 102:0.106061 107:0.166667 109:0.025641 110:0.047619 111:0.111111 112:0.166667 
1 0 0 0 5:0.00733132 6:0.00621118 8:0.0083612 10:0.0108696 11:0.00605845 12:0.0108696 14:0.00483092 17:0.0108696 18:0.00724638 19:0.0217391 20:0.0217391 21:0.00255754 23:0.0217391 25:0.0108696 27:0.00434783 28:0.0217391 30:0.00181159 31:0.00603865 33:0.0108696 35:0.00613155 36:0.00724638 37:0.00603865 38:0.00621118 39:0.0108696 40:0.00189036 41:0.0217391 43:0.00724638 44:0.0217391 45:0.00271739 46:0.00407609 47:0.00310559 49:0.00869565 52:0.0108696 53:0.0108696 59:0.0108696 60:0.00543478 61:0.00668896 63:0.0217391 64:0.0108696 65:0.00505561 66:0.00289855 67:0.0144928 68:0.00362319 71:0.005997 74:0.00483092 75:0.00434783 77:0.00434783 78:0.0217391 82:0.00695652 83:0.00501672 86:0.00693802 87:0.0217391 90:0.00889328 93:0.00362319 94:0.0217391 95:0.0108696 98:0.0144928 102:0.006917 104:0.0108696 107:0.0108696 109:0.00167224 110:0.00310559 111:0.00905797 112:0.0108696 
0.09618800144395454 0 0 0 5:0.0163128 6:0.012987 8:0.0174825 10:0.0227273 11:0.0126677 12:0.0227273 14:0.010101 17:0.0227273 18:0.0181818 19:0.0454545 20:0.0454545 21:0.00534759 23:0.0454545 25:0.0227273 27:0.00909091 28:0.0454545 30:0.00757576 31:0.0126263 33:0.0227273 35:0.0134033 36:0.020202 37:0.0126263 38:0.012987 39:0.0227273 40:0.00592885 41:0.0454545 43:0.0151515 44:0.0454545 45:0.00568182 46:0.00852273 47:0.00649351 49:0.0181818 52:0.0227273 53:0.0227273 59:0.0227273 60:0.0113636 61:0.013986 63:0.0454545 64:0.0227273 65:0.0105708 66:0.00606061 67:0.030303 68:0.00757576 71:0.0133229 74:0.010101 75:0.00909091 77:0.00909091 78:0.0454545 82:0.0145455 83:0.0104895 86:0.0154739 87:0.0454545 90:0.018595 93:0.00757576 94:0.0454545 95:0.0227273 98:0.030303 102:0.0144628 104:0.0227273 107:0.0227273 109:0.0034965 110:0.00649351 111:0.0189394 112:0.0227273 
0.5442604245019795 0 0 0 5:0.0748422 6:0.0571429 8:0.0769231 10:0.1 11:0.0557377 12:0.1 14:0.0444444 17:0.1 18:0.08 19:0.2 20:0.2 21:0.0352941 23:0.2 25:0.1 27:0.04 28:0.2 30:0.0333333 31:0.0555556 33:0.1 35:0.0615385 36:0.0888889 37:0.0555556 38:0.0571429 39:0.1 40:0.026087 41:0.2 43:0.0666667 44:0.2 45:0.025 46:0.0375 47:0.0285714 49:0.08 52:0.1 53:0.1 59:0.1 60:0.05 61:0.0615385 63:0.2 64:0.1 65:0.0465116 66:0.0266667 67:0.133333 68:0.0333333 71:0.062069 74:0.0444444 75:0.04 77:0.04 78:0.2 82:0.064 83:0.0461538 86:0.0680851 87:0.2 90:0.0818182 93:0.0333333 94:0.2 95:0.1 98:0.133333 102:0.0636364 104:0.1 107:0.1 109:0.0153846 110:0.0285714 111:0.0833333 112:0.1 
1 0 0 0 5:0.0937782 6:0.0714286 8:0.0961538 10:0.125 11:0.0696721 12:0.125 14:0.0555556 17:0.125 18:0.1 19:0.25 20:0.25 21:0.0441176 23:0.25 25:0.125 27:0.05 28:0.25 30:0.0416667 31:0.0694444 33:0.125 35:0.0769231 36:0.111111 37:0.0694444 38:0.0714286 39:0.125 40:0.0326087 41:0.25 43:0.0833333 44:0.25 45:0.03125 46:0.046875 47:0.0357143 49:0.1 52:0.125 53:0.125 59:0.125 60:0.0625 61:0.0769231 63:0.25 64:0.125 65:0.0581395 66:0.0333333 67:0.166667 68:0.0416667 71:0.0775862 74:0.0555556 75:0.05 77:0.05 78:0.25 82:0.08 83:0.0625 86:0.0851064 87:0.25 90:0.102273 93:0.0416667 94:0.25 95:0.125 98:0.166667 102:0.0795455 104:0.125 107:0.125 109:0.0192308 110:0.0357143 111:0.104167 112:0.125 
1 0 0 0 5:0.0227683 6:0.0178571 8:0.0240385 10:0.03125 11:0.017418 12:0.03125 14:0.0138889 17:0.03125 18:0.025 19:0.0625 20:0.0625 21:0.0110294 23:0.0625 25:0.03125 27:0.0125 28:0.0625 30:0.0104167 31:0.0173611 33:0.03125 35:0.0200321 36:0.0277778 37:0.0173611 38:0.0178571 39:0.03125 40:0.00815217 41:0.0625 43:0.0208333 44:0.0625 45:0.0078125 46:0.0117188 47:0.00892857 49:0.025 52:0.03125 53:0.03125 59:0.03125 60:0.015625 61:0.0192308 63:0.0625 64:0.03125 65:0.0159884 66:0.00833333 67:0.0416667 68:0.0104167 71:0.0193966 74:0.0138889 75:0.0125 77:0.0125 78:0.0625 82:0.02 83:0.0168269 86:0.0212766 87:0.0625 90:0.0255682 93:0.0104167 94:0.0625 95:0.03125 98:0.0416667 102:0.0198864 104:0.03125 107:0.03125 109:0.00480769 110:0.00892857 111:0.0260417 112:0.03125 
1 0 0 0 5:0.0937782 6:0.0714286 8:0.0961538 10:0.125 11:0.0696721 12:0.125 14:0.0555556 17:0.125 18:0.1 19:0.25 20:0.25 21:0.0441176 23:0.25 25:0.125 27:0.05 28:0.25 30:0.0416667 31:0.0694444 33:0.125 35:0.0801282 36:0.111111 37:0.0694444 38:0.0714286 39:0.125 40:0.0326087 41:0.25 43:0.0833333 44:0.25 45:0.03125 46:0.046875 47:0.0357143 49:0.1 52:0.125 53:0.125 59:0.125 60:0.0833333 61:0.0769231 63:0.25 64:0.125 65:0.0639535 66:0.0333333 67:0.166667 68:0.0416667 71:0.0775862 74:0.0555556 75:0.05 77:0.05 78:0.25 82:0.08 83:0.0673077 86:0.0851064 87:0.25 90:0.102273 93:0.0416667 94:0.25 95:0.125 98:0.166667 102:0.0795455 104:0.125 107:0.125 109:0.0192308 110:0.0357143 111:0.104167 112:0.125 
0.2668927133981628 0 0 0 5:0.377818 6:0.285714 8:0.384615 10:0.5 11:0.278689 12:0.5 14:0.222222 17:0.5 18:0.4 19:1 20:1 21:0.176471 23:1 25:0.5 27:0.2 28:1 30:0.166667 31:0.277778 33:0.5 35:0.320513 36:0.444444 37:0.277778 38:0.285714 39:0.5 40:0.130435 41:1 43:0.333333 44:1 45:0.125 46:0.1875 47:0.142857 49:0.4 52:0.5 53:0.5 59:0.5 60:0.333333 61:0.307692 63:1 64:0.5 65:0.255814 66:0.133333 67:0.666667 68:0.166667 71:0.310345 74:0.222222 75:0.2 77:0.2 78:1 82:0.32 83:0.269231 86:0.340426 87:1 90:0.409091 93:0.166667 94:1 95:0.5 98:0.666667 102:0.318182 104:0.5 107:0.5 109:0.0769231 110:0.142857 111:0.416667 112:0.5 
1 0 0 0 5:0.0245584 6:0.0168067 8:0.0226244 10:0.0294118 11:0.0183221 12:0.0294118 14:0.0130719 17:0.0294118 18:0.0235294 19:0.0588235 20:0.0588235 21:0.0103806 23:0.0588235 25:0.0294118 27:0.0117647 28:0.0588235 30:0.00980392 31:0.0163399 33:0.0294118 35:0.0188537 36:0.0261438 37:0.0179739 38:0.0168067 39:0.0294118 40:0.00767263 41:0.0588235 43:0.0196078 44:0.0588235 45:0.00735294 46:0.0128676 47:0.00840336 49:0.0235294 52:0.0294118 53:0.0294118 59:0.0294118 60:0.0196078 61:0.0226244 63:0.0588235 64:0.0294118 65:0.0164159 66:0.00784314 67:0.0392157 68:0.00980392 71:0.0182556 74:0.0152505 75:0.0117647 77:0.0117647 78:0.0588235 79:0.00840336 82:0.0188235 83:0.0158371 86:0.020025 87:0.0588235 90:0.0240642 93:0.0196078 94:0.0588235 95:0.0294118 98:0.0392157 102:0.0213904 104:0.0294118 107:0.0294118 109:0.00904977 110:0.00840336 111:0.0245098 112:0.0294118 
1 0 0 0 5:0.143372 6:0.111111 8:0.128205 10:0.166667 11:0.103825 12:0.166667 14:0.0740741 17:0.166667 18:0.133333 19:0.333333 20:0.333333 21:0.0588235 23:0.333333 25:0.166667 27:0.0666667 28:0.333333 30:0.0555556 31:0.0925926 33:0.166667 35:0.106838 36:0.148148 37:0.101852 38:0.0952381 39:0.166667 40:0.0434783 41:0.333333 43:0.111111 44:0.333333 45:0.0416667 46:0.0729167 47:0.047619 49:0.133333 52:0.166667 53:0.166667 59:0.166667 60:0.111111 61:0.128205 63:0.333333 64:0.166667 65:0.0930233 66:0.0444444 67:0.222222 68:0.0555556 71:0.103448 74:0.0864198 75:0.0666667 77:0.0666667 78:0.333333 79:0.047619 82:0.106667 83:0.0897436 86:0.113475 87:0.333333 90:0.136364 93:0.111111 94:0.333333 95:0.166667 98:0.222222 102:0.121212 104:0.166667 107:0.166667 109:0.0512821 110:0.047619 111:0.138889 112:0.166667 
1 0 0 0 5:0.107304 6:0.0833333 8:0.0961538 10:0.125 11:0.0778689 12:0.125 14:0.0555556 17:0.125 18:0.1 19:0.25 20:0.25 21:0.0441176 23:0.25 25:0.125 27:0.05 28:0.25 30:0.0416667 31:0.0694444 33:0.125 35:0.0801282 36:0.111111 37:0.0763889 38:0.0714286 39:0.125 40:0.0326087 41:0.25 43:0.0833333 44:0.25 45:0.03125 46:0.0546875 47:0.0357143 49:0.1 52:0.125 53:0.125 59:0.125 60:0.0833333 61:0.0961538 63:0.25 64:0.125 65:0.0697674 66:0.0333333 67:0.166667 68:0.0416667 71:0.0818966 74:0.0648148 75:0.05 77:0.05 78:0.25 79:0.0357143 82:0.08 83:0.0673077 86:0.0851064 87:0.25 90:0.102273 93:0.0833333 94:0.25 95:0.125 98:0.166667 102:0.0909091 104:0.125 107:0.125 109:0.0384615 110:0.0357143 111:0.104167 112:0.125 
1 0 0 0 5:0.143372 6:0.111111 8:0.128205 10:0.166667 11:0.103825 12:0.166667 14:0.0740741 17:0.166667 18:0.133333 19:0.333333 20:0.333333 21:0.0588235 23:0.333333 25:0.166667 27:0.0666667 28:0.333333 30:0.0555556 31:0.0925926 33:0.166667 35:0.106838 36:0.148148 37:0.101852 38:0.0952381 39:0.166667 40:0.0434783 41:0.333333 43:0.111111 44:0.333333 45:0.0416667 46:0.0729167 47:0.047619 49:0.133333 52:0.166667 53:0.166667 59:0.166667 60:0.111111 61:0.128205 63:0.333333 64:0.166667 65:0.0930233 66:0.0444444 67:0.222222 68:0.0555556 71:0.109195 74:0.0864198 75:0.0666667 77:0.1 78:0.333333 79:0.047619 82:0.106667 83:0.0897436 86:0.113475 87:0.333333 90:0.136364 93:0.111111 94:0.333333 95:0.166667 98:0.222222 102:0.121212 104:0.166667 107:0.166667 109:0.0512821 110:0.047619 111:0.138889 112:0.166667 
0.1664778976864683 0 0 0 5:0.0471897 6:0.037037 8:0.042735 10:0.0555556 11:0.0346084 12:0.0555556 14:0.0246914 17:0.0555556 18:0.0444444 19:0.111111 20:0.111111 21:0.0196078 23:0.111111 25:0.0555556 27:0.0222222 28:0.111111 30:0.0185185 31:0.0308642 33:0.0555556 35:0.0356125 36:0.0493827 37:0.0339506 38:0.0396825 39:0.0555556 40:0.0144928 41:0.111111 43:0.037037 44:0.111111 45:0.0138889 46:0.0243056 47:0.015873 49:0.0444444 52:0.0555556 53:0.0555556 59:0.0555556 60:0.037037 61:0.042735 63:0.111111 64:0.0555556 65:0.0310078 66:0.0148148 67:0.0740741 68:0.0246914 71:0.0383142 74:0.0288066 75:0.0222222 77:0.0333333 78:0.111111 79:0.015873 82:0.0355556 83:0.0320513 86:0.0378251 87:0.111111 90:0.0454545 93:0.037037 94:0.111111 95:0.0555556 98:0.0740741 102:0.040404 104:0.0555556 107:0.0555556 109:0.017094 110:0.015873 111:0.0462963 112:0.0555556 
0.08151485240422457 0 0 0 5:0.0856628 6:0.0666667 8:0.0769231 10:0.1 11:0.0622951 12:0.1 14:0.0444444 17:0.1 18:0.08 19:0.2 20:0.2 21:0.0352941 23:0.2 25:0.1 27:0.04 28:0.2 30:0.0333333 31:0.0611111 33:0.1 35:0.0641026 36:0.0888889 37:0.0611111 38:0.0714286 39:0.1 40:0.026087 41:0.2 43:0.0666667 44:0.2 45:0.025 46:0.04375 47:0.0285714 49:0.08 52:0.1 53:0.1 59:0.1 60:0.0666667 61:0.0769231 63:0.2 64:0.1 65:0.055814 66:0.0266667 67:0.133333 68:0.0444444 71:0.0689655 74:0.0518519 75:0.04 77:0.06 78:0.2 79:0.0285714 82:0.064 83:0.0576923 86:0.0680851 87:0.2 90:0.0818182 93:0.0666667 94:0.2 95:0.1 98:0.133333 102:0.0727273 104:0.1 107:0.1 109:0.0307692 110:0.0571429 111:0.0833333 112:0.1 
1 0.7193511182830343 0 0 5:0.229035 6:0.166667 8:0.192308 10:0.25 11:0.155738 12:0.25 14:0.111111 17:0.25 18:0.2 19:0.5 20:0.5 21:0.117647 23:0.5 25:0.25 27:0.1 28:0.5 30:0.0833333 31:0.166667 33:0.25 35:0.160256 36:0.222222 37:0.152778 38:0.178571 39:0.25 40:0.0652174 41:0.5 43:0.166667 44:0.5 45:0.0625 46:0.109375 47:0.0714286 49:0.2 52:0.25 53:0.25 59:0.25 60:0.166667 61:0.192308 63:0.5 64:0.285714 65:0.151163 66:0.1 67:0.333333 68:0.111111 71:0.172414 73:0.25 74:0.12963 75:0.15 77:0.15 78:0.5 79:0.0714286 82:0.18 83:0.163462 86:0.170213 87:0.5 90:0.204545 92:0.5 93:0.166667 94:0.5 95:0.25 98:0.333333 102:0.181818 104:0.25 107:0.25 109:0.0769231 110:0.142857 111:0.208333 112:0.25 
0.7048601581902947 0 0 0 5:0.15239 6:0.111111 8:0.128205 10:0.166667 11:0.114754 12:0.166667 14:0.0740741 17:0.166667 18:0.133333 19:0.333333 20:0.333333 21:0.0784314 23:0.333333 25:0.166667 27:0.0666667 28:0.333333 30:0.0555556 31:0.111111 33:0.166667 35:0.111111 36:0.148148 37:0.111111 38:0.119048 39:0.166667 40:0.057971 41:0.333333 43:0.111111 44:0.333333 45:0.0625 46:0.0833333 47:0.047619 49:0.133333 52:0.166667 53:0.166667 59:0.166667 60:0.111111 61:0.128205 63:0.333333 64:0.190476 65:0.124031 66:0.0666667 67:0.222222 68:0.0740741 71:0.114943 73:0.166667 74:0.0987654 75:0.1 77:0.1 78:0.333333 79:0.047619 82:0.12 83:0.115385 86:0.113475 87:0.333333 90:0.136364 92:0.333333 93:0.111111 94:0.333333 95:0.166667 96:0.166667 98:0.222222 102:0.121212 104:0.166667 107:0.166667 109:0.0512821 110:0.0952381 111:0.138889 112:0.166667 
1 0 0 0 5:0.0108899 6:0.010989 8:0.00986193 10:0.0128205 11:0.0113493 12:0.0128205 14:0.00569801 17:0.0128205 18:0.0102564 19:0.025641 20:0.025641 21:0.00603318 23:0.025641 25:0.0128205 27:0.00512821 28:0.025641 30:0.0042735 31:0.00854701 33:0.0128205 35:0.00887574 36:0.011396 37:0.0106838 38:0.010989 39:0.0128205 40:0.00445931 41:0.025641 43:0.00854701 44:0.025641 45:0.00480769 46:0.0088141 47:0.003663 49:0.0102564 52:0.0128205 53:0.0128205 59:0.0128205 60:0.00854701 61:0.00986193 63:0.025641 64:0.014652 65:0.00954085 66:0.00512821 67:0.017094 68:0.00569801 71:0.00972591 73:0.0128205 74:0.0104463 75:0.00769231 77:0.00769231 78:0.025641 79:0.003663 82:0.00923077 83:0.00936884 86:0.00872886 87:0.025641 90:0.0104895 92:0.025641 93:0.00854701 94:0.025641 95:0.0128205 96:0.0128205 97:0.0128205 98:0.017094 102:0.00932401 104:0.0128205 107:0.0128205 109:0.00394477 110:0.00732601 111:0.0106838 112:0.0128205 
0.542552895243887 0 0 0 5:0.458972 6:0.428571 8:0.384615 10:0.5 11:0.442623 12:0.5 14:0.222222 17:0.5 18:0.4 19:1 20:1 21:0.235294 23:1 25:0.5 27:0.2 28:1 30:0.166667 31:0.333333 33:0.5 35:0.346154 36:0.444444 37:0.416667 38:0.428571 39:0.5 40:0.173913 41:1 43:0.333333 44:1 45:0.1875 46:0.34375 47:0.142857 49:0.4 52:0.5 53:0.5 59:0.5 60:0.333333 61:0.384615 63:1 64:0.571429 65:0.372093 66:0.2 67:0.666667 68:0.222222 71:0.37931 73:0.5 74:0.407407 75:0.3 77:0.3 78:1 79:0.142857 82:0.36 83:0.365385 86:0.340426 87:1 90:0.409091 92:1 93:0.333333 94:1 95:0.5 96:0.5 97:0.5 98:0.666667 102:0.363636 104:0.5 107:0.5 109:0.153846 110:0.285714 111:0.416667 112:0.5 
1 0 0 0 5:0.00954996 6:0.00974026 8:0.00874126 10:0.0113636 11:0.0108048 12:0.0113636 14:0.00505051 17:0.0113636 18:0.00909091 19:0.0227273 20:0.0227273 21:0.00534759 23:0.0227273 25:0.0113636 27:0.00454545 28:0.0227273 30:0.00378788 31:0.00757576 33:0.0113636 35:0.00903263 36:0.010101 37:0.010101 38:0.00974026 39:0.0113636 40:0.00395257 41:0.0227273 43:0.00757576 44:0.0227273 45:0.00426136 46:0.00852273 47:0.00324675 49:0.00909091 52:0.0113636 53:0.0113636 59:0.0113636 60:0.00757576 61:0.00874126 63:0.0227273 64:0.012987 65:0.00845666 66:0.00454545 67:0.0151515 68:0.00505051 71:0.00862069 73:0.0113636 74:0.010101 75:0.00681818 77:0.00681818 78:0.0227273 79:0.00324675 82:0.00909091 83:0.0083042 86:0.00773694 87:0.0227273 90:0.0103306 92:0.0227273 93:0.00757576 94:0.0227273 95:0.0113636 96:0.0113636 97:0.0113636 98:0.0151515 102:0.00826446 104:0.0113636 107:0.0113636 109:0.0034965 110:0.00649351 111:0.0094697 112:0.0113636 
1 0 0 0 5:0.0103147 6:0.0116144 8:0.00938086 10:0.0121951 11:0.0115954 12:0.0121951 14:0.00542005 17:0.0121951 18:0.0097561 19:0.0243902 20:0.0243902 21:0.00573888 23:0.0243902 25:0.0121951 27:0.00487805 28:0.0243902 30:0.00406504 31:0.00880759 33:0.0121951 35:0.0103189 36:0.0108401 37:0.0108401 38:0.010453 39:0.0121951 40:0.00636267 41:0.0243902 43:0.00813008 44:0.0243902 45:0.00457317 46:0.00914634 47:0.00348432 49:0.0097561 52:0.0121951 53:0.0121951 59:0.0121951 60:0.0101626 61:0.00938086 63:0.0243902 64:0.0139373 65:0.00907544 66:0.00487805 67:0.0162602 68:0.00542005 71:0.00925147 73:0.0121951 74:0.0108401 75:0.00731707 77:0.00731707 78:0.0243902 79:0.00348432 82:0.0097561 83:0.00891182 86:0.00934094 87:0.0243902 90:0.0121951 92:0.0243902 93:0.00813008 94:0.0243902 95:0.0121951 96:0.0243902 97:0.0121951 98:0.0162602 102:0.00997783 104:0.0121951 107:0.0121951 109:0.00375235 110:0.00696864 111:0.0101626 112:0.0121951 
1 0 0 0 5:0.0757439 6:0.0793651 8:0.0641026 10:0.0833333 11:0.079235 12:0.0833333 14:0.037037 17:0.0833333 18:0.0666667 19:0.166667 20:0.166667 21:0.0392157 23:0.166667 25:0.0833333 27:0.0333333 28:0.166667 30:0.0277778 31:0.0648148 33:0.0833333 35:0.0705128 36:0.0740741 37:0.0740741 38:0.0714286 39:0.0833333 40:0.0434783 41:0.166667 43:0.0555556 44:0.166667 45:0.03125 46:0.0625 47:0.0238095 49:0.0666667 52:0.0833333 53:0.0833333 59:0.0833333 60:0.0694444 61:0.0641026 63:0.166667 64:0.0952381 65:0.0620155 66:0.0333333 67:0.111111 68:0.037037 71:0.0632184 73:0.0833333 74:0.0740741 75:0.05 77:0.05 78:0.166667 79:0.0238095 82:0.0666667 83:0.0608974 86:0.0638298 87:0.166667 90:0.0833333 92:0.166667 93:0.0555556 94:0.166667 95:0.0833333 96:0.166667 97:0.0833333 98:0.111111 102:0.0681818 104:0.0833333 107:0.0833333 109:0.025641 110:0.047619 111:0.0694444 112:0.0833333 
1 0 0 0 5:0.068659 6:0.0680272 8:0.0659341 10:0.0714286 11:0.0679157 12:0.0714286 14:0.031746 17:0.0714286 18:0.0571429 19:0.142857 20:0.142857 21:0.0336134 23:0.142857 25:0.0714286 27:0.0285714 28:0.142857 30:0.0238095 31:0.0634921 33:0.0714286 35:0.0604396 36:0.0634921 37:0.0634921 38:0.0612245 39:0.0714286 40:0.0372671 41:0.142857 43:0.047619 44:0.142857 45:0.0357143 46:0.0535714 47:0.0204082 49:0.0571429 52:0.0714286 53:0.0714286 59:0.0714286 60:0.0595238 61:0.0549451 63:0.142857 64:0.0816327 65:0.0564784 66:0.0285714 67:0.0952381 68:0.031746 71:0.0541872 73:0.0714286 74:0.0634921 75:0.0428571 76:0.0357143 77:0.0428571 78:0.142857 79:0.0204082 82:0.0571429 83:0.0521978 86:0.0577508 87:0.142857 90:0.0779221 92:0.142857 93:0.0714286 94:0.142857 95:0.0714286 96:0.142857 97:0.0714286 98:0.0952381 102:0.0649351 104:0.0714286 107:0.0714286 109:0.021978 110:0.0612245 111:0.0714286 112:0.0714286 
1 0 0 0 5:0.0964833 6:0.0952381 8:0.0923077 10:0.1 11:0.095082 12:0.1 14:0.0444444 17:0.1 18:0.08 19:0.2 20:0.2 21:0.0470588 23:0.2 25:0.1 27:0.04 28:0.2 30:0.0333333 31:0.0888889 33:0.1 35:0.0846154 36:0.0888889 37:0.0888889 38:0.0857143 39:0.1 40:0.0521739 41:0.2 43:0.0666667 44:0.2 45:0.05 46:0.075 47:0.0285714 49:0.08 52:0.1 53:0.1 59:0.1 60:0.0833333 61:0.0769231 63:0.2 64:0.114286 65:0.0790698 66:0.04 67:0.133333 68:0.0444444 71:0.0758621 73:0.1 74:0.0888889 75:0.06 76:0.05 77:0.06 78:0.2 79:0.0285714 82:0.08 83:0.0730769 86:0.0808511 87:0.2 90:0.109091 92:0.2 93:0.1 94:0.2 95:0.1 96:0.2 97:0.1 98:0.133333 102:0.0909091 104:0.1 107:0.1 109:0.0307692 110:0.0857143 111:0.1 112:0.1 
0.252528099350873 0 0 0 5:0.068659 6:0.0680272 8:0.0659341 10:0.0714286 11:0.0702576 12:0.0714286 14:0.031746 17:0.0714286 18:0.0571429 19:0.142857 20:0.142857 21:0.0336134 23:0.142857 25:0.0714286 27:0.0285714 28:0.142857 30:0.0238095 31:0.0634921 33:0.0714286 35:0.0604396 36:0.0793651 37:0.0674603 38:0.0612245 39:0.0714286 40:0.0372671 41:0.142857 43:0.047619 44:0.142857 45:0.0357143 46:0.0580357 47:0.0204082 49:0.0571429 52:0.0714286 53:0.0714286 59:0.0714286 60:0.0595238 61:0.0549451 63:0.142857 64:0.0816327 65:0.0564784 66:0.0285714 67:0.0952381 68:0.031746 71:0.0541872 73:0.0714286 74:0.0687831 75:0.0428571 76:0.0357143 77:0.0428571 78:0.142857 79:0.0204082 82:0.0685714 83:0.0521978 86:0.0577508 87:0.142857 90:0.0779221 92:0.142857 93:0.0714286 94:0.142857 95:0.0714286 96:0.142857 97:0.0714286 98:0.0952381 102:0.0649351 104:0.0714286 107:0.0714286 109:0.021978 110:0.0612245 111:0.0714286 112:0.0714286 
1 0.362704781931413 0 0 5:0.242561 6:0.238095 8:0.230769 10:0.25 11:0.245902 12:0.25 14:0.111111 17:0.25 18:0.2 19:0.5 20:0.5 21:0.117647 23:0.5 25:0.25 27:0.1 28:0.5 30:0.0833333 31:0.222222 33:0.25 35:0.211538 36:0.277778 37:0.236111 38:0.214286 39:0.25 40:0.130435 41:0.5 43:0.166667 44:0.5 45:0.125 46:0.203125 47:0.0714286 49:0.2 52:0.25 53:0.25 59:0.25 60:0.208333 61:0.192308 63:0.5 64:0.285714 65:0.197674 66:0.1 67:0.333333 68:0.111111 71:0.189655 73:0.25 74:0.240741 75:0.15 76:0.125 77:0.15 78:0.5 79:0.0714286 82:0.24 83:0.182692 86:0.202128 87:0.5 90:0.272727 92:0.5 93:0.25 94:0.5 95:0.25 96:0.5 97:0.25 98:0.333333 102:0.227273 104:0.25 107:0.25 109:0.0769231 110:0.214286 111:0.25 112:0.3125 
1 0 0 0 5:0.0212312 6:0.021645 8:0.020979 10:0.0227273 11:0.0223547 12:0.0227273 14:0.010101 17:0.0227273 18:0.0181818 19:0.0454545 20:0.0454545 21:0.0106952 23:0.0454545 25:0.0227273 27:0.00909091 28:0.0454545 30:0.00757576 31:0.020202 33:0.0227273 35:0.0192308 36:0.0252525 37:0.0214646 38:0.0194805 39:0.0227273 40:0.0118577 41:0.0454545 43:0.0151515 44:0.0454545 45:0.0113636 46:0.0184659 47:0.00649351 49:0.0181818 52:0.0227273 53:0.0227273 59:0.0227273 60:0.0189394 61:0.0174825 63:0.0454545 64:0.025974 65:0.0179704 66:0.00909091 67:0.030303 68:0.010101 71:0.0172414 73:0.0227273 74:0.0218855 75:0.0136364 76:0.0113636 77:0.0136364 78:0.0454545 79:0.00649351 82:0.0218182 83:0.0166084 86:0.0183752 87:0.0454545 90:0.0247934 92:0.0454545 93:0.0227273 94:0.0454545 95:0.0227273 96:0.0454545 97:0.0227273 98:0.030303 102:0.0206612 104:0.0227273 107:0.0227273 109:0.00699301 110:0.0194805 111:0.0227273 112:0.0284091 
1 0 0 0 5:0.0122584 6:0.01287 8:0.012474 10:0.0135135 11:0.013735 12:0.0135135 14:0.00600601 17:0.0135135 18:0.0108108 19:0.027027 20:0.027027 21:0.0063593 23:0.027027 25:0.0135135 27:0.00540541 28:0.027027 30:0.0045045 31:0.012012 33:0.0135135 35:0.0128205 36:0.015015 37:0.0135135 38:0.0135135 39:0.0135135 40:0.00705053 41:0.027027 43:0.00900901 44:0.027027 45:0.00675676 46:0.0118243 47:0.003861 49:0.0108108 52:0.0135135 53:0.0135135 59:0.0135135 60:0.0112613 61:0.012474 63:0.027027 64:0.0173745 65:0.0106851 66:0.00720721 67:0.018018 68:0.00600601 71:0.0111836 73:0.0135135 74:0.014014 75:0.0108108 76:0.0135135 77:0.00810811 78:0.027027 79:0.003861 82:0.0140541 83:0.0109148 86:0.0109258 87:0.027027 90:0.014742 92:0.027027 93:0.0135135 94:0.027027 95:0.0135135 96:0.027027 97:0.0135135 98:0.018018 102:0.012285 104:0.0135135 107:0.0135135 109:0.00831601 110:0.011583 111:0.0135135 112:0.0168919 
0.3738828830930004 0.01640009833025431 0 0 5:0.0802525 6:0.0793651 8:0.0769231 10:0.0833333 11:0.0846995 12:0.0833333 14:0.037037 17:0.0833333 18:0.0666667 19:0.166667 20:0.166667 21:0.0392157 23:0.166667 25:0.0833333 27:0.0333333 28:0.166667 30:0.0277778 31:0.0740741 33:0.0833333 35:0.0811966 36:0.0925926 37:0.0833333 38:0.0833333 39:0.0833333 40:0.0434783 41:0.166667 43:0.0555556 44:0.166667 45:0.0416667 46:0.0729167 47:0.0238095 49:0.0666667 52:0.0833333 53:0.0833333 59:0.0833333 60:0.0833333 61:0.0769231 63:0.166667 64:0.107143 65:0.0658915 66:0.0444444 67:0.111111 68:0.037037 71:0.0689655 73:0.0833333 74:0.0864198 75:0.0833333 76:0.0833333 77:0.05 78:0.166667 79:0.0238095 82:0.0933333 83:0.0673077 86:0.0673759 87:0.166667 90:0.0909091 92:0.166667 93:0.0833333 94:0.166667 95:0.0833333 96:0.166667 97:0.0833333 98:0.111111 102:0.0757576 104:0.0833333 107:0.0833333 109:0.0512821 110:0.0714286 111:0.0833333 112:0.104167 
1 0 0 0 5:0.012624 6:0.0125313 8:0.0121457 10:0.0131579 11:0.0133736 12:0.0131579 14:0.00584795 17:0.0131579 18:0.0122807 19:0.0263158 20:0.0263158 21:0.00619195 23:0.0263158 25:0.0131579 27:0.00526316 28:0.0263158 30:0.00438596 31:0.0116959 33:0.0131579 35:0.0128205 36:0.0175439 37:0.0131579 38:0.0131579 39:0.0131579 40:0.00686499 41:0.0263158 43:0.00877193 44:0.0263158 45:0.00657895 46:0.0115132 47:0.0037594 49:0.0105263 52:0.0131579 53:0.0131579 59:0.0131579 60:0.0131579 61:0.0121457 63:0.0263158 64:0.0169173 65:0.0104039 66:0.00701754 67:0.0175439 68:0.00584795 71:0.0108893 73:0.0131579 74:0.0136452 75:0.0131579 76:0.0131579 77:0.00789474 78:0.0263158 79:0.0037594 82:0.0157895 83:0.0106275 86:0.0106383 87:0.0263158 90:0.0143541 92:0.0263158 93:0.0131579 94:0.0263158 95:0.0131579 96:0.0263158 97:0.0131579 98:0.0175439 102:0.0119617 104:0.0131579 107:0.0131579 109:0.00809717 110:0.0112782 111:0.0131579 112:0.0164474 
1 0 0 0 5:0.0458234 6:0.04329 8:0.041958 10:0.0454545 11:0.0461997 12:0.0454545 14:0.020202 17:0.0454545 18:0.0424242 19:0.0909091 20:0.0909091 21:0.0213904 23:0.0909091 25:0.0454545 27:0.0181818 28:0.0909091 30:0.0151515 31:0.040404 33:0.0454545 35:0.044289 36:0.0606061 37:0.0454545 38:0.0454545 39:0.0454545 40:0.0237154 41:0.0909091 43:0.030303 44:0.0909091 45:0.0227273 46:0.0397727 47:0.012987 49:0.0363636 52:0.0454545 53:0.0454545 59:0.0454545 60:0.0454545 61:0.041958 63:0.0909091 64:0.0584416 65:0.0359408 66:0.0242424 67:0.0606061 68:0.020202 71:0.0376176 73:0.0454545 74:0.047138 75:0.0545455 76:0.0454545 77:0.0272727 78:0.0909091 79:0.012987 82:0.0581818 83:0.0367133 86:0.0367505 87:0.0909091 90:0.0495868 92:0.0909091 93:0.0454545 94:0.0909091 95:0.0454545 96:0.0909091 97:0.0454545 98:0.0606061 102:0.0413223 104:0.0454545 107:0.0454545 109:0.027972 110:0.038961 111:0.0454545 112:0.0568182 
0.5825617932825303 0 0 0 5:0.127592 6:0.119048 8:0.115385 10:0.125 11:0.127049 12:0.125 14:0.0833333 17:0.125 18:0.116667 19:0.25 20:0.25 21:0.0588235 23:0.25 25:0.125 27:0.05 28:0.25 30:0.0625 31:0.111111 33:0.125 35:0.128205 36:0.194444 37:0.125 38:0.125 39:0.125 40:0.0652174 41:0.25 43:0.0833333 44:0.25 45:0.0625 46:0.109375 47:0.0357143 49:0.1 52:0.125 53:0.125 59:0.125 60:0.145833 61:0.115385 63:0.25 64:0.160714 65:0.0988372 66:0.0666667 67:0.166667 68:0.0555556 71:0.103448 73:0.125 74:0.12963 75:0.15 76:0.125 77:0.075 78:0.25 79:0.0357143 82:0.16 83:0.100962 86:0.101064 87:0.25 90:0.136364 92:0.25 93:0.125 94:0.25 95:0.125 96:0.25 97:0.125 98:0.166667 102:0.113636 104:0.125 107:0.125 109:0.0769231 110:0.107143 111:0.125 112:0.15625 
0 0.4162307650249376 0 0 5:0.179441 6:0.15873 8:0.153846 10:0.166667 11:0.169399 12:0.166667 14:0.111111 17:0.166667 18:0.155556 19:0.333333 20:0.333333 21:0.0784314 23:0.333333 25:0.166667 27:0.0666667 28:0.333333 30:0.0833333 31:0.148148 33:0.166667 35:0.17094 36:0.259259 37:0.166667 38:0.166667 39:0.166667 40:0.0869565 41:0.333333 43:0.111111 44:0.333333 45:0.0833333 46:0.145833 47:0.047619 49:0.133333 52:0.166667 53:0.166667 59:0.166667 60:0.194444 61:0.153846 63:0.333333 64:0.214286 65:0.131783 66:0.111111 67:0.222222 68:0.0740741 71:0.137931 73:0.166667 74:0.17284 75:0.2 76:0.166667 77:0.1 78:0.333333 79:0.047619 82:0.213333 83:0.141026 86:0.134752 87:0.333333 90:0.181818 92:0.333333 93:0.166667 94:0.333333 95:0.166667 96:0.333333 97:0.166667 98:0.222222 102:0.151515 104:0.166667 107:0.166667 109:0.102564 110:0.142857 111:0.166667 112:0.208333 
0.05413035060303706 0 0 0 5:0.269612 6:0.238095 8:0.230769 10:0.25 11:0.270492 12:0.25 14:0.166667 17:0.25 18:0.233333 19:0.5 20:0.5 21:0.117647 23:0.5 25:0.25 27:0.1 28:0.5 30:0.125 31:0.222222 33:0.25 35:0.25641 36:0.388889 37:0.263889 38:0.25 39:0.25 40:0.130435 41:0.5 43:0.166667 44:0.5 45:0.125 46:0.234375 47:0.0714286 49:0.2 52:0.25 53:0.25 59:0.25 60:0.291667 61:0.230769 63:0.5 64:0.321429 65:0.197674 66:0.2 67:0.333333 68:0.111111 71:0.206897 73:0.25 74:0.277778 75:0.3 76:0.25 77:0.15 78:0.5 79:0.0714286 82:0.32 83:0.221154 86:0.212766 87:0.5 90:0.272727 92:0.5 93:0.25 94:0.5 95:0.25 96:0.5 97:0.25 98:0.333333 102:0.227273 104:0.25 107:0.25 109:0.153846 110:0.214286 111:0.25 112:0.3125 
1 0 0 0 5:0.0701082 6:0.0595238 8:0.0576923 10:0.0625 11:0.0717213 12:0.0625 14:0.0416667 17:0.0625 18:0.0583333 19:0.125 20:0.125 21:0.0441176 23:0.125 25:0.0625 27:0.025 28:0.125 30:0.03125 31:0.0625 33:0.0625 35:0.0641026 36:0.0972222 37:0.0694444 38:0.0625 39:0.0625 40:0.0380435 41:0.125 43:0.0416667 44:0.125 45:0.0390625 46:0.0625 47:0.0178571 49:0.05 52:0.0625 53:0.0625 56:0.125 59:0.0625 60:0.0729167 61:0.0576923 63:0.125 64:0.0803571 65:0.0494186 66:0.05 67:0.0833333 68:0.0347222 70:0.125 71:0.0560345 73:0.0625 74:0.0740741 75:0.075 76:0.0625 77:0.0375 78:0.125 79:0.0178571 80:0.025 82:0.08 83:0.0552885 85:0.125 86:0.0531915 87:0.125 90:0.0738636 92:0.125 93:0.0833333 94:0.125 95:0.0625 96:0.125 97:0.0625 98:0.0833333 102:0.0568182 104:0.0625 105:0.125 107:0.0625 109:0.0480769 110:0.0714286 111:0.0625 112:0.09375 
0 0.1854737258738009 0 0 5:0.283138 6:0.261905 8:0.230769 10:0.25 11:0.286885 12:0.25 14:0.166667 17:0.25 18:0.233333 19:0.5 20:0.5 21:0.176471 23:0.5 25:0.25 27:0.1 28:0.5 30:0.125 31:0.25 33:0.25 35:0.25641 36:0.388889 37:0.277778 38:0.25 39:0.25 40:0.152174 41:0.5 43:0.166667 44:0.5 45:0.15625 46:0.25 47:0.0714286 49:0.2 52:0.25 53:0.25 56:0.5 59:0.25 60:0.291667 61:0.230769 63:0.5 64:0.321429 65:0.197674 66:0.2 67:0.333333 68:0.138889 70:0.5 71:0.224138 73:0.25 74:0.296296 75:0.3 76:0.25 77:0.15 78:0.5 79:0.0714286 80:0.1 82:0.32 83:0.221154 85:0.5 86:0.212766 87:0.5 90:0.295455 92:0.5 93:0.333333 94:0.5 95:0.25 96:0.5 97:0.25 98:0.333333 102:0.227273 104:0.25 105:0.5 107:0.25 109:0.192308 110:0.285714 111:0.25 112:0.375 
0.661978913559783 0.07631483013950902 0 0 5:0.188458 6:0.174603 8:0.153846 10:0.166667 11:0.191257 12:0.166667 14:0.111111 17:0.166667 18:0.155556 19:0.333333 20:0.333333 21:0.117647 23:0.333333 25:0.166667 27:0.0666667 28:0.333333 30:0.0833333 31:0.166667 33:0.166667 35:0.17094 36:0.259259 37:0.185185 38:0.166667 39:0.166667 40:0.101449 41:0.333333 43:0.111111 44:0.333333 45:0.104167 46:0.166667 47:0.047619 49:0.133333 52:0.166667 53:0.166667 56:0.333333 59:0.166667 60:0.194444 61:0.153846 63:0.333333 64:0.214286 65:0.131783 66:0.133333 67:0.222222 68:0.0925926 70:0.333333 71:0.149425 73:0.166667 74:0.197531 75:0.2 76:0.166667 77:0.1 78:0.333333 79:0.047619 80:0.0666667 82:0.213333 83:0.147436 85:0.333333 86:0.148936 87:0.333333 90:0.19697 92:0.333333 93:0.222222 94:0.333333 95:0.166667 96:0.333333 97:0.166667 98:0.222222 102:0.151515 104:0.166667 105:0.333333 107:0.166667 109:0.128205 110:0.190476 111:0.166667 112:0.25 
1 0 0 0 5:0.188458 6:0.174603 8:0.153846 10:0.166667 11:0.196721 12:0.166667 14:0.111111 17:0.166667 18:0.177778 19:0.333333 20:0.333333 21:0.137255 23:0.333333 24:0.166667 25:0.166667 27:0.133333 28:0.333333 29:0.166667 30:0.111111 31:0.166667 33:0.166667 35:0.175214 36:0.259259 37:0.194444 38:0.166667 39:0.166667 40:0.115942 41:0.333333 43:0.111111 44:0.333333 45:0.104167 46:0.177083 47:0.0952381 49:0.133333 52:0.166667 53:0.166667 56:0.333333 59:0.166667 60:0.222222 61:0.179487 63:0.333333 64:0.214286 65:0.131783 66:0.133333 67:0.222222 68:0.0925926 70:0.333333 71:0.155172 73:0.166667 74:0.209877 75:0.2 76:0.166667 77:0.1 78:0.333333 79:0.047619 80:0.0666667 82:0.213333 83:0.153846 85:0.333333 86:0.163121 87:0.333333 90:0.19697 92:0.333333 93:0.222222 94:0.333333 95:0.166667 96:0.333333 97:0.166667 98:0.222222 102:0.151515 104:0.166667 105:0.333333 107:0.166667 109:0.128205 110:0.190476 111:0.166667 112:0.25 
0.97158908261295 0 0 0 5:0.283138 6:0.261905 8:0.230769 10:0.25 11:0.295082 12:0.25 14:0.166667 17:0.25 18:0.266667 19:0.5 20:0.5 21:0.205882 23:0.5 24:0.25 25:0.25 27:0.2 28:0.5 29:0.25 30:0.166667 31:0.25 33:0.25 35:0.262821 36:0.388889 37:0.291667 38:0.25 39:0.25 40:0.195652 41:0.5 43:0.166667 44:0.5 45:0.15625 46:0.265625 47:0.142857 49:0.2 52:0.25 53:0.25 56:0.5 59:0.25 60:0.333333 61:0.269231 63:0.5 64:0.321429 65:0.197674 66:0.2 67:0.333333 68:0.138889 70:0.5 71:0.232759 73:0.25 74:0.314815 75:0.3 76:0.25 77:0.15 78:0.5 79:0.0714286 80:0.1 82:0.32 83:0.240385 85:0.5 86:0.244681 87:0.5 90:0.295455 92:0.5 93:0.333333 94:0.5 95:0.25 96:0.5 97:0.25 98:0.333333 102:0.227273 104:0.25 105:0.5 107:0.25 109:0.192308 110:0.285714 111:0.25 112:0.375 
0.8912958709236117 0 0 0 5:0.567178 6:0.52381 8:0.461538 10:0.5 11:0.590164 12:0.5 14:0.333333 17:0.5 18:0.533333 19:1 20:1 21:0.411765 23:1 24:0.5 25:0.5 27:0.4 28:1 29:0.5 30:0.333333 31:0.5 33:0.5 35:0.525641 36:0.777778 37:0.583333 38:0.5 39:0.5 40:0.391304 41:1 43:0.333333 44:1 45:0.3125 46:0.53125 47:0.285714 49:0.4 52:0.5 53:0.5 56:1 59:0.5 60:0.666667 61:0.538462 63:1 64:0.642857 65:0.395349 66:0.4 67:0.666667 68:0.277778 70:1 71:0.465517 73:0.5 74:0.62963 75:0.6 76:0.5 77:0.3 78:1 79:0.142857 80:0.2 82:0.64 83:0.480769 85:1 86:0.489362 87:1 90:0.590909 92:1 93:0.666667 94:1 95:0.5 96:1 97:0.5 98:0.666667 102:0.454545 104:0.5 105:1 107:0.5 109:0.384615 110:0.571429 111:0.5 112:0.75 
1 0 0 0 5:0.0701082 6:0.0654762 8:0.0576923 10:0.0625 11:0.0737705 12:0.0625 14:0.0416667 17:0.0625 18:0.0666667 19:0.125 20:0.125 21:0.0514706 23:0.125 24:0.0625 25:0.0625 27:0.05 28:0.125 29:0.0625 30:0.0416667 31:0.0659722 33:0.0625 35:0.0657051 36:0.0972222 37:0.0729167 38:0.0625 39:0.0625 40:0.048913 41:0.125 43:0.0416667 44:0.125 45:0.0390625 46:0.0664063 47:0.0357143 49:0.05 52:0.0625 53:0.0625 56:0.125 59:0.0625 60:0.0833333 61:0.0673077 63:0.125 64:0.0803571 65:0.0494186 66:0.0583333 67:0.0833333 68:0.0347222 70:0.125 71:0.0581897 73:0.0625 74:0.0787037 75:0.075 76:0.0625 77:0.0375 78:0.125 79:0.0178571 80:0.025 82:0.08 83:0.0625 85:0.125 86:0.0638298 87:0.125 90:0.0738636 92:0.125 93:0.0833333 94:0.125 95:0.0625 96:0.125 97:0.0625 98:0.0833333 102:0.0568182 104:0.0625 105:0.125 107:0.0625 109:0.0480769 110:0.0714286 111:0.0625 112:0.09375 
0.1142551429754259 0 0 0 5:0.0937782 6:0.0873016 8:0.0769231 10:0.0833333 11:0.0983607 12:0.0833333 14:0.0555556 17:0.0833333 18:0.0888889 19:0.166667 20:0.166667 21:0.0686275 23:0.166667 24:0.0833333 25:0.0833333 27:0.0666667 28:0.166667 29:0.0833333 30:0.0555556 31:0.087963 33:0.0833333 35:0.0897436 36:0.12963 37:0.0972222 38:0.0833333 39:0.0833333 40:0.0652174 41:0.166667 43:0.0555556 44:0.166667 45:0.0625 46:0.0885417 47:0.047619 49:0.0666667 52:0.0833333 53:0.0833333 56:0.166667 59:0.0833333 60:0.111111 61:0.0897436 63:0.166667 64:0.107143 65:0.0697674 66:0.0777778 67:0.111111 68:0.0462963 70:0.166667 71:0.0775862 73:0.0833333 74:0.104938 75:0.1 76:0.0833333 77:0.05 78:0.166667 79:0.0238095 80:0.0333333 82:0.106667 83:0.0833333 85:0.166667 86:0.0851064 87:0.166667 90:0.0984848 92:0.166667 93:0.111111 94:0.166667 95:0.0833333 96:0.166667 97:0.0833333 98:0.111111 102:0.0757576 104:0.0833333 105:0.166667 107:0.0833333 109:0.0641026 110:0.0952381 111:0.0833333 112:0.125 
1 0 0 0 5:0.0325147 6:0.0308123 8:0.0316742 10:0.0294118 11:0.0366442 12:0.0294118 14:0.0196078 17:0.0294118 18:0.0313725 19:0.0588235 20:0.0588235 21:0.0242215 23:0.0588235 24:0.0294118 25:0.0294118 27:0.0235294 28:0.0588235 29:0.0294118 30:0.0245098 31:0.0359477 33:0.0294118 35:0.0316742 36:0.0457516 37:0.0359477 38:0.0294118 39:0.0294118 40:0.0255754 41:0.0588235 43:0.0196078 44:0.0588235 45:0.0220588 46:0.0330882 47:0.0252101 49:0.0235294 51:0.0588235 52:0.0294118 53:0.0294118 56:0.0588235 59:0.0294118 60:0.0392157 61:0.0316742 63:0.0588235 64:0.0378151 65:0.0259918 66:0.0313725 67:0.0392157 68:0.0163399 70:0.0588235 71:0.0273834 73:0.0588235 74:0.0392157 75:0.0352941 76:0.0294118 77:0.0176471 78:0.0588235 79:0.00840336 80:0.0117647 82:0.0376471 83:0.0328054 84:0.0294118 85:0.0588235 86:0.0300375 87:0.0588235 90:0.040107 92:0.0588235 93:0.0392157 94:0.0588235 95:0.0294118 96:0.0588235 97:0.0294118 98:0.0392157 102:0.0294118 104:0.0294118 105:0.0588235 107:0.0294118 109:0.0226244 110:0.0336134 111:0.0343137 112:0.0441176 
1 0 0 0 1:0.0588235 4:0.0588235 5:0.0325147 6:0.0308123 8:0.0316742 10:0.0294118 11:0.0366442 12:0.0294118 14:0.0196078 17:0.0294118 18:0.0313725 19:0.0588235 20:0.0588235 21:0.0242215 22:0.0294118 23:0.0588235 24:0.0294118 25:0.0294118 26:0.0588235 27:0.0352941 28:0.0588235 29:0.0294118 30:0.0294118 31:0.0375817 33:0.0294118 35:0.0316742 36:0.0457516 37:0.0359477 38:0.0336134 39:0.0294118 40:0.0255754 41:0.0588235 43:0.0196078 44:0.0588235 45:0.0220588 46:0.0330882 47:0.0252101 49:0.0235294 51:0.0588235 52:0.0294118 53:0.0294118 56:0.0588235 59:0.0294118 60:0.0392157 61:0.0316742 63:0.0588235 64:0.0378151 65:0.0259918 66:0.0313725 67:0.0392157 68:0.0163399 70:0.0588235 71:0.0294118 73:0.0588235 74:0.0392157 75:0.0352941 76:0.0294118 77:0.0176471 78:0.0588235 79:0.00840336 80:0.0117647 81:0.0588235 82:0.0376471 83:0.0339367 84:0.0294118 85:0.0588235 86:0.0300375 87:0.0588235 89:0.0588235 90:0.040107 92:0.0588235 93:0.0392157 94:0.0588235 95:0.0294118 96:0.0588235 97:0.0294118 98:0.0392157 102:0.0294118 104:0.0294118 105:0.0588235 107:0.0294118 109:0.0226244 110:0.0336134 111:0.0343137 112:0.0441176 
0 0.07629150576774425 0 0 1:0.333333 4:0.333333 5:0.188458 6:0.174603 8:0.179487 10:0.166667 11:0.20765 12:0.166667 14:0.111111 17:0.166667 18:0.177778 19:0.333333 20:0.333333 21:0.137255 22:0.166667 23:0.333333 24:0.166667 25:0.166667 26:0.333333 27:0.2 28:0.333333 29:0.166667 30:0.166667 31:0.212963 33:0.166667 35:0.179487 36:0.259259 37:0.203704 38:0.190476 39:0.166667 40:0.144928 41:0.333333 43:0.111111 44:0.333333 45:0.125 46:0.1875 47:0.142857 49:0.133333 51:0.333333 52:0.166667 53:0.166667 56:0.333333 59:0.166667 60:0.222222 61:0.179487 63:0.333333 64:0.214286 65:0.147287 66:0.177778 67:0.222222 68:0.0925926 70:0.333333 71:0.166667 73:0.333333 74:0.222222 75:0.2 76:0.166667 77:0.1 78:0.333333 79:0.047619 80:0.0666667 81:0.333333 82:0.213333 83:0.192308 84:0.166667 85:0.333333 86:0.170213 87:0.333333 89:0.333333 90:0.227273 92:0.333333 93:0.222222 94:0.333333 95:0.166667 96:0.333333 97:0.166667 98:0.222222 102:0.166667 104:0.166667 105:0.333333 107:0.166667 109:0.128205 110:0.190476 111:0.194444 112:0.25 
0.5322287876926832 0 0 0 1:1 4:1 5:0.567178 6:0.52381 8:0.538462 10:0.5 11:0.622951 12:0.5 14:0.333333 17:0.5 18:0.533333 19:1 20:1 21:0.470588 22:0.5 23:1 24:0.5 25:0.5 26:1 27:0.6 28:1 29:0.5 30:0.5 31:0.638889 33:0.5 35:0.538462 36:0.777778 37:0.611111 38:0.571429 39:0.5 40:0.434783 41:1 43:0.333333 44:1 45:0.375 46:0.5625 47:0.428571 49:0.4 51:1 52:0.5 53:0.5 56:1 59:0.5 60:0.666667 61:0.538462 63:1 64:0.642857 65:0.44186 66:0.533333 67:0.666667 68:0.277778 70:1 71:0.5 73:1 74:0.666667 75:0.6 76:0.5 77:0.3 78:1 79:0.142857 80:0.2 81:1 82:0.64 83:0.576923 84:0.5 85:1 86:0.510638 87:1 89:1 90:0.681818 92:1 93:0.666667 94:1 95:0.5 96:1 97:0.5 98:0.666667 102:0.5 104:0.5 105:1 107:0.5 109:0.384615 110:0.571429 111:0.583333 112:0.75 
1 0 0 0 1:0.0526316 4:0.0526316 5:0.0289972 6:0.0275689 8:0.0283401 10:0.0263158 11:0.0327869 12:0.0263158 14:0.0233918 17:0.0263158 18:0.0315789 19:0.0526316 20:0.0526316 21:0.0247678 22:0.0263158 23:0.0526316 24:0.0263158 25:0.0263158 26:0.0526316 27:0.0315789 28:0.0526316 29:0.0263158 30:0.0263158 31:0.0350877 33:0.0263158 35:0.0283401 36:0.0409357 37:0.0321637 38:0.0300752 39:0.0263158 40:0.0228833 41:0.0526316 43:0.0175439 44:0.0526316 45:0.0197368 46:0.0296053 47:0.0225564 49:0.0210526 51:0.0526316 52:0.0263158 53:0.0263158 56:0.0526316 59:0.0263158 60:0.0350877 61:0.0283401 63:0.0526316 64:0.0338346 65:0.0244798 66:0.0280702 67:0.0350877 68:0.0146199 70:0.0526316 71:0.0263158 73:0.0526316 74:0.0350877 75:0.0315789 76:0.0263158 77:0.0210526 78:0.0526316 79:0.0075188 80:0.0105263 81:0.0526316 82:0.0336842 83:0.0303644 84:0.0263158 85:0.0526316 86:0.0268757 87:0.0526316 89:0.0526316 90:0.0358852 92:0.0526316 93:0.0350877 94:0.0526316 95:0.0263158 96:0.0526316 97:0.0263158 98:0.0350877 102:0.0263158 104:0.0263158 105:0.0526316 107:0.0263158 109:0.0242915 110:0.0300752 111:0.0307018 112:0.0394737 
0 0.07479598823426777 0 0 1:0.333333 4:0.333333 5:0.188458 6:0.174603 8:0.179487 10:0.166667 11:0.20765 12:0.166667 14:0.148148 17:0.166667 18:0.2 19:0.333333 20:0.333333 21:0.176471 22:0.166667 23:0.333333 24:0.166667 25:0.166667 26:0.333333 27:0.2 28:0.333333 29:0.166667 30:0.166667 31:0.231481 33:0.166667 35:0.183761 36:0.259259 37:0.203704 38:0.190476 39:0.166667 40:0.144928 41:0.333333 43:0.111111 44:0.333333 45:0.125 46:0.1875 47:0.142857 49:0.133333 51:0.333333 52:0.166667 53:0.166667 56:0.333333 59:0.166667 60:0.222222 61:0.179487 63:0.333333 64:0.214286 65:0.155039 66:0.177778 67:0.222222 68:0.0925926 70:0.333333 71:0.166667 73:0.333333 74:0.222222 75:0.2 76:0.166667 77:0.133333 78:0.333333 79:0.047619 80:0.0666667 81:0.333333 82:0.213333 83:0.192308 84:0.166667 85:0.333333 86:0.170213 87:0.333333 89:0.333333 90:0.227273 92:0.333333 93:0.222222 94:0.333333 95:0.166667 96:0.333333 97:0.166667 98:0.222222 102:0.166667 104:0.166667 105:0.333333 107:0.166667 109:0.153846 110:0.190476 111:0.194444 112:0.25 
0.7172994243956976 0.1059379146370022 0 0 1:0.25 4:0.25 5:0.141118 6:0.130952 8:0.134615 10:0.125 11:0.155738 12:0.125 14:0.111111 17:0.125 18:0.15 19:0.25 20:0.25 21:0.132353 22:0.125 23:0.25 24:0.125 25:0.125 26:0.25 27:0.15 28:0.25 29:0.125 30:0.125 31:0.173611 33:0.125 35:0.137821 36:0.194444 37:0.152778 38:0.142857 39:0.125 40:0.108696 41:0.25 43:0.0833333 44:0.25 45:0.09375 46:0.140625 47:0.107143 49:0.1 51:0.25 52:0.125 53:0.125 56:0.25 59:0.125 60:0.166667 61:0.134615 63:0.25 64:0.160714 65:0.116279 66:0.133333 67:0.166667 68:0.0694444 70:0.25 71:0.125 73:0.25 74:0.166667 75:0.15 76:0.125 77:0.1 78:0.25 79:0.0357143 80:0.05 81:0.25 82:0.16 83:0.144231 84:0.125 85:0.25 86:0.12766 87:0.25 89:0.25 90:0.170455 92:0.25 93:0.166667 94:0.25 95:0.125 96:0.25 97:0.125 98:0.166667 102:0.125 104:0.125 105:0.25 107:0.125 109:0.115385 110:0.142857 111:0.145833 112:0.1875 
1 0 0 0 1:0.111111 4:0.111111 5:0.0622182 6:0.0582011 8:0.0598291 10:0.0555556 11:0.0692168 12:0.0555556 14:0.0493827 17:0.0555556 18:0.0666667 19:0.111111 20:0.111111 21:0.0588235 22:0.0555556 23:0.111111 24:0.0555556 25:0.0555556 26:0.111111 27:0.0666667 28:0.111111 29:0.0555556 30:0.0555556 31:0.0771605 33:0.0555556 35:0.0626781 36:0.0864198 37:0.0679012 38:0.0634921 39:0.0555556 40:0.0483092 41:0.111111 43:0.037037 44:0.111111 45:0.0416667 46:0.0625 47:0.047619 49:0.0444444 51:0.111111 52:0.0555556 53:0.0555556 56:0.111111 59:0.0555556 60:0.0740741 61:0.0598291 63:0.111111 64:0.0714286 65:0.0516796 66:0.0592593 67:0.0740741 68:0.0308642 70:0.111111 71:0.0555556 73:0.111111 74:0.0740741 75:0.0666667 76:0.0555556 77:0.0444444 78:0.111111 79:0.015873 80:0.0222222 81:0.111111 82:0.0711111 83:0.0641026 84:0.0555556 85:0.111111 86:0.0567376 87:0.111111 89:0.111111 90:0.0757576 92:0.111111 93:0.0740741 94:0.111111 95:0.0555556 96:0.111111 97:0.0555556 98:0.0740741 102:0.0555556 104:0.0555556 105:0.111111 107:0.0555556 109:0.0512821 110:0.0634921 111:0.0648148 112:0.0972222 
0 0.1624577596331593 0 0 1:0.5 4:0.5 5:0.283138 6:0.285714 8:0.269231 10:0.25 11:0.311475 12:0.25 14:0.222222 17:0.25 18:0.333333 19:0.5 20:0.5 21:0.264706 22:0.25 23:0.5 24:0.25 25:0.25 26:0.5 27:0.3 28:0.5 29:0.25 30:0.25 31:0.347222 33:0.25 35:0.288462 36:0.388889 37:0.305556 38:0.285714 39:0.25 40:0.217391 41:0.5 43:0.166667 44:0.5 45:0.1875 46:0.28125 47:0.214286 49:0.2 51:0.5 52:0.25 53:0.25 56:0.5 57:0.5 59:0.25 60:0.333333 61:0.269231 63:0.5 64:0.321429 65:0.232558 66:0.266667 67:0.333333 68:0.138889 70:0.5 71:0.258621 73:0.5 74:0.333333 75:0.3 76:0.25 77:0.25 78:0.5 79:0.0714286 80:0.1 81:0.5 82:0.32 83:0.288462 84:0.25 85:0.5 86:0.265957 87:0.5 89:0.5 90:0.340909 92:0.5 93:0.333333 94:0.5 95:0.25 96:0.5 97:0.25 98:0.333333 102:0.25 104:0.25 105:0.5 107:0.25 109:0.230769 110:0.285714 111:0.291667 112:0.4375 
0.07213554856237144 0 0 0 1:1 4:1 5:0.567178 6:0.571429 8:0.538462 10:0.5 11:0.688525 12:0.5 14:0.444444 17:0.5 18:0.733333 19:1 20:1 21:0.529412 22:0.5 23:1 24:0.5 25:0.5 26:1 27:0.6 28:1 29:0.5 30:0.5 31:0.694444 33:0.5 35:0.576923 36:0.777778 37:0.666667 38:0.571429 39:0.5 40:0.434783 41:1 43:0.333333 44:1 45:0.375 46:0.625 47:0.428571 49:0.4 51:1 52:0.5 53:0.5 56:1 57:1 58:1 59:0.5 60:0.666667 61:0.538462 63:1 64:0.642857 65:0.465116 66:0.533333 67:0.666667 68:0.277778 70:1 71:0.517241 73:1 74:0.740741 75:0.6 76:0.5 77:0.5 78:1 79:0.142857 80:0.2 81:1 82:0.64 83:0.596154 84:0.5 85:1 86:0.531915 87:1 89:1 90:0.681818 92:1 93:0.666667 94:1 95:0.5 96:1 97:0.5 98:0.666667 102:0.5 104:0.5 105:1 107:0.5 109:0.461538 110:0.571429 111:0.583333 112:0.875 
0 0.1738030875435201 0 0 1:0.333333 4:0.333333 5:0.188458 6:0.190476 8:0.179487 10:0.166667 11:0.229508 12:0.166667 14:0.148148 17:0.166667 18:0.244444 19:0.333333 20:0.333333 21:0.196078 22:0.166667 23:0.333333 24:0.166667 25:0.166667 26:0.333333 27:0.2 28:0.333333 29:0.166667 30:0.166667 31:0.240741 33:0.166667 35:0.196581 36:0.259259 37:0.222222 38:0.190476 39:0.166667 40:0.144928 41:0.333333 43:0.111111 44:0.333333 45:0.125 46:0.208333 47:0.142857 49:0.133333 51:0.333333 52:0.166667 53:0.166667 56:0.333333 57:0.333333 58:0.333333 59:0.166667 60:0.222222 61:0.179487 63:0.333333 64:0.214286 65:0.155039 66:0.177778 67:0.222222 68:0.0925926 70:0.333333 71:0.183908 73:0.333333 74:0.246914 75:0.2 76:0.166667 77:0.166667 78:0.333333 79:0.047619 80:0.0666667 81:0.333333 82:0.213333 83:0.205128 84:0.166667 85:0.333333 86:0.177305 87:0.333333 89:0.333333 90:0.227273 92:0.333333 93:0.222222 94:0.333333 95:0.166667 96:0.333333 97:0.166667 98:0.222222 102:0.166667 104:0.166667 105:0.333333 107:0.166667 109:0.153846 110:0.190476 111:0.194444 112:0.291667 
0.8392973970933678 0 0 0 1:0.0416667 4:0.0416667 5:0.0227683 6:0.0238095 8:0.0224359 9:0.0138889 10:0.0208333 11:0.0314208 12:0.0416667 13:0.0138889 14:0.0231481 17:0.0208333 18:0.0333333 19:0.0416667 20:0.0416667 21:0.0294118 22:0.0208333 23:0.0416667 24:0.0208333 25:0.0208333 26:0.0416667 27:0.025 28:0.0416667 29:0.0208333 30:0.0208333 31:0.0300926 33:0.0208333 35:0.0261752 36:0.0324074 37:0.0300926 38:0.0238095 39:0.0208333 40:0.0235507 41:0.0416667 43:0.0138889 44:0.0416667 45:0.0182292 46:0.0351563 47:0.0178571 49:0.025 51:0.0416667 52:0.0208333 53:0.0416667 56:0.0416667 57:0.0416667 58:0.0416667 59:0.0208333 60:0.0277778 61:0.025641 63:0.0416667 64:0.0267857 65:0.0193798 66:0.0222222 67:0.0277778 68:0.0115741 70:0.0416667 71:0.0251437 73:0.0416667 74:0.0339506 75:0.025 76:0.0208333 77:0.025 78:0.0416667 79:0.00595238 80:0.0166667 81:0.0416667 82:0.0266667 83:0.0272436 84:0.0208333 85:0.0416667 86:0.0239362 87:0.0416667 89:0.0416667 90:0.030303 92:0.0416667 93:0.0277778 94:0.0416667 95:0.0208333 96:0.0416667 97:0.0208333 98:0.0277778 102:0.0208333 104:0.0208333 105:0.0416667 107:0.0208333 109:0.0192308 110:0.0238095 111:0.0243056 112:0.0364583 
0 0.8174836506168592 0 0 1:0.333333 4:0.333333 5:0.188458 6:0.190476 8:0.179487 9:0.111111 10:0.166667 11:0.251366 12:0.333333 13:0.111111 14:0.185185 17:0.166667 18:0.266667 19:0.333333 20:0.333333 21:0.235294 22:0.166667 23:0.333333 24:0.166667 25:0.166667 26:0.333333 27:0.2 28:0.333333 29:0.166667 30:0.166667 31:0.25 33:0.166667 35:0.209402 36:0.259259 37:0.240741 38:0.190476 39:0.166667 40:0.188406 41:0.333333 43:0.111111 44:0.333333 45:0.145833 46:0.28125 47:0.142857 49:0.2 51:0.333333 52:0.166667 53:0.333333 56:0.333333 57:0.333333 58:0.333333 59:0.166667 60:0.222222 61:0.205128 63:0.333333 64:0.214286 65:0.170543 66:0.177778 67:0.222222 68:0.0925926 70:0.333333 71:0.201149 73:0.333333 74:0.271605 75:0.2 76:0.166667 77:0.2 78:0.333333 79:0.047619 80:0.133333 81:0.333333 82:0.213333 83:0.217949 84:0.166667 85:0.333333 86:0.191489 87:0.333333 89:0.333333 90:0.242424 92:0.333333 93:0.222222 94:0.333333 95:0.166667 96:0.333333 97:0.166667 98:0.222222 102:0.181818 103:0.333333 104:0.166667 105:0.333333 107:0.166667 109:0.153846 110:0.190476 111:0.194444 112:0.291667 
0.3669153180284114 0 0 0 1:1 4:1 5:0.567178 6:0.571429 8:0.538462 9:0.333333 10:0.5 11:0.754098 12:1 13:0.333333 14:0.666667 17:0.5 18:0.8 19:1 20:1 21:0.705882 22:0.5 23:1 24:0.5 25:0.5 26:1 27:0.6 28:1 29:0.5 30:0.5 31:0.777778 33:0.5 35:0.653846 36:0.777778 37:0.722222 38:0.571429 39:0.5 40:0.652174 41:1 43:0.333333 44:1 45:0.4375 46:0.84375 47:0.428571 49:0.6 51:1 52:1 53:1 55:0.142857 56:1 57:1 58:1 59:0.5 60:0.666667 61:0.615385 63:1 64:0.642857 65:0.511628 66:0.6 67:0.666667 68:0.277778 70:1 71:0.637931 73:1 74:0.814815 75:0.6 76:0.5 77:0.7 78:1 79:0.142857 80:0.4 81:1 82:0.64 83:0.673077 84:0.5 85:1 86:0.595745 87:1 89:1 90:0.772727 92:1 93:0.666667 94:1 95:0.5 96:1 97:0.5 98:0.666667 102:0.545455 103:1 104:0.5 105:1 107:0.5 109:0.461538 110:0.571429 111:0.583333 112:0.875 
0 0.3030549529651893 0 0 1:0.142857 2:0.142857 4:0.142857 5:0.0918459 6:0.0816327 8:0.0769231 9:0.047619 10:0.107143 11:0.112412 12:0.142857 13:0.047619 14:0.0952381 17:0.0714286 18:0.114286 19:0.142857 20:0.142857 21:0.10084 22:0.0714286 23:0.142857 24:0.0714286 25:0.107143 26:0.142857 27:0.0857143 28:0.142857 29:0.0714286 30:0.0714286 31:0.111111 33:0.0714286 35:0.0989011 36:0.111111 37:0.107143 38:0.0918367 39:0.0714286 40:0.0931677 41:0.142857 43:0.047619 44:0.142857 45:0.0625 46:0.125 47:0.0612245 49:0.0857143 51:0.142857 52:0.142857 53:0.142857 54:0.142857 55:0.0204082 56:0.142857 57:0.142857 58:0.142857 59:0.0714286 60:0.0952381 61:0.0989011 63:0.142857 64:0.0918367 65:0.076412 66:0.0857143 67:0.0952381 68:0.0555556 70:0.142857 71:0.091133 73:0.142857 74:0.121693 75:0.0857143 76:0.0714286 77:0.1 78:0.142857 79:0.0204082 80:0.0571429 81:0.142857 82:0.0914286 83:0.0989011 84:0.0714286 85:0.142857 86:0.0881459 87:0.142857 89:0.142857 90:0.11039 91:0.142857 92:0.142857 93:0.0952381 94:0.142857 95:0.0714286 96:0.142857 97:0.0714286 98:0.0952381 102:0.0909091 103:0.142857 104:0.0714286 105:0.142857 107:0.0714286 109:0.0659341 110:0.0816327 111:0.0833333 112:0.125 
0 1 0 0 1:0.2 2:0.2 4:0.2 5:0.134355 6:0.114286 8:0.107692 9:0.0666667 10:0.15 11:0.157377 12:0.2 13:0.0666667 14:0.155556 17:0.1 18:0.173333 19:0.2 20:0.2 21:0.141176 22:0.1 23:0.2 24:0.1 25:0.15 26:0.2 27:0.12 28:0.2 29:0.1 30:0.1 31:0.155556 33:0.1 35:0.138462 36:0.155556 37:0.15 38:0.128571 39:0.1 40:0.130435 41:0.2 43:0.0666667 44:0.2 45:0.0875 46:0.175 47:0.0857143 49:0.12 51:0.2 52:0.2 53:0.2 54:0.2 55:0.0285714 56:0.2 57:0.2 58:0.2 59:0.1 60:0.15 61:0.153846 63:0.2 64:0.128571 65:0.106977 66:0.133333 67:0.133333 68:0.0777778 70:0.2 71:0.131034 73:0.2 74:0.17037 75:0.12 76:0.1 77:0.16 78:0.2 79:0.0285714 80:0.08 81:0.2 82:0.128 83:0.142308 84:0.1 85:0.2 86:0.123404 87:0.2 89:0.2 90:0.154545 91:0.2 92:0.2 93:0.133333 94:0.2 95:0.1 96:0.2 97:0.1 98:0.133333 102:0.127273 103:0.2 104:0.1 105:0.2 107:0.1 109:0.107692 110:0.114286 111:0.116667 112:0.175 
1 0 0 0 1:1 2:1 4:1 5:0.675383 6:0.619048 8:0.538462 9:0.333333 10:0.75 11:0.786885 12:1 13:0.333333 14:0.777778 17:0.5 18:0.866667 19:1 20:1 21:0.705882 22:0.5 23:1 24:0.5 25:0.75 26:1 27:0.6 28:1 29:0.5 30:0.5 31:0.777778 33:0.5 35:0.692308 36:0.777778 37:0.75 38:0.642857 39:0.5 40:0.652174 41:1 43:0.333333 44:1 45:0.4375 46:0.875 47:0.428571 49:0.6 51:1 52:1 53:1 54:1 55:0.142857 56:1 57:1 58:1 59:0.5 60:0.75 61:0.769231 63:1 64:0.642857 65:0.534884 66:0.666667 67:0.666667 68:0.388889 70:1 71:0.655172 73:1 74:0.851852 75:0.6 76:0.5 77:0.8 78:1 79:0.142857 80:0.4 81:1 82:0.64 83:0.711538 84:0.5 85:1 86:0.617021 87:1 89:1 90:0.772727 91:1 92:1 93:0.666667 94:1 95:0.5 96:1 97:0.5 98:0.666667 102:0.636364 103:1 104:0.5 105:1 107:0.5 109:0.538462 110:0.571429 111:0.583333 112:0.875 
0 0.6943914472041284 0 0 1:0.142857 2:0.142857 4:0.142857 5:0.0957104 6:0.0884354 8:0.0769231 9:0.047619 10:0.107143 11:0.112412 12:0.142857 13:0.047619 14:0.111111 17:0.0714286 18:0.12381 19:0.142857 20:0.142857 21:0.10084 22:0.0714286 23:0.142857 24:0.0714286 25:0.107143 26:0.142857 27:0.0857143 28:0.142857 29:0.0714286 30:0.0714286 31:0.111111 33:0.0714286 35:0.0989011 36:0.111111 37:0.111111 38:0.0918367 39:0.0714286 40:0.0931677 41:0.142857 43:0.047619 44:0.142857 45:0.0714286 46:0.125 47:0.0612245 49:0.0857143 51:0.142857 52:0.142857 53:0.142857 54:0.142857 55:0.0204082 56:0.142857 57:0.142857 58:0.142857 59:0.0714286 60:0.107143 61:0.10989 63:0.142857 64:0.0918367 65:0.076412 66:0.0952381 67:0.0952381 68:0.0555556 70:0.142857 71:0.0935961 73:0.142857 74:0.121693 75:0.0857143 76:0.0714286 77:0.114286 78:0.142857 79:0.0204082 80:0.0857143 81:0.142857 82:0.0914286 83:0.101648 84:0.0714286 85:0.142857 86:0.0881459 87:0.142857 89:0.142857 90:0.11039 91:0.142857 92:0.142857 93:0.0952381 94:0.142857 95:0.0714286 96:0.142857 97:0.0714286 98:0.0952381 102:0.0974026 103:0.142857 104:0.0714286 105:0.142857 107:0.0714286 109:0.0769231 110:0.0816327 111:0.0833333 112:0.125 
0 0.3804569251892942 0 0 1:0.2 2:0.2 4:0.2 5:0.134355 6:0.12381 8:0.107692 9:0.0666667 10:0.15 11:0.157377 12:0.2 13:0.0666667 14:0.155556 17:0.1 18:0.173333 19:0.2 20:0.2 21:0.141176 22:0.2 23:0.2 24:0.1 25:0.15 26:0.2 27:0.12 28:0.2 29:0.2 30:0.1 31:0.155556 33:0.1 35:0.138462 36:0.155556 37:0.155556 38:0.128571 39:0.1 40:0.130435 41:0.2 43:0.0666667 44:0.2 45:0.1 46:0.175 47:0.114286 49:0.16 51:0.2 52:0.2 53:0.2 54:0.2 55:0.0571429 56:0.2 57:0.2 58:0.2 59:0.1 60:0.15 61:0.153846 63:0.2 64:0.128571 65:0.106977 66:0.133333 67:0.133333 68:0.0777778 70:0.2 71:0.134483 73:0.2 74:0.17037 75:0.12 76:0.1 77:0.16 78:0.2 79:0.0285714 80:0.12 81:0.2 82:0.128 83:0.142308 84:0.1 85:0.2 86:0.123404 87:0.2 89:0.2 90:0.154545 91:0.2 92:0.2 93:0.133333 94:0.2 95:0.1 96:0.2 97:0.1 98:0.133333 102:0.136364 103:0.2 104:0.1 105:0.2 107:0.1 109:0.107692 110:0.142857 111:0.116667 112:0.175 
0 0 0.1532018287023063 0 1:0.2 2:0.2 4:0.2 5:0.134355 6:0.12381 7:0.2 8:0.107692 9:0.133333 10:0.15 11:0.157377 12:0.2 13:0.0666667 14:0.155556 16:0.2 17:0.1 18:0.173333 19:0.2 20:0.2 21:0.141176 22:0.2 23:0.2 24:0.1 25:0.15 26:0.2 27:0.12 28:0.2 29:0.2 30:0.1 31:0.155556 33:0.1 35:0.138462 36:0.177778 37:0.155556 38:0.128571 39:0.1 40:0.130435 41:0.2 43:0.0666667 44:0.2 45:0.1 46:0.175 47:0.142857 49:0.16 51:0.2 52:0.2 53:0.2 54:0.2 55:0.0571429 56:0.2 57:0.2 58:0.2 59:0.1 60:0.15 61:0.153846 62:0.1 63:0.2 64:0.128571 65:0.106977 66:0.133333 67:0.133333 68:0.0777778 70:0.2 71:0.141379 73:0.2 74:0.17037 75:0.12 76:0.1 77:0.16 78:0.2 79:0.0285714 80:0.16 81:0.2 82:0.128 83:0.142308 84:0.1 85:0.2 86:0.123404 87:0.2 89:0.2 90:0.163636 91:0.2 92:0.2 93:0.133333 94:0.2 95:0.1 96:0.2 97:0.1 98:0.133333 99:0.2 101:0.1 102:0.136364 103:0.2 104:0.1 105:0.2 107:0.1 109:0.107692 110:0.142857 111:0.116667 112:0.175 
1 0.5942021422363834 0.3234601693363421 0 1:0.333333 2:0.333333 4:0.333333 5:0.224527 6:0.206349 7:0.333333 8:0.179487 9:0.222222 10:0.25 11:0.262295 12:0.333333 13:0.111111 14:0.259259 16:0.333333 17:0.166667 18:0.288889 19:0.333333 20:0.333333 21:0.235294 22:0.333333 23:0.333333 24:0.166667 25:0.25 26:0.333333 27:0.2 28:0.333333 29:0.333333 30:0.166667 31:0.259259 33:0.166667 35:0.230769 36:0.296296 37:0.259259 38:0.214286 39:0.166667 40:0.217391 41:0.333333 43:0.111111 44:0.333333 45:0.166667 46:0.291667 47:0.238095 49:0.266667 51:0.333333 52:0.333333 53:0.333333 54:0.333333 55:0.0952381 56:0.333333 57:0.333333 58:0.333333 59:0.166667 60:0.25 61:0.25641 62:0.166667 63:0.333333 64:0.214286 65:0.178295 66:0.222222 67:0.222222 68:0.12963 70:0.333333 71:0.235632 73:0.333333 74:0.283951 75:0.2 76:0.166667 77:0.266667 78:0.333333 79:0.047619 80:0.266667 81:0.333333 82:0.213333 83:0.237179 84:0.166667 85:0.333333 86:0.205674 87:0.333333 89:0.333333 90:0.272727 91:0.333333 92:0.333333 93:0.222222 94:0.333333 95:0.166667 96:0.333333 97:0.166667 98:0.222222 99:0.333333 101:0.166667 102:0.227273 103:0.333333 104:0.166667 105:0.333333 107:0.166667 109:0.179487 110:0.238095 111:0.194444 112:0.291667 
1 0 0 0 1:0.333333 2:0.333333 4:0.333333 5:0.233544 6:0.222222 7:0.333333 8:0.179487 9:0.222222 10:0.25 11:0.262295 12:0.333333 13:0.111111 14:0.296296 16:0.333333 17:0.166667 18:0.288889 19:0.333333 20:0.333333 21:0.254902 22:0.333333 23:0.333333 24:0.166667 25:0.25 26:0.333333 27:0.2 28:0.333333 29:0.333333 30:0.194444 31:0.268519 33:0.166667 35:0.239316 36:0.296296 37:0.259259 38:0.214286 39:0.166667 40:0.217391 41:0.333333 43:0.111111 44:0.333333 45:0.1875 46:0.291667 47:0.238095 49:0.266667 51:0.333333 52:0.333333 53:0.333333 54:0.333333 55:0.0952381 56:0.333333 57:0.333333 58:0.333333 59:0.166667 60:0.25 61:0.25641 62:0.166667 63:0.333333 64:0.214286 65:0.178295 66:0.222222 67:0.222222 68:0.12963 70:0.333333 71:0.235632 73:0.333333 74:0.283951 75:0.2 76:0.166667 77:0.266667 78:0.333333 79:0.047619 80:0.266667 81:0.333333 82:0.213333 83:0.25 84:0.166667 85:0.333333 86:0.205674 87:0.333333 89:0.333333 90:0.287879 91:0.333333 92:0.333333 93:0.222222 94:0.333333 95:0.166667 96:0.333333 97:0.166667 98:0.222222 99:0.333333 101:0.166667 102:0.242424 103:0.333333 104:0.166667 105:0.333333 107:0.166667 109:0.205128 110:0.285714 111:0.194444 112:0.291667 
1 0 0 0 1:0.5 2:0.5 4:0.5 5:0.350766 6:0.333333 7:0.5 8:0.269231 9:0.333333 10:0.375 11:0.401639 12:0.5 13:0.166667 14:0.444444 16:0.5 17:0.25 18:0.433333 19:0.5 20:0.5 21:0.382353 22:0.5 23:0.5 24:0.25 25:0.5 26:0.5 27:0.3 28:0.5 29:0.5 30:0.291667 31:0.402778 33:0.25 35:0.358974 36:0.444444 37:0.402778 38:0.321429 39:0.25 40:0.326087 41:0.5 43:0.166667 44:0.5 45:0.28125 46:0.4375 47:0.357143 49:0.4 51:0.5 52:0.5 53:0.5 54:0.5 55:0.142857 56:0.5 57:0.5 58:0.5 59:0.25 60:0.375 61:0.384615 62:0.25 63:0.5 64:0.357143 65:0.267442 66:0.333333 67:0.333333 68:0.194444 70:0.5 71:0.353448 73:0.5 74:0.425926 75:0.3 76:0.25 77:0.4 78:0.5 79:0.142857 80:0.4 81:0.5 82:0.32 83:0.375 84:0.25 85:0.5 86:0.308511 87:0.5 89:0.5 90:0.431818 91:0.5 92:0.5 93:0.333333 94:0.5 95:0.25 96:0.5 97:0.25 98:0.333333 99:0.5 101:0.25 102:0.363636 103:0.5 104:0.25 105:0.5 107:0.25 109:0.307692 110:0.428571 111:0.291667 112:0.4375 
1 0.2385767430630217 0 0 1:0.5 2:0.5 4:0.5 5:0.404869 6:0.333333 7:0.5 8:0.307692 9:0.333333 10:0.375 11:0.42623 12:0.5 13:0.166667 14:0.444444 16:0.5 17:0.25 18:0.433333 19:0.5 20:0.5 21:0.382353 22:0.5 23:0.5 24:0.25 25:0.5 26:0.5 27:0.3 28:0.5 29:0.5 30:0.333333 31:0.402778 33:0.25 35:0.371795 36:0.444444 37:0.430556 38:0.321429 39:0.25 40:0.326087 41:0.5 43:0.166667 44:0.5 45:0.28125 46:0.453125 47:0.357143 49:0.4 51:0.5 52:0.5 53:0.5 54:0.5 55:0.142857 56:0.5 57:0.5 58:0.5 59:0.25 60:0.375 61:0.423077 62:0.25 63:0.5 64:0.357143 65:0.267442 66:0.333333 67:0.333333 68:0.194444 70:0.5 71:0.362069 73:0.5 74:0.444444 75:0.3 76:0.25 77:0.4 78:0.5 79:0.142857 80:0.4 81:0.5 82:0.32 83:0.375 84:0.25 85:0.5 86:0.340426 87:0.5 89:0.5 90:0.431818 91:0.5 92:0.5 93:0.333333 94:0.5 95:0.25 96:0.5 97:0.25 98:0.333333 99:0.5 101:0.25 102:0.363636 103:0.5 104:0.25 105:0.5 107:0.25 109:0.307692 110:0.428571 111:0.333333 112:0.4375 
0.2268480537575173 0 0 0 1:0.2 2:0.2 4:0.2 5:0.166817 6:0.133333 7:0.2 8:0.138462 9:0.133333 10:0.15 11:0.17377 12:0.2 13:0.0666667 14:0.177778 16:0.2 17:0.1 18:0.173333 19:0.2 20:0.2 21:0.164706 22:0.2 23:0.2 24:0.1 25:0.2 26:0.2 27:0.12 28:0.2 29:0.2 30:0.15 31:0.161111 33:0.1 35:0.153846 36:0.177778 37:0.177778 38:0.128571 39:0.1 40:0.13913 41:0.2 43:0.0666667 44:0.2 45:0.1125 46:0.18125 47:0.142857 49:0.16 51:0.2 52:0.2 53:0.2 54:0.2 55:0.0571429 56:0.2 57:0.2 58:0.2 59:0.1 60:0.15 61:0.169231 62:0.1 63:0.2 64:0.142857 65:0.12093 66:0.16 67:0.133333 68:0.122222 70:0.2 71:0.148276 73:0.2 74:0.177778 75:0.12 76:0.1 77:0.16 78:0.2 79:0.0571429 80:0.16 81:0.2 82:0.128 83:0.15 84:0.1 85:0.2 86:0.148936 87:0.2 89:0.2 90:0.172727 91:0.2 92:0.2 93:0.133333 94:0.2 95:0.1 96:0.2 97:0.1 98:0.2 99:0.2 101:0.2 102:0.163636 103:0.2 104:0.1 105:0.2 107:0.1 109:0.123077 110:0.171429 111:0.15 112:0.175 
0 1 0 0 1:0.047619 2:0.047619 4:0.047619 5:0.0390313 6:0.031746 7:0.047619 8:0.032967 9:0.031746 10:0.0357143 11:0.0413739 12:0.047619 13:0.015873 14:0.042328 15:0.047619 16:0.047619 17:0.0238095 18:0.0444444 19:0.047619 20:0.047619 21:0.0420168 22:0.047619 23:0.047619 24:0.0238095 25:0.047619 26:0.047619 27:0.0285714 28:0.047619 29:0.047619 30:0.0357143 31:0.0383598 32:0.047619 33:0.0238095 35:0.037851 36:0.042328 37:0.042328 38:0.0306122 39:0.047619 40:0.0331263 41:0.047619 42:0.047619 43:0.015873 44:0.047619 45:0.0267857 46:0.0431548 47:0.0340136 48:0.047619 49:0.0380952 51:0.047619 52:0.047619 53:0.047619 54:0.047619 55:0.0136054 56:0.047619 57:0.047619 58:0.047619 59:0.0238095 60:0.0357143 61:0.040293 62:0.0238095 63:0.047619 64:0.037415 65:0.0299003 66:0.0380952 67:0.031746 68:0.0291005 69:0.047619 70:0.047619 71:0.0353038 72:0.047619 73:0.047619 74:0.042328 75:0.0285714 76:0.0238095 77:0.0380952 78:0.047619 79:0.0136054 80:0.0380952 81:0.047619 82:0.032381 83:0.0357143 84:0.047619 85:0.047619 86:0.035461 87:0.047619 89:0.047619 90:0.0411255 91:0.047619 92:0.047619 93:0.031746 94:0.047619 95:0.0238095 96:0.047619 97:0.0238095 98:0.047619 99:0.047619 101:0.047619 102:0.038961 103:0.047619 104:0.0238095 105:0.047619 107:0.0238095 109:0.029304 110:0.0408163 111:0.0357143 112:0.0416667 
1 0 0 0 1:0.125 2:0.125 4:0.125 5:0.107304 6:0.0833333 7:0.125 8:0.0865385 9:0.0833333 10:0.09375 11:0.112705 12:0.125 13:0.0416667 14:0.111111 15:0.125 16:0.125 17:0.0625 18:0.116667 19:0.125 20:0.125 21:0.110294 22:0.125 23:0.125 24:0.0625 25:0.125 26:0.125 27:0.075 28:0.125 29:0.125 30:0.09375 31:0.100694 32:0.125 33:0.0625 34:0.125 35:0.100962 36:0.111111 37:0.114583 38:0.0803571 39:0.125 40:0.0923913 41:0.125 42:0.125 43:0.0416667 44:0.125 45:0.0703125 46:0.117188 47:0.0892857 48:0.125 49:0.1 51:0.125 52:0.125 53:0.125 54:0.125 55:0.0357143 56:0.125 57:0.125 58:0.125 59:0.0625 60:0.09375 61:0.105769 62:0.0625 63:0.125 64:0.0982143 65:0.0872093 66:0.1 67:0.0833333 68:0.0763889 69:0.125 70:0.125 71:0.0926724 72:0.125 73:0.125 74:0.115741 75:0.075 76:0.0625 77:0.1 78:0.125 79:0.0357143 80:0.1 81:0.125 82:0.09 83:0.09375 84:0.125 85:0.125 86:0.0957447 87:0.125 89:0.125 90:0.107955 91:0.125 92:0.125 93:0.0833333 94:0.125 95:0.0625 96:0.125 97:0.0625 98:0.125 99:0.125 101:0.125 102:0.102273 103:0.125 104:0.0625 105:0.125 107:0.0625 109:0.0769231 110:0.107143 111:0.09375 112:0.109375 
1 1 0 0 1:0.333333 2:0.333333 4:0.333333 5:0.287647 6:0.222222 7:0.333333 8:0.230769 9:0.222222 10:0.25 11:0.306011 12:0.333333 13:0.111111 14:0.296296 15:0.333333 16:0.333333 17:0.333333 18:0.311111 19:0.333333 20:0.333333 21:0.294118 22:0.333333 23:0.333333 24:0.333333 25:0.333333 26:0.333333 27:0.2 28:0.333333 29:0.333333 30:0.25 31:0.277778 32:0.333333 33:0.166667 34:0.333333 35:0.269231 36:0.296296 37:0.314815 38:0.261905 39:0.333333 40:0.246377 41:0.333333 42:0.333333 43:0.111111 44:0.333333 45:0.208333 46:0.322917 47:0.238095 48:0.333333 49:0.266667 51:0.333333 52:0.333333 53:0.333333 54:0.333333 55:0.0952381 56:0.333333 57:0.333333 58:0.333333 59:0.166667 60:0.25 61:0.282051 62:0.166667 63:0.333333 64:0.261905 65:0.232558 66:0.288889 67:0.222222 68:0.203704 69:0.333333 70:0.333333 71:0.247126 72:0.333333 73:0.333333 74:0.320988 75:0.2 76:0.166667 77:0.266667 78:0.333333 79:0.0952381 80:0.266667 81:0.333333 82:0.24 83:0.275641 84:0.333333 85:0.333333 86:0.255319 87:0.333333 89:0.333333 90:0.30303 91:0.333333 92:0.333333 93:0.222222 94:0.333333 95:0.166667 96:0.333333 97:0.166667 98:0.333333 99:0.333333 101:0.333333 102:0.272727 103:0.333333 104:0.166667 105:0.333333 107:0.166667 109:0.205128 110:0.285714 111:0.25 112:0.291667 
1 0 0 0 1:0.25 2:0.25 4:0.25 5:0.215509 6:0.166667 7:0.25 8:0.173077 9:0.166667 10:0.1875 11:0.229508 12:0.25 13:0.0833333 14:0.222222 15:0.25 16:0.25 17:0.25 18:0.233333 19:0.25 20:0.25 21:0.220588 22:0.25 23:0.25 24:0.25 25:0.25 26:0.25 27:0.15 28:0.25 29:0.25 30:0.1875 31:0.208333 32:0.25 33:0.125 34:0.25 35:0.201923 36:0.222222 37:0.236111 38:0.196429 39:0.25 40:0.184783 41:0.25 42:0.25 43:0.0833333 44:0.25 45:0.15625 46:0.242188 47:0.178571 48:0.25 49:0.2 51:0.25 52:0.25 53:0.25 54:0.25 55:0.0714286 56:0.25 57:0.25 58:0.25 59:0.125 60:0.1875 61:0.211538 62:0.125 63:0.25 64:0.196429 65:0.174419 66:0.216667 67:0.166667 68:0.152778 69:0.25 70:0.25 71:0.189655 72:0.25 73:0.25 74:0.240741 75:0.15 76:0.125 77:0.2 78:0.25 79:0.0714286 80:0.2 81:0.25 82:0.18 83:0.206731 84:0.25 85:0.25 86:0.191489 87:0.25 89:0.25 90:0.227273 91:0.25 92:0.25 93:0.166667 94:0.25 95:0.125 96:0.25 97:0.125 98:0.25 99:0.25 100:0.125 101:0.25 102:0.204545 103:0.25 104:0.125 105:0.25 107:0.125 109:0.153846 110:0.214286 111:0.1875 112:0.21875 
1 0 0 0 1:0.333333 2:0.333333 4:0.333333 5:0.287647 6:0.222222 7:0.333333 8:0.230769 9:0.222222 10:0.25 11:0.306011 12:0.333333 13:0.111111 14:0.296296 15:0.333333 16:0.333333 17:0.333333 18:0.311111 19:0.333333 20:0.333333 21:0.294118 22:0.333333 23:0.333333 24:0.333333 25:0.333333 26:0.333333 27:0.2 28:0.333333 29:0.333333 30:0.25 31:0.277778 32:0.333333 33:0.166667 34:0.333333 35:0.269231 36:0.296296 37:0.314815 38:0.261905 39:0.333333 40:0.246377 41:0.333333 42:0.333333 43:0.111111 44:0.333333 45:0.229167 46:0.322917 47:0.238095 48:0.333333 49:0.266667 51:0.333333 52:0.333333 53:0.333333 54:0.333333 55:0.0952381 56:0.333333 57:0.333333 58:0.333333 59:0.166667 60:0.25 61:0.282051 62:0.166667 63:0.333333 64:0.261905 65:0.24031 66:0.288889 67:0.222222 68:0.203704 69:0.333333 70:0.333333 71:0.252874 72:0.333333 73:0.333333 74:0.320988 75:0.2 76:0.166667 77:0.266667 78:0.333333 79:0.0952381 80:0.266667 81:0.333333 82:0.24 83:0.275641 84:0.333333 85:0.333333 86:0.255319 87:0.333333 89:0.333333 90:0.30303 91:0.333333 92:0.333333 93:0.222222 94:0.333333 95:0.166667 96:0.333333 97:0.166667 98:0.333333 99:0.333333 100:0.166667 101:0.333333 102:0.287879 103:0.333333 104:0.166667 105:0.333333 107:0.166667 109:0.205128 110:0.285714 111:0.25 112:0.291667 
1 0 0 0 1:0.25 2:0.25 4:0.25 5:0.215509 6:0.166667 7:0.25 8:0.173077 9:0.166667 10:0.1875 11:0.229508 12:0.25 13:0.0833333 14:0.222222 15:0.25 16:0.25 17:0.25 18:0.233333 19:0.25 20:0.25 21:0.220588 22:0.25 23:0.25 24:0.25 25:0.25 26:0.25 27:0.15 28:0.25 29:0.25 30:0.1875 31:0.208333 32:0.25 33:0.125 34:0.25 35:0.201923 36:0.222222 37:0.236111 38:0.196429 39:0.25 40:0.195652 41:0.25 42:0.25 43:0.0833333 44:0.25 45:0.171875 46:0.242188 47:0.178571 48:0.25 49:0.2 51:0.25 52:0.25 53:0.25 54:0.25 55:0.0714286 56:0.25 57:0.25 58:0.25 59:0.125 60:0.1875 61:0.211538 62:0.125 63:0.25 64:0.196429 65:0.180233 66:0.216667 67:0.166667 68:0.152778 69:0.25 70:0.25 71:0.193966 72:0.25 73:0.25 74:0.240741 75:0.15 76:0.125 77:0.2 78:0.25 79:0.0714286 80:0.2 81:0.25 82:0.18 83:0.206731 84:0.25 85:0.25 86:0.191489 87:0.25 89:0.25 90:0.238636 91:0.25 92:0.25 93:0.166667 94:0.25 95:0.125 96:0.25 97:0.125 98:0.25 99:0.25 100:0.125 101:0.25 102:0.215909 103:0.25 104:0.125 105:0.25 107:0.125 109:0.153846 110:0.214286 111:0.1875 112:0.21875 
1 0 0 0 1:0.2 2:0.2 4:0.2 5:0.172227 6:0.133333 7:0.2 8:0.138462 9:0.133333 10:0.15 11:0.183607 12:0.2 13:0.0666667 14:0.177778 15:0.2 16:0.2 17:0.2 18:0.186667 19:0.2 20:0.2 21:0.176471 22:0.2 23:0.2 24:0.2 25:0.2 26:0.2 27:0.12 28:0.2 29:0.2 30:0.15 31:0.166667 32:0.2 33:0.1 34:0.2 35:0.161538 36:0.177778 37:0.188889 38:0.157143 39:0.2 40:0.156522 41:0.2 42:0.2 43:0.0666667 44:0.2 45:0.1375 46:0.19375 47:0.142857 48:0.2 49:0.16 51:0.2 52:0.2 53:0.2 54:0.2 55:0.0571429 56:0.2 57:0.2 58:0.2 59:0.1 60:0.15 61:0.169231 62:0.1 63:0.2 64:0.171429 65:0.144186 66:0.173333 67:0.133333 68:0.122222 69:0.2 70:0.2 71:0.155172 72:0.2 73:0.2 74:0.192593 75:0.12 76:0.1 77:0.16 78:0.2 79:0.0857143 80:0.16 81:0.2 82:0.144 83:0.165385 84:0.2 85:0.2 86:0.153191 87:0.2 89:0.2 90:0.190909 91:0.2 92:0.2 93:0.133333 94:0.2 95:0.1 96:0.2 97:0.1 98:0.2 99:0.2 100:0.1 101:0.2 102:0.172727 103:0.2 104:0.1 105:0.2 107:0.1 109:0.123077 110:0.171429 111:0.15 112:0.175 
1 0.1561475021110436 0 0 1:0.333333 2:0.333333 4:0.333333 5:0.287647 6:0.222222 7:0.333333 8:0.230769 9:0.222222 10:0.25 11:0.306011 12:0.333333 13:0.111111 14:0.296296 15:0.333333 16:0.333333 17:0.333333 18:0.311111 19:0.333333 20:0.333333 21:0.294118 22:0.333333 23:0.333333 24:0.333333 25:0.333333 26:0.333333 27:0.2 28:0.333333 29:0.333333 30:0.25 31:0.277778 32:0.333333 33:0.166667 34:0.333333 35:0.269231 36:0.296296 37:0.314815 38:0.261905 39:0.333333 40:0.26087 41:0.333333 42:0.333333 43:0.111111 44:0.333333 45:0.229167 46:0.322917 47:0.238095 48:0.333333 49:0.266667 51:0.333333 52:0.333333 53:0.333333 54:0.333333 55:0.0952381 56:0.333333 57:0.333333 58:0.333333 59:0.166667 60:0.25 61:0.282051 62:0.166667 63:0.333333 64:0.285714 65:0.24031 66:0.288889 67:0.222222 68:0.203704 69:0.333333 70:0.333333 71:0.258621 72:0.333333 73:0.333333 74:0.320988 75:0.2 76:0.166667 77:0.266667 78:0.333333 79:0.142857 80:0.266667 81:0.333333 82:0.24 83:0.282051 84:0.333333 85:0.333333 86:0.255319 87:0.333333 89:0.333333 90:0.318182 91:0.333333 92:0.333333 93:0.222222 94:0.333333 95:0.166667 96:0.333333 97:0.166667 98:0.333333 99:0.333333 100:0.166667 101:0.333333 102:0.287879 103:0.333333 104:0.166667 105:0.333333 107:0.166667 109:0.205128 110:0.285714 111:0.25 112:0.291667 
1 0 0 0 1:0.25 2:0.25 4:0.25 5:0.229035 6:0.166667 7:0.25 8:0.173077 9:0.166667 10:0.1875 11:0.229508 12:0.25 13:0.0833333 14:0.222222 15:0.25 16:0.25 17:0.25 18:0.233333 19:0.25 20:0.25 21:0.220588 22:0.25 23:0.25 24:0.25 25:0.25 26:0.25 27:0.15 28:0.25 29:0.25 30:0.1875 31:0.208333 32:0.25 33:0.125 34:0.25 35:0.201923 36:0.222222 37:0.236111 38:0.214286 39:0.25 40:0.195652 41:0.25 42:0.25 43:0.0833333 44:0.25 45:0.171875 46:0.242188 47:0.178571 48:0.25 49:0.2 51:0.25 52:0.25 53:0.25 54:0.25 55:0.107143 56:0.25 57:0.25 58:0.25 59:0.125 60:0.1875 61:0.211538 62:0.125 63:0.25 64:0.214286 65:0.19186 66:0.216667 67:0.166667 68:0.152778 69:0.25 70:0.25 71:0.198276 72:0.25 73:0.25 74:0.240741 75:0.15 76:0.125 77:0.2 78:0.25 79:0.107143 80:0.2 81:0.25 82:0.18 83:0.211538 84:0.25 85:0.25 86:0.191489 87:0.25 89:0.25 90:0.238636 91:0.25 92:0.25 93:0.166667 94:0.25 95:0.125 96:0.25 97:0.125 98:0.25 99:0.25 100:0.125 101:0.25 102:0.215909 103:0.25 104:0.125 105:0.25 107:0.125 109:0.153846 110:0.25 111:0.1875 112:0.21875 
1 0 0 0 1:0.166667 2:0.166667 4:0.166667 5:0.15239 6:0.111111 7:0.166667 8:0.115385 9:0.111111 10:0.125 11:0.153005 12:0.166667 13:0.0555556 14:0.148148 15:0.166667 16:0.166667 17:0.166667 18:0.155556 19:0.166667 20:0.166667 21:0.147059 22:0.166667 23:0.166667 24:0.166667 25:0.166667 26:0.166667 27:0.1 28:0.166667 29:0.166667 30:0.125 31:0.138889 32:0.166667 33:0.0833333 34:0.166667 35:0.134615 36:0.148148 37:0.157407 38:0.142857 39:0.166667 40:0.130435 41:0.166667 42:0.166667 43:0.0555556 44:0.166667 45:0.114583 46:0.161458 47:0.119048 48:0.166667 49:0.133333 51:0.166667 52:0.166667 53:0.166667 54:0.166667 55:0.0714286 56:0.166667 57:0.166667 58:0.166667 59:0.0833333 60:0.125 61:0.141026 62:0.0833333 63:0.166667 64:0.142857 65:0.127907 66:0.144444 67:0.111111 68:0.101852 69:0.166667 70:0.166667 71:0.132184 72:0.166667 73:0.166667 74:0.160494 75:0.1 76:0.0833333 77:0.133333 78:0.166667 79:0.0714286 80:0.133333 81:0.166667 82:0.12 83:0.141026 84:0.166667 85:0.166667 86:0.12766 87:0.166667 89:0.166667 90:0.159091 91:0.166667 92:0.166667 93:0.111111 94:0.166667 95:0.0833333 96:0.166667 97:0.0833333 98:0.166667 99:0.166667 100:0.0833333 101:0.166667 102:0.143939 103:0.166667 104:0.0833333 105:0.166667 107:0.0833333 109:0.102564 110:0.166667 111:0.125 112:0.145833 
1 0 0 0 1:0.2 2:0.2 4:0.2 5:0.183048 6:0.142857 7:0.2 8:0.138462 9:0.133333 10:0.15 11:0.183607 12:0.2 13:0.0666667 14:0.177778 15:0.2 16:0.2 17:0.2 18:0.2 19:0.2 20:0.2 21:0.176471 22:0.2 23:0.2 24:0.2 25:0.2 26:0.2 27:0.12 28:0.2 29:0.2 30:0.15 31:0.172222 32:0.2 33:0.1 34:0.2 35:0.166667 36:0.177778 37:0.188889 38:0.171429 39:0.2 40:0.165217 41:0.2 42:0.2 43:0.0666667 44:0.2 45:0.1375 46:0.19375 47:0.171429 48:0.2 49:0.16 51:0.2 52:0.2 53:0.2 54:0.2 55:0.171429 56:0.2 57:0.2 58:0.2 59:0.1 60:0.15 61:0.169231 62:0.1 63:0.2 64:0.171429 65:0.153488 66:0.173333 67:0.133333 68:0.122222 69:0.2 70:0.2 71:0.158621 72:0.2 73:0.2 74:0.192593 75:0.12 76:0.1 77:0.16 78:0.2 79:0.0857143 80:0.16 81:0.2 82:0.152 83:0.169231 84:0.2 85:0.2 86:0.157447 87:0.2 89:0.2 90:0.190909 91:0.2 92:0.2 93:0.133333 94:0.2 95:0.1 96:0.2 97:0.1 98:0.2 99:0.2 100:0.1 101:0.2 102:0.172727 103:0.2 104:0.1 105:0.2 107:0.1 109:0.138462 110:0.2 111:0.15 112:0.175 
0.1096409355848858 0 0 0 1:0.125 2:0.125 4:0.125 5:0.117448 6:0.0892857 7:0.125 8:0.0865385 9:0.0833333 10:0.09375 11:0.114754 12:0.125 13:0.0416667 14:0.111111 15:0.125 16:0.125 17:0.125 18:0.125 19:0.125 20:0.125 21:0.110294 22:0.125 23:0.125 24:0.125 25:0.125 26:0.125 27:0.075 28:0.125 29:0.125 30:0.09375 31:0.107639 32:0.125 33:0.0625 34:0.125 35:0.104167 36:0.111111 37:0.118056 38:0.107143 39:0.125 40:0.103261 41:0.125 42:0.125 43:0.0416667 44:0.125 45:0.0859375 46:0.121094 47:0.107143 48:0.125 49:0.1 51:0.125 52:0.125 53:0.125 54:0.125 55:0.107143 56:0.125 57:0.125 58:0.125 59:0.0625 60:0.09375 61:0.105769 62:0.0625 63:0.125 64:0.107143 65:0.0959302 66:0.108333 67:0.0833333 68:0.0763889 69:0.125 70:0.125 71:0.0991379 72:0.125 73:0.125 74:0.12037 75:0.075 76:0.0625 77:0.1 78:0.125 79:0.0535714 80:0.1 81:0.125 82:0.095 83:0.108173 84:0.125 85:0.125 86:0.101064 87:0.125 89:0.125 90:0.119318 91:0.125 92:0.125 93:0.0833333 94:0.125 95:0.0625 96:0.125 97:0.0625 98:0.125 99:0.125 100:0.0625 101:0.125 102:0.107955 103:0.125 104:0.0625 105:0.125 107:0.0625 109:0.0961538 110:0.125 111:0.09375 112:0.109375 
0 0 0.0129421348632914 0 1:0.25 2:0.25 3:0.25 4:0.25 5:0.235798 6:0.190476 7:0.25 8:0.211538 9:0.25 10:0.25 11:0.237705 12:0.25 13:0.166667 14:0.222222 15:0.25 16:0.25 17:0.25 18:0.25 19:0.25 20:0.25 21:0.220588 22:0.25 23:0.25 24:0.25 25:0.25 26:0.25 27:0.2 28:0.25 29:0.25 30:0.1875 31:0.229167 32:0.25 33:0.25 34:0.25 35:0.208333 36:0.222222 37:0.243056 38:0.214286 39:0.25 40:0.206522 41:0.25 42:0.25 43:0.166667 44:0.25 45:0.1875 46:0.25 47:0.25 48:0.25 49:0.2 50:0.25 51:0.25 52:0.25 53:0.25 54:0.25 55:0.25 56:0.25 57:0.25 58:0.25 59:0.125 60:0.1875 61:0.211538 62:0.25 63:0.25 64:0.214286 65:0.203488 66:0.233333 67:0.25 68:0.152778 69:0.25 70:0.25 71:0.202586 72:0.25 73:0.25 74:0.25 75:0.175 76:0.1875 77:0.225 78:0.25 79:0.142857 80:0.25 81:0.25 82:0.2 83:0.221154 84:0.25 85:0.25 86:0.207447 87:0.25 88:0.25 89:0.25 90:0.25 91:0.25 92:0.25 93:0.166667 94:0.25 95:0.25 96:0.25 97:0.25 98:0.25 99:0.25 100:0.125 101:0.25 102:0.215909 103:0.25 104:0.25 105:0.25 106:0.25 107:0.25 108:0.25 109:0.211538 110:0.25 111:0.208333 112:0.21875 
