svm_type c_svc
kernel_type rbf
gamma 0.0070922
nr_class 5
total_sv 401
rho -0.74807 0.266554 -0.996037 -1.00864 0.978553 -0.966947 -1.00072 -0.992817 -1.00673 -1.02182
label 4 3 5 2 1
nr_sv 156 69 158 14 4
SV
1 0 1 0.9121711343240886 28:0.00466786 64:0.00620757 88:0.00220472 
1 0 0 0 28:0.0125673 64:0.0198836 74:0.0769231 83:0.0185185 88:0.00787402 119:0.0238095 124:0.0434783 125:0.1 
1 1 0 0 7:0.0333333 15:0.00520833 20:0.0151515 28:0.00379015 44:0.0555556 58:0.0104167 60:0.0166667 64:0.00468801 74:0.025641 83:0.00617284 88:0.0015748 117:0.00462963 119:0.00793651 124:0.0144928 125:0.0333333 135:0.00444444 140:0.0333333 141:0.0026455 
1 0.244928776695901 0.499189991185731 0 7:0.0545455 15:0.00284091 19:0.00757576 20:0.00826446 28:0.00179533 44:0.030303 58:0.00568182 60:0.00909091 64:0.00537871 74:0.013986 83:0.003367 88:0.0035791 96:0.00909091 116:0.00606061 117:0.00252525 119:0.00649351 122:0.00699301 124:0.00790514 125:0.0181818 135:0.00363636 140:0.0181818 141:0.001443 
0 1 0.06243794611734531 0 7:0.6 15:0.0625 19:0.0833333 20:0.0909091 28:0.0257331 34:0.105263 44:0.333333 46:0.0769231 47:0.0769231 58:0.0625 60:0.1 64:0.0882638 74:0.153846 83:0.037037 88:0.0740157 96:0.1 102:0.25 116:0.133333 117:0.0277778 119:0.0952381 122:0.0769231 123:0.016129 124:0.130435 125:0.2 135:0.0666667 140:0.2 141:0.031746 
1 1 0 0 7:0.2 15:0.0208333 19:0.0277778 20:0.030303 28:0.00817874 34:0.0350877 44:0.111111 46:0.025641 47:0.025641 58:0.0208333 60:0.0333333 64:0.042677 74:0.0512821 83:0.0123457 88:0.023622 96:0.0333333 102:0.0833333 116:0.0444444 117:0.00925926 119:0.031746 122:0.025641 123:0.00537634 124:0.0434783 125:0.0666667 135:0.0222222 140:0.0666667 141:0.010582 
1 1 0 0 5:0.0178571 7:0.0857143 15:0.00892857 19:0.0119048 20:0.012987 28:0.0031632 34:0.0150376 44:0.047619 46:0.021978 47:0.010989 58:0.00892857 60:0.0142857 64:0.0166274 74:0.021978 83:0.00529101 88:0.00922385 91:0.015873 96:0.0142857 102:0.0357143 103:0.015873 116:0.0190476 117:0.00396825 119:0.0136054 122:0.010989 123:0.00460829 124:0.0186335 125:0.0285714 135:0.0114286 140:0.0285714 141:0.00453515 
1 1 0 0 5:0.0416667 7:0.2 15:0.0208333 19:0.0277778 20:0.030303 28:0.00817874 34:0.0350877 44:0.111111 46:0.0512821 47:0.025641 58:0.0208333 60:0.05 64:0.042677 74:0.0512821 83:0.0123457 88:0.023622 91:0.037037 96:0.0333333 102:0.0833333 103:0.037037 116:0.0444444 117:0.00925926 119:0.031746 122:0.025641 123:0.0107527 124:0.0434783 125:0.0666667 135:0.0311111 140:0.0666667 141:0.010582 
1 1 0 0 5:0.0104167 7:0.05 15:0.00520833 19:0.00694444 20:0.00757576 28:0.00159585 34:0.00877193 44:0.0277778 46:0.0128205 47:0.0128205 48:0.00694444 58:0.00520833 60:0.0125 61:0.0208333 64:0.00848691 70:0.0416667 74:0.0128205 83:0.00308642 86:0.0277778 88:0.00472441 89:0.00694444 91:0.00925926 96:0.00833333 102:0.0208333 103:0.00925926 116:0.0111111 117:0.00231481 119:0.00793651 122:0.00641026 123:0.00268817 124:0.0108696 125:0.0166667 135:0.00777778 140:0.0166667 141:0.0026455 
1 1 0 0 5:0.025 7:0.12 15:0.0125 19:0.0166667 20:0.0181818 28:0.00466786 34:0.0210526 44:0.0666667 46:0.0307692 47:0.0307692 48:0.0166667 58:0.0125 60:0.03 61:0.05 64:0.0244423 70:0.1 74:0.0461538 83:0.00740741 86:0.0666667 88:0.0135433 89:0.0166667 91:0.0222222 96:0.02 102:0.05 103:0.0222222 110:0.0166667 116:0.0266667 117:0.00555556 119:0.0190476 122:0.0153846 123:0.00645161 124:0.026087 125:0.04 135:0.0186667 140:0.04 141:0.00634921 
1 1 0 0 5:0.0625 7:0.3 15:0.03125 19:0.0416667 20:0.0454545 28:0.0125673 34:0.0526316 44:0.166667 46:0.0769231 47:0.0769231 48:0.0416667 58:0.03125 60:0.075 61:0.125 64:0.0654704 70:0.25 74:0.115385 83:0.0185185 86:0.166667 88:0.0362205 89:0.0416667 91:0.0555556 96:0.05 102:0.125 103:0.0555556 110:0.0416667 116:0.0666667 117:0.0138889 119:0.047619 122:0.0384615 123:0.016129 124:0.0652174 125:0.1 135:0.0466667 140:0.1 141:0.015873 
0.6241873460765921 1 0.02141851890168611 0 5:0.0625 7:0.3 15:0.03125 19:0.0416667 20:0.0454545 28:0.0125673 34:0.0526316 44:0.166667 46:0.0769231 47:0.0769231 48:0.0416667 58:0.03125 60:0.075 61:0.125 64:0.0654704 70:0.25 74:0.115385 83:0.0185185 86:0.166667 88:0.0362205 89:0.0416667 91:0.0555556 96:0.05 102:0.125 103:0.0555556 110:0.0416667 116:0.0666667 117:0.0138889 119:0.047619 122:0.0384615 123:0.016129 124:0.0652174 125:0.1 135:0.0466667 140:0.1 141:0.015873 
1 1 0 0 5:0.03125 7:0.15 15:0.015625 19:0.0208333 20:0.0227273 28:0.00598444 34:0.0263158 44:0.0833333 46:0.0384615 47:0.0384615 48:0.0208333 58:0.015625 60:0.0375 61:0.0625 64:0.0312803 70:0.125 74:0.0576923 83:0.00925926 86:0.0833333 88:0.0173228 89:0.0208333 91:0.0277778 96:0.025 102:0.0625 103:0.0277778 110:0.0416667 116:0.0333333 117:0.00694444 119:0.0238095 122:0.0192308 123:0.00806452 124:0.0326087 125:0.05 135:0.0266667 140:0.05 141:0.0119048 
1 1 0.907429091559146 0 5:0.015625 7:0.075 15:0.0078125 19:0.0104167 20:0.0113636 28:0.002693 34:0.0131579 44:0.0416667 46:0.0192308 47:0.0192308 48:0.0104167 58:0.015625 60:0.01875 61:0.03125 64:0.0141853 70:0.0625 74:0.0288462 83:0.00462963 86:0.0416667 88:0.00787402 89:0.0104167 91:0.0138889 96:0.0125 102:0.03125 103:0.0138889 107:0.0178571 110:0.0208333 116:0.0166667 117:0.00347222 119:0.014881 122:0.00961538 123:0.00403226 124:0.0163043 125:0.025 135:0.0133333 140:0.025 141:0.00595238 
1 1 0 0.1263094419483689 5:0.015625 7:0.075 10:0.125 12:0.125 14:0.0625 15:0.0078125 19:0.0104167 20:0.0113636 28:0.002693 31:0.125 34:0.0131579 41:0.00892857 44:0.0416667 45:0.0416667 46:0.0192308 47:0.0192308 48:0.0104167 49:0.125 56:0.125 58:0.015625 60:0.01875 61:0.03125 64:0.0141853 66:0.125 69:0.125 70:0.0625 74:0.0288462 75:0.025 82:0.0416667 83:0.00925926 86:0.0416667 88:0.0102362 89:0.0104167 91:0.0138889 95:0.125 96:0.0125 98:0.125 101:0.0416667 102:0.03125 103:0.0138889 107:0.0178571 110:0.0208333 116:0.0166667 117:0.00694444 118:0.00735294 119:0.0178571 122:0.00961538 123:0.00403226 124:0.0163043 125:0.025 135:0.0183333 137:0.03125 140:0.025 141:0.00595238 
0 1 0 0.6079531852995812 5:0.0416667 7:0.2 10:0.333333 12:0.333333 14:0.166667 15:0.0208333 19:0.0277778 20:0.030303 28:0.00817874 31:0.333333 34:0.0350877 41:0.0238095 44:0.111111 45:0.111111 46:0.0512821 47:0.0512821 48:0.0277778 49:0.333333 56:0.333333 58:0.0416667 60:0.05 61:0.0833333 64:0.042677 66:0.333333 69:0.333333 70:0.166667 74:0.0769231 75:0.0666667 82:0.111111 83:0.0246914 86:0.111111 88:0.0362205 89:0.0277778 91:0.037037 93:0.333333 95:0.333333 96:0.0333333 98:0.333333 101:0.111111 102:0.0833333 103:0.037037 107:0.047619 110:0.0555556 114:0.166667 116:0.0444444 117:0.0185185 118:0.0196078 119:0.047619 122:0.0512821 123:0.0107527 124:0.0434783 125:0.0666667 126:0.0416667 135:0.0488889 137:0.0833333 140:0.0666667 141:0.015873 
0 1 0 0 5:0.0416667 7:0.2 10:0.333333 12:0.333333 14:0.166667 15:0.0208333 19:0.0277778 20:0.030303 28:0.00817874 31:0.333333 34:0.0350877 41:0.0238095 44:0.111111 45:0.111111 46:0.0512821 47:0.0512821 48:0.0277778 49:0.333333 56:0.333333 58:0.0416667 60:0.05 61:0.0833333 64:0.042677 66:0.333333 69:0.333333 70:0.166667 74:0.0769231 75:0.0666667 82:0.111111 83:0.0246914 86:0.111111 88:0.0362205 89:0.0277778 91:0.037037 93:0.333333 95:0.333333 96:0.0333333 98:0.333333 101:0.111111 102:0.0833333 103:0.037037 107:0.047619 110:0.0555556 114:0.166667 116:0.0444444 117:0.0185185 118:0.0196078 119:0.047619 122:0.0512821 123:0.0107527 124:0.0434783 125:0.0666667 126:0.0416667 135:0.0488889 137:0.0833333 140:0.133333 141:0.015873 
1 1 0.09440496158057088 0 5:0.00833333 7:0.04 10:0.0666667 12:0.0666667 14:0.0333333 15:0.00416667 19:0.00555556 20:0.00606061 21:0.00833333 28:0.00115699 31:0.0666667 34:0.00701754 41:0.0047619 44:0.0222222 45:0.0222222 46:0.0153846 47:0.0153846 48:0.00555556 49:0.0666667 56:0.0666667 58:0.00833333 60:0.01 61:0.0166667 64:0.00620757 66:0.0666667 69:0.0666667 70:0.0333333 74:0.0153846 75:0.0133333 82:0.0222222 83:0.00493827 86:0.0222222 88:0.00598425 89:0.00555556 91:0.00740741 93:0.0666667 95:0.0666667 96:0.00666667 98:0.0666667 101:0.0222222 102:0.0166667 103:0.00740741 107:0.00952381 110:0.0111111 114:0.0333333 116:0.00888889 117:0.0037037 118:0.00392157 119:0.0111111 122:0.0102564 123:0.00322581 124:0.00869565 125:0.0133333 126:0.00833333 135:0.0106667 137:0.0166667 140:0.0266667 141:0.0031746 
0 1 0 0 5:0.0416667 7:0.2 10:0.333333 12:0.333333 14:0.166667 15:0.0208333 19:0.0555556 20:0.030303 21:0.0416667 28:0.00817874 31:0.333333 34:0.0350877 41:0.0238095 44:0.111111 45:0.111111 46:0.0769231 47:0.0769231 48:0.0277778 49:0.333333 56:0.333333 58:0.0416667 60:0.05 61:0.0833333 64:0.042677 66:0.333333 69:0.333333 70:0.166667 74:0.0769231 75:0.0666667 82:0.111111 83:0.0246914 86:0.111111 88:0.0362205 89:0.0277778 91:0.037037 93:0.333333 95:0.333333 96:0.0333333 98:0.333333 101:0.111111 102:0.0833333 103:0.037037 107:0.0952381 110:0.0555556 114:0.166667 116:0.0444444 117:0.0185185 118:0.0196078 119:0.0555556 122:0.0512821 123:0.016129 124:0.057971 125:0.133333 126:0.0416667 135:0.0533333 137:0.166667 140:0.133333 141:0.015873 
0 1 0 0 5:0.0416667 7:0.2 10:0.333333 12:0.333333 14:0.166667 15:0.0208333 19:0.0555556 20:0.030303 21:0.0416667 28:0.00817874 31:0.333333 34:0.0350877 41:0.0238095 44:0.111111 45:0.111111 46:0.0769231 47:0.0769231 48:0.0277778 49:0.333333 56:0.333333 58:0.0416667 60:0.05 61:0.0833333 64:0.042677 66:0.333333 69:0.333333 70:0.166667 74:0.0769231 75:0.0666667 82:0.111111 83:0.0246914 86:0.111111 88:0.0362205 89:0.0277778 91:0.037037 93:0.333333 95:0.333333 96:0.0333333 98:0.333333 101:0.111111 102:0.0833333 103:0.037037 107:0.0952381 110:0.0555556 114:0.166667 116:0.0444444 117:0.0185185 118:0.0196078 119:0.0555556 122:0.0512821 123:0.016129 124:0.057971 125:0.133333 126:0.0416667 135:0.0533333 137:0.166667 140:0.133333 141:0.015873 
0.05374138162762806 1 0 0.05178437263059235 5:0.125 7:0.6 10:1 12:1 14:0.5 15:0.0625 19:0.166667 20:0.0909091 21:0.125 26:0.5 28:0.0257331 31:1 34:0.105263 41:0.0714286 44:0.333333 45:0.333333 46:0.230769 47:0.230769 48:0.0833333 49:1 56:1 58:0.125 60:0.15 61:0.25 64:0.133851 66:1 69:1 70:0.5 74:0.230769 75:0.2 82:0.333333 83:0.0740741 86:0.333333 88:0.111811 89:0.0833333 91:0.111111 93:1 95:1 96:0.1 98:1 101:0.333333 102:0.25 103:0.333333 107:0.285714 110:0.166667 114:0.5 116:0.133333 117:0.0555556 118:0.0588235 119:0.166667 122:0.153846 123:0.0483871 124:0.173913 125:0.4 126:0.125 135:0.16 137:0.5 140:0.4 141:0.047619 
0 1 0 0 5:0.0625 7:0.3 10:0.5 12:0.5 14:0.25 15:0.046875 19:0.0833333 20:0.0454545 21:0.0625 26:0.25 28:0.0125673 31:0.5 34:0.0789474 41:0.0357143 44:0.166667 45:0.166667 46:0.115385 47:0.153846 48:0.0416667 49:0.5 56:0.5 58:0.0625 60:0.075 61:0.125 64:0.0654704 66:0.5 69:0.5 70:0.25 74:0.115385 75:0.1 82:0.166667 83:0.037037 86:0.166667 88:0.0551181 89:0.0416667 91:0.0555556 93:0.5 95:0.5 96:0.05 98:0.5 101:0.166667 102:0.125 103:0.166667 107:0.142857 110:0.0833333 114:0.25 116:0.0666667 117:0.0416667 118:0.0294118 119:0.0833333 122:0.0769231 123:0.0241935 124:0.108696 125:0.2 126:0.0625 135:0.0866667 137:0.25 140:0.2 141:0.0238095 
0 1 0 0 5:0.0416667 7:0.2 10:0.333333 12:0.333333 14:0.166667 15:0.03125 19:0.0555556 20:0.030303 21:0.0416667 26:0.166667 28:0.00817874 31:0.333333 34:0.0526316 41:0.0238095 44:0.111111 45:0.111111 46:0.0769231 47:0.102564 48:0.0277778 49:0.333333 56:0.333333 58:0.0416667 60:0.05 61:0.0833333 64:0.042677 66:0.333333 69:0.333333 70:0.166667 74:0.0769231 75:0.0666667 82:0.111111 83:0.0246914 86:0.111111 88:0.0362205 89:0.0277778 91:0.037037 93:0.333333 95:0.333333 96:0.0333333 98:0.333333 101:0.111111 102:0.0833333 103:0.111111 107:0.0952381 110:0.0555556 114:0.166667 116:0.0444444 117:0.0277778 118:0.0392157 119:0.0555556 122:0.0512821 123:0.016129 124:0.0724638 125:0.133333 126:0.0416667 135:0.0622222 137:0.166667 140:0.133333 141:0.015873 
0 1 0 0 5:0.03125 7:0.15 10:0.25 12:0.25 14:0.125 15:0.0234375 19:0.0416667 20:0.0227273 21:0.03125 26:0.125 28:0.00598444 31:0.25 34:0.0394737 41:0.0178571 44:0.0833333 45:0.0833333 46:0.0576923 47:0.0769231 48:0.0208333 49:0.25 56:0.25 58:0.03125 60:0.0375 61:0.0625 64:0.0312803 66:0.25 69:0.25 70:0.125 74:0.0576923 75:0.05 82:0.0833333 83:0.0185185 86:0.0833333 88:0.0267717 89:0.0208333 91:0.0277778 93:0.25 95:0.25 96:0.025 98:0.25 101:0.0833333 102:0.0625 103:0.0833333 107:0.0714286 110:0.0416667 114:0.125 116:0.0333333 117:0.0208333 118:0.0294118 119:0.0416667 122:0.0384615 123:0.016129 124:0.0543478 125:0.1 126:0.03125 135:0.0466667 137:0.125 140:0.1 141:0.0119048 
1 1 0 0 5:0.00284091 7:0.0136364 10:0.0227273 12:0.0227273 14:0.0113636 15:0.00213068 19:0.00378788 20:0.00206612 21:0.00426136 26:0.0113636 31:0.0227273 34:0.00358852 37:0.00757576 41:0.00324675 44:0.00757576 45:0.00757576 46:0.00524476 47:0.00699301 48:0.00189394 49:0.0227273 56:0.0227273 58:0.00284091 60:0.00340909 61:0.0113636 64:0.000198395 66:0.0227273 68:0.00378788 69:0.0227273 70:0.0113636 74:0.00524476 75:0.00454545 82:0.00757576 83:0.0016835 86:0.00757576 88:0.00100215 89:0.00378788 91:0.00252525 93:0.0227273 95:0.0227273 96:0.00227273 98:0.0227273 101:0.00757576 102:0.00568182 103:0.00757576 107:0.00649351 110:0.00378788 114:0.0113636 116:0.0030303 117:0.00189394 118:0.0026738 119:0.004329 122:0.0034965 123:0.00146628 124:0.00592885 125:0.00909091 126:0.00284091 135:0.00515152 137:0.0113636 140:0.00909091 141:0.001443 
1 1 0 0 5:0.00694444 7:0.0333333 10:0.0555556 12:0.0555556 14:0.0277778 15:0.00520833 19:0.00925926 20:0.00505051 21:0.0104167 26:0.0277778 28:0.00379015 31:0.0555556 34:0.00877193 37:0.0185185 41:0.00793651 44:0.0185185 45:0.0185185 46:0.0128205 47:0.017094 48:0.00462963 49:0.0555556 56:0.0555556 58:0.00694444 60:0.00833333 61:0.0277778 64:0.00468801 66:0.0555556 68:0.00925926 69:0.0555556 70:0.0277778 74:0.0128205 75:0.0111111 82:0.0185185 83:0.00411523 86:0.0185185 88:0.00472441 89:0.00925926 91:0.00617284 93:0.0555556 95:0.0555556 96:0.00555556 98:0.0555556 101:0.0185185 102:0.0138889 103:0.0185185 107:0.015873 110:0.00925926 114:0.0277778 116:0.00740741 117:0.00462963 118:0.00653595 119:0.010582 122:0.00854701 123:0.00448029 124:0.0144928 125:0.0222222 126:0.00694444 135:0.0133333 137:0.0277778 140:0.0222222 141:0.00352734 
0 1 0 0 5:0.0416667 7:0.2 10:0.333333 12:0.333333 14:0.166667 15:0.03125 19:0.0555556 20:0.030303 21:0.0625 26:0.166667 28:0.0257331 31:0.333333 34:0.0526316 37:0.111111 41:0.047619 44:0.111111 45:0.111111 46:0.0769231 47:0.102564 48:0.0277778 49:0.333333 56:0.333333 58:0.0416667 60:0.05 61:0.166667 64:0.042677 66:0.333333 68:0.0555556 69:0.333333 70:0.166667 74:0.0769231 75:0.0666667 82:0.111111 83:0.0246914 86:0.111111 88:0.0425197 89:0.0555556 91:0.037037 93:0.333333 95:0.333333 96:0.0333333 98:0.333333 101:0.111111 102:0.0833333 103:0.111111 107:0.0952381 110:0.0555556 114:0.166667 116:0.0444444 117:0.0277778 118:0.0392157 119:0.0634921 122:0.0512821 123:0.0268817 124:0.0869565 125:0.133333 126:0.0416667 135:0.08 137:0.166667 140:0.133333 141:0.021164 
0 1 0 0 5:0.0416667 7:0.2 10:0.333333 12:0.333333 14:0.166667 15:0.03125 19:0.0555556 20:0.030303 21:0.0625 26:0.166667 28:0.0257331 31:0.333333 34:0.0526316 37:0.111111 41:0.047619 44:0.111111 45:0.111111 46:0.0769231 47:0.102564 48:0.0277778 49:0.333333 56:0.333333 58:0.0416667 60:0.05 61:0.166667 64:0.042677 66:0.333333 68:0.0555556 69:0.333333 70:0.166667 74:0.0769231 75:0.0666667 82:0.111111 83:0.0246914 86:0.111111 88:0.0488189 89:0.0555556 91:0.037037 93:0.333333 95:0.333333 96:0.0333333 98:0.333333 101:0.111111 102:0.0833333 103:0.111111 107:0.0952381 110:0.0555556 114:0.166667 116:0.0444444 117:0.0277778 118:0.0392157 119:0.0634921 122:0.0512821 123:0.0268817 124:0.0869565 125:0.133333 126:0.0416667 135:0.08 137:0.166667 140:0.133333 141:0.021164 
0 1 0 0.0651968541378192 3:0.0625 5:0.0625 7:0.3 10:0.5 11:0.125 12:0.5 14:0.25 15:0.0625 16:0.0833333 19:0.0833333 20:0.0909091 21:0.09375 26:0.25 28:0.0520646 31:0.5 34:0.105263 35:0.5 37:0.166667 41:0.0714286 44:0.166667 45:0.166667 46:0.115385 47:0.153846 48:0.0416667 49:0.5 55:0.1 56:0.5 58:0.09375 60:0.075 61:0.25 63:0.25 64:0.0654704 66:0.5 68:0.166667 69:0.5 70:0.25 73:0.5 74:0.192308 75:0.1 78:0.0384615 81:0.5 82:0.166667 83:0.0555556 86:0.166667 88:0.0740157 89:0.0833333 91:0.0555556 93:0.5 95:0.5 96:0.05 98:0.5 101:0.166667 102:0.125 103:0.166667 107:0.142857 110:0.166667 114:0.5 115:0.5 116:0.1 117:0.0555556 118:0.0588235 119:0.0952381 122:0.115385 123:0.0403226 124:0.152174 125:0.2 126:0.0625 133:0.0454545 134:0.0294118 135:0.126667 136:0.5 137:0.25 140:0.2 141:0.0396825 
1 1 0 0 3:0.0208333 5:0.0208333 7:0.1 10:0.166667 11:0.0416667 12:0.166667 14:0.0833333 15:0.0260417 16:0.0277778 19:0.0277778 20:0.030303 21:0.03125 26:0.0833333 28:0.0169559 31:0.166667 34:0.0350877 35:0.166667 37:0.0555556 41:0.0238095 44:0.111111 45:0.0555556 46:0.0384615 47:0.0512821 48:0.0138889 49:0.166667 55:0.0333333 56:0.166667 58:0.03125 60:0.025 61:0.0833333 63:0.0833333 64:0.0198836 66:0.166667 68:0.0555556 69:0.166667 70:0.0833333 73:0.166667 74:0.0641026 75:0.0333333 78:0.0384615 81:0.166667 82:0.0555556 83:0.0246914 86:0.0555556 87:0.0416667 88:0.0362205 89:0.0277778 91:0.0185185 93:0.166667 95:0.166667 96:0.0166667 98:0.166667 101:0.0555556 102:0.0416667 103:0.0555556 107:0.047619 110:0.0555556 114:0.166667 115:0.166667 116:0.0333333 117:0.0185185 118:0.0294118 119:0.0357143 121:0.0277778 122:0.0512821 123:0.0134409 124:0.0507246 125:0.0666667 126:0.0208333 133:0.0151515 134:0.0196078 135:0.0422222 136:0.166667 137:0.0833333 140:0.0666667 141:0.015873 
1 1 0 0 3:0.00297619 5:0.00297619 7:0.0142857 10:0.0238095 11:0.00595238 12:0.0238095 14:0.0119048 15:0.00520833 16:0.00793651 19:0.00396825 20:0.004329 21:0.00446429 26:0.0119048 28:0.00190932 31:0.0238095 34:0.00501253 35:0.0238095 37:0.00793651 41:0.00510204 44:0.0238095 45:0.00793651 46:0.00549451 47:0.00732601 48:0.00198413 49:0.0238095 55:0.0047619 56:0.0238095 58:0.00595238 60:0.00357143 61:0.0119048 63:0.0119048 64:0.0014318 66:0.0238095 68:0.00793651 69:0.0238095 70:0.0119048 73:0.0238095 74:0.00915751 75:0.0047619 78:0.00549451 81:0.0238095 82:0.00793651 83:0.00352734 86:0.015873 87:0.00595238 88:0.00382452 89:0.00396825 91:0.0026455 93:0.0238095 95:0.0238095 96:0.0047619 98:0.0238095 101:0.00793651 102:0.00595238 103:0.00793651 107:0.00680272 110:0.00793651 114:0.0238095 115:0.0238095 116:0.0047619 117:0.0026455 118:0.00420168 119:0.00510204 121:0.00396825 122:0.00732601 123:0.00192012 124:0.00724638 125:0.00952381 126:0.00297619 133:0.00324675 134:0.00280112 135:0.00666667 136:0.0238095 137:0.0119048 140:0.00952381 141:0.0026455 
1 1 0.06308384947358992 0 3:0.00694444 5:0.00694444 7:0.0333333 10:0.0555556 11:0.0138889 12:0.0555556 14:0.0277778 15:0.0121528 16:0.0185185 19:0.00925926 20:0.010101 21:0.0104167 26:0.0277778 28:0.00525301 31:0.0555556 34:0.0116959 35:0.0555556 37:0.0185185 41:0.0119048 44:0.0555556 45:0.0185185 46:0.0128205 47:0.017094 48:0.00462963 49:0.0555556 55:0.0111111 56:0.0555556 58:0.0138889 60:0.00833333 61:0.0277778 63:0.0277778 64:0.00722061 66:0.0555556 68:0.0185185 69:0.0555556 70:0.0277778 73:0.0555556 74:0.0213675 75:0.0111111 78:0.0128205 81:0.0555556 82:0.0185185 83:0.00823045 86:0.037037 87:0.0138889 88:0.0110236 89:0.00925926 91:0.00617284 93:0.0555556 95:0.0555556 96:0.0111111 98:0.0555556 101:0.0185185 102:0.0138889 103:0.0185185 107:0.015873 110:0.0185185 114:0.0555556 115:0.0555556 116:0.0111111 117:0.00617284 118:0.00980392 119:0.0119048 121:0.00925926 122:0.017094 123:0.00448029 124:0.0169082 125:0.0222222 126:0.00694444 133:0.00757576 134:0.00653595 135:0.0155556 136:0.0555556 137:0.0277778 140:0.0222222 141:0.00617284 
0.6636845507616793 1 0.9089431882477596 0 3:0.125 5:0.125 7:0.6 10:1 11:0.25 12:1 14:0.5 15:0.25 16:0.333333 19:0.166667 20:0.181818 21:0.1875 26:0.75 28:0.104728 30:0.2 31:1 34:0.210526 35:1 37:0.333333 41:0.214286 44:1 45:0.333333 46:0.230769 47:0.307692 48:0.0833333 49:1 55:0.2 56:1 58:0.25 60:0.15 61:0.5 63:0.5 64:0.179437 66:1 68:0.333333 69:1 70:0.5 73:1 74:0.384615 75:0.2 78:0.230769 81:1 82:0.333333 83:0.185185 86:0.666667 87:0.25 88:0.225197 89:0.166667 91:0.111111 93:1 95:1 96:0.2 98:1 101:0.333333 102:0.25 103:0.333333 107:0.285714 110:0.333333 114:1 115:1 116:0.2 117:0.111111 118:0.176471 119:0.214286 121:0.166667 122:0.307692 123:0.0806452 124:0.304348 125:0.4 126:0.125 133:0.136364 134:0.117647 135:0.28 136:1 137:0.5 140:0.4 141:0.111111 
0 1 0 0 3:0.03125 5:0.03125 7:0.15 10:0.25 11:0.0625 12:0.25 14:0.125 15:0.078125 16:0.0833333 19:0.0625 20:0.0454545 21:0.078125 26:0.1875 28:0.0257331 30:0.05 31:0.25 34:0.0657895 35:0.25 37:0.0833333 41:0.0535714 43:0.0357143 44:0.25 45:0.166667 46:0.0576923 47:0.0769231 48:0.0208333 49:0.25 55:0.05 56:0.25 58:0.0625 60:0.05 61:0.125 63:0.125 64:0.042677 66:0.25 68:0.0833333 69:0.25 70:0.125 73:0.25 74:0.0961538 75:0.05 78:0.0769231 81:0.25 82:0.0833333 83:0.0462963 86:0.166667 87:0.0625 88:0.0598425 89:0.0416667 91:0.0277778 93:0.25 95:0.25 96:0.05 98:0.25 101:0.0833333 102:0.0625 103:0.0833333 107:0.0714286 110:0.0833333 114:0.25 115:0.25 116:0.0666667 117:0.0416667 118:0.0441176 119:0.0535714 121:0.0416667 122:0.0769231 123:0.0282258 124:0.076087 125:0.1 126:0.03125 133:0.0454545 134:0.0294118 135:0.0766667 136:0.25 137:0.125 140:0.1 141:0.0357143 
0.09268189202504562 1 0.4485056930028994 0 3:0.03125 5:0.03125 7:0.15 10:0.25 11:0.0625 12:0.25 14:0.125 15:0.078125 16:0.0833333 19:0.0625 20:0.0454545 21:0.09375 26:0.1875 28:0.0257331 30:0.05 31:0.25 34:0.0657895 35:0.25 37:0.0833333 41:0.0714286 43:0.0357143 44:0.25 45:0.166667 46:0.0576923 47:0.0769231 48:0.0416667 49:0.25 50:0.0416667 55:0.05 56:0.25 58:0.0625 60:0.0625 61:0.125 63:0.125 64:0.042677 66:0.25 68:0.0833333 69:0.25 70:0.125 73:0.25 74:0.0961538 75:0.05 78:0.0769231 81:0.25 82:0.0833333 83:0.0648148 86:0.166667 87:0.0625 88:0.0645669 89:0.0416667 91:0.0277778 93:0.25 95:0.25 96:0.05 98:0.25 101:0.0833333 102:0.0625 103:0.0833333 107:0.0714286 108:0.0357143 110:0.0833333 114:0.25 115:0.25 116:0.0666667 117:0.0416667 118:0.0441176 119:0.0595238 121:0.0416667 122:0.0769231 123:0.0362903 124:0.076087 125:0.1 126:0.03125 133:0.0454545 134:0.0294118 135:0.0833333 136:0.25 137:0.125 140:0.1 141:0.0396825 
1 1 0 0 3:0.0178571 5:0.0178571 7:0.0857143 10:0.142857 11:0.0357143 12:0.142857 14:0.0714286 15:0.0446429 16:0.047619 19:0.0357143 20:0.025974 21:0.0535714 26:0.107143 28:0.0144481 30:0.0285714 31:0.142857 34:0.0451128 35:0.142857 37:0.047619 41:0.0408163 43:0.0204082 44:0.142857 45:0.0952381 46:0.043956 47:0.043956 48:0.0238095 49:0.142857 50:0.0238095 55:0.0285714 56:0.142857 58:0.0357143 60:0.0357143 61:0.0714286 63:0.0714286 64:0.0231398 66:0.142857 68:0.047619 69:0.142857 70:0.0714286 73:0.142857 74:0.0549451 75:0.0285714 78:0.043956 81:0.142857 82:0.047619 83:0.037037 86:0.0952381 87:0.0357143 88:0.0362205 89:0.0238095 91:0.015873 93:0.142857 95:0.142857 96:0.0285714 98:0.142857 101:0.047619 102:0.0357143 103:0.047619 107:0.0408163 108:0.0204082 110:0.047619 114:0.142857 115:0.142857 116:0.0380952 117:0.0238095 118:0.0252101 119:0.0340136 121:0.0238095 122:0.043956 123:0.0230415 124:0.0434783 125:0.0571429 126:0.0178571 133:0.025974 134:0.0168067 135:0.0495238 136:0.142857 137:0.0714286 140:0.0571429 141:0.0226757 
1 1 0 0 3:0.015625 5:0.015625 7:0.075 10:0.125 11:0.0625 12:0.125 14:0.0625 15:0.0390625 16:0.0416667 19:0.03125 20:0.0227273 21:0.046875 26:0.09375 28:0.0158588 30:0.025 31:0.125 34:0.0394737 35:0.125 37:0.0416667 41:0.0357143 43:0.0178571 44:0.125 45:0.0833333 46:0.0384615 47:0.0384615 48:0.0208333 49:0.125 50:0.0208333 55:0.025 56:0.125 58:0.03125 60:0.03125 61:0.0625 63:0.0625 64:0.0312803 66:0.125 68:0.0416667 69:0.125 70:0.0625 73:0.125 74:0.0480769 75:0.025 78:0.0384615 81:0.125 82:0.0416667 83:0.0324074 86:0.0833333 87:0.03125 88:0.0338583 89:0.0208333 91:0.0138889 93:0.125 95:0.125 96:0.025 98:0.125 101:0.125 102:0.03125 103:0.0416667 107:0.0357143 108:0.0178571 110:0.0416667 114:0.125 115:0.125 116:0.0333333 117:0.0208333 118:0.0220588 119:0.0297619 121:0.0208333 122:0.0384615 123:0.0201613 124:0.0380435 125:0.05 126:0.015625 133:0.0227273 134:0.0147059 135:0.0433333 136:0.125 137:0.0625 140:0.05 141:0.0218254 
1 1 0 0 3:0.00961538 5:0.00961538 7:0.0461538 10:0.0769231 11:0.0384615 12:0.0769231 14:0.0384615 15:0.0240385 16:0.025641 19:0.0192308 20:0.013986 21:0.0288462 26:0.0576923 28:0.00952907 30:0.0153846 31:0.0769231 34:0.0242915 35:0.0769231 37:0.025641 41:0.021978 43:0.010989 44:0.0769231 45:0.0512821 46:0.0236686 47:0.0236686 48:0.0128205 49:0.0769231 50:0.0128205 53:0.0153846 55:0.0153846 56:0.0769231 57:0.002849 58:0.0192308 60:0.0230769 61:0.0384615 63:0.0384615 64:0.0181303 66:0.0769231 68:0.025641 69:0.0769231 70:0.0384615 73:0.0769231 74:0.0295858 75:0.0153846 78:0.0236686 81:0.0769231 82:0.025641 83:0.022792 86:0.0512821 87:0.0192308 88:0.0216838 89:0.0128205 91:0.00854701 93:0.0769231 95:0.0769231 96:0.0153846 98:0.0769231 101:0.0769231 102:0.0192308 103:0.025641 107:0.021978 108:0.010989 110:0.025641 114:0.0769231 115:0.0769231 116:0.0205128 117:0.0213675 118:0.0135747 119:0.018315 121:0.0128205 122:0.0236686 123:0.0124069 124:0.0234114 125:0.0307692 126:0.00961538 133:0.0174825 134:0.00904977 135:0.0266667 136:0.0769231 137:0.0384615 140:0.0307692 141:0.014652 
1 1 0 0 3:0.0178571 5:0.0178571 7:0.0857143 10:0.142857 11:0.0714286 12:0.142857 14:0.0714286 15:0.0446429 16:0.047619 19:0.0357143 20:0.025974 21:0.0535714 26:0.107143 28:0.0182098 30:0.0285714 31:0.142857 34:0.0451128 35:0.142857 37:0.047619 41:0.0408163 43:0.0204082 44:0.142857 45:0.0952381 46:0.043956 47:0.043956 48:0.0238095 49:0.142857 50:0.0238095 53:0.0285714 55:0.0285714 56:0.142857 57:0.00529101 58:0.0357143 60:0.0428571 61:0.0714286 63:0.0714286 64:0.0361646 66:0.142857 68:0.047619 69:0.142857 70:0.0714286 73:0.142857 74:0.0549451 75:0.0285714 78:0.043956 81:0.142857 82:0.047619 83:0.042328 86:0.0952381 87:0.0357143 88:0.0416198 89:0.0238095 91:0.015873 93:0.142857 95:0.142857 96:0.0285714 98:0.142857 101:0.142857 102:0.0357143 103:0.047619 107:0.0408163 108:0.0204082 110:0.047619 114:0.142857 115:0.142857 116:0.0380952 117:0.0396825 118:0.0252101 119:0.0340136 121:0.0238095 122:0.043956 123:0.0230415 124:0.0434783 125:0.0571429 126:0.0178571 133:0.0324675 134:0.0168067 135:0.0495238 136:0.142857 137:0.0714286 140:0.0571429 141:0.0272109 
0.9447171658072415 1 0 0 3:0.0178571 5:0.0178571 7:0.0857143 10:0.142857 11:0.0714286 12:0.142857 14:0.0714286 15:0.0446429 16:0.047619 18:0.0204082 19:0.0357143 20:0.025974 21:0.0535714 26:0.107143 28:0.0182098 30:0.0285714 31:0.142857 34:0.0451128 35:0.142857 37:0.047619 41:0.0408163 43:0.0204082 44:0.142857 45:0.0952381 46:0.043956 47:0.043956 48:0.0238095 49:0.142857 50:0.0238095 53:0.0285714 55:0.0285714 56:0.142857 57:0.00529101 58:0.0357143 60:0.0428571 61:0.0714286 63:0.0714286 64:0.0361646 66:0.142857 68:0.047619 69:0.142857 70:0.0714286 73:0.142857 74:0.0549451 75:0.0285714 78:0.0549451 81:0.142857 82:0.0952381 83:0.042328 86:0.0952381 87:0.0357143 88:0.0416198 89:0.0238095 91:0.015873 93:0.142857 95:0.142857 96:0.0285714 98:0.142857 101:0.142857 102:0.0357143 103:0.047619 107:0.0408163 108:0.0204082 110:0.047619 114:0.142857 115:0.142857 116:0.0380952 117:0.0396825 118:0.0252101 119:0.0340136 121:0.0238095 122:0.043956 123:0.0230415 124:0.0434783 125:0.0571429 126:0.0178571 133:0.0324675 134:0.0168067 135:0.0495238 136:0.142857 137:0.0714286 140:0.0571429 141:0.0272109 
0 1 0 0.1908209915681592 3:0.025 5:0.025 7:0.12 10:0.2 11:0.1 12:0.2 14:0.1 15:0.06875 16:0.0666667 18:0.0285714 19:0.05 20:0.0545455 21:0.075 26:0.15 28:0.0309994 30:0.04 31:0.2 34:0.0631579 35:0.2 37:0.0666667 41:0.0571429 42:0.0333333 43:0.0285714 44:0.2 45:0.133333 46:0.0615385 47:0.0615385 48:0.0333333 49:0.2 50:0.0333333 53:0.04 55:0.04 56:0.2 57:0.00740741 58:0.05 60:0.06 61:0.1 63:0.1 64:0.0517944 66:0.2 68:0.0666667 69:0.2 70:0.1 72:0.2 73:0.2 74:0.0769231 75:0.04 78:0.0769231 81:0.2 82:0.133333 83:0.0666667 86:0.133333 87:0.05 88:0.0588976 89:0.0333333 91:0.0222222 93:0.2 95:0.2 96:0.04 98:0.2 101:0.2 102:0.05 103:0.0666667 107:0.0571429 108:0.0285714 110:0.0666667 114:0.2 115:0.2 116:0.0533333 117:0.0555556 118:0.0352941 119:0.047619 121:0.0333333 122:0.0615385 123:0.0354839 124:0.0608696 125:0.08 126:0.025 127:0.2 133:0.0545455 134:0.0352941 135:0.072 136:0.2 137:0.1 140:0.08 141:0.0380952 
0 1 0.08205371934850733 0.523728947194549 3:0.0416667 5:0.0416667 7:0.2 10:0.333333 11:0.166667 12:0.333333 14:0.166667 15:0.125 16:0.111111 18:0.047619 19:0.0833333 20:0.0909091 21:0.125 26:0.25 28:0.0520646 30:0.0666667 31:0.333333 34:0.105263 35:0.333333 37:0.111111 41:0.0952381 42:0.0555556 43:0.047619 44:0.333333 45:0.222222 46:0.102564 47:0.102564 48:0.0555556 49:0.333333 50:0.0555556 53:0.0666667 55:0.0666667 56:0.333333 57:0.0123457 58:0.0833333 60:0.1 61:0.166667 63:0.166667 64:0.0882638 66:0.333333 68:0.111111 69:0.333333 70:0.166667 72:0.333333 73:0.333333 74:0.128205 75:0.0666667 78:0.128205 81:0.333333 82:0.222222 83:0.111111 86:0.222222 87:0.0833333 88:0.0992126 89:0.0555556 91:0.037037 93:0.333333 95:0.333333 96:0.0666667 98:0.333333 101:0.333333 102:0.0833333 103:0.111111 107:0.0952381 108:0.047619 110:0.111111 114:0.333333 115:0.333333 116:0.0888889 117:0.101852 118:0.0588235 119:0.0793651 121:0.0555556 122:0.102564 123:0.0698925 124:0.101449 125:0.133333 126:0.0416667 127:0.333333 133:0.0909091 134:0.0588235 135:0.12 136:0.333333 137:0.166667 140:0.133333 141:0.0740741 
1 1 0 0 3:0.0113636 5:0.0113636 7:0.0545455 10:0.0909091 11:0.0454545 12:0.0909091 14:0.0454545 15:0.0340909 16:0.030303 18:0.012987 19:0.030303 20:0.0330579 21:0.0340909 26:0.0681818 28:0.016158 30:0.0181818 31:0.0909091 34:0.0287081 35:0.0909091 37:0.030303 41:0.0324675 42:0.0151515 43:0.012987 44:0.0909091 45:0.0606061 46:0.027972 47:0.027972 48:0.0151515 49:0.0909091 50:0.0151515 53:0.0181818 55:0.0181818 56:0.0909091 57:0.003367 58:0.0227273 60:0.0272727 61:0.0454545 63:0.0454545 64:0.0261 66:0.0909091 68:0.030303 69:0.0909091 70:0.0454545 72:0.0909091 73:0.0909091 74:0.034965 75:0.0181818 78:0.034965 81:0.0909091 82:0.0606061 83:0.03367 86:0.0606061 87:0.0227273 88:0.0276306 89:0.0151515 91:0.010101 93:0.0909091 95:0.0909091 96:0.0181818 98:0.0909091 101:0.0909091 102:0.0227273 103:0.030303 107:0.025974 108:0.012987 110:0.030303 114:0.0909091 115:0.0909091 116:0.0242424 117:0.030303 118:0.0213904 119:0.021645 121:0.0151515 122:0.027972 123:0.0219941 124:0.027668 125:0.0363636 126:0.0113636 127:0.0909091 133:0.0289256 134:0.0160428 135:0.0327273 136:0.0909091 137:0.0454545 140:0.0363636 141:0.020202 
1 1 0 0.2469226528233043 3:0.00290698 5:0.00290698 7:0.0139535 10:0.0232558 11:0.0116279 12:0.0232558 13:0.00775194 14:0.0116279 15:0.00944767 16:0.00775194 18:0.00332226 19:0.00968992 20:0.00845666 21:0.00872093 26:0.0174419 28:0.00368809 30:0.00465116 31:0.0232558 34:0.00734394 35:0.0232558 37:0.00775194 41:0.00830565 42:0.00387597 43:0.00332226 44:0.0232558 45:0.0155039 46:0.00715564 47:0.00715564 48:0.00387597 49:0.0232558 50:0.00387597 53:0.00465116 55:0.00930233 56:0.0232558 57:0.000861326 58:0.00581395 60:0.00813953 61:0.0116279 63:0.0116279 64:0.00451131 66:0.0232558 68:0.00775194 69:0.0232558 70:0.0116279 72:0.0232558 73:0.0232558 74:0.00894454 75:0.00465116 78:0.00894454 80:0.0232558 81:0.0232558 82:0.0155039 83:0.00861326 86:0.0155039 87:0.00581395 88:0.00589636 89:0.00387597 90:0.00581395 91:0.00258398 93:0.0232558 95:0.0232558 96:0.00465116 98:0.0232558 101:0.0232558 102:0.0174419 103:0.0103359 107:0.00664452 108:0.00332226 110:0.00775194 114:0.0232558 115:0.0232558 116:0.00620155 117:0.00775194 118:0.00547196 119:0.0055371 121:0.00387597 122:0.00715564 123:0.00637659 124:0.00808898 125:0.0139535 126:0.00290698 127:0.0232558 133:0.00739958 134:0.00410397 135:0.0096124 136:0.0232558 137:0.0174419 140:0.00930233 141:0.0055371 
0 1 0 0 3:0.03125 5:0.03125 7:0.15 10:0.25 11:0.125 12:0.25 13:0.0833333 14:0.125 15:0.101563 16:0.0833333 18:0.0357143 19:0.104167 20:0.0909091 21:0.09375 26:0.1875 28:0.0454817 30:0.05 31:0.25 34:0.0789474 35:0.25 37:0.0833333 41:0.0892857 42:0.0416667 43:0.0357143 44:0.25 45:0.166667 46:0.0769231 47:0.0961538 48:0.0416667 49:0.25 50:0.0416667 53:0.05 55:0.1 56:0.25 57:0.00925926 58:0.0625 60:0.0875 61:0.125 63:0.125 64:0.0768671 66:0.25 68:0.0833333 69:0.25 70:0.125 72:0.25 73:0.25 74:0.0961538 75:0.05 78:0.0961538 80:0.25 81:0.25 82:0.166667 83:0.0925926 86:0.166667 87:0.0625 88:0.0834646 89:0.0416667 90:0.0625 91:0.0277778 93:0.25 95:0.25 96:0.05 98:0.25 101:0.25 102:0.1875 103:0.111111 107:0.0714286 108:0.0357143 110:0.0833333 114:0.25 115:0.25 116:0.0666667 117:0.0833333 118:0.0588235 119:0.0595238 121:0.0416667 122:0.0769231 123:0.0685484 124:0.0869565 125:0.15 126:0.03125 127:0.25 133:0.0795455 134:0.0441176 135:0.103333 136:0.25 137:0.1875 140:0.1 141:0.0595238 
0 1 0 0.1206817858748532 3:0.03125 5:0.03125 7:0.15 10:0.25 11:0.125 12:0.25 13:0.0833333 14:0.125 15:0.101563 16:0.0833333 18:0.0357143 19:0.104167 20:0.0909091 21:0.09375 26:0.1875 28:0.0454817 30:0.05 31:0.25 34:0.0789474 35:0.25 37:0.0833333 41:0.0892857 42:0.0416667 43:0.0357143 44:0.25 45:0.166667 46:0.0769231 47:0.0961538 48:0.0416667 49:0.25 50:0.0416667 53:0.05 55:0.1 56:0.25 57:0.00925926 58:0.0625 60:0.0875 61:0.125 63:0.125 64:0.0768671 66:0.25 68:0.0833333 69:0.25 70:0.125 72:0.25 73:0.25 74:0.0961538 75:0.05 78:0.0961538 80:0.25 81:0.25 82:0.166667 83:0.0925926 86:0.166667 87:0.0625 88:0.0834646 89:0.0416667 90:0.0625 91:0.0277778 93:0.25 95:0.25 96:0.05 98:0.25 101:0.25 102:0.1875 103:0.111111 107:0.0714286 108:0.0357143 110:0.0833333 114:0.25 115:0.25 116:0.0666667 117:0.0833333 118:0.0588235 119:0.0595238 121:0.0416667 122:0.0769231 123:0.0685484 124:0.0869565 125:0.15 126:0.03125 127:0.25 133:0.0795455 134:0.0441176 135:0.103333 136:0.25 137:0.1875 140:0.1 141:0.0595238 
0 1 0 0 3:0.025 5:0.025 7:0.12 10:0.2 11:0.1 12:0.2 13:0.0666667 14:0.1 15:0.08125 16:0.0666667 18:0.0285714 19:0.0833333 20:0.0727273 21:0.075 26:0.15 28:0.0362657 30:0.04 31:0.2 34:0.0631579 35:0.2 37:0.0666667 41:0.0714286 42:0.0333333 43:0.0285714 44:0.2 45:0.133333 46:0.0615385 47:0.0769231 48:0.0333333 49:0.2 50:0.0333333 53:0.04 55:0.08 56:0.2 57:0.00740741 58:0.05 60:0.07 61:0.1 62:0.0333333 63:0.1 64:0.0609117 66:0.2 68:0.0666667 69:0.2 70:0.1 72:0.2 73:0.2 74:0.0769231 75:0.04 78:0.0769231 80:0.2 81:0.2 82:0.133333 83:0.0740741 86:0.133333 87:0.05 88:0.0664567 89:0.0333333 90:0.05 91:0.0222222 93:0.2 95:0.2 96:0.04 98:0.2 101:0.2 102:0.15 103:0.0888889 107:0.0571429 108:0.0285714 110:0.0666667 114:0.2 115:0.2 116:0.0533333 117:0.0722222 118:0.0470588 119:0.047619 121:0.0333333 122:0.0615385 123:0.0548387 124:0.0695652 125:0.12 126:0.025 127:0.2 133:0.0636364 134:0.0352941 135:0.0826667 136:0.2 137:0.15 140:0.08 141:0.047619 
0 1 0 0.2543227248114166 3:0.0416667 5:0.0416667 7:0.2 9:0.0666667 10:0.333333 11:0.166667 12:0.333333 13:0.111111 14:0.166667 15:0.135417 16:0.111111 18:0.047619 19:0.138889 20:0.121212 21:0.125 26:0.25 28:0.0608418 30:0.0666667 31:0.333333 34:0.105263 35:0.333333 37:0.111111 41:0.119048 42:0.0555556 43:0.0952381 44:0.333333 45:0.222222 46:0.102564 47:0.128205 48:0.0555556 49:0.333333 50:0.0555556 53:0.0666667 55:0.133333 56:0.333333 57:0.0123457 58:0.0833333 60:0.116667 61:0.166667 62:0.0555556 63:0.166667 64:0.103459 66:0.333333 68:0.111111 69:0.333333 70:0.166667 72:0.333333 73:0.333333 74:0.128205 75:0.0666667 78:0.128205 80:0.333333 81:0.333333 82:0.222222 83:0.123457 86:0.222222 87:0.0833333 88:0.111811 89:0.0555556 90:0.0833333 91:0.0740741 93:0.333333 95:0.333333 96:0.0666667 98:0.333333 101:0.333333 102:0.25 103:0.185185 107:0.0952381 108:0.047619 110:0.111111 114:0.333333 115:0.333333 116:0.0888889 117:0.12037 118:0.0784314 119:0.0793651 121:0.0555556 122:0.102564 123:0.0913978 124:0.115942 125:0.2 126:0.0416667 127:0.333333 131:0.0666667 133:0.106061 134:0.0588235 135:0.137778 136:0.333333 137:0.25 140:0.133333 141:0.0793651 
0 1 0 0 3:0.0178571 5:0.0178571 7:0.0857143 9:0.0285714 10:0.142857 11:0.0714286 12:0.142857 13:0.047619 14:0.0714286 15:0.0625 16:0.047619 18:0.0204082 19:0.0595238 20:0.0519481 21:0.0535714 26:0.107143 28:0.0294947 30:0.0285714 31:0.142857 34:0.0451128 35:0.142857 37:0.047619 41:0.0510204 42:0.0238095 43:0.0408163 44:0.142857 45:0.0952381 46:0.043956 47:0.0659341 48:0.0238095 49:0.142857 50:0.0238095 53:0.0285714 55:0.0571429 56:0.142857 57:0.00529101 58:0.0357143 60:0.05 61:0.0714286 62:0.0238095 63:0.0714286 64:0.042677 66:0.142857 68:0.047619 69:0.142857 70:0.0714286 72:0.142857 73:0.142857 74:0.0549451 75:0.0285714 78:0.0549451 80:0.142857 81:0.142857 82:0.0952381 83:0.0529101 86:0.0952381 87:0.0357143 88:0.0470191 89:0.0357143 90:0.0357143 91:0.031746 93:0.142857 95:0.142857 96:0.0285714 98:0.142857 101:0.142857 102:0.107143 103:0.0793651 107:0.0408163 108:0.0204082 110:0.047619 114:0.142857 115:0.142857 116:0.0380952 117:0.0515873 118:0.0336134 119:0.0340136 121:0.0238095 122:0.043956 123:0.0391705 124:0.0496894 125:0.0857143 126:0.0178571 127:0.142857 131:0.0285714 133:0.0454545 134:0.0252101 135:0.0590476 136:0.142857 137:0.107143 140:0.0571429 141:0.0340136 
0.3601226254999854 1 0 0.0576022938297666 3:0.125 5:0.125 7:0.6 9:0.2 10:1 11:0.5 12:1 13:0.333333 14:0.5 15:0.4375 16:0.333333 18:0.142857 19:0.416667 20:0.363636 21:0.375 26:0.75 28:0.210054 30:0.2 31:1 34:0.315789 35:1 37:0.333333 41:0.357143 42:0.166667 43:0.285714 44:1 45:0.666667 46:0.307692 47:0.461538 48:0.166667 49:1 50:0.166667 53:0.2 55:0.4 56:1 57:0.037037 58:0.25 60:0.35 61:0.5 62:0.166667 63:0.5 64:0.316198 66:1 68:0.333333 69:1 70:0.5 72:1 73:1 74:0.384615 75:0.2 78:0.384615 80:1 81:1 82:0.666667 83:0.37037 86:0.666667 87:0.25 88:0.338583 89:0.25 90:0.25 91:0.222222 93:1 95:1 96:0.2 98:1 101:1 102:0.75 103:0.555556 107:0.285714 108:0.142857 110:0.333333 114:1 115:1 116:0.266667 117:0.361111 118:0.235294 119:0.238095 121:0.166667 122:0.307692 123:0.306452 124:0.347826 125:0.6 126:0.25 127:1 131:0.4 133:0.318182 134:0.176471 135:0.413333 136:1 137:0.75 140:0.4 141:0.238095 
1 1 0 0 3:0.0125 5:0.0125 7:0.06 9:0.02 10:0.1 11:0.05 12:0.1 13:0.0333333 14:0.05 15:0.04375 16:0.0333333 18:0.0142857 19:0.0416667 20:0.0363636 21:0.0375 26:0.075 28:0.0204668 30:0.02 31:0.1 34:0.0315789 35:0.1 37:0.0333333 38:0.0333333 41:0.0357143 42:0.0333333 43:0.0285714 44:0.1 45:0.0666667 46:0.0307692 47:0.0461538 48:0.0166667 49:0.1 50:0.0166667 53:0.02 55:0.04 56:0.1 57:0.0037037 58:0.025 60:0.035 61:0.05 62:0.0166667 63:0.05 64:0.029001 66:0.1 68:0.0333333 69:0.1 70:0.05 72:0.1 73:0.1 74:0.0384615 75:0.02 78:0.0384615 80:0.1 81:0.1 82:0.0666667 83:0.037037 86:0.0666667 87:0.025 88:0.0324409 89:0.025 90:0.025 91:0.0222222 93:0.1 95:0.1 96:0.02 98:0.1 101:0.1 102:0.075 103:0.0555556 107:0.0428571 108:0.0142857 110:0.0333333 114:0.1 115:0.1 116:0.0333333 117:0.0361111 118:0.0235294 119:0.0238095 121:0.0166667 122:0.0307692 123:0.0306452 124:0.0391304 125:0.06 126:0.025 127:0.1 131:0.04 133:0.0318182 134:0.0235294 135:0.0413333 136:0.1 137:0.075 140:0.06 141:0.0238095 
0 1 0 0 3:0.0178571 5:0.0178571 7:0.0857143 9:0.0285714 10:0.142857 11:0.0714286 12:0.142857 13:0.047619 14:0.0714286 15:0.0625 16:0.047619 18:0.0204082 19:0.0595238 20:0.0519481 21:0.0535714 26:0.107143 28:0.0294947 30:0.0285714 31:0.142857 34:0.0451128 35:0.142857 37:0.047619 38:0.047619 41:0.0510204 42:0.047619 43:0.0408163 44:0.142857 45:0.0952381 46:0.043956 47:0.0659341 48:0.0238095 49:0.142857 50:0.0238095 53:0.0285714 55:0.0571429 56:0.142857 57:0.00529101 58:0.0357143 60:0.05 61:0.0714286 62:0.0238095 63:0.0714286 64:0.042677 66:0.142857 68:0.047619 69:0.142857 70:0.0714286 72:0.142857 73:0.142857 74:0.0659341 75:0.0285714 78:0.0549451 80:0.142857 81:0.142857 82:0.0952381 83:0.0529101 86:0.0952381 87:0.0357143 88:0.0497188 89:0.0357143 90:0.0357143 91:0.031746 93:0.142857 95:0.142857 96:0.0285714 98:0.142857 101:0.142857 102:0.107143 103:0.0793651 107:0.0612245 108:0.0204082 110:0.047619 114:0.142857 115:0.142857 116:0.047619 117:0.0515873 118:0.0336134 119:0.0340136 121:0.0238095 122:0.043956 123:0.0460829 124:0.0559006 125:0.0857143 126:0.0357143 127:0.142857 131:0.0571429 133:0.0454545 134:0.0420168 135:0.0590476 136:0.142857 137:0.107143 140:0.0857143 141:0.0340136 
1 1 0.1520613227368818 0 3:0.125 5:0.125 7:0.6 9:0.2 10:1 11:0.5 12:1 13:0.333333 14:0.5 15:0.4375 16:0.333333 18:0.142857 19:0.416667 20:0.363636 21:0.375 26:0.75 28:0.210054 30:0.2 31:1 34:0.315789 35:1 37:0.333333 38:0.333333 41:0.357143 42:0.333333 43:0.285714 44:1 45:0.666667 46:0.307692 47:0.461538 48:0.166667 49:1 50:0.166667 53:0.2 55:0.4 56:1 57:0.037037 58:0.25 60:0.35 61:0.5 62:0.166667 63:0.5 64:0.361785 66:1 68:0.333333 69:1 70:0.5 72:1 73:1 74:0.461538 75:0.2 78:0.384615 80:1 81:1 82:0.666667 83:0.37037 86:0.666667 87:0.25 88:0.35748 89:0.25 90:0.25 91:0.222222 93:1 95:1 96:0.2 98:1 101:1 102:0.75 103:0.555556 107:0.428571 108:0.142857 110:0.333333 114:1 115:1 116:0.333333 117:0.361111 118:0.235294 119:0.285714 121:0.166667 122:0.307692 123:0.33871 124:0.391304 125:0.6 126:0.25 127:1 131:0.4 133:0.318182 134:0.294118 135:0.426667 136:1 137:0.75 140:0.6 141:0.238095 
0 1 0 0 3:0.0416667 5:0.0416667 7:0.266667 9:0.0666667 10:0.333333 11:0.166667 12:0.333333 13:0.111111 14:0.166667 15:0.15625 16:0.111111 18:0.047619 19:0.138889 20:0.121212 21:0.125 26:0.25 28:0.069619 30:0.0666667 31:0.333333 34:0.105263 35:0.333333 37:0.111111 38:0.111111 41:0.166667 42:0.111111 43:0.0952381 44:0.333333 45:0.333333 46:0.102564 47:0.153846 48:0.0833333 49:0.333333 50:0.111111 53:0.133333 55:0.133333 56:0.333333 57:0.0246914 58:0.0833333 60:0.116667 61:0.166667 62:0.111111 63:0.166667 64:0.118655 66:0.333333 68:0.111111 69:0.333333 70:0.166667 72:0.333333 73:0.333333 74:0.153846 75:0.0666667 77:0.0952381 78:0.128205 80:0.333333 81:0.333333 82:0.222222 83:0.123457 86:0.222222 87:0.0833333 88:0.11811 89:0.0833333 90:0.0833333 91:0.0740741 93:0.333333 95:0.333333 96:0.0666667 98:0.333333 99:0.0666667 101:0.333333 102:0.25 103:0.185185 107:0.142857 108:0.047619 110:0.111111 114:0.333333 115:0.333333 116:0.155556 117:0.12037 118:0.0784314 119:0.111111 121:0.0555556 122:0.102564 123:0.112903 124:0.130435 125:0.2 126:0.0833333 127:0.333333 131:0.133333 133:0.121212 134:0.0980392 135:0.146667 136:0.333333 137:0.25 140:0.2 141:0.100529 
1 1 0 0 3:0.00416667 5:0.00416667 7:0.0266667 9:0.00666667 10:0.0333333 11:0.0166667 12:0.0333333 13:0.0111111 14:0.0333333 15:0.0166667 16:0.0111111 18:0.0047619 19:0.0138889 20:0.0151515 21:0.0125 26:0.025 28:0.00905645 30:0.00666667 31:0.0333333 34:0.0105263 35:0.0333333 37:0.0111111 38:0.0111111 41:0.0166667 42:0.0111111 43:0.00952381 44:0.0333333 45:0.0333333 46:0.0102564 47:0.0153846 48:0.00833333 49:0.0333333 50:0.0111111 53:0.0133333 55:0.0133333 56:0.0333333 57:0.00493827 58:0.00833333 60:0.015 61:0.0166667 62:0.0111111 63:0.0166667 64:0.00924669 66:0.0333333 68:0.0111111 69:0.0333333 70:0.0166667 72:0.0333333 73:0.0333333 74:0.0153846 75:0.00666667 77:0.00952381 78:0.0128205 80:0.0333333 81:0.0333333 82:0.0222222 83:0.0123457 86:0.0222222 87:0.00833333 88:0.0103937 89:0.00833333 90:0.00833333 91:0.00740741 93:0.0333333 94:0.0111111 95:0.0333333 96:0.00666667 98:0.0333333 99:0.00666667 101:0.0333333 102:0.025 103:0.0185185 107:0.0142857 108:0.00952381 110:0.0111111 112:0.0111111 114:0.0333333 115:0.0333333 116:0.0177778 117:0.012037 118:0.00784314 119:0.0119048 121:0.00555556 122:0.0128205 123:0.011828 124:0.0130435 125:0.02 126:0.00833333 127:0.0333333 131:0.0133333 133:0.0121212 134:0.0117647 135:0.0155556 136:0.0333333 137:0.025 140:0.02 141:0.0111111 
1 1 0 0 3:0.00520833 5:0.00520833 7:0.0333333 9:0.00833333 10:0.0416667 11:0.0208333 12:0.0416667 13:0.0138889 14:0.0416667 15:0.0208333 16:0.0138889 18:0.00595238 19:0.0173611 20:0.0227273 21:0.015625 26:0.03125 28:0.0114702 30:0.00833333 31:0.0416667 34:0.0131579 35:0.0416667 37:0.0138889 38:0.0138889 41:0.0208333 42:0.0138889 43:0.0119048 44:0.0416667 45:0.0416667 46:0.0128205 47:0.0192308 48:0.0104167 49:0.0416667 50:0.0138889 53:0.0166667 55:0.0166667 56:0.0416667 57:0.00771605 58:0.0104167 60:0.01875 61:0.0208333 62:0.0138889 63:0.0208333 64:0.0122858 66:0.0416667 68:0.0138889 69:0.0416667 70:0.0208333 72:0.0416667 73:0.0416667 74:0.0192308 75:0.00833333 77:0.0119048 78:0.0160256 80:0.0416667 81:0.0416667 82:0.0277778 83:0.0169753 86:0.0277778 87:0.0104167 88:0.0141732 89:0.0104167 90:0.0104167 91:0.00925926 93:0.0416667 94:0.0138889 95:0.0416667 96:0.00833333 98:0.0416667 99:0.00833333 101:0.0416667 102:0.03125 103:0.0231481 107:0.0178571 108:0.0119048 110:0.0138889 112:0.0138889 114:0.0416667 115:0.0416667 116:0.0222222 117:0.0150463 118:0.0122549 119:0.014881 121:0.00694444 122:0.0224359 123:0.0147849 124:0.0163043 125:0.025 126:0.0104167 127:0.0416667 131:0.0166667 133:0.0151515 134:0.0147059 135:0.0194444 136:0.0416667 137:0.03125 140:0.025 141:0.0145503 
0 1 0 0 3:0.015625 5:0.015625 7:0.1 9:0.025 10:0.125 11:0.0625 12:0.125 13:0.0416667 14:0.125 15:0.0625 16:0.0416667 18:0.0178571 19:0.0520833 20:0.0681818 21:0.046875 26:0.09375 28:0.0356074 30:0.025 31:0.125 34:0.0394737 35:0.125 37:0.0416667 38:0.0416667 41:0.0625 42:0.0625 43:0.0357143 44:0.125 45:0.125 46:0.0384615 47:0.0673077 48:0.03125 49:0.125 50:0.0416667 53:0.05 55:0.05 56:0.125 57:0.0231481 58:0.0390625 60:0.05625 61:0.0625 62:0.0416667 63:0.0625 64:0.042677 66:0.125 68:0.0416667 69:0.125 70:0.0625 72:0.125 73:0.125 74:0.0576923 75:0.025 77:0.0357143 78:0.0480769 80:0.125 81:0.125 82:0.0833333 83:0.0509259 86:0.0833333 87:0.03125 88:0.0456693 89:0.03125 90:0.03125 91:0.0277778 93:0.125 94:0.0416667 95:0.125 96:0.025 98:0.125 99:0.025 101:0.125 102:0.09375 103:0.0694444 107:0.0535714 108:0.0357143 110:0.0416667 112:0.0416667 114:0.125 115:0.125 116:0.0666667 117:0.0451389 118:0.0367647 119:0.0446429 121:0.0208333 122:0.0673077 123:0.0443548 124:0.048913 125:0.075 126:0.03125 127:0.125 131:0.05 133:0.0454545 134:0.0514706 135:0.0583333 136:0.125 137:0.09375 140:0.075 141:0.0436508 
0 1 0 0 3:0.025 5:0.025 7:0.16 9:0.04 10:0.2 11:0.1 12:0.2 13:0.0666667 14:0.2 15:0.1 16:0.0666667 18:0.0285714 19:0.0833333 20:0.109091 21:0.075 26:0.15 28:0.0573309 30:0.04 31:0.2 34:0.0631579 35:0.2 37:0.0666667 38:0.0666667 41:0.1 42:0.1 43:0.0571429 44:0.2 45:0.2 46:0.0615385 47:0.107692 48:0.05 49:0.2 50:0.0666667 53:0.08 55:0.08 56:0.2 57:0.037037 58:0.0625 60:0.09 61:0.1 62:0.0666667 63:0.1 64:0.0700291 66:0.2 68:0.0666667 69:0.2 70:0.1 72:0.2 73:0.2 74:0.0923077 75:0.04 77:0.0571429 78:0.0769231 80:0.2 81:0.2 82:0.133333 83:0.0814815 86:0.133333 87:0.05 88:0.0740157 89:0.05 90:0.05 91:0.0444444 93:0.2 94:0.0666667 95:0.2 96:0.04 98:0.2 99:0.04 101:0.2 102:0.15 103:0.111111 107:0.0857143 108:0.0571429 110:0.0666667 112:0.0666667 114:0.2 115:0.2 116:0.106667 117:0.0722222 118:0.0588235 119:0.0714286 121:0.0333333 122:0.107692 123:0.0709677 124:0.0782609 125:0.12 126:0.05 127:0.2 131:0.08 133:0.0727273 134:0.0823529 135:0.096 136:0.2 137:0.15 140:0.12 141:0.0698413 
0 1 0 0 3:0.0416667 5:0.0416667 7:0.266667 9:0.0666667 10:0.333333 11:0.166667 12:0.333333 13:0.111111 14:0.333333 15:0.166667 16:0.111111 18:0.047619 19:0.138889 20:0.181818 21:0.125 26:0.25 28:0.0959505 30:0.0666667 31:0.333333 34:0.105263 35:0.333333 37:0.111111 38:0.111111 41:0.166667 42:0.166667 43:0.0952381 44:0.333333 45:0.333333 46:0.102564 47:0.179487 48:0.0833333 49:0.333333 50:0.111111 53:0.133333 55:0.133333 56:0.333333 57:0.0617284 58:0.104167 60:0.15 61:0.166667 62:0.111111 63:0.166667 64:0.118655 66:0.333333 68:0.111111 69:0.333333 70:0.166667 72:0.333333 73:0.333333 74:0.153846 75:0.0666667 77:0.0952381 78:0.128205 80:0.333333 81:0.333333 82:0.222222 83:0.135802 86:0.222222 87:0.0833333 88:0.130709 89:0.0833333 90:0.0833333 91:0.0740741 93:0.333333 94:0.111111 95:0.333333 96:0.0666667 98:0.333333 99:0.0666667 101:0.333333 102:0.25 103:0.185185 107:0.142857 108:0.0952381 110:0.111111 112:0.111111 114:0.333333 115:0.333333 116:0.177778 117:0.12037 118:0.0980392 119:0.119048 121:0.0555556 122:0.179487 123:0.11828 124:0.130435 125:0.2 126:0.0833333 127:0.333333 131:0.133333 133:0.121212 134:0.137255 135:0.16 136:0.333333 137:0.25 140:0.2 141:0.116402 
0 1 0 0 3:0.0178571 5:0.0178571 7:0.114286 9:0.0285714 10:0.142857 11:0.0714286 12:0.142857 13:0.047619 14:0.142857 15:0.0714286 16:0.047619 18:0.0204082 19:0.0595238 20:0.0779221 21:0.0535714 26:0.107143 28:0.0407797 30:0.0285714 31:0.142857 34:0.0451128 35:0.142857 37:0.047619 38:0.047619 41:0.0714286 42:0.0714286 43:0.0408163 44:0.142857 45:0.142857 46:0.043956 47:0.0769231 48:0.0357143 49:0.142857 50:0.047619 53:0.0571429 55:0.0571429 56:0.142857 57:0.026455 58:0.0446429 60:0.0642857 61:0.0714286 62:0.047619 63:0.0714286 64:0.0491894 66:0.142857 68:0.047619 69:0.142857 70:0.0714286 72:0.142857 73:0.142857 74:0.0659341 75:0.0285714 77:0.0408163 78:0.0549451 80:0.142857 81:0.142857 82:0.0952381 83:0.0582011 86:0.0952381 87:0.0357143 88:0.0551181 89:0.0357143 90:0.0357143 91:0.031746 93:0.142857 94:0.047619 95:0.142857 96:0.0428571 98:0.142857 99:0.0285714 101:0.142857 102:0.107143 103:0.0793651 107:0.0612245 108:0.0408163 110:0.047619 112:0.047619 114:0.142857 115:0.142857 116:0.0761905 117:0.0555556 118:0.0420168 119:0.0510204 121:0.0238095 122:0.0769231 123:0.0506912 124:0.0559006 125:0.0857143 126:0.0357143 127:0.142857 131:0.0571429 133:0.0519481 134:0.0588235 135:0.0685714 136:0.142857 137:0.107143 140:0.0857143 141:0.0498866 
0 1 0 0.1972065169957309 3:0.0625 5:0.0625 7:0.4 9:0.1 10:0.5 11:0.25 12:0.5 13:0.166667 14:0.5 15:0.25 16:0.166667 18:0.0714286 19:0.208333 20:0.272727 21:0.1875 26:0.375 28:0.144225 30:0.1 31:0.5 34:0.157895 35:0.5 37:0.166667 38:0.166667 41:0.25 42:0.25 43:0.214286 44:0.5 45:0.5 46:0.153846 47:0.269231 48:0.125 49:0.5 50:0.166667 53:0.2 55:0.2 56:0.5 57:0.0925926 58:0.15625 60:0.225 61:0.25 62:0.166667 63:0.25 64:0.179437 66:0.5 68:0.166667 69:0.5 70:0.25 72:0.5 73:0.5 74:0.230769 75:0.1 77:0.142857 78:0.192308 80:0.5 81:0.5 82:0.333333 83:0.203704 86:0.333333 87:0.125 88:0.19685 89:0.125 90:0.125 91:0.111111 93:0.5 94:0.166667 95:0.5 96:0.15 98:0.5 99:0.1 101:0.5 102:0.375 103:0.277778 107:0.214286 108:0.142857 110:0.166667 112:0.166667 114:0.5 115:0.5 116:0.266667 117:0.194444 118:0.147059 119:0.178571 121:0.0833333 122:0.269231 123:0.177419 124:0.195652 125:0.3 126:0.125 127:0.5 131:0.2 133:0.181818 134:0.205882 135:0.24 136:0.5 137:0.375 140:0.3 141:0.174603 
0.6824412633683291 1 0 0 3:0.0125 5:0.0125 7:0.08 9:0.02 10:0.1 11:0.05 12:0.1 13:0.0333333 14:0.1 15:0.053125 16:0.0333333 18:0.0142857 19:0.0416667 20:0.0636364 21:0.0375 26:0.075 28:0.0309994 30:0.02 31:0.1 34:0.0315789 35:0.1 37:0.0333333 38:0.0333333 41:0.0571429 42:0.05 43:0.0428571 44:0.1 45:0.1 46:0.0307692 47:0.0615385 48:0.025 49:0.1 50:0.0333333 53:0.04 55:0.04 56:0.1 57:0.0185185 58:0.03125 60:0.045 61:0.05 62:0.0333333 63:0.05 64:0.0381183 66:0.1 68:0.0333333 69:0.1 70:0.05 72:0.1 73:0.1 74:0.0461538 75:0.02 77:0.0285714 78:0.0384615 80:0.1 81:0.1 82:0.0666667 83:0.0407407 86:0.0666667 87:0.025 88:0.0437795 89:0.025 90:0.025 91:0.0222222 93:0.1 94:0.0333333 95:0.1 96:0.03 98:0.1 99:0.02 101:0.1 102:0.075 103:0.0555556 107:0.0571429 108:0.0428571 110:0.0333333 112:0.0333333 114:0.1 115:0.1 116:0.0533333 117:0.0388889 118:0.0294118 119:0.0404762 121:0.0166667 122:0.0615385 123:0.0370968 124:0.0434783 125:0.06 126:0.025 127:0.1 131:0.04 133:0.0454545 134:0.0411765 135:0.048 136:0.1 137:0.075 140:0.06 141:0.0380952 
0 1 0 0 3:0.0208333 5:0.0208333 7:0.133333 9:0.0333333 10:0.166667 11:0.0833333 12:0.166667 13:0.0555556 14:0.166667 15:0.0885417 16:0.0555556 18:0.0238095 19:0.0694444 20:0.106061 21:0.0625 26:0.125 28:0.0520646 30:0.0333333 31:0.166667 34:0.0526316 35:0.166667 37:0.0555556 38:0.0555556 41:0.0952381 42:0.0833333 43:0.0714286 44:0.166667 45:0.166667 46:0.0512821 47:0.102564 48:0.0416667 49:0.166667 50:0.0555556 53:0.0666667 55:0.0666667 56:0.166667 57:0.0308642 58:0.0520833 60:0.075 61:0.0833333 62:0.0555556 63:0.0833333 64:0.0654704 66:0.166667 68:0.0555556 69:0.166667 70:0.0833333 72:0.166667 73:0.166667 74:0.0769231 75:0.0333333 77:0.047619 78:0.0641026 80:0.166667 81:0.166667 82:0.111111 83:0.0679012 86:0.111111 87:0.0416667 88:0.0740157 89:0.0416667 90:0.0416667 91:0.037037 93:0.166667 94:0.0555556 95:0.166667 96:0.05 98:0.166667 99:0.0333333 101:0.166667 102:0.125 103:0.0925926 107:0.0952381 108:0.0714286 110:0.0555556 112:0.0555556 114:0.166667 115:0.166667 116:0.0888889 117:0.0648148 118:0.0490196 119:0.0674603 121:0.0277778 122:0.102564 123:0.061828 124:0.0724638 125:0.1 126:0.0416667 127:0.166667 131:0.0666667 133:0.0833333 134:0.0686275 135:0.08 136:0.166667 137:0.125 140:0.1 141:0.0634921 
1 1 0 0 3:0.00520833 5:0.00520833 7:0.0333333 9:0.00833333 10:0.0416667 11:0.0208333 12:0.0416667 13:0.0138889 14:0.0416667 15:0.0234375 16:0.0208333 18:0.00595238 19:0.0173611 20:0.0265152 21:0.0182292 23:0.00520833 26:0.03125 28:0.0125673 30:0.00833333 31:0.0416667 34:0.0131579 35:0.0416667 37:0.0138889 38:0.0138889 41:0.0238095 42:0.0208333 43:0.0178571 44:0.0416667 45:0.0416667 46:0.0128205 47:0.025641 48:0.0104167 49:0.0416667 50:0.0138889 53:0.0166667 55:0.0166667 56:0.0416667 57:0.00771605 58:0.0130208 60:0.01875 61:0.0208333 62:0.0138889 63:0.0208333 64:0.0160847 66:0.0416667 68:0.0208333 69:0.0416667 70:0.0208333 72:0.0416667 73:0.0416667 74:0.0192308 75:0.00833333 77:0.0119048 78:0.0160256 80:0.0416667 81:0.0416667 82:0.0277778 83:0.0169753 86:0.0277778 87:0.0104167 88:0.0173228 89:0.0104167 90:0.0104167 91:0.00925926 93:0.0416667 94:0.0277778 95:0.0416667 96:0.0125 98:0.0416667 99:0.0166667 101:0.0416667 102:0.03125 103:0.0231481 107:0.0238095 108:0.0178571 110:0.0138889 112:0.0138889 114:0.0416667 115:0.0416667 116:0.0222222 117:0.0162037 118:0.0122549 119:0.0188492 121:0.00694444 122:0.025641 123:0.016129 124:0.0199275 125:0.025 126:0.0104167 127:0.0416667 131:0.0166667 133:0.0227273 134:0.0196078 135:0.02 136:0.0416667 137:0.03125 140:0.025 141:0.0165344 
0 1 0 0 3:0.03125 5:0.03125 7:0.2 9:0.05 10:0.25 11:0.125 12:0.25 13:0.0833333 14:0.25 15:0.140625 16:0.125 18:0.0357143 19:0.104167 20:0.159091 21:0.109375 23:0.03125 26:0.1875 28:0.0783962 30:0.05 31:0.25 34:0.0789474 35:0.25 37:0.0833333 38:0.0833333 41:0.142857 42:0.125 43:0.107143 44:0.25 45:0.25 46:0.0769231 47:0.153846 48:0.0625 49:0.25 50:0.0833333 53:0.1 55:0.1 56:0.25 57:0.0462963 58:0.078125 60:0.1125 61:0.125 62:0.0833333 63:0.125 64:0.111057 66:0.25 68:0.125 69:0.25 70:0.125 72:0.25 73:0.25 74:0.115385 75:0.05 77:0.0714286 78:0.0961538 80:0.25 81:0.25 82:0.166667 83:0.101852 86:0.166667 87:0.0625 88:0.111811 89:0.0625 90:0.0625 91:0.0555556 93:0.25 94:0.166667 95:0.25 96:0.075 98:0.25 99:0.1 101:0.25 102:0.1875 103:0.138889 107:0.142857 108:0.107143 110:0.0833333 112:0.0833333 114:0.25 115:0.25 116:0.133333 117:0.0972222 118:0.0735294 119:0.113095 121:0.0416667 122:0.153846 123:0.0967742 124:0.119565 125:0.15 126:0.0625 127:0.25 131:0.1 133:0.136364 134:0.117647 135:0.12 136:0.25 137:0.1875 140:0.15 141:0.0992063 
0 1 0 0 3:0.03125 5:0.03125 7:0.2 9:0.05 10:0.25 11:0.125 12:0.25 13:0.0833333 14:0.25 15:0.140625 16:0.125 18:0.0357143 19:0.104167 20:0.159091 21:0.109375 23:0.03125 26:0.1875 28:0.0849791 30:0.05 31:0.25 34:0.0789474 35:0.25 37:0.0833333 38:0.0833333 41:0.142857 42:0.125 43:0.107143 44:0.25 45:0.25 46:0.0961538 47:0.153846 48:0.0625 49:0.25 50:0.0833333 53:0.15 55:0.1 56:0.25 57:0.0462963 58:0.078125 60:0.1125 61:0.125 62:0.0833333 63:0.125 64:0.111057 66:0.25 68:0.125 69:0.25 70:0.125 72:0.25 73:0.25 74:0.115385 75:0.05 77:0.0714286 78:0.0961538 80:0.25 81:0.25 82:0.166667 83:0.101852 86:0.166667 87:0.0625 88:0.111811 89:0.0625 90:0.0625 91:0.0555556 93:0.25 94:0.166667 95:0.25 96:0.075 98:0.25 99:0.1 101:0.25 102:0.1875 103:0.138889 107:0.142857 108:0.107143 110:0.104167 112:0.0833333 114:0.25 115:0.25 116:0.133333 117:0.0972222 118:0.0735294 119:0.113095 121:0.0416667 122:0.153846 123:0.100806 124:0.119565 125:0.15 126:0.0625 127:0.25 131:0.1 133:0.136364 134:0.117647 135:0.123333 136:0.25 137:0.1875 140:0.15 141:0.0992063 
1 1 0 0 3:0.00833333 5:0.00833333 7:0.0533333 9:0.0133333 10:0.0666667 11:0.0333333 12:0.0666667 13:0.0222222 14:0.0666667 15:0.0375 16:0.0333333 18:0.00952381 19:0.0277778 20:0.0424242 21:0.0333333 23:0.00833333 26:0.05 28:0.0222222 30:0.0133333 31:0.0666667 34:0.0210526 35:0.0666667 37:0.0222222 38:0.0222222 41:0.0380952 42:0.0333333 43:0.0285714 44:0.0666667 45:0.0666667 46:0.025641 47:0.0410256 48:0.0166667 49:0.0666667 50:0.0222222 53:0.04 55:0.0266667 56:0.0666667 57:0.0148148 58:0.025 60:0.03 61:0.0333333 62:0.0222222 63:0.0333333 64:0.0274814 66:0.0666667 68:0.0333333 69:0.0666667 70:0.0333333 72:0.0666667 73:0.0666667 74:0.0307692 75:0.0133333 77:0.0190476 78:0.025641 80:0.0666667 81:0.0666667 82:0.0444444 83:0.0271605 86:0.0444444 87:0.0166667 88:0.0286614 89:0.0166667 90:0.0166667 91:0.0148148 93:0.0666667 94:0.0444444 95:0.0666667 96:0.02 98:0.0666667 99:0.0266667 101:0.0666667 102:0.05 103:0.037037 107:0.0380952 108:0.0285714 110:0.0277778 112:0.0222222 114:0.0666667 115:0.0666667 116:0.0355556 117:0.0259259 118:0.0196078 119:0.031746 121:0.0111111 122:0.0410256 123:0.0268817 124:0.0318841 125:0.04 126:0.0166667 127:0.0666667 131:0.0266667 133:0.0363636 134:0.0313725 135:0.0328889 136:0.0666667 137:0.05 140:0.04 141:0.0275132 
0 1 0.02813992225786604 0 3:0.0625 5:0.0625 7:0.4 9:0.1 10:0.5 11:0.25 12:0.5 13:0.166667 14:0.5 15:0.296875 16:0.25 18:0.0714286 19:0.208333 20:0.318182 21:0.25 23:0.0625 26:0.375 28:0.170557 30:0.1 31:0.5 34:0.157895 35:0.5 37:0.166667 38:0.166667 41:0.285714 42:0.25 43:0.214286 44:0.5 45:0.5 46:0.192308 47:0.346154 48:0.125 49:0.5 50:0.25 53:0.3 55:0.2 56:0.5 57:0.111111 58:0.1875 60:0.225 61:0.25 62:0.166667 63:0.25 64:0.225024 66:0.5 68:0.25 69:0.5 70:0.25 72:0.5 73:0.5 74:0.269231 75:0.1 77:0.142857 78:0.192308 79:0.5 80:0.5 81:0.5 82:0.333333 83:0.203704 86:0.333333 87:0.125 88:0.234646 89:0.125 90:0.125 91:0.111111 93:0.5 94:0.5 95:0.5 96:0.2 98:0.5 99:0.2 100:0.25 101:0.5 102:0.375 103:0.277778 107:0.285714 108:0.214286 110:0.25 112:0.166667 114:0.5 115:0.5 116:0.266667 117:0.208333 118:0.176471 119:0.27381 121:0.0833333 122:0.307692 123:0.201613 124:0.23913 125:0.3 126:0.125 127:0.5 131:0.2 133:0.272727 134:0.235294 135:0.246667 136:0.5 137:0.375 138:0.125 140:0.3 141:0.214286 
0 1 0 0 3:0.0125 5:0.0125 7:0.08 9:0.02 10:0.1 11:0.05 12:0.1 13:0.0333333 14:0.1 15:0.059375 16:0.05 18:0.0142857 19:0.0416667 20:0.0636364 21:0.05 23:0.0125 26:0.075 28:0.0336326 30:0.02 31:0.1 34:0.0315789 35:0.1 37:0.0333333 38:0.0333333 41:0.0571429 42:0.05 43:0.0428571 44:0.1 45:0.1 46:0.0384615 47:0.0692308 48:0.025 49:0.1 50:0.05 53:0.06 55:0.04 56:0.1 57:0.0222222 58:0.0375 60:0.045 61:0.05 62:0.0333333 63:0.05 64:0.042677 66:0.1 68:0.05 69:0.1 70:0.05 71:0.0333333 72:0.1 73:0.1 74:0.0538462 75:0.02 77:0.0285714 78:0.0384615 79:0.1 80:0.1 81:0.1 82:0.0666667 83:0.0407407 86:0.0666667 87:0.025 88:0.0475591 89:0.025 90:0.025 91:0.0222222 93:0.1 94:0.1 95:0.1 96:0.04 98:0.1 99:0.04 100:0.05 101:0.1 102:0.075 103:0.0555556 107:0.0571429 108:0.0428571 110:0.05 112:0.0333333 114:0.1 115:0.1 116:0.0533333 117:0.0416667 118:0.0352941 119:0.0547619 121:0.0166667 122:0.0615385 123:0.0403226 124:0.0478261 125:0.06 126:0.025 127:0.1 131:0.04 133:0.0545455 134:0.0470588 135:0.0506667 136:0.1 137:0.075 138:0.025 140:0.06 141:0.0428571 
0 1 0 0 3:0.025 5:0.025 7:0.16 9:0.04 10:0.2 11:0.1 12:0.2 13:0.0666667 14:0.2 15:0.11875 16:0.1 18:0.0285714 19:0.0833333 20:0.127273 21:0.1 23:0.025 26:0.15 28:0.0678636 30:0.04 31:0.2 34:0.0631579 35:0.2 37:0.0666667 38:0.0666667 41:0.114286 42:0.1 43:0.0857143 44:0.2 45:0.2 46:0.0769231 47:0.138462 48:0.05 49:0.2 50:0.1 53:0.12 55:0.08 56:0.2 57:0.0444444 58:0.075 60:0.09 61:0.1 62:0.1 63:0.1 64:0.0882638 66:0.2 68:0.1 69:0.2 70:0.1 71:0.0666667 72:0.2 73:0.2 74:0.107692 75:0.04 77:0.0571429 78:0.0769231 79:0.2 80:0.2 81:0.2 82:0.133333 83:0.0814815 86:0.133333 87:0.05 88:0.0966929 89:0.05 90:0.05 91:0.0444444 93:0.2 94:0.2 95:0.2 96:0.1 98:0.2 99:0.08 100:0.1 101:0.2 102:0.15 103:0.111111 107:0.114286 108:0.0857143 110:0.1 112:0.0666667 114:0.2 115:0.2 116:0.106667 117:0.0888889 118:0.0705882 119:0.109524 121:0.0333333 122:0.123077 123:0.0806452 124:0.104348 125:0.12 126:0.075 127:0.2 131:0.08 133:0.109091 134:0.0941176 135:0.101333 136:0.2 137:0.15 138:0.05 140:0.12 141:0.0857143 
0 1 0.8022806645948009 0 1:0.1 3:0.0125 4:0.1 5:0.0125 6:0.1 7:0.08 9:0.02 10:0.1 11:0.05 12:0.1 13:0.0333333 14:0.1 15:0.059375 16:0.05 17:0.1 18:0.0142857 19:0.0416667 20:0.0727273 21:0.05 23:0.0125 26:0.075 27:0.1 28:0.0362657 30:0.02 31:0.1 32:0.1 33:0.1 34:0.0315789 35:0.1 36:0.1 37:0.0333333 38:0.0333333 41:0.0571429 42:0.05 43:0.0428571 44:0.1 45:0.1 46:0.0384615 47:0.0692308 48:0.025 49:0.1 50:0.05 53:0.06 55:0.04 56:0.1 57:0.0222222 58:0.0375 60:0.045 61:0.05 62:0.05 63:0.05 64:0.042677 65:0.1 66:0.1 68:0.05 69:0.1 70:0.05 71:0.0333333 72:0.1 73:0.1 74:0.0538462 75:0.06 77:0.0285714 78:0.0384615 79:0.1 80:0.1 81:0.1 82:0.0666667 83:0.0407407 84:0.1 85:0.1 86:0.0666667 87:0.025 88:0.0475591 89:0.025 90:0.025 91:0.0222222 93:0.1 94:0.1 95:0.1 96:0.06 98:0.1 99:0.04 100:0.05 101:0.1 102:0.075 103:0.0555556 105:0.1 107:0.0571429 108:0.0428571 110:0.05 112:0.0333333 114:0.1 115:0.1 116:0.0533333 117:0.0444444 118:0.0352941 119:0.0547619 121:0.0166667 122:0.0615385 123:0.0403226 124:0.0521739 125:0.06 126:0.0375 127:0.1 129:0.1 131:0.04 133:0.0545455 134:0.0470588 135:0.0533333 136:0.1 137:0.075 138:0.025 140:0.06 141:0.0428571 
0.5356245115315452 1 1 0 1:0.5 3:0.0625 4:0.5 5:0.0625 6:0.5 7:0.4 9:0.1 10:0.5 11:0.25 12:0.5 13:0.166667 14:0.5 15:0.296875 16:0.25 17:0.5 18:0.0714286 19:0.208333 20:0.363636 21:0.25 23:0.0625 26:0.375 27:0.5 28:0.183722 30:0.1 31:0.5 32:0.5 33:0.5 34:0.157895 35:0.5 36:0.5 37:0.166667 38:0.166667 41:0.285714 42:0.25 43:0.214286 44:0.5 45:0.5 46:0.192308 47:0.346154 48:0.125 49:0.5 50:0.25 53:0.3 55:0.2 56:0.5 57:0.111111 58:0.1875 60:0.225 61:0.25 62:0.25 63:0.25 64:0.225024 65:0.5 66:0.5 68:0.25 69:0.5 70:0.25 71:0.166667 72:0.5 73:0.5 74:0.269231 75:0.3 77:0.142857 78:0.192308 79:0.5 80:0.5 81:0.5 82:0.333333 83:0.203704 84:0.5 85:0.5 86:0.333333 87:0.125 88:0.244094 89:0.125 90:0.125 91:0.111111 93:0.5 94:0.5 95:0.5 96:0.3 98:0.5 99:0.2 100:0.25 101:0.5 102:0.375 103:0.277778 105:0.5 107:0.285714 108:0.214286 110:0.25 112:0.166667 114:0.5 115:0.5 116:0.266667 117:0.222222 118:0.176471 119:0.27381 121:0.0833333 122:0.307692 123:0.201613 124:0.26087 125:0.3 126:0.1875 127:0.5 129:0.5 131:0.2 133:0.272727 134:0.264706 135:0.266667 136:0.5 137:0.375 138:0.125 140:0.3 141:0.214286 
1 1 1 0.02582373868777613 1:0.5 3:0.0625 4:0.5 5:0.0625 6:0.5 7:0.4 9:0.1 10:0.5 11:0.25 12:0.5 13:0.166667 14:0.5 15:0.328125 16:0.25 17:0.5 18:0.0714286 19:0.208333 20:0.363636 21:0.25 23:0.0625 26:0.375 27:0.5 28:0.196888 30:0.2 31:0.5 32:0.5 33:0.5 34:0.184211 35:0.5 36:0.5 37:0.166667 38:0.166667 39:0.5 41:0.321429 42:0.25 43:0.214286 44:0.5 45:0.5 46:0.192308 47:0.384615 48:0.125 49:0.5 50:0.25 53:0.5 55:0.2 56:0.5 57:0.111111 58:0.1875 60:0.225 61:0.25 62:0.25 63:0.25 64:0.225024 65:0.5 66:0.5 68:0.25 69:0.5 70:0.25 71:0.166667 72:0.5 73:0.5 74:0.269231 75:0.3 77:0.214286 78:0.269231 79:0.5 80:0.5 81:0.5 82:0.333333 83:0.222222 84:0.5 85:0.5 86:0.333333 87:0.125 88:0.253543 89:0.125 90:0.125 91:0.111111 93:0.5 94:0.5 95:0.5 96:0.3 98:0.5 99:0.2 100:0.25 101:0.5 102:0.375 103:0.277778 105:0.5 107:0.285714 108:0.214286 110:0.25 112:0.166667 113:0.5 114:0.5 115:0.5 116:0.266667 117:0.222222 118:0.205882 119:0.297619 121:0.0833333 122:0.307692 123:0.201613 124:0.282609 125:0.3 126:0.1875 127:0.5 128:0.5 129:0.5 131:0.2 133:0.272727 134:0.264706 135:0.273333 136:0.5 137:0.375 138:0.25 140:0.3 141:0.214286 
0 1 0 0 1:0.0833333 3:0.0104167 4:0.0833333 5:0.0104167 6:0.0833333 7:0.0666667 9:0.0166667 10:0.0833333 11:0.0416667 12:0.0833333 13:0.0277778 14:0.0833333 15:0.0546875 16:0.0416667 17:0.0833333 18:0.0119048 19:0.0347222 20:0.0606061 21:0.0416667 23:0.0104167 26:0.0833333 27:0.0833333 28:0.032316 30:0.0333333 31:0.0833333 32:0.0833333 33:0.0833333 34:0.0307018 35:0.0833333 36:0.0833333 37:0.0277778 38:0.0277778 39:0.0833333 41:0.0535714 42:0.0416667 43:0.047619 44:0.0833333 45:0.0833333 46:0.0320513 47:0.0641026 48:0.0208333 49:0.0833333 50:0.0416667 53:0.0833333 55:0.0333333 56:0.0833333 57:0.0185185 58:0.03125 60:0.0375 61:0.0416667 62:0.0416667 63:0.0416667 64:0.0350792 65:0.0833333 66:0.0833333 68:0.0416667 69:0.0833333 70:0.0416667 71:0.0277778 72:0.0833333 73:0.0833333 74:0.0448718 75:0.0666667 77:0.0357143 78:0.0448718 79:0.0833333 80:0.0833333 81:0.0833333 82:0.0555556 83:0.037037 84:0.0833333 85:0.0833333 86:0.0555556 87:0.0208333 88:0.0409449 89:0.0208333 90:0.0208333 91:0.0277778 93:0.0833333 94:0.0833333 95:0.0833333 96:0.05 98:0.0833333 99:0.0333333 100:0.0416667 101:0.0833333 102:0.0625 103:0.0648148 105:0.0833333 107:0.047619 108:0.0357143 110:0.0416667 112:0.0277778 113:0.0833333 114:0.0833333 115:0.0833333 116:0.0444444 117:0.037037 118:0.0343137 119:0.0496032 121:0.0138889 122:0.0512821 123:0.0336022 124:0.0471014 125:0.05 126:0.03125 127:0.0833333 128:0.0833333 129:0.0833333 131:0.05 133:0.0454545 134:0.0441176 135:0.0455556 136:0.0833333 137:0.0625 138:0.0416667 140:0.05 141:0.0357143 
0 1 0.1401749548049003 0 1:0.2 3:0.05 4:0.2 5:0.025 6:0.2 7:0.16 9:0.04 10:0.2 11:0.1 12:0.2 13:0.0666667 14:0.2 15:0.13125 16:0.133333 17:0.2 18:0.0285714 19:0.0833333 20:0.163636 21:0.1 23:0.025 26:0.2 27:0.2 28:0.0889288 30:0.08 31:0.2 32:0.2 33:0.2 34:0.0842105 35:0.2 36:0.2 37:0.0666667 38:0.0666667 39:0.2 41:0.128571 42:0.1 43:0.114286 44:0.2 45:0.2 46:0.0769231 47:0.153846 48:0.05 49:0.2 50:0.133333 53:0.2 55:0.12 56:0.2 57:0.0666667 58:0.075 60:0.1 61:0.1 62:0.1 63:0.1 64:0.0973812 65:0.2 66:0.2 68:0.1 69:0.2 70:0.1 71:0.0666667 72:0.2 73:0.2 74:0.107692 75:0.16 77:0.0857143 78:0.107692 79:0.2 80:0.2 81:0.2 82:0.133333 83:0.0962963 84:0.2 85:0.2 86:0.133333 87:0.05 88:0.115591 89:0.0666667 90:0.05 91:0.0666667 92:0.1 93:0.2 94:0.2 95:0.2 96:0.12 98:0.2 99:0.08 100:0.1 101:0.2 102:0.15 103:0.155556 104:0.08 105:0.2 107:0.114286 108:0.114286 110:0.1 112:0.0666667 113:0.2 114:0.2 115:0.2 116:0.12 117:0.0888889 118:0.0823529 119:0.133333 121:0.0333333 122:0.123077 123:0.0903226 124:0.121739 125:0.12 126:0.075 127:0.2 128:0.2 129:0.2 131:0.12 133:0.109091 134:0.105882 135:0.114667 136:0.2 137:0.15 138:0.1 140:0.12 141:0.0888889 
1 1 0.39446893146475 0 1:0.5 3:0.125 4:0.5 5:0.0625 6:0.5 7:0.4 9:0.1 10:0.5 11:0.25 12:0.5 13:0.166667 14:0.5 15:0.328125 16:0.333333 17:0.5 18:0.0714286 19:0.208333 20:0.409091 21:0.25 23:0.0625 26:0.5 27:0.5 28:0.22322 30:0.2 31:0.5 32:0.5 33:0.5 34:0.210526 35:0.5 36:0.5 37:0.166667 38:0.166667 39:0.5 41:0.321429 42:0.25 43:0.285714 44:0.5 45:0.5 46:0.192308 47:0.384615 48:0.125 49:0.5 50:0.333333 53:0.5 55:0.3 56:0.5 57:0.166667 58:0.1875 60:0.25 61:0.25 62:0.25 63:0.25 64:0.247818 65:0.5 66:0.5 68:0.25 69:0.5 70:0.25 71:0.166667 72:0.5 73:0.5 74:0.269231 75:0.4 77:0.214286 78:0.269231 79:0.5 80:0.5 81:0.5 82:0.333333 83:0.240741 84:0.5 85:0.5 86:0.333333 87:0.125 88:0.291339 89:0.166667 90:0.125 91:0.166667 92:0.25 93:0.5 94:0.5 95:0.5 96:0.3 98:0.5 99:0.2 100:0.25 101:0.5 102:0.375 103:0.388889 104:0.2 105:0.5 107:0.285714 108:0.285714 110:0.25 112:0.166667 113:0.5 114:0.5 115:0.5 116:0.3 117:0.222222 118:0.205882 119:0.333333 121:0.0833333 122:0.307692 123:0.225806 124:0.304348 125:0.3 126:0.1875 127:0.5 128:0.5 129:0.5 131:0.3 133:0.272727 134:0.264706 135:0.286667 136:0.5 137:0.375 138:0.25 140:0.3 141:0.222222 
0.8812171684728787 1 0 0 1:0.0357143 3:0.00892857 4:0.0357143 5:0.00446429 6:0.0357143 7:0.0285714 9:0.00714286 10:0.0357143 11:0.0178571 12:0.0357143 13:0.0119048 14:0.0357143 15:0.0234375 16:0.0238095 17:0.0357143 18:0.00510204 19:0.014881 20:0.0292208 21:0.0178571 23:0.00892857 26:0.0357143 27:0.0357143 28:0.0153886 30:0.0142857 31:0.0357143 32:0.0357143 33:0.0357143 34:0.0150376 35:0.0357143 36:0.0357143 37:0.0119048 38:0.0119048 39:0.0357143 41:0.0229592 42:0.0178571 43:0.0204082 44:0.0357143 45:0.0357143 46:0.0164835 47:0.0274725 48:0.00892857 49:0.0357143 50:0.0238095 51:0.00892857 53:0.0357143 55:0.0214286 56:0.0357143 57:0.0119048 58:0.0133929 60:0.0196429 61:0.0178571 62:0.0178571 63:0.0178571 64:0.0166274 65:0.0357143 66:0.0357143 68:0.0178571 69:0.0357143 70:0.0178571 71:0.0238095 72:0.0357143 73:0.0357143 74:0.0192308 75:0.0285714 77:0.0153061 78:0.0192308 79:0.0357143 80:0.0357143 81:0.0357143 82:0.0238095 83:0.0171958 84:0.0357143 85:0.0357143 86:0.0238095 87:0.00892857 88:0.0206974 89:0.0119048 90:0.00892857 91:0.0119048 92:0.0178571 93:0.0357143 94:0.0357143 95:0.0357143 96:0.0214286 98:0.0357143 99:0.0142857 100:0.0178571 101:0.0357143 102:0.0267857 103:0.0277778 104:0.0142857 105:0.0357143 107:0.0204082 108:0.0255102 110:0.0178571 112:0.0119048 113:0.0357143 114:0.0357143 115:0.0357143 116:0.0214286 117:0.0168651 118:0.0168067 119:0.0238095 120:0.0119048 121:0.00595238 122:0.021978 123:0.0178571 124:0.0217391 125:0.0214286 126:0.0178571 127:0.0357143 128:0.0357143 129:0.0357143 131:0.0214286 133:0.0194805 134:0.0189076 135:0.0209524 136:0.0357143 137:0.0267857 138:0.0178571 140:0.0214286 141:0.0170068 
1 1 0 0 1:0.5 3:0.125 4:0.5 5:0.1875 6:0.5 7:0.4 9:0.1 10:0.5 11:0.25 12:0.5 13:0.166667 14:0.5 15:0.328125 16:0.333333 17:0.5 18:0.0714286 19:0.25 20:0.409091 21:0.25 23:0.125 26:0.5 27:0.5 28:0.22322 30:0.2 31:0.5 32:0.5 33:0.5 34:0.236842 35:0.5 36:0.5 37:0.166667 38:0.166667 39:0.5 41:0.321429 42:0.25 43:0.285714 44:0.5 45:0.5 46:0.230769 47:0.384615 48:0.125 49:0.5 50:0.333333 51:0.125 53:0.5 55:0.3 56:0.5 57:0.166667 58:0.1875 60:0.275 61:0.25 62:0.25 63:0.25 64:0.293404 65:0.5 66:0.5 68:0.25 69:0.5 70:0.25 71:0.333333 72:0.5 73:0.5 74:0.269231 75:0.4 77:0.214286 78:0.269231 79:0.5 80:0.5 81:0.5 82:0.333333 83:0.240741 84:0.5 85:0.5 86:0.333333 87:0.125 88:0.310236 89:0.166667 90:0.125 91:0.166667 92:0.25 93:0.5 94:0.5 95:0.5 96:0.35 98:0.5 99:0.2 100:0.5 101:0.5 102:0.375 103:0.388889 104:0.2 105:0.5 107:0.285714 108:0.357143 110:0.25 112:0.166667 113:0.5 114:0.5 115:0.5 116:0.3 117:0.236111 118:0.235294 119:0.333333 120:0.166667 121:0.0833333 122:0.307692 123:0.258065 124:0.304348 125:0.3 126:0.25 127:0.5 128:0.5 129:0.5 131:0.3 133:0.272727 134:0.264706 135:0.293333 136:0.5 137:0.375 138:0.25 140:0.3 141:0.238095 
0 1 0 0 1:0.333333 3:0.0833333 4:0.333333 5:0.125 6:0.333333 7:0.266667 9:0.0666667 10:0.333333 11:0.166667 12:0.333333 13:0.111111 14:0.333333 15:0.21875 16:0.222222 17:0.333333 18:0.047619 19:0.166667 20:0.272727 21:0.166667 23:0.0833333 26:0.333333 27:0.333333 28:0.148614 30:0.133333 31:0.333333 32:0.333333 33:0.333333 34:0.157895 35:0.333333 36:0.333333 37:0.111111 38:0.111111 39:0.333333 41:0.214286 42:0.166667 43:0.190476 44:0.333333 45:0.333333 46:0.179487 47:0.25641 48:0.0833333 49:0.333333 50:0.222222 51:0.0833333 53:0.333333 55:0.2 56:0.333333 57:0.111111 58:0.125 60:0.183333 61:0.166667 62:0.166667 63:0.166667 64:0.194633 65:0.333333 66:0.333333 68:0.166667 69:0.333333 70:0.166667 71:0.222222 72:0.333333 73:0.333333 74:0.179487 75:0.266667 77:0.142857 78:0.179487 79:0.333333 80:0.333333 81:0.333333 82:0.222222 83:0.160494 84:0.333333 85:0.333333 86:0.222222 87:0.0833333 88:0.206299 89:0.111111 90:0.0833333 91:0.111111 92:0.166667 93:0.333333 94:0.333333 95:0.333333 96:0.233333 98:0.333333 99:0.133333 100:0.333333 101:0.333333 102:0.25 103:0.259259 104:0.133333 105:0.333333 107:0.190476 108:0.238095 110:0.166667 112:0.111111 113:0.333333 114:0.333333 115:0.333333 116:0.2 117:0.157407 118:0.156863 119:0.222222 120:0.111111 121:0.0555556 122:0.205128 123:0.177419 124:0.202899 125:0.2 126:0.166667 127:0.333333 128:0.333333 129:0.333333 131:0.2 133:0.181818 134:0.176471 135:0.195556 136:0.333333 137:0.25 138:0.166667 140:0.2 141:0.15873 
0 1 0 0 1:0.125 3:0.03125 4:0.125 5:0.046875 6:0.125 7:0.1 9:0.025 10:0.125 11:0.0625 12:0.125 13:0.0416667 14:0.125 15:0.0820313 16:0.0833333 17:0.125 18:0.0178571 19:0.0625 20:0.102273 21:0.0625 23:0.03125 26:0.125 27:0.125 28:0.0553561 30:0.05 31:0.125 32:0.125 33:0.125 34:0.0592105 35:0.125 36:0.125 37:0.0416667 38:0.0416667 39:0.125 41:0.0803571 42:0.0625 43:0.0714286 44:0.125 45:0.125 46:0.0673077 47:0.0961538 48:0.03125 49:0.125 50:0.0833333 51:0.03125 53:0.125 55:0.075 56:0.125 57:0.0416667 58:0.046875 60:0.06875 61:0.0625 62:0.0625 63:0.0625 64:0.0711688 65:0.125 66:0.125 68:0.0625 69:0.125 70:0.0625 71:0.0833333 72:0.125 73:0.125 74:0.0673077 75:0.1 77:0.0535714 78:0.0673077 79:0.125 80:0.125 81:0.125 82:0.0833333 83:0.0601852 84:0.125 85:0.125 86:0.0833333 87:0.03125 88:0.076378 89:0.0416667 90:0.03125 91:0.0416667 92:0.0625 93:0.125 94:0.125 95:0.125 96:0.0875 98:0.125 99:0.05 100:0.125 101:0.125 102:0.09375 103:0.0972222 104:0.05 105:0.125 107:0.0714286 108:0.0892857 110:0.0625 112:0.0416667 113:0.125 114:0.125 115:0.125 116:0.075 117:0.0590278 118:0.0661765 119:0.0833333 120:0.0416667 121:0.0208333 122:0.0769231 123:0.0685484 124:0.076087 125:0.075 126:0.0625 127:0.125 128:0.125 129:0.125 131:0.075 133:0.0681818 134:0.0661765 135:0.0733333 136:0.125 137:0.09375 138:0.0625 140:0.075 141:0.0634921 
0 1 0 0 1:0.0769231 3:0.0192308 4:0.0769231 5:0.0288462 6:0.0769231 7:0.0615385 9:0.0153846 10:0.0769231 11:0.0384615 12:0.0769231 13:0.025641 14:0.0769231 15:0.0504808 16:0.0512821 17:0.0769231 18:0.010989 19:0.0384615 20:0.0629371 21:0.0432692 23:0.0192308 26:0.0769231 27:0.0769231 28:0.0338351 30:0.0307692 31:0.0769231 32:0.0769231 33:0.0769231 34:0.0364372 35:0.0769231 36:0.0769231 37:0.025641 38:0.025641 39:0.0769231 41:0.0494505 42:0.0384615 43:0.043956 44:0.0769231 45:0.0769231 46:0.0414201 47:0.0591716 48:0.0192308 49:0.0769231 50:0.0512821 51:0.0192308 53:0.0769231 55:0.0461538 56:0.0769231 57:0.025641 58:0.0288462 60:0.0423077 61:0.0384615 62:0.0384615 63:0.0384615 64:0.042677 65:0.0769231 66:0.0769231 68:0.0384615 69:0.0769231 70:0.0384615 71:0.0512821 72:0.0769231 73:0.0769231 74:0.0414201 75:0.0615385 76:0.025641 77:0.032967 78:0.0473373 79:0.0769231 80:0.0769231 81:0.0769231 82:0.0512821 83:0.037037 84:0.0769231 85:0.0769231 86:0.0512821 87:0.0192308 88:0.0463961 89:0.025641 90:0.0192308 91:0.025641 92:0.0384615 93:0.0769231 94:0.0769231 95:0.0769231 96:0.0538462 98:0.0769231 99:0.0307692 100:0.0769231 101:0.0769231 102:0.0576923 103:0.0598291 104:0.0307692 105:0.0769231 107:0.043956 108:0.0549451 110:0.0384615 112:0.025641 113:0.0769231 114:0.0769231 115:0.0769231 116:0.0461538 117:0.0363248 118:0.040724 119:0.0512821 120:0.025641 121:0.0128205 122:0.0473373 123:0.0421836 124:0.0468227 125:0.0461538 126:0.0384615 127:0.0769231 128:0.0769231 129:0.0769231 131:0.0461538 133:0.041958 134:0.040724 135:0.0461538 136:0.0769231 137:0.0576923 138:0.0384615 140:0.0461538 141:0.039072 
0 1 0.2050870954836096 0 1:0.2 3:0.05 4:0.2 5:0.125 6:0.2 7:0.16 9:0.04 10:0.2 11:0.1 12:0.2 13:0.0666667 14:0.2 15:0.13125 16:0.133333 17:0.2 18:0.0285714 19:0.1 20:0.163636 21:0.1125 23:0.05 26:0.2 27:0.2 28:0.0889288 30:0.08 31:0.2 32:0.2 33:0.2 34:0.105263 35:0.2 36:0.2 37:0.0666667 38:0.0666667 39:0.2 41:0.142857 42:0.1 43:0.114286 44:0.2 45:0.2 46:0.107692 47:0.153846 48:0.05 49:0.2 50:0.133333 51:0.05 52:0.0666667 53:0.2 55:0.12 56:0.2 57:0.0888889 58:0.0875 60:0.11 61:0.1 62:0.133333 63:0.1 64:0.115616 65:0.2 66:0.2 68:0.1 69:0.2 70:0.1 71:0.133333 72:0.2 73:0.2 74:0.107692 75:0.16 76:0.0666667 77:0.114286 78:0.138462 79:0.2 80:0.2 81:0.2 82:0.133333 83:0.103704 84:0.2 85:0.2 86:0.133333 87:0.1 88:0.126929 89:0.0833333 90:0.05 91:0.0666667 92:0.1 93:0.2 94:0.2 95:0.2 96:0.14 98:0.2 99:0.08 100:0.2 101:0.2 102:0.15 103:0.155556 104:0.08 105:0.2 107:0.114286 108:0.142857 110:0.1 112:0.0666667 113:0.2 114:0.2 115:0.2 116:0.12 117:0.0944444 118:0.117647 119:0.138095 120:0.0666667 121:0.0333333 122:0.123077 123:0.112903 124:0.121739 125:0.12 126:0.1 127:0.2 128:0.2 129:0.2 131:0.12 133:0.109091 134:0.105882 135:0.125333 136:0.2 137:0.15 138:0.1 140:0.12 141:0.111111 
1 1 0 0 1:0.5 3:0.125 4:0.5 5:0.3125 6:0.5 7:0.4 9:0.1 10:0.5 11:0.25 12:0.5 13:0.166667 14:0.5 15:0.34375 16:0.333333 17:0.5 18:0.0714286 19:0.25 20:0.409091 21:0.28125 23:0.125 26:0.5 27:0.5 28:0.22322 30:0.2 31:0.5 32:0.5 33:0.5 34:0.263158 35:0.5 36:0.5 37:0.166667 38:0.166667 39:0.5 41:0.357143 42:0.25 43:0.285714 44:0.5 45:0.5 46:0.269231 47:0.384615 48:0.125 49:0.5 50:0.333333 51:0.125 52:0.166667 53:0.5 55:0.3 56:0.5 57:0.222222 58:0.21875 60:0.275 61:0.25 62:0.333333 63:0.25 64:0.293404 65:0.5 66:0.5 68:0.25 69:0.5 70:0.25 71:0.333333 72:0.5 73:0.5 74:0.269231 75:0.4 76:0.166667 77:0.285714 78:0.346154 79:0.5 80:0.5 81:0.5 82:0.333333 83:0.259259 84:0.5 85:0.5 86:0.333333 87:0.25 88:0.319685 89:0.208333 90:0.125 91:0.166667 92:0.25 93:0.5 94:0.5 95:0.5 96:0.35 98:0.5 99:0.2 100:0.5 101:0.5 102:0.375 103:0.388889 104:0.2 105:0.5 107:0.285714 108:0.357143 110:0.25 112:0.166667 113:0.5 114:0.5 115:0.5 116:0.3 117:0.236111 118:0.294118 119:0.345238 120:0.166667 121:0.0833333 122:0.307692 123:0.282258 124:0.304348 125:0.3 126:0.25 127:0.5 128:0.5 129:0.5 131:0.3 133:0.272727 134:0.264706 135:0.313333 136:0.5 137:0.375 138:0.25 140:0.3 141:0.277778 
1 1 0 0 1:0.5 3:0.125 4:0.5 5:0.3125 6:0.5 7:0.4 9:0.1 10:0.5 11:0.25 12:0.5 13:0.166667 14:0.5 15:0.34375 16:0.333333 17:0.5 18:0.0714286 19:0.25 20:0.409091 21:0.28125 23:0.125 26:0.5 27:0.5 28:0.22322 30:0.2 31:0.5 32:0.5 33:0.5 34:0.263158 35:0.5 36:0.5 37:0.166667 38:0.166667 39:0.5 41:0.357143 42:0.25 43:0.285714 44:0.5 45:0.5 46:0.269231 47:0.384615 48:0.125 49:0.5 50:0.333333 51:0.125 52:0.166667 53:0.5 55:0.3 56:0.5 57:0.222222 58:0.21875 60:0.275 61:0.25 62:0.333333 63:0.25 64:0.293404 65:0.5 66:0.5 68:0.25 69:0.5 70:0.25 71:0.333333 72:0.5 73:0.5 74:0.269231 75:0.4 76:0.166667 77:0.285714 78:0.346154 79:0.5 80:0.5 81:0.5 82:0.333333 83:0.259259 84:0.5 85:0.5 86:0.333333 87:0.25 88:0.319685 89:0.208333 90:0.125 91:0.166667 92:0.25 93:0.5 94:0.5 95:0.5 96:0.35 98:0.5 99:0.2 100:0.5 101:0.5 102:0.375 103:0.388889 104:0.2 105:0.5 107:0.285714 108:0.357143 110:0.25 112:0.166667 113:0.5 114:0.5 115:0.5 116:0.3 117:0.236111 118:0.294118 119:0.345238 120:0.166667 121:0.0833333 122:0.307692 123:0.282258 124:0.304348 125:0.3 126:0.25 127:0.5 128:0.5 129:0.5 131:0.3 133:0.272727 134:0.264706 135:0.313333 136:0.5 137:0.375 138:0.25 140:0.3 141:0.277778 
0 1 0 0 1:0.166667 3:0.0416667 4:0.166667 5:0.104167 6:0.166667 7:0.133333 9:0.0333333 10:0.166667 11:0.0833333 12:0.166667 13:0.0555556 14:0.166667 15:0.119792 16:0.111111 17:0.166667 18:0.0238095 19:0.0833333 20:0.136364 21:0.09375 23:0.0416667 26:0.166667 27:0.166667 28:0.0783962 30:0.0666667 31:0.166667 32:0.166667 33:0.166667 34:0.0877193 35:0.166667 36:0.166667 37:0.0555556 38:0.0555556 39:0.166667 41:0.119048 42:0.0833333 43:0.0952381 44:0.166667 45:0.166667 46:0.0897436 47:0.128205 48:0.0416667 49:0.166667 50:0.111111 51:0.0416667 52:0.111111 53:0.166667 55:0.1 56:0.166667 57:0.0740741 58:0.0729167 60:0.0916667 61:0.0833333 62:0.111111 63:0.0833333 64:0.0958616 65:0.166667 66:0.166667 68:0.0833333 69:0.166667 70:0.0833333 71:0.111111 72:0.166667 73:0.166667 74:0.0897436 75:0.133333 76:0.0555556 77:0.0952381 78:0.115385 79:0.166667 80:0.166667 81:0.166667 82:0.111111 83:0.0864198 84:0.166667 85:0.166667 86:0.111111 87:0.166667 88:0.105512 89:0.0833333 90:0.0416667 91:0.0555556 92:0.0833333 93:0.166667 94:0.166667 95:0.166667 96:0.116667 98:0.166667 99:0.0666667 100:0.166667 101:0.166667 102:0.125 103:0.148148 104:0.0666667 105:0.166667 107:0.0952381 108:0.119048 110:0.0833333 112:0.111111 113:0.166667 114:0.166667 115:0.166667 116:0.1 117:0.0833333 118:0.0980392 119:0.119048 120:0.0555556 121:0.0277778 122:0.102564 123:0.094086 124:0.101449 125:0.1 126:0.0833333 127:0.166667 128:0.166667 129:0.166667 131:0.1 133:0.0909091 134:0.0882353 135:0.104444 136:0.166667 137:0.125 138:0.0833333 140:0.1 141:0.0925926 
0 1 0 0 1:0.0769231 3:0.0192308 4:0.0769231 5:0.0480769 6:0.0769231 7:0.0615385 9:0.0153846 10:0.0769231 11:0.0384615 12:0.0769231 13:0.025641 14:0.0769231 15:0.0552885 16:0.0512821 17:0.0769231 18:0.010989 19:0.0384615 20:0.0629371 21:0.0432692 23:0.0192308 26:0.0769231 27:0.0769231 28:0.0358606 30:0.0307692 31:0.0769231 32:0.0769231 33:0.0769231 34:0.0404858 35:0.0769231 36:0.0769231 37:0.025641 38:0.025641 39:0.0769231 41:0.0549451 42:0.0384615 43:0.043956 44:0.0769231 45:0.0769231 46:0.0414201 47:0.0591716 48:0.0192308 49:0.0769231 50:0.0512821 51:0.0192308 52:0.0512821 53:0.0769231 55:0.0461538 56:0.0769231 57:0.034188 58:0.0336538 60:0.0423077 61:0.0384615 62:0.0512821 63:0.0384615 64:0.042677 65:0.0769231 66:0.0769231 68:0.0384615 69:0.0769231 70:0.0384615 71:0.0512821 72:0.0769231 73:0.0769231 74:0.0414201 75:0.0615385 76:0.025641 77:0.043956 78:0.0532544 79:0.0769231 80:0.0769231 81:0.0769231 82:0.0512821 83:0.039886 84:0.0769231 85:0.0769231 86:0.0512821 87:0.0769231 88:0.0478498 89:0.0384615 90:0.0192308 91:0.025641 92:0.0384615 93:0.0769231 94:0.0769231 95:0.0769231 96:0.0538462 98:0.0769231 99:0.0307692 100:0.0769231 101:0.0769231 102:0.0576923 103:0.0683761 104:0.0307692 105:0.0769231 107:0.043956 108:0.0549451 110:0.0384615 112:0.0512821 113:0.0769231 114:0.0769231 115:0.0769231 116:0.0461538 117:0.0384615 118:0.0452489 119:0.0549451 120:0.025641 121:0.0128205 122:0.0473373 123:0.0434243 124:0.0468227 125:0.0461538 126:0.0384615 127:0.0769231 128:0.0769231 129:0.0769231 131:0.0461538 133:0.041958 134:0.040724 135:0.0482051 136:0.0769231 137:0.0576923 138:0.0384615 140:0.0461538 141:0.042735 
0 1 0 0 1:0.25 3:0.0625 4:0.25 5:0.15625 6:0.25 7:0.2 9:0.05 10:0.25 11:0.125 12:0.25 13:0.0833333 14:0.25 15:0.179688 16:0.166667 17:0.25 18:0.0357143 19:0.125 20:0.204545 21:0.140625 23:0.0625 26:0.25 27:0.25 28:0.117893 30:0.1 31:0.25 32:0.25 33:0.25 34:0.131579 35:0.25 36:0.25 37:0.0833333 38:0.0833333 39:0.25 41:0.178571 42:0.125 43:0.142857 44:0.25 45:0.25 46:0.134615 47:0.192308 48:0.0625 49:0.25 50:0.166667 51:0.0625 52:0.166667 53:0.25 55:0.15 56:0.25 57:0.111111 58:0.109375 60:0.1375 61:0.125 62:0.166667 63:0.125 64:0.145247 65:0.25 66:0.25 68:0.125 69:0.25 70:0.125 71:0.166667 72:0.25 73:0.25 74:0.134615 75:0.2 76:0.0833333 77:0.142857 78:0.173077 79:0.25 80:0.25 81:0.25 82:0.166667 83:0.12963 84:0.25 85:0.25 86:0.166667 87:0.25 88:0.159055 89:0.125 90:0.0625 91:0.0833333 92:0.125 93:0.25 94:0.25 95:0.25 96:0.175 98:0.25 99:0.1 100:0.25 101:0.25 102:0.1875 103:0.222222 104:0.1 105:0.25 107:0.142857 108:0.178571 110:0.125 112:0.166667 113:0.25 114:0.25 115:0.25 116:0.15 117:0.125 118:0.147059 119:0.178571 120:0.0833333 121:0.0416667 122:0.153846 123:0.145161 124:0.152174 125:0.15 126:0.125 127:0.25 128:0.25 129:0.25 131:0.15 133:0.136364 134:0.132353 135:0.156667 136:0.25 137:0.1875 138:0.125 140:0.15 141:0.138889 
0 1 0 0 1:0.25 3:0.0625 4:0.25 5:0.15625 6:0.25 7:0.2 9:0.05 10:0.25 11:0.125 12:0.25 13:0.0833333 14:0.25 15:0.179688 16:0.166667 17:0.25 18:0.0357143 19:0.125 20:0.204545 21:0.140625 23:0.0625 26:0.25 27:0.25 28:0.117893 30:0.1 31:0.25 32:0.25 33:0.25 34:0.131579 35:0.25 36:0.25 37:0.0833333 38:0.0833333 39:0.25 41:0.178571 42:0.125 43:0.142857 44:0.25 45:0.25 46:0.134615 47:0.192308 48:0.0625 49:0.25 50:0.166667 51:0.0625 52:0.166667 53:0.25 55:0.15 56:0.25 57:0.111111 58:0.109375 60:0.1375 61:0.125 62:0.166667 63:0.125 64:0.145247 65:0.25 66:0.25 68:0.125 69:0.25 70:0.125 71:0.166667 72:0.25 73:0.25 74:0.134615 75:0.2 76:0.0833333 77:0.142857 78:0.173077 79:0.25 80:0.25 81:0.25 82:0.166667 83:0.12963 84:0.25 85:0.25 86:0.166667 87:0.25 88:0.159055 89:0.125 90:0.0625 91:0.0833333 92:0.125 93:0.25 94:0.25 95:0.25 96:0.175 98:0.25 99:0.1 100:0.25 101:0.25 102:0.1875 103:0.222222 104:0.1 105:0.25 107:0.142857 108:0.178571 110:0.125 112:0.166667 113:0.25 114:0.25 115:0.25 116:0.15 117:0.125 118:0.147059 119:0.178571 120:0.0833333 121:0.0416667 122:0.153846 123:0.145161 124:0.152174 125:0.15 126:0.125 127:0.25 128:0.25 129:0.25 131:0.15 133:0.136364 134:0.132353 135:0.156667 136:0.25 137:0.1875 138:0.125 140:0.15 141:0.138889 
1 1 0 0 1:0.0333333 3:0.00833333 4:0.0333333 5:0.0208333 6:0.0333333 7:0.0266667 9:0.00666667 10:0.0333333 11:0.0166667 12:0.0333333 13:0.0111111 14:0.0333333 15:0.0239583 16:0.0222222 17:0.0333333 18:0.0047619 19:0.0166667 20:0.0272727 21:0.01875 23:0.00833333 26:0.0333333 27:0.0333333 28:0.0160782 30:0.0133333 31:0.0333333 32:0.0333333 33:0.0333333 34:0.0192982 35:0.0333333 36:0.0333333 37:0.0111111 38:0.0111111 39:0.0333333 41:0.0238095 42:0.0166667 43:0.0190476 44:0.0333333 45:0.0333333 46:0.0179487 47:0.025641 48:0.00833333 49:0.0333333 50:0.0222222 51:0.00833333 52:0.0222222 53:0.0333333 55:0.02 56:0.0333333 57:0.017284 58:0.0166667 60:0.02 61:0.0166667 62:0.0222222 63:0.0166667 64:0.0168445 65:0.0333333 66:0.0333333 68:0.0166667 69:0.0333333 70:0.0166667 71:0.0222222 72:0.0333333 73:0.0333333 74:0.0179487 75:0.0266667 76:0.0111111 77:0.0190476 78:0.0230769 79:0.0333333 80:0.0333333 81:0.0333333 82:0.0222222 83:0.0185185 84:0.0333333 85:0.0333333 86:0.0222222 87:0.0333333 88:0.0204724 89:0.0166667 90:0.00833333 91:0.0111111 92:0.0166667 93:0.0333333 94:0.0333333 95:0.0333333 96:0.0233333 98:0.0333333 99:0.0133333 100:0.0333333 101:0.0333333 102:0.025 103:0.0296296 104:0.0133333 105:0.0333333 107:0.0190476 108:0.0238095 110:0.0166667 112:0.0333333 113:0.0333333 114:0.0333333 115:0.0333333 116:0.02 117:0.0175926 118:0.0196078 119:0.0253968 120:0.0111111 121:0.0111111 122:0.0205128 123:0.0193548 124:0.0217391 125:0.02 126:0.0166667 127:0.0333333 128:0.0333333 129:0.0333333 131:0.02 133:0.0181818 134:0.0196078 135:0.0217778 136:0.0333333 137:0.025 138:0.0166667 140:0.02 141:0.0195767 
0.03591552001960352 1 0 0 1:0.037037 3:0.00925926 4:0.037037 5:0.0231481 6:0.037037 7:0.0296296 9:0.00740741 10:0.037037 11:0.0185185 12:0.037037 13:0.0123457 14:0.037037 15:0.0266204 16:0.0246914 17:0.037037 18:0.00529101 19:0.0185185 20:0.030303 21:0.0208333 23:0.00925926 26:0.037037 27:0.037037 28:0.0179312 30:0.0148148 31:0.037037 32:0.037037 33:0.037037 34:0.0214425 35:0.037037 36:0.037037 37:0.0123457 38:0.0246914 39:0.037037 41:0.026455 42:0.0246914 43:0.021164 44:0.037037 45:0.037037 46:0.019943 47:0.02849 48:0.00925926 49:0.037037 50:0.0246914 51:0.00925926 52:0.0246914 53:0.037037 55:0.0222222 56:0.037037 57:0.0219479 58:0.0185185 60:0.0222222 61:0.0185185 62:0.0246914 63:0.0185185 64:0.0190394 65:0.037037 66:0.037037 68:0.0185185 69:0.037037 70:0.0185185 71:0.0246914 72:0.037037 73:0.037037 74:0.022792 75:0.0296296 76:0.0123457 77:0.021164 78:0.025641 79:0.037037 80:0.037037 81:0.037037 82:0.0246914 83:0.0205761 84:0.037037 85:0.037037 86:0.0246914 87:0.037037 88:0.0229221 89:0.0185185 90:0.00925926 91:0.0123457 92:0.0185185 93:0.037037 94:0.037037 95:0.037037 96:0.0259259 98:0.037037 99:0.0148148 100:0.037037 101:0.037037 102:0.0277778 103:0.0329218 104:0.0148148 105:0.037037 107:0.021164 108:0.026455 110:0.0216049 112:0.037037 113:0.037037 114:0.037037 115:0.037037 116:0.0222222 117:0.0205761 118:0.0217865 119:0.0282187 120:0.0123457 121:0.0123457 122:0.022792 123:0.0221027 124:0.0257649 125:0.0222222 126:0.0185185 127:0.037037 128:0.037037 129:0.037037 131:0.0222222 133:0.020202 134:0.0217865 135:0.0246914 136:0.037037 137:0.0277778 138:0.0185185 140:0.0222222 141:0.0229277 
0 1 0 0 1:0.1 3:0.025 4:0.1 5:0.0625 6:0.1 7:0.08 9:0.02 10:0.1 11:0.05 12:0.1 13:0.0333333 14:0.1 15:0.075 16:0.0666667 17:0.1 18:0.0142857 19:0.05 20:0.0818182 21:0.05625 23:0.0375 26:0.1 27:0.1 28:0.0520646 30:0.04 31:0.1 32:0.1 33:0.1 34:0.0578947 35:0.1 36:0.1 37:0.0333333 38:0.0666667 39:0.1 41:0.0714286 42:0.0666667 43:0.0571429 44:0.1 45:0.1 46:0.0538462 47:0.0769231 48:0.025 49:0.1 50:0.0666667 51:0.025 52:0.0666667 53:0.1 55:0.06 56:0.1 57:0.0592593 58:0.05 60:0.06 61:0.05 62:0.0666667 63:0.05 64:0.0563531 65:0.1 66:0.1 68:0.05 69:0.1 70:0.05 71:0.0666667 72:0.1 73:0.1 74:0.0692308 75:0.08 76:0.0333333 77:0.0571429 78:0.0692308 79:0.1 80:0.1 81:0.1 82:0.0666667 83:0.0555556 84:0.1 85:0.1 86:0.0666667 87:0.1 88:0.0645669 89:0.05 90:0.025 91:0.0333333 92:0.05 93:0.1 94:0.1 95:0.1 96:0.07 98:0.1 99:0.04 100:0.1 101:0.1 102:0.075 103:0.0888889 104:0.04 105:0.1 107:0.0571429 108:0.0714286 110:0.0583333 112:0.1 113:0.1 114:0.1 115:0.1 116:0.06 117:0.0555556 118:0.0588235 119:0.0761905 120:0.0333333 121:0.0333333 122:0.0615385 123:0.0612903 124:0.073913 125:0.06 126:0.05 127:0.1 128:0.1 129:0.1 131:0.06 133:0.0545455 134:0.0588235 135:0.0666667 136:0.1 137:0.075 138:0.05 140:0.08 141:0.0619048 
0 1 0 0 1:0.0454545 3:0.0113636 4:0.0454545 5:0.0284091 6:0.0454545 7:0.0363636 9:0.00909091 10:0.0454545 11:0.0227273 12:0.0454545 13:0.0151515 14:0.0454545 15:0.0340909 16:0.030303 17:0.0454545 18:0.00649351 19:0.0227273 20:0.0371901 21:0.0255682 23:0.0170455 26:0.0454545 27:0.0454545 28:0.0233393 30:0.0181818 31:0.0454545 32:0.0454545 33:0.0454545 34:0.0263158 35:0.0454545 36:0.0454545 37:0.030303 38:0.030303 39:0.0454545 41:0.0324675 42:0.030303 43:0.025974 44:0.0454545 45:0.0454545 46:0.0244755 47:0.034965 48:0.0113636 49:0.0454545 50:0.030303 51:0.0113636 52:0.030303 53:0.0454545 55:0.0272727 56:0.0454545 57:0.026936 58:0.0227273 60:0.0272727 61:0.0227273 62:0.030303 63:0.0227273 64:0.0240279 65:0.0454545 66:0.0454545 68:0.0227273 69:0.0454545 70:0.0227273 71:0.030303 72:0.0454545 73:0.0454545 74:0.0314685 75:0.0363636 76:0.0151515 77:0.025974 78:0.0314685 79:0.0454545 80:0.0454545 81:0.0454545 82:0.030303 83:0.0252525 84:0.0454545 85:0.0454545 86:0.030303 87:0.0454545 88:0.0284896 89:0.0227273 90:0.0113636 91:0.0151515 92:0.0227273 93:0.0454545 94:0.0454545 95:0.0454545 96:0.0318182 98:0.0454545 99:0.0181818 100:0.0454545 101:0.0454545 102:0.0340909 103:0.040404 104:0.0181818 105:0.0454545 107:0.025974 108:0.0324675 110:0.0265152 112:0.0454545 113:0.0454545 114:0.0454545 115:0.0454545 116:0.0272727 117:0.0265152 118:0.026738 119:0.034632 120:0.0151515 121:0.0151515 122:0.027972 123:0.0278592 124:0.0335968 125:0.0272727 126:0.0227273 127:0.0454545 128:0.0454545 129:0.0454545 131:0.0272727 133:0.0247934 134:0.026738 135:0.0309091 136:0.0454545 137:0.0340909 138:0.0227273 140:0.0363636 141:0.0281385 
0 1 0 0 1:0.125 3:0.03125 4:0.125 5:0.078125 6:0.125 7:0.1 9:0.025 10:0.125 11:0.0625 12:0.125 13:0.0416667 14:0.125 15:0.09375 16:0.0833333 17:0.125 18:0.0178571 19:0.0625 20:0.102273 21:0.0703125 23:0.046875 26:0.125 27:0.125 28:0.0685218 30:0.05 31:0.125 32:0.125 33:0.125 34:0.0723684 35:0.125 36:0.125 37:0.0833333 38:0.0833333 39:0.125 41:0.0892857 42:0.0833333 43:0.0714286 44:0.125 45:0.125 46:0.0673077 47:0.0961538 48:0.03125 49:0.125 50:0.0833333 51:0.03125 52:0.0833333 53:0.125 55:0.075 56:0.125 57:0.0740741 58:0.0625 60:0.075 61:0.0625 62:0.0833333 63:0.0625 64:0.0711688 65:0.125 66:0.125 68:0.0625 69:0.125 70:0.0625 71:0.0833333 72:0.125 73:0.125 74:0.0865385 75:0.1 76:0.0416667 77:0.0714286 78:0.0961538 79:0.125 80:0.125 81:0.125 82:0.0833333 83:0.0694444 84:0.125 85:0.125 86:0.0833333 87:0.125 88:0.0811024 89:0.0729167 90:0.03125 91:0.0416667 92:0.0625 93:0.125 94:0.125 95:0.125 96:0.0875 98:0.125 99:0.05 100:0.125 101:0.125 102:0.09375 103:0.111111 104:0.05 105:0.125 107:0.0714286 108:0.0892857 110:0.0729167 112:0.125 113:0.125 114:0.125 115:0.125 116:0.075 117:0.0729167 118:0.0735294 119:0.0952381 120:0.0416667 121:0.0416667 122:0.0769231 123:0.0766129 124:0.0923913 125:0.075 126:0.0625 127:0.125 128:0.125 129:0.125 131:0.075 133:0.0681818 134:0.0735294 135:0.085 136:0.125 137:0.09375 138:0.0625 140:0.1 141:0.077381 
1 1 0 0 1:0.5 3:0.125 4:0.5 5:0.3125 6:0.5 7:0.4 9:0.1 10:0.5 11:0.25 12:0.5 13:0.166667 14:0.5 15:0.390625 16:0.333333 17:0.5 18:0.0714286 19:0.25 20:0.409091 21:0.28125 23:0.25 26:0.5 27:0.5 28:0.275883 30:0.2 31:0.5 32:0.5 33:0.5 34:0.289474 35:0.5 36:0.5 37:0.333333 38:0.333333 39:0.5 41:0.357143 42:0.333333 43:0.357143 44:0.5 45:0.5 46:0.269231 47:0.384615 48:0.125 49:0.5 50:0.333333 51:0.125 52:0.333333 53:0.5 55:0.3 56:0.5 57:0.296296 58:0.25 60:0.3 61:0.25 62:0.333333 63:0.25 64:0.316198 65:0.5 66:0.5 68:0.25 69:0.5 70:0.25 71:0.333333 72:0.5 73:0.5 74:0.346154 75:0.4 76:0.166667 77:0.285714 78:0.423077 79:0.5 80:0.5 81:0.5 82:0.333333 83:0.277778 84:0.5 85:0.5 86:0.333333 87:0.5 88:0.329134 89:0.291667 90:0.125 91:0.166667 92:0.25 93:0.5 94:0.5 95:0.5 96:0.35 98:0.5 99:0.2 100:0.5 101:0.5 102:0.375 103:0.444444 104:0.2 105:0.5 107:0.285714 108:0.357143 110:0.291667 112:0.5 113:0.5 114:0.5 115:0.5 116:0.333333 117:0.291667 118:0.294118 119:0.380952 120:0.166667 121:0.166667 122:0.307692 123:0.306452 124:0.369565 125:0.3 126:0.25 127:0.5 128:0.5 129:0.5 131:0.3 133:0.272727 134:0.294118 135:0.34 136:0.5 137:0.375 138:0.25 140:0.4 141:0.31746 
1 1 0 0 1:0.5 3:0.125 4:0.5 5:0.3125 6:0.5 7:0.4 9:0.1 10:0.5 11:0.25 12:0.5 13:0.166667 14:0.5 15:0.390625 16:0.333333 17:0.5 18:0.0714286 19:0.25 20:0.409091 21:0.28125 23:0.25 26:0.5 27:0.5 28:0.275883 30:0.2 31:0.5 32:0.5 33:0.5 34:0.289474 35:0.5 36:0.5 37:0.333333 38:0.333333 39:0.5 41:0.357143 42:0.333333 43:0.357143 44:0.5 45:0.5 46:0.269231 47:0.384615 48:0.125 49:0.5 50:0.333333 51:0.125 52:0.333333 53:0.5 55:0.3 56:0.5 57:0.296296 58:0.25 60:0.3 61:0.25 62:0.333333 63:0.25 64:0.338991 65:0.5 66:0.5 68:0.25 69:0.5 70:0.25 71:0.333333 72:0.5 73:0.5 74:0.346154 75:0.4 76:0.166667 77:0.285714 78:0.423077 79:0.5 80:0.5 81:0.5 82:0.333333 83:0.277778 84:0.5 85:0.5 86:0.333333 87:0.5 88:0.329134 89:0.291667 90:0.125 91:0.166667 92:0.25 93:0.5 94:0.5 95:0.5 96:0.35 98:0.5 99:0.2 100:0.5 101:0.5 102:0.375 103:0.444444 104:0.2 105:0.5 107:0.285714 108:0.357143 110:0.291667 112:0.5 113:0.5 114:0.5 115:0.5 116:0.333333 117:0.291667 118:0.294118 119:0.380952 120:0.166667 121:0.166667 122:0.307692 123:0.306452 124:0.369565 125:0.3 126:0.25 127:0.5 128:0.5 129:0.5 131:0.3 133:0.272727 134:0.294118 135:0.34 136:0.5 137:0.375 138:0.25 140:0.4 141:0.31746 
0 1 0 0 1:0.166667 3:0.0416667 4:0.166667 5:0.104167 6:0.166667 7:0.133333 9:0.0333333 10:0.166667 11:0.0833333 12:0.166667 13:0.0555556 14:0.166667 15:0.130208 16:0.111111 17:0.166667 18:0.0238095 19:0.0833333 20:0.136364 21:0.09375 23:0.0833333 26:0.166667 27:0.166667 28:0.0959505 30:0.1 31:0.166667 32:0.166667 33:0.166667 34:0.0964912 35:0.166667 36:0.166667 37:0.111111 38:0.111111 39:0.166667 41:0.119048 42:0.111111 43:0.119048 44:0.166667 45:0.166667 46:0.0897436 47:0.128205 48:0.0416667 49:0.166667 50:0.111111 51:0.0416667 52:0.111111 53:0.166667 55:0.1 56:0.166667 57:0.0987654 58:0.0833333 60:0.1 61:0.0833333 62:0.111111 63:0.0833333 64:0.111057 65:0.166667 66:0.166667 68:0.0833333 69:0.166667 70:0.0833333 71:0.111111 72:0.166667 73:0.166667 74:0.115385 75:0.133333 76:0.0555556 77:0.0952381 78:0.141026 79:0.166667 80:0.166667 81:0.166667 82:0.111111 83:0.0925926 84:0.166667 85:0.166667 86:0.111111 87:0.166667 88:0.111811 89:0.0972222 90:0.0416667 91:0.0555556 92:0.0833333 93:0.166667 94:0.166667 95:0.166667 96:0.116667 98:0.166667 99:0.0666667 100:0.166667 101:0.166667 102:0.125 103:0.148148 104:0.0666667 105:0.166667 107:0.0952381 108:0.119048 110:0.0972222 112:0.166667 113:0.166667 114:0.166667 115:0.166667 116:0.111111 117:0.0972222 118:0.0980392 119:0.126984 120:0.0555556 121:0.0555556 122:0.102564 123:0.102151 124:0.123188 125:0.1 126:0.0833333 127:0.166667 128:0.166667 129:0.166667 131:0.1 133:0.0909091 134:0.0980392 135:0.113333 136:0.166667 137:0.125 138:0.0833333 140:0.133333 141:0.10582 
0 1 0 0 1:0.04 3:0.01 4:0.04 5:0.025 6:0.04 7:0.032 9:0.008 10:0.04 11:0.02 12:0.04 13:0.0133333 14:0.04 15:0.03125 16:0.0266667 17:0.04 18:0.00571429 19:0.02 20:0.0327273 21:0.0225 23:0.02 26:0.04 27:0.04 28:0.0225733 30:0.024 31:0.04 32:0.04 33:0.04 34:0.0231579 35:0.04 36:0.04 37:0.0266667 38:0.0266667 39:0.04 41:0.0285714 42:0.0266667 43:0.0285714 44:0.04 45:0.04 46:0.0215385 47:0.0307692 48:0.01 49:0.04 50:0.0266667 51:0.01 52:0.0266667 53:0.04 55:0.024 56:0.04 57:0.0237037 58:0.02 60:0.024 61:0.02 62:0.0266667 63:0.02 64:0.0244423 65:0.04 66:0.04 68:0.02 69:0.04 70:0.02 71:0.0266667 72:0.04 73:0.04 74:0.0307692 75:0.032 76:0.0133333 77:0.0228571 78:0.0338462 79:0.04 80:0.04 81:0.04 82:0.0266667 83:0.0237037 84:0.04 85:0.04 86:0.04 87:0.04 88:0.0256378 89:0.0233333 90:0.01 91:0.0133333 92:0.02 93:0.04 94:0.04 95:0.04 96:0.028 98:0.04 99:0.016 100:0.04 101:0.04 102:0.03 103:0.0355556 104:0.016 105:0.04 107:0.0228571 108:0.0285714 110:0.0266667 112:0.04 113:0.04 114:0.04 115:0.04 116:0.0266667 117:0.0233333 118:0.0235294 119:0.032381 120:0.0133333 121:0.0133333 122:0.0246154 123:0.0258065 124:0.0295652 125:0.024 126:0.02 127:0.04 128:0.04 129:0.04 131:0.024 133:0.0236364 134:0.0235294 135:0.0272 136:0.04 137:0.03 138:0.02 140:0.032 141:0.0253968 
0 1 0 0 1:0.0714286 3:0.0178571 4:0.0714286 5:0.0446429 6:0.0714286 7:0.0571429 9:0.0142857 10:0.0714286 11:0.0357143 12:0.0714286 13:0.0238095 14:0.0714286 15:0.0580357 16:0.047619 17:0.0714286 18:0.0102041 19:0.0357143 20:0.0584416 21:0.0401786 23:0.0446429 26:0.0714286 27:0.0714286 28:0.0426605 30:0.0428571 31:0.0714286 32:0.0714286 33:0.0714286 34:0.0413534 35:0.0714286 36:0.0714286 37:0.047619 38:0.047619 39:0.0714286 41:0.0510204 42:0.047619 43:0.0510204 44:0.0714286 45:0.0714286 46:0.043956 47:0.0549451 48:0.0178571 49:0.0714286 50:0.047619 51:0.0357143 52:0.047619 53:0.0714286 55:0.0428571 56:0.0714286 57:0.042328 58:0.0357143 60:0.0428571 61:0.0357143 62:0.047619 63:0.0357143 64:0.0491894 65:0.0714286 66:0.0714286 68:0.0357143 69:0.0714286 70:0.0357143 71:0.047619 72:0.0714286 73:0.0714286 74:0.0549451 75:0.0571429 76:0.0238095 77:0.0408163 78:0.0604396 79:0.0714286 80:0.0714286 81:0.0714286 82:0.047619 83:0.042328 84:0.0714286 85:0.0714286 86:0.0714286 87:0.0714286 88:0.0470191 89:0.0416667 90:0.0178571 91:0.0238095 92:0.0357143 93:0.0714286 94:0.0714286 95:0.0714286 96:0.0571429 98:0.0714286 99:0.0428571 100:0.0714286 101:0.0714286 102:0.0535714 103:0.0634921 104:0.0285714 105:0.0714286 107:0.0408163 108:0.0510204 110:0.047619 112:0.0714286 113:0.0714286 114:0.0714286 115:0.0714286 116:0.047619 117:0.0416667 118:0.0462185 119:0.0578231 120:0.0238095 121:0.0238095 122:0.043956 123:0.0460829 124:0.052795 125:0.0428571 126:0.0357143 127:0.0714286 128:0.0714286 129:0.0714286 131:0.0428571 133:0.0422078 134:0.0420168 135:0.0495238 136:0.0714286 137:0.0535714 138:0.0357143 140:0.0571429 141:0.0453515 
0 1 0 0 1:0.25 3:0.0625 4:0.25 5:0.15625 6:0.25 7:0.2 9:0.05 10:0.25 11:0.125 12:0.25 13:0.0833333 14:0.25 15:0.203125 16:0.166667 17:0.25 18:0.0357143 19:0.125 20:0.204545 21:0.140625 23:0.15625 26:0.25 27:0.25 28:0.150808 30:0.15 31:0.25 32:0.25 33:0.25 34:0.144737 35:0.25 36:0.25 37:0.166667 38:0.166667 39:0.25 41:0.178571 42:0.166667 43:0.178571 44:0.25 45:0.25 46:0.153846 47:0.192308 48:0.0625 49:0.25 50:0.166667 51:0.125 52:0.166667 53:0.25 55:0.15 56:0.25 57:0.148148 58:0.125 60:0.15 61:0.125 62:0.166667 63:0.125 64:0.179437 65:0.25 66:0.25 68:0.125 69:0.25 70:0.125 71:0.166667 72:0.25 73:0.25 74:0.192308 75:0.2 76:0.0833333 77:0.142857 78:0.211538 79:0.25 80:0.25 81:0.25 82:0.166667 83:0.148148 84:0.25 85:0.25 86:0.25 87:0.25 88:0.168504 89:0.145833 90:0.0625 91:0.0833333 92:0.125 93:0.25 94:0.25 95:0.25 96:0.2 98:0.25 99:0.15 100:0.25 101:0.25 102:0.1875 103:0.222222 104:0.1 105:0.25 107:0.142857 108:0.178571 110:0.166667 112:0.25 113:0.25 114:0.25 115:0.25 116:0.166667 117:0.145833 118:0.161765 119:0.202381 120:0.0833333 121:0.0833333 122:0.153846 123:0.16129 124:0.184783 125:0.15 126:0.125 127:0.25 128:0.25 129:0.25 131:0.15 133:0.147727 134:0.147059 135:0.173333 136:0.25 137:0.1875 138:0.125 140:0.2 141:0.15873 
