svm_type c_svc
kernel_type rbf
gamma 0.00735294
nr_class 5
total_sv 389
rho -0.971018 -0.946158 -0.993818 -0.997993 0.953951 -0.943261 -0.997065 -0.989076 -0.978396 -0.993254
label 4 5 3 2 1
nr_sv 149 102 112 21 5
SV
0.6446241466799965 1 1 0 
0 1 1 0 
0.01255597448091906 1 1 0.2150202958068103 
1 1 0.7059104087420705 0 81:0.0131579 98:0.00304878 
1 0 0 0 19:0.0285714 27:0.0714286 33:0.0238095 44:0.0075188 51:0.012987 66:0.0357143 77:0.012987 81:0.0075188 87:0.00680272 89:0.0119048 98:0.00348432 109:0.0285714 117:0.0357143 119:0.00595238 123:0.00446429 131:0.012987 
1 0.6429731989617273 0.5125181170628544 0 19:0.0222222 27:0.0555556 33:0.0185185 39:0.0031746 44:0.00584795 51:0.010101 59:0.00347222 66:0.0277778 77:0.010101 81:0.00584795 87:0.00529101 89:0.00925926 98:0.00406504 109:0.0222222 117:0.0277778 119:0.00462963 123:0.00347222 131:0.010101 136:0.015873 
1 0 0 0 19:0.0222222 27:0.0555556 33:0.0185185 39:0.0031746 44:0.00584795 47:0.0111111 48:0.0277778 51:0.010101 59:0.00347222 66:0.0277778 77:0.010101 81:0.00584795 83:0.00584795 87:0.00529101 89:0.00925926 96:0.00226757 98:0.00406504 109:0.0222222 117:0.0277778 119:0.00462963 123:0.00694444 131:0.010101 133:0.0277778 136:0.015873 
1 0 0 0 19:0.0333333 27:0.0833333 33:0.0277778 39:0.0047619 44:0.00877193 47:0.0166667 48:0.0416667 51:0.0151515 59:0.00520833 66:0.0416667 77:0.0151515 81:0.00877193 83:0.0175439 87:0.00793651 89:0.0138889 96:0.00340136 98:0.00609756 109:0.0333333 117:0.0416667 119:0.00694444 123:0.0104167 131:0.0151515 133:0.0416667 136:0.0238095 
1 0.05730041787016367 0 0 19:0.2 23:0.4 26:0.5 27:0.5 33:0.166667 39:0.0285714 44:0.0526316 47:0.1 48:0.25 51:0.0909091 59:0.03125 63:0.0322581 66:0.25 77:0.0909091 78:0.0714286 81:0.0526316 83:0.105263 87:0.047619 89:0.0833333 96:0.0204082 98:0.0487805 109:0.2 117:0.25 119:0.0416667 123:0.09375 124:0.111111 126:0.02 131:0.0909091 133:0.25 135:0.5 136:0.142857 
1 1 0.03791136969464214 0 19:0.2 23:0.4 26:0.5 27:0.5 33:0.166667 39:0.0285714 44:0.0526316 47:0.1 48:0.25 51:0.0909091 59:0.03125 63:0.0322581 66:0.25 77:0.0909091 78:0.0714286 81:0.0526316 83:0.105263 87:0.047619 89:0.0833333 96:0.0204082 98:0.0487805 109:0.2 117:0.25 119:0.0416667 123:0.09375 124:0.111111 126:0.02 131:0.0909091 133:0.25 135:0.5 136:0.142857 
1 0 0 0 19:0.05 23:0.1 26:0.125 27:0.125 33:0.0416667 39:0.00714286 44:0.0131579 47:0.025 48:0.0625 50:0.0227273 51:0.0227273 59:0.0078125 63:0.00806452 66:0.0625 77:0.0227273 78:0.0178571 81:0.0394737 83:0.0263158 87:0.0119048 89:0.0208333 96:0.00510204 98:0.0121951 109:0.05 117:0.0625 119:0.0104167 123:0.0234375 124:0.0277778 126:0.005 131:0.0227273 133:0.0625 135:0.125 136:0.0357143 
1 0 0 0 19:0.1 23:0.2 26:0.25 27:0.25 33:0.0833333 39:0.0285714 44:0.0263158 47:0.05 48:0.125 50:0.0454545 51:0.0909091 59:0.015625 63:0.016129 66:0.125 77:0.0454545 78:0.0357143 79:0.0277778 81:0.0789474 83:0.0526316 87:0.0238095 89:0.0416667 96:0.0102041 98:0.0243902 109:0.1 117:0.125 119:0.03125 122:0.0357143 123:0.046875 124:0.0555556 126:0.01 131:0.0454545 133:0.125 135:0.25 136:0.0714286 
1 1 0 0 7:0.00490196 17:0.00452489 19:0.0117647 23:0.0235294 26:0.0294118 27:0.0294118 33:0.00980392 39:0.00840336 44:0.00309598 47:0.00588235 48:0.0147059 50:0.0160428 51:0.0106952 52:0.00163399 59:0.00183824 63:0.00189753 66:0.0147059 67:0.0171569 73:0.0294118 77:0.00534759 78:0.00420168 79:0.00653595 81:0.00928793 83:0.00619195 86:0.0235294 87:0.00280112 89:0.00490196 90:0.0294118 95:0.00653595 96:0.00480192 98:0.00286944 109:0.0117647 112:0.00346021 114:0.0294118 117:0.0147059 119:0.00612745 120:0.00217865 122:0.00420168 123:0.00919118 124:0.00653595 126:0.00117647 127:0.00420168 129:0.00490196 131:0.00534759 133:0.0147059 135:0.0294118 136:0.00840336 
1 0.8613734436324358 0 0 7:0.0166667 17:0.0153846 19:0.04 23:0.08 26:0.1 27:0.1 33:0.0333333 39:0.0285714 44:0.0105263 46:0.0166667 47:0.02 48:0.05 50:0.0545455 51:0.0363636 52:0.00555556 59:0.00625 63:0.00645161 66:0.05 67:0.0583333 73:0.1 77:0.0181818 78:0.0142857 79:0.0222222 81:0.0315789 83:0.0210526 86:0.08 87:0.0190476 89:0.0166667 90:0.1 95:0.0222222 96:0.0163265 98:0.0121951 109:0.04 112:0.0117647 114:0.1 117:0.05 119:0.0208333 120:0.00740741 122:0.0142857 123:0.03125 124:0.0222222 126:0.004 127:0.0142857 129:0.0166667 131:0.0181818 133:0.05 135:0.1 136:0.0285714 
1 1 0 0 7:0.00416667 17:0.00384615 19:0.01 23:0.02 26:0.025 27:0.025 33:0.00833333 39:0.00857143 44:0.00263158 46:0.00416667 47:0.005 48:0.0125 50:0.0136364 51:0.00909091 52:0.00277778 59:0.0015625 63:0.0016129 66:0.0125 67:0.0145833 73:0.025 77:0.00454545 78:0.00357143 79:0.00555556 81:0.0105263 83:0.00526316 86:0.02 87:0.0047619 89:0.00833333 90:0.025 95:0.00555556 96:0.00408163 98:0.00304878 109:0.01 112:0.00294118 114:0.025 117:0.0125 119:0.00520833 120:0.00185185 122:0.00357143 123:0.0078125 124:0.00555556 126:0.001 127:0.00357143 129:0.00416667 131:0.00454545 133:0.0125 135:0.025 136:0.00714286 
1 1 0 0 7:0.00757576 14:0.0454545 17:0.00699301 19:0.0181818 23:0.0363636 26:0.0454545 27:0.0454545 30:0.0181818 33:0.0151515 39:0.0155844 44:0.00478469 46:0.0227273 47:0.00909091 48:0.0227273 50:0.0330579 51:0.0165289 52:0.00757576 59:0.00568182 63:0.00293255 64:0.0181818 66:0.0227273 67:0.0340909 73:0.0454545 77:0.0165289 78:0.00649351 79:0.010101 81:0.0191388 83:0.00956938 86:0.0363636 87:0.012987 89:0.0227273 90:0.0454545 95:0.010101 96:0.012987 98:0.00665188 109:0.0181818 112:0.0160428 114:0.0454545 117:0.0227273 119:0.0094697 120:0.00673401 122:0.012987 123:0.0170455 124:0.010101 126:0.00181818 127:0.00649351 129:0.00757576 131:0.00826446 133:0.0454545 135:0.0454545 136:0.012987 
1 1 1 0 6:0.00235018 7:0.00225225 14:0.0135135 17:0.002079 19:0.00540541 23:0.0108108 26:0.0135135 27:0.0135135 30:0.00540541 33:0.0045045 39:0.0046332 44:0.00142248 46:0.00900901 47:0.0027027 48:0.00675676 50:0.00982801 51:0.00737101 52:0.00225225 59:0.00168919 63:0.00087184 64:0.00540541 66:0.00675676 67:0.0112613 73:0.0135135 77:0.004914 78:0.0019305 79:0.003003 81:0.0056899 83:0.00284495 86:0.0108108 87:0.003861 89:0.00675676 90:0.0135135 95:0.003003 96:0.003861 98:0.00230719 106:0.00168919 109:0.0108108 112:0.0063593 114:0.0135135 117:0.00675676 119:0.00281532 120:0.003003 122:0.00579151 123:0.00506757 124:0.003003 126:0.000540541 127:0.0019305 129:0.00675676 131:0.002457 132:0.00900901 133:0.0135135 135:0.0135135 136:0.003861 
1 1 0 0 6:0.0144928 7:0.0138889 14:0.0833333 17:0.0128205 19:0.0333333 23:0.0666667 26:0.0833333 27:0.0833333 30:0.0333333 33:0.0277778 39:0.0380952 44:0.0175439 46:0.0555556 47:0.0166667 48:0.0416667 50:0.0606061 51:0.0454545 52:0.0138889 59:0.0104167 63:0.00537634 64:0.0333333 66:0.0416667 67:0.0694444 73:0.0833333 77:0.030303 78:0.0119048 79:0.0277778 81:0.0350877 83:0.0175439 86:0.0666667 87:0.0238095 89:0.0416667 90:0.0833333 95:0.0185185 96:0.0272109 98:0.0142276 106:0.0208333 109:0.0666667 112:0.0392157 114:0.0833333 117:0.0416667 119:0.0208333 120:0.0185185 122:0.0357143 123:0.03125 124:0.0185185 126:0.00666667 127:0.0119048 129:0.0416667 131:0.0151515 132:0.0555556 133:0.0833333 135:0.0833333 136:0.0238095 
1 1 0 0 6:0.0173913 7:0.0166667 14:0.1 17:0.0153846 19:0.04 23:0.08 26:0.1 27:0.1 30:0.04 33:0.0333333 39:0.0457143 44:0.0210526 46:0.0666667 47:0.02 48:0.05 50:0.0727273 51:0.0545455 52:0.0166667 59:0.0125 63:0.0129032 64:0.04 66:0.05 67:0.0833333 73:0.1 77:0.0363636 78:0.0142857 79:0.0333333 81:0.0421053 83:0.0210526 86:0.08 87:0.0285714 89:0.05 90:0.1 95:0.0222222 96:0.0326531 98:0.0170732 106:0.025 109:0.08 112:0.0470588 114:0.1 117:0.05 119:0.025 120:0.0222222 122:0.0428571 123:0.0375 124:0.0222222 126:0.008 127:0.0142857 129:0.05 131:0.0181818 132:0.0666667 133:0.1 135:0.1 136:0.0285714 
1 1 0 0 6:0.00378072 7:0.00362319 14:0.0217391 17:0.00334448 19:0.00869565 23:0.0173913 26:0.0217391 27:0.0217391 30:0.00869565 33:0.00724638 39:0.00993789 44:0.00457666 46:0.0144928 47:0.00434783 48:0.0108696 50:0.0158103 51:0.0118577 52:0.00362319 59:0.00271739 63:0.00280505 64:0.00869565 66:0.0108696 67:0.0181159 73:0.0217391 77:0.00790514 78:0.00310559 79:0.00724638 81:0.00915332 83:0.00457666 86:0.0173913 87:0.00621118 89:0.0108696 90:0.0217391 95:0.00483092 96:0.00709849 98:0.00371156 106:0.00543478 109:0.0173913 112:0.0102302 114:0.0217391 117:0.0108696 119:0.00543478 120:0.00483092 122:0.00931677 123:0.00815217 124:0.00483092 126:0.00173913 127:0.00310559 129:0.0108696 131:0.00395257 132:0.0144928 133:0.0217391 135:0.0217391 136:0.00621118 
1 1 0 0 6:0.00347826 7:0.00333333 14:0.02 17:0.00307692 19:0.008 23:0.016 26:0.02 27:0.02 30:0.008 33:0.00666667 39:0.00914286 44:0.00421053 46:0.0133333 47:0.004 48:0.01 50:0.0145455 51:0.0109091 52:0.00333333 59:0.0025 63:0.00516129 64:0.008 66:0.01 67:0.0166667 73:0.02 77:0.00727273 78:0.00285714 79:0.00666667 81:0.00842105 83:0.00421053 86:0.016 87:0.00571429 89:0.01 90:0.02 95:0.00444444 96:0.00653061 98:0.00536585 106:0.01 109:0.016 112:0.0117647 114:0.02 117:0.01 119:0.005 120:0.00444444 122:0.00857143 123:0.0075 124:0.00444444 126:0.0032 127:0.00571429 129:0.01 131:0.00363636 132:0.0133333 133:0.02 135:0.02 136:0.00571429 
1 1 0 0 6:0.00790514 7:0.00757576 14:0.0454545 17:0.00699301 19:0.0181818 23:0.0363636 26:0.0454545 27:0.0454545 30:0.0181818 33:0.0151515 39:0.0207792 44:0.00956938 46:0.030303 47:0.00909091 48:0.0227273 50:0.0330579 51:0.0247934 52:0.00757576 59:0.00568182 63:0.0117302 64:0.0181818 66:0.0227273 67:0.0378788 73:0.0454545 77:0.0165289 78:0.00649351 79:0.0151515 81:0.0191388 83:0.00956938 86:0.0363636 87:0.012987 89:0.0227273 90:0.0454545 95:0.010101 96:0.0148423 98:0.0121951 106:0.0227273 109:0.0363636 112:0.0320856 114:0.0454545 117:0.0227273 119:0.0113636 120:0.010101 122:0.0194805 123:0.0198864 124:0.010101 126:0.00727273 127:0.012987 129:0.0227273 131:0.00826446 132:0.030303 133:0.0454545 135:0.0454545 136:0.012987 
1 1 0 0 6:0.0173913 7:0.0166667 14:0.1 17:0.0153846 19:0.04 23:0.08 26:0.1 27:0.1 30:0.04 33:0.0333333 39:0.0457143 44:0.0210526 46:0.0666667 47:0.02 48:0.05 50:0.0727273 51:0.0545455 52:0.0166667 59:0.0125 63:0.0258065 64:0.04 66:0.05 67:0.0833333 73:0.1 77:0.0363636 78:0.0142857 79:0.0333333 81:0.0421053 83:0.0210526 86:0.08 87:0.0285714 89:0.05 90:0.1 95:0.0222222 96:0.0326531 98:0.0268293 106:0.05 109:0.08 112:0.0705882 114:0.1 117:0.05 119:0.025 120:0.0222222 122:0.0428571 123:0.04375 124:0.0222222 126:0.016 127:0.0285714 129:0.05 131:0.0181818 132:0.0666667 133:0.1 135:0.1 136:0.0285714 
1 1 0 0 6:0.0173913 7:0.0166667 14:0.1 17:0.0153846 19:0.04 23:0.08 26:0.1 27:0.1 30:0.04 33:0.0333333 39:0.0457143 44:0.0210526 46:0.0666667 47:0.02 48:0.05 50:0.0727273 51:0.0545455 52:0.0166667 59:0.0125 63:0.0258065 64:0.04 66:0.05 67:0.0833333 73:0.1 77:0.0363636 78:0.0142857 79:0.0333333 81:0.0421053 83:0.0210526 86:0.08 87:0.0285714 89:0.05 90:0.1 95:0.0222222 96:0.0326531 98:0.0292683 106:0.05 109:0.08 112:0.0823529 114:0.1 117:0.05 119:0.025 120:0.0222222 122:0.0428571 123:0.04375 124:0.0222222 126:0.016 127:0.0285714 129:0.05 131:0.0181818 132:0.0666667 133:0.1 135:0.1 136:0.0285714 
1 1 0.1012603083447623 0.1078320137562098 6:0.0289855 7:0.0277778 14:0.166667 17:0.025641 19:0.0666667 23:0.133333 26:0.166667 27:0.166667 30:0.0666667 33:0.0555556 39:0.0761905 44:0.0350877 46:0.111111 47:0.0333333 48:0.0833333 50:0.121212 51:0.0909091 52:0.0277778 59:0.0208333 63:0.0430108 64:0.0666667 66:0.0833333 67:0.138889 73:0.166667 77:0.0606061 78:0.0238095 79:0.0555556 81:0.0701754 83:0.0350877 86:0.133333 87:0.047619 89:0.0833333 90:0.166667 95:0.037037 96:0.0544218 98:0.0528455 106:0.0833333 109:0.133333 112:0.137255 114:0.166667 117:0.0833333 119:0.0416667 120:0.037037 122:0.0714286 123:0.0729167 124:0.037037 126:0.0266667 127:0.047619 129:0.0833333 131:0.030303 132:0.111111 133:0.166667 135:0.166667 136:0.047619 
1 0 0 0 6:0.00668896 7:0.00641026 14:0.0384615 17:0.0118343 19:0.0153846 23:0.0307692 26:0.0384615 27:0.0384615 30:0.0153846 33:0.0128205 39:0.0175824 40:0.025641 44:0.00809717 46:0.025641 47:0.00769231 48:0.0192308 50:0.027972 51:0.020979 52:0.00641026 59:0.00480769 63:0.00992556 64:0.0153846 66:0.0192308 67:0.0320513 73:0.0384615 77:0.013986 78:0.00549451 79:0.0128205 81:0.0161943 83:0.00809717 86:0.0307692 87:0.010989 89:0.0192308 90:0.0384615 95:0.00854701 96:0.0125589 98:0.0121951 106:0.0192308 109:0.0307692 112:0.0361991 114:0.0384615 117:0.0192308 119:0.00961538 120:0.00854701 122:0.0164835 123:0.0168269 124:0.00854701 126:0.00615385 127:0.010989 129:0.0192308 131:0.00699301 132:0.025641 133:0.0384615 135:0.0384615 136:0.010989 
1 1 0.03100813459269259 0 6:0.0434783 7:0.0416667 14:0.25 17:0.0769231 19:0.1 23:0.2 25:0.125 26:0.25 27:0.25 30:0.1 33:0.0833333 39:0.114286 40:0.166667 44:0.0789474 46:0.208333 47:0.05 48:0.125 50:0.181818 51:0.136364 52:0.0416667 59:0.03125 63:0.0645161 64:0.1 66:0.125 67:0.208333 73:0.25 77:0.0909091 78:0.0357143 79:0.0833333 81:0.105263 83:0.0789474 86:0.2 87:0.0714286 89:0.125 90:0.25 95:0.0555556 96:0.0816327 98:0.0792683 106:0.125 109:0.2 112:0.235294 114:0.25 117:0.125 119:0.0625 120:0.0555556 122:0.107143 123:0.109375 124:0.0555556 126:0.04 127:0.0714286 129:0.125 131:0.0454545 132:0.166667 133:0.25 135:0.25 136:0.0714286 
1 1 0 0 3:0.00595238 6:0.00543478 7:0.00347222 14:0.0208333 17:0.00641026 19:0.00833333 23:0.0166667 25:0.0104167 26:0.0208333 27:0.0208333 30:0.00833333 33:0.00694444 39:0.00952381 40:0.0138889 44:0.00657895 46:0.0173611 47:0.00416667 48:0.0104167 50:0.0151515 51:0.0113636 52:0.00462963 59:0.00390625 63:0.00537634 64:0.00833333 66:0.0104167 67:0.0173611 73:0.0208333 77:0.00757576 78:0.00297619 79:0.00694444 81:0.00877193 83:0.00657895 86:0.0166667 87:0.00595238 89:0.0104167 90:0.0208333 95:0.00462963 96:0.00680272 98:0.00660569 106:0.0104167 109:0.0166667 112:0.0196078 114:0.0208333 117:0.0104167 119:0.00520833 120:0.00462963 122:0.00892857 123:0.00911458 124:0.00462963 126:0.00333333 127:0.00595238 129:0.0104167 131:0.00378788 132:0.0138889 133:0.0208333 135:0.0208333 136:0.00595238 
1 1 0.1159664929262243 0 3:0.0714286 6:0.0652174 7:0.0416667 10:0.25 14:0.25 17:0.0769231 19:0.1 23:0.2 25:0.125 26:0.25 27:0.25 28:0.1 30:0.1 33:0.0833333 35:0.25 39:0.128571 40:0.166667 41:0.5 44:0.105263 46:0.208333 47:0.05 48:0.125 50:0.181818 51:0.136364 52:0.0555556 59:0.046875 63:0.0806452 64:0.1 66:0.125 67:0.208333 68:0.0833333 73:0.25 76:0.25 77:0.0909091 78:0.107143 79:0.0833333 81:0.105263 83:0.0789474 86:0.2 87:0.0714286 89:0.125 90:0.25 95:0.111111 96:0.0816327 98:0.097561 106:0.125 109:0.3 112:0.235294 114:0.25 117:0.125 119:0.0833333 120:0.0555556 122:0.107143 123:0.109375 124:0.0555556 126:0.05 127:0.0714286 129:0.125 131:0.0454545 132:0.166667 133:0.25 135:0.25 136:0.0714286 
1 1 0 0 3:0.0285714 6:0.026087 7:0.0166667 10:0.1 14:0.1 17:0.0307692 19:0.04 23:0.08 25:0.05 26:0.1 27:0.1 28:0.04 30:0.04 33:0.05 35:0.1 39:0.0514286 40:0.0666667 41:0.2 44:0.0421053 46:0.0833333 47:0.02 48:0.05 50:0.0727273 51:0.0545455 52:0.0222222 59:0.01875 63:0.0322581 64:0.04 66:0.05 67:0.0833333 68:0.0333333 73:0.1 76:0.1 77:0.0363636 78:0.0428571 79:0.0333333 81:0.0421053 83:0.0421053 86:0.08 87:0.0285714 89:0.05 90:0.1 95:0.0444444 96:0.0326531 98:0.0439024 106:0.05 109:0.12 112:0.0941176 114:0.1 117:0.05 119:0.0333333 120:0.0222222 122:0.0428571 123:0.04375 124:0.0222222 126:0.02 127:0.0285714 129:0.05 131:0.0181818 132:0.0666667 133:0.1 135:0.1 136:0.0285714 
1 1 0 0 3:0.0357143 6:0.0326087 7:0.0416667 10:0.125 13:0.0227273 14:0.125 17:0.0576923 19:0.05 23:0.1 25:0.0625 26:0.125 27:0.125 28:0.05 30:0.05 33:0.0625 35:0.125 39:0.0642857 40:0.0833333 41:0.25 44:0.0526316 46:0.104167 47:0.025 48:0.0625 50:0.0909091 51:0.0681818 52:0.0277778 59:0.0234375 63:0.0403226 64:0.05 66:0.0625 67:0.114583 68:0.0416667 73:0.125 76:0.125 77:0.0454545 78:0.0535714 79:0.0416667 81:0.0526316 83:0.0657895 86:0.1 87:0.0357143 89:0.0625 90:0.125 94:0.0833333 95:0.0555556 96:0.0510204 98:0.054878 106:0.0625 109:0.15 112:0.132353 114:0.125 117:0.0625 119:0.0416667 120:0.0277778 122:0.0535714 123:0.0546875 124:0.0277778 126:0.025 127:0.0357143 129:0.0625 131:0.0227273 132:0.0833333 133:0.125 135:0.125 136:0.0357143 
1 1 0 0 3:0.00446429 6:0.00407609 7:0.00520833 10:0.015625 13:0.00284091 14:0.015625 17:0.00721154 19:0.00625 23:0.0125 25:0.0078125 26:0.015625 27:0.015625 28:0.00625 30:0.00625 33:0.0078125 35:0.015625 39:0.00892857 40:0.0104167 41:0.03125 44:0.00657895 46:0.0130208 47:0.00625 48:0.0234375 50:0.0113636 51:0.00852273 52:0.00347222 59:0.00292969 63:0.00504032 64:0.00625 66:0.0078125 67:0.0143229 68:0.00520833 73:0.015625 76:0.015625 77:0.00568182 78:0.00669643 79:0.00520833 81:0.00657895 83:0.00822368 85:0.03125 86:0.0125 87:0.00446429 89:0.0078125 90:0.015625 94:0.0104167 95:0.00694444 96:0.00637755 98:0.00724085 101:0.0104167 106:0.0078125 108:0.03125 109:0.01875 112:0.0165441 114:0.015625 117:0.0078125 119:0.00585937 120:0.00347222 122:0.00669643 123:0.00683594 124:0.00347222 126:0.003125 127:0.00446429 129:0.0104167 131:0.00284091 132:0.0104167 133:0.015625 135:0.015625 136:0.00446429 
1 1 1 0 3:0.0204082 6:0.0186335 7:0.0238095 10:0.0714286 13:0.012987 14:0.0714286 17:0.032967 19:0.0285714 23:0.0571429 25:0.0357143 26:0.0714286 27:0.0714286 28:0.0285714 30:0.0285714 33:0.0357143 35:0.0714286 39:0.0408163 40:0.047619 41:0.142857 44:0.0300752 46:0.0595238 47:0.0428571 48:0.107143 50:0.0519481 51:0.038961 52:0.015873 59:0.0133929 63:0.0230415 64:0.0285714 66:0.0357143 67:0.0654762 68:0.0238095 73:0.0714286 76:0.0714286 77:0.025974 78:0.0306122 79:0.0238095 81:0.0300752 83:0.037594 85:0.142857 86:0.0571429 87:0.0204082 89:0.0357143 90:0.0714286 94:0.047619 95:0.031746 96:0.0291545 98:0.033101 101:0.047619 106:0.0357143 108:0.142857 109:0.0857143 110:0.0238095 112:0.0756303 114:0.0714286 117:0.0357143 119:0.0267857 120:0.015873 122:0.0306122 123:0.03125 124:0.015873 126:0.0142857 127:0.0306122 129:0.047619 131:0.012987 132:0.047619 133:0.0714286 135:0.0714286 136:0.0204082 
1 1 0 0 3:0.047619 6:0.0434783 7:0.0555556 10:0.166667 13:0.030303 14:0.166667 17:0.0769231 19:0.0666667 23:0.133333 25:0.0833333 26:0.166667 27:0.166667 28:0.0666667 30:0.0666667 33:0.0833333 35:0.166667 39:0.0952381 40:0.111111 41:0.333333 44:0.0701754 46:0.138889 47:0.1 48:0.25 50:0.121212 51:0.0909091 52:0.037037 59:0.03125 63:0.0537634 64:0.0666667 66:0.0833333 67:0.152778 68:0.0555556 73:0.166667 76:0.166667 77:0.0606061 78:0.0714286 79:0.0555556 81:0.0701754 83:0.0877193 85:0.333333 86:0.133333 87:0.047619 89:0.0833333 90:0.166667 94:0.111111 95:0.0740741 96:0.0680272 98:0.0772358 101:0.111111 106:0.0833333 108:0.333333 109:0.2 110:0.0555556 112:0.176471 114:0.166667 117:0.0833333 119:0.0625 120:0.037037 122:0.0714286 123:0.0729167 124:0.037037 126:0.0333333 127:0.0714286 129:0.111111 131:0.030303 132:0.111111 133:0.166667 135:0.166667 136:0.047619 
1 1 0 0 3:0.0238095 6:0.0217391 7:0.0277778 10:0.0833333 13:0.0151515 14:0.0833333 17:0.0384615 19:0.0333333 23:0.0666667 25:0.0416667 26:0.0833333 27:0.0833333 28:0.0333333 30:0.0333333 33:0.0416667 35:0.0833333 39:0.047619 40:0.0555556 41:0.166667 44:0.0350877 46:0.0694444 47:0.05 48:0.125 50:0.0606061 51:0.0454545 52:0.0185185 59:0.015625 63:0.0268817 64:0.0333333 66:0.0416667 67:0.0763889 68:0.0277778 73:0.0833333 76:0.0833333 77:0.030303 78:0.0357143 79:0.0277778 81:0.0350877 83:0.0438596 85:0.166667 86:0.0666667 87:0.0238095 89:0.0416667 90:0.0833333 94:0.0555556 95:0.037037 96:0.0340136 98:0.0406504 101:0.0555556 106:0.0416667 108:0.166667 109:0.1 110:0.0277778 112:0.0882353 114:0.0833333 117:0.0416667 119:0.0381944 120:0.0246914 122:0.0357143 123:0.0364583 124:0.0185185 126:0.0166667 127:0.0357143 129:0.0555556 131:0.0151515 132:0.0555556 133:0.0833333 135:0.0833333 136:0.0238095 
1 1 0 0 3:0.00332226 6:0.00404449 7:0.00484496 10:0.0116279 13:0.00211416 14:0.0116279 17:0.00536673 19:0.00465116 23:0.00930233 25:0.00581395 26:0.0116279 27:0.0116279 28:0.00465116 30:0.00465116 33:0.00581395 35:0.0116279 39:0.00730897 40:0.00775194 41:0.0232558 44:0.00489596 46:0.00968992 47:0.00697674 48:0.0174419 50:0.00845666 51:0.00634249 52:0.00322997 59:0.00218023 63:0.00525131 64:0.00930233 66:0.00581395 67:0.0106589 68:0.00387597 73:0.0116279 76:0.0116279 77:0.00422833 78:0.00498339 79:0.00387597 81:0.00611995 83:0.00611995 85:0.0232558 86:0.00930233 87:0.00332226 89:0.00581395 90:0.0116279 94:0.00775194 95:0.00516796 96:0.00474608 98:0.00567215 101:0.00775194 104:0.00465116 106:0.00581395 108:0.0232558 109:0.0139535 110:0.00775194 112:0.0123119 114:0.0116279 116:0.00775194 117:0.00581395 119:0.00581395 120:0.00344531 122:0.00498339 123:0.00508721 124:0.00258398 126:0.0027907 127:0.00498339 129:0.00775194 131:0.00211416 132:0.00775194 133:0.0116279 135:0.0116279 136:0.00332226 
1 1 0 0 3:0.015873 6:0.0193237 7:0.0231481 10:0.0555556 13:0.010101 14:0.0555556 17:0.025641 19:0.0222222 23:0.0444444 25:0.0277778 26:0.0555556 27:0.0555556 28:0.0222222 30:0.0222222 33:0.0277778 35:0.0555556 39:0.0349206 40:0.037037 41:0.111111 44:0.0233918 46:0.0462963 47:0.0444444 48:0.0833333 50:0.040404 51:0.030303 52:0.0154321 59:0.0104167 63:0.0250896 64:0.0444444 66:0.0277778 67:0.0509259 68:0.0185185 73:0.0555556 76:0.0555556 77:0.020202 78:0.0238095 79:0.0185185 81:0.0292398 83:0.0292398 85:0.111111 86:0.0444444 87:0.015873 89:0.0277778 90:0.0555556 94:0.037037 95:0.0246914 96:0.0226757 98:0.0271003 101:0.037037 104:0.0222222 106:0.0277778 108:0.111111 109:0.0666667 110:0.037037 112:0.0588235 114:0.0555556 116:0.037037 117:0.0277778 119:0.0277778 120:0.0164609 122:0.031746 123:0.0243056 124:0.0123457 126:0.0133333 127:0.0238095 129:0.037037 131:0.010101 132:0.037037 133:0.0555556 135:0.0555556 136:0.015873 
1 1 0 0 3:0.0357143 6:0.0434783 7:0.0520833 10:0.125 13:0.0227273 14:0.125 17:0.0576923 19:0.05 23:0.1 25:0.0625 26:0.125 27:0.125 28:0.05 30:0.05 33:0.0625 35:0.125 39:0.0785714 40:0.0833333 41:0.25 44:0.0526316 46:0.104167 47:0.1 48:0.1875 50:0.0909091 51:0.0681818 52:0.0347222 59:0.0234375 63:0.0564516 64:0.1 66:0.0625 67:0.114583 68:0.0416667 73:0.125 76:0.125 77:0.0454545 78:0.0535714 79:0.0416667 81:0.0657895 83:0.0657895 85:0.25 86:0.1 87:0.0357143 89:0.0625 90:0.125 94:0.0833333 95:0.0555556 96:0.0510204 98:0.0609756 101:0.0833333 104:0.05 106:0.0625 108:0.25 109:0.15 110:0.0833333 112:0.132353 114:0.125 116:0.0833333 117:0.0625 119:0.0625 120:0.037037 122:0.0714286 123:0.0546875 124:0.0277778 126:0.03 127:0.0535714 129:0.0833333 131:0.0227273 132:0.0833333 133:0.125 135:0.125 136:0.0357143 
1 1 0 0 3:0.00408163 6:0.00496894 7:0.00595238 10:0.0142857 13:0.00519481 14:0.0142857 17:0.00659341 19:0.00857143 23:0.0114286 25:0.00714286 26:0.0142857 27:0.0142857 28:0.00571429 30:0.00571429 32:0.00952381 33:0.00952381 35:0.0142857 38:0.00714286 39:0.00897959 40:0.00952381 41:0.0285714 44:0.00601504 46:0.0119048 47:0.0114286 48:0.0214286 50:0.0103896 51:0.00779221 52:0.00396825 59:0.00357143 63:0.00645161 64:0.0171429 66:0.00714286 67:0.0142857 68:0.0047619 73:0.0142857 76:0.0142857 77:0.00519481 78:0.00612245 79:0.0047619 81:0.0075188 83:0.00902256 85:0.0285714 86:0.0114286 87:0.00408163 89:0.00714286 90:0.0142857 94:0.00952381 95:0.00634921 96:0.00641399 98:0.00766551 101:0.00952381 104:0.00571429 106:0.00714286 108:0.0285714 109:0.0171429 110:0.00952381 112:0.0151261 114:0.0142857 116:0.00952381 117:0.0142857 119:0.00714286 120:0.0042328 122:0.00816327 123:0.00625 124:0.0031746 126:0.004 127:0.00612245 129:0.00952381 131:0.0025974 132:0.00952381 133:0.0142857 135:0.0142857 136:0.00408163 
1 1 0.009352385513702878 0.04799885650358565 3:0.0952381 6:0.057971 7:0.0833333 10:0.166667 13:0.0606061 14:0.166667 17:0.0769231 19:0.1 23:0.133333 25:0.0833333 26:0.166667 27:0.166667 28:0.0666667 30:0.0666667 32:0.111111 33:0.138889 35:0.166667 38:0.0833333 39:0.104762 40:0.111111 41:0.333333 44:0.0701754 46:0.138889 47:0.133333 48:0.25 50:0.121212 51:0.0909091 52:0.0462963 59:0.0416667 63:0.0752688 64:0.2 66:0.0833333 67:0.166667 68:0.0555556 73:0.166667 76:0.166667 77:0.0606061 78:0.0714286 79:0.0555556 81:0.0877193 83:0.105263 85:0.333333 86:0.133333 87:0.047619 89:0.0833333 90:0.166667 94:0.111111 95:0.0740741 96:0.0748299 98:0.0934959 101:0.111111 104:0.0666667 106:0.0833333 108:0.333333 109:0.2 110:0.111111 111:0.0555556 112:0.176471 114:0.166667 116:0.111111 117:0.166667 119:0.0833333 120:0.0493827 122:0.0952381 123:0.0729167 124:0.037037 126:0.0466667 127:0.0714286 129:0.111111 131:0.030303 132:0.111111 133:0.166667 135:0.166667 136:0.047619 
0 1 0 0 3:0.00816327 6:0.00496894 7:0.00714286 10:0.0142857 13:0.00519481 14:0.0142857 17:0.00659341 19:0.00857143 23:0.0114286 25:0.00714286 26:0.0142857 27:0.0142857 28:0.00571429 30:0.00571429 32:0.00952381 33:0.0119048 35:0.0142857 38:0.00714286 39:0.00897959 40:0.0190476 41:0.0285714 44:0.00601504 46:0.0119048 47:0.0114286 48:0.0214286 50:0.012987 51:0.00779221 52:0.00396825 59:0.00357143 63:0.00737327 64:0.0171429 66:0.00714286 67:0.0154762 68:0.00952381 71:0.0142857 73:0.0142857 76:0.0142857 77:0.00519481 78:0.00612245 79:0.0047619 81:0.00902256 83:0.00902256 85:0.0285714 86:0.0114286 87:0.00544218 89:0.00952381 90:0.0142857 91:0.0142857 94:0.00952381 95:0.00634921 96:0.00641399 98:0.00801394 101:0.00952381 104:0.00571429 106:0.00714286 108:0.0285714 109:0.0171429 110:0.00952381 111:0.0047619 112:0.0151261 114:0.0142857 116:0.00952381 117:0.0142857 119:0.0077381 120:0.00634921 122:0.00816327 123:0.00625 124:0.0031746 126:0.004 127:0.00612245 129:0.00952381 131:0.0025974 132:0.00952381 133:0.0142857 135:0.0142857 136:0.00408163 
1 1 0 0 3:0.142857 6:0.0869565 7:0.125 10:0.25 13:0.0909091 14:0.25 17:0.115385 19:0.15 23:0.2 25:0.125 26:0.25 27:0.25 28:0.1 30:0.1 32:0.166667 33:0.208333 35:0.25 38:0.125 39:0.157143 40:0.333333 41:0.5 44:0.105263 46:0.208333 47:0.2 48:0.375 50:0.227273 51:0.136364 52:0.0694444 59:0.0625 63:0.129032 64:0.3 66:0.125 67:0.270833 68:0.166667 71:0.25 73:0.25 76:0.25 77:0.0909091 78:0.107143 79:0.0833333 81:0.157895 83:0.157895 85:0.5 86:0.2 87:0.0952381 89:0.166667 90:0.25 91:0.25 94:0.166667 95:0.222222 96:0.112245 98:0.140244 101:0.166667 104:0.1 106:0.125 108:0.5 109:0.3 110:0.166667 111:0.0833333 112:0.264706 114:0.25 116:0.166667 117:0.25 119:0.135417 120:0.111111 122:0.142857 123:0.109375 124:0.0555556 126:0.07 127:0.107143 129:0.166667 131:0.0454545 132:0.166667 133:0.25 135:0.25 136:0.0714286 
0.1465848472004543 1 0 0 3:0.0714286 6:0.0434783 7:0.0625 10:0.125 13:0.0454545 14:0.125 17:0.0576923 19:0.075 23:0.1 25:0.0625 26:0.125 27:0.125 28:0.05 30:0.05 32:0.0833333 33:0.104167 35:0.125 38:0.0625 39:0.0785714 40:0.166667 41:0.25 44:0.0526316 46:0.104167 47:0.1 48:0.1875 50:0.113636 51:0.0681818 52:0.0347222 59:0.03125 63:0.0645161 64:0.15 66:0.0625 67:0.135417 68:0.0833333 71:0.125 73:0.125 76:0.125 77:0.0454545 78:0.0535714 79:0.0416667 81:0.0789474 83:0.0789474 85:0.25 86:0.1 87:0.047619 89:0.0833333 90:0.125 91:0.125 94:0.0833333 95:0.111111 96:0.0561224 98:0.0731707 101:0.0833333 104:0.05 106:0.0625 108:0.25 109:0.15 110:0.0833333 111:0.0416667 112:0.132353 114:0.125 116:0.0833333 117:0.125 119:0.0677083 120:0.0555556 122:0.0714286 123:0.0546875 124:0.0277778 126:0.035 127:0.0535714 129:0.0833333 131:0.0227273 132:0.0833333 133:0.125 135:0.125 136:0.0357143 
0 1 0 0 3:0.0138249 4:0.00537634 6:0.0056101 7:0.0094086 10:0.0322581 13:0.00879765 14:0.016129 17:0.00744417 19:0.00967742 23:0.0129032 25:0.00806452 26:0.016129 27:0.016129 28:0.00645161 30:0.00645161 32:0.0107527 33:0.0134409 34:0.0107527 35:0.016129 38:0.00806452 39:0.0101382 40:0.0215054 41:0.0322581 44:0.00679117 46:0.0134409 47:0.0129032 48:0.0322581 50:0.0146628 51:0.00879765 52:0.00537634 57:0.0107527 59:0.00403226 63:0.00936524 64:0.0193548 66:0.00806452 67:0.0174731 68:0.0107527 71:0.016129 73:0.016129 76:0.016129 77:0.0058651 78:0.0115207 79:0.00537634 81:0.0101868 82:0.00645161 83:0.0101868 84:0.016129 85:0.0322581 86:0.0129032 87:0.00768049 89:0.0107527 90:0.016129 91:0.016129 94:0.0107527 95:0.0143369 96:0.00855826 97:0.016129 98:0.00944138 101:0.0107527 104:0.00645161 106:0.00806452 108:0.0322581 109:0.0193548 110:0.0107527 111:0.00537634 112:0.0189753 114:0.016129 116:0.0107527 117:0.016129 119:0.00873656 120:0.0083632 122:0.00921659 123:0.00907258 124:0.0143369 126:0.00580645 127:0.00691244 129:0.0107527 131:0.00293255 132:0.0107527 133:0.016129 135:0.016129 136:0.00921659 
1 0.9164421931805207 0 0.2095336517142402 3:0.428571 4:0.166667 6:0.173913 7:0.333333 10:1 13:0.272727 14:0.5 17:0.230769 19:0.3 23:0.4 25:0.25 26:0.5 27:0.5 28:0.2 30:0.2 32:0.333333 33:0.416667 34:0.333333 35:0.5 38:0.25 39:0.314286 40:0.666667 41:1 44:0.210526 46:0.416667 47:0.4 48:1 50:0.454545 51:0.272727 52:0.222222 57:0.333333 59:0.125 63:0.322581 64:0.6 66:0.25 67:0.541667 68:0.333333 71:0.5 72:0.5 73:0.5 76:0.5 77:0.272727 78:0.357143 79:0.222222 81:0.315789 82:0.2 83:0.315789 84:0.5 85:1 86:0.4 87:0.238095 89:0.333333 90:0.5 91:0.5 94:0.333333 95:0.444444 96:0.265306 97:0.5 98:0.304878 101:0.333333 104:0.2 106:0.25 108:1 109:0.6 110:0.333333 111:0.166667 112:0.647059 114:0.5 116:0.333333 117:0.5 119:0.333333 120:0.259259 122:0.285714 123:0.28125 124:0.444444 126:0.22 127:0.214286 129:0.333333 131:0.0909091 132:0.333333 133:0.5 135:0.5 136:0.285714 
1 1 0 0.1343387035634422 3:0.214286 4:0.0833333 6:0.0869565 7:0.166667 10:0.5 13:0.136364 14:0.25 17:0.115385 19:0.15 23:0.2 25:0.125 26:0.25 27:0.25 28:0.1 30:0.1 32:0.166667 33:0.208333 34:0.166667 35:0.25 38:0.125 39:0.157143 40:0.333333 41:0.5 44:0.105263 46:0.208333 47:0.2 48:0.5 50:0.227273 51:0.136364 52:0.111111 57:0.166667 59:0.0625 63:0.16129 64:0.3 66:0.125 67:0.270833 68:0.166667 71:0.25 72:0.25 73:0.25 76:0.25 77:0.136364 78:0.178571 79:0.138889 81:0.157895 82:0.1 83:0.157895 84:0.25 85:0.5 86:0.2 87:0.119048 89:0.166667 90:0.25 91:0.25 94:0.166667 95:0.222222 96:0.132653 97:0.25 98:0.152439 101:0.166667 104:0.1 106:0.125 108:0.5 109:0.3 110:0.166667 111:0.0833333 112:0.323529 114:0.25 116:0.166667 117:0.25 119:0.166667 120:0.12963 122:0.142857 123:0.140625 124:0.222222 126:0.11 127:0.107143 129:0.166667 131:0.0454545 132:0.166667 133:0.25 135:0.25 136:0.142857 
1 1 0 0 3:0.142857 4:0.0555556 6:0.057971 7:0.111111 10:0.333333 13:0.0909091 14:0.166667 17:0.0769231 19:0.1 23:0.133333 25:0.0833333 26:0.166667 27:0.166667 28:0.0666667 30:0.0666667 32:0.111111 33:0.138889 34:0.111111 35:0.166667 38:0.0833333 39:0.104762 40:0.222222 41:0.333333 44:0.0877193 46:0.138889 47:0.133333 48:0.333333 50:0.181818 51:0.0909091 52:0.0833333 57:0.111111 59:0.0416667 63:0.107527 64:0.2 66:0.0833333 67:0.180556 68:0.111111 71:0.166667 72:0.166667 73:0.166667 76:0.166667 77:0.0909091 78:0.119048 79:0.111111 81:0.105263 82:0.0666667 83:0.105263 84:0.166667 85:0.333333 86:0.133333 87:0.0793651 89:0.111111 90:0.166667 91:0.166667 94:0.111111 95:0.148148 96:0.0952381 97:0.166667 98:0.105691 101:0.111111 104:0.133333 106:0.0833333 108:0.333333 109:0.2 110:0.111111 111:0.0555556 112:0.215686 114:0.166667 116:0.111111 117:0.166667 119:0.111111 120:0.0864198 122:0.119048 123:0.09375 124:0.148148 126:0.0733333 127:0.0714286 129:0.111111 131:0.030303 132:0.111111 133:0.166667 135:0.166667 136:0.0952381 
1 0.8457448668625177 0 0 3:0.142857 4:0.0555556 6:0.057971 7:0.111111 10:0.333333 13:0.0909091 14:0.166667 17:0.0769231 19:0.1 23:0.133333 25:0.0833333 26:0.166667 27:0.166667 28:0.0666667 30:0.0666667 32:0.111111 33:0.138889 34:0.111111 35:0.166667 38:0.0833333 39:0.104762 40:0.222222 41:0.333333 44:0.0877193 46:0.138889 47:0.133333 48:0.333333 50:0.181818 51:0.121212 52:0.0925926 57:0.111111 59:0.0416667 63:0.107527 64:0.2 66:0.0833333 67:0.180556 68:0.111111 71:0.166667 72:0.166667 73:0.166667 76:0.166667 77:0.0909091 78:0.119048 79:0.111111 81:0.105263 82:0.0666667 83:0.105263 84:0.166667 85:0.333333 86:0.133333 87:0.0793651 89:0.111111 90:0.166667 91:0.166667 94:0.111111 95:0.148148 96:0.0952381 97:0.166667 98:0.109756 101:0.111111 104:0.133333 106:0.104167 108:0.333333 109:0.2 110:0.111111 111:0.0555556 112:0.215686 114:0.166667 116:0.111111 117:0.166667 119:0.111111 120:0.0864198 122:0.119048 123:0.09375 124:0.148148 126:0.0733333 127:0.0714286 129:0.111111 131:0.030303 132:0.111111 133:0.166667 135:0.166667 136:0.0952381 
0.2669451816202066 0 0 0.2312200783713909 3:0.142857 4:0.0555556 6:0.057971 7:0.111111 10:0.333333 13:0.0909091 14:0.166667 17:0.0769231 19:0.1 23:0.133333 25:0.0833333 26:0.166667 27:0.166667 28:0.0666667 30:0.0666667 32:0.111111 33:0.138889 34:0.111111 35:0.166667 38:0.0833333 39:0.104762 40:0.222222 41:0.333333 44:0.0877193 46:0.138889 47:0.133333 48:0.333333 50:0.181818 51:0.121212 52:0.0925926 57:0.111111 59:0.0416667 63:0.107527 64:0.266667 66:0.0833333 67:0.180556 68:0.111111 71:0.166667 72:0.166667 73:0.166667 76:0.166667 77:0.0909091 78:0.119048 79:0.111111 81:0.105263 82:0.0666667 83:0.105263 84:0.166667 85:0.333333 86:0.133333 87:0.0793651 89:0.111111 90:0.166667 91:0.166667 94:0.111111 95:0.148148 96:0.0952381 97:0.166667 98:0.109756 101:0.111111 104:0.133333 106:0.104167 108:0.333333 109:0.2 110:0.111111 111:0.0555556 112:0.215686 114:0.166667 116:0.111111 117:0.166667 119:0.111111 120:0.0864198 122:0.119048 123:0.09375 124:0.148148 126:0.0733333 127:0.0714286 129:0.111111 131:0.030303 132:0.111111 133:0.166667 135:0.166667 136:0.0952381 
1 1 0.503989442998391 0.2428651251556412 3:0.214286 4:0.0833333 6:0.0869565 7:0.1875 9:0.125 10:0.5 13:0.136364 14:0.25 17:0.115385 19:0.15 23:0.2 25:0.25 26:0.25 27:0.25 28:0.1 30:0.1 32:0.166667 33:0.208333 34:0.166667 35:0.25 38:0.125 39:0.185714 40:0.333333 41:0.5 44:0.131579 46:0.208333 47:0.25 48:0.5 50:0.272727 51:0.181818 52:0.152778 57:0.166667 59:0.0625 63:0.16129 64:0.5 66:0.125 67:0.291667 68:0.166667 71:0.25 72:0.25 73:0.25 76:0.25 77:0.227273 78:0.178571 79:0.166667 81:0.184211 82:0.1 83:0.184211 84:0.25 85:0.5 86:0.2 87:0.142857 89:0.166667 90:0.25 91:0.25 94:0.166667 95:0.277778 96:0.153061 97:0.25 98:0.164634 101:0.166667 104:0.2 106:0.1875 108:0.5 109:0.3 110:0.166667 111:0.0833333 112:0.323529 114:0.25 116:0.166667 117:0.25 119:0.177083 120:0.148148 122:0.214286 123:0.140625 124:0.222222 126:0.11 127:0.142857 129:0.166667 131:0.0454545 132:0.166667 133:0.25 135:0.25 136:0.142857 
1 1 1 0 3:0.038961 4:0.0151515 6:0.0197628 7:0.0378788 9:0.0227273 10:0.0909091 13:0.0247934 14:0.0454545 17:0.034965 19:0.0363636 21:0.0909091 23:0.0363636 25:0.0454545 26:0.0454545 27:0.0454545 28:0.0181818 30:0.0363636 32:0.030303 33:0.0530303 34:0.030303 35:0.0454545 37:0.0454545 38:0.0227273 39:0.0363636 40:0.0606061 41:0.0909091 44:0.0239234 46:0.0378788 47:0.0454545 48:0.0909091 50:0.0495868 51:0.0330579 52:0.0277778 54:0.0909091 56:0.0606061 57:0.030303 58:0.0909091 59:0.0113636 60:0.0909091 63:0.0293255 64:0.0909091 66:0.0454545 67:0.0530303 68:0.030303 71:0.0454545 72:0.0454545 73:0.0454545 76:0.0454545 77:0.0495868 78:0.0324675 79:0.0353535 80:0.0909091 81:0.0382775 82:0.0181818 83:0.0430622 84:0.0454545 85:0.0909091 86:0.0363636 87:0.025974 89:0.030303 90:0.0909091 91:0.0454545 94:0.030303 95:0.0505051 96:0.0315399 97:0.0454545 98:0.0332594 99:0.0454545 101:0.030303 104:0.0363636 106:0.0340909 108:0.0909091 109:0.0545455 110:0.030303 111:0.0151515 112:0.0588235 114:0.0454545 116:0.030303 117:0.0454545 119:0.0340909 120:0.030303 122:0.038961 123:0.0284091 124:0.040404 126:0.02 127:0.0324675 129:0.030303 131:0.0165289 132:0.030303 133:0.0454545 135:0.0454545 136:0.038961 
1 1 0 0 3:0.0612245 4:0.0238095 6:0.0310559 7:0.0595238 9:0.0357143 10:0.142857 12:0.0714286 13:0.038961 14:0.0714286 17:0.0549451 19:0.0571429 21:0.142857 23:0.0571429 25:0.0714286 26:0.0714286 27:0.0714286 28:0.0285714 30:0.0571429 32:0.047619 33:0.0833333 34:0.047619 35:0.0714286 37:0.0714286 38:0.0357143 39:0.0612245 40:0.0952381 41:0.142857 44:0.037594 46:0.0595238 47:0.0714286 48:0.142857 50:0.0779221 51:0.0649351 52:0.0436508 54:0.142857 56:0.0952381 57:0.047619 58:0.142857 59:0.0178571 60:0.142857 63:0.0460829 64:0.142857 66:0.0714286 67:0.0833333 68:0.0714286 71:0.0714286 72:0.0714286 73:0.0714286 76:0.0714286 77:0.0779221 78:0.0510204 79:0.0714286 80:0.142857 81:0.0601504 82:0.0285714 83:0.0676692 84:0.0714286 85:0.142857 86:0.0571429 87:0.0408163 89:0.047619 90:0.142857 91:0.0714286 94:0.047619 95:0.0793651 96:0.0495627 97:0.0714286 98:0.0522648 99:0.0714286 101:0.047619 104:0.0571429 106:0.0535714 108:0.142857 109:0.0857143 110:0.047619 111:0.0238095 112:0.092437 114:0.0714286 116:0.047619 117:0.0714286 118:0.0714286 119:0.0535714 120:0.047619 122:0.0612245 123:0.0446429 124:0.0634921 126:0.0314286 127:0.0510204 129:0.047619 131:0.025974 132:0.047619 133:0.0714286 135:0.0714286 136:0.0612245 
1 1 0 0 3:0.0612245 4:0.0238095 6:0.0310559 7:0.0595238 9:0.0357143 10:0.142857 12:0.0714286 13:0.038961 14:0.0714286 17:0.0549451 19:0.0571429 21:0.142857 23:0.0571429 25:0.0714286 26:0.0714286 27:0.0714286 28:0.0285714 30:0.0571429 32:0.047619 33:0.0833333 34:0.047619 35:0.0714286 37:0.0714286 38:0.0357143 39:0.0612245 40:0.0952381 41:0.142857 44:0.037594 46:0.0595238 47:0.0714286 48:0.142857 50:0.0779221 51:0.0649351 52:0.0436508 54:0.142857 56:0.0952381 57:0.047619 58:0.142857 59:0.0178571 60:0.142857 63:0.0460829 64:0.142857 66:0.0714286 67:0.0833333 68:0.0714286 71:0.0714286 72:0.0714286 73:0.0714286 76:0.0714286 77:0.0779221 78:0.0510204 79:0.0714286 80:0.142857 81:0.0601504 82:0.0285714 83:0.0676692 84:0.0714286 85:0.142857 86:0.0571429 87:0.0408163 89:0.047619 90:0.142857 91:0.0714286 94:0.047619 95:0.0793651 96:0.0524781 97:0.0714286 98:0.0522648 99:0.0714286 101:0.047619 104:0.0571429 106:0.0535714 108:0.142857 109:0.0857143 110:0.047619 111:0.0238095 112:0.10084 114:0.0714286 116:0.047619 117:0.0714286 118:0.0714286 119:0.0565476 120:0.047619 122:0.0612245 123:0.0446429 124:0.0634921 126:0.0342857 127:0.0510204 129:0.047619 131:0.025974 132:0.047619 133:0.0714286 135:0.0714286 136:0.0612245 
1 1 0.2497767685314521 0 3:0.107143 4:0.0416667 6:0.0543478 7:0.104167 9:0.0625 10:0.25 12:0.125 13:0.0909091 14:0.125 17:0.0961538 19:0.1 21:0.25 23:0.1 25:0.125 26:0.125 27:0.125 28:0.05 30:0.1 32:0.0833333 33:0.166667 34:0.0833333 35:0.125 37:0.125 38:0.0625 39:0.107143 40:0.166667 41:0.25 44:0.0657895 46:0.104167 47:0.125 48:0.25 50:0.136364 51:0.113636 52:0.0763889 54:0.25 56:0.166667 57:0.0833333 58:0.25 59:0.0390625 60:0.25 63:0.0887097 64:0.25 66:0.125 67:0.145833 68:0.125 71:0.125 72:0.125 73:0.125 76:0.125 77:0.136364 78:0.0892857 79:0.125 80:0.25 81:0.105263 82:0.05 83:0.118421 84:0.125 85:0.25 86:0.1 87:0.0714286 89:0.0833333 90:0.25 91:0.125 94:0.0833333 95:0.138889 96:0.0918367 97:0.125 98:0.0914634 99:0.125 101:0.0833333 104:0.1 106:0.09375 108:0.25 109:0.2 110:0.0833333 111:0.0416667 112:0.176471 114:0.125 116:0.0833333 117:0.125 118:0.125 119:0.0989583 120:0.0833333 122:0.107143 123:0.078125 124:0.111111 126:0.06 127:0.0892857 129:0.0833333 131:0.0454545 132:0.0833333 133:0.125 135:0.125 136:0.107143 
1 1 0 0 3:0.0857143 4:0.0333333 6:0.0434783 7:0.0833333 9:0.05 10:0.2 12:0.1 13:0.0727273 14:0.1 17:0.0769231 19:0.1 21:0.2 23:0.08 25:0.1 26:0.1 27:0.1 28:0.04 30:0.08 32:0.0666667 33:0.133333 34:0.0666667 35:0.1 37:0.1 38:0.05 39:0.0857143 40:0.133333 41:0.2 44:0.0526316 46:0.1 47:0.1 48:0.2 50:0.109091 51:0.0909091 52:0.0611111 54:0.2 56:0.133333 57:0.0666667 58:0.2 59:0.04375 60:0.2 63:0.0774194 64:0.2 66:0.1 67:0.116667 68:0.1 71:0.1 72:0.1 73:0.1 76:0.1 77:0.109091 78:0.0714286 79:0.1 80:0.2 81:0.0842105 82:0.04 83:0.105263 84:0.1 85:0.2 86:0.08 87:0.0571429 89:0.0833333 90:0.2 91:0.1 94:0.0666667 95:0.111111 96:0.077551 97:0.1 98:0.0731707 99:0.1 101:0.0666667 104:0.08 106:0.075 108:0.2 109:0.16 110:0.0666667 111:0.0333333 112:0.141176 114:0.1 116:0.0666667 117:0.1 118:0.1 119:0.0791667 120:0.0666667 122:0.0857143 123:0.0625 124:0.111111 126:0.048 127:0.1 129:0.0666667 131:0.0363636 132:0.0666667 133:0.1 135:0.1 136:0.0857143 
1 1 0 0 3:0.0204082 4:0.00793651 6:0.010352 7:0.0218254 9:0.0119048 10:0.047619 12:0.0238095 13:0.017316 14:0.0238095 17:0.018315 19:0.0238095 21:0.047619 23:0.0190476 25:0.0238095 26:0.0238095 27:0.0238095 28:0.00952381 30:0.0190476 32:0.015873 33:0.031746 34:0.015873 35:0.0238095 37:0.0238095 38:0.0119048 39:0.0217687 40:0.031746 41:0.047619 44:0.0125313 46:0.0238095 47:0.0238095 48:0.047619 50:0.025974 51:0.021645 52:0.015873 54:0.047619 56:0.031746 57:0.015873 58:0.047619 59:0.0104167 60:0.047619 63:0.0184332 64:0.047619 66:0.0238095 67:0.0297619 68:0.0238095 71:0.0238095 72:0.0238095 73:0.0238095 76:0.0238095 77:0.025974 78:0.0170068 79:0.0238095 80:0.047619 81:0.0225564 82:0.00952381 83:0.0275689 84:0.0238095 85:0.047619 86:0.0190476 87:0.0204082 89:0.0238095 90:0.047619 91:0.0238095 94:0.015873 95:0.026455 96:0.0184645 97:0.0238095 98:0.0174216 99:0.0238095 101:0.015873 104:0.0285714 106:0.0208333 108:0.047619 109:0.0380952 110:0.015873 111:0.00793651 112:0.0336134 114:0.0238095 116:0.015873 117:0.0238095 118:0.0238095 119:0.0188492 120:0.0176367 122:0.0204082 123:0.016369 124:0.026455 126:0.012381 127:0.0238095 129:0.015873 131:0.00865801 132:0.015873 133:0.0238095 135:0.0238095 136:0.0204082 
1 1 0.3139189311719254 0 3:0.0612245 4:0.0238095 6:0.0310559 7:0.0654762 9:0.0357143 10:0.142857 12:0.0714286 13:0.0519481 14:0.0714286 17:0.0549451 19:0.0714286 21:0.142857 23:0.0571429 25:0.0714286 26:0.0714286 27:0.0714286 28:0.0285714 30:0.0571429 32:0.047619 33:0.0952381 34:0.047619 35:0.0714286 37:0.0714286 38:0.0357143 39:0.0653061 40:0.0952381 41:0.142857 44:0.037594 46:0.0714286 47:0.0714286 48:0.142857 50:0.0779221 51:0.0649351 52:0.0515873 54:0.142857 56:0.0952381 57:0.047619 58:0.142857 59:0.03125 60:0.142857 63:0.0552995 64:0.142857 66:0.0714286 67:0.0892857 68:0.0714286 71:0.0714286 72:0.0714286 73:0.0714286 76:0.0714286 77:0.0779221 78:0.0510204 79:0.0714286 80:0.142857 81:0.0676692 82:0.0285714 83:0.0827068 84:0.0714286 85:0.142857 86:0.0571429 87:0.0680272 89:0.0714286 90:0.142857 91:0.0714286 94:0.047619 95:0.0793651 96:0.058309 97:0.0714286 98:0.0557491 99:0.0714286 100:0.142857 101:0.047619 104:0.0857143 106:0.0625 108:0.142857 109:0.114286 110:0.047619 111:0.0238095 112:0.10084 114:0.0714286 116:0.047619 117:0.0714286 118:0.0714286 119:0.0565476 120:0.0582011 122:0.0612245 123:0.0491071 124:0.0793651 126:0.0371429 127:0.0714286 129:0.047619 131:0.025974 132:0.047619 133:0.0714286 135:0.0714286 136:0.0612245 
1 1 1 0 3:0.0714286 4:0.0277778 6:0.0362319 7:0.0763889 9:0.0416667 10:0.166667 12:0.0833333 13:0.0606061 14:0.0833333 17:0.0641026 19:0.0833333 21:0.166667 23:0.0666667 25:0.0833333 26:0.0833333 27:0.0833333 28:0.0333333 30:0.0666667 32:0.0555556 33:0.111111 34:0.0555556 35:0.0833333 37:0.0833333 38:0.0416667 39:0.0761905 40:0.111111 41:0.166667 44:0.0438596 46:0.0833333 47:0.0833333 48:0.166667 50:0.0909091 51:0.0757576 52:0.0601852 54:0.166667 56:0.111111 57:0.0555556 58:0.166667 59:0.0364583 60:0.166667 63:0.0645161 64:0.166667 66:0.0833333 67:0.104167 68:0.0833333 71:0.0833333 72:0.0833333 73:0.0833333 76:0.0833333 77:0.0909091 78:0.0595238 79:0.0833333 80:0.166667 81:0.0789474 82:0.0333333 83:0.105263 84:0.0833333 85:0.166667 86:0.0666667 87:0.0793651 89:0.0833333 90:0.166667 91:0.0833333 94:0.0555556 95:0.0925926 96:0.0714286 97:0.0833333 98:0.0650407 99:0.0833333 100:0.166667 101:0.0555556 104:0.1 106:0.0729167 108:0.166667 109:0.133333 110:0.0555556 111:0.0277778 112:0.117647 114:0.0833333 116:0.0555556 117:0.0833333 118:0.0833333 119:0.0659722 120:0.0679012 122:0.0714286 123:0.0625 124:0.0925926 126:0.0433333 127:0.0833333 129:0.0555556 131:0.030303 132:0.0555556 133:0.0833333 135:0.0833333 136:0.0714286 
1 1 0.3208100697370557 0 1:0.1 3:0.0857143 4:0.0333333 6:0.0434783 7:0.108333 9:0.05 10:0.2 12:0.1 13:0.0727273 14:0.1 17:0.0769231 19:0.1 21:0.2 23:0.08 25:0.1 26:0.1 27:0.2 28:0.04 30:0.08 32:0.0666667 33:0.133333 34:0.0666667 35:0.1 37:0.1 38:0.05 39:0.0914286 40:0.133333 41:0.2 44:0.0526316 46:0.1 47:0.1 48:0.2 50:0.109091 51:0.0909091 52:0.0722222 54:0.2 56:0.133333 57:0.0666667 58:0.2 59:0.04375 60:0.2 63:0.0774194 64:0.2 66:0.1 67:0.125 68:0.1 71:0.1 72:0.1 73:0.1 76:0.1 77:0.109091 78:0.0714286 79:0.1 80:0.2 81:0.0947368 82:0.04 83:0.126316 84:0.1 85:0.2 86:0.08 87:0.104762 89:0.1 90:0.2 91:0.1 94:0.0666667 95:0.111111 96:0.0897959 97:0.1 98:0.0804878 99:0.1 100:0.2 101:0.0666667 104:0.12 106:0.0875 108:0.2 109:0.16 110:0.0666667 111:0.0333333 112:0.141176 114:0.1 116:0.0666667 117:0.1 118:0.1 119:0.0791667 120:0.0888889 122:0.0857143 123:0.075 124:0.111111 126:0.052 127:0.1 129:0.0666667 131:0.0363636 132:0.0666667 133:0.1 135:0.1 136:0.0857143 
1 1 0 0 1:0.0121951 3:0.010453 4:0.00406504 6:0.00530223 7:0.0132114 9:0.00609756 10:0.0243902 12:0.0121951 13:0.00886918 14:0.0121951 17:0.00938086 19:0.0121951 21:0.0243902 23:0.0097561 25:0.0121951 26:0.0121951 27:0.0243902 28:0.00487805 30:0.0097561 32:0.00813008 33:0.0162602 34:0.00813008 35:0.0121951 37:0.0121951 38:0.00609756 39:0.0111498 40:0.0162602 41:0.0243902 44:0.00641849 46:0.0142276 47:0.0121951 48:0.0243902 50:0.0155211 51:0.0110865 52:0.00880759 54:0.0243902 56:0.0162602 57:0.00813008 58:0.0243902 59:0.00762195 60:0.0243902 63:0.00944138 64:0.0243902 66:0.0121951 67:0.0152439 68:0.0121951 71:0.0121951 72:0.0121951 73:0.0121951 76:0.0121951 77:0.0133038 78:0.0087108 79:0.0121951 80:0.0243902 81:0.0115533 82:0.00487805 83:0.0154044 84:0.0121951 85:0.0243902 86:0.0097561 87:0.0139373 89:0.0121951 90:0.0243902 91:0.0121951 94:0.00813008 95:0.0135501 96:0.0119462 97:0.0121951 98:0.010113 99:0.0121951 100:0.0243902 101:0.00813008 104:0.0146341 106:0.0121951 108:0.0243902 109:0.0195122 110:0.00813008 111:0.00406504 112:0.0186514 114:0.0121951 115:0.00487805 116:0.00813008 117:0.0182927 118:0.0121951 119:0.00965447 120:0.0117435 122:0.0121951 123:0.00990854 124:0.0135501 126:0.00634146 127:0.0121951 129:0.0142276 131:0.00443459 132:0.00813008 133:0.0121951 135:0.0121951 136:0.010453 
1 1 0.1589369335637058 0 1:0.25 3:0.214286 4:0.0833333 6:0.108696 7:0.270833 9:0.125 10:0.5 12:0.25 13:0.272727 14:0.25 17:0.192308 19:0.25 21:0.5 23:0.2 25:0.25 26:0.5 27:0.5 28:0.1 30:0.2 32:0.166667 33:0.333333 34:0.166667 35:0.25 37:0.25 38:0.125 39:0.228571 40:0.333333 41:0.5 44:0.131579 46:0.291667 47:0.25 48:0.5 50:0.318182 51:0.227273 52:0.194444 54:0.5 56:0.333333 57:0.166667 58:0.5 59:0.15625 60:0.5 63:0.209677 64:0.5 65:0.0714286 66:0.25 67:0.3125 68:0.25 71:0.25 72:0.25 73:0.25 76:0.25 77:0.272727 78:0.178571 79:0.25 80:0.5 81:0.236842 82:0.1 83:0.315789 84:0.25 85:0.5 86:0.2 87:0.285714 89:0.25 90:0.5 91:0.25 94:0.166667 95:0.277778 96:0.244898 97:0.25 98:0.219512 99:0.25 100:0.5 101:0.166667 104:0.3 106:0.28125 108:0.5 109:0.4 110:0.166667 111:0.0833333 112:0.382353 114:0.25 115:0.1 116:0.166667 117:0.375 118:0.25 119:0.197917 120:0.240741 122:0.25 123:0.203125 124:0.277778 126:0.14 127:0.25 129:0.291667 131:0.0909091 132:0.166667 133:0.25 135:0.25 136:0.214286 
1 1 0 0 1:0.0113636 3:0.00974026 4:0.00378788 6:0.00494071 7:0.0123106 9:0.00568182 10:0.0227273 12:0.0113636 13:0.0144628 14:0.0113636 17:0.00874126 19:0.0113636 21:0.0227273 23:0.00909091 25:0.0113636 26:0.0227273 27:0.0227273 28:0.00454545 30:0.00909091 32:0.00757576 33:0.0151515 34:0.00757576 35:0.0113636 37:0.0113636 38:0.00568182 39:0.0103896 40:0.0151515 41:0.0227273 44:0.00598086 46:0.0132576 47:0.0113636 48:0.0227273 50:0.0144628 51:0.0123967 52:0.00883838 54:0.0227273 56:0.0151515 57:0.00757576 58:0.0227273 59:0.00710227 60:0.0227273 63:0.00953079 64:0.0227273 65:0.00324675 66:0.0113636 67:0.0142045 68:0.0113636 71:0.0113636 72:0.0113636 73:0.0113636 76:0.0113636 77:0.0123967 78:0.00811688 79:0.0113636 80:0.0227273 81:0.0107656 82:0.00909091 83:0.0143541 84:0.0113636 85:0.0227273 86:0.00909091 87:0.0140693 89:0.0113636 90:0.0227273 91:0.0113636 94:0.00757576 95:0.0126263 96:0.0120594 97:0.0113636 98:0.010255 99:0.0113636 100:0.0227273 101:0.00757576 104:0.0136364 106:0.0127841 108:0.0227273 109:0.0181818 110:0.00757576 111:0.00757576 112:0.0173797 114:0.0113636 115:0.00454545 116:0.00757576 117:0.0170455 118:0.0113636 119:0.00994318 120:0.0117845 122:0.0113636 123:0.00923295 124:0.0126263 126:0.00636364 127:0.0113636 129:0.0132576 131:0.00413223 132:0.00757576 133:0.0113636 135:0.0113636 136:0.00974026 
1 1 0 0 1:0.0263158 3:0.0225564 4:0.00877193 6:0.0114416 7:0.0285088 9:0.0131579 10:0.0526316 12:0.0263158 13:0.0334928 14:0.0263158 17:0.0202429 19:0.0263158 21:0.0526316 23:0.0210526 25:0.0263158 26:0.0526316 27:0.0526316 28:0.0105263 30:0.0210526 32:0.0175439 33:0.0350877 34:0.0175439 35:0.0263158 37:0.0263158 38:0.0131579 39:0.0240602 40:0.0350877 41:0.0526316 44:0.0138504 46:0.0307018 47:0.0263158 48:0.0526316 50:0.0334928 51:0.0287081 52:0.0204678 54:0.0526316 56:0.0350877 57:0.0175439 58:0.0526316 59:0.0180921 60:0.0526316 63:0.0237691 64:0.0526316 65:0.0075188 66:0.0263158 67:0.0328947 68:0.0263158 71:0.0263158 72:0.0263158 73:0.0263158 76:0.0263158 77:0.0287081 78:0.018797 79:0.0263158 80:0.0526316 81:0.0249307 82:0.0210526 83:0.033241 84:0.0263158 85:0.0526316 86:0.0210526 87:0.0325815 89:0.0263158 90:0.0526316 91:0.0263158 94:0.0175439 95:0.0292398 96:0.027927 97:0.0263158 98:0.0250321 99:0.0263158 100:0.0526316 101:0.0175439 104:0.0315789 106:0.0328947 108:0.0526316 109:0.0421053 110:0.0175439 111:0.0175439 112:0.0402477 114:0.0263158 115:0.0105263 116:0.0175439 117:0.0394737 118:0.0263158 119:0.0230263 120:0.0272904 122:0.0263158 123:0.0213816 124:0.0292398 126:0.0157895 127:0.0263158 129:0.0307018 131:0.00956938 132:0.0175439 133:0.0263158 135:0.0263158 136:0.0225564 
1 0.9503038182728549 0 0 1:0.5 3:0.428571 4:0.166667 6:0.304348 7:0.583333 9:0.25 10:1 12:0.5 13:0.636364 14:0.5 17:0.384615 19:0.5 21:1 23:0.4 24:1 25:0.5 26:1 27:1 28:0.4 30:0.6 32:0.333333 33:0.666667 34:0.333333 35:0.5 37:0.5 38:0.25 39:0.457143 40:0.666667 41:1 44:0.263158 46:0.583333 47:0.5 48:1 50:0.636364 51:0.545455 52:0.416667 54:1 56:0.666667 57:0.333333 58:1 59:0.34375 60:1 63:0.451613 64:1 65:0.285714 66:0.5 67:0.666667 68:0.5 71:0.5 72:0.5 73:0.5 76:0.5 77:0.545455 78:0.357143 79:0.5 80:1 81:0.473684 82:0.4 83:0.631579 84:0.5 85:1 86:0.4 87:0.619048 89:0.5 90:1 91:0.5 94:0.333333 95:0.555556 96:0.530612 97:0.5 98:0.487805 99:0.5 100:1 101:0.333333 104:0.6 106:0.6875 108:1 109:0.8 110:0.333333 111:0.333333 112:0.764706 114:0.5 115:0.2 116:0.333333 117:0.75 118:0.5 119:0.4375 120:0.518519 122:0.5 123:0.40625 124:0.777778 126:0.34 127:0.5 129:0.583333 131:0.181818 132:0.333333 133:0.5 135:0.5 136:0.428571 
1 1 0.2022732670325612 0 1:0.125 3:0.107143 4:0.0416667 6:0.076087 7:0.145833 9:0.0625 10:0.25 12:0.125 13:0.159091 14:0.125 17:0.0961538 19:0.125 21:0.25 23:0.1 24:0.25 25:0.125 26:0.25 27:0.25 28:0.1 30:0.15 32:0.0833333 33:0.166667 34:0.0833333 35:0.125 37:0.125 38:0.125 39:0.114286 40:0.166667 41:0.25 44:0.0657895 46:0.145833 47:0.125 48:0.25 50:0.159091 51:0.136364 52:0.104167 54:0.25 56:0.166667 57:0.0833333 58:0.25 59:0.0859375 60:0.25 63:0.112903 64:0.25 65:0.0714286 66:0.125 67:0.166667 68:0.125 71:0.125 72:0.125 73:0.125 76:0.125 77:0.136364 78:0.0892857 79:0.125 80:0.25 81:0.118421 82:0.1 83:0.157895 84:0.125 85:0.25 86:0.1 87:0.154762 89:0.125 90:0.25 91:0.125 94:0.0833333 95:0.138889 96:0.132653 97:0.125 98:0.121951 99:0.125 100:0.25 101:0.0833333 104:0.15 106:0.171875 108:0.25 109:0.2 110:0.0833333 111:0.0833333 112:0.191176 114:0.125 115:0.05 116:0.0833333 117:0.1875 118:0.125 119:0.109375 120:0.12963 121:0.0833333 122:0.125 123:0.101563 124:0.194444 126:0.085 127:0.125 129:0.145833 131:0.0454545 132:0.0833333 133:0.125 135:0.125 136:0.107143 
1 0.8169318272803283 0 0 1:0.5 3:0.428571 4:0.166667 6:0.304348 7:0.583333 9:0.25 10:1 12:0.5 13:0.636364 14:0.5 17:0.384615 19:0.5 21:1 23:0.4 24:1 25:0.5 26:1 27:1 28:0.4 30:0.6 32:0.333333 33:0.666667 34:0.333333 35:0.5 37:0.5 38:0.5 39:0.457143 40:0.666667 41:1 44:0.368421 46:0.583333 47:0.5 48:1 50:0.636364 51:0.545455 52:0.416667 54:1 56:0.666667 57:0.333333 58:1 59:0.34375 60:1 63:0.483871 64:1 65:0.571429 66:0.5 67:0.666667 68:0.5 71:0.5 72:0.5 73:0.5 76:0.5 77:0.545455 78:0.357143 79:0.5 80:1 81:0.473684 82:0.4 83:0.631579 84:0.5 85:1 86:0.4 87:0.619048 89:0.5 90:1 91:0.5 94:0.333333 95:0.666667 96:0.530612 97:0.5 98:0.487805 99:0.5 100:1 101:0.333333 104:0.6 106:0.6875 108:1 109:0.8 110:0.333333 111:0.333333 112:0.764706 114:0.5 115:0.2 116:0.333333 117:0.75 118:0.5 119:0.458333 120:0.518519 121:0.333333 122:0.5 123:0.40625 124:0.777778 126:0.36 127:0.5 129:0.583333 131:0.181818 132:0.333333 133:0.5 135:0.5 136:0.428571 
0.2798619352534207 0.4650984609635107 0 0 1:0.0714286 3:0.0612245 4:0.0238095 6:0.0434783 7:0.0833333 9:0.0357143 10:0.142857 12:0.0714286 13:0.0909091 14:0.0714286 17:0.0549451 19:0.0714286 21:0.142857 23:0.0571429 24:0.142857 25:0.0714286 26:0.142857 27:0.142857 28:0.0571429 30:0.0857143 32:0.047619 33:0.0952381 34:0.047619 35:0.0714286 37:0.0714286 38:0.0714286 39:0.0653061 40:0.0952381 41:0.142857 44:0.0526316 46:0.0833333 47:0.0714286 48:0.142857 50:0.0909091 51:0.0779221 52:0.0595238 54:0.142857 56:0.0952381 57:0.047619 58:0.142857 59:0.0491071 60:0.142857 63:0.0691244 64:0.142857 65:0.0816327 66:0.0714286 67:0.0952381 68:0.0714286 71:0.0714286 72:0.0714286 73:0.0714286 76:0.0714286 77:0.0779221 78:0.0510204 79:0.0714286 80:0.142857 81:0.0676692 82:0.0571429 83:0.0902256 84:0.0714286 85:0.142857 86:0.0571429 87:0.0884354 89:0.0714286 90:0.142857 91:0.0714286 94:0.047619 95:0.0952381 96:0.0758017 97:0.0714286 98:0.0696864 99:0.0714286 100:0.142857 101:0.047619 104:0.0857143 106:0.0982143 108:0.142857 109:0.114286 110:0.047619 111:0.047619 112:0.117647 114:0.0714286 115:0.0285714 116:0.047619 117:0.107143 118:0.0714286 119:0.0654762 120:0.0740741 121:0.047619 122:0.0714286 123:0.0625 124:0.111111 126:0.0542857 127:0.0714286 129:0.0833333 131:0.025974 132:0.047619 133:0.0714286 135:0.0714286 136:0.0612245 
1 0 0.1903657965650399 0 1:0.25 3:0.214286 4:0.0833333 6:0.152174 7:0.291667 9:0.125 10:0.5 12:0.25 13:0.318182 14:0.25 17:0.192308 19:0.25 21:0.5 23:0.2 24:0.5 25:0.25 26:0.5 27:0.5 28:0.2 30:0.3 32:0.166667 33:0.333333 34:0.166667 35:0.25 37:0.25 38:0.25 39:0.228571 40:0.333333 41:0.5 44:0.184211 46:0.291667 47:0.25 48:0.5 50:0.318182 51:0.272727 52:0.208333 54:0.5 56:0.333333 57:0.166667 58:0.5 59:0.171875 60:0.5 63:0.241935 64:0.5 65:0.285714 66:0.25 67:0.333333 68:0.25 71:0.25 72:0.25 73:0.25 76:0.25 77:0.272727 78:0.178571 79:0.25 80:0.5 81:0.236842 82:0.2 83:0.315789 84:0.25 85:0.5 86:0.2 87:0.309524 89:0.25 90:0.5 91:0.25 94:0.166667 95:0.333333 96:0.265306 97:0.25 98:0.243902 99:0.25 100:0.5 101:0.166667 104:0.3 106:0.34375 108:0.5 109:0.4 110:0.166667 111:0.166667 112:0.411765 114:0.25 115:0.1 116:0.166667 117:0.375 118:0.25 119:0.229167 120:0.259259 121:0.166667 122:0.25 123:0.21875 124:0.388889 126:0.19 127:0.25 129:0.291667 131:0.0909091 132:0.166667 133:0.25 135:0.25 136:0.214286 
0 1 0 0 1:0.0131579 3:0.0112782 4:0.00438596 6:0.00800915 7:0.0153509 9:0.00657895 10:0.0263158 12:0.0131579 13:0.0167464 14:0.0131579 17:0.0101215 19:0.0131579 21:0.0263158 23:0.0105263 24:0.0263158 25:0.0131579 26:0.0263158 27:0.0263158 28:0.0105263 30:0.0157895 32:0.00877193 33:0.0175439 34:0.00877193 35:0.0131579 37:0.0131579 38:0.0197368 39:0.0120301 40:0.0175439 41:0.0263158 44:0.0110803 46:0.0153509 47:0.0131579 48:0.0263158 50:0.0191388 51:0.0167464 52:0.0109649 54:0.0263158 56:0.0175439 57:0.00877193 58:0.0263158 59:0.00904605 60:0.0263158 63:0.0127334 64:0.0263158 65:0.0150376 66:0.0131579 67:0.0186404 68:0.0131579 71:0.0131579 72:0.0131579 73:0.0131579 76:0.0131579 77:0.0143541 78:0.0093985 79:0.0131579 80:0.0263158 81:0.0138504 82:0.0105263 83:0.0166205 84:0.0131579 85:0.0263158 86:0.0105263 87:0.0162907 89:0.0131579 90:0.0263158 91:0.0131579 94:0.0175439 95:0.0175439 96:0.0139635 97:0.0131579 98:0.012837 99:0.0131579 100:0.0263158 101:0.00877193 104:0.0157895 106:0.0180921 108:0.0263158 109:0.0210526 110:0.00877193 111:0.00877193 112:0.0216718 114:0.0131579 115:0.0105263 116:0.00877193 117:0.0263158 118:0.0131579 119:0.0120614 120:0.0146199 121:0.00877193 122:0.0131579 123:0.0115132 124:0.0204678 126:0.01 127:0.0131579 129:0.0197368 131:0.00478469 132:0.00877193 133:0.0131579 135:0.0131579 136:0.0112782 
0 0.02277234947781143 0 0 1:0.0238095 3:0.0272109 4:0.00793651 6:0.0186335 7:0.0277778 9:0.0119048 10:0.047619 12:0.0238095 13:0.030303 14:0.0238095 17:0.018315 19:0.0238095 21:0.047619 23:0.0190476 24:0.047619 25:0.0238095 26:0.047619 27:0.047619 28:0.0190476 30:0.0285714 32:0.015873 33:0.031746 34:0.031746 35:0.0238095 37:0.0238095 38:0.0357143 39:0.0258503 40:0.031746 41:0.047619 44:0.0250627 46:0.0277778 47:0.0238095 48:0.047619 50:0.034632 51:0.030303 52:0.0224868 54:0.047619 56:0.031746 57:0.015873 58:0.047619 59:0.016369 60:0.047619 63:0.0230415 64:0.047619 65:0.0272109 66:0.0357143 67:0.0337302 68:0.0238095 71:0.0238095 72:0.0238095 73:0.0238095 76:0.0238095 77:0.030303 78:0.0170068 79:0.0238095 80:0.047619 81:0.0250627 82:0.0190476 83:0.0300752 84:0.0238095 85:0.047619 86:0.0190476 87:0.0294785 89:0.0277778 90:0.047619 91:0.0238095 92:0.0238095 94:0.031746 95:0.031746 96:0.0262391 97:0.0238095 98:0.0238095 99:0.0238095 100:0.047619 101:0.015873 104:0.0380952 106:0.0357143 108:0.047619 109:0.0380952 110:0.015873 111:0.0238095 112:0.0392157 114:0.0238095 115:0.0190476 116:0.015873 117:0.047619 118:0.0238095 119:0.0218254 120:0.0282187 121:0.015873 122:0.0238095 123:0.0223214 124:0.037037 126:0.0180952 127:0.0306122 129:0.0357143 131:0.017316 132:0.015873 133:0.0238095 135:0.0238095 136:0.0204082 
0 0 0.1172286567675903 0 1:0.125 3:0.142857 4:0.0416667 6:0.0978261 7:0.145833 9:0.0625 10:0.25 12:0.125 13:0.159091 14:0.125 17:0.0961538 19:0.125 21:0.25 23:0.1 24:0.25 25:0.125 26:0.25 27:0.25 28:0.1 30:0.15 32:0.0833333 33:0.166667 34:0.166667 35:0.125 37:0.125 38:0.1875 39:0.15 40:0.166667 41:0.25 44:0.131579 46:0.145833 47:0.125 48:0.25 50:0.181818 51:0.159091 52:0.118056 54:0.25 56:0.166667 57:0.0833333 58:0.25 59:0.0859375 60:0.25 63:0.120968 64:0.25 65:0.142857 66:0.1875 67:0.177083 68:0.125 71:0.125 72:0.125 73:0.125 76:0.125 77:0.159091 78:0.0892857 79:0.125 80:0.25 81:0.131579 82:0.1 83:0.157895 84:0.125 85:0.25 86:0.1 87:0.154762 89:0.145833 90:0.25 91:0.125 92:0.125 94:0.166667 95:0.166667 96:0.137755 97:0.125 98:0.125 99:0.125 100:0.25 101:0.0833333 104:0.2 106:0.1875 108:0.25 109:0.2 110:0.0833333 111:0.125 112:0.205882 114:0.125 115:0.1 116:0.0833333 117:0.25 118:0.125 119:0.114583 120:0.148148 121:0.0833333 122:0.125 123:0.117188 124:0.194444 126:0.095 127:0.160714 129:0.1875 131:0.0909091 132:0.0833333 133:0.125 135:0.125 136:0.107143 
0.6800380609684551 0.5266788131505042 0.597260535947058 0 1:0.166667 3:0.190476 4:0.0555556 6:0.130435 7:0.194444 9:0.0833333 10:0.333333 12:0.166667 13:0.212121 14:0.166667 17:0.128205 19:0.166667 21:0.333333 23:0.133333 24:0.333333 25:0.166667 26:0.333333 27:0.333333 28:0.133333 30:0.2 32:0.111111 33:0.222222 34:0.222222 35:0.166667 37:0.166667 38:0.25 39:0.2 40:0.222222 41:0.333333 44:0.192982 46:0.194444 47:0.166667 48:0.333333 50:0.242424 51:0.212121 52:0.157407 54:0.333333 56:0.222222 57:0.111111 58:0.333333 59:0.114583 60:0.333333 63:0.16129 64:0.333333 65:0.190476 66:0.25 67:0.236111 68:0.166667 71:0.166667 72:0.166667 73:0.166667 76:0.166667 77:0.212121 78:0.119048 79:0.166667 80:0.333333 81:0.175439 82:0.133333 83:0.210526 84:0.166667 85:0.333333 86:0.133333 87:0.206349 89:0.194444 90:0.333333 91:0.166667 92:0.166667 94:0.222222 95:0.222222 96:0.183673 97:0.166667 98:0.166667 99:0.166667 100:0.333333 101:0.111111 104:0.266667 106:0.25 108:0.333333 109:0.266667 110:0.111111 111:0.166667 112:0.27451 114:0.166667 115:0.133333 116:0.111111 117:0.333333 118:0.166667 119:0.152778 120:0.197531 121:0.111111 122:0.166667 123:0.15625 124:0.259259 126:0.126667 127:0.214286 129:0.25 131:0.121212 132:0.111111 133:0.166667 135:0.166667 136:0.142857 
0 0.1151163573836095 0 0 1:0.0263158 3:0.0300752 4:0.00877193 6:0.020595 7:0.0328947 9:0.0131579 10:0.0526316 12:0.0263158 13:0.0334928 14:0.0263158 17:0.0202429 19:0.0263158 21:0.0526316 23:0.0210526 24:0.0526316 25:0.0263158 26:0.0526316 27:0.0526316 28:0.0210526 30:0.0315789 32:0.0175439 33:0.0350877 34:0.0350877 35:0.0263158 37:0.0263158 38:0.0394737 39:0.0330827 40:0.0350877 41:0.0526316 44:0.0304709 46:0.0307018 47:0.0263158 48:0.0526316 50:0.0382775 51:0.0334928 52:0.0263158 54:0.0526316 56:0.0350877 57:0.0175439 58:0.0526316 59:0.0180921 60:0.0526316 63:0.0254669 64:0.0526316 65:0.0300752 66:0.0394737 67:0.0372807 68:0.0263158 71:0.0263158 72:0.0263158 73:0.0263158 76:0.0263158 77:0.0334928 78:0.018797 79:0.0292398 80:0.0526316 81:0.0277008 82:0.0210526 83:0.0360111 84:0.0263158 85:0.0526316 86:0.0210526 87:0.0325815 89:0.0307018 90:0.0526316 91:0.0263158 92:0.0263158 94:0.0350877 95:0.0350877 96:0.0290011 97:0.0263158 98:0.0263158 99:0.0263158 100:0.0526316 101:0.0175439 104:0.0421053 106:0.0394737 108:0.0526316 109:0.0421053 110:0.0175439 111:0.0263158 112:0.0433437 114:0.0263158 115:0.0210526 116:0.0175439 117:0.0526316 118:0.0263158 119:0.0241228 120:0.0311891 121:0.0175439 122:0.0263158 123:0.0246711 124:0.0409357 126:0.02 127:0.037594 129:0.0394737 131:0.0191388 132:0.0175439 133:0.0263158 135:0.0263158 136:0.0225564 
0.03215452630242697 0.4109990143074171 0.06748577612784806 0 1:0.5 3:0.571429 4:0.166667 6:0.391304 7:0.625 9:0.25 10:1 12:0.5 13:0.636364 14:0.5 17:0.384615 19:0.5 21:1 23:0.4 24:1 25:0.5 26:1 27:1 28:0.4 30:0.6 32:0.333333 33:0.666667 34:0.666667 35:0.5 37:0.5 38:0.75 39:0.628571 40:0.666667 41:1 44:0.578947 46:0.583333 47:0.5 48:1 50:0.727273 51:0.636364 52:0.5 54:1 56:0.666667 57:0.333333 58:1 59:0.34375 60:1 63:0.483871 64:1 65:0.571429 66:0.75 67:0.708333 68:0.5 71:0.5 72:0.5 73:0.5 76:0.5 77:0.636364 78:0.357143 79:0.555556 80:1 81:0.526316 82:0.4 83:0.684211 84:0.5 85:1 86:0.4 87:0.619048 89:0.583333 90:1 91:0.5 92:0.5 94:0.666667 95:0.666667 96:0.55102 97:0.5 98:0.5 99:0.5 100:1 101:0.333333 104:0.8 106:0.75 108:1 109:0.8 110:0.333333 111:0.5 112:0.823529 114:0.5 115:0.4 116:0.333333 117:1 118:0.5 119:0.458333 120:0.592593 121:0.333333 122:0.5 123:0.46875 124:0.777778 126:0.38 127:0.714286 129:0.75 131:0.363636 132:0.333333 133:0.5 135:0.5 136:0.428571 
0 0 0.6110890815692865 0 1:0.1 3:0.114286 4:0.0333333 6:0.0956522 7:0.125 9:0.05 10:0.2 12:0.1 13:0.127273 14:0.1 17:0.0769231 19:0.12 21:0.2 23:0.08 24:0.2 25:0.1 26:0.2 27:0.2 28:0.08 30:0.12 32:0.0666667 33:0.133333 34:0.133333 35:0.1 37:0.1 38:0.15 39:0.131429 40:0.133333 41:0.2 44:0.115789 46:0.116667 47:0.1 48:0.2 50:0.145455 51:0.127273 52:0.105556 54:0.2 55:0.0666667 56:0.133333 57:0.0666667 58:0.2 59:0.06875 60:0.2 63:0.0967742 64:0.2 65:0.114286 66:0.15 67:0.141667 68:0.1 71:0.1 72:0.1 73:0.1 76:0.1 77:0.145455 78:0.0857143 79:0.111111 80:0.2 81:0.105263 82:0.12 83:0.147368 84:0.1 85:0.2 86:0.08 87:0.12381 89:0.116667 90:0.2 91:0.1 92:0.1 94:0.133333 95:0.133333 96:0.110204 97:0.1 98:0.1 99:0.1 100:0.2 101:0.0666667 104:0.16 106:0.15 108:0.2 109:0.16 110:0.0666667 111:0.1 112:0.164706 114:0.1 115:0.08 116:0.0666667 117:0.2 118:0.1 119:0.0916667 120:0.118519 121:0.0666667 122:0.1 123:0.10625 124:0.155556 126:0.084 127:0.142857 129:0.15 131:0.0727273 132:0.0666667 133:0.1 135:0.1 136:0.0857143 
0.006698353526954868 1 0.03693959184018682 0 1:0.5 3:0.571429 4:0.166667 6:0.478261 7:0.625 9:0.25 10:1 12:0.5 13:0.636364 14:0.5 17:0.384615 19:0.6 21:1 23:0.4 24:1 25:0.5 26:1 27:1 28:0.4 30:0.6 32:0.333333 33:0.666667 34:0.666667 35:0.5 37:0.5 38:0.75 39:0.685714 40:0.666667 41:1 44:0.578947 46:0.583333 47:0.5 48:1 50:0.727273 51:0.636364 52:0.527778 54:1 55:0.333333 56:0.666667 57:0.333333 58:1 59:0.34375 60:1 63:0.516129 64:1 65:0.571429 66:0.75 67:0.708333 68:0.5 71:0.5 72:0.5 73:0.5 76:0.5 77:0.727273 78:0.428571 79:0.555556 80:1 81:0.526316 82:0.6 83:0.736842 84:0.5 85:1 86:0.4 87:0.619048 89:0.666667 90:1 91:0.5 92:0.5 94:0.666667 95:0.666667 96:0.55102 97:0.5 98:0.512195 99:0.5 100:1 101:0.333333 104:0.8 106:0.75 108:1 109:0.8 110:0.333333 111:0.5 112:0.823529 114:0.5 115:0.4 116:0.333333 117:1 118:0.5 119:0.458333 120:0.592593 121:0.333333 122:0.5 123:0.53125 124:0.777778 126:0.42 127:0.714286 129:0.75 131:0.363636 132:0.333333 133:0.5 135:0.5 136:0.428571 
0 1 0 0 1:0.0384615 3:0.043956 4:0.0128205 6:0.0367893 7:0.0480769 9:0.0192308 10:0.0769231 12:0.0384615 13:0.048951 14:0.0384615 17:0.0295858 19:0.0461538 21:0.0769231 23:0.0307692 24:0.0769231 25:0.0384615 26:0.0769231 27:0.0769231 28:0.0307692 30:0.0461538 32:0.025641 33:0.0512821 34:0.0512821 35:0.0384615 37:0.0384615 38:0.0576923 39:0.0527473 40:0.0512821 41:0.0769231 44:0.0445344 46:0.0448718 47:0.0384615 48:0.0769231 50:0.0559441 51:0.048951 52:0.0405983 54:0.0769231 55:0.025641 56:0.0512821 57:0.025641 58:0.0769231 59:0.0264423 60:0.0769231 63:0.0397022 64:0.0769231 65:0.043956 66:0.0576923 67:0.0544872 68:0.0384615 71:0.0384615 72:0.0384615 73:0.0384615 76:0.0384615 77:0.0559441 78:0.032967 79:0.042735 80:0.0769231 81:0.0404858 82:0.0461538 83:0.0566802 84:0.0384615 85:0.0769231 86:0.0307692 87:0.047619 89:0.0512821 90:0.0769231 91:0.0384615 92:0.0384615 94:0.0512821 95:0.0512821 96:0.0423862 97:0.0384615 98:0.0393996 99:0.0384615 100:0.0769231 101:0.025641 104:0.0615385 106:0.0576923 108:0.0769231 109:0.0615385 110:0.025641 111:0.0384615 112:0.0633484 114:0.0384615 115:0.0461538 116:0.025641 117:0.0769231 118:0.0384615 119:0.0352564 120:0.045584 121:0.025641 122:0.0384615 123:0.0408654 124:0.0598291 126:0.0323077 127:0.0549451 129:0.0641026 131:0.027972 132:0.025641 133:0.0384615 135:0.0384615 136:0.032967 
0 1 0 0 1:0.0178571 3:0.0204082 4:0.00595238 6:0.0186335 7:0.0223214 9:0.00892857 10:0.0357143 12:0.0178571 13:0.0227273 14:0.0178571 17:0.0137363 19:0.0214286 21:0.0357143 23:0.0142857 24:0.0357143 25:0.0178571 26:0.0357143 27:0.0357143 28:0.0142857 30:0.0214286 32:0.0119048 33:0.0238095 34:0.0238095 35:0.0178571 37:0.0178571 38:0.0267857 39:0.0244898 40:0.0238095 41:0.0357143 44:0.0206767 46:0.0208333 47:0.0178571 48:0.0357143 50:0.025974 51:0.0227273 52:0.0198413 54:0.0357143 55:0.0119048 56:0.0238095 57:0.0119048 58:0.0357143 59:0.015625 60:0.0357143 63:0.0184332 64:0.0357143 65:0.0204082 66:0.0267857 67:0.0252976 68:0.0178571 71:0.0178571 72:0.0178571 73:0.0178571 76:0.0178571 77:0.025974 78:0.0153061 79:0.0198413 80:0.0357143 81:0.0206767 82:0.0214286 83:0.0263158 84:0.0178571 85:0.0357143 86:0.0142857 87:0.0221088 89:0.0238095 90:0.0357143 91:0.0178571 92:0.0178571 94:0.0238095 95:0.0238095 96:0.0196793 97:0.0178571 98:0.0187282 99:0.0178571 100:0.0357143 101:0.0119048 104:0.0285714 106:0.0267857 108:0.0357143 109:0.0285714 110:0.0119048 111:0.0178571 112:0.0294118 114:0.0178571 115:0.0214286 116:0.0119048 117:0.0357143 118:0.0178571 119:0.016369 120:0.0224868 121:0.0119048 122:0.0178571 123:0.0189732 124:0.0277778 126:0.0157143 127:0.0255102 129:0.0297619 131:0.012987 132:0.0119048 133:0.0178571 135:0.0178571 136:0.0153061 
0 1 0 0 1:0.0135135 3:0.015444 4:0.0045045 6:0.0141011 7:0.0168919 9:0.00675676 10:0.027027 12:0.0135135 13:0.017199 14:0.0135135 17:0.012474 19:0.0162162 21:0.027027 23:0.0108108 24:0.027027 25:0.0135135 26:0.027027 27:0.027027 28:0.0108108 30:0.0162162 32:0.00900901 33:0.018018 34:0.018018 35:0.0135135 37:0.0135135 38:0.027027 39:0.0185328 40:0.018018 41:0.027027 44:0.0156472 46:0.0157658 47:0.0135135 48:0.027027 50:0.019656 51:0.017199 52:0.015015 54:0.027027 55:0.00900901 56:0.018018 57:0.00900901 58:0.027027 59:0.0126689 60:0.027027 63:0.0139494 64:0.027027 65:0.015444 66:0.0202703 67:0.0191441 68:0.0135135 71:0.0135135 72:0.0135135 73:0.0135135 76:0.0135135 77:0.019656 78:0.011583 79:0.015015 80:0.027027 81:0.0156472 82:0.0162162 83:0.0199147 84:0.0135135 85:0.027027 86:0.0108108 87:0.018018 89:0.018018 90:0.027027 91:0.0135135 92:0.0135135 94:0.027027 95:0.018018 96:0.015444 97:0.0135135 98:0.0141727 99:0.0135135 100:0.027027 101:0.00900901 104:0.0216216 106:0.0202703 108:0.027027 109:0.0216216 110:0.00900901 111:0.0135135 112:0.0222576 114:0.0135135 115:0.0162162 116:0.00900901 117:0.027027 118:0.0135135 119:0.0123874 120:0.018018 121:0.00900901 122:0.0135135 123:0.0143581 124:0.021021 126:0.0118919 127:0.019305 129:0.0225225 131:0.00982801 132:0.00900901 133:0.0135135 135:0.0135135 136:0.011583 
0 1 0 0 1:0.0714286 3:0.0816327 4:0.0238095 6:0.0745342 7:0.0892857 9:0.0357143 10:0.142857 12:0.0714286 13:0.0909091 14:0.0714286 17:0.0659341 19:0.0857143 21:0.142857 23:0.0571429 24:0.142857 25:0.0714286 26:0.142857 27:0.142857 28:0.0571429 30:0.0857143 32:0.047619 33:0.0952381 34:0.0952381 35:0.0714286 37:0.0714286 38:0.142857 39:0.0979592 40:0.0952381 41:0.142857 44:0.0827068 46:0.0833333 47:0.0714286 48:0.142857 50:0.103896 51:0.0909091 52:0.0793651 54:0.142857 55:0.047619 56:0.0952381 57:0.047619 58:0.142857 59:0.0669643 60:0.142857 63:0.0737327 64:0.142857 65:0.0816327 66:0.107143 67:0.10119 68:0.0714286 71:0.0714286 72:0.0714286 73:0.0714286 76:0.0714286 77:0.103896 78:0.0612245 79:0.0793651 80:0.142857 81:0.0827068 82:0.0857143 83:0.105263 84:0.0714286 85:0.142857 86:0.0571429 87:0.0952381 89:0.0952381 90:0.142857 91:0.0714286 92:0.0714286 94:0.142857 95:0.0952381 96:0.0816327 97:0.0714286 98:0.0749129 99:0.0714286 100:0.142857 101:0.047619 104:0.114286 106:0.107143 108:0.142857 109:0.114286 110:0.047619 111:0.0714286 112:0.117647 114:0.0714286 115:0.0857143 116:0.047619 117:0.142857 118:0.0714286 119:0.0654762 120:0.0952381 121:0.047619 122:0.0714286 123:0.0758929 124:0.111111 126:0.0628571 127:0.102041 129:0.119048 131:0.0519481 132:0.047619 133:0.0714286 135:0.0714286 136:0.0612245 
1 1 0 0 1:0.0833333 3:0.0952381 4:0.0555556 6:0.0869565 7:0.104167 9:0.0416667 10:0.166667 12:0.0833333 13:0.106061 14:0.0833333 17:0.0769231 19:0.1 20:0.0555556 21:0.166667 23:0.0666667 24:0.166667 25:0.0833333 26:0.166667 27:0.166667 28:0.0666667 30:0.1 32:0.0555556 33:0.111111 34:0.111111 35:0.0833333 37:0.0833333 38:0.166667 39:0.119048 40:0.111111 41:0.166667 44:0.105263 46:0.0972222 47:0.0833333 48:0.166667 50:0.121212 51:0.106061 52:0.0925926 54:0.166667 55:0.0555556 56:0.111111 57:0.0555556 58:0.166667 59:0.078125 60:0.166667 63:0.0860215 64:0.166667 65:0.0952381 66:0.125 67:0.118056 68:0.111111 71:0.0833333 72:0.0833333 73:0.166667 76:0.0833333 77:0.121212 78:0.0714286 79:0.0925926 80:0.166667 81:0.0964912 82:0.1 83:0.122807 84:0.0833333 85:0.166667 86:0.0666667 87:0.111111 89:0.111111 90:0.166667 91:0.0833333 92:0.0833333 94:0.166667 95:0.111111 96:0.0952381 97:0.0833333 98:0.0894309 99:0.0833333 100:0.166667 101:0.0555556 104:0.133333 106:0.125 108:0.166667 109:0.133333 110:0.0555556 111:0.111111 112:0.137255 114:0.0833333 115:0.1 116:0.0555556 117:0.166667 118:0.0833333 119:0.0833333 120:0.111111 121:0.0555556 122:0.0833333 123:0.0885417 124:0.12963 126:0.0766667 127:0.119048 128:0.0833333 129:0.138889 131:0.0757576 132:0.0555556 133:0.0833333 135:0.0833333 136:0.0714286 
0 1 0 0 1:0.0238095 3:0.0272109 4:0.015873 6:0.0248447 7:0.0297619 9:0.0119048 10:0.047619 12:0.0238095 13:0.030303 14:0.0238095 17:0.025641 19:0.0285714 20:0.015873 21:0.047619 23:0.0190476 24:0.047619 25:0.0238095 26:0.047619 27:0.047619 28:0.0190476 30:0.0285714 32:0.015873 33:0.031746 34:0.031746 35:0.0238095 37:0.0238095 38:0.047619 39:0.0340136 40:0.031746 41:0.047619 44:0.0300752 46:0.0277778 47:0.0238095 48:0.047619 50:0.034632 51:0.030303 52:0.026455 54:0.047619 55:0.015873 56:0.031746 57:0.015873 58:0.047619 59:0.0223214 60:0.047619 63:0.0261137 64:0.047619 65:0.0272109 66:0.0357143 67:0.0376984 68:0.031746 71:0.0238095 72:0.0238095 73:0.047619 76:0.0238095 77:0.034632 78:0.0204082 79:0.026455 80:0.047619 81:0.0275689 82:0.0285714 83:0.0350877 84:0.0238095 85:0.047619 86:0.0190476 87:0.0340136 89:0.0357143 90:0.047619 91:0.047619 92:0.0238095 94:0.047619 95:0.031746 96:0.0301263 97:0.0238095 98:0.0255517 99:0.0238095 100:0.047619 101:0.031746 104:0.0380952 106:0.0357143 108:0.047619 109:0.0380952 110:0.015873 111:0.031746 112:0.0392157 114:0.0238095 115:0.0285714 116:0.015873 117:0.047619 118:0.0238095 119:0.0238095 120:0.031746 121:0.015873 122:0.0238095 123:0.0267857 124:0.037037 126:0.0219048 127:0.0340136 128:0.0238095 129:0.0396825 131:0.021645 132:0.015873 133:0.0238095 135:0.0238095 136:0.0272109 
0.0192940406669404 1 0.7111465550165743 0 1:0.5 3:0.571429 4:0.333333 6:0.652174 7:0.708333 9:0.25 10:1 12:0.5 13:0.636364 14:0.5 15:0.5 17:0.615385 19:0.6 20:0.333333 21:1 23:0.4 24:1 25:0.5 26:1 27:1 28:0.4 30:0.6 32:0.333333 33:0.666667 34:0.666667 35:0.5 37:0.5 38:1 39:0.742857 40:0.666667 41:1 42:0.5 44:0.631579 46:0.666667 47:0.5 48:1 50:0.727273 51:0.727273 52:0.555556 54:1 55:0.333333 56:1 57:0.333333 58:1 59:0.5 60:1 63:0.548387 64:1 65:0.714286 66:0.75 67:0.791667 68:0.666667 71:0.5 72:0.5 73:1 76:0.5 77:0.727273 78:0.5 79:0.555556 80:1 81:0.631579 82:0.8 83:0.736842 84:0.5 85:1 86:0.4 87:0.714286 89:0.833333 90:1 91:1 92:0.5 94:1 95:0.666667 96:0.632653 97:0.5 98:0.536585 99:0.5 100:1 101:0.666667 104:0.8 106:0.75 108:1 109:0.8 110:0.5 111:0.666667 112:0.882353 114:0.5 115:0.6 116:0.333333 117:1 118:0.5 119:0.5625 120:0.666667 121:0.333333 122:0.571429 123:0.5625 124:0.888889 126:0.52 127:0.714286 128:0.5 129:0.833333 131:0.545455 132:0.333333 133:0.5 135:0.5 136:0.571429 
0 0.4678511480460771 0 0 1:0.0555556 3:0.0634921 4:0.037037 6:0.0724638 7:0.0787037 9:0.0277778 10:0.111111 12:0.0555556 13:0.0707071 14:0.0555556 15:0.0555556 17:0.0683761 19:0.0666667 20:0.037037 21:0.111111 23:0.0444444 24:0.111111 25:0.0555556 26:0.111111 27:0.111111 28:0.0444444 30:0.0666667 32:0.037037 33:0.0740741 34:0.0740741 35:0.0555556 37:0.0555556 38:0.111111 39:0.0825397 40:0.0740741 41:0.111111 42:0.0555556 44:0.0701754 46:0.0740741 47:0.0555556 48:0.111111 50:0.0808081 51:0.0909091 52:0.0617284 54:0.111111 55:0.037037 56:0.111111 57:0.037037 58:0.111111 59:0.0555556 60:0.111111 63:0.0609319 64:0.111111 65:0.0793651 66:0.0833333 67:0.087963 68:0.0740741 71:0.0555556 72:0.0555556 73:0.111111 76:0.0555556 77:0.0808081 78:0.0555556 79:0.0679012 80:0.111111 81:0.0701754 82:0.0888889 83:0.0818713 84:0.0555556 85:0.111111 86:0.0444444 87:0.0793651 89:0.0925926 90:0.111111 91:0.111111 92:0.0555556 94:0.111111 95:0.0740741 96:0.0725624 97:0.0555556 98:0.0623306 99:0.0555556 100:0.111111 101:0.0740741 104:0.0888889 106:0.0833333 108:0.111111 109:0.0888889 110:0.0555556 111:0.0740741 112:0.0980392 114:0.0555556 115:0.0666667 116:0.037037 117:0.111111 118:0.0555556 119:0.0625 120:0.0781893 121:0.037037 122:0.0714286 123:0.0625 124:0.0987654 126:0.0577778 127:0.0793651 128:0.0555556 129:0.0925926 131:0.0606061 132:0.037037 133:0.0555556 135:0.0555556 136:0.0634921 
0.1339851638063159 1 0 0 1:0.125 3:0.142857 4:0.0833333 6:0.163043 7:0.177083 9:0.0625 10:0.25 12:0.125 13:0.159091 14:0.125 15:0.125 17:0.153846 19:0.15 20:0.0833333 21:0.25 23:0.1 24:0.25 25:0.125 26:0.25 27:0.25 28:0.1 30:0.15 32:0.0833333 33:0.166667 34:0.166667 35:0.125 37:0.125 38:0.25 39:0.192857 40:0.166667 41:0.25 42:0.125 44:0.157895 46:0.1875 47:0.125 48:0.25 50:0.181818 51:0.204545 52:0.138889 54:0.25 55:0.0833333 56:0.25 57:0.0833333 58:0.25 59:0.125 60:0.25 63:0.137097 64:0.25 65:0.178571 66:0.1875 67:0.197917 68:0.166667 71:0.125 72:0.125 73:0.25 76:0.125 77:0.181818 78:0.125 79:0.152778 80:0.25 81:0.157895 82:0.2 83:0.184211 84:0.125 85:0.25 86:0.1 87:0.178571 89:0.208333 90:0.25 91:0.25 92:0.125 94:0.25 95:0.166667 96:0.163265 97:0.125 98:0.140244 99:0.125 100:0.25 101:0.166667 104:0.2 106:0.1875 108:0.25 109:0.2 110:0.125 111:0.166667 112:0.220588 114:0.125 115:0.15 116:0.0833333 117:0.25 118:0.125 119:0.140625 120:0.175926 121:0.0833333 122:0.160714 123:0.140625 124:0.222222 126:0.13 127:0.178571 128:0.125 129:0.208333 131:0.136364 132:0.0833333 133:0.125 135:0.125 136:0.142857 
0.1377319082844596 1 0 0.01973336943101969 1:0.25 3:0.285714 4:0.166667 6:0.326087 7:0.354167 9:0.125 10:0.5 12:0.25 13:0.318182 14:0.25 15:0.25 17:0.307692 19:0.3 20:0.166667 21:0.5 23:0.2 24:0.5 25:0.25 26:0.5 27:0.5 28:0.2 30:0.3 32:0.166667 33:0.333333 34:0.333333 35:0.25 37:0.25 38:0.5 39:0.385714 40:0.333333 41:0.5 42:0.25 44:0.315789 46:0.375 47:0.25 48:0.5 50:0.363636 51:0.409091 52:0.277778 54:0.5 55:0.166667 56:0.5 57:0.166667 58:0.5 59:0.25 60:0.5 63:0.274194 64:0.5 65:0.357143 66:0.375 67:0.395833 68:0.333333 71:0.25 72:0.25 73:0.5 76:0.25 77:0.363636 78:0.25 79:0.305556 80:0.5 81:0.315789 82:0.4 83:0.368421 84:0.25 85:0.5 86:0.2 87:0.357143 89:0.416667 90:0.5 91:0.5 92:0.25 94:0.5 95:0.333333 96:0.326531 97:0.25 98:0.280488 99:0.25 100:0.5 101:0.333333 104:0.4 106:0.375 108:0.5 109:0.4 110:0.25 111:0.333333 112:0.441176 114:0.25 115:0.3 116:0.166667 117:0.5 118:0.25 119:0.28125 120:0.351852 121:0.166667 122:0.321429 123:0.28125 124:0.444444 126:0.26 127:0.357143 128:0.25 129:0.416667 131:0.272727 132:0.166667 133:0.25 135:0.25 136:0.285714 
0 0.5914162881483269 0 0 1:0.1 3:0.114286 4:0.0666667 6:0.130435 7:0.141667 9:0.05 10:0.2 12:0.1 13:0.127273 14:0.1 15:0.1 17:0.123077 19:0.12 20:0.0666667 21:0.2 23:0.08 24:0.2 25:0.1 26:0.2 27:0.2 28:0.08 30:0.12 32:0.133333 33:0.133333 34:0.133333 35:0.1 37:0.1 38:0.2 39:0.154286 40:0.133333 41:0.2 42:0.1 44:0.126316 46:0.15 47:0.1 48:0.2 50:0.145455 51:0.163636 52:0.111111 54:0.2 55:0.0666667 56:0.2 57:0.0666667 58:0.2 59:0.1 60:0.2 63:0.116129 64:0.2 65:0.142857 66:0.15 67:0.158333 68:0.133333 71:0.1 72:0.1 73:0.2 76:0.1 77:0.145455 78:0.1 79:0.122222 80:0.2 81:0.126316 82:0.16 83:0.147368 84:0.1 85:0.2 86:0.08 87:0.142857 89:0.166667 90:0.2 91:0.2 92:0.1 94:0.2 95:0.133333 96:0.134694 97:0.1 98:0.112195 99:0.1 100:0.2 101:0.133333 104:0.16 106:0.15 108:0.2 109:0.16 110:0.1 111:0.133333 112:0.176471 114:0.1 115:0.12 116:0.0666667 117:0.2 118:0.1 119:0.1125 120:0.140741 121:0.0666667 122:0.128571 123:0.1125 124:0.177778 126:0.104 127:0.142857 128:0.1 129:0.166667 131:0.109091 132:0.0666667 133:0.1 135:0.1 136:0.114286 
0 0.3782012809886352 0 0 1:0.0555556 3:0.0634921 4:0.037037 6:0.0724638 7:0.0787037 9:0.0277778 10:0.111111 12:0.0555556 13:0.0707071 14:0.0555556 15:0.0555556 17:0.0683761 19:0.0666667 20:0.037037 21:0.111111 23:0.0444444 24:0.111111 25:0.0555556 26:0.111111 27:0.111111 28:0.0444444 30:0.0666667 32:0.0740741 33:0.0740741 34:0.0740741 35:0.0555556 37:0.0555556 38:0.111111 39:0.0857143 40:0.0740741 41:0.111111 42:0.0555556 44:0.0701754 46:0.0833333 47:0.0555556 48:0.111111 50:0.0808081 51:0.0909091 52:0.0617284 54:0.111111 55:0.037037 56:0.111111 57:0.037037 58:0.111111 59:0.0555556 60:0.111111 61:0.111111 63:0.0716846 64:0.111111 65:0.0793651 66:0.0833333 67:0.087963 68:0.0740741 71:0.0555556 72:0.0555556 73:0.111111 76:0.0555556 77:0.0808081 78:0.0555556 79:0.0679012 80:0.111111 81:0.0701754 82:0.0888889 83:0.0818713 84:0.0555556 85:0.111111 86:0.0444444 87:0.0793651 89:0.0925926 90:0.111111 91:0.111111 92:0.0555556 94:0.111111 95:0.0740741 96:0.0748299 97:0.0555556 98:0.0636856 99:0.0555556 100:0.111111 101:0.0740741 104:0.0888889 106:0.0833333 107:0.111111 108:0.111111 109:0.0888889 110:0.0555556 111:0.0740741 112:0.0980392 114:0.0555556 115:0.0666667 116:0.037037 117:0.111111 118:0.0555556 119:0.0648148 120:0.0781893 121:0.037037 122:0.0714286 123:0.0659722 124:0.0987654 126:0.0622222 127:0.0793651 128:0.0555556 129:0.0925926 131:0.0606061 132:0.037037 133:0.0555556 135:0.0555556 136:0.0793651 
0 1 0 0 1:0.125 3:0.142857 4:0.0833333 6:0.163043 7:0.177083 9:0.0625 10:0.25 12:0.125 13:0.181818 14:0.125 15:0.125 17:0.153846 19:0.15 20:0.0833333 21:0.25 23:0.1 24:0.25 25:0.125 26:0.25 27:0.25 28:0.1 30:0.15 32:0.166667 33:0.166667 34:0.166667 35:0.125 37:0.125 38:0.25 39:0.192857 40:0.166667 41:0.25 42:0.125 44:0.157895 46:0.1875 47:0.125 48:0.25 50:0.181818 51:0.204545 52:0.138889 54:0.25 55:0.0833333 56:0.25 57:0.0833333 58:0.25 59:0.125 60:0.25 61:0.25 63:0.16129 64:0.25 65:0.178571 66:0.1875 67:0.197917 68:0.166667 71:0.125 72:0.125 73:0.25 76:0.125 77:0.181818 78:0.125 79:0.152778 80:0.25 81:0.157895 82:0.2 83:0.184211 84:0.125 85:0.25 86:0.1 87:0.178571 89:0.208333 90:0.25 91:0.25 92:0.125 94:0.25 95:0.166667 96:0.168367 97:0.125 98:0.143293 99:0.125 100:0.25 101:0.166667 104:0.2 106:0.1875 107:0.25 108:0.25 109:0.2 110:0.125 111:0.166667 112:0.220588 114:0.125 115:0.15 116:0.0833333 117:0.25 118:0.125 119:0.145833 120:0.175926 121:0.0833333 122:0.160714 123:0.148438 124:0.222222 126:0.145 127:0.178571 128:0.125 129:0.208333 131:0.136364 132:0.0833333 133:0.125 135:0.125 136:0.178571 
1 1 0.642224457760168 0.485076468643892 1:0.25 3:0.285714 4:0.166667 6:0.326087 7:0.354167 9:0.125 10:0.5 12:0.25 13:0.363636 14:0.25 15:0.25 17:0.307692 19:0.3 20:0.166667 21:0.5 23:0.2 24:0.5 25:0.25 26:0.5 27:0.5 28:0.2 30:0.3 32:0.333333 33:0.333333 34:0.333333 35:0.25 37:0.25 38:0.5 39:0.385714 40:0.333333 41:0.5 42:0.25 44:0.315789 46:0.375 47:0.25 48:0.5 50:0.363636 51:0.409091 52:0.277778 54:0.5 55:0.166667 56:0.5 57:0.166667 58:0.5 59:0.25 60:0.5 61:0.5 63:0.322581 64:0.5 65:0.357143 66:0.375 67:0.395833 68:0.333333 71:0.25 72:0.25 73:0.5 76:0.25 77:0.363636 78:0.25 79:0.305556 80:0.5 81:0.315789 82:0.4 83:0.368421 84:0.25 85:0.5 86:0.2 87:0.357143 89:0.416667 90:0.5 91:0.5 92:0.25 94:0.5 95:0.333333 96:0.336735 97:0.25 98:0.286585 99:0.25 100:0.5 101:0.333333 103:0.166667 104:0.4 106:0.375 107:0.5 108:0.5 109:0.4 110:0.25 111:0.333333 112:0.441176 114:0.25 115:0.3 116:0.166667 117:0.5 118:0.25 119:0.291667 120:0.351852 121:0.166667 122:0.321429 123:0.296875 124:0.444444 126:0.29 127:0.357143 128:0.25 129:0.416667 131:0.272727 132:0.166667 133:0.25 135:0.25 136:0.357143 
0 1 0 0 1:0.166667 3:0.190476 4:0.111111 6:0.217391 7:0.236111 9:0.0833333 10:0.333333 12:0.166667 13:0.242424 14:0.166667 15:0.166667 17:0.205128 19:0.2 20:0.111111 21:0.333333 23:0.133333 24:0.333333 25:0.166667 26:0.333333 27:0.333333 28:0.133333 30:0.2 32:0.222222 33:0.222222 34:0.222222 35:0.166667 37:0.166667 38:0.333333 39:0.257143 40:0.222222 41:0.333333 42:0.166667 44:0.210526 46:0.25 47:0.166667 48:0.333333 50:0.242424 51:0.272727 52:0.185185 54:0.333333 55:0.111111 56:0.333333 57:0.111111 58:0.333333 59:0.166667 60:0.333333 61:0.333333 63:0.215054 64:0.333333 65:0.238095 66:0.25 67:0.263889 68:0.222222 71:0.166667 72:0.333333 73:0.333333 76:0.166667 77:0.242424 78:0.166667 79:0.203704 80:0.333333 81:0.210526 82:0.266667 83:0.245614 84:0.166667 85:0.333333 86:0.133333 87:0.238095 89:0.277778 90:0.333333 91:0.333333 92:0.166667 94:0.333333 95:0.222222 96:0.22449 97:0.166667 98:0.195122 99:0.166667 100:0.333333 101:0.222222 103:0.111111 104:0.266667 106:0.25 107:0.333333 108:0.333333 109:0.266667 110:0.166667 111:0.222222 112:0.294118 114:0.166667 115:0.2 116:0.111111 117:0.333333 118:0.166667 119:0.194444 120:0.234568 121:0.111111 122:0.214286 123:0.197917 124:0.296296 126:0.193333 127:0.238095 128:0.166667 129:0.277778 131:0.181818 132:0.111111 133:0.166667 135:0.166667 136:0.238095 
1 1 0 0 1:0.166667 3:0.190476 4:0.111111 6:0.217391 7:0.236111 9:0.0833333 10:0.333333 12:0.166667 13:0.242424 14:0.166667 15:0.166667 17:0.205128 19:0.2 20:0.111111 21:0.333333 23:0.133333 24:0.333333 25:0.166667 26:0.333333 27:0.333333 28:0.133333 30:0.2 32:0.222222 33:0.222222 34:0.222222 35:0.166667 37:0.166667 38:0.333333 39:0.257143 40:0.222222 41:0.333333 42:0.166667 44:0.210526 46:0.25 47:0.166667 48:0.333333 50:0.242424 51:0.272727 52:0.185185 54:0.333333 55:0.111111 56:0.333333 57:0.111111 58:0.333333 59:0.166667 60:0.333333 61:0.333333 63:0.215054 64:0.333333 65:0.238095 66:0.25 67:0.277778 68:0.222222 71:0.166667 72:0.333333 73:0.333333 76:0.166667 77:0.242424 78:0.166667 79:0.203704 80:0.333333 81:0.210526 82:0.266667 83:0.245614 84:0.166667 85:0.333333 86:0.133333 87:0.238095 89:0.277778 90:0.333333 91:0.333333 92:0.166667 94:0.333333 95:0.222222 96:0.22449 97:0.166667 98:0.199187 99:0.166667 100:0.333333 101:0.222222 103:0.111111 104:0.266667 106:0.25 107:0.333333 108:0.333333 109:0.266667 110:0.166667 111:0.222222 112:0.294118 114:0.166667 115:0.2 116:0.111111 117:0.333333 118:0.166667 119:0.194444 120:0.234568 121:0.111111 122:0.214286 123:0.197917 124:0.296296 126:0.193333 127:0.238095 128:0.166667 129:0.277778 131:0.181818 132:0.111111 133:0.166667 135:0.166667 136:0.238095 
0.6106904743593287 0.9103122180181719 0.02134583617597335 0.04075718643903357 1:0.166667 3:0.190476 4:0.111111 6:0.217391 7:0.25 9:0.0833333 10:0.333333 12:0.166667 13:0.242424 14:0.166667 15:0.166667 17:0.205128 19:0.2 20:0.111111 21:0.333333 23:0.133333 24:0.333333 25:0.166667 26:0.333333 27:0.333333 28:0.133333 30:0.2 32:0.333333 33:0.222222 34:0.222222 35:0.166667 37:0.166667 38:0.333333 39:0.257143 40:0.222222 41:0.333333 42:0.166667 44:0.210526 46:0.25 47:0.166667 48:0.333333 50:0.242424 51:0.30303 52:0.185185 54:0.333333 55:0.111111 56:0.333333 57:0.111111 58:0.333333 59:0.166667 60:0.333333 61:0.333333 63:0.247312 64:0.333333 65:0.238095 66:0.25 67:0.277778 68:0.222222 71:0.166667 72:0.333333 73:0.333333 76:0.166667 77:0.272727 78:0.166667 79:0.203704 80:0.333333 81:0.210526 82:0.266667 83:0.245614 84:0.166667 85:0.333333 86:0.133333 87:0.238095 89:0.277778 90:0.333333 91:0.333333 92:0.166667 94:0.333333 95:0.222222 96:0.231293 97:0.166667 98:0.207317 99:0.166667 100:0.333333 101:0.222222 103:0.111111 104:0.266667 106:0.270833 107:0.333333 108:0.333333 109:0.266667 110:0.166667 111:0.222222 112:0.294118 114:0.166667 115:0.2 116:0.111111 117:0.333333 118:0.166667 119:0.201389 120:0.234568 121:0.111111 122:0.214286 123:0.197917 124:0.296296 126:0.193333 127:0.261905 128:0.166667 129:0.277778 131:0.181818 132:0.111111 133:0.166667 135:0.166667 136:0.238095 
1 0 0 0 1:0.166667 3:0.190476 4:0.111111 6:0.217391 7:0.25 9:0.0833333 10:0.333333 12:0.166667 13:0.242424 14:0.166667 15:0.166667 17:0.205128 19:0.2 20:0.111111 21:0.333333 23:0.133333 24:0.333333 25:0.166667 26:0.333333 27:0.333333 28:0.133333 30:0.2 32:0.333333 33:0.222222 34:0.222222 35:0.166667 37:0.166667 38:0.333333 39:0.257143 40:0.222222 41:0.333333 42:0.166667 44:0.210526 46:0.25 47:0.166667 48:0.333333 50:0.242424 51:0.30303 52:0.185185 54:0.333333 55:0.111111 56:0.333333 57:0.111111 58:0.333333 59:0.166667 60:0.333333 61:0.333333 63:0.247312 64:0.333333 65:0.238095 66:0.25 67:0.277778 68:0.222222 71:0.166667 72:0.333333 73:0.333333 76:0.166667 77:0.272727 78:0.166667 79:0.203704 80:0.333333 81:0.210526 82:0.266667 83:0.245614 84:0.166667 85:0.333333 86:0.133333 87:0.253968 89:0.277778 90:0.333333 91:0.333333 92:0.166667 94:0.333333 95:0.222222 96:0.238095 97:0.166667 98:0.207317 99:0.166667 100:0.333333 101:0.222222 103:0.111111 104:0.266667 106:0.270833 107:0.333333 108:0.333333 109:0.266667 110:0.166667 111:0.222222 112:0.294118 114:0.166667 115:0.2 116:0.111111 117:0.333333 118:0.166667 119:0.201389 120:0.234568 121:0.111111 122:0.214286 123:0.197917 124:0.296296 126:0.193333 127:0.261905 128:0.166667 129:0.277778 131:0.181818 132:0.111111 133:0.166667 135:0.166667 136:0.238095 
0.9691133170010075 0 0 0 1:0.1 3:0.114286 4:0.0666667 6:0.130435 7:0.15 9:0.05 10:0.2 12:0.1 13:0.145455 14:0.1 15:0.1 17:0.123077 19:0.12 20:0.0666667 21:0.2 23:0.08 24:0.2 25:0.1 26:0.2 27:0.2 28:0.12 30:0.12 32:0.2 33:0.133333 34:0.133333 35:0.1 37:0.1 38:0.2 39:0.165714 40:0.133333 41:0.2 42:0.1 44:0.126316 46:0.166667 47:0.1 48:0.2 50:0.145455 51:0.181818 52:0.116667 54:0.2 55:0.0666667 56:0.2 57:0.0666667 58:0.2 59:0.1 60:0.2 61:0.2 63:0.148387 64:0.2 65:0.142857 66:0.15 67:0.166667 68:0.133333 71:0.1 72:0.2 73:0.2 76:0.1 77:0.181818 78:0.1 79:0.122222 80:0.2 81:0.126316 82:0.16 83:0.147368 84:0.1 85:0.2 86:0.08 87:0.152381 89:0.166667 90:0.2 91:0.2 92:0.1 94:0.2 95:0.133333 96:0.146939 97:0.1 98:0.129268 99:0.1 100:0.2 101:0.133333 103:0.0666667 104:0.16 106:0.1625 107:0.2 108:0.2 109:0.16 110:0.133333 111:0.133333 112:0.176471 114:0.1 115:0.12 116:0.0666667 117:0.2 118:0.1 119:0.125 120:0.140741 121:0.0666667 122:0.128571 123:0.11875 124:0.177778 126:0.116 127:0.171429 128:0.1 129:0.166667 131:0.109091 132:0.0666667 133:0.1 135:0.1 136:0.142857 
0 0 0.5454517831190852 0 1:0.1 3:0.114286 4:0.0666667 6:0.130435 7:0.15 9:0.05 10:0.2 12:0.1 13:0.145455 14:0.1 15:0.1 17:0.123077 19:0.12 20:0.0666667 21:0.2 23:0.08 24:0.2 25:0.1 26:0.2 27:0.2 28:0.12 30:0.16 32:0.2 33:0.133333 34:0.133333 35:0.1 37:0.1 38:0.2 39:0.165714 40:0.133333 41:0.2 42:0.1 44:0.126316 46:0.166667 47:0.1 48:0.2 50:0.145455 51:0.181818 52:0.116667 54:0.2 55:0.0666667 56:0.2 57:0.0666667 58:0.2 59:0.10625 60:0.2 61:0.2 63:0.148387 64:0.2 65:0.171429 66:0.15 67:0.166667 68:0.133333 71:0.1 72:0.2 73:0.2 76:0.1 77:0.181818 78:0.1 79:0.122222 80:0.2 81:0.126316 82:0.16 83:0.147368 84:0.1 85:0.2 86:0.08 87:0.152381 89:0.166667 90:0.2 91:0.2 92:0.1 94:0.2 95:0.133333 96:0.146939 97:0.1 98:0.129268 99:0.1 100:0.2 101:0.133333 103:0.0666667 104:0.16 106:0.1625 107:0.2 108:0.2 109:0.16 110:0.133333 111:0.133333 112:0.176471 114:0.1 115:0.12 116:0.0666667 117:0.2 118:0.1 119:0.125 120:0.140741 121:0.0666667 122:0.128571 123:0.11875 124:0.177778 126:0.116 127:0.171429 128:0.1 129:0.166667 131:0.109091 132:0.0666667 133:0.1 135:0.1 136:0.142857 
0.1024107133274943 1 0 0 1:0.0833333 3:0.0952381 4:0.0555556 6:0.115942 7:0.125 9:0.0416667 10:0.166667 12:0.0833333 13:0.121212 14:0.0833333 15:0.0833333 17:0.102564 19:0.1 20:0.0555556 21:0.166667 23:0.1 24:0.166667 25:0.0833333 26:0.166667 27:0.166667 28:0.1 30:0.133333 32:0.166667 33:0.111111 34:0.111111 35:0.0833333 37:0.0833333 38:0.166667 39:0.138095 40:0.111111 41:0.166667 42:0.0833333 44:0.105263 46:0.138889 47:0.0833333 48:0.166667 50:0.121212 51:0.151515 52:0.0972222 54:0.166667 55:0.0555556 56:0.166667 57:0.0555556 58:0.166667 59:0.0885417 60:0.166667 61:0.166667 63:0.123656 64:0.166667 65:0.142857 66:0.125 67:0.138889 68:0.111111 71:0.0833333 72:0.166667 73:0.166667 76:0.0833333 77:0.151515 78:0.0833333 79:0.101852 80:0.166667 81:0.105263 82:0.133333 83:0.122807 84:0.0833333 85:0.166667 86:0.1 87:0.134921 89:0.138889 90:0.166667 91:0.166667 92:0.0833333 94:0.166667 95:0.111111 96:0.12585 97:0.0833333 98:0.109756 99:0.0833333 100:0.166667 101:0.111111 103:0.0555556 104:0.133333 106:0.135417 107:0.166667 108:0.166667 109:0.133333 110:0.111111 111:0.111111 112:0.147059 114:0.0833333 115:0.1 116:0.0555556 117:0.166667 118:0.0833333 119:0.104167 120:0.117284 121:0.0555556 122:0.107143 123:0.0989583 124:0.148148 126:0.1 127:0.142857 128:0.0833333 129:0.138889 131:0.0909091 132:0.0555556 133:0.0833333 135:0.0833333 136:0.119048 
1 1 0 0 1:0.0714286 3:0.0816327 4:0.047619 6:0.0993789 7:0.113095 9:0.0357143 10:0.142857 12:0.0714286 13:0.103896 14:0.0714286 15:0.0714286 17:0.0879121 19:0.0857143 20:0.047619 21:0.142857 23:0.142857 24:0.142857 25:0.0714286 26:0.142857 27:0.142857 28:0.0857143 30:0.114286 32:0.142857 33:0.0952381 34:0.0952381 35:0.0714286 37:0.0714286 38:0.142857 39:0.122449 40:0.0952381 41:0.142857 42:0.142857 44:0.0902256 46:0.119048 47:0.0714286 48:0.142857 50:0.103896 51:0.12987 52:0.0833333 54:0.142857 55:0.047619 56:0.142857 57:0.047619 58:0.142857 59:0.0803571 60:0.142857 61:0.142857 63:0.110599 64:0.142857 65:0.122449 66:0.107143 67:0.119048 68:0.0952381 71:0.0714286 72:0.142857 73:0.142857 76:0.0714286 77:0.12987 78:0.0714286 79:0.0873016 80:0.142857 81:0.0902256 82:0.114286 83:0.105263 84:0.0714286 85:0.142857 86:0.0857143 87:0.115646 89:0.119048 90:0.142857 91:0.142857 92:0.0714286 94:0.142857 95:0.0952381 96:0.107872 97:0.0714286 98:0.0958188 99:0.0714286 100:0.142857 101:0.0952381 103:0.0952381 104:0.114286 106:0.125 107:0.142857 108:0.142857 109:0.114286 110:0.0952381 111:0.0952381 112:0.12605 114:0.0714286 115:0.0857143 116:0.047619 117:0.142857 118:0.142857 119:0.0892857 120:0.100529 121:0.047619 122:0.0918367 123:0.0848214 124:0.126984 126:0.0942857 127:0.122449 128:0.0714286 129:0.130952 131:0.0779221 132:0.047619 133:0.0714286 135:0.142857 136:0.102041 
1 1 0.203882522357168 0.3510455314036108 1:0.125 3:0.142857 4:0.0833333 6:0.184783 7:0.208333 8:0.25 9:0.125 10:0.25 12:0.125 13:0.181818 14:0.125 15:0.125 16:0.25 17:0.153846 19:0.15 20:0.0833333 21:0.25 22:0.25 23:0.25 24:0.25 25:0.125 26:0.25 27:0.25 28:0.15 29:0.125 30:0.2 32:0.25 33:0.166667 34:0.166667 35:0.125 37:0.125 38:0.25 39:0.214286 40:0.166667 41:0.25 42:0.25 44:0.157895 46:0.208333 47:0.125 48:0.25 49:0.25 50:0.204545 51:0.227273 52:0.145833 54:0.25 55:0.0833333 56:0.25 57:0.0833333 58:0.25 59:0.140625 60:0.25 61:0.25 62:0.25 63:0.201613 64:0.25 65:0.214286 66:0.1875 67:0.208333 68:0.166667 70:0.25 71:0.125 72:0.25 73:0.25 75:0.25 76:0.125 77:0.227273 78:0.125 79:0.152778 80:0.25 81:0.171053 82:0.2 83:0.210526 84:0.125 85:0.25 86:0.15 87:0.202381 89:0.229167 90:0.25 91:0.25 92:0.125 93:0.25 94:0.25 95:0.194444 96:0.188776 97:0.125 98:0.167683 99:0.25 100:0.25 101:0.166667 102:0.25 103:0.166667 104:0.2 106:0.21875 107:0.25 108:0.25 109:0.2 110:0.166667 111:0.208333 112:0.220588 114:0.125 115:0.15 116:0.0833333 117:0.25 118:0.25 119:0.15625 120:0.175926 121:0.0833333 122:0.178571 123:0.148438 124:0.222222 126:0.165 127:0.232143 128:0.125 129:0.229167 131:0.136364 132:0.0833333 133:0.125 135:0.25 136:0.178571 
1 1 0 0 1:0.0178571 3:0.0204082 4:0.0119048 6:0.0263975 7:0.0297619 8:0.0357143 9:0.0178571 10:0.0357143 12:0.0178571 13:0.025974 14:0.0178571 15:0.0178571 16:0.0357143 17:0.021978 19:0.0214286 20:0.0119048 21:0.0357143 22:0.0357143 23:0.0357143 24:0.0357143 25:0.0178571 26:0.0357143 27:0.0357143 28:0.0214286 29:0.0178571 30:0.0285714 32:0.0357143 33:0.0238095 34:0.0238095 35:0.0178571 37:0.0178571 38:0.0357143 39:0.0306122 40:0.0238095 41:0.0357143 42:0.0357143 44:0.0225564 46:0.0297619 47:0.0178571 48:0.0357143 49:0.0357143 50:0.0292208 51:0.0324675 52:0.0208333 54:0.0357143 55:0.0119048 56:0.0357143 57:0.0119048 58:0.0357143 59:0.0200893 60:0.0357143 61:0.0357143 62:0.0357143 63:0.0288018 64:0.0357143 65:0.0306122 66:0.0267857 67:0.0297619 68:0.0238095 70:0.0357143 71:0.0178571 72:0.0357143 73:0.0357143 75:0.0357143 76:0.0178571 77:0.0324675 78:0.0204082 79:0.0218254 80:0.0357143 81:0.0244361 82:0.0285714 83:0.0300752 84:0.0178571 85:0.0357143 86:0.0214286 87:0.0289116 89:0.0327381 90:0.0357143 91:0.0357143 92:0.0178571 93:0.0357143 94:0.0357143 95:0.0277778 96:0.0276968 97:0.0178571 98:0.0239547 99:0.0357143 100:0.0357143 101:0.0238095 102:0.0357143 103:0.0238095 104:0.0285714 106:0.03125 107:0.0357143 108:0.0357143 109:0.0285714 110:0.0238095 111:0.0297619 112:0.0315126 114:0.0178571 115:0.0214286 116:0.0119048 117:0.0357143 118:0.0357143 119:0.0223214 120:0.0251323 121:0.0119048 122:0.0255102 123:0.0212054 124:0.031746 126:0.0235714 127:0.0331633 128:0.0178571 129:0.0327381 131:0.0194805 132:0.0119048 133:0.0267857 135:0.0357143 136:0.0255102 
0 1 0.88621840739325 0.8246770742571727 1:0.0294118 3:0.0336134 4:0.0196078 6:0.0434783 7:0.0490196 8:0.0588235 9:0.0294118 10:0.0588235 12:0.0294118 13:0.0427807 14:0.0294118 15:0.0294118 16:0.0588235 17:0.0361991 19:0.0352941 20:0.0196078 21:0.0588235 22:0.0588235 23:0.0588235 24:0.0588235 25:0.0294118 26:0.0588235 27:0.0588235 28:0.0352941 29:0.0294118 30:0.0470588 32:0.0588235 33:0.0392157 34:0.0392157 35:0.0294118 37:0.0294118 38:0.0588235 39:0.0504202 40:0.0588235 41:0.0588235 42:0.0588235 44:0.0371517 46:0.0490196 47:0.0294118 48:0.0588235 49:0.0588235 50:0.0481283 51:0.0534759 52:0.0359477 54:0.0588235 55:0.0196078 56:0.0588235 57:0.0196078 58:0.0588235 59:0.0330882 60:0.0588235 61:0.0588235 62:0.0588235 63:0.0474383 64:0.0588235 65:0.0504202 66:0.0441176 67:0.0490196 68:0.0392157 70:0.0588235 71:0.0294118 72:0.0588235 73:0.0588235 75:0.0588235 76:0.0294118 77:0.0534759 78:0.0336134 79:0.0359477 80:0.0588235 81:0.0402477 82:0.0470588 83:0.0495356 84:0.0294118 85:0.0588235 86:0.0352941 87:0.047619 89:0.0539216 90:0.0588235 91:0.0588235 92:0.0294118 93:0.0588235 94:0.0588235 95:0.0457516 96:0.0456182 97:0.0294118 98:0.0401722 99:0.0588235 100:0.0588235 101:0.0392157 102:0.0588235 103:0.0392157 104:0.0470588 106:0.0514706 107:0.0588235 108:0.0588235 109:0.0470588 110:0.0490196 111:0.0490196 112:0.0519031 114:0.0294118 115:0.0352941 116:0.0196078 117:0.0588235 118:0.0588235 119:0.0379902 120:0.0413943 121:0.0196078 122:0.0420168 123:0.0349265 124:0.0522876 126:0.0388235 127:0.0546218 128:0.0294118 129:0.0539216 131:0.0320856 132:0.0196078 133:0.0441176 135:0.0588235 136:0.0420168 
0.1587435596452248 1 0 0.2550936284168582 1:0.166667 3:0.190476 4:0.111111 6:0.246377 7:0.277778 8:0.333333 9:0.166667 10:0.333333 12:0.166667 13:0.242424 14:0.166667 15:0.166667 16:0.333333 17:0.205128 19:0.2 20:0.111111 21:0.333333 22:0.333333 23:0.333333 24:0.333333 25:0.166667 26:0.333333 27:0.333333 28:0.2 29:0.166667 30:0.266667 32:0.333333 33:0.222222 34:0.222222 35:0.166667 37:0.166667 38:0.333333 39:0.285714 40:0.333333 41:0.333333 42:0.333333 44:0.210526 46:0.277778 47:0.166667 48:0.333333 49:0.333333 50:0.272727 51:0.30303 52:0.203704 54:0.333333 55:0.111111 56:0.333333 57:0.111111 58:0.333333 59:0.1875 60:0.333333 61:0.333333 62:0.333333 63:0.268817 64:0.333333 65:0.285714 66:0.25 67:0.277778 68:0.222222 70:0.333333 71:0.166667 72:0.333333 73:0.333333 75:0.333333 76:0.166667 77:0.30303 78:0.190476 79:0.203704 80:0.333333 81:0.22807 82:0.266667 83:0.280702 84:0.166667 85:0.333333 86:0.2 87:0.269841 89:0.305556 90:0.333333 91:0.333333 92:0.166667 93:0.333333 94:0.333333 95:0.259259 96:0.258503 97:0.166667 98:0.227642 99:0.333333 100:0.333333 101:0.222222 102:0.333333 103:0.222222 104:0.266667 106:0.291667 107:0.333333 108:0.333333 109:0.266667 110:0.277778 111:0.277778 112:0.294118 114:0.166667 115:0.2 116:0.111111 117:0.333333 118:0.333333 119:0.215278 120:0.234568 121:0.111111 122:0.238095 123:0.197917 124:0.296296 126:0.22 127:0.309524 128:0.166667 129:0.305556 131:0.181818 132:0.111111 133:0.25 135:0.333333 136:0.238095 
0 0.8238215406789922 0 0 1:0.0263158 3:0.0300752 4:0.0175439 6:0.0389016 7:0.0438596 8:0.0526316 9:0.0263158 10:0.0526316 12:0.0263158 13:0.0430622 14:0.0263158 15:0.0263158 16:0.0526316 17:0.0323887 19:0.0315789 20:0.0175439 21:0.0526316 22:0.0526316 23:0.0526316 24:0.0526316 25:0.0263158 26:0.0526316 27:0.0526316 28:0.0315789 29:0.0263158 30:0.0421053 32:0.0526316 33:0.0394737 34:0.0350877 35:0.0263158 37:0.0263158 38:0.0526316 39:0.0451128 40:0.0526316 41:0.0526316 42:0.0526316 44:0.033241 46:0.0438596 47:0.0263158 48:0.0526316 49:0.0526316 50:0.0430622 51:0.0478469 52:0.0321637 54:0.0526316 55:0.0175439 56:0.0526316 57:0.0175439 58:0.0526316 59:0.0296053 60:0.0526316 61:0.0526316 62:0.0526316 63:0.0424448 64:0.0526316 65:0.0451128 66:0.0394737 67:0.0438596 68:0.0350877 70:0.0526316 71:0.0263158 72:0.0526316 73:0.0526316 75:0.0526316 76:0.0263158 77:0.0478469 78:0.0300752 79:0.0321637 80:0.0526316 81:0.0360111 82:0.0421053 83:0.0443213 84:0.0263158 85:0.0526316 86:0.0315789 87:0.0426065 89:0.0482456 90:0.0526316 91:0.0526316 92:0.0263158 93:0.0526316 94:0.0526316 95:0.0409357 96:0.0408163 97:0.0263158 98:0.0365854 99:0.0526316 100:0.0526316 101:0.0350877 102:0.0526316 103:0.0350877 104:0.0421053 106:0.0460526 107:0.0526316 108:0.0526316 109:0.0421053 110:0.0438596 111:0.0438596 112:0.0495356 114:0.0263158 115:0.0315789 116:0.0175439 117:0.0526316 118:0.0526316 119:0.0339912 120:0.0389864 121:0.0175439 122:0.037594 123:0.0328947 124:0.0467836 126:0.0347368 127:0.0488722 128:0.0263158 129:0.0482456 131:0.0334928 132:0.0175439 133:0.0394737 135:0.0526316 136:0.037594 
0.5129183243516265 1 0 0.4915958786414745 1:0.25 3:0.357143 4:0.25 6:0.369565 7:0.416667 8:0.5 9:0.25 10:0.5 12:0.5 13:0.409091 14:0.25 15:0.25 16:0.5 17:0.307692 19:0.3 20:0.166667 21:0.5 22:0.5 23:0.5 24:0.5 25:0.25 26:0.5 27:0.5 28:0.3 29:0.25 30:0.4 32:0.5 33:0.375 34:0.333333 35:0.25 37:0.25 38:0.5 39:0.428571 40:0.5 41:0.5 42:0.5 44:0.315789 46:0.416667 47:0.25 48:0.5 49:0.5 50:0.409091 51:0.454545 52:0.305556 53:0.25 54:0.5 55:0.166667 56:0.5 57:0.166667 58:0.5 59:0.28125 60:0.5 61:0.5 62:0.5 63:0.403226 64:0.5 65:0.428571 66:0.375 67:0.416667 68:0.333333 70:0.5 71:0.25 72:0.5 73:0.5 75:0.5 76:0.25 77:0.454545 78:0.285714 79:0.305556 80:0.5 81:0.342105 82:0.5 83:0.421053 84:0.25 85:0.5 86:0.3 87:0.404762 89:0.458333 90:0.5 91:0.5 92:0.25 93:0.5 94:0.5 95:0.388889 96:0.387755 97:0.25 98:0.353659 99:0.5 100:0.5 101:0.333333 102:0.5 103:0.333333 104:0.4 106:0.4375 107:0.5 108:0.5 109:0.4 110:0.416667 111:0.416667 112:0.470588 114:0.25 115:0.3 116:0.166667 117:0.5 118:0.5 119:0.322917 120:0.388889 121:0.166667 122:0.357143 123:0.34375 124:0.444444 126:0.36 127:0.464286 128:0.25 129:0.458333 131:0.318182 132:0.166667 133:0.375 135:0.5 136:0.357143 
