svm_type c_svc
kernel_type rbf
gamma 0.00689655
nr_class 5
total_sv 396
rho -0.939577 -0.257779 -0.997442 -0.992637 0.950903 -0.995393 -0.944176 -1.00242 -0.993674 0.996352
label 2 1 3 5 4
nr_sv 132 75 138 9 42
SV
0 1 0 1 
0 1 0 1 
0.6850441356877105 1 0 1 116:0.0111111 
1 1 0 0.9978131451454138 14:0.05 116:0.0222222 
1 1 0 1 1:0.00666667 4:0.05 8:0.00869565 10:0.0047619 14:0.025 20:0.1 38:0.00571429 51:0.02 53:0.0111111 54:0.0125 57:0.1 59:0.00526316 67:0.00294118 73:0.1 85:0.00416667 86:0.0176471 97:0.0333333 116:0.0111111 140:0.0125 141:0.00909091 145:0.00909091 
1 1 0 1 1:0.00215054 4:0.016129 8:0.00420757 10:0.0015361 14:0.00806452 16:0.0107527 20:0.0322581 34:0.00100806 38:0.00276498 51:0.00645161 52:0.00268817 53:0.00358423 54:0.00403226 57:0.0322581 59:0.00509338 67:0.00189753 73:0.0322581 85:0.00134409 86:0.0056926 96:0.00403226 97:0.0107527 103:0.00146628 112:0.016129 116:0.00358423 129:0.00169779 134:0.00537634 140:0.00604839 141:0.00293255 143:0.000701262 145:0.00293255 
1 1 0.2582601895693345 0.06736326031948618 1:0.0666667 4:0.5 8:0.130435 10:0.047619 14:0.25 16:0.333333 20:1 34:0.03125 38:0.0857143 51:0.2 52:0.0833333 53:0.111111 54:0.125 57:1 59:0.157895 67:0.0588235 73:1 85:0.0416667 86:0.176471 96:0.125 97:0.333333 103:0.0454545 112:0.5 116:0.111111 121:0.5 129:0.0526316 134:0.166667 140:0.1875 141:0.0909091 143:0.0217391 145:0.0909091 
1 1 0 0 1:0.0166667 4:0.125 8:0.0271739 10:0.00595238 14:0.03125 16:0.0416667 20:0.125 34:0.00390625 38:0.0107143 51:0.025 52:0.0208333 53:0.0138889 54:0.015625 57:0.125 59:0.0263158 67:0.0110294 73:0.125 85:0.00520833 86:0.0220588 96:0.015625 97:0.0416667 103:0.00568182 112:0.0625 115:0.00892857 116:0.0138889 121:0.0625 123:0.075 129:0.00657895 134:0.0208333 140:0.0234375 141:0.0113636 143:0.00271739 145:0.0113636 
1 1 0 0 1:0.0121212 4:0.0909091 8:0.0237154 10:0.00865801 14:0.0227273 16:0.030303 17:0.0181818 20:0.0909091 25:0.0909091 29:0.004329 34:0.00284091 37:0.0181818 38:0.00779221 51:0.0181818 52:0.0151515 53:0.010101 54:0.0113636 57:0.0909091 59:0.0191388 67:0.00802139 73:0.0909091 74:0.00606061 85:0.00378788 86:0.0160428 88:0.004329 96:0.0113636 97:0.030303 103:0.00413223 112:0.0454545 115:0.00649351 116:0.010101 121:0.0454545 123:0.0545455 129:0.00478469 134:0.0151515 140:0.0227273 141:0.00826446 143:0.00592885 145:0.00826446 
1 1 0 0.382681358776406 1:0.0333333 4:0.25 8:0.0652174 10:0.0238095 14:0.0625 15:0.05 16:0.0833333 17:0.05 20:0.25 25:0.25 29:0.0119048 34:0.015625 37:0.05 38:0.0285714 51:0.05 52:0.0416667 53:0.0277778 54:0.03125 57:0.25 59:0.0526316 67:0.0220588 73:0.25 74:0.0166667 85:0.0104167 86:0.0441176 88:0.0119048 96:0.03125 97:0.0833333 103:0.0227273 112:0.125 115:0.0178571 116:0.0277778 121:0.125 123:0.15 126:0.0357143 129:0.0131579 134:0.0416667 140:0.078125 141:0.0227273 143:0.0163043 145:0.0227273 
1 1 0 1 1:0.0166667 4:0.0833333 8:0.0217391 10:0.0119048 14:0.0208333 15:0.0166667 16:0.0277778 17:0.0166667 20:0.0833333 25:0.0833333 29:0.00396825 34:0.0078125 37:0.0166667 38:0.00952381 51:0.0166667 52:0.0138889 53:0.00925926 54:0.0104167 57:0.0833333 59:0.0175439 67:0.00980392 73:0.0833333 74:0.00555556 85:0.00347222 86:0.0147059 88:0.00396825 96:0.0104167 97:0.0277778 103:0.00757576 106:0.0416667 112:0.0416667 115:0.00595238 116:0.00925926 121:0.0416667 123:0.05 126:0.0119048 129:0.00438596 134:0.0138889 140:0.0260417 141:0.0113636 143:0.00543478 145:0.00757576 
1 1 0 1 1:0.00740741 4:0.037037 8:0.00966184 10:0.00529101 14:0.0185185 15:0.00740741 16:0.0123457 17:0.00740741 20:0.037037 25:0.037037 28:0.00617284 29:0.00176367 31:0.0037037 34:0.00462963 37:0.00740741 38:0.0042328 51:0.00740741 52:0.00617284 53:0.00411523 54:0.00462963 57:0.037037 59:0.00779727 67:0.0043573 73:0.037037 74:0.00246914 85:0.00154321 86:0.00653595 88:0.00176367 96:0.00462963 97:0.0123457 103:0.003367 106:0.0185185 111:0.0123457 112:0.0185185 115:0.0026455 116:0.00823045 121:0.0185185 123:0.0296296 126:0.00529101 129:0.00194932 134:0.00617284 140:0.0115741 141:0.00673401 143:0.00241546 145:0.003367 
1 1 0 0.4617056695290426 1:0.0125 4:0.0625 8:0.0190217 10:0.00892857 14:0.046875 15:0.0125 16:0.0208333 17:0.025 19:0.03125 20:0.0625 25:0.0625 28:0.0104167 29:0.00297619 31:0.00625 34:0.0078125 37:0.0125 38:0.00714286 51:0.0125 52:0.0104167 53:0.0138889 54:0.0078125 57:0.0625 59:0.0131579 65:0.0104167 67:0.00735294 73:0.0625 74:0.00416667 77:0.00694444 85:0.0078125 86:0.0147059 88:0.00595238 96:0.0078125 97:0.0208333 103:0.00568182 106:0.03125 109:0.00892857 111:0.0208333 112:0.03125 115:0.00446429 116:0.0138889 121:0.03125 123:0.05 126:0.00892857 129:0.00328947 134:0.0208333 140:0.0195313 141:0.0113636 143:0.00543478 145:0.00568182 
1 1 0 0.04168485337863391 1:0.0285714 4:0.142857 8:0.0434783 10:0.0204082 14:0.107143 15:0.0285714 16:0.047619 17:0.0571429 19:0.0714286 20:0.142857 25:0.142857 28:0.047619 29:0.00680272 31:0.0142857 34:0.0178571 37:0.0285714 38:0.0163265 49:0.0714286 51:0.0285714 52:0.0357143 53:0.031746 54:0.0178571 57:0.142857 59:0.0300752 65:0.0238095 67:0.0168067 73:0.142857 74:0.00952381 77:0.015873 85:0.0178571 86:0.0336134 88:0.0136054 96:0.0178571 97:0.047619 103:0.012987 106:0.0714286 109:0.0204082 111:0.047619 112:0.0714286 115:0.0102041 116:0.031746 121:0.0714286 123:0.114286 126:0.0204082 129:0.0150376 134:0.047619 140:0.0446429 141:0.0324675 143:0.015528 145:0.012987 
1 1 0 0 1:0.025 4:0.125 8:0.0380435 10:0.0178571 14:0.09375 15:0.025 16:0.0416667 17:0.05 19:0.0625 20:0.125 25:0.125 28:0.0416667 29:0.00595238 31:0.0125 34:0.015625 37:0.025 38:0.0142857 49:0.0625 51:0.025 52:0.03125 53:0.0277778 54:0.03125 57:0.125 59:0.0328947 61:0.0416667 65:0.0208333 67:0.0147059 73:0.125 74:0.00833333 75:0.0416667 77:0.0138889 85:0.015625 86:0.0294118 88:0.0119048 96:0.0234375 97:0.0416667 101:0.0138889 103:0.0170455 106:0.0625 109:0.0178571 111:0.0416667 112:0.0625 115:0.00892857 116:0.0277778 121:0.0625 123:0.1 126:0.0178571 129:0.0131579 134:0.0416667 140:0.0390625 141:0.0284091 143:0.013587 145:0.0113636 
1 1 0 0.03912559588172212 1:0.1 4:0.5 8:0.152174 10:0.0714286 14:0.375 15:0.1 16:0.166667 17:0.2 19:0.25 20:0.5 25:0.5 28:0.166667 29:0.0238095 31:0.05 34:0.0625 37:0.1 38:0.0571429 49:0.25 51:0.1 52:0.125 53:0.111111 54:0.125 57:0.5 59:0.131579 61:0.166667 65:0.0833333 67:0.0588235 73:0.5 74:0.0333333 75:0.166667 77:0.0555556 85:0.0625 86:0.117647 88:0.047619 96:0.09375 97:0.166667 101:0.0555556 103:0.0681818 106:0.25 109:0.0714286 111:0.166667 112:0.25 115:0.0357143 116:0.111111 121:0.25 123:0.4 126:0.0714286 129:0.0526316 134:0.166667 140:0.15625 141:0.136364 143:0.0543478 145:0.0454545 
1 1 0 0 1:0.05 4:0.25 8:0.076087 10:0.047619 14:0.1875 15:0.05 16:0.0833333 17:0.1 19:0.125 20:0.25 25:0.25 28:0.0833333 29:0.0238095 31:0.025 34:0.03125 37:0.05 38:0.0285714 49:0.125 51:0.05 52:0.0833333 53:0.0555556 54:0.0625 57:0.25 59:0.0657895 61:0.0833333 65:0.0416667 67:0.0294118 73:0.25 74:0.0166667 75:0.0833333 77:0.0277778 85:0.03125 86:0.0588235 88:0.0238095 96:0.046875 97:0.0833333 101:0.0277778 103:0.0340909 106:0.125 109:0.0357143 111:0.0833333 112:0.125 115:0.0178571 116:0.0555556 121:0.125 123:0.2 126:0.0357143 129:0.0263158 134:0.0833333 140:0.078125 141:0.0795455 143:0.048913 145:0.0227273 
1 1 0 0 1:0.04 4:0.2 8:0.0608696 10:0.0380952 14:0.15 15:0.04 16:0.0666667 17:0.08 19:0.1 20:0.2 25:0.2 28:0.0666667 29:0.0190476 31:0.02 34:0.025 37:0.04 38:0.0228571 49:0.1 51:0.04 52:0.0666667 53:0.0444444 54:0.05 57:0.2 59:0.0526316 61:0.0666667 65:0.0333333 67:0.0235294 73:0.2 74:0.0133333 75:0.0666667 77:0.0222222 85:0.025 86:0.0470588 88:0.0190476 96:0.0375 97:0.0666667 101:0.0222222 103:0.0272727 106:0.1 109:0.0285714 111:0.0666667 112:0.1 115:0.0142857 116:0.0444444 121:0.1 123:0.16 126:0.0285714 129:0.0210526 134:0.0666667 140:0.0625 141:0.0636364 143:0.0391304 145:0.0181818 
1 1 0 0 1:0.04 4:0.2 8:0.0608696 10:0.0380952 14:0.15 15:0.04 16:0.0666667 17:0.08 19:0.1 20:0.2 25:0.2 26:0.0153846 28:0.0666667 29:0.0190476 31:0.02 34:0.025 37:0.04 38:0.0228571 49:0.1 51:0.04 52:0.0666667 53:0.0444444 54:0.05 57:0.2 59:0.0526316 61:0.0666667 65:0.0333333 67:0.0235294 73:0.2 74:0.0133333 75:0.1 77:0.0222222 85:0.025 86:0.0470588 88:0.0190476 96:0.0375 97:0.0666667 101:0.0222222 103:0.0272727 106:0.1 109:0.0285714 111:0.0666667 112:0.1 115:0.0142857 116:0.0444444 121:0.1 123:0.16 126:0.0285714 129:0.0210526 134:0.0666667 140:0.0625 141:0.0636364 143:0.0391304 145:0.0181818 
1 1 0.4514156520838127 0.4468759138869326 1:0.2 4:1 8:0.304348 10:0.190476 14:0.75 15:0.2 16:0.333333 17:0.4 19:0.5 20:1 25:1 26:0.0769231 28:0.333333 29:0.0952381 31:0.1 34:0.125 37:0.2 38:0.114286 49:0.5 51:0.2 52:0.333333 53:0.222222 54:0.25 57:1 59:0.263158 61:0.333333 65:0.166667 67:0.117647 73:1 74:0.0666667 75:0.5 77:0.111111 85:0.125 86:0.235294 88:0.0952381 96:0.1875 97:0.333333 101:0.111111 103:0.136364 106:0.5 109:0.142857 111:0.333333 112:0.5 115:0.0714286 116:0.222222 121:0.5 123:0.8 126:0.142857 129:0.105263 134:0.333333 140:0.3125 141:0.318182 143:0.195652 145:0.0909091 
1 1 0.6605535902766208 0 1:0.0333333 4:0.166667 8:0.0507246 10:0.031746 14:0.125 15:0.0333333 16:0.0555556 17:0.0666667 19:0.0833333 20:0.166667 25:0.166667 26:0.0128205 28:0.0555556 29:0.015873 31:0.0166667 34:0.0208333 37:0.0333333 38:0.0190476 42:0.166667 49:0.0833333 51:0.0333333 52:0.0555556 53:0.037037 54:0.0625 57:0.166667 58:0.0555556 59:0.0438596 61:0.0555556 65:0.0277778 67:0.0245098 73:0.166667 74:0.0111111 75:0.0833333 77:0.0185185 85:0.0208333 86:0.0392157 88:0.015873 96:0.03125 97:0.0555556 101:0.0185185 103:0.0227273 106:0.0833333 109:0.0238095 111:0.0555556 112:0.0833333 115:0.0119048 116:0.037037 121:0.0833333 123:0.133333 124:0.0833333 126:0.0238095 129:0.0263158 134:0.0555556 140:0.0520833 141:0.0530303 143:0.0326087 145:0.0151515 
1 1 0.3126306752228916 0 1:0.02 4:0.1 8:0.0304348 10:0.0190476 14:0.075 15:0.02 16:0.0333333 17:0.04 19:0.05 20:0.1 25:0.1 26:0.00769231 28:0.05 29:0.00952381 30:0.02 31:0.01 34:0.0125 36:0.05 37:0.02 38:0.0142857 42:0.1 49:0.05 51:0.02 52:0.0416667 53:0.0222222 54:0.0375 57:0.1 58:0.0333333 59:0.0263158 60:0.025 61:0.0333333 65:0.0166667 67:0.0147059 73:0.1 74:0.00666667 75:0.05 77:0.0111111 85:0.0125 86:0.0294118 88:0.0190476 90:0.05 96:0.01875 97:0.0333333 101:0.0111111 103:0.0136364 106:0.05 109:0.0428571 111:0.0333333 112:0.05 115:0.00714286 116:0.0222222 121:0.05 123:0.08 124:0.1 126:0.0142857 129:0.0157895 134:0.0333333 136:0.0333333 140:0.03125 141:0.0318182 143:0.023913 145:0.00909091 
1 1 0.9608008332528617 0 1:0.025 4:0.125 8:0.0380435 10:0.0238095 14:0.09375 15:0.025 16:0.0416667 17:0.05 19:0.0625 20:0.125 25:0.125 26:0.00961538 28:0.0625 29:0.0119048 30:0.025 31:0.0125 34:0.015625 36:0.0625 37:0.025 38:0.0178571 42:0.125 49:0.0625 51:0.025 52:0.0520833 53:0.0277778 54:0.046875 57:0.125 58:0.0416667 59:0.0328947 60:0.03125 61:0.0416667 65:0.0208333 67:0.0183824 73:0.125 74:0.00833333 75:0.0625 77:0.0138889 85:0.015625 86:0.0367647 88:0.0238095 90:0.0625 96:0.0234375 97:0.0416667 101:0.0138889 103:0.0170455 106:0.0625 109:0.0535714 111:0.0416667 112:0.0625 115:0.00892857 116:0.0277778 121:0.0625 123:0.1 124:0.125 126:0.0178571 129:0.0197368 134:0.0416667 136:0.0416667 139:0.0625 140:0.0390625 141:0.0397727 143:0.0298913 145:0.0113636 
1 1 1 0.3540012363943256 1:0.04 4:0.2 8:0.0608696 10:0.0380952 14:0.15 15:0.04 16:0.0666667 17:0.08 19:0.1 20:0.2 25:0.2 26:0.0153846 28:0.1 29:0.0190476 30:0.04 31:0.02 34:0.025 36:0.1 37:0.04 38:0.0285714 40:0.04 42:0.2 49:0.1 51:0.04 52:0.0833333 53:0.0444444 54:0.075 57:0.2 58:0.0666667 59:0.0526316 60:0.05 61:0.0666667 65:0.0333333 67:0.0294118 73:0.2 74:0.0133333 75:0.1 77:0.0222222 85:0.025 86:0.0588235 88:0.0380952 90:0.1 93:0.025 96:0.0375 97:0.0666667 101:0.0222222 103:0.0272727 106:0.1 109:0.0857143 111:0.0666667 112:0.1 115:0.0142857 116:0.0444444 121:0.1 123:0.16 124:0.2 126:0.0285714 129:0.0315789 134:0.0666667 136:0.0666667 139:0.1 140:0.0625 141:0.0636364 143:0.0478261 145:0.0181818 
1 1 0 0 1:0.00909091 4:0.0454545 8:0.013834 10:0.00865801 14:0.0340909 15:0.00909091 16:0.0151515 17:0.0181818 19:0.0227273 20:0.0454545 25:0.0454545 26:0.0034965 28:0.0227273 29:0.004329 30:0.00909091 31:0.00454545 34:0.00568182 36:0.0227273 37:0.00909091 38:0.00779221 40:0.00909091 42:0.0454545 49:0.0227273 51:0.00909091 52:0.0189394 53:0.010101 54:0.0170455 57:0.0454545 58:0.0151515 59:0.0119617 60:0.0113636 61:0.0151515 65:0.00757576 67:0.00935829 73:0.0454545 74:0.0030303 75:0.0227273 77:0.00505051 82:0.0113636 85:0.00568182 86:0.013369 88:0.00865801 90:0.0227273 93:0.00568182 96:0.0113636 97:0.0151515 101:0.00505051 103:0.00826446 106:0.0227273 109:0.0194805 111:0.0151515 112:0.0227273 115:0.00324675 116:0.010101 121:0.0227273 123:0.0363636 124:0.0454545 126:0.00649351 129:0.00717703 134:0.0151515 136:0.0151515 139:0.0227273 140:0.0142045 141:0.0144628 143:0.0128458 145:0.00826446 
1 1 0 0.3103138244618561 1:0.0222222 4:0.111111 8:0.0338164 10:0.021164 14:0.0833333 15:0.0222222 16:0.037037 17:0.0444444 19:0.0555556 20:0.111111 24:0.0555556 25:0.111111 26:0.017094 28:0.0555556 29:0.010582 30:0.0222222 31:0.0111111 34:0.0173611 36:0.0555556 37:0.0222222 38:0.0222222 40:0.0222222 42:0.111111 47:0.111111 49:0.0555556 51:0.0222222 52:0.0555556 53:0.0246914 54:0.0416667 57:0.111111 58:0.037037 59:0.0292398 60:0.0277778 61:0.037037 63:0.111111 65:0.0185185 67:0.0228758 73:0.111111 74:0.0222222 75:0.0555556 77:0.0123457 82:0.0277778 85:0.0185185 86:0.0326797 88:0.026455 90:0.0555556 93:0.0138889 96:0.0277778 97:0.037037 101:0.0246914 103:0.020202 106:0.0555556 109:0.047619 111:0.037037 112:0.0555556 115:0.0238095 116:0.0246914 121:0.0555556 123:0.0888889 124:0.111111 126:0.015873 129:0.0175439 133:0.00617284 134:0.037037 136:0.037037 139:0.0555556 140:0.0347222 141:0.0353535 142:0.0138889 143:0.0338164 145:0.020202 
1 1 0 0 1:0.0285714 4:0.142857 8:0.0434783 10:0.0272109 14:0.107143 15:0.0285714 16:0.047619 17:0.0571429 19:0.0714286 20:0.142857 24:0.0714286 25:0.142857 26:0.021978 28:0.0714286 29:0.0136054 30:0.0285714 31:0.0142857 34:0.0223214 36:0.0714286 37:0.0285714 38:0.0285714 40:0.0285714 42:0.142857 47:0.142857 49:0.0714286 51:0.0285714 52:0.0714286 53:0.031746 54:0.0535714 57:0.142857 58:0.047619 59:0.037594 60:0.0357143 61:0.0952381 63:0.142857 65:0.0238095 67:0.0294118 73:0.142857 74:0.0285714 75:0.0714286 77:0.015873 82:0.0357143 85:0.0238095 86:0.0420168 88:0.0340136 90:0.0714286 93:0.0178571 96:0.0357143 97:0.047619 101:0.031746 103:0.025974 106:0.0714286 109:0.0612245 111:0.047619 112:0.0714286 115:0.0306122 116:0.031746 121:0.0714286 123:0.114286 124:0.142857 126:0.0204082 129:0.0225564 133:0.00793651 134:0.047619 136:0.047619 139:0.0714286 140:0.0446429 141:0.0454545 142:0.0178571 143:0.0465839 145:0.025974 
1 1 0 0 1:0.025 4:0.125 8:0.0380435 10:0.0238095 14:0.09375 15:0.025 16:0.0416667 17:0.05 19:0.0625 20:0.125 24:0.125 25:0.125 26:0.0192308 28:0.0625 29:0.0119048 30:0.025 31:0.0125 34:0.0234375 36:0.0625 37:0.025 38:0.025 40:0.025 42:0.125 47:0.125 49:0.0625 51:0.025 52:0.0625 53:0.0277778 54:0.046875 57:0.125 58:0.0416667 59:0.0328947 60:0.03125 61:0.0833333 63:0.125 65:0.0208333 67:0.0257353 73:0.125 74:0.025 75:0.0625 77:0.0138889 82:0.03125 85:0.0260417 86:0.0367647 88:0.0297619 90:0.0625 92:0.125 93:0.015625 96:0.03125 97:0.0416667 101:0.0416667 102:0.125 103:0.0227273 106:0.0625 109:0.0535714 111:0.0416667 112:0.0625 115:0.0267857 116:0.0416667 121:0.0625 123:0.1 124:0.125 126:0.0178571 129:0.0197368 133:0.00694444 134:0.0416667 136:0.0416667 138:0.125 139:0.0625 140:0.0390625 141:0.0397727 142:0.015625 143:0.0407609 145:0.0227273 
1 1 0.3767782675662644 0.08550174377350776 1:0.1 4:0.5 8:0.152174 10:0.0952381 14:0.375 15:0.1 16:0.166667 17:0.2 19:0.25 20:0.5 24:0.5 25:0.5 26:0.0769231 28:0.25 29:0.047619 30:0.1 31:0.05 34:0.109375 36:0.25 37:0.1 38:0.1 40:0.1 42:0.5 47:0.5 49:0.25 51:0.1 52:0.25 53:0.111111 54:0.1875 57:0.5 58:0.166667 59:0.131579 60:0.125 61:0.333333 63:0.5 65:0.0833333 67:0.102941 73:0.5 74:0.1 75:0.25 77:0.0555556 82:0.125 85:0.104167 86:0.147059 88:0.119048 90:0.25 92:0.5 93:0.0625 96:0.125 97:0.166667 101:0.166667 102:0.5 103:0.0909091 106:0.25 109:0.214286 111:0.166667 112:0.25 115:0.107143 116:0.166667 121:0.25 123:0.4 124:0.5 126:0.0714286 129:0.0789474 133:0.0277778 134:0.166667 136:0.166667 138:0.5 139:0.25 140:0.15625 141:0.159091 142:0.0625 143:0.163043 145:0.0909091 
0.5870420114253228 1 0 0 1:0.0666667 4:0.333333 7:0.333333 8:0.101449 10:0.0793651 12:0.333333 13:0.333333 14:0.25 15:0.0666667 16:0.111111 17:0.133333 19:0.166667 20:0.333333 24:0.333333 25:0.333333 26:0.0769231 27:0.333333 28:0.166667 29:0.031746 30:0.0666667 31:0.0333333 32:0.333333 34:0.0833333 36:0.166667 37:0.0666667 38:0.0666667 40:0.133333 42:0.333333 47:0.333333 49:0.166667 50:0.333333 51:0.0666667 52:0.166667 53:0.0740741 54:0.125 57:0.333333 58:0.111111 59:0.0877193 60:0.0833333 61:0.222222 63:0.333333 65:0.111111 67:0.0686275 68:0.333333 73:0.333333 74:0.0666667 75:0.166667 77:0.037037 82:0.0833333 83:0.333333 85:0.0694444 86:0.137255 88:0.0793651 90:0.166667 92:0.333333 93:0.0416667 96:0.0833333 97:0.111111 98:0.333333 101:0.111111 102:0.333333 103:0.0606061 104:0.333333 106:0.166667 107:0.333333 108:0.333333 109:0.142857 111:0.111111 112:0.166667 115:0.0714286 116:0.111111 119:0.333333 120:0.333333 121:0.166667 123:0.266667 124:0.333333 126:0.047619 129:0.0526316 133:0.037037 134:0.111111 136:0.111111 138:0.333333 139:0.166667 140:0.104167 141:0.106061 142:0.0416667 143:0.108696 145:0.0606061 
0 1 0 0 1:0.0285714 2:0.142857 4:0.142857 7:0.142857 8:0.0434783 10:0.0340136 12:0.142857 13:0.142857 14:0.107143 15:0.0285714 16:0.047619 17:0.0571429 19:0.0714286 20:0.142857 24:0.142857 25:0.142857 26:0.032967 27:0.142857 28:0.0714286 29:0.0136054 30:0.0285714 31:0.0142857 32:0.142857 34:0.0357143 36:0.0714286 37:0.0285714 38:0.0285714 40:0.0571429 42:0.142857 47:0.142857 49:0.0714286 50:0.142857 51:0.0285714 52:0.0714286 53:0.031746 54:0.0535714 57:0.142857 58:0.047619 59:0.0451128 60:0.0357143 61:0.0952381 63:0.142857 65:0.047619 67:0.0294118 68:0.142857 73:0.142857 74:0.0285714 75:0.0714286 77:0.015873 82:0.0357143 83:0.142857 85:0.0297619 86:0.0588235 88:0.0340136 90:0.0714286 92:0.142857 93:0.0178571 96:0.0357143 97:0.047619 98:0.142857 101:0.047619 102:0.142857 103:0.025974 104:0.142857 106:0.0714286 107:0.142857 108:0.142857 109:0.0612245 111:0.047619 112:0.0714286 115:0.0306122 116:0.047619 119:0.142857 120:0.142857 121:0.0714286 123:0.114286 124:0.142857 126:0.0204082 129:0.0225564 133:0.015873 134:0.047619 136:0.047619 138:0.142857 139:0.0714286 140:0.0446429 141:0.0454545 142:0.0178571 143:0.0465839 145:0.025974 
0 1 0 0 1:0.04 2:0.2 4:0.2 7:0.2 8:0.0695652 10:0.047619 12:0.2 13:0.2 14:0.15 15:0.04 16:0.0666667 17:0.08 19:0.1 20:0.2 24:0.2 25:0.2 26:0.0615385 27:0.2 28:0.1 29:0.0190476 30:0.04 31:0.02 32:0.2 34:0.05 36:0.1 37:0.04 38:0.04 40:0.08 42:0.2 47:0.2 49:0.1 50:0.2 51:0.04 52:0.1 53:0.0444444 54:0.075 57:0.2 58:0.0666667 59:0.0736842 60:0.05 61:0.133333 63:0.2 65:0.0666667 67:0.0411765 68:0.2 73:0.2 74:0.04 75:0.1 77:0.0222222 82:0.05 83:0.2 85:0.0416667 86:0.0941176 88:0.047619 90:0.1 92:0.2 93:0.025 96:0.05 97:0.0666667 98:0.2 101:0.0666667 102:0.2 103:0.0454545 104:0.2 106:0.1 107:0.2 108:0.2 109:0.0857143 111:0.0666667 112:0.1 115:0.0428571 116:0.0666667 119:0.2 120:0.2 121:0.1 123:0.16 124:0.2 126:0.0285714 127:0.0333333 129:0.0315789 133:0.0222222 134:0.0666667 136:0.0666667 138:0.2 139:0.1 140:0.0625 141:0.0636364 142:0.025 143:0.0652174 145:0.0363636 
1 1 0.000494862828517309 0.2359962221818745 1:0.1 2:0.5 4:0.5 7:0.5 8:0.173913 10:0.119048 12:0.5 13:0.5 14:0.375 15:0.1 16:0.166667 17:0.2 19:0.25 20:0.5 24:0.5 25:0.5 26:0.153846 27:0.5 28:0.25 29:0.047619 30:0.1 31:0.1 32:0.5 34:0.125 36:0.25 37:0.1 38:0.1 40:0.2 42:0.5 47:0.5 49:0.25 50:0.5 51:0.1 52:0.25 53:0.111111 54:0.1875 57:0.5 58:0.166667 59:0.184211 60:0.125 61:0.333333 63:0.5 65:0.166667 67:0.102941 68:0.5 73:0.5 74:0.1 75:0.25 77:0.0555556 82:0.125 83:0.5 85:0.104167 86:0.235294 88:0.119048 90:0.25 92:0.5 93:0.0625 96:0.125 97:0.166667 98:0.5 101:0.166667 102:0.5 103:0.113636 104:0.5 106:0.25 107:0.5 108:0.5 109:0.214286 111:0.166667 112:0.25 115:0.107143 116:0.166667 119:0.5 120:0.5 121:0.25 123:0.4 124:0.5 126:0.0714286 127:0.0833333 129:0.0789474 133:0.0555556 134:0.166667 136:0.166667 138:0.5 139:0.25 140:0.15625 141:0.159091 142:0.0625 143:0.163043 145:0.0909091 
0 1 0 0 1:0.0181818 2:0.0909091 4:0.0909091 7:0.0909091 8:0.0316206 10:0.021645 12:0.0909091 13:0.0909091 14:0.0681818 15:0.0181818 16:0.030303 17:0.0363636 19:0.0454545 20:0.0909091 24:0.0909091 25:0.0909091 26:0.027972 27:0.0909091 28:0.0454545 29:0.00865801 30:0.0181818 31:0.0181818 32:0.0909091 34:0.0255682 36:0.0454545 37:0.0181818 38:0.0181818 40:0.0363636 42:0.0909091 47:0.0909091 49:0.0454545 50:0.0909091 51:0.0181818 52:0.0454545 53:0.020202 54:0.0340909 57:0.0909091 58:0.030303 59:0.0334928 60:0.0227273 61:0.0606061 63:0.0909091 65:0.030303 67:0.0187166 68:0.0909091 73:0.0909091 74:0.0181818 75:0.0454545 77:0.010101 82:0.0227273 83:0.0909091 85:0.0189394 86:0.0427807 88:0.021645 90:0.0454545 92:0.0909091 93:0.0113636 96:0.0227273 97:0.030303 98:0.0909091 101:0.030303 102:0.0909091 103:0.0206612 104:0.0909091 106:0.0454545 107:0.0909091 108:0.0909091 109:0.038961 111:0.030303 112:0.0454545 115:0.0194805 116:0.040404 119:0.0909091 120:0.0909091 121:0.0454545 123:0.0727273 124:0.0909091 126:0.012987 127:0.0151515 129:0.0143541 133:0.010101 134:0.030303 136:0.030303 138:0.0909091 139:0.0454545 140:0.0340909 141:0.0289256 142:0.0113636 143:0.0296443 145:0.0165289 
0 1 0 0 1:0.0105263 2:0.0526316 4:0.0526316 7:0.0526316 8:0.0183066 10:0.0125313 12:0.0526316 13:0.0526316 14:0.0526316 15:0.0105263 16:0.0175439 17:0.0210526 19:0.0263158 20:0.0526316 24:0.0526316 25:0.0526316 26:0.0161943 27:0.0526316 28:0.0263158 29:0.0100251 30:0.0105263 31:0.0105263 32:0.0526316 34:0.0148026 36:0.0263158 37:0.0105263 38:0.0105263 40:0.0210526 42:0.0526316 47:0.0526316 49:0.0263158 50:0.0526316 51:0.0105263 52:0.0263158 53:0.0116959 54:0.0263158 57:0.0526316 58:0.0350877 59:0.0193906 60:0.0131579 61:0.0350877 63:0.0526316 65:0.0175439 67:0.0108359 68:0.0526316 73:0.0526316 74:0.0105263 75:0.0263158 77:0.00584795 82:0.0131579 83:0.0526316 85:0.0109649 86:0.0247678 88:0.0125313 90:0.0263158 92:0.0526316 93:0.00657895 96:0.0131579 97:0.0175439 98:0.0526316 101:0.0175439 102:0.0526316 103:0.0119617 104:0.0526316 106:0.0263158 107:0.0526316 108:0.0526316 109:0.0225564 111:0.0175439 112:0.0263158 115:0.0112782 116:0.0233918 119:0.0526316 120:0.0526316 121:0.0263158 123:0.0421053 124:0.0526316 126:0.0075188 127:0.00877193 129:0.00831025 132:0.0105263 133:0.00584795 134:0.0175439 136:0.0175439 138:0.0526316 139:0.0263158 140:0.0197368 141:0.0191388 142:0.00657895 143:0.0171625 145:0.00956938 
0 1 0 0 1:0.0285714 2:0.142857 4:0.142857 7:0.142857 8:0.0496894 10:0.0340136 12:0.142857 13:0.142857 14:0.142857 15:0.0285714 16:0.047619 17:0.0571429 19:0.0714286 20:0.142857 24:0.142857 25:0.142857 26:0.043956 27:0.142857 28:0.0714286 29:0.0272109 30:0.0285714 31:0.0285714 32:0.142857 34:0.0401786 36:0.0714286 37:0.0285714 38:0.0285714 40:0.0571429 42:0.142857 47:0.142857 49:0.0714286 50:0.142857 51:0.0285714 52:0.0714286 53:0.031746 54:0.0714286 57:0.142857 58:0.0952381 59:0.0526316 60:0.0357143 61:0.0952381 63:0.142857 65:0.047619 67:0.0294118 68:0.142857 73:0.142857 74:0.0285714 75:0.0714286 77:0.015873 82:0.0357143 83:0.142857 85:0.0357143 86:0.0672269 88:0.0408163 90:0.0714286 92:0.142857 93:0.0178571 96:0.0357143 97:0.047619 98:0.142857 101:0.047619 102:0.142857 103:0.038961 104:0.142857 106:0.0714286 107:0.142857 108:0.142857 109:0.0612245 111:0.047619 112:0.0714286 115:0.0306122 116:0.0634921 119:0.142857 120:0.142857 121:0.0714286 123:0.114286 124:0.142857 126:0.0204082 127:0.0238095 129:0.0225564 132:0.0285714 133:0.015873 134:0.047619 136:0.047619 138:0.142857 139:0.142857 140:0.0535714 141:0.0519481 142:0.0178571 143:0.0465839 145:0.025974 
1 1 0 0 1:0.0888889 2:0.333333 4:0.333333 7:0.333333 8:0.115942 10:0.0793651 12:0.333333 13:0.333333 14:0.333333 15:0.0666667 16:0.111111 17:0.133333 19:0.166667 20:0.333333 24:0.333333 25:0.333333 26:0.102564 27:0.333333 28:0.166667 29:0.0634921 30:0.0666667 31:0.0666667 32:0.333333 34:0.09375 36:0.166667 37:0.0666667 38:0.0666667 40:0.133333 42:0.333333 47:0.333333 49:0.166667 50:0.333333 51:0.0666667 52:0.166667 53:0.111111 54:0.166667 57:0.333333 58:0.222222 59:0.122807 60:0.0833333 61:0.222222 63:0.333333 65:0.111111 67:0.0686275 68:0.333333 71:0.166667 73:0.333333 74:0.0666667 75:0.166667 77:0.037037 82:0.0833333 83:0.333333 85:0.0972222 86:0.156863 88:0.0952381 90:0.166667 92:0.333333 93:0.0416667 96:0.0833333 97:0.111111 98:0.333333 101:0.111111 102:0.333333 103:0.0909091 104:0.333333 106:0.166667 107:0.333333 108:0.333333 109:0.142857 111:0.111111 112:0.166667 115:0.0714286 116:0.148148 119:0.333333 120:0.333333 121:0.166667 123:0.266667 124:0.333333 126:0.047619 127:0.0555556 129:0.0701754 132:0.0666667 133:0.037037 134:0.111111 136:0.111111 138:0.333333 139:0.333333 140:0.125 141:0.121212 142:0.0416667 143:0.108696 145:0.0606061 
0 1 0 0 1:0.0266667 2:0.1 4:0.1 7:0.1 8:0.0391304 10:0.0238095 12:0.1 13:0.1 14:0.1 15:0.04 16:0.0333333 17:0.04 19:0.05 20:0.1 24:0.1 25:0.1 26:0.0307692 27:0.1 28:0.05 29:0.0285714 30:0.02 31:0.02 32:0.1 34:0.028125 36:0.05 37:0.02 38:0.02 40:0.04 42:0.1 47:0.1 49:0.05 50:0.1 51:0.02 52:0.05 53:0.0333333 54:0.05 57:0.1 58:0.0666667 59:0.0368421 60:0.025 61:0.0666667 63:0.1 65:0.0333333 67:0.0205882 68:0.1 71:0.05 73:0.1 74:0.02 75:0.05 77:0.0111111 82:0.025 83:0.1 85:0.0291667 86:0.0470588 88:0.0285714 90:0.05 92:0.1 93:0.0125 96:0.025 97:0.0333333 98:0.1 101:0.0333333 102:0.1 103:0.0272727 104:0.1 106:0.05 107:0.1 108:0.1 109:0.0428571 111:0.0333333 112:0.05 115:0.0214286 116:0.0444444 119:0.1 120:0.1 121:0.05 123:0.08 124:0.1 126:0.0142857 127:0.0166667 129:0.0315789 132:0.02 133:0.0111111 134:0.0333333 136:0.0333333 138:0.1 139:0.1 140:0.0375 141:0.0363636 142:0.0125 143:0.0326087 145:0.0181818 
0 1 0 0 1:0.0296296 2:0.111111 4:0.111111 7:0.111111 8:0.0434783 10:0.026455 12:0.111111 13:0.111111 14:0.111111 15:0.0444444 16:0.037037 17:0.0444444 19:0.0555556 20:0.111111 24:0.111111 25:0.111111 26:0.034188 27:0.111111 28:0.0555556 29:0.031746 30:0.0222222 31:0.0222222 32:0.111111 34:0.03125 36:0.0555556 37:0.0222222 38:0.0253968 40:0.0444444 42:0.111111 47:0.111111 49:0.0555556 50:0.111111 51:0.0222222 52:0.0555556 53:0.037037 54:0.0555556 57:0.111111 58:0.0740741 59:0.0409357 60:0.0277778 61:0.0740741 63:0.111111 65:0.037037 67:0.0228758 68:0.111111 71:0.0555556 73:0.111111 74:0.0222222 75:0.0555556 77:0.0123457 82:0.0277778 83:0.111111 85:0.0324074 86:0.0522876 88:0.031746 90:0.0555556 92:0.111111 93:0.0138889 96:0.0277778 97:0.037037 98:0.111111 101:0.037037 102:0.111111 103:0.030303 104:0.111111 106:0.0555556 107:0.111111 108:0.111111 109:0.047619 111:0.037037 112:0.0555556 114:0.037037 115:0.0238095 116:0.0493827 119:0.111111 120:0.111111 121:0.0555556 123:0.0888889 124:0.111111 126:0.015873 127:0.0185185 129:0.0350877 132:0.0222222 133:0.0123457 134:0.037037 136:0.0740741 138:0.111111 139:0.111111 140:0.0416667 141:0.040404 142:0.0138889 143:0.0362319 145:0.020202 
0 1 0 0 1:0.0126984 2:0.047619 4:0.047619 7:0.047619 8:0.0186335 10:0.0113379 12:0.047619 13:0.047619 14:0.047619 15:0.0190476 16:0.015873 17:0.0190476 19:0.0238095 20:0.047619 24:0.047619 25:0.047619 26:0.014652 27:0.047619 28:0.0238095 29:0.0136054 30:0.00952381 31:0.00952381 32:0.047619 34:0.0133929 36:0.0238095 37:0.00952381 38:0.0122449 40:0.0190476 42:0.047619 44:0.0238095 47:0.047619 49:0.0238095 50:0.047619 51:0.00952381 52:0.0238095 53:0.015873 54:0.0238095 57:0.047619 58:0.031746 59:0.0175439 60:0.0119048 61:0.031746 63:0.047619 65:0.015873 67:0.00980392 68:0.047619 71:0.0238095 73:0.047619 74:0.00952381 75:0.0238095 77:0.010582 82:0.0119048 83:0.047619 85:0.0138889 86:0.022409 88:0.015873 90:0.0238095 92:0.047619 93:0.00595238 96:0.0119048 97:0.015873 98:0.047619 101:0.015873 102:0.047619 103:0.012987 104:0.047619 106:0.0238095 107:0.047619 108:0.047619 109:0.0204082 111:0.015873 112:0.0238095 114:0.015873 115:0.0102041 116:0.021164 119:0.047619 120:0.047619 121:0.0238095 123:0.0380952 124:0.047619 126:0.00680272 127:0.00793651 129:0.0150376 132:0.0190476 133:0.00529101 134:0.015873 136:0.031746 138:0.047619 139:0.047619 140:0.0178571 141:0.017316 142:0.00595238 143:0.015528 145:0.00865801 
1 1 0.08563249419548449 0.8781740927722003 1:0.133333 2:0.5 4:0.5 7:0.5 8:0.195652 10:0.119048 12:0.5 13:0.5 14:0.5 15:0.2 16:0.166667 17:0.2 19:0.25 20:0.5 24:0.5 25:0.5 26:0.153846 27:0.5 28:0.25 29:0.142857 30:0.1 31:0.1 32:0.5 34:0.140625 36:0.25 37:0.1 38:0.142857 40:0.2 42:0.5 44:0.25 47:0.5 49:0.25 50:0.5 51:0.1 52:0.25 53:0.166667 54:0.25 57:0.5 58:0.333333 59:0.184211 60:0.125 61:0.333333 63:0.5 65:0.166667 67:0.102941 68:0.5 71:0.25 73:0.5 74:0.1 75:0.25 77:0.111111 82:0.125 83:0.5 85:0.145833 86:0.235294 88:0.166667 90:0.25 92:0.5 93:0.0625 96:0.125 97:0.166667 98:0.5 101:0.166667 102:0.5 103:0.136364 104:0.5 106:0.25 107:0.5 108:0.5 109:0.214286 111:0.166667 112:0.25 114:0.166667 115:0.107143 116:0.222222 119:0.5 120:0.5 121:0.25 123:0.4 124:0.5 126:0.0714286 127:0.0833333 129:0.157895 132:0.2 133:0.0555556 134:0.166667 136:0.333333 138:0.5 139:0.5 140:0.1875 141:0.181818 142:0.0625 143:0.163043 145:0.0909091 
1 1 0 1 1:0.133333 2:0.5 4:0.5 7:0.5 8:0.195652 10:0.119048 12:0.5 13:0.5 14:0.5 15:0.2 16:0.166667 17:0.2 19:0.25 20:0.5 24:0.5 25:0.5 26:0.153846 27:0.5 28:0.25 29:0.142857 30:0.1 31:0.1 32:0.5 34:0.140625 36:0.25 37:0.1 38:0.142857 40:0.2 42:0.5 44:0.25 47:0.5 49:0.25 50:0.5 51:0.1 52:0.25 53:0.166667 54:0.25 57:0.5 58:0.333333 59:0.184211 60:0.125 61:0.333333 63:0.5 65:0.166667 67:0.102941 68:0.5 71:0.25 73:0.5 74:0.133333 75:0.25 77:0.111111 82:0.125 83:0.5 85:0.145833 86:0.235294 88:0.166667 90:0.25 92:0.5 93:0.0625 96:0.125 97:0.166667 98:0.5 101:0.166667 102:0.5 103:0.136364 104:0.5 106:0.25 107:0.5 108:0.5 109:0.214286 111:0.166667 112:0.25 114:0.166667 115:0.107143 116:0.222222 119:0.5 120:0.5 121:0.25 123:0.4 124:0.5 126:0.0714286 127:0.0833333 129:0.157895 132:0.2 133:0.0555556 134:0.166667 136:0.333333 138:0.5 139:0.5 140:0.1875 141:0.181818 142:0.0625 143:0.163043 145:0.0909091 
0 1 0 0 1:0.0380952 2:0.142857 4:0.142857 7:0.142857 8:0.0621118 10:0.0340136 12:0.142857 13:0.142857 14:0.142857 15:0.0571429 16:0.047619 17:0.0571429 19:0.0714286 20:0.142857 24:0.142857 25:0.142857 26:0.043956 27:0.142857 28:0.0714286 29:0.0408163 30:0.0285714 31:0.0285714 32:0.142857 34:0.0401786 36:0.0714286 37:0.0285714 38:0.0408163 40:0.0571429 42:0.142857 44:0.0714286 47:0.142857 49:0.0714286 50:0.142857 51:0.0285714 52:0.0714286 53:0.047619 54:0.0714286 57:0.142857 58:0.0952381 59:0.0526316 60:0.0357143 61:0.0952381 63:0.142857 65:0.047619 67:0.0294118 68:0.142857 71:0.0714286 73:0.142857 74:0.0380952 75:0.0714286 77:0.031746 82:0.0357143 83:0.142857 85:0.0416667 86:0.0672269 88:0.047619 90:0.0714286 92:0.142857 93:0.0178571 96:0.0357143 97:0.047619 98:0.142857 101:0.047619 102:0.142857 103:0.038961 104:0.142857 106:0.0714286 107:0.142857 108:0.142857 109:0.0612245 111:0.047619 112:0.0714286 114:0.047619 115:0.0306122 116:0.0634921 119:0.142857 120:0.142857 121:0.0714286 123:0.114286 124:0.142857 126:0.0204082 127:0.0238095 129:0.0451128 132:0.0857143 133:0.015873 134:0.047619 136:0.0952381 138:0.142857 139:0.142857 140:0.0535714 141:0.0584416 142:0.0178571 143:0.0465839 145:0.025974 
0.8485596711309251 1 0 0 1:0.0666667 2:0.25 4:0.25 7:0.25 8:0.108696 10:0.0595238 12:0.25 13:0.25 14:0.25 15:0.1 16:0.0833333 17:0.1 19:0.125 20:0.25 24:0.25 25:0.25 26:0.0769231 27:0.25 28:0.125 29:0.0714286 30:0.05 31:0.05 32:0.25 34:0.0703125 36:0.125 37:0.05 38:0.0714286 40:0.1 42:0.25 44:0.125 47:0.25 49:0.125 50:0.25 51:0.05 52:0.125 53:0.0833333 54:0.125 57:0.25 58:0.166667 59:0.0921053 60:0.0625 61:0.166667 63:0.25 65:0.0833333 67:0.0514706 68:0.25 71:0.125 73:0.25 74:0.0666667 75:0.125 77:0.0555556 82:0.0625 83:0.25 85:0.0833333 86:0.117647 88:0.0833333 90:0.125 92:0.25 93:0.03125 96:0.0625 97:0.0833333 98:0.25 101:0.0833333 102:0.25 103:0.0681818 104:0.25 106:0.125 107:0.25 108:0.25 109:0.107143 111:0.0833333 112:0.125 114:0.0833333 115:0.0535714 116:0.111111 119:0.25 120:0.25 121:0.125 123:0.2 124:0.25 126:0.0357143 127:0.0416667 129:0.0789474 132:0.15 133:0.0277778 134:0.0833333 136:0.166667 138:0.25 139:0.25 140:0.09375 141:0.102273 142:0.03125 143:0.0815217 145:0.0454545 
0.4672011944348471 1 0.1766798919108786 0.2922236153812743 1:0.4 2:1 4:1 7:1 8:0.478261 10:0.238095 12:1 13:1 14:1 15:0.4 16:0.333333 17:0.4 19:0.5 20:1 24:1 25:1 26:0.384615 27:1 28:0.5 29:0.428571 30:0.2 31:0.3 32:1 33:1 34:0.28125 36:0.5 37:0.2 38:0.342857 40:0.4 41:1 42:1 44:0.5 47:1 49:0.5 50:1 51:0.2 52:0.5 53:0.444444 54:0.5 57:1 58:0.666667 59:0.368421 60:0.25 61:0.666667 63:1 64:0.4 65:0.333333 67:0.235294 68:1 69:1 71:0.5 73:1 74:0.333333 75:0.666667 76:0.5 77:0.222222 79:1 82:0.25 83:1 85:0.375 86:0.529412 87:0.5 88:0.333333 90:0.5 91:1 92:1 93:0.375 96:0.25 97:0.666667 98:1 100:0.5 101:0.333333 102:1 103:0.272727 104:1 106:0.5 107:1 108:1 109:0.571429 111:0.333333 112:0.5 114:0.333333 115:0.214286 116:0.444444 119:1 120:1 121:0.5 123:0.8 124:1 126:0.142857 127:0.166667 128:0.333333 129:0.315789 132:0.6 133:0.111111 134:0.333333 135:0.333333 136:1 138:1 139:1 140:0.375 141:0.454545 142:0.125 143:0.391304 145:0.272727 
0 1 0 0.7651913039564464 1:0.0121212 2:0.030303 4:0.030303 7:0.030303 8:0.0144928 10:0.00721501 12:0.030303 13:0.030303 14:0.030303 15:0.0121212 16:0.010101 17:0.0121212 19:0.0151515 20:0.030303 24:0.030303 25:0.030303 26:0.011655 27:0.030303 28:0.0151515 29:0.012987 30:0.00606061 31:0.00909091 32:0.030303 33:0.030303 34:0.00852273 36:0.0151515 37:0.00606061 38:0.0112554 40:0.0121212 41:0.030303 42:0.030303 44:0.0151515 47:0.030303 49:0.0151515 50:0.030303 51:0.00606061 52:0.0151515 53:0.013468 54:0.0151515 57:0.030303 58:0.020202 59:0.0111643 60:0.00757576 61:0.020202 63:0.030303 64:0.0121212 65:0.010101 67:0.00713012 68:0.030303 69:0.030303 71:0.0151515 73:0.030303 74:0.010101 75:0.020202 76:0.0151515 77:0.00673401 79:0.030303 82:0.00757576 83:0.030303 85:0.0113636 86:0.0160428 87:0.0151515 88:0.010101 90:0.0151515 91:0.030303 92:0.030303 93:0.0113636 96:0.00757576 97:0.020202 98:0.030303 100:0.0151515 101:0.010101 102:0.030303 103:0.00826446 104:0.030303 106:0.0151515 107:0.030303 108:0.030303 109:0.017316 111:0.010101 112:0.0151515 114:0.010101 115:0.00649351 116:0.013468 119:0.030303 120:0.030303 121:0.0151515 123:0.0242424 124:0.030303 126:0.004329 127:0.00505051 128:0.010101 129:0.00956938 132:0.0242424 133:0.003367 134:0.010101 135:0.010101 136:0.030303 138:0.030303 139:0.030303 140:0.0113636 141:0.0137741 142:0.00378788 143:0.0118577 145:0.00826446 
0.8648237632501213 1 0 0 1:0.08 2:0.2 4:0.2 7:0.2 8:0.0956522 10:0.047619 12:0.2 13:0.2 14:0.2 15:0.08 16:0.0666667 17:0.08 19:0.1 20:0.2 23:0.0666667 24:0.2 25:0.2 26:0.0769231 27:0.2 28:0.1 29:0.0857143 30:0.04 31:0.06 32:0.2 33:0.2 34:0.05625 36:0.1 37:0.04 38:0.0742857 40:0.08 41:0.2 42:0.2 44:0.1 47:0.2 49:0.1 50:0.2 51:0.04 52:0.1 53:0.0888889 54:0.1 57:0.2 58:0.133333 59:0.0736842 60:0.05 61:0.133333 63:0.2 64:0.08 65:0.0666667 67:0.0529412 68:0.2 69:0.2 71:0.1 73:0.2 74:0.0666667 75:0.133333 76:0.1 77:0.0444444 79:0.2 82:0.05 83:0.2 85:0.075 86:0.117647 87:0.1 88:0.0666667 90:0.1 91:0.2 92:0.2 93:0.075 96:0.05 97:0.133333 98:0.2 100:0.1 101:0.0666667 102:0.2 103:0.0545455 104:0.2 106:0.1 107:0.2 108:0.2 109:0.114286 111:0.0666667 112:0.1 114:0.0666667 115:0.0428571 116:0.0888889 119:0.2 120:0.2 121:0.1 123:0.16 124:0.2 126:0.0285714 127:0.0333333 128:0.0666667 129:0.0631579 132:0.16 133:0.0333333 134:0.0666667 135:0.0666667 136:0.2 138:0.2 139:0.2 140:0.075 141:0.0909091 142:0.025 143:0.0782609 145:0.0545455 
1 1 0 0 1:0.4 2:1 4:1 7:1 8:0.478261 10:0.238095 12:1 13:1 14:1 15:0.4 16:0.333333 17:0.4 19:0.5 20:1 23:0.333333 24:1 25:1 26:0.384615 27:1 28:0.5 29:0.428571 30:0.2 31:0.3 32:1 33:1 34:0.28125 36:0.5 37:0.2 38:0.371429 40:0.4 41:1 42:1 44:0.5 47:1 49:0.5 50:1 51:0.2 52:0.5 53:0.444444 54:0.5 57:1 58:0.666667 59:0.368421 60:0.25 61:0.666667 63:1 64:0.4 65:0.333333 67:0.264706 68:1 69:1 71:0.5 73:1 74:0.333333 75:0.666667 76:0.5 77:0.222222 79:1 82:0.25 83:1 85:0.375 86:0.588235 87:0.5 88:0.333333 90:0.5 91:1 92:1 93:0.375 96:0.25 97:0.666667 98:1 100:0.5 101:0.333333 102:1 103:0.272727 104:1 106:0.5 107:1 108:1 109:0.571429 111:0.333333 112:0.5 114:0.333333 115:0.214286 116:0.444444 119:1 120:1 121:0.5 123:0.8 124:1 126:0.142857 127:0.166667 128:0.333333 129:0.315789 132:0.8 133:0.166667 134:0.333333 135:0.333333 136:1 138:1 139:1 140:0.375 141:0.5 142:0.125 143:0.391304 145:0.272727 
0.03496140888932572 1 0 1 1:0.0181818 2:0.0454545 4:0.0454545 7:0.0454545 8:0.0237154 10:0.0108225 12:0.0454545 13:0.0454545 14:0.0454545 15:0.0181818 16:0.0151515 17:0.0181818 19:0.0227273 20:0.0454545 23:0.0151515 24:0.0454545 25:0.0454545 26:0.0244755 27:0.0454545 28:0.0227273 29:0.021645 30:0.00909091 31:0.0136364 32:0.0454545 33:0.0454545 34:0.0241477 36:0.0227273 37:0.0181818 38:0.0194805 40:0.0181818 41:0.0454545 42:0.0454545 44:0.0227273 47:0.0454545 49:0.0454545 50:0.0454545 51:0.00909091 52:0.030303 53:0.020202 54:0.0227273 57:0.0454545 58:0.030303 59:0.0239234 60:0.0113636 61:0.030303 63:0.0454545 64:0.0181818 65:0.0227273 67:0.0147059 68:0.0454545 69:0.0454545 71:0.0227273 73:0.0454545 74:0.0212121 75:0.030303 76:0.0227273 77:0.010101 79:0.0454545 82:0.0113636 83:0.0454545 85:0.0189394 86:0.026738 87:0.0227273 88:0.0151515 90:0.0227273 91:0.0454545 92:0.0454545 93:0.0170455 96:0.0113636 97:0.030303 98:0.0454545 100:0.0227273 101:0.0151515 102:0.0454545 103:0.018595 104:0.0454545 106:0.0227273 107:0.0454545 108:0.0454545 109:0.025974 111:0.0151515 112:0.0227273 114:0.0151515 115:0.012987 116:0.0252525 117:0.0454545 119:0.0454545 120:0.0454545 121:0.0227273 123:0.0363636 124:0.0454545 126:0.012987 127:0.00757576 128:0.0151515 129:0.0143541 132:0.0363636 133:0.00757576 134:0.0151515 135:0.0151515 136:0.0454545 138:0.0454545 139:0.0454545 140:0.0170455 141:0.0247934 142:0.0113636 143:0.0177866 145:0.0123967 
1 1 0 0 1:0.0666667 2:0.166667 4:0.166667 7:0.166667 8:0.0869565 10:0.0396825 12:0.166667 13:0.166667 14:0.166667 15:0.0666667 16:0.0555556 17:0.0666667 19:0.0833333 20:0.166667 23:0.0555556 24:0.166667 25:0.166667 26:0.0897436 27:0.166667 28:0.0833333 29:0.0793651 30:0.0333333 31:0.05 32:0.166667 33:0.166667 34:0.0885417 36:0.0833333 37:0.0666667 38:0.0714286 40:0.0666667 41:0.166667 42:0.166667 44:0.0833333 47:0.166667 49:0.166667 50:0.166667 51:0.0333333 52:0.111111 53:0.0740741 54:0.0833333 57:0.166667 58:0.111111 59:0.0877193 60:0.0416667 61:0.111111 63:0.166667 64:0.0666667 65:0.0833333 67:0.0539216 68:0.166667 69:0.166667 71:0.0833333 73:0.166667 74:0.0888889 75:0.111111 76:0.0833333 77:0.037037 79:0.166667 82:0.0416667 83:0.166667 85:0.0694444 86:0.0980392 87:0.0833333 88:0.0555556 90:0.0833333 91:0.166667 92:0.166667 93:0.0625 96:0.0416667 97:0.111111 98:0.166667 100:0.0833333 101:0.0555556 102:0.166667 103:0.0681818 104:0.166667 106:0.0833333 107:0.166667 108:0.166667 109:0.0952381 111:0.111111 112:0.0833333 114:0.0555556 115:0.047619 116:0.0925926 117:0.166667 119:0.166667 120:0.166667 121:0.0833333 123:0.133333 124:0.166667 126:0.047619 127:0.0277778 128:0.0555556 129:0.0614035 132:0.133333 133:0.0277778 134:0.0555556 135:0.0555556 136:0.166667 138:0.166667 139:0.166667 140:0.0625 141:0.0909091 142:0.0416667 143:0.0652174 145:0.0454545 
1 1 0.9549426009549403 0.9033870004533168 1:0.1 2:0.25 4:0.25 7:0.25 8:0.130435 10:0.0595238 12:0.25 13:0.25 14:0.25 15:0.1 16:0.0833333 17:0.1 19:0.125 20:0.25 23:0.0833333 24:0.25 25:0.25 26:0.134615 27:0.25 28:0.125 29:0.119048 30:0.05 31:0.075 32:0.25 33:0.25 34:0.132813 36:0.125 37:0.1 38:0.107143 40:0.1 41:0.25 42:0.25 44:0.125 47:0.25 49:0.25 50:0.25 51:0.05 52:0.166667 53:0.111111 54:0.125 57:0.25 58:0.166667 59:0.131579 60:0.0625 61:0.166667 63:0.25 64:0.1 65:0.125 67:0.0808824 68:0.25 69:0.25 71:0.125 73:0.25 74:0.133333 75:0.166667 76:0.125 77:0.0555556 79:0.25 82:0.0625 83:0.25 85:0.104167 86:0.161765 87:0.125 88:0.0833333 90:0.125 91:0.25 92:0.25 93:0.09375 96:0.0625 97:0.166667 98:0.25 100:0.125 101:0.0833333 102:0.25 103:0.102273 104:0.25 106:0.125 107:0.25 108:0.25 109:0.142857 111:0.166667 112:0.125 114:0.0833333 115:0.0714286 116:0.138889 117:0.25 119:0.25 120:0.25 121:0.125 123:0.2 124:0.25 126:0.0714286 127:0.0416667 128:0.0833333 129:0.0921053 132:0.2 133:0.0416667 134:0.0833333 135:0.0833333 136:0.25 138:0.25 139:0.25 140:0.09375 141:0.136364 142:0.0625 143:0.0978261 145:0.0681818 
0 1 0.2287179898906173 0.1779959417091659 1:0.133333 2:0.333333 4:0.333333 7:0.333333 8:0.188406 10:0.126984 12:0.333333 13:0.333333 14:0.333333 15:0.133333 16:0.111111 17:0.133333 19:0.166667 20:0.333333 23:0.111111 24:0.333333 25:0.333333 26:0.230769 27:0.333333 28:0.166667 29:0.174603 30:0.2 31:0.1 32:0.333333 33:0.333333 34:0.177083 36:0.166667 37:0.133333 38:0.142857 40:0.2 41:0.333333 42:0.333333 43:0.166667 44:0.166667 47:0.333333 49:0.333333 50:0.333333 51:0.0666667 52:0.222222 53:0.148148 54:0.166667 57:0.333333 58:0.222222 59:0.192982 60:0.166667 61:0.222222 63:0.333333 64:0.133333 65:0.166667 67:0.117647 68:0.333333 69:0.333333 71:0.166667 73:0.333333 74:0.177778 75:0.222222 76:0.166667 77:0.0740741 79:0.333333 82:0.0833333 83:0.333333 84:0.0333333 85:0.138889 86:0.215686 87:0.166667 88:0.111111 90:0.333333 91:0.333333 92:0.333333 93:0.125 96:0.0833333 97:0.222222 98:0.333333 100:0.166667 101:0.111111 102:0.333333 103:0.136364 104:0.333333 106:0.166667 107:0.333333 108:0.333333 109:0.190476 111:0.222222 112:0.166667 114:0.111111 115:0.0952381 116:0.185185 117:0.333333 118:0.333333 119:0.333333 120:0.333333 121:0.166667 123:0.266667 124:0.333333 126:0.0952381 127:0.0555556 128:0.111111 129:0.122807 132:0.266667 133:0.0555556 134:0.111111 135:0.111111 136:0.333333 138:0.333333 139:0.333333 140:0.145833 141:0.181818 142:0.0833333 143:0.130435 145:0.0909091 
0 1 0 0 1:0.0666667 2:0.166667 4:0.166667 7:0.166667 8:0.0942029 10:0.0634921 12:0.166667 13:0.166667 14:0.166667 15:0.0666667 16:0.0555556 17:0.0666667 19:0.0833333 20:0.166667 23:0.0555556 24:0.166667 25:0.166667 26:0.115385 27:0.166667 28:0.0833333 29:0.0873016 30:0.1 31:0.05 32:0.166667 33:0.166667 34:0.0885417 36:0.0833333 37:0.0666667 38:0.0714286 40:0.1 41:0.166667 42:0.166667 43:0.0833333 44:0.0833333 47:0.166667 49:0.166667 50:0.166667 51:0.0333333 52:0.111111 53:0.0740741 54:0.104167 57:0.166667 58:0.111111 59:0.0964912 60:0.0833333 61:0.111111 63:0.166667 64:0.0666667 65:0.0833333 67:0.0588235 68:0.166667 69:0.166667 71:0.0833333 73:0.166667 74:0.0888889 75:0.111111 76:0.0833333 77:0.037037 79:0.166667 82:0.0416667 83:0.166667 84:0.0166667 85:0.0694444 86:0.107843 87:0.0833333 88:0.0555556 90:0.166667 91:0.166667 92:0.166667 93:0.0625 96:0.0416667 97:0.111111 98:0.166667 100:0.0833333 101:0.0555556 102:0.166667 103:0.0681818 104:0.166667 106:0.0833333 107:0.166667 108:0.166667 109:0.0952381 111:0.111111 112:0.166667 114:0.0555556 115:0.047619 116:0.0925926 117:0.166667 118:0.166667 119:0.166667 120:0.166667 121:0.0833333 123:0.133333 124:0.166667 126:0.047619 127:0.0277778 128:0.0555556 129:0.0614035 132:0.133333 133:0.0277778 134:0.0555556 135:0.0555556 136:0.166667 138:0.166667 139:0.166667 140:0.0729167 141:0.0909091 142:0.0416667 143:0.0652174 145:0.0454545 
0 1 0 0 1:0.0666667 2:0.166667 4:0.166667 7:0.166667 8:0.0942029 10:0.0634921 12:0.166667 13:0.166667 14:0.166667 15:0.0666667 16:0.0555556 17:0.0666667 19:0.0833333 20:0.166667 23:0.0555556 24:0.166667 25:0.166667 26:0.115385 27:0.166667 28:0.0833333 29:0.0873016 30:0.1 31:0.05 32:0.166667 33:0.166667 34:0.0885417 36:0.0833333 37:0.0666667 38:0.0714286 40:0.1 41:0.166667 42:0.166667 43:0.0833333 44:0.0833333 47:0.166667 49:0.166667 50:0.166667 51:0.0333333 52:0.111111 53:0.0740741 54:0.104167 57:0.166667 58:0.111111 59:0.0964912 60:0.0833333 61:0.111111 63:0.166667 64:0.0666667 65:0.0833333 67:0.0588235 68:0.166667 69:0.166667 71:0.0833333 73:0.166667 74:0.0888889 75:0.111111 76:0.0833333 77:0.037037 79:0.166667 82:0.0416667 83:0.166667 84:0.0166667 85:0.0694444 86:0.117647 87:0.0833333 88:0.0555556 90:0.166667 91:0.166667 92:0.166667 93:0.0625 96:0.0416667 97:0.111111 98:0.166667 100:0.0833333 101:0.0555556 102:0.166667 103:0.0681818 104:0.166667 106:0.0833333 107:0.166667 108:0.166667 109:0.0952381 111:0.111111 112:0.166667 114:0.0555556 115:0.047619 116:0.0925926 117:0.166667 118:0.166667 119:0.166667 120:0.166667 121:0.0833333 123:0.133333 124:0.166667 126:0.047619 127:0.0277778 128:0.0555556 129:0.0614035 132:0.133333 133:0.0277778 134:0.0555556 135:0.0555556 136:0.166667 138:0.166667 139:0.166667 140:0.0729167 141:0.0909091 142:0.0416667 143:0.0652174 145:0.0454545 
0 1 0.1139709006621781 0 1:0.2 2:0.5 3:0.5 4:0.5 7:0.5 8:0.282609 10:0.190476 12:0.5 13:0.5 14:0.5 15:0.2 16:0.333333 17:0.2 19:0.25 20:0.5 23:0.166667 24:0.5 25:0.5 26:0.346154 27:0.5 28:0.333333 29:0.261905 30:0.3 31:0.2 32:0.5 33:0.5 34:0.265625 36:0.25 37:0.2 38:0.214286 40:0.3 41:0.5 42:0.5 43:0.25 44:0.25 45:0.166667 47:0.5 49:0.5 50:0.5 51:0.1 52:0.333333 53:0.222222 54:0.3125 57:0.5 58:0.333333 59:0.315789 60:0.25 61:0.333333 63:0.5 64:0.2 65:0.25 67:0.176471 68:0.5 69:0.5 71:0.25 73:0.5 74:0.266667 75:0.333333 76:0.25 77:0.111111 79:0.5 82:0.125 83:0.5 84:0.05 85:0.229167 86:0.352941 87:0.25 88:0.166667 90:0.5 91:0.5 92:0.5 93:0.1875 96:0.125 97:0.333333 98:0.5 100:0.25 101:0.166667 102:0.5 103:0.204545 104:0.5 106:0.25 107:0.5 108:0.5 109:0.357143 111:0.333333 112:0.5 114:0.166667 115:0.142857 116:0.277778 117:0.5 118:0.5 119:0.5 120:0.5 121:0.25 123:0.4 124:0.5 126:0.142857 127:0.0833333 128:0.166667 129:0.210526 130:0.5 132:0.4 133:0.111111 134:0.166667 135:0.166667 136:0.5 138:0.5 139:0.5 140:0.21875 141:0.295455 142:0.125 143:0.217391 145:0.136364 
0 1 0 0 1:0.2 2:0.5 3:0.5 4:0.5 7:0.5 8:0.282609 10:0.190476 12:0.5 13:0.5 14:0.5 15:0.2 16:0.333333 17:0.2 19:0.25 20:0.5 23:0.166667 24:0.5 25:0.5 26:0.346154 27:0.5 28:0.333333 29:0.261905 30:0.3 31:0.2 32:0.5 33:0.5 34:0.265625 36:0.25 37:0.2 38:0.214286 40:0.3 41:0.5 42:0.5 43:0.25 44:0.25 45:0.166667 47:0.5 49:0.5 50:0.5 51:0.1 52:0.333333 53:0.222222 54:0.3125 57:0.5 58:0.333333 59:0.315789 60:0.25 61:0.333333 62:0.125 63:0.5 64:0.2 65:0.25 67:0.176471 68:0.5 69:0.5 71:0.25 73:0.5 74:0.3 75:0.333333 76:0.25 77:0.111111 79:0.5 82:0.125 83:0.5 84:0.05 85:0.229167 86:0.352941 87:0.25 88:0.166667 90:0.5 91:0.5 92:0.5 93:0.1875 96:0.125 97:0.333333 98:0.5 100:0.25 101:0.166667 102:0.5 103:0.227273 104:0.5 106:0.25 107:0.5 108:0.5 109:0.357143 111:0.333333 112:0.5 114:0.166667 115:0.178571 116:0.277778 117:0.5 118:0.5 119:0.5 120:0.5 121:0.25 123:0.4 124:0.5 126:0.142857 127:0.0833333 128:0.166667 129:0.210526 130:0.5 132:0.4 133:0.111111 134:0.166667 135:0.166667 136:0.5 138:0.5 139:0.5 140:0.21875 141:0.295455 142:0.125 143:0.217391 145:0.136364 
0 1 0 0 1:0.155556 2:0.333333 3:0.333333 4:0.333333 7:0.333333 8:0.188406 10:0.126984 12:0.333333 13:0.333333 14:0.333333 15:0.133333 16:0.222222 17:0.133333 19:0.166667 20:0.333333 23:0.111111 24:0.333333 25:0.333333 26:0.230769 27:0.333333 28:0.222222 29:0.174603 30:0.2 31:0.133333 32:0.333333 33:0.333333 34:0.177083 36:0.166667 37:0.133333 38:0.142857 40:0.2 41:0.333333 42:0.333333 43:0.166667 44:0.166667 45:0.111111 47:0.333333 49:0.333333 50:0.333333 51:0.0666667 52:0.222222 53:0.148148 54:0.208333 57:0.333333 58:0.222222 59:0.210526 60:0.166667 61:0.222222 62:0.0833333 63:0.333333 64:0.133333 65:0.166667 67:0.117647 68:0.333333 69:0.333333 71:0.166667 73:0.333333 74:0.2 75:0.222222 76:0.166667 77:0.0740741 79:0.333333 82:0.0833333 83:0.333333 84:0.0333333 85:0.152778 86:0.235294 87:0.166667 88:0.111111 90:0.333333 91:0.333333 92:0.333333 93:0.125 96:0.0833333 97:0.222222 98:0.333333 100:0.166667 101:0.111111 102:0.333333 103:0.151515 104:0.333333 106:0.166667 107:0.333333 108:0.333333 109:0.238095 111:0.222222 112:0.333333 114:0.111111 115:0.119048 116:0.185185 117:0.333333 118:0.333333 119:0.333333 120:0.333333 121:0.166667 123:0.266667 124:0.333333 126:0.0952381 127:0.0555556 128:0.111111 129:0.157895 130:0.333333 132:0.266667 133:0.0740741 134:0.111111 135:0.111111 136:0.333333 138:0.333333 139:0.333333 140:0.145833 141:0.19697 142:0.0833333 143:0.144928 145:0.0909091 
0 1 0 0.8962568020741222 1:0.466667 2:1 3:1 4:1 7:1 8:0.565217 10:0.380952 12:1 13:1 14:1 15:0.4 16:0.666667 17:0.4 19:0.5 20:1 23:0.333333 24:1 25:1 26:0.692308 27:1 28:0.666667 29:0.52381 30:0.6 31:0.4 32:1 33:1 34:0.53125 36:0.5 37:0.4 38:0.428571 40:0.6 41:1 42:1 43:0.5 44:0.5 45:0.333333 47:1 49:1 50:1 51:0.2 52:0.666667 53:0.444444 54:0.625 57:1 58:0.666667 59:0.631579 60:0.5 61:0.666667 62:0.25 63:1 64:0.4 65:0.5 67:0.352941 68:1 69:1 71:0.5 73:1 74:0.6 75:0.666667 76:0.5 77:0.222222 79:1 82:0.25 83:1 84:0.1 85:0.458333 86:0.705882 87:0.5 88:0.333333 90:1 91:1 92:1 93:0.375 96:0.25 97:0.666667 98:1 100:0.5 101:0.333333 102:1 103:0.454545 104:1 106:0.5 107:1 108:1 109:0.714286 111:0.666667 112:1 114:0.333333 115:0.357143 116:0.555556 117:1 118:1 119:1 120:1 121:0.5 122:0.333333 123:0.8 124:1 126:0.285714 127:0.166667 128:0.333333 129:0.473684 130:1 132:0.8 133:0.222222 134:0.333333 135:0.333333 136:1 138:1 139:1 140:0.4375 141:0.590909 142:0.25 143:0.434783 145:0.272727 
0 1 0 0.1365273905370885 1:0.0933333 2:0.2 3:0.2 4:0.2 7:0.2 8:0.113043 10:0.0761905 12:0.2 13:0.2 14:0.2 15:0.08 16:0.133333 17:0.08 19:0.1 20:0.2 23:0.0666667 24:0.2 25:0.2 26:0.138462 27:0.2 28:0.133333 29:0.104762 30:0.12 31:0.08 32:0.2 33:0.2 34:0.10625 36:0.1 37:0.08 38:0.0857143 40:0.12 41:0.2 42:0.2 43:0.1 44:0.1 45:0.0666667 47:0.2 49:0.2 50:0.2 51:0.04 52:0.15 53:0.0888889 54:0.125 57:0.2 58:0.133333 59:0.126316 60:0.1 61:0.133333 62:0.05 63:0.2 64:0.08 65:0.1 67:0.0705882 68:0.2 69:0.2 71:0.1 73:0.2 74:0.12 75:0.133333 76:0.1 77:0.0444444 79:0.2 82:0.05 83:0.2 84:0.02 85:0.0916667 86:0.141176 87:0.1 88:0.0666667 90:0.2 91:0.2 92:0.2 93:0.075 96:0.05 97:0.133333 98:0.2 100:0.1 101:0.0888889 102:0.2 103:0.0909091 104:0.2 106:0.1 107:0.2 108:0.2 109:0.142857 111:0.133333 112:0.2 114:0.0666667 115:0.0714286 116:0.111111 117:0.2 118:0.2 119:0.2 120:0.2 121:0.1 122:0.0666667 123:0.16 124:0.2 126:0.0571429 127:0.0666667 128:0.0666667 129:0.0947368 130:0.2 132:0.16 133:0.0444444 134:0.0666667 135:0.0666667 136:0.2 138:0.2 139:0.2 140:0.0875 141:0.118182 142:0.05 143:0.0913043 145:0.0545455 
0 1 0 0.7072390112207315 1:0.155556 2:0.333333 3:0.333333 4:0.333333 7:0.333333 8:0.188406 10:0.126984 12:0.333333 13:0.333333 14:0.333333 15:0.133333 16:0.222222 17:0.133333 19:0.166667 20:0.333333 23:0.111111 24:0.333333 25:0.333333 26:0.230769 27:0.333333 28:0.222222 29:0.174603 30:0.2 31:0.133333 32:0.333333 33:0.333333 34:0.177083 36:0.166667 37:0.133333 38:0.142857 40:0.2 41:0.333333 42:0.333333 43:0.166667 44:0.166667 45:0.111111 47:0.333333 49:0.333333 50:0.333333 51:0.0666667 52:0.25 53:0.148148 54:0.208333 57:0.333333 58:0.222222 59:0.210526 60:0.166667 61:0.222222 62:0.0833333 63:0.333333 64:0.133333 65:0.166667 67:0.117647 68:0.333333 69:0.333333 71:0.166667 73:0.333333 74:0.2 75:0.222222 76:0.166667 77:0.0740741 79:0.333333 82:0.0833333 83:0.333333 84:0.0333333 85:0.152778 86:0.235294 87:0.166667 88:0.111111 90:0.333333 91:0.333333 92:0.333333 93:0.125 96:0.0833333 97:0.222222 98:0.333333 100:0.166667 101:0.148148 102:0.333333 103:0.151515 104:0.333333 106:0.333333 107:0.333333 108:0.333333 109:0.238095 111:0.222222 112:0.333333 114:0.111111 115:0.119048 116:0.185185 117:0.333333 118:0.333333 119:0.333333 120:0.333333 121:0.166667 122:0.111111 123:0.266667 124:0.333333 126:0.0952381 127:0.111111 128:0.111111 129:0.157895 130:0.333333 132:0.266667 133:0.0740741 134:0.111111 135:0.111111 136:0.333333 138:0.333333 139:0.333333 140:0.145833 141:0.19697 142:0.0833333 143:0.152174 145:0.0909091 
0 1 0 0.2845507782731426 1:0.0424242 2:0.0909091 3:0.0909091 4:0.0909091 7:0.0909091 8:0.055336 10:0.034632 12:0.0909091 13:0.0909091 14:0.0909091 15:0.0363636 16:0.0606061 17:0.0363636 19:0.0454545 20:0.0909091 23:0.030303 24:0.0909091 25:0.0909091 26:0.0699301 27:0.0909091 28:0.0757576 29:0.047619 30:0.0545455 31:0.0363636 32:0.0909091 33:0.0909091 34:0.0482955 36:0.0454545 37:0.0363636 38:0.0441558 40:0.0545455 41:0.0909091 42:0.0909091 43:0.0454545 44:0.0454545 45:0.030303 47:0.0909091 49:0.0909091 50:0.0909091 51:0.0181818 52:0.0681818 53:0.040404 54:0.0568182 57:0.0909091 58:0.0606061 59:0.0574163 60:0.0454545 61:0.0606061 62:0.0227273 63:0.0909091 64:0.0363636 65:0.0454545 67:0.0320856 68:0.0909091 69:0.0909091 71:0.0454545 73:0.0909091 74:0.0545455 75:0.0606061 76:0.0454545 77:0.020202 79:0.0909091 82:0.0227273 83:0.0909091 84:0.00909091 85:0.0416667 86:0.0641711 87:0.0454545 88:0.030303 90:0.0909091 91:0.0909091 92:0.0909091 93:0.0340909 96:0.0227273 97:0.0606061 98:0.0909091 100:0.0454545 101:0.040404 102:0.0909091 103:0.0413223 104:0.0909091 106:0.0909091 107:0.0909091 108:0.0909091 109:0.0649351 111:0.0606061 112:0.0909091 114:0.030303 115:0.0324675 116:0.0505051 117:0.0909091 118:0.0909091 119:0.0909091 120:0.0909091 121:0.0454545 122:0.030303 123:0.0727273 124:0.0909091 126:0.025974 127:0.030303 128:0.030303 129:0.0430622 130:0.0909091 132:0.0727273 133:0.020202 134:0.030303 135:0.030303 136:0.0909091 138:0.0909091 139:0.0909091 140:0.0397727 141:0.053719 142:0.0227273 143:0.0434783 145:0.0330579 
0 1 0 0 1:0.0666667 2:0.142857 3:0.142857 4:0.142857 7:0.142857 8:0.0931677 10:0.0612245 12:0.142857 13:0.142857 14:0.142857 15:0.0571429 16:0.0952381 17:0.0571429 19:0.0714286 20:0.142857 23:0.047619 24:0.142857 25:0.142857 26:0.10989 27:0.142857 28:0.119048 29:0.0816327 30:0.0857143 31:0.0571429 32:0.142857 33:0.142857 34:0.0892857 36:0.0714286 37:0.0571429 38:0.077551 40:0.0857143 41:0.142857 42:0.142857 43:0.0714286 44:0.0714286 45:0.047619 46:0.0357143 47:0.142857 48:0.142857 49:0.142857 50:0.142857 51:0.0285714 52:0.107143 53:0.0634921 54:0.0892857 57:0.142857 58:0.0952381 59:0.0902256 60:0.0714286 61:0.0952381 62:0.0357143 63:0.142857 64:0.0571429 65:0.0714286 66:0.0714286 67:0.0546218 68:0.142857 69:0.142857 71:0.0714286 73:0.142857 74:0.0857143 75:0.0952381 76:0.142857 77:0.031746 79:0.142857 82:0.0714286 83:0.142857 84:0.0142857 85:0.0654762 86:0.10084 87:0.0714286 88:0.0544218 90:0.142857 91:0.142857 92:0.142857 93:0.0535714 96:0.0357143 97:0.0952381 98:0.142857 100:0.0714286 101:0.0634921 102:0.142857 103:0.0714286 104:0.142857 105:0.047619 106:0.142857 107:0.142857 108:0.142857 109:0.102041 111:0.0952381 112:0.142857 114:0.047619 115:0.0612245 116:0.0793651 117:0.142857 118:0.142857 119:0.142857 120:0.142857 121:0.0714286 122:0.047619 123:0.142857 124:0.142857 126:0.0612245 127:0.047619 128:0.047619 129:0.075188 130:0.142857 132:0.114286 133:0.031746 134:0.047619 135:0.047619 136:0.142857 138:0.142857 139:0.142857 140:0.0803571 141:0.0844156 142:0.0357143 143:0.0714286 145:0.0519481 
0 1 0 0 1:0.155556 2:0.333333 3:0.333333 4:0.333333 7:0.333333 8:0.217391 10:0.142857 12:0.333333 13:0.333333 14:0.333333 15:0.133333 16:0.222222 17:0.133333 19:0.166667 20:0.333333 23:0.111111 24:0.333333 25:0.333333 26:0.25641 27:0.333333 28:0.277778 29:0.190476 30:0.2 31:0.133333 32:0.333333 33:0.333333 34:0.208333 36:0.166667 37:0.133333 38:0.180952 40:0.2 41:0.333333 42:0.333333 43:0.166667 44:0.166667 45:0.111111 46:0.0833333 47:0.333333 48:0.333333 49:0.333333 50:0.333333 51:0.0666667 52:0.25 53:0.148148 54:0.208333 57:0.333333 58:0.222222 59:0.210526 60:0.166667 61:0.222222 62:0.0833333 63:0.333333 64:0.133333 65:0.166667 66:0.166667 67:0.127451 68:0.333333 69:0.333333 71:0.166667 73:0.333333 74:0.2 75:0.222222 76:0.333333 77:0.0740741 79:0.333333 82:0.166667 83:0.333333 84:0.0333333 85:0.152778 86:0.235294 87:0.166667 88:0.126984 90:0.333333 91:0.333333 92:0.333333 93:0.125 96:0.0833333 97:0.222222 98:0.333333 100:0.166667 101:0.148148 102:0.333333 103:0.166667 104:0.333333 105:0.111111 106:0.333333 107:0.333333 108:0.333333 109:0.238095 111:0.222222 112:0.333333 114:0.111111 115:0.142857 116:0.185185 117:0.333333 118:0.333333 119:0.333333 120:0.333333 121:0.166667 122:0.111111 123:0.333333 124:0.333333 126:0.142857 127:0.111111 128:0.111111 129:0.175439 130:0.333333 132:0.266667 133:0.0740741 134:0.111111 135:0.111111 136:0.333333 138:0.333333 139:0.333333 140:0.1875 141:0.19697 142:0.0833333 143:0.173913 145:0.121212 
0 1 0 0 1:0.177778 2:0.333333 3:0.333333 4:0.333333 7:0.333333 8:0.217391 10:0.15873 12:0.333333 13:0.333333 14:0.333333 15:0.133333 16:0.222222 17:0.133333 19:0.166667 20:0.333333 23:0.111111 24:0.333333 25:0.333333 26:0.25641 27:0.333333 28:0.277778 29:0.190476 30:0.2 31:0.133333 32:0.333333 33:0.333333 34:0.208333 36:0.166667 37:0.133333 38:0.180952 40:0.2 41:0.333333 42:0.333333 43:0.166667 44:0.166667 45:0.111111 46:0.0833333 47:0.333333 48:0.333333 49:0.333333 50:0.333333 51:0.0666667 52:0.25 53:0.148148 54:0.208333 57:0.333333 58:0.222222 59:0.210526 60:0.166667 61:0.222222 62:0.0833333 63:0.333333 64:0.133333 65:0.166667 66:0.166667 67:0.127451 68:0.333333 69:0.333333 71:0.166667 73:0.333333 74:0.2 75:0.222222 76:0.333333 77:0.0740741 79:0.333333 82:0.166667 83:0.333333 84:0.0333333 85:0.152778 86:0.235294 87:0.166667 88:0.126984 90:0.333333 91:0.333333 92:0.333333 93:0.125 96:0.0833333 97:0.222222 98:0.333333 100:0.166667 101:0.148148 102:0.333333 103:0.166667 104:0.333333 105:0.111111 106:0.333333 107:0.333333 108:0.333333 109:0.238095 111:0.222222 112:0.333333 114:0.111111 115:0.142857 116:0.185185 117:0.333333 118:0.333333 119:0.333333 120:0.333333 121:0.166667 122:0.111111 123:0.333333 124:0.333333 126:0.142857 127:0.111111 128:0.111111 129:0.175439 130:0.333333 132:0.266667 133:0.0740741 134:0.111111 135:0.111111 136:0.333333 138:0.333333 139:0.333333 140:0.1875 141:0.19697 142:0.0833333 143:0.173913 145:0.121212 
0 1 0 0 1:0.133333 2:0.25 3:0.25 4:0.25 7:0.25 8:0.163043 10:0.119048 12:0.25 13:0.25 14:0.25 15:0.1 16:0.166667 17:0.1 19:0.125 20:0.25 23:0.0833333 24:0.25 25:0.25 26:0.192308 27:0.25 28:0.208333 29:0.142857 30:0.15 31:0.1 32:0.25 33:0.25 34:0.15625 36:0.125 37:0.1 38:0.135714 40:0.2 41:0.25 42:0.25 43:0.125 44:0.125 45:0.0833333 46:0.0625 47:0.25 48:0.25 49:0.25 50:0.25 51:0.05 52:0.1875 53:0.111111 54:0.15625 56:0.125 57:0.25 58:0.166667 59:0.157895 60:0.125 61:0.166667 62:0.0625 63:0.25 64:0.1 65:0.125 66:0.125 67:0.0955882 68:0.25 69:0.25 71:0.125 73:0.25 74:0.15 75:0.166667 76:0.25 77:0.0555556 79:0.25 82:0.125 83:0.25 84:0.025 85:0.114583 86:0.176471 87:0.125 88:0.0952381 90:0.25 91:0.25 92:0.25 93:0.09375 96:0.0625 97:0.166667 98:0.25 100:0.125 101:0.111111 102:0.25 103:0.125 104:0.25 105:0.0833333 106:0.25 107:0.25 108:0.25 109:0.178571 111:0.166667 112:0.25 114:0.0833333 115:0.107143 116:0.138889 117:0.25 118:0.25 119:0.25 120:0.25 121:0.125 122:0.0833333 123:0.25 124:0.25 126:0.107143 127:0.0833333 128:0.0833333 129:0.131579 130:0.25 132:0.2 133:0.0555556 134:0.0833333 135:0.0833333 136:0.25 138:0.25 139:0.25 140:0.140625 141:0.147727 142:0.0625 143:0.13587 145:0.0909091 
0.141942210326082 1 0 0.2533360181127558 1:0.533333 2:1 3:1 4:1 7:1 8:0.652174 10:0.47619 12:1 13:1 14:1 15:0.4 16:0.666667 17:0.4 19:0.5 20:1 23:0.333333 24:1 25:1 26:0.769231 27:1 28:0.833333 29:0.571429 30:0.6 31:0.4 32:1 33:1 34:0.625 36:0.5 37:0.4 38:0.542857 40:0.8 41:1 42:1 43:0.5 44:0.5 45:0.333333 46:0.25 47:1 48:1 49:1 50:1 51:0.2 52:0.75 53:0.444444 54:0.625 56:0.5 57:1 58:0.666667 59:0.631579 60:0.5 61:0.666667 62:0.25 63:1 64:0.4 65:0.5 66:0.5 67:0.382353 68:1 69:1 71:0.5 73:1 74:0.6 75:0.666667 76:1 77:0.222222 79:1 82:0.5 83:1 84:0.1 85:0.458333 86:0.705882 87:0.5 88:0.380952 90:1 91:1 92:1 93:0.375 96:0.25 97:0.666667 98:1 100:0.5 101:0.444444 102:1 103:0.5 104:1 105:0.333333 106:1 107:1 108:1 109:0.714286 111:0.666667 112:1 114:0.333333 115:0.428571 116:0.555556 117:1 118:1 119:1 120:1 121:0.5 122:0.333333 123:1 124:1 126:0.428571 127:0.333333 128:0.333333 129:0.526316 130:1 132:0.8 133:0.222222 134:0.333333 135:0.333333 136:1 138:1 139:1 140:0.5625 141:0.590909 142:0.25 143:0.543478 145:0.363636 
0 1 0 0 1:0.266667 2:0.5 3:0.5 4:0.5 7:0.5 8:0.326087 10:0.238095 12:0.5 13:0.5 14:0.5 15:0.2 16:0.333333 17:0.2 19:0.25 20:0.5 23:0.166667 24:0.5 25:0.5 26:0.384615 27:0.5 28:0.416667 29:0.285714 30:0.3 31:0.2 32:0.5 33:0.5 34:0.3125 36:0.25 37:0.2 38:0.271429 40:0.4 41:0.5 42:0.5 43:0.25 44:0.25 45:0.166667 46:0.125 47:0.5 48:0.5 49:0.5 50:0.5 51:0.1 52:0.375 53:0.222222 54:0.3125 56:0.25 57:0.5 58:0.333333 59:0.315789 60:0.25 61:0.333333 62:0.125 63:0.5 64:0.2 65:0.25 66:0.25 67:0.191176 68:0.5 69:0.5 71:0.25 73:0.5 74:0.3 75:0.333333 76:0.5 77:0.111111 79:0.5 82:0.25 83:0.5 84:0.05 85:0.229167 86:0.352941 87:0.25 88:0.190476 90:0.5 91:0.5 92:0.5 93:0.1875 96:0.125 97:0.333333 98:0.5 100:0.25 101:0.222222 102:0.5 103:0.25 104:0.5 105:0.166667 106:0.5 107:0.5 108:0.5 109:0.357143 111:0.333333 112:0.5 114:0.166667 115:0.214286 116:0.277778 117:0.5 118:0.5 119:0.5 120:0.5 121:0.25 122:0.166667 123:0.5 124:0.5 126:0.214286 127:0.166667 128:0.166667 129:0.263158 130:0.5 132:0.4 133:0.111111 134:0.166667 135:0.166667 136:0.5 138:0.5 139:0.5 140:0.28125 141:0.295455 142:0.125 143:0.271739 145:0.181818 
0 1 0 0 1:0.266667 2:0.5 3:0.5 4:0.5 7:0.5 8:0.326087 10:0.238095 12:0.5 13:0.5 14:0.5 15:0.2 16:0.333333 17:0.2 19:0.25 20:0.5 23:0.166667 24:0.5 25:0.5 26:0.384615 27:0.5 28:0.416667 29:0.285714 30:0.3 31:0.2 32:0.5 33:0.5 34:0.3125 36:0.25 37:0.2 38:0.271429 40:0.4 41:0.5 42:0.5 43:0.25 44:0.25 45:0.166667 46:0.125 47:0.5 48:0.5 49:0.5 50:0.5 51:0.1 52:0.375 53:0.222222 54:0.3125 56:0.25 57:0.5 58:0.333333 59:0.315789 60:0.25 61:0.333333 62:0.125 63:0.5 64:0.2 65:0.25 66:0.25 67:0.191176 68:0.5 69:0.5 71:0.25 73:0.5 74:0.3 75:0.333333 76:0.5 77:0.111111 79:0.5 82:0.25 83:0.5 84:0.05 85:0.229167 86:0.352941 87:0.25 88:0.190476 90:0.5 91:0.5 92:0.5 93:0.1875 96:0.125 97:0.333333 98:0.5 100:0.25 101:0.222222 102:0.5 103:0.25 104:0.5 105:0.166667 106:0.5 107:0.5 108:0.5 109:0.357143 111:0.333333 112:0.5 114:0.166667 115:0.214286 116:0.333333 117:0.5 118:0.5 119:0.5 120:0.5 121:0.25 122:0.166667 123:0.5 124:0.5 126:0.214286 127:0.166667 128:0.166667 129:0.263158 130:0.5 132:0.4 133:0.111111 134:0.166667 135:0.5 136:0.5 138:0.5 139:0.5 140:0.28125 141:0.295455 142:0.125 143:0.271739 145:0.181818 
1 1 0 0.03579620167953508 1:0.533333 2:1 3:1 4:1 7:1 8:0.652174 10:0.47619 12:1 13:1 14:1 15:0.4 16:0.666667 17:0.4 19:0.5 20:1 23:0.333333 24:1 25:1 26:0.769231 27:1 28:0.833333 29:0.571429 30:0.6 31:0.4 32:1 33:1 34:0.625 36:0.5 37:0.4 38:0.542857 40:0.8 41:1 42:1 43:0.5 44:0.5 45:0.333333 46:0.25 47:1 48:1 49:1 50:1 51:0.2 52:0.75 53:0.444444 54:0.625 56:0.5 57:1 58:0.666667 59:0.631579 60:0.5 61:0.666667 62:0.25 63:1 64:0.4 65:0.5 66:0.5 67:0.382353 68:1 69:1 71:0.5 73:1 74:0.6 75:0.666667 76:1 77:0.222222 79:1 82:0.5 83:1 84:0.1 85:0.458333 86:0.705882 87:0.5 88:0.380952 90:1 91:1 92:1 93:0.375 96:0.25 97:0.666667 98:1 100:0.5 101:0.444444 102:1 103:0.5 104:1 105:0.333333 106:1 107:1 108:1 109:0.714286 111:0.666667 112:1 114:0.333333 115:0.428571 116:0.666667 117:1 118:1 119:1 120:1 121:0.5 122:0.333333 123:1 124:1 126:0.428571 127:0.333333 128:0.333333 129:0.526316 130:1 132:0.8 133:0.222222 134:0.333333 135:1 136:1 138:1 139:1 140:0.5625 141:0.590909 142:0.25 143:0.543478 145:0.363636 
1 0.3383741148472474 0 0 1:0.533333 2:1 3:1 4:1 7:1 8:0.652174 10:0.47619 12:1 13:1 14:1 15:0.4 16:0.666667 17:0.4 19:0.5 20:1 23:0.333333 24:1 25:1 26:0.769231 27:1 28:0.833333 29:0.571429 30:0.6 31:0.4 32:1 33:1 34:0.625 36:0.5 37:0.4 38:0.571429 40:0.8 41:1 42:1 43:0.5 44:0.5 45:0.333333 46:0.25 47:1 48:1 49:1 50:1 51:0.2 52:0.75 53:0.444444 54:0.625 56:0.5 57:1 58:0.666667 59:0.631579 60:0.5 61:0.666667 62:0.25 63:1 64:0.4 65:0.5 66:0.5 67:0.382353 68:1 69:1 71:0.5 73:1 74:0.6 75:0.666667 76:1 77:0.222222 79:1 82:0.5 83:1 84:0.1 85:0.458333 86:0.705882 87:0.5 88:0.380952 90:1 91:1 92:1 93:0.375 96:0.25 97:0.666667 98:1 100:0.5 101:0.444444 102:1 103:0.5 104:1 105:0.333333 106:1 107:1 108:1 109:0.714286 111:0.666667 112:1 114:0.333333 115:0.428571 116:0.666667 117:1 118:1 119:1 120:1 121:0.5 122:0.333333 123:1 124:1 126:0.428571 127:0.333333 128:0.333333 129:0.526316 130:1 132:0.8 133:0.222222 134:0.333333 135:1 136:1 138:1 139:1 140:0.5625 141:0.636364 142:0.25 143:0.543478 145:0.363636 
1 0 0 0.5646108237428924 1:0.533333 2:1 3:1 4:1 7:1 8:0.695652 10:0.52381 12:1 13:1 14:1 15:0.4 16:0.666667 17:0.4 19:0.5 20:1 23:0.666667 24:1 25:1 26:0.769231 27:1 28:0.833333 29:0.619048 30:0.6 31:0.4 32:1 33:1 34:0.65625 36:0.5 37:0.4 38:0.6 40:1 41:1 42:1 43:0.5 44:0.5 45:0.666667 46:0.25 47:1 48:1 49:1 50:1 51:0.2 52:0.75 53:0.444444 54:0.625 56:0.5 57:1 58:0.666667 59:0.631579 60:0.5 61:0.666667 62:0.25 63:1 64:0.6 65:0.5 66:0.5 67:0.411765 68:1 69:1 71:0.5 73:1 74:0.6 75:0.666667 76:1 77:0.222222 79:1 82:0.75 83:1 84:0.4 85:0.458333 86:0.764706 87:0.75 88:0.380952 90:1 91:1 92:1 93:0.375 96:0.3125 97:0.666667 98:1 100:0.5 101:0.444444 102:1 103:0.5 104:1 105:0.666667 106:1 107:1 108:1 109:0.714286 111:0.666667 112:1 114:0.333333 115:0.428571 116:0.666667 117:1 118:1 119:1 120:1 121:0.5 122:0.333333 123:1 124:1 126:0.571429 127:0.333333 128:0.333333 129:0.578947 130:1 132:0.8 133:0.277778 134:0.333333 135:1 136:1 138:1 139:1 140:0.625 141:0.636364 142:0.25 143:0.543478 145:0.363636 
0 1 0 0.8571557974871996 1:0.177778 2:0.333333 3:0.333333 4:0.333333 7:0.333333 8:0.231884 10:0.174603 12:0.333333 13:0.333333 14:0.333333 15:0.2 16:0.222222 17:0.133333 19:0.166667 20:0.333333 23:0.222222 24:0.333333 25:0.333333 26:0.25641 27:0.333333 28:0.277778 29:0.222222 30:0.2 31:0.133333 32:0.333333 33:0.333333 34:0.21875 36:0.166667 37:0.2 38:0.2 40:0.333333 41:0.333333 42:0.333333 43:0.166667 44:0.166667 45:0.222222 46:0.0833333 47:0.333333 48:0.333333 49:0.333333 50:0.333333 51:0.133333 52:0.25 53:0.148148 54:0.208333 56:0.166667 57:0.333333 58:0.222222 59:0.210526 60:0.166667 61:0.222222 62:0.0833333 63:0.333333 64:0.2 65:0.166667 66:0.166667 67:0.147059 68:0.333333 69:0.333333 71:0.166667 73:0.333333 74:0.2 75:0.222222 76:0.333333 77:0.0740741 79:0.333333 82:0.25 83:0.333333 84:0.133333 85:0.152778 86:0.254902 87:0.25 88:0.174603 90:0.333333 91:0.333333 92:0.333333 93:0.125 96:0.145833 97:0.222222 98:0.333333 100:0.166667 101:0.148148 102:0.333333 103:0.181818 104:0.333333 105:0.222222 106:0.333333 107:0.333333 108:0.333333 109:0.238095 111:0.222222 112:0.333333 114:0.111111 115:0.142857 116:0.222222 117:0.333333 118:0.333333 119:0.333333 120:0.333333 121:0.166667 122:0.111111 123:0.333333 124:0.333333 126:0.190476 127:0.111111 128:0.111111 129:0.210526 130:0.333333 132:0.266667 133:0.12963 134:0.111111 135:0.333333 136:0.333333 138:0.333333 139:0.333333 140:0.229167 141:0.212121 142:0.0833333 143:0.181159 145:0.151515 
0.7041627464600107 1 0 0.7103267787632207 1:0.266667 2:0.5 3:0.5 4:0.5 7:0.5 8:0.347826 10:0.261905 12:0.5 13:0.5 14:0.5 15:0.3 16:0.333333 17:0.2 19:0.25 20:0.5 23:0.333333 24:0.5 25:0.5 26:0.384615 27:0.5 28:0.416667 29:0.357143 30:0.4 31:0.2 32:0.5 33:0.5 34:0.328125 36:0.25 37:0.3 38:0.3 40:0.5 41:0.5 42:0.5 43:0.25 44:0.25 45:0.333333 46:0.125 47:0.5 48:0.5 49:0.5 50:0.5 51:0.2 52:0.375 53:0.222222 54:0.3125 56:0.25 57:0.5 58:0.5 59:0.315789 60:0.375 61:0.333333 62:0.125 63:0.5 64:0.3 65:0.25 66:0.25 67:0.220588 68:0.5 69:0.5 71:0.25 73:0.5 74:0.333333 75:0.333333 76:0.5 77:0.111111 79:0.5 82:0.375 83:0.5 84:0.2 85:0.229167 86:0.382353 87:0.375 88:0.261905 90:0.5 91:0.5 92:0.5 93:0.1875 96:0.21875 97:0.333333 98:0.5 100:0.25 101:0.222222 102:0.5 103:0.272727 104:0.5 105:0.333333 106:0.5 107:0.5 108:0.5 109:0.357143 111:0.333333 112:0.5 114:0.166667 115:0.214286 116:0.333333 117:0.5 118:0.5 119:0.5 120:0.5 121:0.25 122:0.166667 123:0.5 124:0.5 126:0.285714 127:0.166667 128:0.166667 129:0.315789 130:0.5 132:0.4 133:0.194444 134:0.166667 135:0.5 136:0.5 138:0.5 139:0.5 140:0.34375 141:0.318182 142:0.125 143:0.271739 145:0.227273 
1 1 0 0 1:0.266667 2:0.5 3:0.5 4:0.5 7:0.5 8:0.347826 10:0.261905 12:0.5 13:0.5 14:0.5 15:0.3 16:0.333333 17:0.3 19:0.25 20:0.5 23:0.333333 24:0.5 25:0.5 26:0.384615 27:0.5 28:0.416667 29:0.357143 30:0.4 31:0.2 32:0.5 33:0.5 34:0.328125 36:0.25 37:0.3 38:0.3 40:0.5 41:0.5 42:0.5 43:0.25 44:0.25 45:0.333333 46:0.125 47:0.5 48:0.5 49:0.5 50:0.5 51:0.2 52:0.375 53:0.222222 54:0.3125 56:0.25 57:0.5 58:0.5 59:0.315789 60:0.375 61:0.333333 62:0.125 63:0.5 64:0.3 65:0.25 66:0.25 67:0.220588 68:0.5 69:0.5 71:0.25 73:0.5 74:0.333333 75:0.333333 76:0.5 77:0.111111 79:0.5 82:0.375 83:0.5 84:0.2 85:0.229167 86:0.382353 87:0.375 88:0.261905 90:0.5 91:0.5 92:0.5 93:0.1875 96:0.21875 97:0.333333 98:0.5 100:0.25 101:0.222222 102:0.5 103:0.272727 104:0.5 105:0.333333 106:0.5 107:0.5 108:0.5 109:0.357143 111:0.333333 112:0.5 114:0.166667 115:0.214286 116:0.333333 117:0.5 118:0.5 119:0.5 120:0.5 121:0.25 122:0.166667 123:0.5 124:0.5 126:0.285714 127:0.166667 128:0.166667 129:0.315789 130:0.5 132:0.4 133:0.194444 134:0.166667 135:0.5 136:0.5 138:0.5 139:0.5 140:0.34375 141:0.318182 142:0.125 143:0.271739 145:0.227273 
1 1 0 0 1:0.266667 2:0.5 3:0.5 4:0.5 7:0.5 8:0.347826 10:0.261905 12:0.5 13:0.5 14:0.5 15:0.3 16:0.333333 17:0.3 19:0.25 20:0.5 23:0.333333 24:0.5 25:0.5 26:0.384615 27:0.5 28:0.416667 29:0.357143 30:0.4 31:0.2 32:0.5 33:0.5 34:0.328125 36:0.25 37:0.3 38:0.3 40:0.5 41:0.5 42:0.5 43:0.25 44:0.25 45:0.333333 46:0.125 47:0.5 48:0.5 49:0.5 50:0.5 51:0.2 52:0.375 53:0.222222 54:0.3125 56:0.25 57:0.5 58:0.5 59:0.315789 60:0.375 61:0.333333 62:0.125 63:0.5 64:0.3 65:0.25 66:0.25 67:0.220588 68:0.5 69:0.5 71:0.25 73:0.5 74:0.333333 75:0.333333 76:0.5 77:0.111111 79:0.5 82:0.375 83:0.5 84:0.2 85:0.229167 86:0.411765 87:0.375 88:0.261905 90:0.5 91:0.5 92:0.5 93:0.1875 96:0.21875 97:0.333333 98:0.5 100:0.25 101:0.222222 102:0.5 103:0.272727 104:0.5 105:0.333333 106:0.5 107:0.5 108:0.5 109:0.357143 111:0.333333 112:0.5 114:0.166667 115:0.214286 116:0.333333 117:0.5 118:0.5 119:0.5 120:0.5 121:0.25 122:0.166667 123:0.5 124:0.5 126:0.285714 127:0.166667 128:0.166667 129:0.315789 130:0.5 132:0.4 133:0.194444 134:0.166667 135:0.5 136:0.5 138:0.5 139:0.5 140:0.34375 141:0.318182 142:0.125 143:0.271739 145:0.227273 
0 1 0 1 1:0.0533333 2:0.1 3:0.1 4:0.1 7:0.1 8:0.0695652 10:0.052381 12:0.1 13:0.1 14:0.1 15:0.06 16:0.0666667 17:0.06 19:0.05 20:0.1 23:0.0666667 24:0.1 25:0.1 26:0.0769231 27:0.1 28:0.0833333 29:0.0714286 30:0.08 31:0.04 32:0.1 33:0.1 34:0.065625 36:0.05 37:0.06 38:0.06 40:0.1 41:0.1 42:0.1 43:0.05 44:0.05 45:0.0666667 46:0.025 47:0.1 48:0.1 49:0.1 50:0.1 51:0.04 52:0.075 53:0.0555556 54:0.0625 55:0.05 56:0.05 57:0.1 58:0.1 59:0.0631579 60:0.075 61:0.0666667 62:0.025 63:0.1 64:0.06 65:0.05 66:0.05 67:0.0441176 68:0.1 69:0.1 71:0.05 73:0.1 74:0.0666667 75:0.0666667 76:0.1 77:0.0222222 79:0.1 82:0.075 83:0.1 84:0.04 85:0.0458333 86:0.0823529 87:0.075 88:0.052381 90:0.1 91:0.1 92:0.1 93:0.0375 96:0.04375 97:0.0666667 98:0.1 100:0.05 101:0.0444444 102:0.1 103:0.0590909 104:0.1 105:0.0666667 106:0.1 107:0.1 108:0.1 109:0.0714286 111:0.0666667 112:0.1 114:0.0333333 115:0.0428571 116:0.0777778 117:0.1 118:0.1 119:0.1 120:0.1 121:0.05 122:0.0333333 123:0.1 124:0.1 126:0.0571429 127:0.0333333 128:0.0333333 129:0.0631579 130:0.1 132:0.08 133:0.0388889 134:0.0333333 135:0.1 136:0.1 138:0.1 139:0.1 140:0.06875 141:0.0636364 142:0.025 143:0.0543478 145:0.0454545 
0.9284886963146618 1 0 1 1:0.106667 2:0.2 3:0.2 4:0.2 7:0.2 8:0.13913 10:0.104762 12:0.2 13:0.2 14:0.2 15:0.12 16:0.133333 17:0.12 19:0.1 20:0.2 23:0.133333 24:0.2 25:0.2 26:0.153846 27:0.2 28:0.166667 29:0.142857 30:0.16 31:0.08 32:0.2 33:0.2 34:0.13125 36:0.1 37:0.12 38:0.12 40:0.2 41:0.2 42:0.2 43:0.1 44:0.1 45:0.133333 46:0.05 47:0.2 48:0.2 49:0.2 50:0.2 51:0.08 52:0.166667 53:0.111111 54:0.125 55:0.1 56:0.1 57:0.2 58:0.2 59:0.126316 60:0.15 61:0.133333 62:0.05 63:0.2 64:0.12 65:0.1 66:0.1 67:0.0882353 68:0.2 69:0.2 71:0.1 73:0.2 74:0.146667 75:0.133333 76:0.2 77:0.0666667 79:0.2 82:0.15 83:0.2 84:0.08 85:0.1 86:0.164706 87:0.15 88:0.104762 90:0.2 91:0.2 92:0.2 93:0.075 96:0.1 97:0.133333 98:0.2 100:0.1 101:0.0888889 102:0.2 103:0.127273 104:0.2 105:0.133333 106:0.2 107:0.2 108:0.2 109:0.142857 111:0.133333 112:0.2 114:0.0666667 115:0.1 116:0.155556 117:0.2 118:0.2 119:0.2 120:0.2 121:0.1 122:0.0666667 123:0.2 124:0.2 126:0.114286 127:0.0666667 128:0.0666667 129:0.126316 130:0.2 132:0.16 133:0.0888889 134:0.0666667 135:0.2 136:0.2 138:0.2 139:0.2 140:0.1375 141:0.127273 142:0.05 143:0.117391 145:0.109091 
1 1 0 0.3400717979992014 1:0.3 2:0.5 3:0.5 4:0.5 7:0.5 8:0.347826 10:0.285714 12:0.5 13:0.5 14:0.5 15:0.3 16:0.333333 17:0.3 19:0.25 20:0.5 23:0.333333 24:0.5 25:0.5 26:0.384615 27:0.5 28:0.416667 29:0.357143 30:0.4 31:0.3 32:0.5 33:0.5 34:0.328125 36:0.25 37:0.3 38:0.3 40:0.5 41:0.5 42:0.5 43:0.25 44:0.25 45:0.333333 46:0.25 47:0.5 48:0.5 49:0.5 50:0.5 51:0.2 52:0.416667 53:0.277778 54:0.3125 55:0.25 56:0.5 57:0.5 58:0.5 59:0.315789 60:0.375 61:0.333333 62:0.125 63:0.5 64:0.3 65:0.25 66:0.25 67:0.220588 68:0.5 69:0.5 71:0.25 73:0.5 74:0.366667 75:0.333333 76:0.5 77:0.166667 79:0.5 82:0.375 83:0.5 84:0.2 85:0.25 86:0.441176 87:0.375 88:0.261905 90:0.5 91:0.5 92:0.5 93:0.1875 96:0.25 97:0.333333 98:0.5 100:0.25 101:0.277778 102:0.5 103:0.318182 104:0.5 105:0.333333 106:0.5 107:0.5 108:0.5 109:0.357143 111:0.333333 112:0.5 114:0.166667 115:0.25 116:0.388889 117:0.5 118:0.5 119:0.5 120:0.5 121:0.25 122:0.166667 123:0.5 124:0.5 126:0.285714 127:0.25 128:0.166667 129:0.315789 130:0.5 132:0.4 133:0.222222 134:0.166667 135:0.5 136:0.5 138:0.5 139:0.5 140:0.34375 141:0.318182 142:0.125 143:0.293478 145:0.272727 
1 1 0 1 1:0.2 2:0.333333 3:0.333333 4:0.333333 7:0.333333 8:0.231884 10:0.190476 12:0.333333 13:0.333333 14:0.333333 15:0.2 16:0.222222 17:0.2 19:0.166667 20:0.333333 23:0.222222 24:0.333333 25:0.333333 26:0.25641 27:0.333333 28:0.277778 29:0.238095 30:0.266667 31:0.2 32:0.333333 33:0.333333 34:0.21875 36:0.166667 37:0.2 38:0.2 40:0.333333 41:0.333333 42:0.333333 43:0.166667 44:0.166667 45:0.222222 46:0.166667 47:0.333333 48:0.333333 49:0.333333 50:0.333333 51:0.133333 52:0.277778 53:0.185185 54:0.208333 55:0.166667 56:0.333333 57:0.333333 58:0.333333 59:0.210526 60:0.25 61:0.222222 62:0.0833333 63:0.333333 64:0.2 65:0.166667 66:0.166667 67:0.156863 68:0.333333 69:0.333333 71:0.166667 73:0.333333 74:0.244444 75:0.222222 76:0.333333 77:0.111111 79:0.333333 82:0.25 83:0.333333 84:0.133333 85:0.166667 86:0.294118 87:0.25 88:0.174603 90:0.333333 91:0.333333 92:0.333333 93:0.125 96:0.166667 97:0.222222 98:0.333333 100:0.166667 101:0.185185 102:0.333333 103:0.212121 104:0.333333 105:0.222222 106:0.333333 107:0.333333 108:0.333333 109:0.238095 111:0.222222 112:0.333333 114:0.111111 115:0.190476 116:0.259259 117:0.333333 118:0.333333 119:0.333333 120:0.333333 121:0.166667 122:0.111111 123:0.333333 124:0.333333 126:0.190476 127:0.166667 128:0.111111 129:0.210526 130:0.333333 132:0.266667 133:0.148148 134:0.111111 135:0.333333 136:0.333333 138:0.333333 139:0.333333 140:0.229167 141:0.212121 142:0.0833333 143:0.202899 145:0.181818 
0.4127621950541518 1 0 0.5923545426396383 1:0.1 2:0.166667 3:0.166667 4:0.166667 7:0.166667 8:0.115942 10:0.0952381 12:0.166667 13:0.166667 14:0.166667 15:0.1 16:0.111111 17:0.1 19:0.0833333 20:0.166667 23:0.111111 24:0.166667 25:0.166667 26:0.141026 27:0.166667 28:0.138889 29:0.119048 30:0.133333 31:0.1 32:0.166667 33:0.166667 34:0.109375 36:0.0833333 37:0.1 38:0.104762 40:0.166667 41:0.166667 42:0.166667 43:0.0833333 44:0.0833333 45:0.111111 46:0.0833333 47:0.166667 48:0.166667 49:0.166667 50:0.166667 51:0.0666667 52:0.138889 53:0.0925926 54:0.104167 55:0.0833333 56:0.166667 57:0.166667 58:0.166667 59:0.105263 60:0.125 61:0.111111 62:0.0416667 63:0.166667 64:0.1 65:0.0833333 66:0.0833333 67:0.0784314 68:0.166667 69:0.166667 71:0.0833333 73:0.166667 74:0.122222 75:0.111111 76:0.166667 77:0.0555556 79:0.166667 82:0.125 83:0.166667 84:0.0666667 85:0.0833333 86:0.147059 87:0.125 88:0.0873016 90:0.166667 91:0.166667 92:0.166667 93:0.0625 96:0.0833333 97:0.111111 98:0.166667 100:0.0833333 101:0.0925926 102:0.166667 103:0.106061 104:0.166667 105:0.111111 106:0.166667 107:0.166667 108:0.166667 109:0.119048 111:0.111111 112:0.166667 114:0.0555556 115:0.0952381 116:0.12963 117:0.166667 118:0.166667 119:0.166667 120:0.166667 121:0.0833333 122:0.0555556 123:0.166667 124:0.166667 126:0.0952381 127:0.0833333 128:0.0555556 129:0.105263 130:0.166667 132:0.133333 133:0.0740741 134:0.0555556 135:0.166667 136:0.166667 138:0.166667 139:0.166667 140:0.114583 141:0.106061 142:0.0416667 143:0.108696 145:0.0909091 
1 1 0 0.05089048008021119 1:0.15 2:0.25 3:0.25 4:0.25 7:0.25 8:0.173913 10:0.142857 12:0.25 13:0.25 14:0.25 15:0.15 16:0.166667 17:0.15 19:0.125 20:0.25 23:0.166667 24:0.25 25:0.25 26:0.211538 27:0.25 28:0.208333 29:0.178571 30:0.2 31:0.15 32:0.25 33:0.25 34:0.164063 36:0.125 37:0.15 38:0.157143 40:0.25 41:0.25 42:0.25 43:0.125 44:0.125 45:0.166667 46:0.125 47:0.25 48:0.25 49:0.25 50:0.25 51:0.1 52:0.208333 53:0.166667 54:0.15625 55:0.125 56:0.25 57:0.25 58:0.25 59:0.157895 60:0.1875 61:0.166667 62:0.0625 63:0.25 64:0.15 65:0.125 66:0.125 67:0.117647 68:0.25 69:0.25 71:0.125 73:0.25 74:0.183333 75:0.208333 76:0.25 77:0.0833333 79:0.25 82:0.1875 83:0.25 84:0.1 85:0.125 86:0.220588 87:0.1875 88:0.130952 90:0.25 91:0.25 92:0.25 93:0.09375 96:0.140625 97:0.166667 98:0.25 100:0.125 101:0.138889 102:0.25 103:0.170455 104:0.25 105:0.166667 106:0.25 107:0.25 108:0.25 109:0.178571 111:0.166667 112:0.25 114:0.0833333 115:0.142857 116:0.194444 117:0.25 118:0.25 119:0.25 120:0.25 121:0.25 122:0.0833333 123:0.25 124:0.25 126:0.142857 127:0.125 128:0.0833333 129:0.157895 130:0.25 132:0.2 133:0.111111 134:0.0833333 135:0.25 136:0.25 138:0.25 139:0.25 140:0.171875 141:0.159091 142:0.0625 143:0.163043 145:0.136364 
1 1 0 0.4723498793533679 1:0.333333 2:0.5 3:0.5 4:0.5 7:0.5 8:0.347826 10:0.309524 12:0.5 13:0.5 14:0.5 15:0.3 16:0.333333 17:0.3 19:0.25 20:0.5 23:0.333333 24:0.5 25:0.5 26:0.423077 27:0.5 28:0.416667 29:0.357143 30:0.5 31:0.3 32:0.5 33:0.5 34:0.34375 36:0.25 37:0.3 38:0.314286 40:0.5 41:0.5 42:0.5 43:0.25 44:0.25 45:0.5 46:0.25 47:0.5 48:0.5 49:0.5 50:0.5 51:0.2 52:0.416667 53:0.333333 54:0.3125 55:0.25 56:0.5 57:0.5 58:0.5 59:0.315789 60:0.5 61:0.333333 62:0.125 63:0.5 64:0.3 65:0.25 66:0.25 67:0.235294 68:0.5 69:0.5 71:0.25 73:0.5 74:0.366667 75:0.416667 76:0.5 77:0.166667 79:0.5 82:0.375 83:0.5 84:0.2 85:0.25 86:0.441176 87:0.375 88:0.261905 90:0.5 91:0.5 92:0.5 93:0.1875 96:0.28125 97:0.333333 98:0.5 100:0.25 101:0.277778 102:0.5 103:0.340909 104:0.5 105:0.333333 106:0.5 107:0.5 108:0.5 109:0.357143 111:0.333333 112:0.5 114:0.166667 115:0.285714 116:0.388889 117:0.5 118:0.5 119:0.5 120:0.5 121:0.5 122:0.166667 123:0.5 124:0.5 126:0.285714 127:0.25 128:0.166667 129:0.315789 130:0.5 132:0.4 133:0.222222 134:0.166667 135:0.5 136:0.5 138:0.5 139:0.5 140:0.34375 141:0.318182 142:0.125 143:0.336957 145:0.272727 
1 1 0.02029249304840462 0.7799085069416593 1:0.333333 2:0.5 3:0.5 4:0.5 5:0.5 7:0.5 8:0.347826 10:0.309524 12:0.5 13:0.5 14:0.5 15:0.3 16:0.333333 17:0.3 19:0.25 20:0.5 23:0.333333 24:0.5 25:0.5 26:0.423077 27:0.5 28:0.416667 29:0.357143 30:0.5 31:0.3 32:0.5 33:0.5 34:0.34375 36:0.25 37:0.3 38:0.314286 40:0.5 41:0.5 42:0.5 43:0.25 44:0.25 45:0.5 46:0.25 47:0.5 48:0.5 49:0.5 50:0.5 51:0.2 52:0.416667 53:0.333333 54:0.3125 55:0.25 56:0.5 57:0.5 58:0.5 59:0.315789 60:0.5 61:0.333333 62:0.125 63:0.5 64:0.3 65:0.25 66:0.25 67:0.235294 68:0.5 69:0.5 70:0.5 71:0.25 72:0.5 73:0.5 74:0.366667 75:0.416667 76:0.5 77:0.166667 78:0.5 79:0.5 82:0.375 83:0.5 84:0.2 85:0.25 86:0.441176 87:0.375 88:0.261905 90:0.5 91:0.5 92:0.5 93:0.1875 96:0.28125 97:0.333333 98:0.5 100:0.25 101:0.277778 102:0.5 103:0.340909 104:0.5 105:0.333333 106:0.5 107:0.5 108:0.5 109:0.357143 111:0.5 112:0.5 114:0.166667 115:0.285714 116:0.388889 117:0.5 118:0.5 119:0.5 120:0.5 121:0.5 122:0.166667 123:0.5 124:0.5 126:0.285714 127:0.25 128:0.166667 129:0.315789 130:0.5 132:0.4 133:0.222222 134:0.166667 135:0.5 136:0.5 138:0.5 139:0.5 140:0.34375 141:0.340909 142:0.125 143:0.336957 145:0.318182 
1 1 0.09305403942093937 0.04141800859566631 1:0.222222 2:0.333333 3:0.333333 4:0.333333 5:0.333333 7:0.333333 8:0.231884 10:0.206349 12:0.333333 13:0.333333 14:0.333333 15:0.2 16:0.222222 17:0.2 19:0.166667 20:0.333333 23:0.222222 24:0.333333 25:0.333333 26:0.282051 27:0.333333 28:0.277778 29:0.238095 30:0.333333 31:0.2 32:0.333333 33:0.333333 34:0.229167 36:0.166667 37:0.2 38:0.209524 40:0.333333 41:0.333333 42:0.333333 43:0.166667 44:0.166667 45:0.333333 46:0.166667 47:0.333333 48:0.333333 49:0.333333 50:0.333333 51:0.133333 52:0.277778 53:0.222222 54:0.208333 55:0.166667 56:0.333333 57:0.333333 58:0.333333 59:0.210526 60:0.333333 61:0.222222 62:0.0833333 63:0.333333 64:0.2 65:0.166667 66:0.166667 67:0.156863 68:0.333333 69:0.333333 70:0.333333 71:0.166667 72:0.333333 73:0.333333 74:0.244444 75:0.277778 76:0.333333 77:0.111111 78:0.333333 79:0.333333 82:0.25 83:0.333333 84:0.133333 85:0.166667 86:0.294118 87:0.25 88:0.174603 90:0.333333 91:0.333333 92:0.333333 93:0.125 96:0.1875 97:0.222222 98:0.333333 100:0.166667 101:0.185185 102:0.333333 103:0.227273 104:0.333333 105:0.222222 106:0.333333 107:0.333333 108:0.333333 109:0.238095 111:0.333333 112:0.333333 114:0.111111 115:0.190476 116:0.259259 117:0.333333 118:0.333333 119:0.333333 120:0.333333 121:0.333333 122:0.111111 123:0.333333 124:0.333333 126:0.190476 127:0.166667 128:0.111111 129:0.210526 130:0.333333 132:0.266667 133:0.148148 134:0.111111 135:0.333333 136:0.333333 138:0.333333 139:0.333333 140:0.229167 141:0.227273 142:0.0833333 143:0.224638 145:0.212121 
1 1 0 0.1894206147712422 1:0.0740741 2:0.111111 3:0.111111 4:0.111111 5:0.111111 7:0.111111 8:0.0772947 10:0.0687831 12:0.111111 13:0.111111 14:0.111111 15:0.0666667 16:0.0740741 17:0.0666667 19:0.0555556 20:0.111111 23:0.0740741 24:0.111111 25:0.111111 26:0.102564 27:0.111111 28:0.0925926 29:0.0846561 30:0.111111 31:0.0666667 32:0.111111 33:0.111111 34:0.0763889 36:0.0555556 37:0.0666667 38:0.0698413 40:0.111111 41:0.111111 42:0.111111 43:0.0555556 44:0.0555556 45:0.111111 46:0.0555556 47:0.111111 48:0.111111 49:0.111111 50:0.111111 51:0.0444444 52:0.0925926 53:0.0740741 54:0.0833333 55:0.0555556 56:0.111111 57:0.111111 58:0.111111 59:0.0701754 60:0.111111 61:0.0740741 62:0.0277778 63:0.111111 64:0.0666667 65:0.0555556 66:0.0555556 67:0.0588235 68:0.111111 69:0.111111 70:0.111111 71:0.0555556 72:0.111111 73:0.111111 74:0.0814815 75:0.0925926 76:0.111111 77:0.037037 78:0.111111 79:0.111111 82:0.0833333 83:0.111111 84:0.0444444 85:0.0601852 86:0.0980392 87:0.0833333 88:0.0582011 90:0.111111 91:0.111111 92:0.111111 93:0.0555556 96:0.0625 97:0.0740741 98:0.111111 100:0.0555556 101:0.0617284 102:0.111111 103:0.0757576 104:0.111111 105:0.0740741 106:0.111111 107:0.111111 108:0.111111 109:0.0793651 111:0.111111 112:0.111111 114:0.037037 115:0.0634921 116:0.0864198 117:0.111111 118:0.111111 119:0.111111 120:0.111111 121:0.111111 122:0.037037 123:0.111111 124:0.111111 126:0.0634921 127:0.0555556 128:0.037037 129:0.0701754 130:0.111111 132:0.0888889 133:0.0493827 134:0.037037 135:0.111111 136:0.111111 138:0.111111 139:0.111111 140:0.0763889 141:0.0757576 142:0.0277778 143:0.0748792 145:0.0808081 
1 1 0 0 1:0.111111 2:0.166667 3:0.166667 4:0.166667 5:0.166667 7:0.166667 8:0.115942 10:0.103175 12:0.166667 13:0.166667 14:0.166667 15:0.1 16:0.111111 17:0.1 19:0.0833333 20:0.166667 23:0.111111 24:0.166667 25:0.166667 26:0.153846 27:0.166667 28:0.138889 29:0.126984 30:0.166667 31:0.1 32:0.166667 33:0.166667 34:0.114583 36:0.0833333 37:0.1 38:0.104762 40:0.166667 41:0.166667 42:0.166667 43:0.0833333 44:0.0833333 45:0.166667 46:0.0833333 47:0.166667 48:0.166667 49:0.166667 50:0.166667 51:0.0666667 52:0.138889 53:0.111111 54:0.125 55:0.0833333 56:0.166667 57:0.166667 58:0.166667 59:0.105263 60:0.166667 61:0.111111 62:0.0416667 63:0.166667 64:0.1 65:0.0833333 66:0.0833333 67:0.0882353 68:0.166667 69:0.166667 70:0.166667 71:0.0833333 72:0.166667 73:0.166667 74:0.122222 75:0.138889 76:0.166667 77:0.0555556 78:0.166667 79:0.166667 82:0.125 83:0.166667 84:0.0666667 85:0.0902778 86:0.147059 87:0.125 88:0.0873016 90:0.166667 91:0.166667 92:0.166667 93:0.0833333 96:0.09375 97:0.111111 98:0.166667 100:0.0833333 101:0.0925926 102:0.166667 103:0.113636 104:0.166667 105:0.111111 106:0.166667 107:0.166667 108:0.166667 109:0.119048 111:0.166667 112:0.166667 114:0.0555556 115:0.0952381 116:0.12963 117:0.166667 118:0.166667 119:0.166667 120:0.166667 121:0.166667 122:0.0555556 123:0.166667 124:0.166667 126:0.0952381 127:0.0833333 128:0.0555556 129:0.105263 130:0.166667 132:0.133333 133:0.0740741 134:0.0555556 135:0.166667 136:0.166667 138:0.166667 139:0.166667 140:0.114583 141:0.113636 142:0.0416667 143:0.112319 145:0.121212 
1 1 0 1 1:0.146667 2:0.2 3:0.2 4:0.2 5:0.2 7:0.2 8:0.13913 10:0.12381 12:0.2 13:0.2 14:0.2 15:0.16 16:0.133333 17:0.16 19:0.1 20:0.2 23:0.133333 24:0.2 25:0.2 26:0.184615 27:0.2 28:0.166667 29:0.152381 30:0.2 31:0.12 32:0.2 33:0.2 34:0.1375 36:0.1 37:0.12 38:0.125714 40:0.2 41:0.2 42:0.2 43:0.1 44:0.1 45:0.2 46:0.15 47:0.2 48:0.2 49:0.2 50:0.2 51:0.08 52:0.166667 53:0.133333 54:0.15 55:0.1 56:0.2 57:0.2 58:0.2 59:0.136842 60:0.2 61:0.133333 62:0.1 63:0.2 64:0.12 65:0.133333 66:0.1 67:0.111765 68:0.2 69:0.2 70:0.2 71:0.1 72:0.2 73:0.2 74:0.146667 75:0.166667 76:0.2 77:0.0888889 78:0.2 79:0.2 82:0.15 83:0.2 84:0.08 85:0.116667 86:0.176471 87:0.15 88:0.114286 90:0.2 91:0.2 92:0.2 93:0.1 96:0.1125 97:0.2 98:0.2 100:0.1 101:0.111111 102:0.2 103:0.136364 104:0.2 105:0.133333 106:0.2 107:0.2 108:0.2 109:0.171429 111:0.2 112:0.2 114:0.0666667 115:0.128571 116:0.155556 117:0.2 118:0.2 119:0.2 120:0.2 121:0.2 122:0.0666667 123:0.2 124:0.2 126:0.114286 127:0.133333 128:0.0666667 129:0.126316 130:0.2 132:0.16 133:0.0888889 134:0.166667 135:0.2 136:0.2 138:0.2 139:0.2 140:0.15 141:0.136364 142:0.05 143:0.134783 145:0.163636 
1 1 0 0 1:0.146667 2:0.2 3:0.2 4:0.2 5:0.2 7:0.2 8:0.13913 9:0.2 10:0.12381 12:0.2 13:0.2 14:0.2 15:0.16 16:0.133333 17:0.16 18:0.2 19:0.1 20:0.2 23:0.133333 24:0.2 25:0.2 26:0.184615 27:0.2 28:0.166667 29:0.152381 30:0.2 31:0.12 32:0.2 33:0.2 34:0.1375 36:0.1 37:0.12 38:0.125714 40:0.2 41:0.2 42:0.2 43:0.1 44:0.1 45:0.2 46:0.2 47:0.2 48:0.2 49:0.2 50:0.2 51:0.08 52:0.166667 53:0.133333 54:0.15 55:0.1 56:0.2 57:0.2 58:0.2 59:0.136842 60:0.2 61:0.133333 62:0.1 63:0.2 64:0.12 65:0.133333 66:0.1 67:0.117647 68:0.2 69:0.2 70:0.2 71:0.1 72:0.2 73:0.2 74:0.146667 75:0.166667 76:0.2 77:0.0888889 78:0.2 79:0.2 82:0.15 83:0.2 84:0.08 85:0.133333 86:0.176471 87:0.15 88:0.114286 90:0.2 91:0.2 92:0.2 93:0.1 94:0.2 96:0.1125 97:0.2 98:0.2 100:0.1 101:0.111111 102:0.2 103:0.145455 104:0.2 105:0.133333 106:0.2 107:0.2 108:0.2 109:0.171429 111:0.2 112:0.2 114:0.0666667 115:0.128571 116:0.155556 117:0.2 118:0.2 119:0.2 120:0.2 121:0.2 122:0.0666667 123:0.2 124:0.2 126:0.142857 127:0.133333 128:0.0666667 129:0.126316 130:0.2 132:0.16 133:0.1 134:0.166667 135:0.2 136:0.2 138:0.2 139:0.2 140:0.15 141:0.145455 142:0.075 143:0.143478 144:0.2 145:0.163636 
0.2804502394057771 1 0 0.5355439890224861 1:0.0814815 2:0.111111 3:0.111111 4:0.111111 5:0.111111 7:0.111111 8:0.0821256 9:0.111111 10:0.0793651 12:0.111111 13:0.111111 14:0.111111 15:0.0888889 16:0.0740741 17:0.0888889 18:0.111111 19:0.0555556 20:0.111111 23:0.0740741 24:0.111111 25:0.111111 26:0.102564 27:0.111111 28:0.0925926 29:0.0846561 30:0.111111 31:0.0666667 32:0.111111 33:0.111111 34:0.0763889 36:0.0555556 37:0.0888889 38:0.0761905 40:0.111111 41:0.111111 42:0.111111 43:0.111111 44:0.0555556 45:0.111111 46:0.111111 47:0.111111 48:0.111111 49:0.111111 50:0.111111 51:0.0666667 52:0.0925926 53:0.0740741 54:0.0833333 55:0.0555556 56:0.111111 57:0.111111 58:0.111111 59:0.0818713 60:0.111111 61:0.0740741 62:0.111111 63:0.111111 64:0.0666667 65:0.0740741 66:0.0555556 67:0.0686275 68:0.111111 69:0.111111 70:0.111111 71:0.0555556 72:0.111111 73:0.111111 74:0.0888889 75:0.0925926 76:0.111111 77:0.0493827 78:0.111111 79:0.111111 81:0.111111 82:0.0833333 83:0.111111 84:0.0444444 85:0.0740741 86:0.0980392 87:0.0833333 88:0.0634921 90:0.111111 91:0.111111 92:0.111111 93:0.0555556 94:0.111111 96:0.0625 97:0.111111 98:0.111111 100:0.111111 101:0.0617284 102:0.111111 103:0.0808081 104:0.111111 105:0.0740741 106:0.111111 107:0.111111 108:0.111111 109:0.111111 111:0.111111 112:0.111111 114:0.0740741 115:0.0873016 116:0.0864198 117:0.111111 118:0.111111 119:0.111111 120:0.111111 121:0.111111 122:0.037037 123:0.111111 124:0.111111 126:0.0793651 127:0.0740741 128:0.037037 129:0.0701754 130:0.111111 132:0.0888889 133:0.0555556 134:0.0925926 135:0.111111 136:0.111111 138:0.111111 139:0.111111 140:0.0833333 141:0.0858586 142:0.0416667 143:0.0797101 144:0.111111 145:0.0909091 
1 1 0 0.4590921065956679 1:0.183333 2:0.25 3:0.25 4:0.25 5:0.25 7:0.25 8:0.184783 9:0.25 10:0.178571 11:0.125 12:0.25 13:0.25 14:0.25 15:0.2 16:0.166667 17:0.2 18:0.25 19:0.125 20:0.25 23:0.166667 24:0.25 25:0.25 26:0.230769 27:0.25 28:0.208333 29:0.190476 30:0.25 31:0.15 32:0.25 33:0.25 34:0.171875 36:0.125 37:0.2 38:0.171429 40:0.25 41:0.25 42:0.25 43:0.25 44:0.125 45:0.25 46:0.25 47:0.25 48:0.25 49:0.25 50:0.25 51:0.15 52:0.208333 53:0.166667 54:0.1875 55:0.125 56:0.25 57:0.25 58:0.25 59:0.184211 60:0.25 61:0.166667 62:0.25 63:0.25 64:0.15 65:0.166667 66:0.125 67:0.154412 68:0.25 69:0.25 70:0.25 71:0.125 72:0.25 73:0.25 74:0.2 75:0.208333 76:0.25 77:0.111111 78:0.25 79:0.25 81:0.25 82:0.1875 83:0.25 84:0.1 85:0.166667 86:0.235294 87:0.1875 88:0.142857 90:0.25 91:0.25 92:0.25 93:0.125 94:0.25 96:0.140625 97:0.25 98:0.25 100:0.25 101:0.138889 102:0.25 103:0.181818 104:0.25 105:0.166667 106:0.25 107:0.25 108:0.25 109:0.25 111:0.25 112:0.25 114:0.166667 115:0.196429 116:0.194444 117:0.25 118:0.25 119:0.25 120:0.25 121:0.25 122:0.0833333 123:0.25 124:0.25 126:0.178571 127:0.208333 128:0.0833333 129:0.157895 130:0.25 132:0.2 133:0.125 134:0.208333 135:0.25 136:0.25 138:0.25 139:0.25 140:0.1875 141:0.193182 142:0.09375 143:0.179348 144:0.25 145:0.204545 
0.1423924433096479 1 0 0 1:0.733333 2:1 3:1 4:1 5:1 7:1 8:0.73913 9:1 10:0.714286 11:0.5 12:1 13:1 14:1 15:0.8 16:0.666667 17:0.8 18:1 19:0.5 20:1 23:0.666667 24:1 25:1 26:0.923077 27:1 28:1 29:0.761905 30:1 31:0.6 32:1 33:1 34:0.6875 36:0.5 37:0.8 38:0.742857 40:1 41:1 42:1 43:1 44:0.5 45:1 46:1 47:1 48:1 49:1 50:1 51:0.6 52:0.833333 53:0.666667 54:0.75 55:0.5 56:1 57:1 58:1 59:0.736842 60:1 61:0.666667 62:1 63:1 64:0.6 65:0.666667 66:0.5 67:0.676471 68:1 69:1 70:1 71:0.5 72:1 73:1 74:0.8 75:0.833333 76:1 77:0.444444 78:1 79:1 81:1 82:0.75 83:1 84:0.4 85:0.708333 86:0.941176 87:0.75 88:0.571429 90:1 91:1 92:1 93:0.5 94:1 96:0.5625 97:1 98:1 100:1 101:0.555556 102:1 103:0.727273 104:1 105:1 106:1 107:1 108:1 109:1 111:1 112:1 114:0.666667 115:0.785714 116:0.777778 117:1 118:1 119:1 120:1 121:1 122:0.333333 123:1 124:1 126:0.714286 127:0.833333 128:0.666667 129:0.684211 130:1 132:1 133:0.5 134:0.833333 135:1 136:1 138:1 139:1 140:0.75 141:0.772727 142:0.375 143:0.73913 144:1 145:0.818182 
1 1 0 0.09484046708115629 1:0.733333 2:1 3:1 4:1 5:1 7:1 8:0.73913 9:1 10:0.714286 11:0.5 12:1 13:1 14:1 15:0.8 16:0.666667 17:0.8 18:1 19:0.5 20:1 23:0.666667 24:1 25:1 26:0.923077 27:1 28:1 29:0.761905 30:1 31:0.6 32:1 33:1 34:0.6875 36:0.5 37:0.8 38:0.742857 40:1 41:1 42:1 43:1 44:0.5 45:1 46:1 47:1 48:1 49:1 50:1 51:0.6 52:0.833333 53:0.666667 54:0.75 55:0.5 56:1 57:1 58:1 59:0.736842 60:1 61:0.666667 62:1 63:1 64:0.6 65:0.666667 66:0.5 67:0.676471 68:1 69:1 70:1 71:0.5 72:1 73:1 74:0.8 75:0.833333 76:1 77:0.444444 78:1 79:1 81:1 82:0.75 83:1 84:0.4 85:0.708333 86:0.941176 87:0.75 88:0.571429 90:1 91:1 92:1 93:0.5 94:1 96:0.5625 97:1 98:1 100:1 101:0.555556 102:1 103:0.727273 104:1 105:1 106:1 107:1 108:1 109:1 111:1 112:1 114:0.666667 115:0.785714 116:0.777778 117:1 118:1 119:1 120:1 121:1 122:0.333333 123:1 124:1 126:0.714286 127:0.833333 128:0.666667 129:0.684211 130:1 132:1 133:0.5 134:0.833333 135:1 136:1 138:1 139:1 140:0.75 141:0.772727 142:0.375 143:0.73913 144:1 145:0.818182 
0 1 0 0.6682195461465477 1:0.0814815 2:0.111111 3:0.111111 4:0.111111 5:0.111111 7:0.111111 8:0.0821256 9:0.111111 10:0.0793651 11:0.0555556 12:0.111111 13:0.111111 14:0.111111 15:0.111111 16:0.0740741 17:0.0888889 18:0.111111 19:0.0555556 20:0.111111 23:0.0740741 24:0.111111 25:0.111111 26:0.102564 27:0.111111 28:0.111111 29:0.0846561 30:0.111111 31:0.0666667 32:0.111111 33:0.111111 34:0.0763889 36:0.0555556 37:0.0888889 38:0.0857143 40:0.111111 41:0.111111 42:0.111111 43:0.111111 44:0.111111 45:0.111111 46:0.111111 47:0.111111 48:0.111111 49:0.111111 50:0.111111 51:0.0666667 52:0.0925926 53:0.0740741 54:0.0833333 55:0.0555556 56:0.111111 57:0.111111 58:0.111111 59:0.0818713 60:0.111111 61:0.0740741 62:0.111111 63:0.111111 64:0.0666667 65:0.0740741 66:0.0555556 67:0.0751634 68:0.111111 69:0.111111 70:0.111111 71:0.0555556 72:0.111111 73:0.111111 74:0.0888889 75:0.0925926 76:0.111111 77:0.0493827 78:0.111111 79:0.111111 81:0.111111 82:0.0833333 83:0.111111 84:0.0444444 85:0.0787037 86:0.104575 87:0.0833333 88:0.0687831 90:0.111111 91:0.111111 92:0.111111 93:0.0555556 94:0.111111 96:0.0625 97:0.111111 98:0.111111 100:0.111111 101:0.0617284 102:0.111111 103:0.0808081 104:0.111111 105:0.111111 106:0.111111 107:0.111111 108:0.111111 109:0.111111 111:0.111111 112:0.111111 114:0.0740741 115:0.0873016 116:0.0864198 117:0.111111 118:0.111111 119:0.111111 120:0.111111 121:0.111111 122:0.037037 123:0.111111 124:0.111111 126:0.0793651 127:0.0925926 128:0.0740741 129:0.0760234 130:0.111111 132:0.111111 133:0.0555556 134:0.0925926 135:0.111111 136:0.111111 138:0.111111 139:0.111111 140:0.0833333 141:0.0858586 142:0.0416667 143:0.0845411 144:0.111111 145:0.0909091 
0 1 0 1 1:0.0488889 2:0.0666667 3:0.0666667 4:0.0666667 5:0.0666667 7:0.0666667 8:0.0492754 9:0.0666667 10:0.047619 11:0.0333333 12:0.0666667 13:0.0666667 14:0.0666667 15:0.0666667 16:0.0444444 17:0.0533333 18:0.0666667 19:0.0333333 20:0.0666667 23:0.0444444 24:0.0666667 25:0.0666667 26:0.0615385 27:0.0666667 28:0.0666667 29:0.0507937 30:0.0666667 31:0.04 32:0.0666667 33:0.0666667 34:0.0479167 36:0.0333333 37:0.0533333 38:0.0514286 40:0.0666667 41:0.0666667 42:0.0666667 43:0.0666667 44:0.0666667 45:0.0666667 46:0.0666667 47:0.0666667 48:0.0666667 49:0.0666667 50:0.0666667 51:0.04 52:0.0555556 53:0.0444444 54:0.0583333 55:0.0333333 56:0.0666667 57:0.0666667 58:0.0666667 59:0.0491228 60:0.0666667 61:0.0444444 62:0.0666667 63:0.0666667 64:0.04 65:0.0555556 66:0.0333333 67:0.045098 68:0.0666667 69:0.0666667 70:0.0666667 71:0.0333333 72:0.0666667 73:0.0666667 74:0.0533333 75:0.0555556 76:0.0666667 77:0.0296296 78:0.0666667 79:0.0666667 81:0.0666667 82:0.05 83:0.0666667 84:0.0266667 85:0.05 86:0.0627451 87:0.05 88:0.0412698 90:0.0666667 91:0.0666667 92:0.0666667 93:0.0416667 94:0.0666667 96:0.0416667 97:0.0666667 98:0.0666667 100:0.0666667 101:0.037037 102:0.0666667 103:0.0484848 104:0.0666667 105:0.0666667 106:0.0666667 107:0.0666667 108:0.0666667 109:0.0666667 111:0.0666667 112:0.0666667 114:0.0444444 115:0.052381 116:0.0518519 117:0.0666667 118:0.0666667 119:0.0666667 120:0.0666667 121:0.0666667 122:0.0222222 123:0.0666667 124:0.0666667 126:0.047619 127:0.0555556 128:0.0666667 129:0.045614 130:0.0666667 132:0.0666667 133:0.0333333 134:0.0555556 135:0.0666667 136:0.0666667 138:0.0666667 139:0.0666667 140:0.05 141:0.0515152 142:0.025 143:0.0521739 144:0.0666667 145:0.0545455 
0 1 0 0 1:0.104762 2:0.142857 3:0.142857 4:0.142857 5:0.142857 7:0.142857 8:0.10559 9:0.142857 10:0.108844 11:0.0714286 12:0.142857 13:0.142857 14:0.142857 15:0.142857 16:0.0952381 17:0.114286 18:0.142857 19:0.0714286 20:0.142857 23:0.142857 24:0.142857 25:0.142857 26:0.131868 27:0.142857 28:0.142857 29:0.108844 30:0.142857 31:0.0857143 32:0.142857 33:0.142857 34:0.102679 36:0.0714286 37:0.114286 38:0.110204 40:0.142857 41:0.142857 42:0.142857 43:0.142857 44:0.142857 45:0.142857 46:0.142857 47:0.142857 48:0.142857 49:0.142857 50:0.142857 51:0.0857143 52:0.119048 53:0.0952381 54:0.125 55:0.0714286 56:0.142857 57:0.142857 58:0.142857 59:0.105263 60:0.142857 61:0.0952381 62:0.142857 63:0.142857 64:0.0857143 65:0.119048 66:0.0714286 67:0.0966387 68:0.142857 69:0.142857 70:0.142857 71:0.0714286 72:0.142857 73:0.142857 74:0.114286 75:0.119048 76:0.142857 77:0.0793651 78:0.142857 79:0.142857 81:0.142857 82:0.107143 83:0.142857 84:0.0571429 85:0.107143 86:0.134454 87:0.107143 88:0.0884354 90:0.142857 91:0.142857 92:0.142857 93:0.0892857 94:0.142857 96:0.0892857 97:0.142857 98:0.142857 100:0.142857 101:0.0793651 102:0.142857 103:0.103896 104:0.142857 105:0.142857 106:0.142857 107:0.142857 108:0.142857 109:0.142857 111:0.142857 112:0.142857 114:0.0952381 115:0.112245 116:0.111111 117:0.142857 118:0.142857 119:0.142857 120:0.142857 121:0.142857 122:0.047619 123:0.142857 124:0.142857 126:0.102041 127:0.119048 128:0.142857 129:0.0977444 130:0.142857 132:0.142857 133:0.0714286 134:0.119048 135:0.142857 136:0.142857 138:0.142857 139:0.142857 140:0.107143 141:0.11039 142:0.0535714 143:0.111801 144:0.142857 145:0.116883 
1 0.8737538162488722 0 0 1:0.733333 2:1 3:1 4:1 5:1 7:1 8:0.73913 9:1 10:0.761905 11:0.5 12:1 13:1 14:1 15:1 16:0.666667 17:0.8 18:1 19:0.5 20:1 23:1 24:1 25:1 26:0.923077 27:1 28:1 29:0.809524 30:1 31:0.6 32:1 33:1 34:0.71875 36:0.5 37:0.8 38:0.771429 40:1 41:1 42:1 43:1 44:1 45:1 46:1 47:1 48:1 49:1 50:1 51:0.6 52:0.833333 53:0.666667 54:0.875 55:0.5 56:1 57:1 58:1 59:0.789474 60:1 61:0.666667 62:1 63:1 64:0.6 65:0.833333 66:0.5 67:0.676471 68:1 69:1 70:1 71:0.5 72:1 73:1 74:0.8 75:0.833333 76:1 77:0.555556 78:1 79:1 81:1 82:0.75 83:1 84:0.4 85:0.75 86:0.941176 87:0.75 88:0.666667 90:1 91:1 92:1 93:0.625 94:1 96:0.6875 97:1 98:1 100:1 101:0.555556 102:1 103:0.727273 104:1 105:1 106:1 107:1 108:1 109:1 111:1 112:1 114:0.666667 115:0.785714 116:0.777778 117:1 118:1 119:1 120:1 121:1 122:0.333333 123:1 124:1 126:0.714286 127:0.833333 128:1 129:0.684211 130:1 132:1 133:0.555556 134:0.833333 135:1 136:1 138:1 139:1 140:0.75 141:0.772727 142:0.375 143:0.804348 144:1 145:0.818182 
0.2241747523785763 1 0 0 1:0.366667 2:0.5 3:0.5 4:0.5 5:0.5 7:0.5 8:0.369565 9:0.5 10:0.380952 11:0.25 12:0.5 13:0.5 14:0.5 15:0.5 16:0.333333 17:0.4 18:0.5 19:0.25 20:0.5 23:0.5 24:0.5 25:0.5 26:0.461538 27:0.5 28:0.5 29:0.404762 30:0.5 31:0.3 32:0.5 33:0.5 34:0.359375 36:0.25 37:0.4 38:0.385714 40:0.5 41:0.5 42:0.5 43:0.5 44:0.5 45:0.5 46:0.5 47:0.5 48:0.5 49:0.5 50:0.5 51:0.3 52:0.416667 53:0.333333 54:0.4375 55:0.25 56:0.5 57:0.5 58:0.5 59:0.394737 60:0.5 61:0.333333 62:0.5 63:0.5 64:0.3 65:0.416667 66:0.25 67:0.338235 68:0.5 69:0.5 70:0.5 71:0.25 72:0.5 73:0.5 74:0.4 75:0.416667 76:0.5 77:0.277778 78:0.5 79:0.5 81:0.5 82:0.375 83:0.5 84:0.2 85:0.375 86:0.470588 87:0.375 88:0.333333 90:0.5 91:0.5 92:0.5 93:0.3125 94:0.5 96:0.34375 97:0.5 98:0.5 100:0.5 101:0.277778 102:0.5 103:0.363636 104:0.5 105:0.5 106:0.5 107:0.5 108:0.5 109:0.5 111:0.5 112:0.5 114:0.333333 115:0.392857 116:0.388889 117:0.5 118:0.5 119:0.5 120:0.5 121:0.5 122:0.166667 123:0.5 124:0.5 126:0.357143 127:0.416667 128:0.5 129:0.342105 130:0.5 132:0.5 133:0.277778 134:0.416667 135:0.5 136:0.5 138:0.5 139:0.5 140:0.375 141:0.386364 142:0.1875 143:0.402174 144:0.5 145:0.409091 
