svm_type c_svc
kernel_type rbf
gamma 0.011236
nr_class 5
total_sv 184
rho -1.01289 -1.01005 -1.00844 -1.01152 0.999505 0.990841 0.966457 -1.02474 -1.01163 -1.01797
label 1 4 2 3 5
nr_sv 114 3 46 17 4
SV
0.941323633571431 0.2700489402304603 0 0.1016092264442131 
0.6011749397935231 0.7843747110487956 0 0 8:0.00719217 9:0.0125 22:0.00414731 24:0.0180115 44:0.00719217 59:0.00490196 68:0.0144009 
0 1 0.6383197858674093 0.6024300071993425 1:0.0037594 5:0.00150376 6:0.00478469 8:0.000605657 9:0.00263158 22:0.00136206 24:0.00151676 30:0.00219298 37:0.00657895 41:0.00350877 44:0.000605657 49:0.00404858 53:0.0131579 59:0.000412797 68:0.00121271 
0 1 0.8194917660067953 0 1:0.00357143 5:0.00142857 6:0.00454545 8:0.00218642 9:0.0025 22:0.00126078 24:0.00129683 30:0.00208333 36:0.00188679 37:0.00625 41:0.00333333 44:0.000517837 49:0.00384615 53:0.0125 59:0.000352941 66:0.00333333 68:0.00103687 69:0.00384615 
0 1 0 0 1:0.0357143 5:0.0285714 6:0.0681818 8:0.0322209 9:0.025 13:0.0263158 22:0.01858 24:0.0389049 28:0.0172414 30:0.0208333 36:0.0377358 37:0.125 41:0.0333333 44:0.0322209 49:0.0384615 53:0.125 59:0.0219608 66:0.0333333 68:0.031106 69:0.0384615 72:0.03125 86:0.0416667 
0 0.02012150630455236 0 0 1:0.0714286 5:0.0857143 6:0.136364 8:0.0655926 9:0.1 13:0.105263 22:0.0378235 24:0.164265 28:0.0344828 30:0.0416667 36:0.0943396 37:0.25 41:0.0666667 44:0.0989643 49:0.0769231 50:0.0588235 53:0.25 59:0.0447059 66:0.0666667 68:0.0645161 69:0.0769231 72:0.0625 77:0.047619 86:0.125 
0 0.1222977179984147 0 0 1:0.0714286 5:0.114286 6:0.136364 8:0.0655926 9:0.1 13:0.105263 22:0.057067 24:0.164265 28:0.0344828 30:0.0416667 36:0.132075 37:0.375 41:0.0666667 44:0.0989643 49:0.0769231 50:0.0588235 53:0.25 59:0.0447059 66:0.133333 68:0.0645161 69:0.153846 72:0.0625 77:0.047619 86:0.166667 
0 0 1 0 1:0.0102041 5:0.0163265 6:0.0194805 8:0.0131514 9:0.0285714 13:0.0150376 22:0.00758366 24:0.0209963 28:0.00492611 30:0.00595238 34:0.142857 36:0.0188679 37:0.0535714 41:0.0190476 44:0.0226862 49:0.032967 50:0.00840336 53:0.0357143 59:0.00896359 66:0.0190476 68:0.0167874 69:0.021978 72:0.00892857 77:0.00680272 86:0.0238095 
0 0 0.03179731695095826 0 1:0.0178571 5:0.0285714 6:0.0340909 8:0.023878 9:0.05 13:0.0394737 22:0.0137691 24:0.0389049 28:0.00862069 30:0.0104167 34:0.25 36:0.0330189 37:0.09375 41:0.0333333 44:0.0405639 49:0.0576923 50:0.0147059 53:0.0625 59:0.0219608 66:0.0333333 68:0.031106 69:0.0384615 72:0.015625 77:0.0119048 86:0.0416667 
0 0 0.0412346961737772 0 1:0.0238095 5:0.0380952 6:0.0454545 8:0.0322209 9:0.0666667 13:0.0526316 22:0.01858 24:0.0528338 28:0.0114943 30:0.0138889 34:0.333333 36:0.0440252 37:0.125 41:0.0444444 44:0.0544687 49:0.0769231 50:0.0196078 53:0.0833333 59:0.0295425 66:0.0444444 68:0.0422427 69:0.0512821 72:0.0208333 77:0.015873 86:0.0555556 
0 0.009304894127694145 0 0 1:0.0714286 5:0.114286 6:0.136364 8:0.0989643 9:0.2 13:0.157895 22:0.057067 24:0.164265 28:0.0344828 30:0.0416667 34:1 36:0.150943 37:0.375 41:0.2 44:0.165708 49:0.230769 50:0.0588235 53:0.25 59:0.0901961 66:0.133333 68:0.131336 69:0.153846 72:0.0625 77:0.047619 86:0.166667 
0 0.6070997242161508 0 0 1:0.0357143 5:0.0571429 6:0.0681818 8:0.0489068 9:0.1 13:0.105263 22:0.0282017 24:0.122478 28:0.0172414 30:0.0208333 34:0.5 36:0.0754717 37:0.1875 41:0.1 43:0.0357143 44:0.0822785 49:0.115385 50:0.0294118 53:0.125 59:0.0447059 66:0.0666667 68:0.0645161 69:0.0769231 72:0.03125 77:0.0238095 86:0.0833333 
0 0.883444493445168 0 0 1:0.0357143 5:0.0571429 6:0.0681818 8:0.0489068 9:0.1 13:0.131579 22:0.0282017 24:0.122478 28:0.0172414 30:0.0208333 34:0.5 36:0.0754717 37:0.1875 41:0.1 43:0.0357143 44:0.0822785 49:0.115385 50:0.0294118 53:0.125 59:0.0447059 66:0.0666667 68:0.0645161 69:0.0769231 72:0.03125 77:0.0238095 86:0.0833333 
0 1 0 0 1:0.0357143 5:0.0714286 6:0.0681818 8:0.0489068 9:0.1 13:0.157895 22:0.0282017 24:0.122478 28:0.0344828 30:0.0208333 34:0.5 36:0.0943396 37:0.3125 41:0.166667 43:0.0714286 44:0.0989643 49:0.115385 50:0.0588235 53:0.125 59:0.0447059 66:0.0666667 68:0.0645161 69:0.0769231 72:0.03125 77:0.0238095 86:0.0833333 
0 0.1709438873146998 0 0 1:0.0238095 5:0.0571429 6:0.0454545 8:0.0433448 9:0.0833333 13:0.105263 15:0.0229885 22:0.01858 24:0.0806916 28:0.0344828 30:0.0138889 33:0.333333 34:0.333333 35:0.333333 36:0.0628931 37:0.208333 41:0.133333 43:0.047619 44:0.0655926 49:0.0769231 50:0.0392157 53:0.0833333 59:0.0371242 66:0.0444444 68:0.0422427 69:0.0512821 72:0.0208333 77:0.015873 86:0.0555556 
0 1 0 0 1:0.0102041 5:0.0244898 6:0.025974 8:0.0179188 9:0.0357143 13:0.0526316 15:0.00985222 22:0.00758366 24:0.0448744 28:0.0147783 30:0.00595238 33:0.142857 34:0.142857 35:0.142857 36:0.0269542 37:0.0892857 41:0.0571429 43:0.0204082 44:0.0274536 49:0.032967 50:0.0168067 53:0.0535714 59:0.0154622 66:0.0285714 68:0.0167874 69:0.021978 72:0.00892857 77:0.00680272 86:0.0238095 
0 0.6775525021124798 0 0 1:0.0714286 5:0.171429 6:0.227273 8:0.165708 9:0.25 13:0.421053 15:0.103448 22:0.057067 24:0.414986 28:0.206897 30:0.0416667 33:1 34:1 35:1 36:0.207547 37:0.625 41:0.533333 43:0.285714 44:0.199079 49:0.230769 50:0.117647 53:0.375 59:0.112941 66:0.2 68:0.131336 69:0.230769 72:0.125 77:0.047619 86:0.166667 
0 0 1 0 1:0.047619 5:0.0666667 6:0.106061 8:0.0544687 9:0.0833333 13:0.192982 15:0.045977 22:0.0249945 24:0.164265 28:0.0804598 30:0.0277778 33:0.333333 34:0.333333 35:0.333333 36:0.081761 37:0.208333 41:0.177778 43:0.0952381 44:0.0767165 49:0.102564 50:0.0392157 53:0.125 59:0.0447059 66:0.0666667 68:0.0422427 69:0.0769231 72:0.0416667 77:0.031746 86:0.0972222 
0 0.04986842350195926 0 0 1:0.0285714 5:0.04 6:0.0636364 8:0.0322209 9:0.05 12:0.00869565 13:0.115789 15:0.0275862 22:0.0147313 24:0.0974063 28:0.0482759 30:0.0166667 33:0.2 34:0.2 35:0.2 36:0.0528302 37:0.125 41:0.106667 43:0.0571429 44:0.0455696 49:0.0615385 50:0.0235294 53:0.075 59:0.0265098 66:0.04 68:0.024424 69:0.0461538 72:0.025 77:0.0190476 84:0.00833333 86:0.0583333 
0 0.6283383038672767 0 0 1:0.047619 5:0.0666667 6:0.106061 8:0.0544687 9:0.0833333 12:0.0144928 13:0.192982 15:0.045977 22:0.0249945 24:0.164265 28:0.0804598 30:0.0277778 33:0.333333 34:0.333333 35:0.333333 36:0.0943396 37:0.208333 41:0.177778 43:0.0952381 44:0.0767165 49:0.102564 50:0.0392157 53:0.125 59:0.0447059 66:0.0666667 68:0.0422427 69:0.0769231 72:0.0416667 77:0.031746 84:0.0138889 86:0.0972222 
0 0.654163299096807 0 0 1:0.0535714 5:0.0571429 6:0.0909091 8:0.0405639 9:0.0625 12:0.0108696 13:0.144737 15:0.0344828 20:0.25 22:0.0233908 24:0.122478 25:0.25 28:0.0689655 30:0.0208333 33:0.25 34:0.25 35:0.25 36:0.0801887 37:0.15625 41:0.133333 43:0.0714286 44:0.0655926 49:0.0961538 50:0.0294118 53:0.09375 59:0.0333333 60:0.0147059 66:0.05 68:0.031106 69:0.0769231 71:0.25 72:0.03125 75:0.05 77:0.0238095 84:0.0104167 86:0.0729167 
0 0.7710961374512509 0.7635599606233221 0.3418867927283205 1:0.0194805 5:0.0207792 6:0.0330579 8:0.0140182 9:0.0227273 12:0.00395257 13:0.0526316 15:0.0125392 20:0.0909091 22:0.00808349 24:0.0427037 25:0.0909091 28:0.0250784 30:0.00757576 33:0.0909091 34:0.0909091 35:0.0909091 36:0.0308748 37:0.0568182 41:0.0484848 43:0.025974 44:0.0231196 49:0.034965 50:0.0106952 53:0.0340909 59:0.0116221 60:0.00534759 66:0.0242424 68:0.00984499 69:0.034965 71:0.0909091 72:0.0113636 75:0.0181818 77:0.00865801 84:0.00378788 86:0.0265152 
0.006251114816833589 0 0.6570585230116609 0 1:0.107143 5:0.114286 6:0.181818 8:0.0822785 9:0.125 12:0.0217391 13:0.289474 15:0.0689655 20:0.5 22:0.0474453 24:0.247839 25:0.5 28:0.137931 30:0.0416667 33:0.5 34:0.5 35:0.5 36:0.169811 37:0.3125 41:0.266667 43:0.142857 44:0.132336 49:0.192308 50:0.0588235 53:0.1875 59:0.067451 60:0.0294118 66:0.133333 68:0.0645161 69:0.192308 71:0.5 72:0.0625 75:0.1 77:0.047619 84:0.0208333 86:0.145833 
0 1 0 0 1:0.0178571 5:0.0190476 6:0.0340909 8:0.0183161 9:0.0208333 12:0.00362319 13:0.0482456 15:0.0143678 20:0.0833333 22:0.0089582 24:0.0389049 25:0.0833333 28:0.0229885 30:0.0104167 32:0.00555556 33:0.0833333 34:0.0833333 35:0.0833333 36:0.0314465 37:0.0520833 41:0.0444444 43:0.0238095 44:0.021097 49:0.0320513 50:0.0147059 53:0.03125 59:0.0105882 60:0.00490196 66:0.0222222 68:0.00883257 69:0.0320513 71:0.0833333 72:0.0104167 75:0.0166667 77:0.00793651 84:0.00347222 86:0.0243056 
0 1 0 0 1:0.0133929 5:0.0160714 6:0.0255682 8:0.0134494 9:0.015625 12:0.00271739 13:0.0361842 15:0.0107759 20:0.0625 22:0.00655275 24:0.0284582 25:0.0625 28:0.0172414 30:0.0130208 32:0.00416667 33:0.0625 34:0.0625 35:0.0625 36:0.0235849 37:0.0390625 39:0.00694444 41:0.0333333 43:0.0178571 44:0.0155351 49:0.0288462 50:0.0110294 53:0.0234375 59:0.0077451 60:0.00367647 66:0.0166667 68:0.00604839 69:0.0240385 71:0.0625 72:0.0078125 75:0.0125 77:0.00595238 84:0.00260417 86:0.0182292 
0 1 0 0 1:0.00765306 5:0.0102041 6:0.0146104 8:0.00719217 9:0.00892857 12:0.00310559 13:0.0206767 15:0.00738916 20:0.0357143 22:0.00346004 24:0.0150268 25:0.0357143 28:0.00985222 30:0.00744048 32:0.00238095 33:0.0357143 34:0.0357143 35:0.0357143 36:0.0134771 37:0.0223214 38:0.0178571 39:0.00793651 41:0.0190476 43:0.0102041 44:0.0107677 49:0.0164835 50:0.00630252 53:0.0133929 54:0.0178571 59:0.00408964 60:0.00210084 65:0.0119048 66:0.00952381 68:0.00485517 69:0.0137363 71:0.0357143 72:0.00446429 75:0.00714286 77:0.00510204 84:0.00446429 86:0.0104167 
0 0.07898843539264489 0 0 1:0.107143 5:0.142857 6:0.204545 8:0.11565 9:0.125 12:0.0434783 13:0.289474 15:0.103448 20:0.5 22:0.0763106 24:0.247839 25:0.5 28:0.137931 30:0.104167 32:0.0666667 33:0.5 34:0.5 35:0.5 36:0.188679 37:0.3125 38:0.25 39:0.111111 41:0.266667 43:0.142857 44:0.165708 49:0.230769 50:0.0882353 53:0.1875 54:0.25 59:0.067451 60:0.0294118 65:0.166667 66:0.133333 68:0.0979263 69:0.192308 71:0.5 72:0.09375 75:0.1 77:0.0714286 84:0.0625 86:0.145833 
0 0.394393516266551 0 0.09355634163393842 1:0.107143 5:0.142857 6:0.227273 8:0.11565 9:0.125 12:0.0434783 13:0.315789 15:0.12069 20:0.5 22:0.0763106 24:0.247839 25:0.5 28:0.137931 30:0.125 32:0.0666667 33:0.5 34:0.5 35:0.5 36:0.198113 37:0.3125 38:0.25 39:0.111111 41:0.266667 43:0.142857 44:0.182394 49:0.230769 50:0.0882353 53:0.1875 54:0.25 59:0.0788235 60:0.0294118 65:0.166667 66:0.133333 68:0.0979263 69:0.192308 71:0.5 72:0.09375 75:0.2 77:0.0714286 84:0.0833333 86:0.166667 
0 0 0 0.0318771008565568 1:0.0428571 5:0.0571429 6:0.1 8:0.0455696 9:0.05 12:0.0173913 13:0.126316 15:0.0482759 20:0.2 22:0.0301261 24:0.114121 25:0.2 28:0.062069 30:0.0583333 32:0.0266667 33:0.2 34:0.2 35:0.2 36:0.0792453 37:0.125 38:0.1 39:0.0444444 41:0.12 43:0.0571429 44:0.072267 49:0.0923077 50:0.0352941 53:0.075 54:0.1 59:0.0310588 60:0.0117647 65:0.0666667 66:0.0533333 68:0.037788 69:0.0769231 71:0.2 72:0.0375 75:0.08 77:0.0285714 84:0.0333333 86:0.0666667 
0 0.01410843243692956 0 0 1:0.214286 5:0.285714 6:0.5 8:0.232451 9:0.25 12:0.0869565 13:0.631579 15:0.275862 20:1 22:0.172528 24:0.582133 25:1 28:0.310345 30:0.291667 32:0.133333 33:1 34:1 35:1 36:0.396226 37:0.625 38:0.5 39:0.222222 41:0.6 43:0.285714 44:0.365938 49:0.538462 50:0.176471 53:0.375 54:0.5 59:0.158431 60:0.0588235 65:0.333333 66:0.333333 68:0.198157 69:0.384615 71:1 72:0.1875 75:0.4 77:0.142857 84:0.166667 86:0.333333 
0 0.1581379622726238 0 0.04782579598723702 1:0.0714286 5:0.0952381 6:0.166667 8:0.0767165 9:0.0833333 12:0.0289855 13:0.210526 15:0.091954 20:0.333333 22:0.0634815 24:0.192123 25:0.333333 28:0.103448 30:0.0972222 32:0.0444444 33:0.333333 34:0.333333 35:0.333333 36:0.132075 37:0.208333 38:0.166667 39:0.0740741 41:0.2 43:0.0952381 44:0.121212 49:0.179487 50:0.0588235 53:0.125 54:0.166667 59:0.0598693 60:0.0196078 65:0.111111 66:0.111111 68:0.0645161 69:0.128205 71:0.333333 72:0.0625 75:0.133333 77:0.047619 84:0.0555556 86:0.111111 
0.01347684630359451 0 0 0 1:0.107143 5:0.142857 6:0.25 8:0.11565 9:0.125 12:0.0434783 13:0.315789 15:0.137931 20:0.5 22:0.105176 24:0.289625 25:0.5 28:0.155172 30:0.145833 32:0.0666667 33:0.5 34:0.5 35:0.5 36:0.198113 37:0.3125 38:0.25 39:0.111111 41:0.3 43:0.142857 44:0.182394 49:0.269231 50:0.0882353 53:0.1875 54:0.25 59:0.0901961 60:0.0294118 65:0.166667 66:0.166667 68:0.0979263 69:0.192308 71:0.5 72:0.09375 75:0.2 77:0.0714286 79:0.5 84:0.0833333 86:0.166667 
0 0.9378694130687197 0 0 1:0.0428571 5:0.0571429 6:0.1 8:0.0455696 9:0.05 12:0.0173913 13:0.126316 15:0.0551724 20:0.2 22:0.0455209 24:0.114121 25:0.2 28:0.062069 30:0.0583333 32:0.0266667 33:0.2 34:0.2 35:0.2 36:0.0867925 37:0.125 38:0.1 39:0.0444444 41:0.12 43:0.0571429 44:0.072267 49:0.123077 50:0.0352941 53:0.075 54:0.1 59:0.0356078 60:0.0117647 65:0.0666667 66:0.0666667 68:0.037788 69:0.0769231 71:0.2 72:0.0375 75:0.08 77:0.0285714 79:0.2 84:0.0333333 86:0.0666667 
0.1441838374120072 0 0 0 1:0.0056391 5:0.00827068 6:0.0131579 8:0.00675307 9:0.00789474 12:0.00457666 13:0.0166205 15:0.00907441 20:0.0263158 22:0.00591974 24:0.0125133 25:0.0263158 28:0.00907441 30:0.00767544 32:0.00701754 33:0.0263158 34:0.0263158 35:0.0263158 36:0.0119166 37:0.0164474 38:0.0131579 39:0.00584795 41:0.0175439 43:0.0093985 44:0.00850948 49:0.0161943 50:0.00464396 53:0.00986842 54:0.0131579 59:0.00400413 60:0.00309598 65:0.00877193 66:0.0105263 68:0.00472957 69:0.0101215 71:0.0263158 72:0.00493421 75:0.0105263 77:0.00501253 79:0.0263158 84:0.00657895 86:0.00986842 
0.01186269081670452 0 0 0 1:0.0714286 5:0.0785714 6:0.125 8:0.0739356 9:0.075 12:0.0434783 13:0.171053 15:0.0862069 20:0.25 22:0.0618779 24:0.143372 25:0.25 28:0.0862069 30:0.0729167 32:0.0666667 33:0.25 34:0.25 35:0.25 36:0.117925 37:0.15625 38:0.125 39:0.0555556 41:0.166667 43:0.0892857 44:0.107307 49:0.153846 50:0.0441176 53:0.125 54:0.125 59:0.0447059 60:0.0294118 65:0.0833333 66:0.1 68:0.0645161 69:0.0961538 71:0.25 72:0.046875 75:0.1 77:0.047619 79:0.25 84:0.0625 86:0.114583 
0.2030031726588769 0 0 0 1:0.142857 5:0.157143 6:0.272727 8:0.149022 9:0.175 12:0.0869565 13:0.342105 15:0.172414 20:0.5 22:0.134041 24:0.289625 25:0.5 28:0.172414 30:0.145833 32:0.133333 33:0.5 34:0.5 35:0.5 36:0.245283 37:0.3125 38:0.25 39:0.111111 41:0.333333 43:0.178571 44:0.232451 49:0.346154 50:0.0882353 53:0.25 54:0.25 59:0.0901961 60:0.0588235 65:0.166667 66:0.2 68:0.131336 69:0.230769 71:0.5 72:0.125 75:0.2 77:0.0952381 79:0.5 84:0.125 86:0.229167 
0.07038783145431521 0 0 0 1:0.0952381 5:0.104762 6:0.181818 8:0.0989643 9:0.116667 12:0.057971 13:0.22807 15:0.114943 20:0.333333 22:0.0891396 24:0.192123 25:0.333333 28:0.114943 30:0.0972222 32:0.0888889 33:0.333333 34:0.333333 35:0.333333 36:0.169811 37:0.208333 38:0.166667 39:0.0740741 41:0.222222 43:0.119048 44:0.154584 49:0.230769 50:0.0588235 53:0.166667 54:0.166667 59:0.0598693 60:0.0392157 65:0.111111 66:0.133333 68:0.0867896 69:0.153846 71:0.333333 72:0.0833333 75:0.133333 77:0.0634921 79:0.333333 84:0.0833333 86:0.152778 
0 0.08152971076052114 0 0 1:0.0952381 5:0.104762 6:0.19697 8:0.0989643 9:0.116667 12:0.057971 13:0.245614 15:0.114943 20:0.333333 22:0.0891396 24:0.192123 25:0.333333 28:0.114943 30:0.0972222 32:0.0888889 33:0.333333 34:0.333333 35:0.333333 36:0.176101 37:0.208333 38:0.166667 39:0.0740741 41:0.222222 43:0.119048 44:0.154584 49:0.230769 50:0.0784314 53:0.166667 54:0.166667 59:0.067451 60:0.0588235 65:0.111111 66:0.133333 68:0.0867896 69:0.153846 71:0.333333 72:0.0833333 75:0.133333 77:0.0793651 79:0.333333 84:0.0833333 86:0.152778 
0 0.2992690363178422 0 0 1:0.0952381 5:0.104762 6:0.19697 8:0.0989643 9:0.116667 12:0.057971 13:0.245614 15:0.114943 20:0.333333 22:0.0891396 24:0.192123 25:0.333333 28:0.126437 30:0.111111 32:0.0888889 33:0.333333 34:0.333333 35:0.333333 36:0.176101 37:0.208333 38:0.166667 39:0.0740741 41:0.222222 42:0.333333 43:0.119048 44:0.154584 49:0.230769 50:0.0784314 53:0.208333 54:0.166667 59:0.067451 60:0.0588235 65:0.111111 66:0.133333 68:0.0867896 69:0.153846 71:0.333333 72:0.0833333 75:0.133333 77:0.0793651 79:0.333333 84:0.0833333 86:0.152778 
0 1 0 0 1:0.00830565 5:0.00730897 6:0.0137421 8:0.00583402 9:0.00813953 12:0.00404449 13:0.0171359 15:0.00801925 20:0.0232558 22:0.00560177 24:0.0107231 25:0.0232558 28:0.00882117 30:0.00775194 32:0.00775194 33:0.0232558 34:0.0232558 35:0.0232558 36:0.0122861 37:0.0145349 38:0.0116279 39:0.00516796 41:0.0155039 42:0.0232558 43:0.00830565 44:0.00971445 49:0.0161002 50:0.00547196 53:0.0145349 54:0.0116279 59:0.00397629 60:0.00410397 65:0.00775194 66:0.0108527 68:0.00391169 69:0.0125224 71:0.0232558 72:0.00581395 75:0.00930233 77:0.0055371 79:0.0232558 84:0.00581395 86:0.0116279 
0 1 0 0 1:0.0223214 5:0.0232143 6:0.0397727 8:0.0176208 9:0.021875 12:0.0108696 13:0.0526316 15:0.0215517 20:0.0625 22:0.0161745 24:0.0336816 25:0.0625 28:0.0258621 30:0.0286458 32:0.025 33:0.0625 34:0.0625 35:0.0625 36:0.0365566 37:0.046875 38:0.03125 39:0.0208333 41:0.0416667 42:0.0625 43:0.0223214 44:0.0280495 45:0.0625 49:0.0432692 50:0.0220588 52:0.0625 53:0.0390625 54:0.03125 59:0.0134314 60:0.0147059 65:0.0208333 66:0.0333333 68:0.0144009 69:0.0432692 71:0.0625 72:0.015625 73:0.03125 75:0.025 77:0.014881 79:0.0625 84:0.015625 86:0.03125 
0 0.4653046762564829 0 0 1:0.0595238 5:0.0619048 6:0.106061 8:0.0489068 9:0.0666667 12:0.0289855 13:0.140351 15:0.0574713 20:0.166667 22:0.044238 24:0.0946206 25:0.166667 28:0.0689655 30:0.0763889 32:0.0666667 33:0.166667 34:0.166667 35:0.166667 36:0.0974843 37:0.125 38:0.0833333 39:0.0555556 41:0.111111 42:0.166667 43:0.0595238 44:0.0767165 45:0.166667 49:0.115385 50:0.0588235 52:0.166667 53:0.104167 54:0.0833333 59:0.0371242 60:0.0392157 65:0.0555556 66:0.1 68:0.0422427 69:0.115385 71:0.166667 72:0.0416667 73:0.0833333 75:0.1 77:0.0396825 79:0.166667 84:0.0416667 86:0.0833333 
0 1 0 0 1:0.0446429 5:0.0464286 6:0.0795455 8:0.0405639 9:0.05 12:0.0217391 13:0.105263 15:0.0474138 20:0.125 22:0.0330126 24:0.070245 25:0.125 28:0.0517241 30:0.0572917 32:0.05 33:0.125 34:0.125 35:0.125 36:0.0731132 37:0.09375 38:0.0625 39:0.0416667 41:0.0833333 42:0.125 43:0.0446429 44:0.0572497 45:0.125 49:0.0865385 50:0.0441176 52:0.125 53:0.078125 54:0.0625 59:0.0276471 60:0.0294118 65:0.0416667 66:0.075 68:0.031106 69:0.0865385 71:0.125 72:0.03125 73:0.0625 75:0.075 77:0.0297619 79:0.125 84:0.03125 86:0.0625 
0 1 0 0 1:0.0357143 5:0.0309524 6:0.0530303 8:0.026659 9:0.0333333 12:0.0144928 13:0.0701754 15:0.0316092 20:0.0833333 22:0.0217872 24:0.0458694 25:0.0833333 28:0.0344828 30:0.0416667 32:0.0333333 33:0.0833333 34:0.0833333 35:0.0833333 36:0.0487421 37:0.0625 38:0.0416667 39:0.0277778 41:0.0555556 42:0.0833333 43:0.0297619 44:0.0377829 45:0.0833333 49:0.0576923 50:0.0343137 52:0.0833333 53:0.0520833 54:0.0416667 59:0.0200654 60:0.0196078 65:0.0277778 66:0.05 68:0.0199693 69:0.0576923 71:0.0833333 72:0.0208333 73:0.0416667 75:0.05 77:0.0198413 79:0.0833333 84:0.0208333 86:0.0416667 
0 1 0 0 1:0.25 5:0.185714 6:0.340909 8:0.165708 9:0.2 12:0.108696 13:0.447368 15:0.206897 20:0.5 22:0.18215 24:0.289625 25:0.5 28:0.241379 30:0.25 32:0.2 33:0.5 34:0.5 35:0.5 36:0.320755 37:0.375 38:0.25 39:0.166667 41:0.4 42:0.5 43:0.178571 44:0.232451 45:0.5 49:0.384615 50:0.205882 52:0.5 53:0.375 54:0.25 59:0.158431 60:0.117647 65:0.166667 66:0.333333 68:0.131336 69:0.384615 71:0.5 72:0.125 73:0.5 75:0.3 77:0.119048 79:0.5 84:0.145833 86:0.270833 
0 0.06130307686607381 0 0 1:0.125 5:0.0928571 6:0.170455 8:0.0989643 9:0.1125 12:0.0543478 13:0.223684 15:0.12069 20:0.25 22:0.105176 24:0.143372 25:0.25 28:0.146552 30:0.125 32:0.116667 33:0.25 34:0.25 35:0.25 36:0.169811 37:0.1875 38:0.125 39:0.0833333 41:0.2 42:0.25 43:0.107143 44:0.11565 45:0.25 49:0.211538 50:0.102941 52:0.25 53:0.1875 54:0.125 59:0.0901961 60:0.0735294 65:0.166667 66:0.2 68:0.0812212 69:0.192308 71:0.25 72:0.09375 73:0.25 75:0.15 77:0.0714286 79:0.25 84:0.0729167 86:0.177083 
0 0 0 0.04400935469847413 1:0.0833333 5:0.0619048 6:0.113636 8:0.0655926 9:0.075 12:0.0362319 13:0.149123 15:0.0804598 20:0.166667 22:0.069896 24:0.0946206 25:0.166667 28:0.0977011 30:0.0833333 32:0.0777778 33:0.166667 34:0.166667 35:0.166667 36:0.113208 37:0.125 38:0.0833333 39:0.0555556 41:0.133333 42:0.166667 43:0.0714286 44:0.0767165 45:0.166667 49:0.141026 50:0.0686275 52:0.166667 53:0.125 54:0.0833333 59:0.0598693 60:0.0490196 65:0.111111 66:0.133333 68:0.0533794 69:0.141026 71:0.166667 72:0.0625 73:0.166667 75:0.1 77:0.047619 79:0.166667 84:0.0486111 86:0.118056 
0 1 0 0 1:0.166667 5:0.12381 6:0.227273 8:0.132336 9:0.15 12:0.0724638 13:0.298246 15:0.16092 20:0.333333 22:0.140456 24:0.192123 25:0.333333 28:0.195402 30:0.166667 32:0.155556 33:0.333333 34:0.333333 35:0.333333 36:0.226415 37:0.25 38:0.166667 39:0.111111 41:0.266667 42:0.333333 43:0.142857 44:0.154584 45:0.333333 49:0.282051 50:0.137255 52:0.333333 53:0.25 54:0.166667 59:0.120523 60:0.0980392 65:0.222222 66:0.266667 68:0.109063 69:0.282051 71:0.333333 72:0.125 73:0.333333 75:0.2 77:0.0952381 79:0.333333 84:0.0972222 86:0.236111 
0 0 0 0.09308104056940393 1:0.0833333 5:0.0619048 6:0.113636 8:0.0655926 9:0.0833333 12:0.0362319 13:0.149123 15:0.0804598 20:0.166667 22:0.069896 24:0.0946206 25:0.166667 28:0.0977011 30:0.0833333 32:0.0777778 33:0.166667 34:0.166667 35:0.166667 36:0.113208 37:0.125 38:0.0833333 39:0.0555556 41:0.133333 42:0.166667 43:0.0714286 44:0.0767165 45:0.166667 49:0.141026 50:0.0686275 52:0.166667 53:0.125 54:0.0833333 59:0.067451 60:0.0490196 65:0.111111 66:0.133333 68:0.0533794 69:0.153846 70:0.166667 71:0.166667 72:0.0625 73:0.166667 75:0.1 77:0.047619 79:0.166667 84:0.0486111 86:0.118056 
0 1 0 0 1:0.0714286 5:0.0530612 6:0.0974026 8:0.0560579 9:0.0714286 12:0.0310559 13:0.12782 15:0.0689655 20:0.142857 22:0.0625652 24:0.0806916 25:0.142857 28:0.0837438 30:0.0714286 32:0.0666667 33:0.142857 34:0.142857 35:0.142857 36:0.097035 37:0.107143 38:0.0714286 39:0.047619 41:0.114286 42:0.142857 43:0.0714286 44:0.0655926 45:0.142857 49:0.120879 50:0.0588235 52:0.142857 53:0.107143 54:0.0714286 59:0.0577031 60:0.0420168 65:0.0952381 66:0.114286 68:0.0454246 69:0.131868 70:0.142857 71:0.142857 72:0.0535714 73:0.142857 75:0.0857143 77:0.0408163 79:0.142857 84:0.0416667 86:0.10119 
0 0 0 0.1852253660334384 1:0.166667 5:0.12381 6:0.227273 8:0.132336 9:0.166667 12:0.0724638 13:0.298246 15:0.16092 20:0.333333 22:0.14687 24:0.192123 25:0.333333 28:0.195402 30:0.166667 32:0.155556 33:0.333333 34:0.333333 35:0.333333 36:0.226415 37:0.25 38:0.166667 39:0.111111 41:0.266667 42:0.333333 43:0.166667 44:0.154584 45:0.333333 49:0.282051 50:0.137255 52:0.333333 53:0.25 54:0.166667 59:0.135686 60:0.0980392 65:0.222222 66:0.266667 68:0.109063 69:0.307692 70:0.333333 71:0.333333 72:0.125 73:0.333333 75:0.2 77:0.111111 79:0.333333 84:0.0972222 86:0.236111 
0 0 0 0.3103324495349809 1:0.25 5:0.185714 6:0.340909 8:0.199079 9:0.25 12:0.108696 13:0.447368 15:0.241379 20:0.5 22:0.220637 24:0.289625 25:0.5 28:0.293103 30:0.25 32:0.233333 33:0.5 34:0.5 35:0.5 36:0.349057 37:0.375 38:0.25 39:0.166667 41:0.4 42:0.5 43:0.25 44:0.232451 45:0.5 49:0.423077 50:0.205882 52:0.5 53:0.375 54:0.25 59:0.203922 60:0.147059 65:0.333333 66:0.4 68:0.164747 69:0.461538 70:0.5 71:0.5 72:0.1875 73:0.5 75:0.3 77:0.166667 79:0.5 84:0.145833 86:0.354167 
0 0 0.6404538674308055 0.02091254340094155 1:0.285714 5:0.2 6:0.340909 8:0.199079 9:0.25 12:0.108696 13:0.447368 15:0.241379 20:0.5 22:0.220637 24:0.289625 25:0.5 28:0.293103 30:0.25 32:0.233333 33:0.5 34:0.5 35:0.5 36:0.358491 37:0.375 38:0.25 39:0.166667 41:0.4 42:0.5 43:0.25 44:0.232451 45:0.5 49:0.423077 50:0.205882 52:0.5 53:0.375 54:0.25 59:0.203922 60:0.147059 65:0.333333 66:0.433333 68:0.164747 69:0.461538 70:0.5 71:0.5 72:0.1875 73:0.5 75:0.3 77:0.166667 79:0.5 84:0.145833 86:0.375 
0 0.1106008583411104 0 0 1:0.285714 5:0.2 6:0.340909 8:0.199079 9:0.275 12:0.130435 13:0.447368 15:0.241379 20:0.5 22:0.239881 24:0.289625 25:0.5 28:0.293103 30:0.25 32:0.233333 33:0.5 34:0.5 35:0.5 36:0.358491 37:0.375 38:0.25 39:0.166667 41:0.4 42:0.5 43:0.25 44:0.232451 45:0.5 49:0.423077 50:0.205882 52:0.5 53:0.375 54:0.25 59:0.203922 60:0.176471 65:0.333333 66:0.433333 68:0.164747 69:0.461538 70:0.5 71:0.5 72:0.1875 73:0.5 75:0.3 77:0.190476 79:0.5 84:0.166667 86:0.416667 
0 0.01710337535551275 0 0.1640268705615945 1:0.285714 5:0.214286 6:0.363636 8:0.199079 9:0.3 12:0.173913 13:0.447368 15:0.241379 20:0.5 22:0.239881 24:0.289625 25:0.5 28:0.293103 30:0.25 32:0.233333 33:0.5 34:0.5 35:0.5 36:0.367925 37:0.375 38:0.25 39:0.166667 41:0.4 42:0.5 43:0.25 44:0.249137 45:0.5 49:0.423077 50:0.205882 52:0.5 53:0.375 54:0.25 59:0.226667 60:0.205882 65:0.333333 66:0.433333 68:0.164747 69:0.461538 70:0.5 71:0.5 72:0.1875 73:0.5 75:0.3 77:0.214286 79:0.5 84:0.208333 86:0.416667 
0 0 0.5914626818436504 0.7224288838020725 1:0.114286 4:0.2 5:0.0857143 6:0.145455 8:0.0789413 9:0.12 12:0.0695652 13:0.178947 15:0.0965517 20:0.2 22:0.0955541 24:0.114121 25:0.2 28:0.117241 30:0.1 32:0.0933333 33:0.2 34:0.2 35:0.2 36:0.14717 37:0.15 38:0.1 39:0.0666667 41:0.16 42:0.2 43:0.1 44:0.0989643 45:0.2 49:0.169231 50:0.0823529 52:0.2 53:0.15 54:0.1 59:0.0901961 60:0.0823529 65:0.133333 66:0.173333 68:0.0645161 69:0.184615 70:0.2 71:0.2 72:0.075 73:0.2 75:0.12 77:0.0857143 79:0.2 84:0.0833333 86:0.166667 
0 0.02753371458689438 1 0.6852990188263501 1:0.142857 4:0.25 5:0.107143 6:0.181818 8:0.0989643 9:0.15 12:0.0869565 13:0.223684 15:0.12069 20:0.25 22:0.119608 24:0.143372 25:0.25 28:0.146552 30:0.125 32:0.116667 33:0.25 34:0.25 35:0.25 36:0.188679 37:0.1875 38:0.125 39:0.0833333 41:0.2 42:0.25 43:0.125 44:0.123993 45:0.25 49:0.211538 50:0.102941 52:0.25 53:0.1875 54:0.125 59:0.112941 60:0.102941 65:0.166667 66:0.216667 68:0.0812212 69:0.230769 70:0.25 71:0.25 72:0.09375 73:0.25 75:0.15 77:0.107143 79:0.25 84:0.104167 86:0.208333 
0 0.1974740275670879 0.9380487130092012 0.5209337009459742 1:0.190476 4:0.333333 5:0.142857 6:0.272727 8:0.132336 9:0.2 10:0.333333 12:0.144928 13:0.315789 15:0.16092 20:0.333333 22:0.159699 24:0.192123 25:0.333333 28:0.195402 30:0.166667 32:0.177778 33:0.333333 34:0.333333 35:0.333333 36:0.257862 37:0.25 38:0.166667 39:0.111111 41:0.266667 42:0.333333 43:0.166667 44:0.210203 45:0.333333 49:0.282051 50:0.137255 52:0.333333 53:0.25 54:0.166667 59:0.158431 60:0.156863 65:0.222222 66:0.288889 68:0.198157 69:0.307692 70:0.333333 71:0.333333 72:0.166667 73:0.333333 75:0.2 77:0.142857 79:0.333333 84:0.166667 86:0.277778 
0 0.8678231587915553 0 0 1:0.571429 4:1 5:0.428571 6:0.818182 8:0.39931 9:0.6 10:1 12:0.434783 13:0.947368 15:0.482759 20:1 22:0.480425 24:0.582133 25:1 28:0.586207 30:0.5 32:0.533333 33:1 34:1 35:1 36:0.773585 37:0.75 38:0.5 39:0.333333 41:0.8 42:1 43:0.5 44:0.632911 45:1 49:0.846154 50:0.411765 52:1 53:0.75 54:0.5 59:0.476863 60:0.470588 65:0.666667 66:0.866667 68:0.599078 69:0.923077 70:1 71:1 72:0.5 73:1 75:0.6 77:0.428571 79:1 84:0.5 86:0.833333 
0 1 0 0 1:0.0571429 4:0.1 5:0.0457143 6:0.0818182 8:0.0388953 9:0.06 10:0.1 12:0.0478261 13:0.0947368 15:0.0482759 20:0.1 22:0.0493696 24:0.0556196 25:0.1 28:0.062069 30:0.05 32:0.0533333 33:0.1 34:0.1 35:0.1 36:0.0773585 37:0.075 38:0.1 39:0.0333333 41:0.08 42:0.1 43:0.05 44:0.0622555 45:0.1 49:0.0846154 50:0.0411765 52:0.1 53:0.075 54:0.1 59:0.0492549 60:0.0470588 65:0.0666667 66:0.0866667 68:0.0578341 69:0.0923077 70:0.1 71:0.1 72:0.05 73:0.1 75:0.06 77:0.0428571 79:0.1 84:0.0541667 86:0.0833333 
0 0.4879991009123682 0.1092599287325663 0 1:0.285714 4:0.5 5:0.228571 6:0.409091 8:0.199079 9:0.3 10:0.5 12:0.23913 13:0.473684 15:0.241379 20:0.5 22:0.249502 24:0.289625 25:0.5 28:0.310345 30:0.25 32:0.266667 33:0.5 34:0.5 35:0.5 36:0.386792 37:0.375 38:0.5 39:0.166667 41:0.4 42:0.5 43:0.25 44:0.31588 45:0.5 49:0.423077 50:0.205882 52:0.5 53:0.375 54:0.5 59:0.249412 60:0.235294 65:0.333333 66:0.433333 68:0.298387 69:0.461538 70:0.5 71:0.5 72:0.25 73:0.5 75:0.3 77:0.214286 79:0.5 84:0.270833 86:0.416667 
0 0 1 0 1:0.142857 4:0.25 5:0.114286 6:0.204545 8:0.0989643 9:0.15 10:0.25 12:0.119565 13:0.236842 15:0.12069 16:0.25 20:0.25 22:0.124419 24:0.143372 25:0.25 28:0.155172 30:0.125 32:0.133333 33:0.25 34:0.25 35:0.25 36:0.193396 37:0.1875 38:0.25 39:0.0833333 41:0.2 42:0.25 43:0.125 44:0.157365 45:0.25 49:0.211538 50:0.102941 52:0.25 53:0.1875 54:0.25 59:0.124314 60:0.117647 65:0.166667 66:0.216667 68:0.148041 69:0.230769 70:0.25 71:0.25 72:0.125 73:0.25 75:0.15 77:0.107143 79:0.25 84:0.135417 86:0.208333 
0 0.438435455726333 0 0 1:0.0272109 3:0.047619 4:0.047619 5:0.0231293 6:0.038961 8:0.0179188 9:0.0285714 10:0.047619 12:0.0248447 13:0.0451128 15:0.0229885 16:0.047619 20:0.047619 22:0.0231618 24:0.024976 25:0.047619 28:0.0295567 30:0.0277778 32:0.0285714 33:0.047619 34:0.047619 35:0.047619 36:0.0377358 37:0.0357143 38:0.047619 39:0.015873 41:0.0380952 42:0.047619 43:0.0238095 44:0.0290427 45:0.047619 49:0.040293 50:0.0196078 52:0.047619 53:0.0357143 54:0.047619 59:0.024127 60:0.022409 64:0.047619 65:0.031746 66:0.0412698 68:0.0263331 69:0.043956 70:0.047619 71:0.047619 72:0.0297619 73:0.047619 75:0.0285714 77:0.0226757 78:0.015873 79:0.047619 84:0.0277778 86:0.0416667 
0 0 0.9786327165921213 0.02774281475555789 1:0.190476 3:0.333333 4:0.333333 5:0.161905 6:0.272727 8:0.132336 9:0.2 10:0.333333 12:0.173913 13:0.315789 15:0.16092 16:0.333333 20:0.333333 22:0.166114 24:0.192123 25:0.333333 28:0.206897 30:0.194444 32:0.2 33:0.333333 34:0.333333 35:0.333333 36:0.264151 37:0.25 38:0.333333 39:0.111111 41:0.266667 42:0.333333 43:0.166667 44:0.210203 45:0.333333 49:0.282051 50:0.137255 52:0.333333 53:0.25 54:0.333333 59:0.173595 60:0.156863 64:0.333333 65:0.222222 66:0.288889 68:0.198157 69:0.307692 70:0.333333 71:0.333333 72:0.208333 73:0.333333 75:0.2 77:0.15873 78:0.111111 79:0.333333 84:0.194444 86:0.291667 
0 0.3524938230041647 0 0 1:0.0535714 3:0.0833333 4:0.0833333 5:0.0404762 6:0.0719697 8:0.0350019 9:0.05 10:0.0833333 12:0.0434783 13:0.0789474 15:0.0402299 16:0.0833333 20:0.0833333 22:0.044238 24:0.0528338 25:0.0833333 28:0.0517241 30:0.0486111 32:0.05 33:0.0833333 34:0.0833333 35:0.0833333 36:0.0660377 37:0.0625 38:0.0833333 39:0.0277778 41:0.0666667 42:0.0833333 43:0.047619 44:0.0516878 45:0.0833333 49:0.0705128 50:0.0343137 52:0.0833333 53:0.0625 54:0.0833333 59:0.0428105 60:0.0392157 64:0.0833333 65:0.0555556 66:0.0722222 68:0.0478111 69:0.0769231 70:0.0833333 71:0.0833333 72:0.0520833 73:0.0833333 75:0.05 77:0.0396825 78:0.0277778 79:0.0833333 84:0.0486111 86:0.0729167 
0 0 0.067301339769229 0 1:0.357143 3:0.5 4:0.5 5:0.242857 6:0.454545 8:0.215765 9:0.325 10:0.5 12:0.26087 13:0.473684 15:0.275862 16:0.5 20:0.5 22:0.278368 24:0.373199 25:0.5 28:0.327586 30:0.291667 32:0.3 33:0.5 34:0.5 35:0.5 36:0.396226 37:0.375 38:0.5 39:0.166667 41:0.4 42:0.5 43:0.285714 44:0.349252 45:0.5 49:0.423077 50:0.205882 52:0.5 53:0.375 54:0.5 59:0.272157 60:0.264706 64:0.5 65:0.333333 66:0.433333 68:0.298387 69:0.461538 70:0.5 71:0.5 72:0.3125 73:0.5 75:0.3 77:0.238095 78:0.166667 79:0.5 84:0.291667 86:0.4375 
0 1 0 0 1:0.102041 3:0.142857 4:0.142857 5:0.0734694 6:0.12987 8:0.0608253 9:0.0928571 10:0.142857 12:0.0745342 13:0.135338 15:0.0788177 16:0.142857 20:0.142857 22:0.0790596 24:0.10457 25:0.142857 28:0.0985222 30:0.0833333 32:0.0857143 33:0.142857 34:0.142857 35:0.142857 36:0.113208 37:0.107143 38:0.142857 39:0.047619 41:0.114286 42:0.142857 43:0.0816327 44:0.0989643 45:0.142857 49:0.131868 50:0.0588235 52:0.142857 53:0.125 54:0.142857 59:0.0771989 60:0.0756303 64:0.142857 65:0.0952381 66:0.12381 68:0.0836076 69:0.131868 70:0.142857 71:0.142857 72:0.0892857 73:0.142857 75:0.0857143 77:0.0680272 78:0.047619 79:0.142857 84:0.0833333 86:0.125 
0 0.1446918254948071 0 0 1:0.357143 3:0.5 4:0.5 5:0.257143 6:0.454545 8:0.215765 9:0.325 10:0.5 12:0.26087 13:0.473684 15:0.275862 16:0.5 20:0.5 22:0.278368 24:0.373199 25:0.5 28:0.362069 30:0.291667 32:0.3 33:0.5 34:0.5 35:0.5 36:0.396226 37:0.375 38:0.5 39:0.166667 41:0.4 42:0.5 43:0.285714 44:0.349252 45:0.5 49:0.5 50:0.205882 52:0.5 53:0.4375 54:0.5 59:0.272157 60:0.264706 64:0.5 65:0.333333 66:0.433333 68:0.298387 69:0.461538 70:0.5 71:0.5 72:0.3125 73:0.5 75:0.3 77:0.238095 78:0.166667 79:0.5 84:0.291667 86:0.4375 
0 1 0 0 1:0.357143 3:0.5 4:0.5 5:0.257143 6:0.454545 8:0.215765 9:0.325 10:0.5 12:0.26087 13:0.473684 15:0.275862 16:0.5 20:0.5 22:0.278368 24:0.373199 25:0.5 28:0.362069 30:0.291667 32:0.3 33:0.5 34:0.5 35:0.5 36:0.40566 37:0.375 38:0.5 39:0.166667 41:0.4 42:0.5 43:0.285714 44:0.365938 45:0.5 49:0.5 50:0.205882 52:0.5 53:0.4375 54:0.5 59:0.272157 60:0.264706 64:0.5 65:0.333333 66:0.433333 68:0.298387 69:0.461538 70:0.5 71:0.5 72:0.3125 73:0.5 75:0.3 77:0.238095 78:0.166667 79:0.5 84:0.291667 86:0.4375 
0 0.9127584499858594 0 0 1:0.714286 3:1 4:1 5:0.514286 6:0.909091 8:0.432681 9:0.65 10:1 12:0.521739 13:0.947368 15:0.551724 16:1 20:1 22:0.595886 24:0.74928 25:1 28:0.724138 30:0.583333 32:0.6 33:1 34:1 35:1 36:0.811321 37:0.75 38:1 39:0.333333 41:0.8 42:1 43:0.642857 44:0.733026 45:1 49:1 50:0.411765 52:1 53:0.875 54:1 59:0.545098 60:0.529412 64:1 65:0.666667 66:0.866667 68:0.599078 69:0.923077 70:1 71:1 72:0.625 73:1 75:0.6 77:0.47619 78:0.333333 79:1 84:0.583333 86:0.875 
0 0.7758009381027223 0 0 1:0.178571 3:0.25 4:0.25 5:0.128571 6:0.227273 8:0.107307 9:0.1625 10:0.25 12:0.130435 13:0.236842 15:0.137931 16:0.25 20:0.25 22:0.153285 24:0.185159 25:0.25 28:0.181034 30:0.145833 32:0.15 33:0.25 34:0.25 35:0.25 36:0.20283 37:0.1875 38:0.25 39:0.0833333 41:0.2 42:0.25 43:0.160714 44:0.182394 45:0.25 49:0.25 50:0.102941 52:0.25 53:0.21875 54:0.25 59:0.135686 60:0.132353 64:0.25 65:0.166667 66:0.216667 68:0.148041 69:0.230769 70:0.25 71:0.25 72:0.15625 73:0.25 75:0.15 77:0.119048 78:0.0833333 79:0.25 84:0.145833 86:0.21875 
0.0263956561085241 0 0 0 1:0.0462185 3:0.0588235 4:0.0588235 5:0.0319328 6:0.0561497 8:0.0263318 9:0.0382353 10:0.0588235 12:0.0332481 13:0.0557276 15:0.0324544 16:0.0588235 20:0.0588235 22:0.0378235 24:0.046279 25:0.0588235 28:0.0425963 30:0.0343137 32:0.0352941 33:0.0588235 34:0.0588235 35:0.0588235 36:0.0488346 37:0.0441176 38:0.0588235 39:0.0196078 41:0.0509804 42:0.0588235 43:0.0378151 44:0.0420361 45:0.0588235 49:0.0588235 50:0.0276817 52:0.0588235 53:0.0514706 54:0.0588235 59:0.0326644 60:0.0311419 64:0.0588235 65:0.0392157 66:0.0509804 68:0.0370019 69:0.0542986 70:0.0588235 71:0.0588235 72:0.0367647 73:0.0588235 75:0.0352941 77:0.0280112 78:0.0196078 79:0.0588235 84:0.0367647 86:0.0514706 
0 0.03100107754867408 0 0 1:0.261905 3:0.333333 4:0.333333 5:0.180952 6:0.318182 8:0.154584 9:0.216667 10:0.333333 12:0.202899 13:0.315789 15:0.183908 16:0.333333 20:0.333333 22:0.21743 24:0.275696 25:0.333333 28:0.241379 30:0.194444 32:0.2 33:0.333333 34:0.333333 35:0.333333 36:0.27673 37:0.25 38:0.333333 39:0.148148 41:0.288889 42:0.333333 43:0.214286 44:0.243575 45:0.333333 49:0.333333 50:0.176471 52:0.333333 53:0.291667 54:0.333333 59:0.19634 60:0.176471 64:0.333333 65:0.222222 66:0.288889 68:0.22043 69:0.307692 70:0.333333 71:0.333333 72:0.208333 73:0.333333 75:0.2 77:0.15873 78:0.222222 79:0.333333 84:0.222222 86:0.291667 
0 0.5803741159515674 0 0 1:0.0873016 3:0.111111 4:0.111111 5:0.0634921 6:0.106061 8:0.0507608 9:0.0722222 10:0.111111 12:0.0676329 13:0.105263 15:0.0613027 16:0.111111 20:0.111111 22:0.0720342 24:0.0899776 25:0.111111 28:0.0804598 30:0.0648148 32:0.0666667 33:0.111111 34:0.111111 35:0.111111 36:0.0922432 37:0.0833333 38:0.111111 39:0.0493827 41:0.0962963 42:0.111111 43:0.0793651 44:0.0804245 45:0.111111 49:0.111111 50:0.0588235 52:0.111111 53:0.0972222 54:0.111111 59:0.0649237 60:0.0588235 64:0.111111 65:0.0740741 66:0.0962963 68:0.0719406 69:0.102564 70:0.111111 71:0.111111 72:0.0694444 73:0.111111 75:0.0666667 77:0.0529101 78:0.0740741 79:0.111111 84:0.0740741 86:0.0972222 
0 0.05275212542418187 0 0 1:0.392857 3:0.5 4:0.5 5:0.3 6:0.477273 8:0.232451 9:0.325 10:0.5 12:0.304348 13:0.473684 15:0.275862 16:0.5 20:0.5 22:0.326476 24:0.414986 25:0.5 28:0.362069 30:0.291667 32:0.333333 33:0.5 34:0.5 35:0.5 36:0.415094 37:0.375 38:0.5 39:0.222222 41:0.433333 42:0.5 43:0.357143 44:0.382624 45:0.5 49:0.5 50:0.264706 52:0.5 53:0.4375 54:0.5 59:0.294902 60:0.264706 64:0.5 65:0.333333 66:0.466667 68:0.331797 69:0.461538 70:0.5 71:0.5 72:0.34375 73:0.5 75:0.3 77:0.238095 78:0.333333 79:0.5 84:0.333333 86:0.4375 
0 0.5109314701503249 0 0 1:0.392857 3:0.5 4:0.5 5:0.314286 6:0.477273 8:0.265823 9:0.325 10:0.5 12:0.304348 13:0.473684 15:0.275862 16:0.5 20:0.5 22:0.326476 24:0.414986 25:0.5 28:0.362069 30:0.291667 32:0.333333 33:0.5 34:0.5 35:0.5 36:0.424528 37:0.375 38:0.5 39:0.222222 41:0.466667 42:0.5 43:0.357143 44:0.382624 45:0.5 46:0.5 49:0.5 50:0.264706 52:0.5 53:0.4375 54:0.5 59:0.294902 60:0.264706 64:0.5 65:0.333333 66:0.466667 68:0.331797 69:0.461538 70:0.5 71:0.5 72:0.34375 73:0.5 75:0.3 77:0.285714 78:0.333333 79:0.5 84:0.333333 86:0.4375 
0 0.8165341566043295 0 0 1:0.130952 3:0.166667 4:0.166667 5:0.119048 6:0.159091 8:0.0934024 9:0.108333 10:0.166667 12:0.108696 13:0.157895 15:0.091954 16:0.166667 20:0.166667 22:0.11159 24:0.136407 25:0.166667 28:0.126437 30:0.111111 32:0.133333 33:0.166667 34:0.166667 35:0.166667 36:0.147799 37:0.125 38:0.166667 39:0.0740741 41:0.155556 42:0.166667 43:0.130952 44:0.126774 45:0.166667 46:0.166667 49:0.166667 50:0.107843 52:0.166667 53:0.145833 54:0.166667 59:0.120523 60:0.107843 64:0.166667 65:0.111111 66:0.155556 68:0.131336 69:0.153846 70:0.166667 71:0.166667 72:0.135417 73:0.166667 75:0.166667 77:0.103175 78:0.111111 79:0.166667 82:0.166667 84:0.118056 86:0.159722 
0 0.1121635249253075 0 0 1:0.392857 3:0.5 4:0.5 5:0.357143 6:0.477273 8:0.282509 9:0.325 10:0.5 12:0.326087 13:0.473684 15:0.275862 16:0.5 20:0.5 22:0.336098 24:0.414986 25:0.5 28:0.37931 30:0.333333 32:0.4 33:0.5 34:0.5 35:0.5 36:0.443396 37:0.4375 38:0.5 39:0.222222 41:0.466667 42:0.5 43:0.392857 44:0.382624 45:0.5 46:0.5 49:0.5 50:0.323529 52:0.5 53:0.4375 54:0.5 59:0.363137 60:0.323529 64:0.5 65:0.333333 66:0.466667 68:0.398618 69:0.461538 70:0.5 71:0.5 72:0.40625 73:0.5 75:0.5 77:0.309524 78:0.333333 79:0.5 82:0.5 84:0.354167 86:0.479167 
0 0.03426561177195329 0 0 1:0.785714 3:1 4:1 5:0.714286 6:0.954545 8:0.566168 9:0.65 10:1 12:0.652174 13:0.947368 15:0.551724 16:1 20:1 22:0.67286 24:0.832853 25:1 28:0.758621 30:0.666667 32:0.8 33:1 34:1 35:1 36:0.886792 37:0.875 38:1 39:0.444444 41:0.933333 42:1 43:0.785714 44:0.766398 45:1 46:1 49:1 50:0.647059 52:1 53:0.875 54:1 59:0.727059 60:0.647059 64:1 65:0.666667 66:0.933333 68:0.799539 69:0.923077 70:1 71:1 72:0.8125 73:1 75:1 77:0.619048 78:0.666667 79:1 82:1 84:0.708333 86:0.958333 
0 0.324373417384823 0 0 1:0.0436508 3:0.0555556 4:0.0555556 5:0.0396825 6:0.0530303 8:0.030367 9:0.0361111 10:0.0555556 12:0.0362319 13:0.0526316 15:0.0306513 16:0.0555556 20:0.0555556 22:0.0367544 24:0.0435479 25:0.0555556 28:0.0421456 30:0.037037 32:0.0481481 33:0.0555556 34:0.0555556 35:0.0555556 36:0.0492662 37:0.0486111 38:0.0555556 39:0.0308642 41:0.0518519 42:0.0555556 43:0.0436508 44:0.0414909 45:0.0555556 46:0.0555556 49:0.0555556 50:0.0359477 52:0.0555556 53:0.0486111 54:0.0555556 59:0.0396514 60:0.0359477 64:0.0555556 65:0.037037 66:0.0518519 68:0.0422427 69:0.0555556 70:0.0555556 71:0.0555556 72:0.0451389 73:0.0555556 75:0.0555556 77:0.0343915 78:0.037037 79:0.0555556 82:0.0555556 84:0.0393519 86:0.0532407 
0 1 0.3720135675595628 0 1:0.0714286 2:0.0909091 3:0.0909091 4:0.0909091 5:0.0649351 6:0.0867769 8:0.0504237 9:0.0590909 10:0.0909091 12:0.0592885 13:0.0861244 15:0.0501567 16:0.0909091 17:0.0909091 20:0.0909091 21:0.0909091 22:0.0605658 24:0.0730941 25:0.0909091 28:0.0721003 30:0.0643939 32:0.0787879 33:0.0909091 34:0.0909091 35:0.0909091 36:0.0806175 37:0.0795455 38:0.0909091 39:0.0505051 41:0.0909091 42:0.0909091 43:0.0714286 44:0.0686264 45:0.0909091 46:0.0909091 49:0.0909091 50:0.0641711 51:0.0909091 52:0.0909091 53:0.0795455 54:0.0909091 56:0.0909091 59:0.0653832 60:0.0588235 64:0.0909091 65:0.0606061 66:0.0848485 68:0.0705907 69:0.0909091 70:0.0909091 71:0.0909091 72:0.0738636 73:0.0909091 75:0.0909091 77:0.0606061 78:0.0606061 79:0.0909091 82:0.0909091 84:0.0643939 85:0.0909091 86:0.0871212 
0 0.561564544273667 0.7596331115298276 0 1:0.0280612 2:0.0357143 3:0.0357143 4:0.0357143 5:0.027551 6:0.0340909 8:0.0191106 9:0.025 10:0.0357143 12:0.0232919 13:0.0338346 15:0.0197044 16:0.0357143 17:0.0357143 20:0.0357143 21:0.0357143 22:0.0233908 24:0.0269658 25:0.0357143 28:0.0283251 30:0.0252976 32:0.0309524 33:0.0357143 34:0.0357143 35:0.0357143 36:0.0316712 37:0.03125 38:0.0357143 39:0.0198413 41:0.0357143 42:0.0357143 43:0.0280612 44:0.0262617 45:0.0357143 46:0.0357143 49:0.0357143 50:0.0252101 51:0.0357143 52:0.0357143 53:0.03125 54:0.0357143 56:0.0357143 59:0.0252101 60:0.0231092 64:0.0357143 65:0.0238095 66:0.0333333 68:0.0263331 69:0.0357143 70:0.0357143 71:0.0357143 72:0.0290179 73:0.0357143 75:0.0357143 77:0.0238095 78:0.0238095 79:0.0357143 82:0.0357143 84:0.0252976 85:0.0357143 86:0.0342262 
0 1 0 0 1:0.157143 2:0.2 3:0.2 4:0.2 5:0.154286 6:0.190909 8:0.112313 9:0.14 10:0.2 12:0.130435 13:0.189474 15:0.110345 16:0.2 17:0.2 20:0.2 21:0.2 22:0.134041 24:0.164265 25:0.2 28:0.158621 30:0.141667 32:0.173333 33:0.2 34:0.2 35:0.2 36:0.177358 37:0.175 38:0.2 39:0.111111 41:0.2 42:0.2 43:0.157143 44:0.152359 45:0.2 46:0.2 49:0.2 50:0.141176 51:0.2 52:0.2 53:0.175 54:0.2 56:0.2 59:0.144784 60:0.129412 64:0.2 65:0.133333 66:0.186667 68:0.158065 69:0.2 70:0.2 71:0.2 72:0.1625 73:0.2 75:0.2 77:0.133333 78:0.133333 79:0.2 82:0.2 84:0.141667 85:0.2 86:0.191667 
0 0.3698234025663653 0.394675374882093 0 1:0.261905 2:0.333333 3:0.333333 4:0.333333 5:0.257143 6:0.318182 8:0.187956 9:0.233333 10:0.333333 12:0.231884 13:0.315789 15:0.183908 16:0.333333 17:0.333333 20:0.333333 21:0.333333 22:0.223844 24:0.275696 25:0.333333 27:0.333333 28:0.264368 30:0.236111 32:0.288889 33:0.333333 34:0.333333 35:0.333333 36:0.295597 37:0.291667 38:0.333333 39:0.185185 40:0.333333 41:0.333333 42:0.333333 43:0.261905 44:0.254699 45:0.333333 46:0.333333 49:0.333333 50:0.235294 51:0.333333 52:0.333333 53:0.291667 54:0.333333 55:0.333333 56:0.333333 59:0.24183 60:0.215686 64:0.333333 65:0.222222 66:0.311111 68:0.264977 69:0.333333 70:0.333333 71:0.333333 72:0.270833 73:0.333333 75:0.333333 77:0.222222 78:0.222222 79:0.333333 82:0.333333 84:0.25 85:0.333333 86:0.319444 
0 0 1 0 1:0.130952 2:0.166667 3:0.166667 4:0.166667 5:0.128571 6:0.159091 8:0.0989643 9:0.116667 10:0.166667 12:0.115942 13:0.166667 15:0.103448 16:0.166667 17:0.166667 18:0.166667 20:0.166667 21:0.166667 22:0.11159 23:0.166667 24:0.136407 25:0.166667 27:0.166667 28:0.132184 29:0.166667 30:0.125 31:0.166667 32:0.144444 33:0.166667 34:0.166667 35:0.166667 36:0.150943 37:0.145833 38:0.166667 39:0.0925926 40:0.166667 41:0.166667 42:0.166667 43:0.130952 44:0.132336 45:0.166667 46:0.166667 49:0.166667 50:0.117647 51:0.166667 52:0.166667 53:0.145833 54:0.166667 55:0.166667 56:0.166667 59:0.120523 60:0.107843 62:0.166667 63:0.0833333 64:0.166667 65:0.111111 66:0.155556 67:0.166667 68:0.142473 69:0.166667 70:0.166667 71:0.166667 72:0.135417 73:0.166667 75:0.166667 76:0.166667 77:0.119048 78:0.111111 79:0.166667 82:0.166667 84:0.125 85:0.166667 86:0.159722 
0 0.09394036814687498 0.3104620359148257 0 1:0.196429 2:0.25 3:0.25 4:0.25 5:0.192857 6:0.238636 8:0.149022 9:0.175 10:0.25 12:0.173913 13:0.25 15:0.155172 16:0.25 17:0.25 18:0.25 20:0.25 21:0.25 22:0.177339 23:0.25 24:0.206052 25:0.25 27:0.25 28:0.198276 29:0.25 30:0.1875 31:0.25 32:0.216667 33:0.25 34:0.25 35:0.25 36:0.231132 37:0.21875 38:0.25 39:0.138889 40:0.25 41:0.25 42:0.25 43:0.196429 44:0.199079 45:0.25 46:0.25 49:0.25 50:0.205882 51:0.25 52:0.25 53:0.21875 54:0.25 55:0.25 56:0.25 59:0.181176 60:0.161765 62:0.25 63:0.125 64:0.25 65:0.166667 66:0.233333 67:0.25 68:0.214862 69:0.25 70:0.25 71:0.25 72:0.203125 73:0.25 75:0.25 76:0.25 77:0.190476 78:0.166667 79:0.25 82:0.25 84:0.1875 85:0.25 86:0.239583 
0 0.01122901124234772 0 0 1:0.785714 2:1 3:1 4:1 5:0.771429 6:0.954545 8:0.59954 9:0.7 10:1 12:0.695652 13:1 15:0.62069 16:1 17:1 18:1 20:1 21:1 22:0.711347 23:1 24:0.832853 25:1 27:1 28:0.793103 29:1 30:0.75 31:1 32:0.866667 33:1 34:1 35:1 36:0.943396 37:0.875 38:1 39:0.555556 40:1 41:1 42:1 43:0.785714 44:0.79977 45:1 46:1 49:1 50:0.823529 51:1 52:1 53:0.875 54:1 55:1 56:1 59:0.727059 60:0.647059 62:1 63:0.5 64:1 65:0.666667 66:0.933333 67:1 68:0.866359 69:1 70:1 71:1 72:0.8125 73:1 75:1 76:1 77:0.761905 78:0.666667 79:1 82:1 84:0.75 85:1 86:0.958333 
0 0.01130700419016134 0.371459308167126 0 1:0.392857 2:0.5 3:0.5 4:0.5 5:0.385714 6:0.477273 8:0.299194 9:0.35 10:0.5 12:0.347826 13:0.5 15:0.310345 16:0.5 17:0.5 18:0.5 20:0.5 21:0.5 22:0.355342 23:0.5 24:0.414986 25:0.5 27:0.5 28:0.396552 29:0.5 30:0.375 31:0.5 32:0.433333 33:0.5 34:0.5 35:0.5 36:0.471698 37:0.4375 38:0.5 39:0.277778 40:0.5 41:0.5 42:0.5 43:0.392857 44:0.39931 45:0.5 46:0.5 49:0.5 50:0.411765 51:0.5 52:0.5 53:0.4375 54:0.5 55:0.5 56:0.5 59:0.363137 60:0.323529 62:0.5 63:0.25 64:0.5 65:0.333333 66:0.466667 67:0.5 68:0.432028 69:0.5 70:0.5 71:0.5 72:0.40625 73:0.5 75:0.5 76:0.5 77:0.380952 78:0.333333 79:0.5 82:0.5 84:0.375 85:0.5 86:0.479167 
0 0 0.5206398622432057 0 1:0.0535714 2:0.0625 3:0.0625 4:0.0625 5:0.05 6:0.0596591 8:0.0384781 9:0.053125 10:0.0625 12:0.048913 13:0.0625 15:0.0409483 16:0.0625 17:0.0625 18:0.0625 20:0.0625 21:0.0625 22:0.0438371 23:0.0625 24:0.0545749 25:0.0625 26:0.0625 27:0.0625 28:0.0538793 29:0.0625 30:0.046875 31:0.0625 32:0.0541667 33:0.0625 34:0.0625 35:0.0625 36:0.0601415 37:0.0546875 38:0.0625 39:0.0347222 40:0.0625 41:0.0625 42:0.0625 43:0.0491071 44:0.0530783 45:0.0625 46:0.0625 47:0.0625 49:0.0625 50:0.0514706 51:0.0625 52:0.0625 53:0.0625 54:0.0625 55:0.0625 56:0.0625 59:0.0447059 60:0.0477941 62:0.0625 63:0.03125 64:0.0625 65:0.0416667 66:0.0625 67:0.0625 68:0.0519873 69:0.0625 70:0.0625 71:0.0625 72:0.0507813 73:0.0625 75:0.0625 76:0.0625 77:0.0505952 78:0.0416667 79:0.0625 82:0.0625 84:0.0494792 85:0.0625 86:0.0598958 
0 1 1 0 1:0.171429 2:0.2 3:0.2 4:0.2 5:0.16 6:0.190909 8:0.13901 9:0.17 10:0.2 12:0.156522 13:0.2 15:0.131034 16:0.2 17:0.2 18:0.2 20:0.2 21:0.2 22:0.141739 23:0.2 24:0.18098 25:0.2 26:0.2 27:0.2 28:0.172414 29:0.2 30:0.15 31:0.2 32:0.173333 33:0.2 34:0.2 35:0.2 36:0.192453 37:0.175 38:0.2 39:0.111111 40:0.2 41:0.2 42:0.2 43:0.157143 44:0.172382 45:0.2 46:0.2 47:0.2 49:0.2 50:0.164706 51:0.2 52:0.2 53:0.2 54:0.2 55:0.2 56:0.2 59:0.144784 60:0.152941 62:0.2 63:0.1 64:0.2 65:0.133333 66:0.2 67:0.2 68:0.171429 69:0.2 70:0.2 71:0.2 72:0.1625 73:0.2 75:0.2 76:0.2 77:0.161905 78:0.133333 79:0.2 82:0.2 84:0.158333 85:0.2 86:0.191667 
0 0 0.00349852165777062 0 1:0.857143 2:1 3:1 4:1 5:0.885714 6:1 8:0.733026 9:0.9 10:1 12:0.826087 13:1 15:0.758621 16:1 17:1 18:1 20:1 21:1 22:0.749834 23:1 24:0.916427 25:1 26:1 27:1 28:0.931034 29:1 30:0.833333 31:1 32:0.933333 33:1 34:1 35:1 36:0.962264 37:0.875 38:1 39:0.555556 40:1 41:1 42:1 43:0.785714 44:0.899885 45:1 46:1 47:1 49:1 50:0.823529 51:1 52:1 53:1 54:1 55:1 56:1 59:0.727059 60:0.764706 62:1 63:0.5 64:1 65:0.666667 66:1 67:1 68:0.93318 69:1 70:1 71:1 72:0.8125 73:1 75:1 76:1 77:0.809524 78:0.666667 79:1 82:1 84:0.833333 85:1 86:0.958333 87:1 
0.2343172999326997 0 1 0 1:0.0857143 2:0.1 3:0.1 4:0.1 5:0.0885714 6:0.1 8:0.072267 9:0.09 10:0.1 12:0.0826087 13:0.1 15:0.0758621 16:0.1 17:0.1 18:0.1 20:0.1 21:0.1 22:0.0743862 23:0.1 24:0.089049 25:0.1 26:0.1 27:0.1 28:0.0931034 29:0.1 30:0.0833333 31:0.1 32:0.0933333 33:0.1 34:0.1 35:0.1 36:0.0962264 37:0.1 38:0.1 39:0.0555556 40:0.1 41:0.1 42:0.1 43:0.0785714 44:0.0889528 45:0.1 46:0.1 47:0.1 49:0.1 50:0.0823529 51:0.1 52:0.1 53:0.1 54:0.1 55:0.1 56:0.1 59:0.076549 60:0.0764706 62:0.1 63:0.05 64:0.1 65:0.0666667 66:0.1 67:0.1 68:0.0912442 69:0.1 70:0.1 71:0.1 72:0.08125 73:0.1 75:0.1 76:0.1 77:0.0809524 78:0.0666667 79:0.1 82:0.1 84:0.0833333 85:0.1 86:0.0958333 87:0.1 
0.2508979252627465 0 0 0 1:0.171429 2:0.2 3:0.2 4:0.2 5:0.177143 6:0.2 7:0.2 8:0.152359 9:0.18 10:0.2 12:0.165217 13:0.2 15:0.151724 16:0.2 17:0.2 18:0.2 20:0.2 21:0.2 22:0.153285 23:0.2 24:0.18098 25:0.2 26:0.2 27:0.2 28:0.186207 29:0.2 30:0.166667 31:0.2 32:0.186667 33:0.2 34:0.2 35:0.2 36:0.192453 37:0.2 38:0.2 39:0.111111 40:0.2 41:0.2 42:0.2 43:0.157143 44:0.185731 45:0.2 46:0.2 47:0.2 49:0.2 50:0.164706 51:0.2 52:0.2 53:0.2 54:0.2 55:0.2 56:0.2 58:0.2 59:0.153882 60:0.152941 61:0.2 62:0.2 63:0.1 64:0.2 65:0.133333 66:0.2 67:0.2 68:0.184793 69:0.2 70:0.2 71:0.2 72:0.1625 73:0.2 74:0.2 75:0.2 76:0.2 77:0.180952 78:0.133333 79:0.2 82:0.2 84:0.166667 85:0.2 86:0.191667 87:0.2 
0.04279835982554382 0 0.2523629388041505 0 1:0.285714 2:0.333333 3:0.333333 4:0.333333 5:0.295238 6:0.333333 7:0.333333 8:0.254699 9:0.3 10:0.333333 12:0.275362 13:0.333333 15:0.252874 16:0.333333 17:0.333333 18:0.333333 20:0.333333 21:0.333333 22:0.255917 23:0.333333 24:0.303554 25:0.333333 26:0.333333 27:0.333333 28:0.310345 29:0.333333 30:0.277778 31:0.333333 32:0.311111 33:0.333333 34:0.333333 35:0.333333 36:0.320755 37:0.333333 38:0.333333 39:0.185185 40:0.333333 41:0.333333 42:0.333333 43:0.261905 44:0.310318 45:0.333333 46:0.333333 47:0.333333 49:0.333333 50:0.294118 51:0.333333 52:0.333333 53:0.333333 54:0.333333 55:0.333333 56:0.333333 58:0.333333 59:0.256993 60:0.254902 61:0.333333 62:0.333333 63:0.166667 64:0.333333 65:0.222222 66:0.333333 67:0.333333 68:0.309524 69:0.333333 70:0.333333 71:0.333333 72:0.291667 73:0.333333 74:0.333333 75:0.333333 76:0.333333 77:0.301587 78:0.222222 79:0.333333 82:0.333333 84:0.277778 85:0.333333 86:0.319444 87:0.333333 
0 0 0.07468804803797507 0 1:0.142857 2:0.166667 3:0.166667 4:0.166667 5:0.147619 6:0.166667 7:0.166667 8:0.126774 9:0.15 10:0.166667 12:0.144928 13:0.166667 15:0.126437 16:0.166667 17:0.166667 18:0.166667 20:0.166667 21:0.166667 22:0.127627 23:0.166667 24:0.150336 25:0.166667 26:0.166667 27:0.166667 28:0.155172 29:0.166667 30:0.138889 31:0.166667 32:0.155556 33:0.166667 34:0.166667 35:0.166667 36:0.160377 37:0.166667 38:0.166667 39:0.111111 40:0.166667 41:0.166667 42:0.166667 43:0.130952 44:0.154584 45:0.166667 46:0.166667 47:0.166667 49:0.166667 50:0.156863 51:0.166667 52:0.166667 53:0.166667 54:0.166667 55:0.166667 56:0.166667 58:0.166667 59:0.131895 60:0.127451 61:0.166667 62:0.166667 63:0.0833333 64:0.166667 65:0.111111 66:0.166667 67:0.166667 68:0.15361 69:0.166667 70:0.166667 71:0.166667 72:0.145833 73:0.166667 74:0.166667 75:0.166667 76:0.166667 77:0.150794 78:0.111111 79:0.166667 82:0.166667 84:0.145833 85:0.166667 86:0.159722 87:0.166667 
0.1866251510854335 0.7291970586102491 0 0 1:0.285714 2:0.333333 3:0.333333 4:0.333333 5:0.295238 6:0.333333 7:0.333333 8:0.254699 9:0.3 10:0.333333 12:0.289855 13:0.333333 15:0.252874 16:0.333333 17:0.333333 18:0.333333 20:0.333333 21:0.333333 22:0.255917 23:0.333333 24:0.303554 25:0.333333 26:0.333333 27:0.333333 28:0.310345 29:0.333333 30:0.291667 31:0.333333 32:0.311111 33:0.333333 34:0.333333 35:0.333333 36:0.320755 37:0.333333 38:0.333333 39:0.222222 40:0.333333 41:0.333333 42:0.333333 43:0.261905 44:0.310318 45:0.333333 46:0.333333 47:0.333333 49:0.333333 50:0.313725 51:0.333333 52:0.333333 53:0.333333 54:0.333333 55:0.333333 56:0.333333 58:0.333333 59:0.264575 60:0.254902 61:0.333333 62:0.333333 63:0.166667 64:0.333333 65:0.222222 66:0.333333 67:0.333333 68:0.309524 69:0.333333 70:0.333333 71:0.333333 72:0.291667 73:0.333333 74:0.333333 75:0.333333 76:0.333333 77:0.301587 78:0.222222 79:0.333333 82:0.333333 84:0.291667 85:0.333333 86:0.319444 87:0.333333 
0.03104056118908552 0 0 0 1:0.142857 2:0.166667 3:0.166667 4:0.166667 5:0.147619 6:0.166667 7:0.166667 8:0.132336 9:0.15 10:0.166667 12:0.144928 13:0.166667 15:0.132184 16:0.166667 17:0.166667 18:0.166667 20:0.166667 21:0.166667 22:0.127627 23:0.166667 24:0.150336 25:0.166667 26:0.166667 27:0.166667 28:0.155172 29:0.166667 30:0.145833 31:0.166667 32:0.155556 33:0.166667 34:0.166667 35:0.166667 36:0.160377 37:0.166667 38:0.166667 39:0.111111 40:0.166667 41:0.166667 42:0.166667 43:0.130952 44:0.160146 45:0.166667 46:0.166667 47:0.166667 49:0.166667 50:0.156863 51:0.166667 52:0.166667 53:0.166667 54:0.166667 55:0.166667 56:0.166667 58:0.166667 59:0.131895 60:0.127451 61:0.166667 62:0.166667 63:0.0833333 64:0.166667 65:0.111111 66:0.166667 67:0.166667 68:0.15361 69:0.166667 70:0.166667 71:0.166667 72:0.145833 73:0.166667 74:0.166667 75:0.166667 76:0.166667 77:0.150794 78:0.111111 79:0.166667 82:0.166667 84:0.145833 85:0.166667 86:0.159722 87:0.166667 
0.1429289734455486 0 0.04650943740809246 0 1:0.214286 2:0.25 3:0.25 4:0.25 5:0.221429 6:0.25 7:0.25 8:0.199079 9:0.225 10:0.25 12:0.217391 13:0.25 15:0.198276 16:0.25 17:0.25 18:0.25 20:0.25 21:0.25 22:0.201393 23:0.25 24:0.226945 25:0.25 26:0.25 27:0.25 28:0.232759 29:0.25 30:0.21875 31:0.25 32:0.233333 33:0.25 34:0.25 35:0.25 36:0.240566 37:0.25 38:0.25 39:0.166667 40:0.25 41:0.25 42:0.25 43:0.196429 44:0.240794 45:0.25 46:0.25 47:0.25 49:0.25 50:0.235294 51:0.25 52:0.25 53:0.25 54:0.25 55:0.25 56:0.25 58:0.25 59:0.198235 60:0.191176 61:0.25 62:0.25 63:0.125 64:0.25 65:0.166667 66:0.25 67:0.25 68:0.231567 69:0.25 70:0.25 71:0.25 72:0.21875 73:0.25 74:0.25 75:0.25 76:0.25 77:0.22619 78:0.166667 79:0.25 82:0.25 84:0.21875 85:0.25 86:0.239583 87:0.25 
0 1 0 0 1:0.171429 2:0.2 3:0.2 4:0.2 5:0.177143 6:0.2 7:0.2 8:0.159033 9:0.19 10:0.2 12:0.173913 13:0.2 15:0.158621 16:0.2 17:0.2 18:0.2 20:0.2 21:0.2 22:0.160982 23:0.2 24:0.18098 25:0.2 26:0.2 27:0.2 28:0.186207 29:0.2 30:0.175 31:0.2 32:0.186667 33:0.2 34:0.2 35:0.2 36:0.192453 37:0.2 38:0.2 39:0.133333 40:0.2 41:0.2 42:0.2 43:0.157143 44:0.192405 45:0.2 46:0.2 47:0.2 49:0.2 50:0.188235 51:0.2 52:0.2 53:0.2 54:0.2 55:0.2 56:0.2 58:0.2 59:0.158431 60:0.152941 61:0.2 62:0.2 63:0.1 64:0.2 65:0.133333 66:0.2 67:0.2 68:0.184793 69:0.2 70:0.2 71:0.2 72:0.175 73:0.2 74:0.2 75:0.2 76:0.2 77:0.180952 78:0.133333 79:0.2 82:0.2 84:0.175 85:0.2 86:0.191667 87:0.2 
0 0.04261108753670151 0 0 1:0.464286 2:0.5 3:0.5 4:0.5 5:0.457143 6:0.5 7:0.5 8:0.432681 9:0.475 10:0.5 12:0.434783 13:0.5 15:0.431034 16:0.5 17:0.5 18:0.5 19:0.5 20:0.5 21:0.5 22:0.403451 23:0.5 24:0.498559 25:0.5 26:0.5 27:0.5 28:0.482759 29:0.5 30:0.4375 31:0.5 32:0.466667 33:0.5 34:0.5 35:0.5 36:0.490566 37:0.5 38:0.5 39:0.333333 40:0.5 41:0.5 42:0.5 43:0.428571 44:0.499425 45:0.5 46:0.5 47:0.5 49:0.5 50:0.5 51:0.5 52:0.5 53:0.5 54:0.5 55:0.5 56:0.5 57:0.5 58:0.5 59:0.408627 60:0.411765 61:0.5 62:0.5 63:0.5 64:0.5 65:0.333333 66:0.5 67:0.5 68:0.498848 69:0.5 70:0.5 71:0.5 72:0.46875 73:0.5 74:0.5 75:0.5 76:0.5 77:0.452381 78:0.333333 79:0.5 81:0.5 82:0.5 84:0.4375 85:0.5 86:0.5 87:0.5 
0.02267951360567335 0.9923856895841031 0 0 1:0.103175 2:0.111111 3:0.111111 4:0.111111 5:0.104762 6:0.111111 7:0.111111 8:0.0952564 9:0.105556 10:0.111111 12:0.0966184 13:0.111111 15:0.0996169 16:0.111111 17:0.111111 18:0.111111 19:0.111111 20:0.111111 21:0.111111 22:0.0891396 23:0.111111 24:0.108549 25:0.111111 26:0.111111 27:0.111111 28:0.10728 29:0.111111 30:0.0972222 31:0.111111 32:0.103704 33:0.111111 34:0.111111 35:0.111111 36:0.109015 37:0.111111 38:0.111111 39:0.0740741 40:0.111111 41:0.111111 42:0.111111 43:0.0952381 44:0.110088 45:0.111111 46:0.111111 47:0.111111 49:0.111111 50:0.111111 51:0.111111 52:0.111111 53:0.111111 54:0.111111 55:0.111111 56:0.111111 57:0.111111 58:0.111111 59:0.0927233 60:0.0915033 61:0.111111 62:0.111111 63:0.111111 64:0.111111 65:0.0740741 66:0.111111 67:0.111111 68:0.109063 69:0.111111 70:0.111111 71:0.111111 72:0.104167 73:0.111111 74:0.111111 75:0.111111 76:0.111111 77:0.100529 78:0.0740741 79:0.111111 81:0.111111 82:0.111111 84:0.0972222 85:0.111111 86:0.111111 87:0.111111 
0 1 0 0 1:0.116071 2:0.125 3:0.125 4:0.125 5:0.117857 6:0.125 7:0.125 8:0.107307 9:0.11875 10:0.125 12:0.108696 13:0.125 15:0.112069 16:0.125 17:0.125 18:0.125 19:0.125 20:0.125 21:0.125 22:0.100365 23:0.125 24:0.122478 25:0.125 26:0.125 27:0.125 28:0.12069 29:0.125 30:0.109375 31:0.125 32:0.116667 33:0.125 34:0.125 35:0.125 36:0.122642 37:0.125 38:0.125 39:0.0833333 40:0.125 41:0.125 42:0.125 43:0.107143 44:0.123993 45:0.125 46:0.125 47:0.125 49:0.125 50:0.125 51:0.125 52:0.125 53:0.125 54:0.125 55:0.125 56:0.125 57:0.125 58:0.125 59:0.104412 60:0.102941 61:0.125 62:0.125 63:0.125 64:0.125 65:0.0833333 66:0.125 67:0.125 68:0.122984 69:0.125 70:0.125 71:0.125 72:0.117188 73:0.125 74:0.125 75:0.125 76:0.125 77:0.113095 78:0.0833333 79:0.125 81:0.125 82:0.125 84:0.109375 85:0.125 86:0.125 87:0.125 
0 0.153928846175752 0 0 1:0.464286 2:0.5 3:0.5 4:0.5 5:0.471429 6:0.5 7:0.5 8:0.432681 9:0.475 10:0.5 11:0.5 12:0.434783 13:0.5 14:0.5 15:0.448276 16:0.5 17:0.5 18:0.5 19:0.5 20:0.5 21:0.5 22:0.403451 23:0.5 24:0.498559 25:0.5 26:0.5 27:0.5 28:0.482759 29:0.5 30:0.4375 31:0.5 32:0.466667 33:0.5 34:0.5 35:0.5 36:0.490566 37:0.5 38:0.5 39:0.333333 40:0.5 41:0.5 42:0.5 43:0.428571 44:0.499425 45:0.5 46:0.5 47:0.5 49:0.5 50:0.5 51:0.5 52:0.5 53:0.5 54:0.5 55:0.5 56:0.5 57:0.5 58:0.5 59:0.42 60:0.411765 61:0.5 62:0.5 63:0.5 64:0.5 65:0.333333 66:0.5 67:0.5 68:0.498848 69:0.5 70:0.5 71:0.5 72:0.46875 73:0.5 74:0.5 75:0.5 76:0.5 77:0.452381 78:0.333333 79:0.5 81:0.5 82:0.5 84:0.4375 85:0.5 86:0.5 87:0.5 
0 1 0 0 1:0.132653 2:0.142857 3:0.142857 4:0.142857 5:0.134694 6:0.142857 7:0.142857 8:0.122801 9:0.135714 10:0.142857 11:0.142857 12:0.124224 13:0.142857 14:0.142857 15:0.128079 16:0.142857 17:0.142857 18:0.142857 19:0.142857 20:0.142857 21:0.142857 22:0.114798 23:0.142857 24:0.140387 25:0.142857 26:0.142857 27:0.142857 28:0.137931 29:0.142857 30:0.125 31:0.142857 32:0.133333 33:0.142857 34:0.142857 35:0.142857 36:0.140162 37:0.142857 38:0.142857 39:0.0952381 40:0.142857 41:0.142857 42:0.142857 43:0.122449 44:0.141871 45:0.142857 46:0.142857 47:0.142857 49:0.142857 50:0.142857 51:0.142857 52:0.142857 53:0.142857 54:0.142857 55:0.142857 56:0.142857 57:0.142857 58:0.142857 59:0.11944 60:0.117647 61:0.142857 62:0.142857 63:0.142857 64:0.142857 65:0.0952381 66:0.142857 67:0.142857 68:0.140882 69:0.142857 70:0.142857 71:0.142857 72:0.133929 73:0.142857 74:0.142857 75:0.142857 76:0.142857 77:0.129252 78:0.0952381 79:0.142857 81:0.142857 82:0.142857 84:0.125 85:0.142857 86:0.142857 87:0.142857 
0 0.05549478749537516 0 0 1:0.232143 2:0.25 3:0.25 4:0.25 5:0.235714 6:0.25 7:0.25 8:0.215765 9:0.2375 10:0.25 11:0.25 12:0.228261 13:0.25 14:0.25 15:0.224138 16:0.25 17:0.25 18:0.25 19:0.25 20:0.25 21:0.25 22:0.206204 23:0.25 24:0.247839 25:0.25 26:0.25 27:0.25 28:0.241379 29:0.25 30:0.21875 31:0.25 32:0.233333 33:0.25 34:0.25 35:0.25 36:0.245283 37:0.25 38:0.25 39:0.194444 40:0.25 41:0.25 42:0.25 43:0.214286 44:0.249137 45:0.25 46:0.25 47:0.25 48:0.25 49:0.25 50:0.25 51:0.25 52:0.25 53:0.25 54:0.25 55:0.25 56:0.25 57:0.25 58:0.25 59:0.215294 60:0.205882 61:0.25 62:0.25 63:0.25 64:0.25 65:0.166667 66:0.25 67:0.25 68:0.248272 69:0.25 70:0.25 71:0.25 72:0.234375 73:0.25 74:0.25 75:0.25 76:0.25 77:0.22619 78:0.166667 79:0.25 81:0.25 82:0.25 84:0.229167 85:0.25 86:0.25 87:0.25 
0 0.559256036085113 0.0471596769584025 0 1:0.309524 2:0.333333 3:0.333333 4:0.333333 5:0.314286 6:0.333333 7:0.333333 8:0.288071 9:0.316667 10:0.333333 11:0.333333 12:0.304348 13:0.333333 14:0.333333 15:0.298851 16:0.333333 17:0.333333 18:0.333333 19:0.333333 20:0.333333 21:0.333333 22:0.27516 23:0.333333 24:0.331412 25:0.333333 26:0.333333 27:0.333333 28:0.321839 29:0.333333 30:0.291667 31:0.333333 32:0.311111 33:0.333333 34:0.333333 35:0.333333 36:0.327044 37:0.333333 38:0.333333 39:0.259259 40:0.333333 41:0.333333 42:0.333333 43:0.285714 44:0.332566 45:0.333333 46:0.333333 47:0.333333 48:0.333333 49:0.333333 50:0.333333 51:0.333333 52:0.333333 53:0.333333 54:0.333333 55:0.333333 56:0.333333 57:0.333333 58:0.333333 59:0.294902 60:0.294118 61:0.333333 62:0.333333 63:0.333333 64:0.333333 65:0.222222 66:0.333333 67:0.333333 68:0.331797 69:0.333333 70:0.333333 71:0.333333 72:0.3125 73:0.333333 74:0.333333 75:0.333333 76:0.333333 77:0.301587 78:0.333333 79:0.333333 81:0.333333 82:0.333333 84:0.305556 85:0.333333 86:0.333333 87:0.333333 
0 0.5299248636962401 0 0 1:0.25 2:0.25 3:0.25 4:0.25 5:0.235714 6:0.25 7:0.25 8:0.215765 9:0.25 10:0.25 11:0.25 12:0.228261 13:0.25 14:0.25 15:0.224138 16:0.25 17:0.25 18:0.25 19:0.25 20:0.25 21:0.25 22:0.206204 23:0.25 24:0.247839 25:0.25 26:0.25 27:0.25 28:0.241379 29:0.25 30:0.21875 31:0.25 32:0.233333 33:0.25 34:0.25 35:0.25 36:0.245283 37:0.25 38:0.25 39:0.194444 40:0.25 41:0.25 42:0.25 43:0.214286 44:0.249137 45:0.25 46:0.25 47:0.25 48:0.25 49:0.25 50:0.25 51:0.25 52:0.25 53:0.25 54:0.25 55:0.25 56:0.25 57:0.25 58:0.25 59:0.226667 60:0.235294 61:0.25 62:0.25 63:0.25 64:0.25 65:0.166667 66:0.25 67:0.25 68:0.248272 69:0.25 70:0.25 71:0.25 72:0.234375 73:0.25 74:0.25 75:0.25 76:0.25 77:0.22619 78:0.25 79:0.25 81:0.25 82:0.25 84:0.229167 85:0.25 86:0.25 87:0.25 
0 0.6685834853866621 0 0 1:0.2 2:0.2 3:0.2 4:0.2 5:0.194286 6:0.2 7:0.2 8:0.185731 9:0.2 10:0.2 11:0.2 12:0.182609 13:0.2 14:0.2 15:0.193103 16:0.2 17:0.2 18:0.2 19:0.2 20:0.2 21:0.2 22:0.184074 23:0.2 24:0.197695 25:0.2 26:0.2 27:0.2 28:0.193103 29:0.2 30:0.2 31:0.2 32:0.186667 33:0.2 34:0.2 35:0.2 36:0.2 37:0.2 38:0.2 39:0.155556 40:0.2 41:0.2 42:0.2 43:0.185714 44:0.199079 45:0.2 46:0.2 47:0.2 48:0.2 49:0.2 50:0.2 51:0.2 52:0.2 53:0.2 54:0.2 55:0.2 56:0.2 57:0.2 58:0.2 59:0.199373 60:0.2 61:0.2 62:0.2 63:0.2 64:0.2 65:0.133333 66:0.2 67:0.2 68:0.198157 69:0.2 70:0.2 71:0.2 72:0.2 73:0.2 74:0.2 75:0.2 76:0.2 77:0.190476 78:0.2 79:0.2 81:0.2 82:0.2 84:0.183333 85:0.2 86:0.2 87:0.2 
0 0 0.133490584811683 0 1:0.166667 2:0.166667 3:0.166667 4:0.166667 5:0.166667 6:0.166667 7:0.166667 8:0.154584 9:0.166667 10:0.166667 11:0.166667 12:0.152174 13:0.166667 14:0.166667 15:0.166667 16:0.166667 17:0.166667 18:0.166667 19:0.166667 20:0.166667 21:0.166667 22:0.153285 23:0.166667 24:0.164265 25:0.166667 26:0.166667 27:0.166667 28:0.16092 29:0.166667 30:0.166667 31:0.166667 32:0.155556 33:0.166667 34:0.166667 35:0.166667 36:0.166667 37:0.166667 38:0.166667 39:0.12963 40:0.166667 41:0.166667 42:0.166667 43:0.154762 44:0.165708 45:0.166667 46:0.166667 47:0.166667 48:0.166667 49:0.166667 50:0.166667 51:0.166667 52:0.166667 53:0.166667 54:0.166667 55:0.166667 56:0.166667 57:0.166667 58:0.166667 59:0.166013 60:0.166667 61:0.166667 62:0.166667 63:0.166667 64:0.166667 65:0.166667 66:0.166667 67:0.166667 68:0.164747 69:0.166667 70:0.166667 71:0.166667 72:0.166667 73:0.166667 74:0.166667 75:0.166667 76:0.166667 77:0.15873 78:0.166667 79:0.166667 80:0.166667 81:0.166667 82:0.166667 84:0.152778 85:0.166667 86:0.166667 87:0.166667 89:0.166667 
0 0 0.1742941562869874 0 1:0.25 2:0.25 3:0.25 4:0.25 5:0.25 6:0.25 7:0.25 8:0.232451 9:0.25 10:0.25 11:0.25 12:0.228261 13:0.25 14:0.25 15:0.25 16:0.25 17:0.25 18:0.25 19:0.25 20:0.25 21:0.25 22:0.23507 23:0.25 24:0.247839 25:0.25 26:0.25 27:0.25 28:0.241379 29:0.25 30:0.25 31:0.25 32:0.233333 33:0.25 34:0.25 35:0.25 36:0.25 37:0.25 38:0.25 39:0.194444 40:0.25 41:0.25 42:0.25 43:0.232143 44:0.249137 45:0.25 46:0.25 47:0.25 48:0.25 49:0.25 50:0.25 51:0.25 52:0.25 53:0.25 54:0.25 55:0.25 56:0.25 57:0.25 58:0.25 59:0.249412 60:0.25 61:0.25 62:0.25 63:0.25 64:0.25 65:0.25 66:0.25 67:0.25 68:0.248272 69:0.25 70:0.25 71:0.25 72:0.25 73:0.25 74:0.25 75:0.25 76:0.25 77:0.25 78:0.25 79:0.25 80:0.25 81:0.25 82:0.25 84:0.229167 85:0.25 86:0.25 87:0.25 89:0.25 
0 0 0.05637926364205805 0 1:0.142857 2:0.142857 3:0.142857 4:0.142857 5:0.142857 6:0.142857 7:0.142857 8:0.132336 9:0.142857 10:0.142857 11:0.142857 12:0.136646 13:0.142857 14:0.142857 15:0.142857 16:0.142857 17:0.142857 18:0.142857 19:0.142857 20:0.142857 21:0.142857 22:0.139539 23:0.142857 24:0.140387 25:0.142857 26:0.142857 27:0.142857 28:0.137931 29:0.142857 30:0.142857 31:0.142857 32:0.142857 33:0.142857 34:0.142857 35:0.142857 36:0.142857 37:0.142857 38:0.142857 39:0.126984 40:0.142857 41:0.142857 42:0.142857 43:0.132653 44:0.141871 45:0.142857 46:0.142857 47:0.142857 48:0.142857 49:0.142857 50:0.142857 51:0.142857 52:0.142857 53:0.142857 54:0.142857 55:0.142857 56:0.142857 57:0.142857 58:0.142857 59:0.142185 60:0.142857 61:0.142857 62:0.142857 63:0.142857 64:0.142857 65:0.142857 66:0.142857 67:0.142857 68:0.140882 69:0.142857 70:0.142857 71:0.142857 72:0.142857 73:0.142857 74:0.142857 75:0.142857 76:0.142857 77:0.142857 78:0.142857 79:0.142857 80:0.142857 81:0.142857 82:0.142857 84:0.136905 85:0.142857 86:0.142857 87:0.142857 89:0.142857 
0 0.9809795733443546 0 0 1:0.25 2:0.25 3:0.25 4:0.25 5:0.25 6:0.25 7:0.25 8:0.249137 9:0.25 10:0.25 11:0.25 12:0.271739 13:0.25 14:0.25 15:0.25 16:0.25 17:0.25 18:0.25 19:0.25 20:0.25 21:0.25 22:0.254313 23:0.25 24:0.247839 25:0.25 26:0.25 27:0.25 28:0.25 29:0.25 30:0.25 31:0.25 32:0.25 33:0.25 34:0.25 35:0.25 36:0.254717 37:0.25 38:0.25 39:0.25 40:0.25 41:0.266667 42:0.25 43:0.25 44:0.249137 45:0.25 46:0.25 47:0.25 48:0.25 49:0.25 50:0.25 51:0.25 52:0.25 53:0.25 54:0.25 55:0.25 56:0.25 57:0.25 58:0.25 59:0.249412 60:0.25 61:0.25 62:0.25 63:0.25 64:0.25 65:0.25 66:0.25 67:0.25 68:0.248272 69:0.25 70:0.25 71:0.25 72:0.25 73:0.375 74:0.25 75:0.25 76:0.25 77:0.261905 78:0.25 79:0.25 80:0.25 81:0.25 82:0.25 83:0.25 84:0.270833 85:0.25 86:0.25 87:0.25 88:0.25 89:0.25 
0 0.3051052136823573 0 0 1:0.333333 2:0.333333 3:0.333333 4:0.333333 5:0.333333 6:0.333333 7:0.333333 8:0.332566 9:0.333333 10:0.333333 11:0.333333 12:0.362319 13:0.333333 14:0.333333 15:0.333333 16:0.333333 17:0.333333 18:0.333333 19:0.333333 20:0.333333 21:0.333333 22:0.339305 23:0.333333 24:0.331412 25:0.333333 26:0.333333 27:0.333333 28:0.333333 29:0.333333 30:0.333333 31:0.333333 32:0.333333 33:0.333333 34:0.333333 35:0.333333 36:0.339623 37:0.333333 38:0.333333 39:0.333333 40:0.333333 41:0.355556 42:0.333333 43:0.333333 44:0.332566 45:0.333333 46:0.333333 47:0.333333 48:0.333333 49:0.333333 50:0.333333 51:0.333333 52:0.333333 53:0.333333 54:0.333333 55:0.333333 56:0.333333 57:0.333333 58:0.333333 59:0.33281 60:0.333333 61:0.333333 62:0.333333 63:0.333333 64:0.333333 65:0.333333 66:0.333333 67:0.333333 68:0.331797 69:0.333333 70:0.333333 71:0.333333 72:0.333333 73:0.5 74:0.333333 75:0.333333 76:0.333333 77:0.349206 78:0.333333 79:0.333333 80:0.333333 81:0.333333 82:0.333333 83:0.666667 84:0.361111 85:0.333333 86:0.333333 87:0.333333 88:0.333333 89:0.333333 
0.07065249271745897 1 0.2061128160847431 0.006822692021603641 1:0.0909091 2:0.0909091 3:0.0909091 4:0.0909091 5:0.0909091 6:0.0909091 7:0.0909091 8:0.089863 9:0.0909091 10:0.0909091 11:0.0909091 12:0.0988142 13:0.0956938 14:0.0909091 15:0.0909091 16:0.0909091 17:0.0909091 18:0.0909091 19:0.0909091 20:0.0909091 21:0.0909091 22:0.0938047 23:0.0909091 24:0.0882892 25:0.0909091 26:0.0909091 27:0.0909091 28:0.100313 29:0.0909091 30:0.0909091 31:0.0909091 32:0.0909091 33:0.0909091 34:0.0909091 35:0.0909091 36:0.0926244 37:0.0909091 38:0.0909091 39:0.0909091 40:0.0909091 41:0.10303 42:0.0909091 43:0.0909091 44:0.089863 45:0.0909091 46:0.0909091 47:0.0909091 48:0.0909091 49:0.0909091 50:0.0909091 51:0.0909091 52:0.0909091 53:0.0909091 54:0.0909091 55:0.0909091 56:0.0909091 57:0.0909091 58:0.0909091 59:0.0922638 60:0.0909091 61:0.0909091 62:0.0909091 63:0.0909091 64:0.0909091 65:0.0909091 66:0.0909091 67:0.0909091 68:0.094889 69:0.0909091 70:0.0909091 71:0.0909091 72:0.0965909 73:0.136364 74:0.0909091 75:0.0909091 76:0.0909091 77:0.0995671 78:0.0909091 79:0.0909091 80:0.0909091 81:0.0909091 82:0.0909091 83:0.181818 84:0.0984848 85:0.0909091 86:0.0909091 87:0.0909091 88:0.0909091 89:0.0909091 
-1 1 1 1 8:0.00997315 22:0.00575094 24:0.024976 44:0.00997315 59:0.00679739 68:0.0199693 
-1 1 1 1 1:0.0408163 5:0.044898 6:0.0779221 8:0.0417557 9:0.05 12:0.0248447 13:0.0977444 15:0.0492611 20:0.142857 22:0.0378235 24:0.0806916 25:0.142857 28:0.0492611 30:0.0416667 32:0.0380952 33:0.142857 34:0.142857 35:0.142857 36:0.0727763 37:0.0892857 38:0.0714286 39:0.031746 41:0.0952381 43:0.0510204 44:0.0655926 49:0.0989011 50:0.0252101 53:0.0714286 54:0.0714286 59:0.0252101 60:0.0168067 65:0.047619 66:0.0571429 68:0.0358789 69:0.0659341 71:0.142857 72:0.0357143 75:0.0571429 77:0.0272109 79:0.142857 84:0.0357143 86:0.0654762 
-1 1 1 1 1:0.171429 2:0.2 3:0.2 4:0.2 5:0.177143 6:0.2 7:0.2 8:0.152359 9:0.18 10:0.2 12:0.165217 13:0.2 15:0.151724 16:0.2 17:0.2 18:0.2 20:0.2 21:0.2 22:0.153285 23:0.2 24:0.18098 25:0.2 26:0.2 27:0.2 28:0.186207 29:0.2 30:0.166667 31:0.2 32:0.186667 33:0.2 34:0.2 35:0.2 36:0.192453 37:0.2 38:0.2 39:0.111111 40:0.2 41:0.2 42:0.2 43:0.157143 44:0.185731 45:0.2 46:0.2 47:0.2 49:0.2 50:0.176471 51:0.2 52:0.2 53:0.2 54:0.2 55:0.2 56:0.2 58:0.2 59:0.153882 60:0.152941 61:0.2 62:0.2 63:0.1 64:0.2 65:0.133333 66:0.2 67:0.2 68:0.184793 69:0.2 70:0.2 71:0.2 72:0.175 73:0.2 74:0.2 75:0.2 76:0.2 77:0.180952 78:0.133333 79:0.2 82:0.2 84:0.166667 85:0.2 86:0.191667 87:0.2 
-1 -0 0 0 1:0.0357143 5:0.0285714 6:0.0454545 8:0.0322209 9:0.025 13:0.0263158 22:0.01858 24:0.0389049 30:0.0208333 36:0.0283019 37:0.125 41:0.0333333 44:0.0322209 49:0.0384615 53:0.125 59:0.0219608 66:0.0333333 68:0.031106 69:0.0384615 72:0.03125 86:0.0208333 
-1 -1 0 0.1418407416816443 1:0.0178571 5:0.0142857 6:0.0340909 8:0.0155351 9:0.0125 13:0.0131579 22:0.0089582 24:0.0180115 28:0.00862069 30:0.0104167 36:0.0141509 37:0.0625 41:0.0166667 44:0.0155351 49:0.0192308 53:0.0625 59:0.0105882 66:0.0166667 68:0.0144009 69:0.0192308 72:0.015625 86:0.0208333 
-1 -0 0.5937488629870331 0 1:0.0178571 5:0.0285714 6:0.0340909 8:0.023878 9:0.05 13:0.0394737 22:0.0137691 24:0.0389049 28:0.00862069 30:0.0104167 34:0.25 36:0.0330189 37:0.09375 41:0.0333333 44:0.0405639 49:0.0576923 50:0.0147059 53:0.0625 59:0.0162745 66:0.0333333 68:0.031106 69:0.0384615 72:0.015625 77:0.0119048 86:0.0416667 
-1 -0 0.01335868634483273 0 1:0.0357143 5:0.0571429 6:0.0681818 8:0.0489068 9:0.1 13:0.131579 22:0.0282017 24:0.122478 28:0.0172414 30:0.0208333 34:0.5 36:0.0754717 37:0.1875 41:0.1 43:0.0357143 44:0.0822785 49:0.115385 50:0.0294118 53:0.125 59:0.0447059 66:0.0666667 68:0.0645161 69:0.0769231 72:0.03125 77:0.0238095 86:0.0833333 
-1 -0 0 0 1:0.0357143 5:0.0714286 6:0.0681818 8:0.0655926 9:0.125 13:0.157895 15:0.0172414 22:0.0282017 24:0.122478 28:0.0517241 30:0.0208333 34:0.5 36:0.0943396 37:0.3125 41:0.2 43:0.0714286 44:0.0989643 49:0.115385 50:0.0588235 53:0.125 59:0.0447059 66:0.0666667 68:0.0645161 69:0.0769231 72:0.03125 77:0.0238095 86:0.0833333 
-1 -0 0 0.05922491555054824 1:0.00714286 5:0.0171429 6:0.0136364 8:0.0121979 9:0.025 13:0.0315789 15:0.00689655 22:0.00510949 24:0.0221902 28:0.0103448 30:0.00416667 33:0.1 34:0.1 35:0.1 36:0.0188679 37:0.0625 41:0.04 43:0.0142857 44:0.0188723 49:0.0230769 50:0.0117647 53:0.025 59:0.0105882 66:0.0133333 68:0.0110599 69:0.0153846 72:0.00625 77:0.0047619 86:0.0166667 
-1 -0 0.2390354410105147 0 1:0.0357143 5:0.0857143 6:0.113636 8:0.0822785 9:0.125 13:0.184211 15:0.0344828 22:0.0282017 24:0.164265 28:0.0689655 30:0.0208333 33:0.5 34:0.5 35:0.5 36:0.103774 37:0.3125 41:0.233333 43:0.0714286 44:0.0989643 49:0.115385 50:0.0588235 53:0.1875 59:0.0560784 66:0.1 68:0.0645161 69:0.0769231 72:0.0625 77:0.0238095 86:0.0833333 
-1 -0 0.476500086082487 0 1:0.0714286 5:0.1 6:0.159091 8:0.0822785 9:0.125 12:0.0217391 13:0.289474 15:0.0689655 22:0.0378235 24:0.247839 28:0.12069 30:0.0416667 33:0.5 34:0.5 35:0.5 36:0.141509 37:0.3125 41:0.266667 43:0.142857 44:0.11565 49:0.153846 50:0.0588235 53:0.1875 59:0.067451 60:0.0294118 66:0.1 68:0.0645161 69:0.115385 72:0.0625 77:0.047619 84:0.0208333 86:0.145833 
-1 -0 1 0 1:0.0357143 5:0.0380952 6:0.0681818 8:0.026659 9:0.0416667 12:0.00724638 13:0.0964912 15:0.0229885 20:0.166667 22:0.01858 24:0.0806916 25:0.166667 28:0.045977 30:0.0138889 33:0.166667 34:0.166667 35:0.166667 36:0.0628931 37:0.104167 41:0.0888889 43:0.047619 44:0.0433448 49:0.0641026 50:0.0294118 53:0.0625 59:0.0219608 60:0.00980392 66:0.0444444 68:0.0199693 69:0.0641026 71:0.166667 72:0.0208333 75:0.0333333 77:0.015873 84:0.00694444 86:0.0486111 
-1 -0 0 0 1:0.0164835 5:0.0197802 6:0.0314685 8:0.0168186 9:0.0192308 12:0.00334448 13:0.0445344 15:0.0159151 20:0.0769231 22:0.00821806 24:0.0356905 25:0.0769231 28:0.0212202 30:0.0160256 32:0.00512821 33:0.0769231 34:0.0769231 35:0.0769231 36:0.0290276 37:0.0480769 38:0.0384615 39:0.00854701 41:0.0410256 43:0.021978 44:0.0219527 49:0.035503 50:0.0135747 53:0.0288462 54:0.0384615 59:0.00971342 60:0.00452489 65:0.025641 66:0.0205128 68:0.0079759 69:0.0295858 71:0.0769231 72:0.00961538 75:0.0153846 77:0.010989 84:0.00641026 86:0.0224359 
-1 -0 0.4204756868483633 0.1641200690837301 1:0.107143 5:0.142857 6:0.204545 8:0.11565 9:0.125 12:0.0434783 13:0.289474 15:0.103448 20:0.5 22:0.0763106 24:0.247839 25:0.5 28:0.137931 30:0.104167 32:0.0666667 33:0.5 34:0.5 35:0.5 36:0.188679 37:0.3125 38:0.25 39:0.111111 41:0.266667 43:0.142857 44:0.165708 49:0.230769 50:0.0882353 53:0.1875 54:0.25 59:0.067451 60:0.0294118 65:0.166667 66:0.133333 68:0.0979263 69:0.192308 71:0.5 72:0.09375 75:0.2 77:0.0714286 84:0.0625 86:0.145833 
-1 -1 0 0 1:0.0357143 5:0.047619 6:0.0833333 8:0.0377829 9:0.0416667 12:0.0144928 13:0.105263 15:0.045977 20:0.166667 22:0.031409 24:0.0946206 25:0.166667 28:0.0517241 30:0.0486111 32:0.0222222 33:0.166667 34:0.166667 35:0.166667 36:0.0660377 37:0.104167 38:0.0833333 39:0.037037 41:0.1 43:0.047619 44:0.0600307 49:0.0897436 50:0.0294118 53:0.0625 54:0.0833333 59:0.0295425 60:0.00980392 65:0.0555556 66:0.0555556 68:0.031106 69:0.0641026 71:0.166667 72:0.03125 75:0.0666667 77:0.0238095 79:0.166667 84:0.0277778 86:0.0555556 
-1 -0 0 0 1:0.0204082 5:0.022449 6:0.0422078 8:0.0203025 9:0.025 12:0.0124224 13:0.0526316 15:0.0246305 20:0.0714286 22:0.01858 24:0.0389049 25:0.0714286 28:0.0270936 30:0.0238095 32:0.0190476 33:0.0714286 34:0.0714286 35:0.0714286 36:0.0377358 37:0.0446429 38:0.0357143 39:0.015873 41:0.047619 42:0.0714286 43:0.0255102 44:0.0322209 49:0.0494505 50:0.0168067 53:0.0446429 54:0.0357143 59:0.0138375 60:0.012605 65:0.0238095 66:0.0285714 68:0.0167874 69:0.032967 71:0.0714286 72:0.0178571 75:0.0285714 77:0.0170068 79:0.0714286 84:0.0178571 86:0.0327381 
-1 -0 0 0 1:0.0274725 5:0.0241758 6:0.0454545 8:0.0219527 9:0.0269231 12:0.0133779 13:0.0607287 15:0.0265252 20:0.0769231 22:0.0200602 24:0.0421193 25:0.0769231 28:0.0318302 30:0.0288462 32:0.025641 33:0.0769231 34:0.0769231 35:0.0769231 36:0.0435414 37:0.0576923 38:0.0384615 39:0.017094 41:0.0512821 42:0.0769231 43:0.0274725 44:0.034788 49:0.0532544 50:0.0226244 53:0.0480769 54:0.0384615 59:0.0167119 60:0.0180995 65:0.025641 66:0.0358974 68:0.0182559 69:0.0532544 71:0.0769231 72:0.0192308 75:0.0307692 77:0.018315 79:0.0769231 84:0.0192308 86:0.0384615 
-1 -0 0 0 1:0.0297619 5:0.0285714 6:0.0492424 8:0.023878 9:0.0291667 12:0.0144928 13:0.0657895 15:0.0287356 20:0.0833333 22:0.0217872 24:0.0458694 25:0.0833333 28:0.0344828 30:0.03125 32:0.0333333 33:0.0833333 34:0.0833333 35:0.0833333 36:0.0471698 37:0.0625 38:0.0416667 39:0.0185185 41:0.0555556 42:0.0833333 43:0.0297619 44:0.0377829 45:0.0833333 49:0.0576923 50:0.0245098 52:0.0833333 53:0.0520833 54:0.0416667 59:0.0181699 60:0.0196078 65:0.0277778 66:0.0444444 68:0.0199693 69:0.0576923 71:0.0833333 72:0.0208333 75:0.0333333 77:0.0198413 79:0.0833333 84:0.0208333 86:0.0416667 
-1 -0 0 0 1:0.0396825 5:0.0380952 6:0.0707071 8:0.0322209 9:0.0388889 12:0.0193237 13:0.0935673 15:0.0383142 20:0.111111 22:0.0292708 24:0.0621198 25:0.111111 28:0.045977 30:0.0416667 32:0.0444444 33:0.111111 34:0.111111 35:0.111111 36:0.0649895 37:0.0833333 38:0.0555556 39:0.037037 41:0.0740741 42:0.111111 43:0.0396825 44:0.0507608 45:0.111111 49:0.0769231 50:0.0392157 52:0.111111 53:0.0694444 54:0.0555556 59:0.024488 60:0.0261438 65:0.037037 66:0.0592593 68:0.0273938 69:0.0769231 71:0.111111 72:0.0277778 73:0.0555556 75:0.0444444 77:0.026455 79:0.111111 84:0.0277778 86:0.0555556 
-1 -0 0.4983749730408709 0.514681765153843 1:0.25 5:0.185714 6:0.340909 8:0.165708 9:0.2 12:0.108696 13:0.447368 15:0.206897 20:0.5 22:0.191772 24:0.289625 25:0.5 28:0.258621 30:0.25 32:0.2 33:0.5 34:0.5 35:0.5 36:0.320755 37:0.375 38:0.25 39:0.166667 41:0.4 42:0.5 43:0.178571 44:0.232451 45:0.5 49:0.384615 50:0.205882 52:0.5 53:0.375 54:0.25 59:0.158431 60:0.117647 65:0.166667 66:0.333333 68:0.131336 69:0.384615 71:0.5 72:0.125 73:0.5 75:0.3 77:0.119048 79:0.5 84:0.145833 86:0.270833 
-1 -0 0 0 1:0.125 5:0.0928571 6:0.170455 8:0.0989643 9:0.1 12:0.0543478 13:0.223684 15:0.12069 20:0.25 22:0.105176 24:0.143372 25:0.25 28:0.146552 30:0.125 32:0.116667 33:0.25 34:0.25 35:0.25 36:0.165094 37:0.1875 38:0.125 39:0.0833333 41:0.2 42:0.25 43:0.107143 44:0.11565 45:0.25 49:0.211538 50:0.102941 52:0.25 53:0.1875 54:0.125 59:0.0845098 60:0.0588235 65:0.0833333 66:0.2 68:0.0645161 69:0.192308 71:0.25 72:0.09375 73:0.25 75:0.15 77:0.0714286 79:0.25 84:0.0729167 86:0.166667 
-1 -0 0.4881039746182029 0 1:0.125 5:0.0928571 6:0.170455 8:0.0989643 9:0.1 12:0.0543478 13:0.223684 15:0.12069 20:0.25 22:0.105176 24:0.143372 25:0.25 28:0.146552 30:0.125 32:0.116667 33:0.25 34:0.25 35:0.25 36:0.165094 37:0.1875 38:0.125 39:0.0833333 41:0.2 42:0.25 43:0.107143 44:0.11565 45:0.25 49:0.211538 50:0.102941 52:0.25 53:0.1875 54:0.125 59:0.0845098 60:0.0735294 65:0.0833333 66:0.2 68:0.0645161 69:0.192308 71:0.25 72:0.09375 73:0.25 75:0.15 77:0.0714286 79:0.25 84:0.0729167 86:0.166667 
-1 -0 1 1 1:0.1 5:0.0742857 6:0.136364 8:0.0789413 9:0.1 12:0.0434783 13:0.178947 15:0.0965517 20:0.2 22:0.084008 24:0.114121 25:0.2 28:0.117241 30:0.1 32:0.0933333 33:0.2 34:0.2 35:0.2 36:0.135849 37:0.15 38:0.1 39:0.0666667 41:0.16 42:0.2 43:0.0857143 44:0.09229 45:0.2 49:0.169231 50:0.0823529 52:0.2 53:0.15 54:0.1 59:0.081098 60:0.0588235 65:0.133333 66:0.16 68:0.0645161 69:0.169231 70:0.2 71:0.2 72:0.075 73:0.2 75:0.12 77:0.0571429 79:0.2 84:0.0583333 86:0.141667 
-1 -0 0.2683058050410999 0.05124745063737099 1:0.571429 4:1 5:0.428571 6:0.818182 8:0.39931 9:0.6 10:1 12:0.434783 13:0.947368 15:0.482759 20:1 22:0.480425 24:0.582133 25:1 28:0.586207 30:0.5 32:0.533333 33:1 34:1 35:1 36:0.773585 37:0.75 38:0.5 39:0.333333 41:0.8 42:1 43:0.5 44:0.632911 45:1 49:0.846154 50:0.411765 52:1 53:0.75 54:0.5 59:0.476863 60:0.470588 65:0.666667 66:0.866667 68:0.599078 69:0.923077 70:1 71:1 72:0.5 73:1 75:0.6 77:0.428571 79:1 84:0.5 86:0.833333 
-1 -0 1 1 1:0.114286 4:0.2 5:0.0914286 6:0.163636 8:0.0789413 9:0.12 10:0.2 12:0.0869565 13:0.189474 15:0.0965517 20:0.2 22:0.0955541 24:0.114121 25:0.2 28:0.117241 30:0.1 32:0.106667 33:0.2 34:0.2 35:0.2 36:0.154717 37:0.15 38:0.1 39:0.0666667 41:0.16 42:0.2 43:0.1 44:0.125662 45:0.2 49:0.169231 50:0.0823529 52:0.2 53:0.15 54:0.1 59:0.0947451 60:0.0941176 65:0.133333 66:0.173333 68:0.117972 69:0.184615 70:0.2 71:0.2 72:0.1 73:0.2 75:0.12 77:0.0857143 79:0.2 84:0.1 86:0.166667 
-1 -0 1 0.9531046270878918 1:0.0571429 4:0.1 5:0.0457143 6:0.0818182 8:0.0388953 9:0.06 10:0.1 12:0.0434783 13:0.0947368 15:0.0482759 20:0.1 22:0.0474453 24:0.0556196 25:0.1 28:0.062069 30:0.05 32:0.0533333 33:0.1 34:0.1 35:0.1 36:0.0773585 37:0.075 38:0.1 39:0.0333333 41:0.08 42:0.1 43:0.05 44:0.0622555 45:0.1 49:0.0846154 50:0.0411765 52:0.1 53:0.075 54:0.1 59:0.0469804 60:0.0470588 65:0.0666667 66:0.0866667 68:0.0578341 69:0.0923077 70:0.1 71:0.1 72:0.05 73:0.1 75:0.06 77:0.0428571 79:0.1 84:0.05 86:0.0833333 
-1 -0 1 0 1:0.0190476 3:0.0333333 4:0.0333333 5:0.0161905 6:0.0272727 8:0.0121979 9:0.02 10:0.0333333 12:0.0173913 13:0.0315789 15:0.016092 16:0.0333333 20:0.0333333 22:0.0160142 24:0.0166186 25:0.0333333 28:0.0206897 30:0.0194444 32:0.02 33:0.0333333 34:0.0333333 35:0.0333333 36:0.0264151 37:0.025 38:0.0333333 39:0.0111111 41:0.0266667 42:0.0333333 43:0.0166667 44:0.0199847 45:0.0333333 49:0.0282051 50:0.0137255 52:0.0333333 53:0.025 54:0.0333333 59:0.0158954 60:0.0156863 64:0.0333333 65:0.0222222 66:0.0288889 68:0.0177419 69:0.0307692 70:0.0333333 71:0.0333333 72:0.01875 73:0.0333333 75:0.02 77:0.0142857 78:0.0111111 79:0.0333333 84:0.0180556 86:0.0291667 
-1 -0 1 0 1:0.128571 3:0.2 4:0.2 5:0.0971429 6:0.172727 8:0.0856157 9:0.12 10:0.2 12:0.104348 13:0.189474 15:0.0965517 16:0.2 20:0.2 22:0.110949 24:0.14755 25:0.2 28:0.124138 30:0.116667 32:0.12 33:0.2 34:0.2 35:0.2 36:0.158491 37:0.15 38:0.2 39:0.0666667 41:0.16 42:0.2 43:0.114286 44:0.13901 45:0.2 49:0.169231 50:0.0823529 52:0.2 53:0.15 54:0.2 59:0.103843 60:0.0941176 64:0.2 65:0.133333 66:0.173333 68:0.117972 69:0.184615 70:0.2 71:0.2 72:0.125 73:0.2 75:0.12 77:0.0952381 78:0.0666667 79:0.2 84:0.116667 86:0.175 
-1 -0 0 0 1:0.714286 3:1 4:1 5:0.514286 6:0.909091 8:0.432681 9:0.65 10:1 12:0.521739 13:0.947368 15:0.551724 16:1 20:1 22:0.615129 24:0.74928 25:1 28:0.724138 30:0.583333 32:0.6 33:1 34:1 35:1 36:0.811321 37:0.75 38:1 39:0.333333 41:0.8 42:1 43:0.642857 44:0.733026 45:1 49:1 50:0.411765 52:1 53:0.875 54:1 59:0.545098 60:0.529412 64:1 65:0.666667 66:0.866667 68:0.599078 69:0.923077 70:1 71:1 72:0.625 73:1 75:0.6 77:0.47619 78:0.333333 79:1 84:0.583333 86:0.875 
-1 -0 0.0959773873814745 0.07569328382179485 1:0.357143 3:0.5 4:0.5 5:0.257143 6:0.454545 8:0.215765 9:0.325 10:0.5 12:0.26087 13:0.473684 15:0.275862 16:0.5 20:0.5 22:0.307233 24:0.373199 25:0.5 28:0.362069 30:0.291667 32:0.3 33:0.5 34:0.5 35:0.5 36:0.40566 37:0.375 38:0.5 39:0.166667 41:0.4 42:0.5 43:0.321429 44:0.365938 45:0.5 49:0.5 50:0.205882 52:0.5 53:0.4375 54:0.5 59:0.272157 60:0.264706 64:0.5 65:0.333333 66:0.433333 68:0.298387 69:0.461538 70:0.5 71:0.5 72:0.3125 73:0.5 75:0.3 77:0.238095 78:0.166667 79:0.5 84:0.291667 86:0.4375 
-1 -0 1 0.02662324840017444 1:0.196429 3:0.25 4:0.25 5:0.135714 6:0.238636 8:0.11565 9:0.1625 10:0.25 12:0.152174 13:0.236842 15:0.137931 16:0.25 20:0.25 22:0.162906 24:0.206052 25:0.25 28:0.181034 30:0.145833 32:0.15 33:0.25 34:0.25 35:0.25 36:0.207547 37:0.1875 38:0.25 39:0.111111 41:0.216667 42:0.25 43:0.160714 44:0.182394 45:0.25 49:0.25 50:0.132353 52:0.25 53:0.21875 54:0.25 59:0.141373 60:0.132353 64:0.25 65:0.166667 66:0.216667 68:0.164747 69:0.230769 70:0.25 71:0.25 72:0.15625 73:0.25 75:0.15 77:0.119048 78:0.166667 79:0.25 84:0.166667 86:0.21875 
-1 -0 0 0 1:0.0654762 3:0.0833333 4:0.0833333 5:0.052381 6:0.0795455 8:0.0433448 9:0.0541667 10:0.0833333 12:0.0507246 13:0.0789474 15:0.045977 16:0.0833333 20:0.0833333 22:0.0538598 24:0.0667627 25:0.0833333 28:0.0603448 30:0.0486111 32:0.0555556 33:0.0833333 34:0.0833333 35:0.0833333 36:0.0691824 37:0.0625 38:0.0833333 39:0.037037 41:0.0722222 42:0.0833333 43:0.0595238 44:0.0628117 45:0.0833333 46:0.0833333 49:0.0833333 50:0.0441176 52:0.0833333 53:0.0729167 54:0.0833333 59:0.0484967 60:0.0441176 64:0.0833333 65:0.0555556 66:0.0777778 68:0.0533794 69:0.0769231 70:0.0833333 71:0.0833333 72:0.0572917 73:0.0833333 75:0.05 77:0.047619 78:0.0555556 79:0.0833333 84:0.0555556 86:0.0729167 
-1 -0 0.145733416430441 0 1:0.157143 3:0.2 4:0.2 5:0.125714 6:0.190909 8:0.105639 9:0.13 10:0.2 12:0.121739 13:0.189474 15:0.110345 16:0.2 20:0.2 22:0.130192 24:0.164265 25:0.2 28:0.144828 30:0.116667 32:0.133333 33:0.2 34:0.2 35:0.2 36:0.169811 37:0.15 38:0.2 39:0.0888889 41:0.186667 42:0.2 43:0.157143 44:0.152359 45:0.2 46:0.2 49:0.2 50:0.105882 52:0.2 53:0.175 54:0.2 59:0.11749 60:0.105882 64:0.2 65:0.133333 66:0.186667 68:0.1447 69:0.184615 70:0.2 71:0.2 72:0.1375 73:0.2 75:0.12 77:0.114286 78:0.133333 79:0.2 84:0.133333 86:0.175 
-1 -0 0.88281544310079 0 1:0.0341615 3:0.0434783 4:0.0434783 5:0.0273292 6:0.041502 8:0.0220643 9:0.0282609 10:0.0434783 12:0.026465 13:0.0411899 15:0.023988 16:0.0434783 20:0.0434783 22:0.0277834 24:0.0334545 25:0.0434783 28:0.0329835 30:0.0253623 32:0.0318841 33:0.0434783 34:0.0434783 35:0.0434783 36:0.0369155 37:0.0326087 38:0.0434783 39:0.0193237 41:0.0405797 42:0.0434783 43:0.0341615 44:0.0322209 45:0.0434783 46:0.0434783 49:0.0434783 50:0.0230179 52:0.0434783 53:0.0380435 54:0.0434783 59:0.0259165 60:0.0255754 64:0.0434783 65:0.0289855 66:0.0405797 68:0.0296534 69:0.0401338 70:0.0434783 71:0.0434783 72:0.0298913 73:0.0434783 75:0.0347826 77:0.0248447 78:0.0289855 79:0.0434783 82:0.0434783 84:0.0289855 86:0.0380435 
-1 -0 0.0844278813956422 0 1:0.0873016 3:0.111111 4:0.111111 5:0.0793651 6:0.106061 8:0.0581767 9:0.0722222 10:0.111111 12:0.0724638 13:0.105263 15:0.0613027 16:0.111111 20:0.111111 22:0.0720342 24:0.0899776 25:0.111111 28:0.0842912 30:0.0740741 32:0.0888889 33:0.111111 34:0.111111 35:0.111111 36:0.0985325 37:0.0833333 38:0.111111 39:0.0493827 41:0.103704 42:0.111111 43:0.0873016 44:0.0841325 45:0.111111 46:0.111111 49:0.111111 50:0.0718954 52:0.111111 53:0.0972222 54:0.111111 59:0.0800871 60:0.0718954 64:0.111111 65:0.0740741 66:0.103704 68:0.0867896 69:0.102564 70:0.111111 71:0.111111 72:0.0833333 73:0.111111 75:0.111111 77:0.0634921 78:0.0740741 79:0.111111 82:0.111111 84:0.0787037 86:0.106481 
-1 -0 0.6093634642766441 0 1:0.392857 2:0.5 3:0.5 4:0.5 5:0.357143 6:0.477273 8:0.282509 9:0.325 10:0.5 12:0.326087 13:0.473684 15:0.275862 16:0.5 17:0.5 20:0.5 21:0.5 22:0.336098 24:0.414986 25:0.5 28:0.396552 30:0.354167 32:0.433333 33:0.5 34:0.5 35:0.5 36:0.443396 37:0.4375 38:0.5 39:0.277778 41:0.5 42:0.5 43:0.392857 44:0.382624 45:0.5 46:0.5 49:0.5 50:0.352941 51:0.5 52:0.5 53:0.4375 54:0.5 56:0.5 59:0.363137 60:0.323529 64:0.5 65:0.333333 66:0.466667 68:0.398618 69:0.5 70:0.5 71:0.5 72:0.40625 73:0.5 75:0.5 77:0.333333 78:0.333333 79:0.5 82:0.5 84:0.354167 85:0.5 86:0.479167 
-1 -0 1 0 1:0.214286 2:0.25 3:0.25 4:0.25 5:0.214286 6:0.25 8:0.182394 9:0.225 10:0.25 12:0.206522 13:0.25 15:0.189655 16:0.25 17:0.25 18:0.25 20:0.25 21:0.25 22:0.186961 23:0.25 24:0.226945 25:0.25 26:0.25 27:0.25 28:0.232759 29:0.25 30:0.208333 31:0.25 32:0.233333 33:0.25 34:0.25 35:0.25 36:0.240566 37:0.21875 38:0.25 39:0.138889 40:0.25 41:0.25 42:0.25 43:0.196429 44:0.224108 45:0.25 46:0.25 47:0.25 49:0.25 50:0.205882 51:0.25 52:0.25 53:0.25 54:0.25 55:0.25 56:0.25 59:0.181176 60:0.191176 62:0.25 63:0.125 64:0.25 65:0.166667 66:0.25 67:0.25 68:0.231567 69:0.25 70:0.25 71:0.25 72:0.203125 73:0.25 75:0.25 76:0.25 77:0.202381 78:0.166667 79:0.25 82:0.25 84:0.208333 85:0.25 86:0.239583 
-1 -0.04825475212950923 1 0 1:0.0342857 2:0.04 3:0.04 4:0.04 5:0.0354286 6:0.04 7:0.04 8:0.0295512 9:0.036 10:0.04 12:0.0330435 13:0.04 15:0.0303448 16:0.04 17:0.04 18:0.04 20:0.04 21:0.04 22:0.0301261 23:0.04 24:0.0338905 25:0.04 26:0.04 27:0.04 28:0.0372414 29:0.04 30:0.0333333 31:0.04 32:0.0373333 33:0.04 34:0.04 35:0.04 36:0.0384906 37:0.04 38:0.04 39:0.0222222 40:0.04 41:0.04 42:0.04 43:0.0314286 44:0.0362255 45:0.04 46:0.04 47:0.04 49:0.04 50:0.0329412 51:0.04 52:0.04 53:0.04 54:0.04 55:0.04 56:0.04 58:0.04 59:0.030149 60:0.0305882 61:0.04 62:0.04 63:0.02 64:0.04 65:0.0266667 66:0.04 67:0.04 68:0.0351152 69:0.04 70:0.04 71:0.04 72:0.0325 73:0.04 74:0.04 75:0.04 76:0.04 77:0.0342857 78:0.0266667 79:0.04 82:0.04 84:0.0333333 85:0.04 86:0.0383333 87:0.04 
-1 -0.9517452478704908 1 0 1:0.171429 2:0.2 3:0.2 4:0.2 5:0.177143 6:0.2 7:0.2 8:0.152359 9:0.18 10:0.2 12:0.173913 13:0.2 15:0.151724 16:0.2 17:0.2 18:0.2 20:0.2 21:0.2 22:0.153285 23:0.2 24:0.18098 25:0.2 26:0.2 27:0.2 28:0.186207 29:0.2 30:0.175 31:0.2 32:0.186667 33:0.2 34:0.2 35:0.2 36:0.192453 37:0.2 38:0.2 39:0.133333 40:0.2 41:0.2 42:0.2 43:0.157143 44:0.185731 45:0.2 46:0.2 47:0.2 49:0.2 50:0.188235 51:0.2 52:0.2 53:0.2 54:0.2 55:0.2 56:0.2 58:0.2 59:0.158431 60:0.152941 61:0.2 62:0.2 63:0.1 64:0.2 65:0.133333 66:0.2 67:0.2 68:0.184793 69:0.2 70:0.2 71:0.2 72:0.175 73:0.2 74:0.2 75:0.2 76:0.2 77:0.180952 78:0.133333 79:0.2 82:0.2 84:0.175 85:0.2 86:0.191667 87:0.2 
-1 -0 1 0 1:0.142857 2:0.166667 3:0.166667 4:0.166667 5:0.147619 6:0.166667 7:0.166667 8:0.132336 9:0.158333 10:0.166667 12:0.144928 13:0.166667 15:0.132184 16:0.166667 17:0.166667 18:0.166667 20:0.166667 21:0.166667 22:0.134041 23:0.166667 24:0.164265 25:0.166667 26:0.166667 27:0.166667 28:0.155172 29:0.166667 30:0.145833 31:0.166667 32:0.155556 33:0.166667 34:0.166667 35:0.166667 36:0.163522 37:0.166667 38:0.166667 39:0.111111 40:0.166667 41:0.166667 42:0.166667 43:0.130952 44:0.160146 45:0.166667 46:0.166667 47:0.166667 49:0.166667 50:0.156863 51:0.166667 52:0.166667 53:0.166667 54:0.166667 55:0.166667 56:0.166667 58:0.166667 59:0.131895 60:0.127451 61:0.166667 62:0.166667 63:0.0833333 64:0.166667 65:0.111111 66:0.166667 67:0.166667 68:0.15361 69:0.166667 70:0.166667 71:0.166667 72:0.15625 73:0.166667 74:0.166667 75:0.166667 76:0.166667 77:0.150794 78:0.111111 79:0.166667 82:0.166667 84:0.145833 85:0.166667 86:0.159722 87:0.166667 
-1 -0 0.1310222807290419 0 1:0.0857143 2:0.1 3:0.1 4:0.1 5:0.0914286 6:0.1 7:0.1 8:0.0822785 9:0.095 10:0.1 12:0.0869565 13:0.1 15:0.0827586 16:0.1 17:0.1 18:0.1 19:0.1 20:0.1 21:0.1 22:0.0801593 23:0.1 24:0.0974063 25:0.1 26:0.1 27:0.1 28:0.0965517 29:0.1 30:0.0875 31:0.1 32:0.0933333 33:0.1 34:0.1 35:0.1 36:0.0981132 37:0.1 38:0.1 39:0.0666667 40:0.1 41:0.1 42:0.1 43:0.0785714 44:0.0956272 45:0.1 46:0.1 47:0.1 49:0.1 50:0.0941176 51:0.1 52:0.1 53:0.1 54:0.1 55:0.1 56:0.1 57:0.1 58:0.1 59:0.0788235 60:0.0823529 61:0.1 62:0.1 63:0.1 64:0.1 65:0.0666667 66:0.1 67:0.1 68:0.0912442 69:0.1 70:0.1 71:0.1 72:0.09375 73:0.1 74:0.1 75:0.1 76:0.1 77:0.0904762 78:0.0666667 79:0.1 81:0.1 82:0.1 84:0.0875 85:0.1 86:0.1 87:0.1 
-1 -0 0.312779914677067 0 1:0.154762 2:0.166667 3:0.166667 4:0.166667 5:0.152381 6:0.166667 7:0.166667 8:0.14346 9:0.158333 10:0.166667 12:0.144928 13:0.166667 15:0.149425 16:0.166667 17:0.166667 18:0.166667 19:0.166667 20:0.166667 21:0.166667 22:0.134041 23:0.166667 24:0.164265 25:0.166667 26:0.166667 27:0.166667 28:0.16092 29:0.166667 30:0.145833 31:0.166667 32:0.155556 33:0.166667 34:0.166667 35:0.166667 36:0.163522 37:0.166667 38:0.166667 39:0.111111 40:0.166667 41:0.166667 42:0.166667 43:0.142857 44:0.165708 45:0.166667 46:0.166667 47:0.166667 49:0.166667 50:0.166667 51:0.166667 52:0.166667 53:0.166667 54:0.166667 55:0.166667 56:0.166667 57:0.166667 58:0.166667 59:0.135686 60:0.137255 61:0.166667 62:0.166667 63:0.166667 64:0.166667 65:0.111111 66:0.166667 67:0.166667 68:0.164747 69:0.166667 70:0.166667 71:0.166667 72:0.15625 73:0.166667 74:0.166667 75:0.166667 76:0.166667 77:0.150794 78:0.111111 79:0.166667 81:0.166667 82:0.166667 84:0.145833 85:0.166667 86:0.166667 87:0.166667 
-1 -0 0.1261467751535992 0 1:0.309524 2:0.333333 3:0.333333 4:0.333333 5:0.314286 6:0.333333 7:0.333333 8:0.288071 9:0.316667 10:0.333333 11:0.333333 12:0.289855 13:0.333333 14:0.333333 15:0.298851 16:0.333333 17:0.333333 18:0.333333 19:0.333333 20:0.333333 21:0.333333 22:0.268746 23:0.333333 24:0.331412 25:0.333333 26:0.333333 27:0.333333 28:0.321839 29:0.333333 30:0.291667 31:0.333333 32:0.311111 33:0.333333 34:0.333333 35:0.333333 36:0.327044 37:0.333333 38:0.333333 39:0.222222 40:0.333333 41:0.333333 42:0.333333 43:0.285714 44:0.332566 45:0.333333 46:0.333333 47:0.333333 49:0.333333 50:0.333333 51:0.333333 52:0.333333 53:0.333333 54:0.333333 55:0.333333 56:0.333333 57:0.333333 58:0.333333 59:0.279739 60:0.27451 61:0.333333 62:0.333333 63:0.333333 64:0.333333 65:0.222222 66:0.333333 67:0.333333 68:0.331797 69:0.333333 70:0.333333 71:0.333333 72:0.3125 73:0.333333 74:0.333333 75:0.333333 76:0.333333 77:0.301587 78:0.222222 79:0.333333 81:0.333333 82:0.333333 84:0.291667 85:0.333333 86:0.333333 87:0.333333 
-1 -0 0.08549754232667503 0 1:0.0663265 2:0.0714286 3:0.0714286 4:0.0714286 5:0.0673469 6:0.0714286 7:0.0714286 8:0.0608253 9:0.0678571 10:0.0714286 11:0.0714286 12:0.0652174 13:0.0714286 14:0.0714286 15:0.0640394 16:0.0714286 17:0.0714286 18:0.0714286 19:0.0714286 20:0.0714286 21:0.0714286 22:0.057067 23:0.0714286 24:0.0687526 25:0.0714286 26:0.0714286 27:0.0714286 28:0.0689655 29:0.0714286 30:0.0625 31:0.0714286 32:0.0666667 33:0.0714286 34:0.0714286 35:0.0714286 36:0.0700809 37:0.0714286 38:0.0714286 39:0.0555556 40:0.0714286 41:0.0714286 42:0.0714286 43:0.0612245 44:0.07036 45:0.0714286 46:0.0714286 47:0.0714286 48:0.0714286 49:0.0714286 50:0.0714286 51:0.0714286 52:0.0714286 53:0.0714286 54:0.0714286 55:0.0714286 56:0.0714286 57:0.0714286 58:0.0714286 59:0.0609524 60:0.0588235 61:0.0714286 62:0.0714286 63:0.0714286 64:0.0714286 65:0.047619 66:0.0714286 67:0.0714286 68:0.069289 69:0.0714286 70:0.0714286 71:0.0714286 72:0.0669643 73:0.0714286 74:0.0714286 75:0.0714286 76:0.0714286 77:0.0646259 78:0.047619 79:0.0714286 81:0.0714286 82:0.0714286 84:0.0654762 85:0.0714286 86:0.0714286 87:0.0714286 
-1 -0 0.03020170628281035 0 1:0.333333 2:0.333333 3:0.333333 4:0.333333 5:0.32381 6:0.333333 7:0.333333 8:0.310318 9:0.333333 10:0.333333 11:0.333333 12:0.304348 13:0.333333 14:0.333333 15:0.333333 16:0.333333 17:0.333333 18:0.333333 19:0.333333 20:0.333333 21:0.333333 22:0.307233 23:0.333333 24:0.331412 25:0.333333 26:0.333333 27:0.333333 28:0.321839 29:0.333333 30:0.333333 31:0.333333 32:0.311111 33:0.333333 34:0.333333 35:0.333333 36:0.333333 37:0.333333 38:0.333333 39:0.259259 40:0.333333 41:0.333333 42:0.333333 43:0.309524 44:0.332566 45:0.333333 46:0.333333 47:0.333333 48:0.333333 49:0.333333 50:0.333333 51:0.333333 52:0.333333 53:0.333333 54:0.333333 55:0.333333 56:0.333333 57:0.333333 58:0.333333 59:0.33281 60:0.333333 61:0.333333 62:0.333333 63:0.333333 64:0.333333 65:0.333333 66:0.333333 67:0.333333 68:0.331797 69:0.333333 70:0.333333 71:0.333333 72:0.333333 73:0.333333 74:0.333333 75:0.333333 76:0.333333 77:0.31746 78:0.333333 79:0.333333 81:0.333333 82:0.333333 84:0.305556 85:0.333333 86:0.333333 87:0.333333 
-1 -0 0 0 1:0.0526316 2:0.0526316 3:0.0526316 4:0.0526316 5:0.0526316 6:0.0526316 7:0.0526316 8:0.0515414 9:0.0526316 10:0.0526316 11:0.0526316 12:0.0526316 13:0.0526316 14:0.0526316 15:0.0526316 16:0.0526316 17:0.0526316 18:0.0526316 19:0.0526316 20:0.0526316 21:0.0526316 22:0.0509901 23:0.0526316 24:0.0499014 25:0.0526316 26:0.0526316 27:0.0526316 28:0.0526316 29:0.0526316 30:0.0526316 31:0.0526316 32:0.0526316 33:0.0526316 34:0.0526316 35:0.0526316 36:0.0526316 37:0.0526316 38:0.0526316 39:0.0526316 40:0.0526316 41:0.0526316 42:0.0526316 43:0.0488722 44:0.0515414 45:0.0526316 46:0.0526316 47:0.0526316 48:0.0526316 49:0.0526316 50:0.0526316 51:0.0526316 52:0.0526316 53:0.0526316 54:0.0526316 55:0.0526316 56:0.0526316 57:0.0526316 58:0.0526316 59:0.0518885 60:0.0526316 61:0.0526316 62:0.0526316 63:0.0526316 64:0.0526316 65:0.0526316 66:0.0526316 67:0.0526316 68:0.0504487 69:0.0526316 70:0.0526316 71:0.0526316 72:0.0526316 73:0.0526316 74:0.0526316 75:0.0526316 76:0.0526316 77:0.0526316 78:0.0526316 79:0.0526316 80:0.0526316 81:0.0526316 82:0.0526316 83:0.0526316 84:0.0526316 85:0.0526316 86:0.0526316 87:0.0526316 88:0.0526316 89:0.0526316 
-1 -0 0.08294405004015294 0 1:0.0416667 2:0.0416667 3:0.0416667 4:0.0416667 5:0.0416667 6:0.0416667 7:0.0416667 8:0.0405639 9:0.0416667 10:0.0416667 11:0.0416667 12:0.0452899 13:0.0416667 14:0.0416667 15:0.0416667 16:0.0416667 17:0.0416667 18:0.0416667 19:0.0416667 20:0.0416667 21:0.0416667 22:0.0410307 23:0.0416667 24:0.0389049 25:0.0416667 26:0.0416667 27:0.0416667 28:0.0416667 29:0.0416667 30:0.0416667 31:0.0416667 32:0.0416667 33:0.0416667 34:0.0416667 35:0.0416667 36:0.0416667 37:0.0416667 38:0.0416667 39:0.0416667 40:0.0416667 41:0.0444444 42:0.0416667 43:0.0416667 44:0.0405639 45:0.0416667 46:0.0416667 47:0.0416667 48:0.0416667 49:0.0416667 50:0.0416667 51:0.0416667 52:0.0416667 53:0.0416667 54:0.0416667 55:0.0416667 56:0.0416667 57:0.0416667 58:0.0416667 59:0.040915 60:0.0416667 61:0.0416667 62:0.0416667 63:0.0416667 64:0.0416667 65:0.0416667 66:0.0416667 67:0.0416667 68:0.0394585 69:0.0416667 70:0.0416667 71:0.0416667 72:0.0416667 73:0.0625 74:0.0416667 75:0.0416667 76:0.0416667 77:0.0436508 78:0.0416667 79:0.0416667 80:0.0416667 81:0.0416667 82:0.0416667 83:0.0416667 84:0.0451389 85:0.0416667 86:0.0416667 87:0.0416667 88:0.0416667 89:0.0416667 
-1 -0 0 0.01346389858300231 1:0.25 2:0.25 3:0.25 4:0.25 5:0.25 6:0.25 7:0.25 8:0.249137 9:0.25 10:0.25 11:0.25 12:0.271739 13:0.25 14:0.25 15:0.25 16:0.25 17:0.25 18:0.25 19:0.25 20:0.25 21:0.25 22:0.254313 23:0.25 24:0.247839 25:0.25 26:0.25 27:0.25 28:0.25 29:0.25 30:0.25 31:0.25 32:0.25 33:0.25 34:0.25 35:0.25 36:0.254717 37:0.25 38:0.25 39:0.25 40:0.25 41:0.266667 42:0.25 43:0.25 44:0.249137 45:0.25 46:0.25 47:0.25 48:0.25 49:0.25 50:0.25 51:0.25 52:0.25 53:0.25 54:0.25 55:0.25 56:0.25 57:0.25 58:0.25 59:0.249412 60:0.25 61:0.25 62:0.25 63:0.25 64:0.25 65:0.25 66:0.25 67:0.25 68:0.248272 69:0.25 70:0.25 71:0.25 72:0.25 73:0.375 74:0.25 75:0.25 76:0.25 77:0.261905 78:0.25 79:0.25 80:0.25 81:0.25 82:0.25 83:0.5 84:0.270833 85:0.25 86:0.25 87:0.25 88:0.25 89:0.25 
-1 -0 0.4151866222322578 0 1:0.0555556 2:0.0555556 3:0.0555556 4:0.0555556 5:0.0555556 6:0.0555556 7:0.0555556 8:0.0544687 9:0.0555556 10:0.0555556 11:0.0555556 12:0.0603865 13:0.0584795 14:0.0555556 15:0.0555556 16:0.0555556 17:0.0555556 18:0.0555556 19:0.0555556 20:0.0555556 21:0.0555556 22:0.057067 23:0.0555556 24:0.0528338 25:0.0555556 26:0.0555556 27:0.0555556 28:0.0613027 29:0.0555556 30:0.0555556 31:0.0555556 32:0.0555556 33:0.0555556 34:0.0555556 35:0.0555556 36:0.0566038 37:0.0555556 38:0.0555556 39:0.0555556 40:0.0555556 41:0.062963 42:0.0555556 43:0.0555556 44:0.0544687 45:0.0555556 46:0.0555556 47:0.0555556 48:0.0555556 49:0.0555556 50:0.0555556 51:0.0555556 52:0.0555556 53:0.0555556 54:0.0555556 55:0.0555556 56:0.0555556 57:0.0555556 58:0.0555556 59:0.0548148 60:0.0555556 61:0.0555556 62:0.0555556 63:0.0555556 64:0.0555556 65:0.0555556 66:0.0555556 67:0.0555556 68:0.0570917 69:0.0555556 70:0.0555556 71:0.0555556 72:0.0590278 73:0.0833333 74:0.0555556 75:0.0555556 76:0.0555556 77:0.0608466 78:0.0555556 79:0.0555556 80:0.0555556 81:0.0555556 82:0.0555556 83:0.111111 84:0.0601852 85:0.0555556 86:0.0555556 87:0.0555556 88:0.0555556 89:0.0555556 
-1 -0.01079370648358888 -1 0.08292753865509618 1:0.0142857 5:0.0228571 6:0.0272727 8:0.0121979 9:0.04 13:0.0210526 22:0.0108825 24:0.0305476 28:0.00689655 30:0.00833333 34:0.2 36:0.0264151 37:0.075 41:0.0266667 44:0.0255466 49:0.0461538 50:0.0117647 53:0.05 59:0.0128627 66:0.0266667 68:0.024424 69:0.0307692 72:0.0125 77:0.00952381 86:0.0333333 
-1 -0 -1 0 1:0.0238095 5:0.0666667 6:0.0909091 8:0.0544687 9:0.0833333 13:0.157895 15:0.045977 22:0.01858 24:0.136407 28:0.0689655 30:0.0138889 33:0.333333 34:0.333333 35:0.333333 36:0.0691824 37:0.208333 41:0.177778 43:0.0952381 44:0.0655926 49:0.102564 50:0.0392157 53:0.125 59:0.0371242 66:0.0666667 68:0.0422427 69:0.0769231 72:0.0416667 77:0.015873 86:0.0555556 
-1 -0.2889535493005695 -1 1 1:0.0142857 5:0.0152381 6:0.0242424 8:0.00997315 9:0.0166667 12:0.00289855 13:0.0385965 15:0.0091954 20:0.0666667 22:0.00575094 24:0.0305476 25:0.0666667 28:0.0183908 30:0.00555556 33:0.0666667 34:0.0666667 35:0.0666667 36:0.0213836 37:0.0416667 41:0.0355556 43:0.0190476 44:0.0166475 49:0.0205128 50:0.00784314 53:0.025 59:0.00831373 60:0.00392157 66:0.0133333 68:0.00660522 69:0.0205128 71:0.0666667 72:0.00833333 75:0.0133333 77:0.00634921 84:0.00277778 86:0.0194444 
-1 -0.2738088771062255 -1 0.1381771468047973 1:0.0714286 5:0.0761905 6:0.136364 8:0.0544687 9:0.0833333 12:0.0144928 13:0.192982 15:0.045977 20:0.333333 22:0.031409 24:0.164265 25:0.333333 28:0.091954 30:0.0277778 33:0.333333 34:0.333333 35:0.333333 36:0.119497 37:0.208333 41:0.177778 43:0.0952381 44:0.0878404 49:0.128205 50:0.0588235 53:0.125 59:0.0447059 60:0.0196078 66:0.0888889 68:0.0422427 69:0.128205 71:0.333333 72:0.0416667 75:0.0666667 77:0.031746 84:0.0138889 86:0.0972222 
-1 -0 -1 1 1:0.142857 5:0.1 6:0.170455 8:0.0989643 9:0.125 12:0.0652174 13:0.223684 15:0.12069 20:0.25 22:0.119608 24:0.143372 25:0.25 28:0.146552 30:0.125 32:0.116667 33:0.25 34:0.25 35:0.25 36:0.179245 37:0.1875 38:0.125 39:0.0833333 41:0.2 42:0.25 43:0.125 44:0.11565 45:0.25 49:0.211538 50:0.102941 52:0.25 53:0.1875 54:0.125 59:0.101569 60:0.0882353 65:0.166667 66:0.216667 68:0.0812212 69:0.230769 70:0.25 71:0.25 72:0.09375 73:0.25 75:0.15 77:0.0952381 79:0.25 84:0.0833333 86:0.208333 
-1 -0.05274260525908818 -1 0.77813843091581 1:0.285714 4:0.5 5:0.214286 6:0.363636 8:0.199079 9:0.3 12:0.173913 13:0.447368 15:0.241379 20:0.5 22:0.239881 24:0.289625 25:0.5 28:0.293103 30:0.25 32:0.233333 33:0.5 34:0.5 35:0.5 36:0.367925 37:0.375 38:0.25 39:0.166667 41:0.4 42:0.5 43:0.25 44:0.249137 45:0.5 49:0.423077 50:0.205882 52:0.5 53:0.375 54:0.25 59:0.226667 60:0.205882 65:0.333333 66:0.433333 68:0.164747 69:0.461538 70:0.5 71:0.5 72:0.1875 73:0.5 75:0.3 77:0.214286 79:0.5 84:0.208333 86:0.416667 
