svm_type c_svc
kernel_type rbf
gamma 0.00694444
nr_class 5
total_sv 360
rho 0.99807 -0.921699 -1.00734 -0.99537 -0.999592 -1.00954 -1.00217 -1.02254 -1.03085 -0.957948
label 2 1 3 4 5
nr_sv 110 184 44 12 10
SV
1 0.9041374249232352 0.01208889639140701 0 
1 1 1 0 3:0.00150376 17:0.00292398 73:0.0263158 79:0.000923361 83:0.0526316 87:0.0263158 92:0.0526316 99:0.0175439 
1 0.09771305861603377 0.3170013587808144 0 3:0.0285714 17:0.037037 25:0.0333333 39:0.0175439 61:0.0123457 62:0.166667 70:0.166667 73:0.166667 79:0.0116959 83:0.333333 87:0.166667 88:0.0208333 90:0.0123457 92:0.333333 93:0.037037 99:0.111111 106:0.037037 122:0.0196078 123:0.025641 140:0.0277778 
1 1 0.2459827390894949 0 3:0.0428571 17:0.0555556 25:0.05 39:0.0263158 61:0.037037 62:0.25 70:0.25 73:0.25 75:0.0555556 79:0.0175439 83:0.5 87:0.25 88:0.03125 90:0.0185185 92:0.5 93:0.0555556 99:0.166667 106:0.0555556 122:0.0294118 123:0.0384615 140:0.0416667 
1 0.063564161202811 0 0 3:0.00952381 13:0.0555556 17:0.0123457 25:0.0111111 39:0.00584795 61:0.0123457 62:0.0555556 70:0.0555556 73:0.0555556 75:0.0123457 79:0.00389864 83:0.111111 87:0.0555556 88:0.00694444 90:0.00411523 92:0.111111 93:0.0123457 99:0.037037 106:0.0123457 121:0.0138889 122:0.00653595 123:0.00854701 140:0.00925926 
1 1 0 0 3:0.0122449 13:0.0714286 17:0.015873 19:0.00779221 25:0.0142857 39:0.0075188 46:0.0285714 61:0.015873 62:0.0714286 70:0.0714286 73:0.0714286 75:0.015873 79:0.0125313 83:0.142857 87:0.0714286 88:0.0178571 90:0.00529101 92:0.142857 93:0.0238095 99:0.047619 106:0.031746 108:0.0238095 121:0.0178571 122:0.0140056 123:0.010989 139:0.0238095 140:0.0238095 
1 1 1 0 3:0.00612245 6:0.0714286 13:0.0357143 17:0.0119048 19:0.0038961 24:0.00310559 25:0.00714286 33:0.0357143 39:0.0075188 46:0.0142857 55:0.00549451 61:0.00793651 62:0.0357143 64:0.0178571 65:0.00324675 70:0.0357143 73:0.0357143 75:0.00793651 79:0.00626566 83:0.0714286 87:0.0357143 88:0.00892857 90:0.0026455 92:0.0714286 93:0.0119048 99:0.0238095 106:0.015873 108:0.0119048 112:0.00714286 119:0.0238095 121:0.00892857 122:0.0070028 123:0.00549451 139:0.0119048 140:0.0178571 
1 1 1 0 2:0.0037037 3:0.00380952 6:0.0333333 13:0.0166667 14:0.00666667 16:0.00238095 17:0.00740741 19:0.00242424 24:0.00289855 25:0.00333333 33:0.0166667 39:0.00350877 46:0.00666667 49:0.0333333 55:0.0025641 61:0.0037037 62:0.0333333 64:0.00833333 65:0.00151515 70:0.0166667 73:0.0166667 75:0.0037037 79:0.00292398 83:0.0333333 87:0.0166667 88:0.00416667 90:0.00123457 92:0.0333333 93:0.00740741 99:0.0111111 106:0.00740741 108:0.00555556 110:0.00222222 112:0.00666667 119:0.0222222 121:0.00416667 122:0.00457516 123:0.0025641 137:0.00333333 139:0.00555556 140:0.0111111 
1 1 0.03533299103360538 0 2:0.0138889 3:0.0214286 6:0.125 13:0.0625 14:0.025 16:0.00892857 17:0.0277778 19:0.00909091 24:0.0108696 25:0.0125 33:0.0625 39:0.0131579 46:0.0375 49:0.125 55:0.00961538 61:0.0138889 62:0.125 64:0.03125 65:0.00568182 70:0.0625 73:0.0625 75:0.0138889 79:0.0109649 83:0.125 87:0.0625 88:0.015625 90:0.00925926 92:0.125 93:0.0277778 99:0.0416667 106:0.0277778 108:0.0208333 110:0.00833333 112:0.0375 119:0.0833333 121:0.015625 122:0.0171569 123:0.00961538 137:0.0125 139:0.0208333 140:0.0416667 
1 1 0 0 2:0.0138889 3:0.0214286 6:0.125 13:0.0625 14:0.025 16:0.0178571 17:0.0277778 19:0.0113636 24:0.0108696 25:0.0125 33:0.0625 39:0.0131579 46:0.0375 49:0.125 55:0.00961538 61:0.0138889 62:0.125 64:0.03125 65:0.00568182 70:0.0625 72:0.0078125 73:0.0625 75:0.0138889 77:0.015625 79:0.0153509 83:0.125 87:0.0625 88:0.015625 90:0.00925926 92:0.125 93:0.0277778 99:0.0416667 106:0.0277778 108:0.0208333 110:0.0166667 111:0.0178571 112:0.0375 119:0.0833333 121:0.015625 122:0.0220588 123:0.00961538 137:0.0125 139:0.0208333 140:0.0416667 
1 1 0 0 2:0.010101 3:0.0155844 6:0.0909091 13:0.0454545 14:0.0181818 16:0.012987 17:0.020202 19:0.00826446 24:0.00790514 25:0.00909091 28:0.00909091 33:0.0454545 39:0.00956938 46:0.0272727 49:0.0909091 55:0.00699301 61:0.010101 62:0.0909091 64:0.0227273 65:0.00413223 70:0.0454545 72:0.00568182 73:0.0454545 75:0.010101 77:0.0113636 79:0.0111643 83:0.0909091 87:0.0454545 88:0.0113636 90:0.00673401 92:0.0909091 93:0.020202 99:0.030303 106:0.020202 108:0.0151515 110:0.0121212 111:0.012987 112:0.0272727 119:0.0606061 121:0.0113636 122:0.0160428 123:0.00699301 137:0.00909091 139:0.0151515 140:0.030303 
1 1 0.7367683005635011 0.418054056159115 2:0.0277778 3:0.05 6:0.25 13:0.125 14:0.05 16:0.0357143 17:0.0555556 19:0.0227273 24:0.0217391 25:0.025 28:0.025 33:0.125 39:0.0263158 43:0.0357143 46:0.075 49:0.25 55:0.0192308 61:0.0277778 62:0.25 64:0.0625 65:0.0113636 70:0.125 72:0.015625 73:0.125 75:0.0277778 77:0.03125 79:0.0350877 83:0.25 84:0.05 87:0.125 88:0.03125 90:0.0185185 92:0.25 93:0.0555556 99:0.0833333 106:0.0555556 108:0.0416667 110:0.05 111:0.0357143 112:0.075 119:0.166667 121:0.03125 122:0.0441176 123:0.0192308 137:0.025 139:0.0416667 140:0.0833333 
1 1 0 0 2:0.015873 3:0.0285714 6:0.142857 13:0.0714286 14:0.0285714 16:0.0204082 17:0.031746 19:0.012987 24:0.0186335 25:0.0142857 28:0.0142857 33:0.0714286 39:0.0225564 43:0.0204082 46:0.0428571 49:0.142857 55:0.010989 61:0.015873 62:0.142857 64:0.0357143 65:0.00649351 70:0.0714286 72:0.00892857 73:0.142857 75:0.015873 77:0.0357143 79:0.0200501 83:0.142857 84:0.0285714 87:0.0714286 88:0.0267857 90:0.010582 92:0.142857 93:0.0396825 99:0.047619 106:0.031746 108:0.0238095 110:0.0380952 111:0.0204082 112:0.0428571 119:0.0952381 121:0.0178571 122:0.0252101 123:0.010989 137:0.0142857 139:0.0238095 140:0.047619 
1 1 0.3195799422814065 1 2:0.0277778 3:0.05 6:0.25 7:0.25 13:0.125 14:0.05 15:0.25 16:0.0357143 17:0.0555556 19:0.0272727 24:0.0326087 25:0.025 28:0.025 33:0.125 39:0.0394737 43:0.0357143 46:0.075 49:0.25 55:0.0192308 58:0.25 61:0.0277778 62:0.25 64:0.0625 65:0.0113636 70:0.125 72:0.03125 73:0.25 75:0.0277778 77:0.0625 79:0.0438596 83:0.25 84:0.05 87:0.125 88:0.046875 90:0.0185185 92:0.25 93:0.0694444 99:0.0833333 106:0.0555556 108:0.0416667 110:0.0666667 111:0.0357143 112:0.075 115:0.25 119:0.166667 121:0.03125 122:0.0441176 123:0.0192308 137:0.025 139:0.0416667 140:0.0833333 143:0.125 
1 1 0.2148977861910011 1 2:0.0277778 3:0.05 6:0.25 7:0.25 13:0.125 14:0.05 15:0.25 16:0.0357143 17:0.0555556 19:0.0318182 24:0.0543478 25:0.025 28:0.05 33:0.125 37:0.0185185 39:0.0657895 43:0.0357143 46:0.075 49:0.25 54:0.05 55:0.0192308 58:0.25 61:0.037037 62:0.25 64:0.0625 65:0.0227273 70:0.125 72:0.03125 73:0.25 75:0.0833333 77:0.0625 79:0.0482456 81:0.05 83:0.25 84:0.05 87:0.125 88:0.0625 90:0.0277778 92:0.25 93:0.0694444 99:0.0833333 101:0.25 106:0.0555556 108:0.0416667 110:0.1 111:0.0357143 112:0.075 115:0.25 119:0.166667 121:0.03125 122:0.0490196 123:0.0192308 133:0.25 137:0.025 139:0.0416667 140:0.0833333 143:0.125 
1 1 0 0 2:0.015873 3:0.0285714 6:0.142857 7:0.142857 13:0.0714286 14:0.0285714 15:0.142857 16:0.0204082 17:0.031746 19:0.0233766 24:0.0310559 25:0.0142857 28:0.0285714 33:0.0714286 37:0.010582 39:0.037594 43:0.0204082 46:0.0428571 49:0.142857 54:0.0285714 55:0.010989 58:0.142857 61:0.021164 62:0.142857 64:0.0357143 65:0.012987 69:0.0714286 70:0.0714286 72:0.0178571 73:0.142857 75:0.047619 77:0.0357143 79:0.0275689 81:0.0285714 83:0.142857 84:0.0285714 87:0.142857 88:0.0357143 90:0.021164 92:0.142857 93:0.047619 99:0.047619 101:0.142857 106:0.031746 108:0.0238095 110:0.0571429 111:0.0204082 112:0.0428571 115:0.142857 119:0.0952381 121:0.0178571 122:0.0308123 123:0.010989 133:0.142857 137:0.0142857 139:0.0238095 140:0.047619 143:0.0714286 
1 0.8343678492896092 0 0.9315460743577619 2:0.037037 3:0.104762 6:0.333333 7:0.333333 13:0.166667 14:0.0666667 15:0.333333 16:0.0714286 17:0.0740741 19:0.0727273 24:0.0724638 25:0.0333333 28:0.0666667 33:0.166667 37:0.0493827 38:0.0833333 39:0.105263 43:0.047619 46:0.1 49:0.333333 54:0.0666667 55:0.0512821 58:0.333333 61:0.0493827 62:0.333333 64:0.0833333 65:0.0606061 69:0.166667 70:0.166667 72:0.0416667 73:0.333333 75:0.111111 77:0.0833333 78:0.0555556 79:0.0701754 81:0.0666667 83:0.333333 84:0.0666667 87:0.333333 88:0.0833333 90:0.0493827 91:0.0666667 92:0.333333 93:0.111111 99:0.111111 101:0.333333 106:0.111111 108:0.0555556 110:0.133333 111:0.047619 112:0.1 115:0.333333 119:0.222222 121:0.0416667 122:0.0718954 123:0.0512821 133:0.333333 137:0.0666667 139:0.0555556 140:0.111111 143:0.166667 
1 0.00663558000572304 0 1 2:0.111111 3:0.314286 6:1 7:1 13:0.5 14:0.2 15:1 16:0.214286 17:0.277778 19:0.254545 24:0.217391 25:0.1 28:0.3 33:0.5 37:0.148148 38:0.25 39:0.315789 43:0.285714 46:0.3 49:1 54:0.2 55:0.153846 58:1 61:0.148148 62:1 64:0.25 65:0.181818 69:0.5 70:0.5 72:0.125 73:1 75:0.333333 77:0.25 78:0.166667 79:0.210526 81:0.2 83:1 84:0.2 87:1 88:0.25 90:0.148148 91:0.2 92:1 93:0.333333 99:0.333333 100:1 101:1 106:0.333333 108:0.166667 110:0.466667 111:0.142857 112:0.3 115:1 119:0.666667 121:0.125 122:0.215686 123:0.153846 133:1 137:0.2 139:0.166667 140:0.333333 143:0.5 144:0.111111 
1 0 0 0.7003220726018129 2:0.0555556 3:0.157143 6:0.5 7:0.5 13:0.25 14:0.1 15:0.5 16:0.107143 17:0.138889 19:0.127273 24:0.108696 25:0.05 28:0.15 33:0.25 37:0.0740741 38:0.125 39:0.157895 43:0.142857 46:0.15 49:0.5 54:0.1 55:0.0769231 58:0.5 61:0.0740741 62:0.5 64:0.125 65:0.0909091 69:0.25 70:0.25 72:0.0625 73:0.5 75:0.166667 77:0.125 78:0.0833333 79:0.105263 81:0.1 83:0.5 84:0.2 87:0.5 88:0.125 90:0.0740741 91:0.1 92:0.5 93:0.194444 99:0.166667 100:0.5 101:0.5 106:0.166667 108:0.0833333 110:0.233333 111:0.0714286 112:0.15 115:0.5 119:0.333333 121:0.0625 122:0.107843 123:0.0769231 133:0.5 137:0.1 139:0.0833333 140:0.166667 143:0.25 144:0.0555556 
1 0 0 0 2:0.00694444 3:0.0196429 6:0.0625 7:0.0625 13:0.03125 14:0.0125 15:0.0625 16:0.0133929 17:0.0173611 19:0.0159091 24:0.013587 25:0.00625 26:0.015625 28:0.01875 33:0.03125 37:0.00925926 38:0.015625 39:0.0197368 43:0.0178571 46:0.01875 49:0.0625 54:0.0125 55:0.00961538 58:0.0625 61:0.00925926 62:0.0625 64:0.015625 65:0.0113636 69:0.03125 70:0.03125 72:0.0078125 73:0.0625 75:0.0208333 77:0.015625 78:0.0104167 79:0.0131579 81:0.0125 83:0.0625 84:0.025 87:0.0625 88:0.0195313 90:0.00925926 91:0.0125 92:0.0625 93:0.0243056 99:0.0208333 100:0.0625 101:0.0625 105:0.03125 106:0.0208333 108:0.0104167 110:0.0291667 111:0.00892857 112:0.01875 115:0.0625 119:0.0416667 121:0.015625 122:0.0134804 123:0.00961538 133:0.0625 137:0.01875 139:0.0104167 140:0.0208333 143:0.03125 144:0.00694444 
1 0.446401675914034 0 1 2:0.111111 3:0.314286 6:1 7:1 13:0.5 14:0.2 15:1 16:0.214286 17:0.277778 19:0.254545 24:0.217391 25:0.1 26:0.25 28:0.3 33:0.5 37:0.185185 38:0.25 39:0.315789 43:0.285714 46:0.3 49:1 54:0.2 55:0.153846 58:1 61:0.148148 62:1 64:0.25 65:0.181818 69:0.5 70:0.5 72:0.125 73:1 75:0.333333 77:0.25 78:0.166667 79:0.210526 81:0.4 83:1 84:0.4 87:1 88:0.3125 90:0.148148 91:0.2 92:1 93:0.388889 99:0.333333 100:1 101:1 105:0.5 106:0.333333 108:0.166667 110:0.466667 111:0.142857 112:0.3 115:1 119:0.666667 121:0.25 122:0.215686 123:0.153846 133:1 137:0.3 139:0.166667 140:0.333333 143:0.5 144:0.111111 
1 0.4720204991247378 0 0.9337846004955491 2:0.0555556 3:0.157143 6:0.5 7:0.5 13:0.25 14:0.1 15:0.5 16:0.107143 17:0.138889 19:0.127273 24:0.130435 25:0.05 26:0.125 28:0.15 33:0.25 37:0.0925926 38:0.125 39:0.157895 43:0.142857 46:0.15 49:0.5 54:0.1 55:0.0769231 58:0.5 61:0.0740741 62:0.5 64:0.125 65:0.0909091 69:0.25 70:0.25 72:0.0625 73:0.5 75:0.166667 77:0.125 78:0.0833333 79:0.105263 81:0.2 83:0.5 84:0.2 87:0.5 88:0.15625 89:0.05 90:0.111111 91:0.1 92:0.5 93:0.222222 99:0.166667 100:0.5 101:0.5 105:0.25 106:0.166667 108:0.0833333 110:0.233333 111:0.0714286 112:0.15 115:0.5 119:0.333333 121:0.125 122:0.107843 123:0.0769231 133:0.5 137:0.15 139:0.0833333 140:0.166667 143:0.25 144:0.0555556 
1 0 0 0 2:0.015873 3:0.0489796 6:0.142857 7:0.142857 11:0.0285714 13:0.0714286 14:0.0285714 15:0.142857 16:0.0306122 17:0.0396825 19:0.038961 24:0.0372671 25:0.0142857 26:0.0357143 28:0.0428571 33:0.0714286 34:0.047619 37:0.026455 38:0.0357143 39:0.0451128 43:0.0408163 46:0.0428571 49:0.142857 54:0.0285714 55:0.021978 58:0.142857 61:0.026455 62:0.142857 64:0.0357143 65:0.025974 69:0.0714286 70:0.0714286 72:0.0178571 73:0.142857 75:0.047619 77:0.0357143 78:0.0238095 79:0.0300752 80:0.0142857 81:0.0571429 83:0.142857 84:0.0571429 87:0.142857 88:0.0446429 89:0.0142857 90:0.031746 91:0.0285714 92:0.142857 93:0.0634921 99:0.047619 100:0.142857 101:0.142857 105:0.0714286 106:0.047619 108:0.0238095 110:0.0666667 111:0.0204082 112:0.0571429 115:0.142857 119:0.0952381 121:0.0357143 122:0.0308123 123:0.043956 133:0.142857 137:0.0428571 139:0.0238095 140:0.047619 143:0.0714286 144:0.015873 
1 0 0 0 2:0.0555556 3:0.0857143 6:0.25 7:0.25 11:0.05 13:0.125 14:0.05 15:0.25 16:0.0535714 17:0.0833333 19:0.0727273 24:0.0652174 25:0.025 26:0.09375 28:0.075 33:0.125 34:0.0833333 37:0.0648148 38:0.0625 39:0.0789474 43:0.107143 46:0.075 49:0.25 54:0.1 55:0.0384615 58:0.25 61:0.0462963 62:0.25 64:0.0625 65:0.0454545 69:0.125 70:0.125 72:0.03125 73:0.25 75:0.0833333 77:0.0625 78:0.0416667 79:0.0526316 80:0.05 81:0.1 83:0.25 84:0.1 87:0.25 88:0.09375 89:0.025 90:0.0555556 91:0.05 92:0.25 93:0.125 99:0.0833333 100:0.25 101:0.25 105:0.125 106:0.0833333 108:0.0416667 110:0.116667 111:0.0357143 112:0.1 115:0.25 119:0.166667 121:0.09375 122:0.0637255 123:0.0769231 133:0.25 137:0.075 139:0.0416667 140:0.0833333 143:0.125 144:0.0277778 
1 0 0 0 2:0.0555556 3:0.0928571 6:0.25 7:0.25 11:0.05 13:0.125 14:0.05 15:0.25 16:0.0535714 17:0.0833333 19:0.0727273 24:0.0652174 25:0.025 26:0.125 28:0.075 33:0.125 34:0.0833333 37:0.0648148 38:0.0625 39:0.0789474 43:0.107143 46:0.075 49:0.25 54:0.1 55:0.0384615 58:0.25 61:0.0462963 62:0.25 64:0.0625 65:0.0454545 69:0.125 70:0.125 72:0.03125 73:0.25 75:0.0833333 77:0.0625 78:0.0416667 79:0.0526316 80:0.05 81:0.1 83:0.25 84:0.1 87:0.25 88:0.09375 89:0.025 90:0.0555556 91:0.05 92:0.25 93:0.125 99:0.0833333 100:0.25 101:0.25 105:0.125 106:0.0833333 108:0.0416667 110:0.116667 111:0.0357143 112:0.1 115:0.25 119:0.166667 121:0.09375 122:0.0637255 123:0.0769231 133:0.25 137:0.075 139:0.0416667 140:0.0833333 143:0.125 144:0.0277778 
1 0 0 0 2:0.0740741 3:0.12381 6:0.333333 7:0.333333 11:0.0666667 13:0.166667 14:0.0666667 15:0.333333 16:0.0714286 17:0.111111 19:0.0969697 24:0.0869565 25:0.0333333 26:0.166667 28:0.1 33:0.166667 34:0.222222 37:0.0864198 38:0.0833333 39:0.140351 43:0.142857 46:0.1 49:0.333333 54:0.133333 55:0.0512821 58:0.333333 61:0.0617284 62:0.333333 64:0.0833333 65:0.0757576 69:0.166667 70:0.166667 72:0.0416667 73:0.333333 75:0.111111 77:0.0833333 78:0.0555556 79:0.0701754 80:0.0666667 81:0.2 83:0.333333 84:0.133333 87:0.333333 88:0.125 89:0.0666667 90:0.0740741 91:0.0666667 92:0.333333 93:0.185185 99:0.111111 100:0.333333 101:0.333333 105:0.166667 106:0.111111 108:0.0555556 110:0.155556 111:0.047619 112:0.133333 115:0.333333 119:0.222222 121:0.125 122:0.0849673 123:0.102564 126:0.0277778 133:0.333333 137:0.1 139:0.0555556 140:0.138889 143:0.166667 144:0.037037 
1 0 0 0 2:0.037037 3:0.0619048 6:0.166667 7:0.166667 11:0.0333333 13:0.0833333 14:0.0333333 15:0.166667 16:0.0357143 17:0.0555556 19:0.0515152 24:0.0434783 25:0.0166667 26:0.0833333 28:0.05 33:0.0833333 34:0.111111 37:0.0432099 38:0.0416667 39:0.0701754 43:0.0714286 45:0.0333333 46:0.05 49:0.166667 54:0.0666667 55:0.025641 58:0.166667 61:0.0308642 62:0.166667 64:0.0416667 65:0.0454545 69:0.0833333 70:0.0833333 72:0.0208333 73:0.166667 75:0.0555556 77:0.0416667 78:0.0277778 79:0.0380117 80:0.0333333 81:0.1 83:0.166667 84:0.0666667 87:0.166667 88:0.0625 89:0.0333333 90:0.037037 91:0.0666667 92:0.166667 93:0.0925926 99:0.0555556 100:0.166667 101:0.166667 105:0.0833333 106:0.0555556 108:0.0277778 110:0.0777778 111:0.0238095 112:0.0666667 115:0.166667 119:0.111111 121:0.0625 122:0.0424837 123:0.0512821 126:0.0138889 133:0.166667 137:0.05 139:0.0277778 140:0.0694444 143:0.0833333 144:0.0185185 
1 0 0 0 2:0.0277778 3:0.0464286 6:0.125 7:0.125 11:0.025 13:0.0625 14:0.025 15:0.125 16:0.0267857 17:0.0416667 19:0.0409091 24:0.0380435 25:0.0125 26:0.0625 28:0.0375 33:0.0625 34:0.0833333 37:0.0324074 38:0.03125 39:0.0526316 43:0.0535714 45:0.025 46:0.0375 49:0.125 54:0.05 55:0.0192308 58:0.125 61:0.0231481 62:0.125 64:0.03125 65:0.0340909 69:0.0625 70:0.0625 72:0.0234375 73:0.125 75:0.0416667 77:0.046875 78:0.0208333 79:0.0285088 80:0.025 81:0.075 83:0.125 84:0.05 87:0.125 88:0.046875 89:0.025 90:0.0277778 91:0.05 92:0.125 93:0.0694444 97:0.0625 99:0.0416667 100:0.125 101:0.125 105:0.0625 106:0.0416667 108:0.0208333 110:0.0583333 111:0.0178571 112:0.05 115:0.125 119:0.0833333 121:0.046875 122:0.0318627 123:0.0384615 126:0.0104167 133:0.125 137:0.0375 139:0.0208333 140:0.0520833 143:0.0625 144:0.0138889 
1 0 0 0 2:0.031746 3:0.0530612 6:0.142857 7:0.142857 11:0.0285714 13:0.0714286 14:0.0285714 15:0.142857 16:0.0306122 17:0.047619 19:0.0467532 24:0.0434783 25:0.0142857 26:0.0714286 28:0.0428571 33:0.0714286 34:0.0952381 37:0.037037 38:0.0357143 39:0.0601504 43:0.0612245 45:0.0285714 46:0.0428571 49:0.142857 54:0.0571429 55:0.021978 58:0.142857 61:0.026455 62:0.142857 64:0.0357143 65:0.038961 69:0.0714286 70:0.0714286 72:0.0267857 73:0.142857 75:0.047619 77:0.0535714 78:0.0238095 79:0.0325815 80:0.0285714 81:0.0857143 83:0.142857 84:0.0571429 87:0.142857 88:0.0625 89:0.0285714 90:0.031746 91:0.0571429 92:0.142857 93:0.0793651 97:0.0714286 99:0.047619 100:0.142857 101:0.142857 105:0.0714286 106:0.047619 108:0.0238095 110:0.0666667 111:0.0204082 112:0.0571429 115:0.142857 119:0.0952381 121:0.0535714 122:0.0364146 123:0.043956 126:0.0119048 133:0.142857 137:0.0428571 139:0.0238095 140:0.0595238 143:0.0714286 144:0.015873 
1 0.06466110963750175 0 0 2:0.0555556 3:0.0928571 6:0.25 7:0.25 11:0.05 13:0.125 14:0.05 15:0.25 16:0.0535714 17:0.0833333 19:0.0818182 24:0.076087 25:0.025 26:0.125 28:0.075 33:0.125 34:0.166667 37:0.0648148 38:0.0625 39:0.105263 43:0.107143 45:0.05 46:0.075 49:0.25 54:0.1 55:0.0384615 58:0.25 61:0.0462963 62:0.25 64:0.0625 65:0.0909091 69:0.125 70:0.125 72:0.046875 73:0.25 75:0.0833333 77:0.09375 78:0.0416667 79:0.0614035 80:0.05 81:0.2 83:0.25 84:0.1 87:0.25 88:0.125 89:0.05 90:0.0555556 91:0.1 92:0.25 93:0.138889 97:0.125 99:0.0833333 100:0.25 101:0.25 105:0.125 106:0.0833333 108:0.0416667 110:0.116667 111:0.0357143 112:0.125 115:0.25 119:0.166667 121:0.09375 122:0.0686275 123:0.0769231 126:0.0208333 133:0.25 137:0.075 139:0.0833333 140:0.104167 143:0.125 144:0.0555556 
1 0 0 0 2:0.0222222 3:0.0371429 6:0.1 7:0.1 11:0.02 13:0.05 14:0.02 15:0.1 16:0.0214286 17:0.0388889 19:0.0327273 24:0.0304348 25:0.01 26:0.05 28:0.03 33:0.05 34:0.0666667 37:0.0259259 38:0.025 39:0.0421053 43:0.0428571 45:0.02 46:0.03 49:0.1 54:0.04 55:0.0153846 58:0.1 61:0.0222222 62:0.1 64:0.025 65:0.0363636 69:0.05 70:0.05 72:0.01875 73:0.1 75:0.0333333 77:0.0375 78:0.0166667 79:0.0245614 80:0.02 81:0.08 83:0.1 84:0.04 87:0.1 88:0.05 89:0.02 90:0.0222222 91:0.04 92:0.1 93:0.0555556 97:0.05 99:0.0333333 100:0.1 101:0.1 105:0.05 106:0.0333333 108:0.0166667 110:0.0466667 111:0.0142857 112:0.05 115:0.1 119:0.0666667 121:0.0375 122:0.027451 123:0.0307692 126:0.00833333 133:0.1 137:0.04 139:0.0333333 140:0.0416667 143:0.05 144:0.0222222 
1 0 0.08342806890402291 0 2:0.0555556 3:0.0928571 6:0.25 7:0.25 11:0.05 13:0.125 14:0.05 15:0.25 16:0.0535714 17:0.111111 19:0.0863636 24:0.0978261 25:0.075 26:0.125 28:0.075 31:0.125 33:0.125 34:0.166667 37:0.0648148 38:0.0625 39:0.105263 43:0.107143 45:0.05 46:0.075 49:0.25 54:0.1 55:0.0384615 58:0.25 61:0.0555556 62:0.25 64:0.0625 65:0.0909091 69:0.25 70:0.25 72:0.046875 73:0.25 75:0.0833333 77:0.09375 78:0.0416667 79:0.0657895 80:0.05 81:0.2 83:0.25 84:0.1 87:0.25 88:0.125 89:0.05 90:0.0555556 91:0.1 92:0.25 93:0.138889 97:0.125 99:0.166667 100:0.25 101:0.25 102:0.25 105:0.125 106:0.0833333 108:0.0416667 110:0.116667 111:0.0357143 112:0.125 115:0.25 118:0.0681818 119:0.166667 121:0.125 122:0.0735294 123:0.0769231 126:0.0208333 133:0.25 137:0.1 139:0.0833333 140:0.104167 143:0.125 144:0.0555556 
1 0 0 0 2:0.037037 3:0.0619048 6:0.166667 7:0.166667 11:0.0333333 13:0.0833333 14:0.0333333 15:0.166667 16:0.0357143 17:0.0833333 19:0.0575758 24:0.0797101 25:0.05 26:0.0833333 28:0.0666667 31:0.0833333 33:0.0833333 34:0.111111 37:0.0432099 38:0.0416667 39:0.0877193 43:0.0714286 45:0.0333333 46:0.0666667 49:0.166667 54:0.0666667 55:0.025641 58:0.166667 61:0.0432099 62:0.166667 64:0.0416667 65:0.0681818 69:0.166667 70:0.166667 72:0.0520833 73:0.166667 75:0.0555556 77:0.0625 78:0.0277778 79:0.0497076 80:0.0333333 81:0.133333 83:0.166667 84:0.0666667 87:0.166667 88:0.0833333 89:0.0333333 90:0.0432099 91:0.0666667 92:0.166667 93:0.101852 97:0.0833333 99:0.111111 100:0.166667 101:0.166667 102:0.166667 105:0.0833333 106:0.0555556 108:0.0277778 110:0.0777778 111:0.047619 112:0.0833333 115:0.166667 118:0.0454545 119:0.111111 121:0.0833333 122:0.0555556 123:0.0512821 126:0.0138889 130:0.0833333 133:0.166667 137:0.0666667 139:0.0555556 140:0.0694444 143:0.0833333 144:0.0555556 
1 1 0 0 2:0.031746 3:0.0530612 6:0.142857 7:0.142857 11:0.0285714 13:0.0714286 14:0.0285714 15:0.142857 16:0.0306122 17:0.0714286 18:0.0714286 19:0.0493506 24:0.068323 25:0.0428571 26:0.0714286 28:0.0571429 31:0.0714286 33:0.0714286 34:0.0952381 37:0.037037 38:0.0357143 39:0.075188 43:0.0612245 45:0.0285714 46:0.0571429 49:0.142857 54:0.0571429 55:0.021978 58:0.142857 61:0.037037 62:0.142857 64:0.0357143 65:0.0584416 69:0.142857 70:0.142857 72:0.0446429 73:0.142857 75:0.047619 77:0.0535714 78:0.0238095 79:0.0426065 80:0.0285714 81:0.114286 83:0.142857 84:0.0571429 87:0.142857 88:0.0714286 89:0.0285714 90:0.037037 91:0.0571429 92:0.142857 93:0.0873016 97:0.0714286 99:0.0952381 100:0.142857 101:0.142857 102:0.142857 105:0.0714286 106:0.047619 108:0.0238095 110:0.0666667 111:0.0408163 112:0.0714286 115:0.142857 118:0.038961 119:0.0952381 121:0.0714286 122:0.0504202 123:0.043956 126:0.0119048 130:0.0714286 133:0.142857 137:0.0571429 139:0.047619 140:0.0595238 143:0.0714286 144:0.047619 
1 0 0.07943883765703116 0 2:0.0333333 3:0.0428571 6:0.1 7:0.1 11:0.02 13:0.05 14:0.02 15:0.1 16:0.0214286 17:0.05 18:0.05 19:0.0363636 24:0.0521739 25:0.03 26:0.05 28:0.04 30:0.1 31:0.1 33:0.05 34:0.0666667 37:0.0296296 38:0.025 39:0.0631579 41:0.1 43:0.0428571 45:0.02 46:0.07 49:0.1 54:0.04 55:0.0230769 58:0.1 61:0.0259259 62:0.1 63:0.1 64:0.025 65:0.05 69:0.1 70:0.1 72:0.04375 73:0.1 75:0.0444444 77:0.0625 78:0.0166667 79:0.0368421 80:0.05 81:0.08 83:0.1 84:0.04 87:0.1 88:0.05 89:0.02 90:0.0259259 91:0.04 92:0.1 93:0.0611111 97:0.05 99:0.0666667 100:0.1 101:0.1 102:0.1 104:0.1 105:0.05 106:0.0444444 108:0.0166667 109:0.1 110:0.0533333 111:0.0428571 112:0.05 115:0.1 118:0.0363636 119:0.0666667 121:0.0625 122:0.0431373 123:0.0307692 126:0.0166667 130:0.05 133:0.1 134:0.0333333 137:0.04 139:0.0333333 140:0.0416667 143:0.05 144:0.0444444 
1 0.6424765168296448 0.5518627630694423 0.1776409645162363 2:0.166667 3:0.214286 6:0.5 7:0.5 11:0.1 13:0.25 14:0.1 15:0.5 16:0.107143 17:0.25 18:0.25 19:0.181818 24:0.26087 25:0.15 26:0.25 28:0.2 30:0.5 31:0.5 33:0.25 34:0.333333 37:0.148148 38:0.125 39:0.315789 41:0.5 43:0.214286 45:0.1 46:0.35 49:0.5 54:0.2 55:0.115385 58:0.5 61:0.148148 62:0.5 63:0.5 64:0.125 65:0.25 69:0.5 70:0.5 72:0.21875 73:0.5 75:0.222222 77:0.3125 78:0.0833333 79:0.184211 80:0.25 81:0.4 83:0.5 84:0.2 87:0.5 88:0.25 89:0.15 90:0.12963 91:0.2 92:0.5 93:0.305556 97:0.25 99:0.333333 100:0.5 101:0.5 102:0.5 104:0.5 105:0.25 106:0.222222 108:0.0833333 109:0.5 110:0.266667 111:0.214286 112:0.25 115:0.5 118:0.181818 119:0.333333 121:0.3125 122:0.215686 123:0.153846 126:0.0833333 130:0.25 133:0.5 134:0.166667 137:0.2 139:0.166667 140:0.208333 143:0.25 144:0.222222 
1 0 0 0 2:0.0416667 3:0.0535714 6:0.125 7:0.125 11:0.025 13:0.0625 14:0.025 15:0.125 16:0.0267857 17:0.0625 18:0.0625 19:0.0454545 24:0.0652174 25:0.0375 26:0.0625 28:0.05 30:0.125 31:0.125 33:0.0625 34:0.0833333 37:0.037037 38:0.03125 39:0.0855263 41:0.125 43:0.0535714 45:0.025 46:0.0875 49:0.125 54:0.05 55:0.0288462 58:0.125 61:0.037037 62:0.125 63:0.125 64:0.03125 65:0.0625 69:0.125 70:0.125 72:0.0625 73:0.125 75:0.0555556 77:0.078125 78:0.0208333 79:0.0460526 80:0.0625 81:0.1 83:0.125 84:0.05 87:0.125 88:0.0625 89:0.0375 90:0.0324074 91:0.05 92:0.125 93:0.0763889 97:0.0625 99:0.0833333 100:0.125 101:0.125 102:0.125 104:0.125 105:0.0625 106:0.0555556 108:0.0208333 109:0.125 110:0.0666667 111:0.0535714 112:0.0625 115:0.125 118:0.0454545 119:0.0833333 121:0.078125 122:0.0539216 123:0.0384615 126:0.0208333 130:0.0625 133:0.125 134:0.0416667 137:0.05 139:0.0416667 140:0.0520833 143:0.0625 144:0.0694444 
1 1 0 0 2:0.031746 3:0.0306122 6:0.0714286 7:0.0714286 11:0.0142857 13:0.0357143 14:0.0142857 15:0.0714286 16:0.0204082 17:0.0357143 18:0.0357143 19:0.0272727 20:0.0357143 24:0.0403727 25:0.0214286 26:0.0357143 28:0.0285714 30:0.0714286 31:0.0714286 33:0.0357143 34:0.047619 37:0.021164 38:0.0178571 39:0.0488722 41:0.0714286 43:0.0306122 45:0.0142857 46:0.05 49:0.0714286 54:0.0285714 55:0.0164835 58:0.0714286 61:0.0238095 62:0.0714286 63:0.0714286 64:0.0178571 65:0.0357143 69:0.0714286 70:0.0714286 72:0.0357143 73:0.0714286 75:0.031746 77:0.0446429 78:0.0119048 79:0.0288221 80:0.0357143 81:0.0571429 83:0.0714286 84:0.0285714 87:0.0714286 88:0.0357143 89:0.0214286 90:0.0185185 91:0.0285714 92:0.0714286 93:0.0436508 97:0.0357143 99:0.047619 100:0.0714286 101:0.0714286 102:0.0714286 104:0.0714286 105:0.0357143 106:0.0396825 108:0.0119048 109:0.0714286 110:0.0380952 111:0.0408163 112:0.0357143 115:0.0714286 118:0.025974 119:0.047619 121:0.0446429 122:0.0322129 123:0.021978 126:0.0119048 130:0.0357143 133:0.0714286 134:0.0238095 137:0.0285714 139:0.0238095 140:0.0297619 143:0.0357143 144:0.0396825 
1 0.383524354046473 0 0 2:0.0116959 3:0.0120301 6:0.0263158 7:0.0263158 11:0.00526316 13:0.0131579 14:0.0105263 15:0.0263158 16:0.0075188 17:0.0131579 18:0.0131579 19:0.0110048 20:0.0131579 24:0.0171625 25:0.00789474 26:0.0131579 28:0.0105263 30:0.0263158 31:0.0263158 33:0.0131579 34:0.0175439 37:0.00877193 38:0.00657895 39:0.0193906 41:0.0263158 43:0.0150376 45:0.00526316 46:0.0184211 49:0.0263158 54:0.0105263 55:0.00809717 58:0.0263158 61:0.00974659 62:0.0263158 63:0.0263158 64:0.00657895 65:0.0143541 69:0.0263158 70:0.0263158 72:0.0148026 73:0.0263158 75:0.0116959 77:0.0164474 78:0.00438596 79:0.0106187 80:0.0131579 81:0.0210526 83:0.0263158 84:0.0105263 87:0.0263158 88:0.0148026 89:0.0131579 90:0.00682261 91:0.0157895 92:0.0263158 93:0.0160819 97:0.0131579 99:0.0175439 100:0.0263158 101:0.0263158 102:0.0263158 104:0.0263158 105:0.0131579 106:0.0146199 108:0.00438596 109:0.0263158 110:0.0140351 111:0.0150376 112:0.0131579 115:0.0263158 118:0.00956938 119:0.0175439 121:0.0164474 122:0.0118679 123:0.0101215 126:0.00657895 130:0.0131579 133:0.0263158 134:0.00877193 137:0.0105263 139:0.00877193 140:0.0109649 143:0.0263158 144:0.0146199 
1 0 0 0 2:0.0888889 3:0.0914286 6:0.2 7:0.2 11:0.04 13:0.1 14:0.08 15:0.2 16:0.0571429 17:0.1 18:0.1 19:0.0836364 20:0.1 24:0.130435 25:0.06 26:0.1 28:0.08 30:0.2 31:0.2 33:0.1 34:0.133333 37:0.0666667 38:0.05 39:0.147368 41:0.2 43:0.114286 45:0.04 46:0.14 49:0.2 54:0.08 55:0.0615385 58:0.2 61:0.0814815 62:0.2 63:0.2 64:0.05 65:0.109091 69:0.2 70:0.2 72:0.1125 73:0.2 75:0.0888889 77:0.125 78:0.0333333 79:0.0807018 80:0.1 81:0.16 83:0.2 84:0.08 87:0.2 88:0.1125 89:0.1 90:0.0518519 91:0.12 92:0.2 93:0.122222 97:0.1 99:0.133333 100:0.2 101:0.2 102:0.2 104:0.2 105:0.1 106:0.111111 108:0.0333333 109:0.2 110:0.106667 111:0.114286 112:0.1 115:0.2 118:0.0727273 119:0.133333 121:0.125 122:0.0901961 123:0.0769231 126:0.05 130:0.1 133:0.2 134:0.0666667 137:0.08 139:0.0666667 140:0.0833333 143:0.2 144:0.111111 
1 1 0.05895537181480835 0 2:0.148148 3:0.152381 6:0.333333 7:0.333333 11:0.0666667 13:0.166667 14:0.133333 15:0.333333 16:0.0952381 17:0.166667 18:0.166667 19:0.145455 20:0.166667 24:0.217391 25:0.1 26:0.166667 28:0.133333 30:0.333333 31:0.333333 33:0.166667 34:0.222222 37:0.123457 38:0.0833333 39:0.245614 41:0.333333 43:0.190476 45:0.0666667 46:0.233333 49:0.333333 54:0.133333 55:0.102564 58:0.333333 61:0.135802 62:0.333333 63:0.333333 64:0.0833333 65:0.181818 69:0.333333 70:0.333333 72:0.1875 73:0.333333 74:0.111111 75:0.148148 77:0.208333 78:0.0555556 79:0.134503 80:0.166667 81:0.266667 83:0.333333 84:0.2 87:0.333333 88:0.1875 89:0.2 90:0.0864198 91:0.2 92:0.333333 93:0.222222 97:0.166667 99:0.222222 100:0.333333 101:0.333333 102:0.333333 104:0.333333 105:0.166667 106:0.185185 108:0.0555556 109:0.333333 110:0.177778 111:0.190476 112:0.166667 115:0.333333 118:0.121212 119:0.222222 121:0.208333 122:0.150327 123:0.128205 126:0.0833333 130:0.166667 133:0.333333 134:0.111111 137:0.133333 139:0.111111 140:0.166667 143:0.333333 144:0.185185 
1 1 0 0 2:0.148148 3:0.152381 6:0.333333 7:0.333333 11:0.0666667 13:0.166667 14:0.133333 15:0.333333 16:0.0952381 17:0.166667 18:0.166667 19:0.145455 20:0.333333 24:0.217391 25:0.1 26:0.166667 28:0.133333 30:0.333333 31:0.333333 33:0.166667 34:0.222222 37:0.135802 38:0.0833333 39:0.245614 41:0.333333 43:0.190476 45:0.0666667 46:0.233333 49:0.333333 54:0.133333 55:0.102564 58:0.333333 61:0.135802 62:0.333333 63:0.333333 64:0.0833333 65:0.181818 69:0.333333 70:0.333333 72:0.1875 73:0.333333 74:0.111111 75:0.148148 77:0.208333 78:0.0555556 79:0.134503 80:0.166667 81:0.266667 83:0.333333 84:0.2 87:0.333333 88:0.1875 89:0.2 90:0.0864198 91:0.2 92:0.333333 93:0.222222 97:0.166667 99:0.222222 100:0.333333 101:0.333333 102:0.333333 104:0.333333 105:0.166667 106:0.185185 108:0.0555556 109:0.333333 110:0.177778 111:0.190476 112:0.166667 115:0.333333 118:0.121212 119:0.222222 121:0.208333 122:0.150327 123:0.128205 126:0.0833333 130:0.166667 133:0.333333 134:0.111111 137:0.133333 139:0.111111 140:0.166667 143:0.333333 144:0.185185 
1 0 0.01829128087483102 0 2:0.0493827 3:0.0539683 6:0.111111 7:0.111111 11:0.0222222 13:0.0555556 14:0.0444444 15:0.111111 16:0.031746 17:0.0555556 18:0.0555556 19:0.0505051 20:0.111111 24:0.0724638 25:0.0333333 26:0.0555556 28:0.0444444 30:0.111111 31:0.111111 33:0.0555556 34:0.0740741 37:0.0452675 38:0.0277778 39:0.0818713 41:0.111111 43:0.0634921 45:0.0222222 46:0.0777778 49:0.111111 52:0.111111 54:0.0444444 55:0.034188 58:0.111111 61:0.0452675 62:0.111111 63:0.111111 64:0.0277778 65:0.0606061 69:0.111111 70:0.111111 72:0.0625 73:0.111111 74:0.037037 75:0.0493827 77:0.0694444 78:0.0185185 79:0.0487329 80:0.0555556 81:0.0888889 83:0.111111 84:0.0666667 87:0.111111 88:0.0625 89:0.0666667 90:0.0288066 91:0.0666667 92:0.111111 93:0.0740741 95:0.111111 97:0.0555556 99:0.0740741 100:0.111111 101:0.111111 102:0.111111 104:0.111111 105:0.0555556 106:0.0740741 108:0.0185185 109:0.111111 110:0.0592593 111:0.0634921 112:0.0555556 115:0.111111 118:0.040404 119:0.0740741 121:0.0694444 122:0.0544662 123:0.0512821 126:0.0277778 127:0.111111 130:0.0555556 133:0.111111 134:0.037037 137:0.0444444 139:0.0555556 140:0.0555556 141:0.0277778 143:0.111111 144:0.0617284 
1 0 0 0 2:0.0740741 3:0.0809524 6:0.166667 7:0.166667 11:0.0333333 13:0.0833333 14:0.0666667 15:0.166667 16:0.047619 17:0.0833333 18:0.0833333 19:0.0787879 20:0.166667 24:0.108696 25:0.05 26:0.0833333 28:0.0666667 30:0.166667 31:0.166667 33:0.0833333 34:0.111111 37:0.0679012 38:0.0416667 39:0.122807 41:0.166667 43:0.0952381 45:0.0333333 46:0.116667 49:0.166667 52:0.166667 54:0.0666667 55:0.0512821 58:0.166667 61:0.0740741 62:0.166667 63:0.166667 64:0.0416667 65:0.0909091 69:0.166667 70:0.166667 72:0.09375 73:0.166667 74:0.0555556 75:0.0740741 77:0.104167 78:0.0277778 79:0.0730994 80:0.0833333 81:0.133333 83:0.166667 84:0.133333 87:0.166667 88:0.09375 89:0.1 90:0.0432099 91:0.1 92:0.166667 93:0.111111 95:0.166667 97:0.0833333 99:0.111111 100:0.166667 101:0.166667 102:0.166667 104:0.166667 105:0.0833333 106:0.111111 108:0.0277778 109:0.166667 110:0.0888889 111:0.0952381 112:0.0833333 115:0.166667 118:0.0606061 119:0.111111 121:0.104167 122:0.0816993 123:0.0769231 126:0.0416667 127:0.166667 130:0.0833333 133:0.166667 134:0.0555556 137:0.0666667 139:0.0833333 140:0.0833333 141:0.0416667 143:0.166667 144:0.0925926 
1 0 0 0 2:0.222222 3:0.257143 6:0.5 7:0.5 11:0.1 13:0.25 14:0.2 15:0.5 16:0.142857 17:0.25 18:0.25 19:0.236364 20:0.5 24:0.326087 25:0.15 26:0.25 28:0.2 30:0.5 31:0.5 33:0.25 34:0.333333 37:0.203704 38:0.125 39:0.394737 41:0.5 43:0.285714 45:0.1 46:0.35 49:0.5 52:0.5 54:0.2 55:0.153846 58:0.5 61:0.222222 62:0.5 63:0.5 64:0.125 65:0.272727 69:0.5 70:0.5 72:0.28125 73:0.5 74:0.166667 75:0.222222 77:0.3125 78:0.0833333 79:0.219298 80:0.25 81:0.4 83:0.5 84:0.4 87:0.5 88:0.28125 89:0.3 90:0.12963 91:0.3 92:0.5 93:0.333333 95:0.5 97:0.25 99:0.333333 100:0.5 101:0.5 102:0.5 104:0.5 105:0.25 106:0.333333 108:0.0833333 109:0.5 110:0.266667 111:0.285714 112:0.25 115:0.5 118:0.181818 119:0.333333 121:0.3125 122:0.254902 123:0.230769 126:0.125 127:0.5 130:0.25 133:0.5 134:0.166667 137:0.2 139:0.25 140:0.25 141:0.125 143:0.5 144:0.277778 
1 0 0 0 2:0.111111 3:0.128571 6:0.25 7:0.25 11:0.05 13:0.125 14:0.1 15:0.25 16:0.0714286 17:0.125 18:0.125 19:0.122727 20:0.25 24:0.163043 25:0.075 26:0.125 28:0.1 30:0.25 31:0.25 33:0.125 34:0.166667 37:0.101852 38:0.0625 39:0.197368 41:0.25 43:0.142857 45:0.05 46:0.175 47:0.0833333 49:0.25 52:0.25 54:0.1 55:0.0769231 58:0.25 61:0.111111 62:0.25 63:0.25 64:0.0625 65:0.136364 69:0.25 70:0.25 72:0.140625 73:0.25 74:0.0833333 75:0.111111 77:0.15625 78:0.0416667 79:0.114035 80:0.125 81:0.2 83:0.25 84:0.2 87:0.25 88:0.140625 89:0.15 90:0.0740741 91:0.15 92:0.25 93:0.166667 95:0.25 97:0.125 99:0.166667 100:0.25 101:0.25 102:0.25 104:0.25 105:0.125 106:0.166667 108:0.0416667 109:0.25 110:0.133333 111:0.142857 112:0.125 115:0.25 118:0.0909091 119:0.166667 121:0.15625 122:0.127451 123:0.115385 126:0.0625 127:0.25 130:0.125 133:0.25 134:0.0833333 137:0.1 139:0.125 140:0.125 141:0.0625 143:0.25 144:0.138889 
1 0 0 0 2:0.0493827 3:0.0571429 6:0.111111 7:0.111111 11:0.0222222 13:0.0555556 14:0.0444444 15:0.111111 16:0.031746 17:0.0555556 18:0.0555556 19:0.0545455 20:0.111111 24:0.0724638 25:0.0333333 26:0.0555556 28:0.0444444 30:0.111111 31:0.111111 33:0.0555556 34:0.0740741 37:0.0452675 38:0.0277778 39:0.0935673 41:0.111111 43:0.0634921 45:0.0222222 46:0.0777778 47:0.037037 49:0.111111 52:0.111111 54:0.0444444 55:0.034188 58:0.111111 61:0.0576132 62:0.111111 63:0.111111 64:0.0277778 65:0.0606061 69:0.111111 70:0.111111 72:0.0625 73:0.111111 74:0.037037 75:0.0493827 77:0.0694444 78:0.0185185 79:0.0506823 80:0.0555556 81:0.0888889 83:0.111111 84:0.0888889 87:0.111111 88:0.0625 89:0.0666667 90:0.0329218 91:0.0666667 92:0.111111 93:0.0740741 95:0.111111 97:0.0555556 99:0.0740741 100:0.111111 101:0.111111 102:0.111111 104:0.111111 105:0.0555556 106:0.0740741 108:0.0185185 109:0.111111 110:0.0592593 111:0.0634921 112:0.0555556 115:0.111111 118:0.040404 119:0.0740741 121:0.0694444 122:0.0588235 123:0.0512821 126:0.0277778 127:0.111111 130:0.0555556 133:0.111111 134:0.037037 137:0.0444444 139:0.0555556 140:0.0555556 141:0.0277778 143:0.111111 144:0.0617284 
1 0 0.07313024284911208 0 2:0.222222 3:0.257143 6:0.5 7:0.5 11:0.1 13:0.25 14:0.2 15:0.5 16:0.142857 17:0.25 18:0.25 19:0.245455 20:0.5 24:0.326087 25:0.15 26:0.25 28:0.2 30:0.5 31:0.5 33:0.25 34:0.333333 37:0.203704 38:0.125 39:0.421053 41:0.5 43:0.285714 45:0.1 46:0.35 47:0.166667 49:0.5 52:0.5 54:0.2 55:0.153846 58:0.5 61:0.259259 62:0.5 63:0.5 64:0.125 65:0.272727 69:0.5 70:0.5 72:0.28125 73:0.5 74:0.166667 75:0.222222 77:0.3125 78:0.0833333 79:0.22807 80:0.3 81:0.4 83:0.5 84:0.4 87:0.5 88:0.28125 89:0.3 90:0.148148 91:0.3 92:0.5 93:0.333333 95:0.5 97:0.25 99:0.333333 100:0.5 101:0.5 102:0.5 104:0.5 105:0.25 106:0.333333 108:0.0833333 109:0.5 110:0.266667 111:0.285714 112:0.25 115:0.5 118:0.181818 119:0.333333 121:0.3125 122:0.264706 123:0.230769 126:0.125 127:0.5 130:0.25 133:0.5 134:0.166667 137:0.2 139:0.25 140:0.25 141:0.125 143:0.5 144:0.277778 
1 0.06455735869822021 0 0.005767328129035566 2:0.444444 3:0.514286 6:1 7:1 11:0.2 13:0.5 14:0.4 15:1 16:0.285714 17:0.5 18:0.5 19:0.490909 20:1 24:0.652174 25:0.4 26:0.5 28:0.4 30:1 31:1 33:0.5 34:0.666667 37:0.407407 38:0.25 39:0.842105 41:1 43:0.571429 45:0.2 46:0.7 47:0.333333 49:1 52:1 54:0.4 55:0.307692 58:1 61:0.518519 62:1 63:1 64:0.25 65:0.545455 69:1 70:1 72:0.5625 73:1 74:0.333333 75:0.444444 77:0.625 78:0.166667 79:0.45614 80:0.6 81:0.8 83:1 84:0.8 87:1 88:0.5625 89:0.6 90:0.296296 91:0.6 92:1 93:0.666667 95:1 97:0.5 99:0.666667 100:1 101:1 102:1 104:1 105:0.5 106:0.666667 108:0.166667 109:1 110:0.533333 111:0.571429 112:0.5 115:1 118:0.363636 119:0.666667 121:0.625 122:0.529412 123:0.461538 126:0.25 127:1 130:0.5 133:1 134:0.333333 137:0.4 139:0.5 140:0.5 141:0.25 143:1 144:0.555556 
1 1 0 0 1:0.008 2:0.0177778 3:0.0205714 6:0.04 7:0.04 11:0.008 13:0.02 14:0.024 15:0.04 16:0.0114286 17:0.02 18:0.02 19:0.0203636 20:0.04 24:0.0278261 25:0.024 26:0.03 28:0.02 30:0.04 31:0.04 33:0.02 34:0.0266667 37:0.0162963 38:0.01 39:0.0336842 41:0.04 43:0.0228571 45:0.016 46:0.028 47:0.0133333 49:0.04 52:0.04 54:0.016 55:0.0153846 58:0.04 61:0.0207407 62:0.04 63:0.04 64:0.01 65:0.0218182 69:0.04 70:0.04 72:0.0225 73:0.04 74:0.0133333 75:0.0177778 77:0.025 78:0.00666667 79:0.0182456 80:0.024 81:0.032 83:0.04 84:0.032 87:0.04 88:0.0225 89:0.024 90:0.0118519 91:0.024 92:0.04 93:0.0266667 95:0.04 97:0.02 99:0.0266667 100:0.04 101:0.04 102:0.04 104:0.04 105:0.02 106:0.0266667 108:0.0133333 109:0.04 110:0.0213333 111:0.0228571 112:0.024 115:0.04 118:0.0145455 119:0.0266667 121:0.025 122:0.0211765 123:0.0184615 126:0.01 127:0.04 130:0.02 133:0.04 134:0.0133333 137:0.016 139:0.02 140:0.02 141:0.01 143:0.04 144:0.0222222 
1 0.09739043440158901 0 0.01985644647174676 1:0.1 2:0.222222 3:0.257143 6:0.5 7:0.5 11:0.1 13:0.25 14:0.3 15:0.5 16:0.142857 17:0.25 18:0.25 19:0.254545 20:0.5 24:0.347826 25:0.3 26:0.375 28:0.25 30:0.5 31:0.5 33:0.25 34:0.333333 37:0.203704 38:0.125 39:0.421053 41:0.5 43:0.285714 45:0.2 46:0.35 47:0.166667 49:0.5 52:0.5 54:0.2 55:0.192308 58:0.5 61:0.259259 62:0.5 63:0.5 64:0.125 65:0.272727 69:0.5 70:0.5 72:0.28125 73:0.5 74:0.166667 75:0.222222 77:0.3125 78:0.0833333 79:0.22807 80:0.3 81:0.4 83:0.5 84:0.4 87:0.5 88:0.28125 89:0.3 90:0.148148 91:0.3 92:0.5 93:0.333333 95:0.5 97:0.25 99:0.333333 100:0.5 101:0.5 102:0.5 104:0.5 105:0.25 106:0.333333 108:0.166667 109:0.5 110:0.266667 111:0.285714 112:0.3 115:0.5 118:0.227273 119:0.333333 121:0.3125 122:0.264706 123:0.230769 126:0.125 127:0.5 130:0.25 133:0.5 134:0.166667 137:0.2 139:0.25 140:0.25 141:0.125 143:0.5 144:0.277778 
1 0 0.3539437650887184 0 1:0.05 2:0.111111 3:0.128571 6:0.25 7:0.25 11:0.05 13:0.125 14:0.15 15:0.25 16:0.0714286 17:0.125 18:0.125 19:0.127273 20:0.25 24:0.173913 25:0.15 26:0.1875 28:0.125 30:0.25 31:0.25 33:0.125 34:0.166667 37:0.101852 38:0.0625 39:0.210526 41:0.25 43:0.142857 45:0.1 46:0.175 47:0.0833333 49:0.25 52:0.25 54:0.1 55:0.0961538 58:0.25 61:0.12963 62:0.25 63:0.25 64:0.0625 65:0.136364 69:0.25 70:0.25 72:0.140625 73:0.25 74:0.0833333 75:0.111111 77:0.15625 78:0.0416667 79:0.114035 80:0.15 81:0.2 83:0.25 84:0.2 87:0.25 88:0.140625 89:0.15 90:0.0740741 91:0.15 92:0.25 93:0.166667 95:0.25 97:0.125 99:0.166667 100:0.25 101:0.25 102:0.25 104:0.25 105:0.125 106:0.166667 108:0.0833333 109:0.25 110:0.133333 111:0.142857 112:0.15 115:0.25 118:0.113636 119:0.166667 121:0.15625 122:0.132353 123:0.115385 126:0.0625 127:0.25 130:0.125 133:0.25 134:0.0833333 137:0.1 139:0.166667 140:0.125 141:0.125 143:0.25 144:0.138889 
1 0 0 0 1:0.05 2:0.111111 3:0.128571 6:0.25 7:0.25 11:0.05 13:0.125 14:0.15 15:0.25 16:0.0714286 17:0.125 18:0.125 19:0.127273 20:0.25 24:0.173913 25:0.15 26:0.1875 28:0.125 30:0.25 31:0.25 33:0.125 34:0.166667 37:0.101852 38:0.0625 39:0.210526 41:0.25 43:0.142857 45:0.1 46:0.2 47:0.0833333 49:0.25 52:0.25 54:0.1 55:0.0961538 58:0.25 61:0.12963 62:0.25 63:0.25 64:0.0625 65:0.136364 69:0.25 70:0.25 72:0.140625 73:0.25 74:0.0833333 75:0.138889 77:0.15625 78:0.0416667 79:0.118421 80:0.15 81:0.2 83:0.25 84:0.2 87:0.25 88:0.140625 89:0.15 90:0.0833333 91:0.15 92:0.25 93:0.166667 95:0.25 97:0.125 99:0.166667 100:0.25 101:0.25 102:0.25 104:0.25 105:0.125 106:0.166667 108:0.0833333 109:0.25 110:0.133333 111:0.142857 112:0.15 115:0.25 118:0.113636 119:0.166667 121:0.15625 122:0.137255 123:0.115385 126:0.0625 127:0.25 130:0.125 133:0.25 134:0.0833333 137:0.1 139:0.166667 140:0.125 141:0.125 143:0.25 144:0.138889 
1 0.2835867003709249 0 0 1:0.2 2:0.444444 3:0.514286 6:1 7:1 11:0.2 13:0.5 14:0.6 15:1 16:0.357143 17:0.5 18:0.5 19:0.527273 20:1 24:0.73913 25:0.6 26:0.75 28:0.5 30:1 31:1 33:0.5 34:0.666667 37:0.407407 38:0.25 39:0.842105 41:1 43:0.571429 45:0.4 46:0.8 47:0.666667 49:1 52:1 54:0.6 55:0.384615 58:1 61:0.555556 62:1 63:1 64:0.25 65:0.545455 69:1 70:1 72:0.5625 73:1 74:0.333333 75:0.555556 77:0.625 78:0.166667 79:0.473684 80:0.6 81:0.8 83:1 84:1 87:1 88:0.5625 89:0.6 90:0.37037 91:0.6 92:1 93:0.666667 95:1 97:0.5 99:0.666667 100:1 101:1 102:1 104:1 105:0.5 106:0.666667 108:0.333333 109:1 110:0.533333 111:0.571429 112:0.6 115:1 118:0.545455 119:0.666667 120:0.333333 121:0.75 122:0.54902 123:0.461538 126:0.25 127:1 130:0.5 133:1 134:0.333333 137:0.4 139:0.666667 140:0.5 141:0.5 143:1 144:0.555556 
1 0 0 0 1:0.0666667 2:0.148148 3:0.171429 6:0.333333 7:0.333333 11:0.0666667 13:0.166667 14:0.2 15:0.333333 16:0.119048 17:0.166667 18:0.166667 19:0.175758 20:0.333333 24:0.246377 25:0.2 26:0.25 28:0.2 30:0.333333 31:0.333333 33:0.166667 34:0.222222 37:0.135802 38:0.0833333 39:0.280702 41:0.333333 43:0.190476 45:0.133333 46:0.266667 47:0.222222 49:0.333333 52:0.333333 54:0.2 55:0.128205 58:0.333333 61:0.185185 62:0.333333 63:0.333333 64:0.0833333 65:0.181818 69:0.333333 70:0.333333 72:0.1875 73:0.333333 74:0.111111 75:0.185185 77:0.208333 78:0.0555556 79:0.157895 80:0.2 81:0.266667 83:0.333333 84:0.333333 87:0.333333 88:0.1875 89:0.2 90:0.123457 91:0.2 92:0.333333 93:0.222222 95:0.333333 97:0.166667 99:0.222222 100:0.333333 101:0.333333 102:0.333333 104:0.333333 105:0.166667 106:0.222222 108:0.111111 109:0.333333 110:0.177778 111:0.190476 112:0.2 115:0.333333 118:0.181818 119:0.222222 120:0.111111 121:0.25 122:0.183007 123:0.153846 126:0.0833333 127:0.333333 130:0.166667 133:0.333333 134:0.111111 137:0.133333 139:0.222222 140:0.166667 141:0.166667 143:0.333333 144:0.185185 
1 1 0 0 1:0.0166667 2:0.037037 3:0.0452381 6:0.0833333 7:0.0833333 11:0.0166667 13:0.0416667 14:0.05 15:0.0833333 16:0.0297619 17:0.0509259 18:0.0416667 19:0.0454545 20:0.0833333 24:0.0615942 25:0.05 26:0.0625 28:0.05 30:0.0833333 31:0.0833333 33:0.0416667 34:0.0555556 37:0.0339506 38:0.0208333 39:0.0701754 41:0.0833333 43:0.047619 45:0.05 46:0.0666667 47:0.0555556 49:0.0833333 52:0.0833333 54:0.05 55:0.0320513 58:0.0833333 61:0.0462963 62:0.0833333 63:0.0833333 64:0.0208333 65:0.0454545 69:0.0833333 70:0.0833333 72:0.046875 73:0.0833333 74:0.0277778 75:0.0462963 77:0.0520833 78:0.0277778 79:0.0394737 80:0.05 81:0.0666667 83:0.0833333 84:0.0833333 87:0.0833333 88:0.046875 89:0.05 90:0.0308642 91:0.05 92:0.0833333 93:0.0555556 95:0.0833333 97:0.0416667 99:0.0555556 100:0.0833333 101:0.0833333 102:0.0833333 104:0.0833333 105:0.0416667 106:0.0555556 108:0.0277778 109:0.0833333 110:0.0444444 111:0.047619 112:0.0583333 115:0.0833333 118:0.0454545 119:0.0555556 120:0.0277778 121:0.0625 122:0.0457516 123:0.0384615 126:0.0208333 127:0.0833333 130:0.0416667 133:0.0833333 134:0.0277778 137:0.0333333 139:0.0694444 140:0.0416667 141:0.0416667 143:0.0833333 144:0.0462963 
1 0 0 0 1:0.1 2:0.222222 3:0.271429 6:0.5 7:0.5 11:0.1 13:0.25 14:0.3 15:0.5 16:0.214286 17:0.305556 18:0.25 19:0.272727 20:0.5 24:0.391304 25:0.3 26:0.375 28:0.3 30:0.5 31:0.5 33:0.25 34:0.333333 37:0.222222 38:0.125 39:0.421053 41:0.5 43:0.285714 45:0.3 46:0.4 47:0.333333 49:0.5 52:0.5 54:0.3 55:0.192308 58:0.5 61:0.277778 62:0.5 63:0.5 64:0.125 65:0.295455 69:0.5 70:0.5 72:0.28125 73:0.5 74:0.166667 75:0.277778 77:0.375 78:0.166667 79:0.236842 80:0.3 81:0.5 83:0.5 84:0.5 87:0.5 88:0.28125 89:0.3 90:0.185185 91:0.3 92:0.5 93:0.333333 95:0.5 97:0.25 99:0.333333 100:0.5 101:0.5 102:0.5 104:0.5 105:0.25 106:0.333333 108:0.166667 109:0.5 110:0.333333 111:0.285714 112:0.35 115:0.5 118:0.272727 119:0.333333 120:0.166667 121:0.375 122:0.27451 123:0.230769 126:0.125 127:0.5 130:0.25 133:0.5 134:0.166667 137:0.2 139:0.416667 140:0.291667 141:0.25 143:0.5 144:0.277778 
1 0 0 0 1:0.0666667 2:0.148148 3:0.180952 6:0.333333 7:0.333333 11:0.0666667 13:0.166667 14:0.2 15:0.333333 16:0.142857 17:0.203704 18:0.166667 19:0.181818 20:0.333333 24:0.26087 25:0.2 26:0.25 28:0.2 30:0.333333 31:0.333333 33:0.166667 34:0.222222 37:0.148148 38:0.0833333 39:0.280702 41:0.333333 43:0.190476 45:0.2 46:0.266667 47:0.222222 49:0.333333 52:0.333333 54:0.2 55:0.128205 58:0.333333 61:0.185185 62:0.333333 63:0.333333 64:0.0833333 65:0.19697 69:0.333333 70:0.333333 72:0.1875 73:0.333333 74:0.111111 75:0.185185 77:0.25 78:0.111111 79:0.157895 80:0.2 81:0.333333 83:0.333333 84:0.333333 87:0.333333 88:0.1875 89:0.2 90:0.123457 91:0.2 92:0.333333 93:0.222222 95:0.333333 97:0.166667 99:0.222222 100:0.333333 101:0.333333 102:0.333333 104:0.333333 105:0.166667 106:0.222222 108:0.166667 109:0.333333 110:0.222222 111:0.190476 112:0.233333 115:0.333333 118:0.181818 119:0.222222 120:0.111111 121:0.25 122:0.183007 123:0.153846 126:0.0833333 127:0.333333 130:0.166667 133:0.333333 134:0.111111 137:0.166667 139:0.277778 140:0.194444 141:0.166667 143:0.333333 144:0.185185 
1 0 0 0 1:0.02 2:0.0666667 3:0.0542857 6:0.1 7:0.1 11:0.02 13:0.05 14:0.06 15:0.1 16:0.0428571 17:0.0611111 18:0.05 19:0.0581818 20:0.1 24:0.0826087 25:0.06 26:0.075 28:0.06 30:0.1 31:0.1 33:0.05 34:0.0666667 37:0.0481481 38:0.025 39:0.0842105 41:0.1 43:0.0571429 45:0.06 46:0.08 47:0.0666667 49:0.1 52:0.1 54:0.06 55:0.0384615 58:0.1 60:0.05 61:0.0555556 62:0.1 63:0.1 64:0.025 65:0.0681818 69:0.1 70:0.1 72:0.05625 73:0.1 74:0.0333333 75:0.0555556 77:0.075 78:0.0333333 79:0.0508772 80:0.06 81:0.1 83:0.1 84:0.1 87:0.1 88:0.05625 89:0.06 90:0.0407407 91:0.06 92:0.1 93:0.0666667 95:0.1 97:0.05 99:0.0666667 100:0.1 101:0.1 102:0.1 104:0.1 105:0.05 106:0.0666667 108:0.05 109:0.1 110:0.0666667 111:0.0571429 112:0.07 115:0.1 118:0.0545455 119:0.0666667 120:0.0333333 121:0.075 122:0.0588235 123:0.0461538 126:0.0333333 127:0.1 130:0.05 133:0.1 134:0.0333333 137:0.05 139:0.0833333 140:0.0583333 141:0.05 143:0.1 144:0.0666667 
1 0 0 0 1:0.04 2:0.133333 3:0.114286 6:0.2 7:0.2 11:0.04 13:0.1 14:0.12 15:0.2 16:0.0857143 17:0.122222 18:0.1 19:0.116364 20:0.2 24:0.165217 25:0.12 26:0.15 28:0.12 30:0.2 31:0.2 33:0.1 34:0.133333 37:0.0962963 38:0.05 39:0.168421 41:0.2 43:0.114286 45:0.12 46:0.16 47:0.133333 49:0.2 52:0.2 54:0.12 55:0.0769231 58:0.2 60:0.1 61:0.111111 62:0.2 63:0.2 64:0.05 65:0.136364 69:0.2 70:0.2 72:0.1125 73:0.2 74:0.0666667 75:0.111111 77:0.15 78:0.0666667 79:0.101754 80:0.12 81:0.2 83:0.2 84:0.2 87:0.2 88:0.1125 89:0.12 90:0.0814815 91:0.12 92:0.2 93:0.133333 95:0.2 97:0.1 99:0.133333 100:0.2 101:0.2 102:0.2 104:0.2 105:0.1 106:0.133333 108:0.1 109:0.2 110:0.133333 111:0.114286 112:0.14 115:0.2 118:0.109091 119:0.133333 120:0.0666667 121:0.15 122:0.117647 123:0.0923077 126:0.0666667 127:0.2 130:0.1 133:0.2 134:0.0666667 137:0.1 139:0.166667 140:0.116667 141:0.1 143:0.2 144:0.133333 
1 0 0 0 1:0.025 2:0.0833333 3:0.0714286 6:0.125 7:0.125 11:0.025 13:0.0625 14:0.075 15:0.125 16:0.0535714 17:0.0763889 18:0.0625 19:0.0727273 20:0.125 24:0.103261 25:0.075 26:0.09375 28:0.075 30:0.125 31:0.125 33:0.0625 34:0.0833333 37:0.0601852 38:0.03125 39:0.105263 41:0.125 43:0.0714286 45:0.075 46:0.1 47:0.0833333 49:0.125 52:0.125 54:0.075 55:0.0480769 58:0.125 60:0.0625 61:0.0694444 62:0.125 63:0.125 64:0.03125 65:0.0852273 69:0.125 70:0.125 72:0.0703125 73:0.125 74:0.0416667 75:0.0694444 77:0.09375 78:0.0416667 79:0.0679825 80:0.075 81:0.125 83:0.125 84:0.125 87:0.125 88:0.0703125 89:0.075 90:0.0509259 91:0.075 92:0.125 93:0.0833333 95:0.125 97:0.0625 99:0.0833333 100:0.125 101:0.125 102:0.125 104:0.125 105:0.0625 106:0.0833333 108:0.0625 109:0.125 110:0.0833333 111:0.0714286 112:0.0875 115:0.125 118:0.0681818 119:0.0833333 120:0.0416667 121:0.09375 122:0.0735294 123:0.0576923 126:0.0416667 127:0.125 130:0.0625 133:0.125 134:0.0416667 137:0.0625 139:0.104167 140:0.0729167 141:0.0625 143:0.125 144:0.0833333 
1 0 0 0 1:0.0666667 2:0.222222 3:0.190476 6:0.333333 7:0.333333 11:0.0666667 13:0.166667 14:0.2 15:0.333333 16:0.142857 17:0.203704 18:0.166667 19:0.193939 20:0.333333 24:0.275362 25:0.2 26:0.25 28:0.2 30:0.333333 31:0.333333 33:0.166667 34:0.222222 37:0.160494 38:0.0833333 39:0.280702 41:0.333333 43:0.190476 45:0.2 46:0.266667 47:0.222222 49:0.333333 52:0.333333 54:0.2 55:0.128205 58:0.333333 60:0.166667 61:0.185185 62:0.333333 63:0.333333 64:0.0833333 65:0.227273 69:0.333333 70:0.333333 72:0.1875 73:0.333333 74:0.111111 75:0.185185 77:0.25 78:0.111111 79:0.181287 80:0.2 81:0.333333 83:0.333333 84:0.333333 87:0.333333 88:0.1875 89:0.2 90:0.135802 91:0.2 92:0.333333 93:0.222222 95:0.333333 97:0.166667 99:0.222222 100:0.333333 101:0.333333 102:0.333333 104:0.333333 105:0.166667 106:0.222222 108:0.166667 109:0.333333 110:0.222222 111:0.190476 112:0.233333 115:0.333333 118:0.181818 119:0.222222 120:0.111111 121:0.25 122:0.196078 123:0.153846 126:0.111111 127:0.333333 130:0.166667 133:0.333333 134:0.111111 137:0.166667 139:0.277778 140:0.194444 141:0.166667 143:0.333333 144:0.222222 
1 0 0 0 1:0.04 2:0.133333 3:0.114286 6:0.2 7:0.2 11:0.04 13:0.1 14:0.12 15:0.2 16:0.0857143 17:0.122222 18:0.1 19:0.116364 20:0.2 24:0.165217 25:0.12 26:0.15 28:0.12 30:0.2 31:0.2 33:0.1 34:0.133333 37:0.0962963 38:0.05 39:0.168421 41:0.2 43:0.114286 45:0.12 46:0.18 47:0.133333 49:0.2 52:0.2 54:0.12 55:0.0769231 58:0.2 60:0.1 61:0.111111 62:0.2 63:0.2 64:0.05 65:0.136364 69:0.2 70:0.2 72:0.1125 73:0.2 74:0.0666667 75:0.111111 77:0.15 78:0.0666667 79:0.112281 80:0.12 81:0.2 83:0.2 84:0.2 87:0.2 88:0.1125 89:0.12 90:0.0888889 91:0.12 92:0.2 93:0.133333 95:0.2 97:0.1 99:0.133333 100:0.2 101:0.2 102:0.2 104:0.2 105:0.1 106:0.133333 108:0.1 109:0.2 110:0.133333 111:0.114286 112:0.14 115:0.2 118:0.109091 119:0.133333 120:0.0666667 121:0.15 122:0.121569 123:0.0923077 126:0.0666667 127:0.2 130:0.1 133:0.2 134:0.0666667 137:0.1 139:0.166667 140:0.133333 141:0.1 143:0.2 144:0.133333 
1 0.3206879359031729 0 0.01370749813700468 1:0.3 2:0.388889 3:0.3 6:0.5 7:0.5 11:0.1 13:0.25 14:0.3 15:0.5 16:0.25 17:0.333333 18:0.25 19:0.318182 20:0.5 24:0.434783 25:0.35 26:0.375 28:0.35 30:0.5 31:0.5 33:0.25 34:0.333333 37:0.240741 38:0.125 39:0.421053 41:0.5 43:0.285714 45:0.3 46:0.45 47:0.333333 49:0.5 52:0.5 54:0.3 55:0.192308 58:0.5 60:0.25 61:0.277778 62:0.5 63:0.5 64:0.125 65:0.340909 69:0.5 70:0.5 72:0.3125 73:0.5 74:0.166667 75:0.277778 77:0.375 78:0.166667 79:0.298246 80:0.3 81:0.5 83:0.5 84:0.5 87:0.5 88:0.28125 89:0.3 90:0.222222 91:0.3 92:0.5 93:0.333333 94:0.5 95:0.5 97:0.25 99:0.333333 100:0.5 101:0.5 102:0.5 104:0.5 105:0.25 106:0.333333 108:0.25 109:0.5 110:0.333333 111:0.357143 112:0.35 115:0.5 118:0.272727 119:0.333333 120:0.166667 121:0.375 122:0.323529 123:0.269231 126:0.166667 127:0.5 130:0.25 133:0.5 134:0.166667 137:0.25 139:0.416667 140:0.375 141:0.25 143:0.5 144:0.388889 
1 1 0 0 1:0.1 2:0.12963 3:0.1 6:0.166667 7:0.166667 11:0.0333333 13:0.0833333 14:0.1 15:0.166667 16:0.0833333 17:0.111111 18:0.0833333 19:0.109091 20:0.166667 24:0.144928 25:0.116667 26:0.125 28:0.116667 30:0.166667 31:0.166667 33:0.0833333 34:0.111111 37:0.0802469 38:0.0416667 39:0.149123 41:0.166667 43:0.0952381 45:0.1 46:0.15 47:0.111111 49:0.166667 52:0.166667 54:0.133333 55:0.0641026 58:0.166667 60:0.0833333 61:0.104938 62:0.166667 63:0.166667 64:0.0416667 65:0.113636 69:0.166667 70:0.166667 72:0.104167 73:0.166667 74:0.0555556 75:0.111111 77:0.125 78:0.0833333 79:0.108187 80:0.1 81:0.166667 83:0.166667 84:0.166667 86:0.047619 87:0.166667 88:0.09375 89:0.1 90:0.0740741 91:0.1 92:0.166667 93:0.12037 94:0.166667 95:0.166667 97:0.0833333 99:0.111111 100:0.166667 101:0.166667 102:0.166667 104:0.166667 105:0.0833333 106:0.111111 108:0.0833333 109:0.166667 110:0.111111 111:0.119048 112:0.116667 115:0.166667 118:0.0909091 119:0.111111 120:0.0555556 121:0.125 122:0.114379 123:0.0897436 126:0.0555556 127:0.166667 130:0.0833333 133:0.166667 134:0.0555556 137:0.1 139:0.138889 140:0.138889 141:0.0833333 143:0.166667 144:0.12963 
1 0.5529312607712693 0 0 1:0.1 2:0.12963 3:0.1 6:0.166667 7:0.166667 11:0.0333333 13:0.0833333 14:0.1 15:0.166667 16:0.0833333 17:0.111111 18:0.0833333 19:0.109091 20:0.166667 24:0.144928 25:0.116667 26:0.125 28:0.116667 30:0.166667 31:0.166667 33:0.166667 34:0.111111 37:0.0925926 38:0.0416667 39:0.149123 41:0.166667 43:0.119048 45:0.1 46:0.15 47:0.111111 49:0.166667 52:0.166667 53:0.0555556 54:0.133333 55:0.0641026 58:0.166667 60:0.0833333 61:0.111111 62:0.166667 63:0.166667 64:0.0416667 65:0.113636 69:0.166667 70:0.166667 72:0.114583 73:0.166667 74:0.0555556 75:0.111111 77:0.125 78:0.0833333 79:0.108187 80:0.1 81:0.166667 83:0.166667 84:0.166667 86:0.047619 87:0.166667 88:0.09375 89:0.1 90:0.0740741 91:0.1 92:0.166667 93:0.12037 94:0.166667 95:0.166667 97:0.0833333 99:0.111111 100:0.166667 101:0.166667 102:0.166667 104:0.166667 105:0.0833333 106:0.111111 108:0.0833333 109:0.166667 110:0.111111 111:0.119048 112:0.116667 115:0.166667 118:0.0909091 119:0.111111 120:0.0555556 121:0.125 122:0.114379 123:0.0897436 126:0.0555556 127:0.166667 130:0.0833333 133:0.166667 134:0.0555556 136:0.0555556 137:0.1 139:0.138889 140:0.138889 141:0.0833333 143:0.166667 144:0.12963 
1 1 0 0 1:0.15 2:0.194444 3:0.15 6:0.25 7:0.25 11:0.05 13:0.125 14:0.15 15:0.25 16:0.125 17:0.166667 18:0.125 19:0.163636 20:0.25 24:0.217391 25:0.175 26:0.1875 28:0.175 30:0.25 31:0.25 33:0.25 34:0.166667 37:0.138889 38:0.0625 39:0.223684 41:0.25 43:0.178571 45:0.15 46:0.225 47:0.166667 49:0.25 52:0.25 53:0.0833333 54:0.2 55:0.0961538 58:0.25 60:0.125 61:0.166667 62:0.25 63:0.25 64:0.0625 65:0.170455 69:0.25 70:0.25 72:0.171875 73:0.25 74:0.0833333 75:0.166667 77:0.1875 78:0.125 79:0.162281 80:0.15 81:0.25 83:0.25 84:0.25 86:0.0714286 87:0.25 88:0.140625 89:0.15 90:0.111111 91:0.15 92:0.25 93:0.180556 94:0.25 95:0.25 97:0.125 99:0.166667 100:0.25 101:0.25 102:0.25 104:0.25 105:0.125 106:0.166667 108:0.125 109:0.25 110:0.166667 111:0.178571 112:0.175 115:0.25 118:0.136364 119:0.166667 120:0.0833333 121:0.1875 122:0.171569 123:0.134615 126:0.0833333 127:0.25 130:0.125 133:0.25 134:0.0833333 136:0.0833333 137:0.15 139:0.208333 140:0.208333 141:0.125 143:0.25 144:0.194444 
1 0.2539624659235543 0 0 1:0.1 2:0.12963 3:0.1 6:0.166667 7:0.166667 11:0.0333333 13:0.0833333 14:0.1 15:0.166667 16:0.0833333 17:0.111111 18:0.0833333 19:0.109091 20:0.166667 24:0.144928 25:0.116667 26:0.125 28:0.116667 30:0.166667 31:0.166667 33:0.166667 34:0.111111 37:0.0925926 38:0.0416667 39:0.149123 41:0.166667 43:0.119048 45:0.1 46:0.15 47:0.111111 49:0.166667 52:0.166667 53:0.0555556 54:0.133333 55:0.0641026 58:0.166667 60:0.0833333 61:0.111111 62:0.166667 63:0.166667 64:0.0416667 65:0.113636 69:0.166667 70:0.166667 72:0.114583 73:0.166667 74:0.0555556 75:0.111111 77:0.125 78:0.0833333 79:0.111111 80:0.1 81:0.166667 83:0.166667 84:0.166667 86:0.047619 87:0.166667 88:0.09375 89:0.1 90:0.0740741 91:0.1 92:0.166667 93:0.12037 94:0.166667 95:0.166667 97:0.0833333 99:0.111111 100:0.166667 101:0.166667 102:0.166667 104:0.166667 105:0.0833333 106:0.111111 108:0.0833333 109:0.166667 110:0.111111 111:0.119048 112:0.116667 115:0.166667 118:0.0909091 119:0.111111 120:0.0555556 121:0.125 122:0.117647 123:0.0897436 126:0.0555556 127:0.166667 130:0.0833333 133:0.166667 134:0.0555556 136:0.0555556 137:0.1 139:0.138889 140:0.138889 141:0.0833333 143:0.166667 144:0.12963 
1 1 0 0 1:0.075 2:0.0972222 3:0.075 6:0.125 7:0.125 11:0.025 13:0.0625 14:0.075 15:0.125 16:0.0625 17:0.0833333 18:0.0625 19:0.0818182 20:0.125 24:0.108696 25:0.0875 26:0.09375 28:0.0875 30:0.125 31:0.125 33:0.125 34:0.0833333 37:0.0694444 38:0.03125 39:0.111842 41:0.125 43:0.0892857 45:0.075 46:0.1125 47:0.0833333 49:0.125 52:0.125 53:0.0416667 54:0.1 55:0.0576923 58:0.125 60:0.0625 61:0.0833333 62:0.125 63:0.125 64:0.03125 65:0.0852273 69:0.125 70:0.125 72:0.0859375 73:0.125 74:0.0416667 75:0.0833333 77:0.09375 78:0.0625 79:0.0855263 80:0.075 81:0.125 83:0.125 84:0.125 86:0.0357143 87:0.125 88:0.0703125 89:0.075 90:0.0555556 91:0.075 92:0.125 93:0.0902778 94:0.125 95:0.125 97:0.0625 99:0.0833333 100:0.125 101:0.125 102:0.125 104:0.125 105:0.0625 106:0.0833333 108:0.0625 109:0.125 110:0.0833333 111:0.0892857 112:0.0875 115:0.125 118:0.0681818 119:0.0833333 120:0.0416667 121:0.09375 122:0.0906863 123:0.0673077 126:0.0416667 127:0.125 130:0.0625 133:0.125 134:0.0416667 136:0.0416667 137:0.075 139:0.104167 140:0.104167 141:0.09375 143:0.125 144:0.0972222 
1 0.1940335541003169 0 0 1:0.12 2:0.155556 3:0.12 6:0.2 7:0.2 11:0.04 13:0.1 14:0.12 15:0.2 16:0.1 17:0.133333 18:0.1 19:0.130909 20:0.2 24:0.173913 25:0.14 26:0.15 28:0.14 30:0.2 31:0.2 33:0.2 34:0.133333 37:0.111111 38:0.05 39:0.178947 41:0.2 43:0.142857 45:0.12 46:0.18 47:0.133333 49:0.2 52:0.2 53:0.0666667 54:0.16 55:0.0923077 58:0.2 60:0.1 61:0.140741 62:0.2 63:0.2 64:0.05 65:0.145455 69:0.2 70:0.2 72:0.1375 73:0.2 74:0.0666667 75:0.133333 77:0.15 78:0.1 79:0.136842 80:0.12 81:0.2 83:0.2 84:0.2 86:0.0571429 87:0.2 88:0.1125 89:0.12 90:0.0888889 91:0.12 92:0.2 93:0.144444 94:0.2 95:0.2 97:0.1 99:0.133333 100:0.2 101:0.2 102:0.2 104:0.2 105:0.1 106:0.133333 108:0.1 109:0.2 110:0.133333 111:0.142857 112:0.14 115:0.2 118:0.109091 119:0.133333 120:0.0666667 121:0.15 122:0.145098 123:0.107692 126:0.0666667 127:0.2 130:0.2 133:0.2 134:0.0666667 136:0.0666667 137:0.12 139:0.166667 140:0.166667 141:0.15 143:0.2 144:0.155556 
1 0 0 0 1:0.075 2:0.0972222 3:0.0785714 6:0.125 7:0.125 11:0.025 13:0.0625 14:0.075 15:0.125 16:0.0625 17:0.0833333 18:0.0625 19:0.0840909 20:0.125 24:0.108696 25:0.0875 26:0.09375 28:0.0875 30:0.125 31:0.125 33:0.125 34:0.0833333 37:0.0740741 38:0.0625 39:0.118421 41:0.125 43:0.0892857 45:0.075 46:0.1125 47:0.0833333 49:0.125 52:0.125 53:0.0416667 54:0.1 55:0.0576923 58:0.125 60:0.0625 61:0.087963 62:0.125 63:0.125 64:0.03125 65:0.0909091 69:0.125 70:0.125 72:0.0859375 73:0.125 74:0.0416667 75:0.0833333 77:0.09375 78:0.0833333 79:0.0899123 80:0.075 81:0.125 83:0.125 84:0.125 86:0.0357143 87:0.125 88:0.0703125 89:0.075 90:0.0555556 91:0.075 92:0.125 93:0.0902778 94:0.125 95:0.125 97:0.0625 99:0.0833333 100:0.125 101:0.125 102:0.125 104:0.125 105:0.0625 106:0.0833333 108:0.0625 109:0.125 110:0.0833333 111:0.0892857 112:0.0875 115:0.125 118:0.0681818 119:0.0833333 120:0.0416667 121:0.09375 122:0.0906863 123:0.0673077 126:0.0416667 127:0.125 130:0.125 133:0.125 134:0.0416667 136:0.0833333 137:0.075 139:0.104167 140:0.104167 141:0.09375 143:0.125 144:0.0972222 
1 0.4644918237097713 0.2800269511747061 0 1:0.2 2:0.259259 3:0.209524 6:0.333333 7:0.333333 11:0.0666667 13:0.166667 14:0.2 15:0.333333 16:0.166667 17:0.222222 18:0.166667 19:0.224242 20:0.333333 24:0.289855 25:0.233333 26:0.25 28:0.266667 30:0.333333 31:0.333333 33:0.333333 34:0.222222 37:0.197531 38:0.166667 39:0.315789 41:0.333333 43:0.238095 45:0.2 46:0.3 47:0.222222 49:0.333333 52:0.333333 53:0.111111 54:0.266667 55:0.153846 58:0.333333 60:0.166667 61:0.234568 62:0.333333 63:0.333333 64:0.0833333 65:0.242424 69:0.333333 70:0.333333 72:0.229167 73:0.333333 74:0.111111 75:0.222222 77:0.25 78:0.222222 79:0.239766 80:0.2 81:0.333333 83:0.333333 84:0.333333 86:0.0952381 87:0.333333 88:0.1875 89:0.2 90:0.148148 91:0.2 92:0.333333 93:0.240741 94:0.333333 95:0.333333 97:0.166667 99:0.222222 100:0.333333 101:0.333333 102:0.333333 104:0.333333 105:0.166667 106:0.222222 108:0.166667 109:0.333333 110:0.222222 111:0.238095 112:0.233333 115:0.333333 118:0.181818 119:0.222222 120:0.111111 121:0.25 122:0.24183 123:0.179487 126:0.111111 127:0.333333 130:0.333333 133:0.333333 134:0.111111 136:0.222222 137:0.2 139:0.277778 140:0.277778 141:0.25 143:0.333333 144:0.259259 
1 1 0 0 1:0.0666667 2:0.0864198 3:0.0730159 6:0.111111 7:0.111111 11:0.0222222 13:0.0555556 14:0.0666667 15:0.111111 16:0.0555556 17:0.0740741 18:0.0555556 19:0.0808081 20:0.111111 24:0.101449 25:0.0888889 26:0.0972222 28:0.0888889 30:0.111111 31:0.111111 33:0.111111 34:0.0740741 37:0.0658436 38:0.0555556 39:0.105263 41:0.111111 43:0.0793651 45:0.0666667 46:0.1 47:0.0740741 49:0.111111 52:0.111111 53:0.037037 54:0.0888889 55:0.0598291 58:0.111111 60:0.0555556 61:0.0823045 62:0.111111 63:0.111111 64:0.0277778 65:0.0808081 69:0.111111 70:0.111111 72:0.0833333 73:0.111111 74:0.037037 75:0.0740741 77:0.0972222 78:0.0740741 79:0.0818713 80:0.0777778 81:0.111111 82:0.0555556 83:0.111111 84:0.111111 86:0.031746 87:0.111111 88:0.0625 89:0.0666667 90:0.0493827 91:0.0888889 92:0.111111 93:0.0864198 94:0.111111 95:0.111111 97:0.0555556 99:0.111111 100:0.111111 101:0.111111 102:0.111111 104:0.111111 105:0.0555556 106:0.0740741 108:0.0740741 109:0.111111 110:0.0740741 111:0.0793651 112:0.0777778 115:0.111111 118:0.0606061 119:0.0740741 120:0.037037 121:0.0833333 122:0.0827887 123:0.0598291 126:0.037037 127:0.111111 130:0.111111 133:0.111111 134:0.037037 136:0.0740741 137:0.0666667 139:0.111111 140:0.101852 141:0.111111 143:0.111111 144:0.0864198 
1 1 0.02325621138749934 0 1:0.0857143 2:0.111111 3:0.0938776 6:0.142857 7:0.142857 11:0.0285714 13:0.0714286 14:0.0857143 15:0.142857 16:0.0714286 17:0.0952381 18:0.0714286 19:0.103896 20:0.142857 24:0.130435 25:0.114286 26:0.125 28:0.114286 30:0.142857 31:0.142857 33:0.142857 34:0.0952381 37:0.0846561 38:0.0714286 39:0.135338 41:0.142857 43:0.102041 45:0.0857143 46:0.128571 47:0.0952381 49:0.142857 52:0.142857 53:0.047619 54:0.114286 55:0.0769231 58:0.142857 60:0.0714286 61:0.10582 62:0.142857 63:0.142857 64:0.0357143 65:0.103896 69:0.142857 70:0.142857 72:0.107143 73:0.142857 74:0.047619 75:0.0952381 77:0.125 78:0.0952381 79:0.107769 80:0.1 81:0.142857 82:0.0714286 83:0.142857 84:0.142857 86:0.0408163 87:0.142857 88:0.0803571 89:0.0857143 90:0.0634921 91:0.114286 92:0.142857 93:0.111111 94:0.142857 95:0.142857 97:0.0714286 99:0.142857 100:0.142857 101:0.142857 102:0.142857 104:0.142857 105:0.0714286 106:0.0952381 108:0.0952381 109:0.142857 110:0.0952381 111:0.102041 112:0.1 115:0.142857 118:0.0779221 119:0.0952381 120:0.047619 121:0.107143 122:0.106443 123:0.0769231 126:0.047619 127:0.142857 130:0.142857 133:0.142857 134:0.047619 136:0.0952381 137:0.0857143 139:0.142857 140:0.130952 141:0.142857 143:0.142857 144:0.111111 
1 0.730988686086637 0 0 1:0.6 2:0.777778 3:0.657143 6:1 7:1 11:0.2 13:0.5 14:0.6 15:1 16:0.5 17:0.666667 18:0.5 19:0.727273 20:1 24:0.913043 25:0.8 26:0.875 28:0.8 30:1 31:1 33:1 34:0.666667 37:0.592593 38:0.5 39:0.947368 41:1 43:0.714286 45:0.6 46:0.9 47:0.666667 49:1 52:1 53:0.333333 54:0.8 55:0.538462 58:1 60:0.5 61:0.740741 62:1 63:1 64:0.25 65:0.727273 69:1 70:1 72:0.75 73:1 74:0.333333 75:0.666667 77:0.875 78:0.666667 79:0.754386 80:0.7 81:1 82:0.5 83:1 84:1 86:0.285714 87:1 88:0.5625 89:0.6 90:0.444444 91:0.8 92:1 93:0.777778 94:1 95:1 97:0.5 99:1 100:1 101:1 102:1 104:1 105:0.5 106:0.666667 108:0.666667 109:1 110:0.666667 111:0.714286 112:0.7 115:1 118:0.545455 119:0.666667 120:0.333333 121:0.75 122:0.745098 123:0.538462 126:0.333333 127:1 130:1 133:1 134:0.333333 136:0.666667 137:0.6 139:1 140:0.916667 141:1 143:1 144:0.777778 
1 1 0.1115644027842221 0 1:0.06 2:0.0777778 3:0.0657143 6:0.1 7:0.1 11:0.02 13:0.05 14:0.06 15:0.1 16:0.05 17:0.0666667 18:0.1 19:0.0727273 20:0.1 24:0.0913043 25:0.08 26:0.1 28:0.09 30:0.1 31:0.1 33:0.1 34:0.0666667 37:0.0592593 38:0.05 39:0.0947368 41:0.1 43:0.0714286 45:0.08 46:0.09 47:0.0666667 49:0.1 52:0.1 53:0.0333333 54:0.08 55:0.0538462 58:0.1 60:0.05 61:0.0740741 62:0.1 63:0.1 64:0.025 65:0.0727273 69:0.1 70:0.1 72:0.075 73:0.1 74:0.0333333 75:0.0666667 77:0.0875 78:0.0666667 79:0.0754386 80:0.07 81:0.1 82:0.05 83:0.1 84:0.1 86:0.0285714 87:0.1 88:0.05625 89:0.06 90:0.0444444 91:0.08 92:0.1 93:0.0777778 94:0.1 95:0.1 97:0.05 99:0.1 100:0.1 101:0.1 102:0.1 104:0.1 105:0.05 106:0.0666667 108:0.0666667 109:0.1 110:0.0666667 111:0.0714286 112:0.07 115:0.1 118:0.0727273 119:0.0666667 120:0.0333333 121:0.075 122:0.0745098 123:0.0538462 126:0.0333333 127:0.1 130:0.1 133:0.1 134:0.0333333 136:0.0666667 137:0.06 139:0.1 140:0.0916667 141:0.1 143:0.1 144:0.0777778 
1 1 0.8160380347917066 0 1:0.6 2:0.777778 3:0.657143 5:1 6:1 7:1 9:1 10:1 11:0.4 13:0.5 14:0.6 15:1 16:0.5 17:0.666667 18:1 19:0.781818 20:1 24:0.913043 25:0.8 26:1 28:0.9 29:1 30:1 31:1 33:1 34:0.666667 37:0.666667 38:0.5 39:0.947368 40:1 41:1 43:0.714286 44:1 45:0.8 46:0.9 47:1 49:1 52:1 53:0.333333 54:0.8 55:0.538462 58:1 60:0.5 61:0.777778 62:1 63:1 64:0.25 65:0.727273 66:1 69:1 70:1 72:0.75 73:1 74:0.333333 75:0.777778 77:0.875 78:0.666667 79:0.77193 80:0.8 81:1 82:0.5 83:1 84:1 86:0.714286 87:1 88:0.5625 89:0.6 90:0.444444 91:0.8 92:1 93:0.777778 94:1 95:1 97:0.5 99:1 100:1 101:1 102:1 104:1 105:0.5 106:0.666667 107:1 108:0.666667 109:1 110:0.733333 111:0.857143 112:0.7 113:1 115:1 118:0.818182 119:0.666667 120:0.333333 121:0.875 122:0.745098 123:0.538462 126:0.333333 127:1 130:1 131:1 133:1 134:0.333333 135:1 136:0.666667 137:0.6 139:1 140:0.916667 141:1 142:1 143:1 144:0.777778 
1 0 0.6177206817255008 0 1:0.0666667 2:0.0864198 3:0.0761905 5:0.111111 6:0.111111 7:0.111111 9:0.111111 10:0.111111 11:0.0444444 13:0.0555556 14:0.0666667 15:0.111111 16:0.0555556 17:0.0802469 18:0.111111 19:0.0909091 20:0.111111 24:0.101449 25:0.0888889 26:0.111111 28:0.1 29:0.111111 30:0.111111 31:0.111111 33:0.111111 34:0.0740741 37:0.0740741 38:0.0555556 39:0.105263 40:0.111111 41:0.111111 43:0.0793651 44:0.111111 45:0.0888889 46:0.1 47:0.111111 49:0.111111 52:0.111111 53:0.037037 54:0.0888889 55:0.0683761 58:0.111111 60:0.0555556 61:0.090535 62:0.111111 63:0.111111 64:0.0277778 65:0.0808081 66:0.111111 69:0.111111 70:0.111111 72:0.0833333 73:0.111111 74:0.0740741 75:0.0864198 77:0.0972222 78:0.0740741 79:0.08577 80:0.0888889 81:0.111111 82:0.0555556 83:0.111111 84:0.111111 86:0.0793651 87:0.111111 88:0.0625 89:0.0666667 90:0.0493827 91:0.0888889 92:0.111111 93:0.0864198 94:0.111111 95:0.111111 97:0.0555556 99:0.111111 100:0.111111 101:0.111111 102:0.111111 104:0.111111 105:0.0555556 106:0.0740741 107:0.111111 108:0.0740741 109:0.111111 110:0.0814815 111:0.0952381 112:0.0777778 113:0.111111 114:0.037037 115:0.111111 118:0.0909091 119:0.0740741 120:0.037037 121:0.0972222 122:0.0827887 123:0.0598291 126:0.037037 127:0.111111 130:0.111111 131:0.111111 133:0.111111 134:0.037037 135:0.111111 136:0.0740741 137:0.0666667 139:0.111111 140:0.101852 141:0.111111 142:0.111111 143:0.111111 144:0.0864198 
1 0.4326197242967356 0 0 1:0.0375 2:0.0486111 3:0.0446429 5:0.0625 6:0.0625 7:0.0625 9:0.0625 10:0.0625 11:0.025 13:0.03125 14:0.0375 15:0.0625 16:0.0357143 17:0.0451389 18:0.0625 19:0.0511364 20:0.0625 24:0.0570652 25:0.05 26:0.0625 28:0.05625 29:0.0625 30:0.0625 31:0.0625 33:0.0625 34:0.0416667 37:0.0416667 38:0.046875 39:0.0592105 40:0.0625 41:0.0625 43:0.0446429 44:0.0625 45:0.05 46:0.05625 47:0.0625 49:0.0625 52:0.0625 53:0.0208333 54:0.05 55:0.0384615 58:0.0625 60:0.03125 61:0.0509259 62:0.0625 63:0.0625 64:0.015625 65:0.0482955 66:0.0625 69:0.0625 70:0.0625 72:0.046875 73:0.0625 74:0.0416667 75:0.0486111 77:0.0546875 78:0.0416667 79:0.0493421 80:0.05 81:0.0625 82:0.03125 83:0.0625 84:0.0625 86:0.0446429 87:0.0625 88:0.0351563 89:0.0375 90:0.0277778 91:0.05 92:0.0625 93:0.0486111 94:0.0625 95:0.0625 97:0.03125 99:0.0625 100:0.0625 101:0.0625 102:0.0625 104:0.0625 105:0.0625 106:0.0486111 107:0.0625 108:0.0416667 109:0.0625 110:0.0458333 111:0.0535714 112:0.04375 113:0.0625 114:0.0208333 115:0.0625 116:0.03125 118:0.0511364 119:0.0416667 120:0.0416667 121:0.0546875 122:0.0465686 123:0.0336538 126:0.0208333 127:0.0625 130:0.0625 131:0.0625 133:0.0625 134:0.0208333 135:0.0625 136:0.0416667 137:0.0375 139:0.0625 140:0.0572917 141:0.0625 142:0.0625 143:0.0625 144:0.0486111 
1 0 0 0.07393075285006132 1:0.3 2:0.388889 3:0.371429 5:0.5 6:0.5 7:0.5 9:0.5 10:0.5 11:0.2 13:0.25 14:0.3 15:0.5 16:0.285714 17:0.361111 18:0.5 19:0.409091 20:0.5 24:0.456522 25:0.4 26:0.5 28:0.45 29:0.5 30:0.5 31:0.5 33:0.5 34:0.333333 37:0.333333 38:0.375 39:0.473684 40:0.5 41:0.5 43:0.357143 44:0.5 45:0.4 46:0.45 47:0.5 49:0.5 52:0.5 53:0.166667 54:0.4 55:0.307692 58:0.5 60:0.25 61:0.407407 62:0.5 63:0.5 64:0.125 65:0.386364 66:0.5 69:0.5 70:0.5 72:0.375 73:0.5 74:0.333333 75:0.388889 77:0.4375 78:0.333333 79:0.394737 80:0.4 81:0.5 82:0.25 83:0.5 84:0.5 86:0.357143 87:0.5 88:0.28125 89:0.3 90:0.222222 91:0.4 92:0.5 93:0.388889 94:0.5 95:0.5 97:0.25 99:0.5 100:0.5 101:0.5 102:0.5 104:0.5 105:0.5 106:0.388889 107:0.5 108:0.333333 109:0.5 110:0.366667 111:0.428571 112:0.35 113:0.5 114:0.166667 115:0.5 116:0.25 118:0.409091 119:0.333333 120:0.333333 121:0.4375 122:0.372549 123:0.307692 126:0.166667 127:0.5 130:0.5 131:0.5 133:0.5 134:0.166667 135:0.5 136:0.333333 137:0.3 139:0.5 140:0.458333 141:0.5 142:0.5 143:0.5 144:0.388889 
1 1 0.0174935844735244 0 1:0.6 2:0.777778 3:0.742857 5:1 6:1 7:1 9:1 10:1 11:0.4 13:0.5 14:0.6 15:1 16:0.571429 17:0.722222 18:1 19:0.818182 20:1 24:0.913043 25:0.8 26:1 28:0.9 29:1 30:1 31:1 33:1 34:0.666667 37:0.740741 38:0.75 39:0.947368 40:1 41:1 43:0.714286 44:1 45:0.8 46:1 47:1 49:1 52:1 53:0.333333 54:0.8 55:0.615385 58:1 60:0.5 61:0.814815 62:1 63:1 64:0.25 65:0.772727 66:1 69:1 70:1 72:0.75 73:1 74:0.666667 75:0.777778 77:0.875 78:0.666667 79:0.789474 80:0.8 81:1 82:0.5 83:1 84:1 86:0.714286 87:1 88:0.5625 89:0.6 90:0.444444 91:0.8 92:1 93:0.777778 94:1 95:1 97:0.5 99:1 100:1 101:1 102:1 104:1 105:1 106:0.777778 107:1 108:0.666667 109:1 110:0.733333 111:0.857143 112:0.7 113:1 114:0.333333 115:1 116:0.5 118:0.818182 119:0.666667 120:0.666667 121:0.875 122:0.745098 123:0.615385 126:0.333333 127:1 130:1 131:1 133:1 134:0.333333 135:1 136:0.666667 137:0.6 139:1 140:0.916667 141:1 142:1 143:1 144:0.777778 
1 0 0.445209705601976 0.5083409471954313 1:0.2 2:0.259259 3:0.247619 5:0.333333 6:0.333333 7:0.333333 9:0.333333 10:0.333333 11:0.133333 13:0.166667 14:0.2 15:0.333333 16:0.190476 17:0.240741 18:0.333333 19:0.272727 20:0.333333 24:0.304348 25:0.266667 26:0.333333 28:0.3 29:0.333333 30:0.333333 31:0.333333 33:0.333333 34:0.222222 37:0.246914 38:0.25 39:0.315789 40:0.333333 41:0.333333 43:0.238095 44:0.333333 45:0.266667 46:0.333333 47:0.333333 49:0.333333 52:0.333333 53:0.111111 54:0.266667 55:0.205128 58:0.333333 60:0.166667 61:0.271605 62:0.333333 63:0.333333 64:0.0833333 65:0.257576 66:0.333333 69:0.333333 70:0.333333 72:0.25 73:0.333333 74:0.222222 75:0.259259 77:0.291667 78:0.222222 79:0.263158 80:0.266667 81:0.333333 82:0.166667 83:0.333333 84:0.333333 86:0.238095 87:0.333333 88:0.1875 89:0.2 90:0.148148 91:0.266667 92:0.333333 93:0.259259 94:0.333333 95:0.333333 97:0.166667 99:0.333333 100:0.333333 101:0.333333 102:0.333333 104:0.333333 105:0.333333 106:0.259259 107:0.333333 108:0.222222 109:0.333333 110:0.244444 111:0.285714 112:0.233333 113:0.333333 114:0.111111 115:0.333333 116:0.166667 118:0.272727 119:0.222222 120:0.222222 121:0.291667 122:0.254902 123:0.205128 126:0.111111 127:0.333333 130:0.333333 131:0.333333 133:0.333333 134:0.111111 135:0.333333 136:0.222222 137:0.2 139:0.333333 140:0.305556 141:0.333333 142:0.333333 143:0.333333 144:0.259259 
1 0 0.7505763426680289 0 1:0.3 2:0.388889 3:0.371429 5:0.5 6:0.5 7:0.5 9:0.5 10:0.5 11:0.2 13:0.25 14:0.3 15:0.5 16:0.285714 17:0.361111 18:0.5 19:0.409091 20:0.5 24:0.478261 25:0.4 26:0.5 28:0.45 29:0.5 30:0.5 31:0.5 33:0.5 34:0.333333 37:0.37037 38:0.375 39:0.473684 40:0.5 41:0.5 43:0.357143 44:0.5 45:0.4 46:0.5 47:0.5 49:0.5 52:0.5 53:0.166667 54:0.4 55:0.307692 58:0.5 60:0.25 61:0.407407 62:0.5 63:0.5 64:0.125 65:0.386364 66:0.5 69:0.5 70:0.5 72:0.375 73:0.5 74:0.333333 75:0.388889 77:0.4375 78:0.333333 79:0.394737 80:0.4 81:0.5 82:0.25 83:0.5 84:0.5 86:0.357143 87:0.5 88:0.28125 89:0.3 90:0.222222 91:0.4 92:0.5 93:0.388889 94:0.5 95:0.5 97:0.25 99:0.5 100:0.5 101:0.5 102:0.5 104:0.5 105:0.5 106:0.388889 107:0.5 108:0.333333 109:0.5 110:0.366667 111:0.428571 112:0.35 113:0.5 114:0.166667 115:0.5 116:0.25 118:0.409091 119:0.333333 120:0.333333 121:0.4375 122:0.382353 123:0.307692 126:0.166667 127:0.5 130:0.5 131:0.5 133:0.5 134:0.166667 135:0.5 136:0.333333 137:0.3 139:0.5 140:0.458333 141:0.5 142:0.5 143:0.5 144:0.388889 
1 0.9795408935541921 0.6418550536974287 0 1:0.3 2:0.388889 3:0.371429 5:0.5 6:0.5 7:0.5 9:0.5 10:0.5 11:0.2 13:0.25 14:0.3 15:0.5 16:0.285714 17:0.361111 18:0.5 19:0.409091 20:0.5 24:0.478261 25:0.4 26:0.5 28:0.45 29:0.5 30:0.5 31:0.5 33:0.5 34:0.333333 37:0.37037 38:0.375 39:0.473684 40:0.5 41:0.5 43:0.357143 44:0.5 45:0.4 46:0.5 47:0.5 49:0.5 52:0.5 53:0.166667 54:0.4 55:0.307692 58:0.5 60:0.25 61:0.407407 62:0.5 63:0.5 64:0.125 65:0.386364 66:0.5 69:0.5 70:0.5 72:0.375 73:0.5 74:0.5 75:0.388889 77:0.4375 78:0.416667 79:0.394737 80:0.4 81:0.5 82:0.25 83:0.5 84:0.5 86:0.357143 87:0.5 88:0.28125 89:0.3 90:0.222222 91:0.4 92:0.5 93:0.388889 94:0.5 95:0.5 97:0.25 99:0.5 100:0.5 101:0.5 102:0.5 104:0.5 105:0.5 106:0.388889 107:0.5 108:0.333333 109:0.5 110:0.366667 111:0.428571 112:0.35 113:0.5 114:0.166667 115:0.5 116:0.25 118:0.409091 119:0.333333 120:0.333333 121:0.4375 122:0.382353 123:0.307692 126:0.166667 127:0.5 130:0.5 131:0.5 133:0.5 134:0.166667 135:0.5 136:0.333333 137:0.3 139:0.5 140:0.458333 141:0.5 142:0.5 143:0.5 144:0.388889 
1 0 0 0 1:0.0545455 2:0.0707071 3:0.0675325 5:0.0909091 6:0.0909091 7:0.0909091 9:0.0909091 10:0.0909091 11:0.0363636 13:0.0454545 14:0.0545455 15:0.0909091 16:0.0519481 17:0.0656566 18:0.0909091 19:0.0743802 20:0.0909091 24:0.0869565 25:0.0727273 26:0.0909091 28:0.0818182 29:0.0909091 30:0.0909091 31:0.0909091 33:0.0909091 34:0.0606061 37:0.0673401 38:0.0681818 39:0.0861244 40:0.0909091 41:0.0909091 43:0.0649351 44:0.0909091 45:0.0727273 46:0.0909091 47:0.0909091 49:0.0909091 52:0.0909091 53:0.030303 54:0.0727273 55:0.0559441 58:0.0909091 60:0.0454545 61:0.0740741 62:0.0909091 63:0.0909091 64:0.0227273 65:0.0702479 66:0.0909091 69:0.0909091 70:0.0909091 72:0.0681818 73:0.0909091 74:0.0909091 75:0.0707071 77:0.0795455 78:0.0757576 79:0.0717703 80:0.0727273 81:0.0909091 82:0.0454545 83:0.0909091 84:0.0909091 86:0.0779221 87:0.0909091 88:0.0511364 89:0.0545455 90:0.043771 91:0.0727273 92:0.0909091 93:0.0707071 94:0.0909091 95:0.0909091 97:0.0454545 99:0.0909091 100:0.0909091 101:0.0909091 102:0.0909091 104:0.0909091 105:0.0909091 106:0.0707071 107:0.0909091 108:0.0606061 109:0.0909091 110:0.0666667 111:0.0779221 112:0.0636364 113:0.0909091 114:0.030303 115:0.0909091 116:0.0454545 118:0.0743802 119:0.0606061 120:0.0606061 121:0.0795455 122:0.0695187 123:0.0559441 126:0.030303 127:0.0909091 130:0.0909091 131:0.0909091 133:0.0909091 134:0.030303 135:0.0909091 136:0.0606061 137:0.0545455 139:0.0909091 140:0.0833333 141:0.0909091 142:0.0909091 143:0.0909091 144:0.0707071 
1 0 0 0 1:0.0428571 2:0.0555556 3:0.0530612 5:0.0714286 6:0.0714286 7:0.0714286 9:0.0714286 10:0.0714286 11:0.0285714 13:0.0357143 14:0.0428571 15:0.0714286 16:0.0408163 17:0.0515873 18:0.0714286 19:0.0597403 20:0.0714286 24:0.068323 25:0.0571429 26:0.0714286 28:0.0642857 29:0.0714286 30:0.0714286 31:0.0714286 33:0.0714286 34:0.047619 37:0.0529101 38:0.0535714 39:0.0676692 40:0.0714286 41:0.0714286 43:0.0510204 44:0.0714286 45:0.0571429 46:0.0714286 47:0.0714286 48:0.0714286 49:0.0714286 52:0.0714286 53:0.047619 54:0.0571429 55:0.043956 57:0.0357143 58:0.0714286 60:0.0357143 61:0.0634921 62:0.0714286 63:0.0714286 64:0.0178571 65:0.0551948 66:0.0714286 69:0.0714286 70:0.0714286 72:0.0535714 73:0.0714286 74:0.0714286 75:0.0555556 77:0.0625 78:0.0595238 79:0.0588972 80:0.0571429 81:0.0714286 82:0.0357143 83:0.0714286 84:0.0714286 86:0.0612245 87:0.0714286 88:0.0401786 89:0.0428571 90:0.0343915 91:0.0571429 92:0.0714286 93:0.0555556 94:0.0714286 95:0.0714286 97:0.0357143 99:0.0714286 100:0.0714286 101:0.0714286 102:0.0714286 104:0.0714286 105:0.0714286 106:0.0555556 107:0.0714286 108:0.047619 109:0.0714286 110:0.052381 111:0.0714286 112:0.05 113:0.0714286 114:0.0238095 115:0.0714286 116:0.0357143 118:0.0584416 119:0.047619 120:0.047619 121:0.0625 122:0.0560224 123:0.043956 126:0.0238095 127:0.0714286 129:0.0238095 130:0.0714286 131:0.0714286 133:0.0714286 134:0.0238095 135:0.0714286 136:0.0714286 137:0.0428571 139:0.0714286 140:0.0654762 141:0.0714286 142:0.0714286 143:0.0714286 144:0.0555556 
1 0.2434002112121799 0 0 1:0.0857143 2:0.111111 3:0.106122 5:0.142857 6:0.142857 7:0.142857 9:0.142857 10:0.142857 11:0.0571429 13:0.0714286 14:0.0857143 15:0.142857 16:0.102041 17:0.103175 18:0.142857 19:0.119481 20:0.142857 24:0.136646 25:0.114286 26:0.142857 28:0.128571 29:0.142857 30:0.142857 31:0.142857 33:0.142857 34:0.0952381 37:0.10582 38:0.107143 39:0.135338 40:0.142857 41:0.142857 43:0.102041 44:0.142857 45:0.114286 46:0.142857 47:0.142857 48:0.142857 49:0.142857 52:0.142857 53:0.0952381 54:0.114286 55:0.0879121 57:0.0714286 58:0.142857 60:0.0714286 61:0.126984 62:0.142857 63:0.142857 64:0.0357143 65:0.11039 66:0.142857 69:0.142857 70:0.142857 72:0.107143 73:0.142857 74:0.142857 75:0.111111 77:0.125 78:0.119048 79:0.117794 80:0.128571 81:0.142857 82:0.0714286 83:0.142857 84:0.142857 86:0.122449 87:0.142857 88:0.0803571 89:0.0857143 90:0.0687831 91:0.114286 92:0.142857 93:0.111111 94:0.142857 95:0.142857 97:0.0714286 99:0.142857 100:0.142857 101:0.142857 102:0.142857 104:0.142857 105:0.142857 106:0.111111 107:0.142857 108:0.0952381 109:0.142857 110:0.104762 111:0.142857 112:0.1 113:0.142857 114:0.047619 115:0.142857 116:0.0714286 118:0.116883 119:0.0952381 120:0.0952381 121:0.125 122:0.114846 123:0.0879121 126:0.0595238 127:0.142857 129:0.047619 130:0.142857 131:0.142857 133:0.142857 134:0.047619 135:0.142857 136:0.142857 137:0.0857143 139:0.142857 140:0.130952 141:0.142857 142:0.142857 143:0.142857 144:0.111111 
1 0.3221313974642355 0 0 1:0.2 2:0.259259 3:0.257143 5:0.333333 6:0.333333 7:0.333333 9:0.333333 10:0.333333 11:0.133333 13:0.166667 14:0.2 15:0.333333 16:0.238095 17:0.240741 18:0.333333 19:0.278788 20:0.333333 24:0.318841 25:0.266667 26:0.333333 28:0.3 29:0.333333 30:0.333333 31:0.333333 33:0.333333 34:0.222222 37:0.246914 38:0.25 39:0.315789 40:0.333333 41:0.333333 43:0.238095 44:0.333333 45:0.266667 46:0.333333 47:0.333333 48:0.333333 49:0.333333 52:0.333333 53:0.222222 54:0.266667 55:0.205128 57:0.166667 58:0.333333 60:0.166667 61:0.296296 62:0.333333 63:0.333333 64:0.0833333 65:0.257576 66:0.333333 69:0.333333 70:0.333333 72:0.25 73:0.333333 74:0.333333 75:0.259259 77:0.291667 78:0.277778 79:0.274854 80:0.3 81:0.333333 82:0.166667 83:0.333333 84:0.333333 86:0.285714 87:0.333333 88:0.1875 89:0.2 90:0.160494 91:0.266667 92:0.333333 93:0.259259 94:0.333333 95:0.333333 97:0.166667 99:0.333333 100:0.333333 101:0.333333 102:0.333333 104:0.333333 105:0.333333 106:0.259259 107:0.333333 108:0.222222 109:0.333333 110:0.244444 111:0.333333 112:0.233333 113:0.333333 114:0.111111 115:0.333333 116:0.166667 118:0.272727 119:0.222222 120:0.222222 121:0.291667 122:0.267974 123:0.205128 126:0.138889 127:0.333333 129:0.111111 130:0.333333 131:0.333333 133:0.333333 134:0.111111 135:0.333333 136:0.333333 137:0.2 139:0.333333 140:0.305556 141:0.333333 142:0.333333 143:0.333333 144:0.259259 
1 0.4260242538526764 0.07981816603347081 0 1:0.15 2:0.194444 3:0.192857 5:0.25 6:0.25 7:0.25 9:0.25 10:0.25 11:0.1 13:0.125 14:0.15 15:0.25 16:0.178571 17:0.180556 18:0.25 19:0.213636 20:0.25 24:0.23913 25:0.2 26:0.25 28:0.225 29:0.25 30:0.25 31:0.25 33:0.25 34:0.166667 37:0.185185 38:0.1875 39:0.25 40:0.25 41:0.25 43:0.178571 44:0.25 45:0.2 46:0.25 47:0.25 48:0.25 49:0.25 51:0.25 52:0.25 53:0.25 54:0.2 55:0.153846 57:0.125 58:0.25 60:0.125 61:0.222222 62:0.25 63:0.25 64:0.0625 65:0.193182 66:0.25 69:0.25 70:0.25 72:0.1875 73:0.25 74:0.25 75:0.194444 77:0.21875 78:0.208333 79:0.210526 80:0.225 81:0.25 82:0.125 83:0.25 84:0.25 86:0.25 87:0.25 88:0.140625 89:0.175 90:0.12037 91:0.2 92:0.25 93:0.194444 94:0.25 95:0.25 97:0.125 99:0.25 100:0.25 101:0.25 102:0.25 104:0.25 105:0.25 106:0.194444 107:0.25 108:0.166667 109:0.25 110:0.2 111:0.25 112:0.175 113:0.25 114:0.0833333 115:0.25 116:0.125 118:0.204545 119:0.166667 120:0.166667 121:0.21875 122:0.20098 123:0.153846 126:0.104167 127:0.25 129:0.0833333 130:0.25 131:0.25 133:0.25 134:0.0833333 135:0.25 136:0.25 137:0.15 139:0.25 140:0.229167 141:0.25 142:0.25 143:0.25 144:0.222222 
1 0.7850632803678525 0.4264261139566744 0.771165945728463 1:0.2 2:0.259259 3:0.257143 5:0.333333 6:0.333333 7:0.333333 9:0.333333 10:0.333333 11:0.133333 13:0.166667 14:0.2 15:0.333333 16:0.238095 17:0.240741 18:0.333333 19:0.284848 20:0.333333 24:0.318841 25:0.266667 26:0.333333 28:0.3 29:0.333333 30:0.333333 31:0.333333 33:0.333333 34:0.222222 37:0.246914 38:0.25 39:0.333333 40:0.333333 41:0.333333 43:0.238095 44:0.333333 45:0.266667 46:0.333333 47:0.333333 48:0.333333 49:0.333333 51:0.333333 52:0.333333 53:0.333333 54:0.266667 55:0.230769 57:0.166667 58:0.333333 60:0.166667 61:0.308642 62:0.333333 63:0.333333 64:0.0833333 65:0.257576 66:0.333333 69:0.333333 70:0.333333 72:0.25 73:0.333333 74:0.333333 75:0.259259 77:0.291667 78:0.277778 79:0.28655 80:0.3 81:0.333333 82:0.166667 83:0.333333 84:0.333333 86:0.333333 87:0.333333 88:0.208333 89:0.233333 90:0.160494 91:0.266667 92:0.333333 93:0.259259 94:0.333333 95:0.333333 97:0.166667 99:0.333333 100:0.333333 101:0.333333 102:0.333333 104:0.333333 105:0.333333 106:0.259259 107:0.333333 108:0.222222 109:0.333333 110:0.266667 111:0.333333 112:0.233333 113:0.333333 114:0.111111 115:0.333333 116:0.166667 118:0.272727 119:0.222222 120:0.222222 121:0.291667 122:0.27451 123:0.205128 126:0.138889 127:0.333333 129:0.111111 130:0.333333 131:0.333333 133:0.333333 134:0.111111 135:0.333333 136:0.333333 137:0.2 139:0.333333 140:0.305556 141:0.333333 142:0.333333 143:0.333333 144:0.296296 
1 1 1 0 1:0.0666667 2:0.0648148 3:0.0642857 4:0.0833333 5:0.0833333 6:0.0833333 7:0.0833333 9:0.0833333 10:0.0833333 11:0.05 13:0.0416667 14:0.05 15:0.0833333 16:0.0714286 17:0.0648148 18:0.0833333 19:0.0757576 20:0.0833333 23:0.0833333 24:0.0797101 25:0.0666667 26:0.0833333 28:0.075 29:0.0833333 30:0.0833333 31:0.0833333 33:0.0833333 34:0.0555556 36:0.0833333 37:0.0648148 38:0.0625 39:0.0833333 40:0.0833333 41:0.0833333 42:0.0833333 43:0.0595238 44:0.0833333 45:0.0833333 46:0.0833333 47:0.0833333 48:0.0833333 49:0.0833333 51:0.0833333 52:0.0833333 53:0.0833333 54:0.0833333 55:0.0576923 56:0.0833333 57:0.0833333 58:0.0833333 60:0.0416667 61:0.0771605 62:0.0833333 63:0.0833333 64:0.0416667 65:0.0681818 66:0.0833333 68:0.0833333 69:0.0833333 70:0.0833333 72:0.0729167 73:0.0833333 74:0.0833333 75:0.0833333 77:0.0833333 78:0.0694444 79:0.0774854 80:0.075 81:0.0833333 82:0.0416667 83:0.0833333 84:0.0833333 86:0.0833333 87:0.0833333 88:0.0572917 89:0.0666667 90:0.0462963 91:0.0666667 92:0.0833333 93:0.0694444 94:0.0833333 95:0.0833333 97:0.0416667 99:0.0833333 100:0.0833333 101:0.0833333 102:0.0833333 103:0.0833333 104:0.0833333 105:0.0833333 106:0.0740741 107:0.0833333 108:0.0833333 109:0.0833333 110:0.0722222 111:0.0833333 112:0.0583333 113:0.0833333 114:0.0277778 115:0.0833333 116:0.0416667 117:0.0833333 118:0.0757576 119:0.0555556 120:0.0555556 121:0.0833333 122:0.0767974 123:0.0512821 124:0.0833333 125:0.0555556 126:0.0555556 127:0.0833333 129:0.0833333 130:0.0833333 131:0.0833333 133:0.0833333 134:0.0555556 135:0.0833333 136:0.0833333 137:0.0583333 138:0.0416667 139:0.0833333 140:0.0763889 141:0.0833333 142:0.0833333 143:0.0833333 144:0.0833333 
1 1 0.4080260364616152 1 1:0.16 2:0.155556 3:0.154286 4:0.2 5:0.2 6:0.2 7:0.2 9:0.2 10:0.2 11:0.16 12:0.2 13:0.1 14:0.12 15:0.2 16:0.171429 17:0.155556 18:0.2 19:0.185455 20:0.2 23:0.2 24:0.191304 25:0.16 26:0.2 28:0.18 29:0.2 30:0.2 31:0.2 32:0.2 33:0.2 34:0.133333 36:0.2 37:0.155556 38:0.15 39:0.2 40:0.2 41:0.2 42:0.2 43:0.142857 44:0.2 45:0.2 46:0.2 47:0.2 48:0.2 49:0.2 51:0.2 52:0.2 53:0.2 54:0.2 55:0.138462 56:0.2 57:0.2 58:0.2 60:0.1 61:0.192593 62:0.2 63:0.2 64:0.1 65:0.163636 66:0.2 68:0.2 69:0.2 70:0.2 72:0.1875 73:0.2 74:0.2 75:0.2 77:0.2 78:0.166667 79:0.185965 80:0.18 81:0.2 82:0.1 83:0.2 84:0.2 86:0.2 87:0.2 88:0.1375 89:0.16 90:0.118519 91:0.16 92:0.2 93:0.188889 94:0.2 95:0.2 96:0.2 97:0.1 99:0.2 100:0.2 101:0.2 102:0.2 103:0.2 104:0.2 105:0.2 106:0.177778 107:0.2 108:0.2 109:0.2 110:0.186667 111:0.2 112:0.14 113:0.2 114:0.0666667 115:0.2 116:0.2 117:0.2 118:0.181818 119:0.133333 120:0.133333 121:0.2 122:0.184314 123:0.123077 124:0.2 125:0.133333 126:0.133333 127:0.2 129:0.2 130:0.2 131:0.2 133:0.2 134:0.133333 135:0.2 136:0.2 137:0.16 138:0.1 139:0.2 140:0.183333 141:0.2 142:0.2 143:0.2 144:0.2 
1 0 0 0 1:0.114286 2:0.142857 3:0.118367 4:0.142857 5:0.142857 6:0.142857 7:0.142857 8:0.142857 9:0.142857 10:0.142857 11:0.114286 12:0.142857 13:0.0714286 14:0.114286 15:0.142857 16:0.122449 17:0.111111 18:0.142857 19:0.137662 20:0.142857 22:0.142857 23:0.142857 24:0.136646 25:0.128571 26:0.142857 28:0.128571 29:0.142857 30:0.142857 31:0.142857 32:0.142857 33:0.142857 34:0.142857 36:0.142857 37:0.111111 38:0.142857 39:0.142857 40:0.142857 41:0.142857 42:0.142857 43:0.102041 44:0.142857 45:0.142857 46:0.142857 47:0.142857 48:0.142857 49:0.142857 51:0.142857 52:0.142857 53:0.142857 54:0.142857 55:0.120879 56:0.142857 57:0.142857 58:0.142857 60:0.0714286 61:0.137566 62:0.142857 63:0.142857 64:0.0714286 65:0.123377 66:0.142857 67:0.142857 68:0.142857 69:0.142857 70:0.142857 72:0.142857 73:0.142857 74:0.142857 75:0.142857 76:0.142857 77:0.142857 78:0.142857 79:0.135338 80:0.128571 81:0.142857 82:0.0714286 83:0.142857 84:0.142857 86:0.142857 87:0.142857 88:0.142857 89:0.114286 90:0.10582 91:0.114286 92:0.142857 93:0.134921 94:0.142857 95:0.142857 96:0.142857 97:0.0714286 98:0.142857 99:0.142857 100:0.142857 101:0.142857 102:0.142857 103:0.142857 104:0.142857 105:0.142857 106:0.126984 107:0.142857 108:0.142857 109:0.142857 110:0.142857 111:0.142857 112:0.114286 113:0.142857 114:0.0952381 115:0.142857 116:0.142857 117:0.142857 118:0.142857 119:0.142857 120:0.142857 121:0.142857 122:0.131653 123:0.10989 124:0.142857 125:0.142857 126:0.0952381 127:0.142857 129:0.142857 130:0.142857 131:0.142857 133:0.142857 134:0.142857 135:0.142857 136:0.142857 137:0.114286 138:0.142857 139:0.142857 140:0.130952 141:0.142857 142:0.142857 143:0.142857 144:0.142857 
1 0 0 0 1:0.114286 2:0.142857 3:0.118367 4:0.142857 5:0.142857 6:0.142857 7:0.142857 8:0.142857 9:0.142857 10:0.142857 11:0.114286 12:0.142857 13:0.0714286 14:0.114286 15:0.142857 16:0.122449 17:0.111111 18:0.142857 19:0.14026 20:0.142857 22:0.142857 23:0.142857 24:0.136646 25:0.128571 26:0.142857 28:0.128571 29:0.142857 30:0.142857 31:0.142857 32:0.142857 33:0.142857 34:0.142857 36:0.142857 37:0.111111 38:0.142857 39:0.142857 40:0.142857 41:0.142857 42:0.142857 43:0.102041 44:0.142857 45:0.142857 46:0.142857 47:0.142857 48:0.142857 49:0.142857 51:0.142857 52:0.142857 53:0.142857 54:0.142857 55:0.120879 56:0.142857 57:0.142857 58:0.142857 60:0.0714286 61:0.137566 62:0.142857 63:0.142857 64:0.0714286 65:0.123377 66:0.142857 67:0.142857 68:0.142857 69:0.142857 70:0.142857 72:0.142857 73:0.142857 74:0.142857 75:0.142857 76:0.142857 77:0.142857 78:0.142857 79:0.135338 80:0.128571 81:0.142857 82:0.0714286 83:0.142857 84:0.142857 86:0.142857 87:0.142857 88:0.142857 89:0.114286 90:0.10582 91:0.114286 92:0.142857 93:0.134921 94:0.142857 95:0.142857 96:0.142857 97:0.0714286 98:0.142857 99:0.142857 100:0.142857 101:0.142857 102:0.142857 103:0.142857 104:0.142857 105:0.142857 106:0.126984 107:0.142857 108:0.142857 109:0.142857 110:0.142857 111:0.142857 112:0.114286 113:0.142857 114:0.0952381 115:0.142857 116:0.142857 117:0.142857 118:0.142857 119:0.142857 120:0.142857 121:0.142857 122:0.134454 123:0.10989 124:0.142857 125:0.142857 126:0.0952381 127:0.142857 129:0.142857 130:0.142857 131:0.142857 133:0.142857 134:0.142857 135:0.142857 136:0.142857 137:0.114286 138:0.142857 139:0.142857 140:0.130952 141:0.142857 142:0.142857 143:0.142857 144:0.142857 
1 0 0 0 1:0.0307692 2:0.0384615 3:0.0340659 4:0.0384615 5:0.0384615 6:0.0384615 7:0.0384615 8:0.0384615 9:0.0384615 10:0.0384615 11:0.0307692 12:0.0384615 13:0.0192308 14:0.0307692 15:0.0384615 16:0.032967 17:0.034188 18:0.0384615 19:0.0377622 20:0.0384615 22:0.0384615 23:0.0384615 24:0.0367893 25:0.0346154 26:0.0384615 28:0.0346154 29:0.0384615 30:0.0384615 31:0.0384615 32:0.0384615 33:0.0384615 34:0.0384615 36:0.0384615 37:0.0299145 38:0.0384615 39:0.0384615 40:0.0384615 41:0.0384615 42:0.0384615 43:0.0274725 44:0.0384615 45:0.0384615 46:0.0384615 47:0.0384615 48:0.0384615 49:0.0384615 51:0.0384615 52:0.0384615 53:0.0384615 54:0.0384615 55:0.0325444 56:0.0384615 57:0.0384615 58:0.0384615 60:0.0192308 61:0.037037 62:0.0384615 63:0.0384615 64:0.0192308 65:0.034965 66:0.0384615 67:0.0384615 68:0.0384615 69:0.0384615 70:0.0384615 72:0.0384615 73:0.0384615 74:0.0384615 75:0.0384615 76:0.0384615 77:0.0384615 78:0.0384615 79:0.0364372 80:0.0346154 81:0.0384615 82:0.0192308 83:0.0384615 84:0.0384615 86:0.0384615 87:0.0384615 88:0.0384615 89:0.0307692 90:0.02849 91:0.0307692 92:0.0384615 93:0.0363248 94:0.0384615 95:0.0384615 96:0.0384615 97:0.0192308 98:0.0384615 99:0.0384615 100:0.0384615 101:0.0384615 102:0.0384615 103:0.0384615 104:0.0384615 105:0.0384615 106:0.034188 107:0.0384615 108:0.0384615 109:0.0384615 110:0.0384615 111:0.0384615 112:0.0307692 113:0.0384615 114:0.025641 115:0.0384615 116:0.0384615 117:0.0384615 118:0.0384615 119:0.0384615 120:0.0384615 121:0.0384615 122:0.0361991 123:0.035503 124:0.0384615 125:0.0384615 126:0.025641 127:0.0384615 129:0.0384615 130:0.0384615 131:0.0384615 133:0.0384615 134:0.0384615 135:0.0384615 136:0.0384615 137:0.0307692 138:0.0384615 139:0.0384615 140:0.0352564 141:0.0384615 142:0.0384615 143:0.0384615 144:0.0384615 
1 0 0 0 1:0.05 2:0.0625 3:0.0553571 4:0.0625 5:0.0625 6:0.0625 7:0.0625 8:0.0625 9:0.0625 10:0.0625 11:0.05 12:0.0625 13:0.03125 14:0.05 15:0.0625 16:0.0535714 17:0.0555556 18:0.0625 19:0.0613636 20:0.0625 22:0.0625 23:0.0625 24:0.0597826 25:0.05625 26:0.0625 28:0.05625 29:0.0625 30:0.0625 31:0.0625 32:0.0625 33:0.0625 34:0.0625 36:0.0625 37:0.0486111 38:0.0625 39:0.0625 40:0.0625 41:0.0625 42:0.0625 43:0.0446429 44:0.0625 45:0.0625 46:0.0625 47:0.0625 48:0.0625 49:0.0625 51:0.0625 52:0.0625 53:0.0625 54:0.0625 55:0.0528846 56:0.0625 57:0.0625 58:0.0625 60:0.03125 61:0.0601852 62:0.0625 63:0.0625 64:0.03125 65:0.0568182 66:0.0625 67:0.0625 68:0.0625 69:0.0625 70:0.0625 72:0.0625 73:0.0625 74:0.0625 75:0.0625 76:0.0625 77:0.0625 78:0.0625 79:0.0592105 80:0.0625 81:0.0625 82:0.03125 83:0.0625 84:0.0625 86:0.0625 87:0.0625 88:0.0625 89:0.05 90:0.0486111 91:0.05 92:0.0625 93:0.0625 94:0.0625 95:0.0625 96:0.0625 97:0.03125 98:0.0625 99:0.0625 100:0.0625 101:0.0625 102:0.0625 103:0.0625 104:0.0625 105:0.0625 106:0.0555556 107:0.0625 108:0.0625 109:0.0625 110:0.0625 111:0.0625 112:0.05 113:0.0625 114:0.0416667 115:0.0625 116:0.0625 117:0.0625 118:0.0625 119:0.0625 120:0.0625 121:0.0625 122:0.0588235 123:0.0576923 124:0.0625 125:0.0625 126:0.0416667 127:0.0625 129:0.0625 130:0.0625 131:0.0625 133:0.0625 134:0.0625 135:0.0625 136:0.0625 137:0.05 138:0.0625 139:0.0625 140:0.0572917 141:0.0625 142:0.0625 143:0.0625 144:0.0625 
1 1 0 0 1:0.4 2:0.5 3:0.442857 4:0.5 5:0.5 6:0.5 7:0.5 8:0.5 9:0.5 10:0.5 11:0.4 12:0.5 13:0.25 14:0.4 15:0.5 16:0.428571 17:0.444444 18:0.5 19:0.490909 20:0.5 22:0.5 23:0.5 24:0.478261 25:0.45 26:0.5 28:0.45 29:0.5 30:0.5 31:0.5 32:0.5 33:0.5 34:0.5 36:0.5 37:0.388889 38:0.5 39:0.5 40:0.5 41:0.5 42:0.5 43:0.357143 44:0.5 45:0.5 46:0.5 47:0.5 48:0.5 49:0.5 51:0.5 52:0.5 53:0.5 54:0.5 55:0.423077 56:0.5 57:0.5 58:0.5 60:0.25 61:0.5 62:0.5 63:0.5 64:0.25 65:0.454545 66:0.5 67:0.5 68:0.5 69:0.5 70:0.5 72:0.5 73:0.5 74:0.5 75:0.5 76:0.5 77:0.5 78:0.5 79:0.473684 80:0.5 81:0.5 82:0.25 83:0.5 84:0.5 86:0.5 87:0.5 88:0.5 89:0.4 90:0.388889 91:0.4 92:0.5 93:0.5 94:0.5 95:0.5 96:0.5 97:0.25 98:0.5 99:0.5 100:0.5 101:0.5 102:0.5 103:0.5 104:0.5 105:0.5 106:0.444444 107:0.5 108:0.5 109:0.5 110:0.5 111:0.5 112:0.4 113:0.5 114:0.333333 115:0.5 116:0.5 117:0.5 118:0.5 119:0.5 120:0.5 121:0.5 122:0.470588 123:0.461538 124:0.5 125:0.5 126:0.333333 127:0.5 129:0.5 130:0.5 131:0.5 133:0.5 134:0.5 135:0.5 136:0.5 137:0.4 138:0.5 139:0.5 140:0.458333 141:0.5 142:0.5 143:0.5 144:0.5 
1 0 0 0 1:0.2 2:0.25 3:0.228571 4:0.25 5:0.25 6:0.25 7:0.25 8:0.25 9:0.25 10:0.25 11:0.2 12:0.25 13:0.125 14:0.2 15:0.25 16:0.214286 17:0.236111 18:0.25 19:0.245455 20:0.25 22:0.25 23:0.25 24:0.23913 25:0.225 26:0.25 28:0.225 29:0.25 30:0.25 31:0.25 32:0.25 33:0.25 34:0.25 36:0.25 37:0.194444 38:0.25 39:0.25 40:0.25 41:0.25 42:0.25 43:0.178571 44:0.25 45:0.25 46:0.25 47:0.25 48:0.25 49:0.25 51:0.25 52:0.25 53:0.25 54:0.25 55:0.211538 56:0.25 57:0.25 58:0.25 60:0.125 61:0.25 62:0.25 63:0.25 64:0.125 65:0.227273 66:0.25 67:0.25 68:0.25 69:0.25 70:0.25 72:0.25 73:0.25 74:0.25 75:0.25 76:0.25 77:0.25 78:0.25 79:0.236842 80:0.25 81:0.25 82:0.125 83:0.25 84:0.25 86:0.25 87:0.25 88:0.25 89:0.2 90:0.212963 91:0.2 92:0.25 93:0.25 94:0.25 95:0.25 96:0.25 97:0.125 98:0.25 99:0.25 100:0.25 101:0.25 102:0.25 103:0.25 104:0.25 105:0.25 106:0.25 107:0.25 108:0.25 109:0.25 110:0.25 111:0.25 112:0.2 113:0.25 114:0.166667 115:0.25 116:0.25 117:0.25 118:0.25 119:0.25 120:0.25 121:0.25 122:0.235294 123:0.230769 124:0.25 125:0.25 126:0.1875 127:0.25 129:0.25 130:0.25 131:0.25 133:0.25 134:0.25 135:0.25 136:0.25 137:0.225 138:0.25 139:0.25 140:0.229167 141:0.25 142:0.25 143:0.25 144:0.25 
1 0.4717579666546008 0 0.2210703115156973 1:0.266667 2:0.333333 3:0.304762 4:0.333333 5:0.333333 6:0.333333 7:0.333333 8:0.333333 9:0.333333 10:0.333333 11:0.266667 12:0.333333 13:0.166667 14:0.266667 15:0.333333 16:0.285714 17:0.314815 18:0.333333 19:0.327273 20:0.333333 22:0.333333 23:0.333333 24:0.318841 25:0.3 26:0.333333 28:0.3 29:0.333333 30:0.333333 31:0.333333 32:0.333333 33:0.333333 34:0.333333 36:0.333333 37:0.259259 38:0.333333 39:0.333333 40:0.333333 41:0.333333 42:0.333333 43:0.238095 44:0.333333 45:0.333333 46:0.333333 47:0.333333 48:0.333333 49:0.333333 51:0.333333 52:0.333333 53:0.333333 54:0.333333 55:0.282051 56:0.333333 57:0.333333 58:0.333333 60:0.333333 61:0.333333 62:0.333333 63:0.333333 64:0.166667 65:0.30303 66:0.333333 67:0.333333 68:0.333333 69:0.333333 70:0.333333 72:0.333333 73:0.333333 74:0.333333 75:0.333333 76:0.333333 77:0.333333 78:0.333333 79:0.315789 80:0.333333 81:0.333333 82:0.166667 83:0.333333 84:0.333333 86:0.333333 87:0.333333 88:0.333333 89:0.266667 90:0.283951 91:0.266667 92:0.333333 93:0.333333 94:0.333333 95:0.333333 96:0.333333 97:0.166667 98:0.333333 99:0.333333 100:0.333333 101:0.333333 102:0.333333 103:0.333333 104:0.333333 105:0.333333 106:0.333333 107:0.333333 108:0.333333 109:0.333333 110:0.333333 111:0.333333 112:0.266667 113:0.333333 114:0.222222 115:0.333333 116:0.333333 117:0.333333 118:0.333333 119:0.333333 120:0.333333 121:0.333333 122:0.313725 123:0.307692 124:0.333333 125:0.333333 126:0.25 127:0.333333 129:0.333333 130:0.333333 131:0.333333 133:0.333333 134:0.333333 135:0.333333 136:0.333333 137:0.3 138:0.333333 139:0.333333 140:0.333333 141:0.333333 142:0.333333 143:0.333333 144:0.333333 
1 0 0 0 1:0.266667 2:0.333333 3:0.304762 4:0.333333 5:0.333333 6:0.333333 7:0.333333 8:0.333333 9:0.333333 10:0.333333 11:0.266667 12:0.333333 13:0.166667 14:0.266667 15:0.333333 16:0.285714 17:0.314815 18:0.333333 19:0.327273 20:0.333333 22:0.333333 23:0.333333 24:0.318841 25:0.3 26:0.333333 28:0.3 29:0.333333 30:0.333333 31:0.333333 32:0.333333 33:0.333333 34:0.333333 36:0.333333 37:0.259259 38:0.333333 39:0.333333 40:0.333333 41:0.333333 42:0.333333 43:0.238095 44:0.333333 45:0.333333 46:0.333333 47:0.333333 48:0.333333 49:0.333333 51:0.333333 52:0.333333 53:0.333333 54:0.333333 55:0.282051 56:0.333333 57:0.333333 58:0.333333 60:0.333333 61:0.333333 62:0.333333 63:0.333333 64:0.333333 65:0.30303 66:0.333333 67:0.333333 68:0.333333 69:0.333333 70:0.333333 72:0.333333 73:0.333333 74:0.333333 75:0.333333 76:0.333333 77:0.333333 78:0.333333 79:0.315789 80:0.333333 81:0.333333 82:0.333333 83:0.333333 84:0.333333 86:0.333333 87:0.333333 88:0.333333 89:0.266667 90:0.283951 91:0.266667 92:0.333333 93:0.333333 94:0.333333 95:0.333333 96:0.333333 97:0.166667 98:0.333333 99:0.333333 100:0.333333 101:0.333333 102:0.333333 103:0.333333 104:0.333333 105:0.333333 106:0.333333 107:0.333333 108:0.333333 109:0.333333 110:0.333333 111:0.333333 112:0.266667 113:0.333333 114:0.222222 115:0.333333 116:0.333333 117:0.333333 118:0.333333 119:0.333333 120:0.333333 121:0.333333 122:0.320261 123:0.307692 124:0.333333 125:0.333333 126:0.305556 127:0.333333 129:0.333333 130:0.333333 131:0.333333 133:0.333333 134:0.333333 135:0.333333 136:0.333333 137:0.3 138:0.333333 139:0.333333 140:0.333333 141:0.333333 142:0.333333 143:0.333333 144:0.333333 
1 1 0 0 1:0.4 2:0.5 3:0.457143 4:0.5 5:0.5 6:0.5 7:0.5 8:0.5 9:0.5 10:0.5 11:0.4 12:0.5 13:0.25 14:0.4 15:0.5 16:0.428571 17:0.472222 18:0.5 19:0.490909 20:0.5 22:0.5 23:0.5 24:0.478261 25:0.45 26:0.5 28:0.45 29:0.5 30:0.5 31:0.5 32:0.5 33:0.5 34:0.5 36:0.5 37:0.388889 38:0.5 39:0.5 40:0.5 41:0.5 42:0.5 43:0.357143 44:0.5 45:0.5 46:0.5 47:0.5 48:0.5 49:0.5 51:0.5 52:0.5 53:0.5 54:0.5 55:0.423077 56:0.5 57:0.5 58:0.5 60:0.5 61:0.5 62:0.5 63:0.5 64:0.5 65:0.454545 66:0.5 67:0.5 68:0.5 69:0.5 70:0.5 72:0.5 73:0.5 74:0.5 75:0.5 76:0.5 77:0.5 78:0.5 79:0.473684 80:0.5 81:0.5 82:0.5 83:0.5 84:0.5 86:0.5 87:0.5 88:0.5 89:0.4 90:0.425926 91:0.4 92:0.5 93:0.5 94:0.5 95:0.5 96:0.5 97:0.25 98:0.5 99:0.5 100:0.5 101:0.5 102:0.5 103:0.5 104:0.5 105:0.5 106:0.5 107:0.5 108:0.5 109:0.5 110:0.5 111:0.5 112:0.4 113:0.5 114:0.333333 115:0.5 116:0.5 117:0.5 118:0.5 119:0.5 120:0.5 121:0.5 122:0.480392 123:0.461538 124:0.5 125:0.5 126:0.458333 127:0.5 129:0.5 130:0.5 131:0.5 133:0.5 134:0.5 135:0.5 136:0.5 137:0.45 138:0.5 139:0.5 140:0.5 141:0.5 142:0.5 143:0.5 144:0.5 
1 1 0.1312382630748616 0.1549749333832393 1:0.266667 2:0.333333 3:0.314286 4:0.333333 5:0.333333 6:0.333333 7:0.333333 8:0.333333 9:0.333333 10:0.333333 11:0.266667 12:0.333333 13:0.166667 14:0.266667 15:0.333333 16:0.309524 17:0.314815 18:0.333333 19:0.327273 20:0.333333 22:0.333333 23:0.333333 24:0.318841 25:0.333333 26:0.333333 28:0.333333 29:0.333333 30:0.333333 31:0.333333 32:0.333333 33:0.333333 34:0.333333 36:0.333333 37:0.259259 38:0.333333 39:0.333333 40:0.333333 41:0.333333 42:0.333333 43:0.285714 44:0.333333 45:0.333333 46:0.333333 47:0.333333 48:0.333333 49:0.333333 51:0.333333 52:0.333333 53:0.333333 54:0.333333 55:0.282051 56:0.333333 57:0.333333 58:0.333333 60:0.333333 61:0.333333 62:0.333333 63:0.333333 64:0.333333 65:0.30303 66:0.333333 67:0.333333 68:0.333333 69:0.333333 70:0.333333 72:0.333333 73:0.333333 74:0.333333 75:0.333333 76:0.333333 77:0.333333 78:0.333333 79:0.315789 80:0.333333 81:0.333333 82:0.333333 83:0.333333 84:0.333333 86:0.333333 87:0.333333 88:0.333333 89:0.266667 90:0.283951 91:0.266667 92:0.333333 93:0.333333 94:0.333333 95:0.333333 96:0.333333 97:0.333333 98:0.333333 99:0.333333 100:0.333333 101:0.333333 102:0.333333 103:0.333333 104:0.333333 105:0.333333 106:0.333333 107:0.333333 108:0.333333 109:0.333333 110:0.333333 111:0.333333 112:0.266667 113:0.333333 114:0.333333 115:0.333333 116:0.333333 117:0.333333 118:0.333333 119:0.333333 120:0.333333 121:0.333333 122:0.326797 123:0.333333 124:0.333333 125:0.333333 126:0.305556 127:0.333333 129:0.333333 130:0.333333 131:0.333333 133:0.333333 134:0.333333 135:0.333333 136:0.333333 137:0.3 138:0.333333 139:0.333333 140:0.333333 141:0.333333 142:0.333333 143:0.333333 144:0.333333 
