svm_type c_svc
kernel_type rbf
gamma 0.00862069
nr_class 5
total_sv 140
rho -1.00724 -1.00306 -1.00182 -1.00311 0.973726 -0.983368 -0.997095 -0.991597 -1.02714 0.959298
label 1 2 5 4 3
nr_sv 103 10 22 2 3
SV
0.9179232825501644 0.799745942034842 0.5356089426773122 0.4070476859303214 
0 0.956503386266527 0 0 78:0.0180033 
0.104614421478566 0 0 0 2:0.0588235 57:0.0526316 78:0.0376432 86:0.0555556 87:0.0625 88:0.04 110:0.0147059 114:1 
0 0.174351990941366 0 0 2:0.00346021 3:0.000625782 57:0.00309598 67:0.00392157 78:0.00182921 83:0.0168067 86:0.00326797 87:0.00367647 88:0.00235294 110:0.000865052 114:0.0588235 
1 1 0 0 2:0.00286944 3:0.000518941 25:0.00101626 53:0.0012837 57:0.0012837 67:0.00162602 71:0.00187617 78:0.00027943 83:0.00696864 86:0.00135501 87:0.00152439 88:0.00097561 110:0.00035868 114:0.0243902 
0 0.01871922429543352 0 0 2:0.0588235 3:0.0159574 25:0.0208333 53:0.0526316 55:0.5 57:0.0263158 67:0.0333333 71:0.0384615 78:0.0474632 82:0.0166667 83:0.214286 86:0.0277778 87:0.03125 88:0.02 110:0.00735294 114:0.5 
0 0.2198756017978127 0 0 2:0.0294118 3:0.00797872 25:0.0104167 53:0.0263158 55:0.25 57:0.0263158 67:0.0166667 71:0.0192308 78:0.0229133 82:0.00833333 83:0.107143 86:0.0138889 87:0.015625 88:0.01 102:0.0833333 110:0.00367647 114:0.25 
0 1 0 0 2:0.0294118 3:0.00531915 15:0.0104167 18:0.00520833 25:0.0208333 41:0.166667 53:0.0175439 55:0.166667 57:0.0175439 67:0.0222222 71:0.0128205 78:0.0180033 82:0.00555556 83:0.0714286 86:0.0138889 87:0.0104167 88:0.00666667 93:0.0111111 102:0.0555556 110:0.00245098 114:0.166667 
0.6309669562911484 0 0 0 2:0.0196078 3:0.00591017 15:0.00694444 18:0.00347222 21:0.111111 25:0.0138889 34:0.111111 35:0.111111 39:0.00584795 41:0.111111 53:0.0116959 55:0.111111 57:0.0175439 59:0.00292398 67:0.0148148 68:0.111111 71:0.00854701 78:0.0114566 81:0.111111 82:0.0037037 83:0.047619 84:0.111111 86:0.0123457 87:0.00694444 88:0.00444444 93:0.00740741 102:0.037037 110:0.00163399 114:0.111111 
0 0.6362292358107602 0 0 2:0.00560224 3:0.00151976 6:0.0021645 15:0.0014881 18:0.000744048 21:0.0238095 25:0.00297619 34:0.0238095 35:0.0238095 39:0.00125313 41:0.0238095 53:0.00501253 55:0.0238095 57:0.0037594 59:0.00438596 67:0.0031746 68:0.0238095 71:0.0018315 75:0.00250627 78:0.00210428 81:0.0238095 82:0.000793651 83:0.0102041 84:0.0238095 86:0.0026455 87:0.0014881 88:0.000952381 93:0.0015873 102:0.00793651 110:0.00035014 112:0.000992063 114:0.0238095 
0.00156054546770595 0 0 0 2:0.294118 3:0.0957447 6:0.0909091 15:0.0625 18:0.0625 21:1 25:0.208333 31:0.0526316 34:1 35:1 39:0.0526316 41:1 53:0.263158 55:1 57:0.263158 59:0.184211 67:0.133333 68:1 71:0.0769231 72:0.0714286 75:0.105263 78:0.194763 81:1 82:0.0666667 83:0.571429 84:1 86:0.111111 87:0.0625 88:0.04 93:0.133333 102:0.333333 109:0.0769231 110:0.0294118 112:0.0416667 113:0.0212766 114:1 
0.6088003717855476 0 0 0 2:0.0735294 3:0.0265957 6:0.0227273 15:0.015625 16:0.25 18:0.015625 21:0.25 25:0.0520833 31:0.0131579 34:0.25 35:0.25 39:0.0131579 41:0.25 53:0.0657895 55:0.25 57:0.0789474 59:0.0526316 63:0.25 67:0.0333333 68:0.25 71:0.0192308 72:0.0178571 75:0.0263158 78:0.0474632 81:0.25 82:0.0166667 83:0.142857 84:0.25 86:0.0347222 87:0.015625 88:0.01 93:0.0333333 102:0.0833333 106:0.25 109:0.0192308 110:0.00735294 112:0.0104167 113:0.0106383 114:0.25 
0 0 0.208193563919252 0 2:0.0588235 3:0.0234043 5:0.2 6:0.0181818 10:0.1 12:0.2 13:0.2 15:0.025 16:0.2 18:0.0125 19:0.2 21:0.2 25:0.0416667 31:0.0105263 34:0.2 35:0.2 39:0.0105263 41:0.2 42:0.2 43:0.2 50:0.2 51:0.2 52:0.05 53:0.0526316 55:0.2 56:0.2 57:0.0631579 58:0.2 59:0.0421053 60:0.05 61:0.2 62:0.0666667 63:0.2 67:0.0266667 68:0.2 71:0.0153846 72:0.0142857 74:0.0666667 75:0.0210526 78:0.0376432 79:0.2 80:0.1 81:0.2 82:0.0133333 83:0.114286 84:0.2 86:0.0277778 87:0.0125 88:0.024 89:0.2 92:0.2 93:0.0266667 94:0.04 95:0.04 98:0.2 101:0.0333333 102:0.0666667 105:0.1 106:0.2 109:0.0153846 110:0.00588235 112:0.00833333 113:0.00851064 114:0.2 
0.02027120778683625 0.420019347782788 0 0 2:0.147059 3:0.0585106 5:0.5 6:0.0454545 10:0.25 12:0.5 13:0.5 15:0.0625 16:0.5 18:0.03125 19:0.5 21:0.5 25:0.104167 31:0.0263158 34:0.5 35:0.5 39:0.0263158 41:0.5 42:0.5 43:0.5 50:0.5 51:0.5 52:0.125 53:0.131579 55:0.5 56:0.5 57:0.157895 58:0.5 59:0.105263 60:0.125 61:0.5 62:0.166667 63:0.5 67:0.0666667 68:0.5 71:0.0384615 72:0.0357143 74:0.166667 75:0.0526316 78:0.096563 79:0.5 80:0.25 81:0.5 82:0.0333333 83:0.285714 84:0.5 86:0.0694444 87:0.03125 88:0.06 89:0.5 92:0.5 93:0.0666667 94:0.1 95:0.1 98:0.5 101:0.0833333 102:0.166667 105:0.25 106:0.5 109:0.0384615 110:0.0147059 112:0.0208333 113:0.0212766 114:0.5 
0 0.01745761573907489 0 0 2:0.0980392 3:0.0390071 5:0.333333 6:0.030303 10:0.166667 12:0.333333 13:0.333333 15:0.0416667 16:0.333333 18:0.0208333 19:0.333333 21:0.333333 25:0.0694444 31:0.0175439 34:0.333333 35:0.333333 39:0.0175439 41:0.333333 42:0.333333 43:0.333333 50:0.333333 51:0.333333 52:0.0833333 53:0.0877193 55:0.333333 56:0.333333 57:0.105263 58:0.333333 59:0.0701754 60:0.0833333 61:0.333333 62:0.111111 63:0.333333 66:0.0392157 67:0.0444444 68:0.333333 71:0.025641 72:0.0238095 74:0.111111 75:0.0350877 78:0.0638298 79:0.333333 80:0.166667 81:0.333333 82:0.0222222 83:0.190476 84:0.333333 86:0.0462963 87:0.0208333 88:0.04 89:0.333333 92:0.333333 93:0.0444444 94:0.0666667 95:0.0666667 98:0.333333 101:0.0555556 102:0.111111 105:0.166667 106:0.333333 109:0.025641 110:0.00980392 112:0.0138889 113:0.0141844 114:0.333333 
0 0.3632780235146058 0 0 2:0.0504202 3:0.0182371 5:0.142857 6:0.012987 10:0.0714286 12:0.142857 13:0.142857 15:0.0178571 16:0.142857 18:0.00892857 19:0.142857 21:0.142857 25:0.0357143 31:0.0150376 34:0.142857 35:0.142857 39:0.0075188 41:0.142857 42:0.142857 43:0.142857 50:0.142857 51:0.142857 52:0.0357143 53:0.037594 55:0.142857 56:0.142857 57:0.0451128 58:0.142857 59:0.0300752 60:0.0357143 61:0.142857 62:0.047619 63:0.142857 66:0.0168067 67:0.0190476 68:0.142857 71:0.010989 72:0.0102041 74:0.047619 75:0.0300752 77:0.010989 78:0.0264204 79:0.142857 80:0.0714286 81:0.142857 82:0.0142857 83:0.0816327 84:0.142857 86:0.0198413 87:0.0178571 88:0.0171429 89:0.142857 92:0.142857 93:0.0190476 94:0.0285714 95:0.0285714 98:0.142857 101:0.0238095 102:0.047619 105:0.0714286 106:0.142857 109:0.010989 110:0.00420168 112:0.00595238 113:0.00911854 114:0.142857 
0 0.4146686886222496 0 0 2:0.176471 3:0.0691489 5:0.5 6:0.0454545 10:0.25 12:0.5 13:0.5 15:0.15625 16:0.5 18:0.09375 19:0.5 21:0.5 25:0.166667 31:0.0789474 34:0.5 35:0.5 39:0.0263158 41:0.5 42:0.5 43:0.5 50:0.5 51:0.5 52:0.125 53:0.157895 55:0.5 56:0.5 57:0.157895 58:0.5 59:0.171053 60:0.125 61:0.5 62:0.166667 63:0.5 66:0.176471 67:0.1 68:0.5 71:0.0769231 72:0.0714286 74:0.166667 75:0.105263 77:0.0769231 78:0.116203 79:0.5 80:0.25 81:0.5 82:0.1 83:0.285714 84:0.5 86:0.0833333 87:0.0625 88:0.08 89:0.5 92:0.5 93:0.0666667 94:0.1 95:0.1 98:0.5 101:0.0833333 102:0.166667 105:0.25 106:0.5 109:0.0384615 110:0.0588235 111:0.0333333 112:0.0833333 113:0.0425532 114:0.5 
0 0.7985128341543903 0 0 2:0.352941 3:0.159574 5:1 6:0.0909091 10:0.5 12:1 13:1 15:0.3125 16:1 17:0.0555556 18:0.1875 19:1 21:1 25:0.333333 31:0.157895 34:1 35:1 39:0.0526316 41:1 42:1 43:1 50:1 51:1 52:0.5 53:0.315789 55:1 56:1 57:0.315789 58:1 59:0.368421 60:0.25 61:1 62:0.333333 63:1 66:0.352941 67:0.2 68:1 71:0.307692 72:0.142857 74:0.333333 75:0.210526 77:0.153846 78:0.253682 79:1 80:0.5 81:1 82:0.2 83:0.571429 84:1 86:0.194444 87:0.125 88:0.24 89:1 92:1 93:0.133333 94:0.2 95:0.2 98:1 101:0.166667 102:0.333333 105:0.5 106:1 109:0.0769231 110:0.132353 111:0.0666667 112:0.166667 113:0.0851064 114:1 
0.3166514952557508 0 0 0 2:0.117647 3:0.0531915 5:0.333333 6:0.030303 10:0.166667 12:0.333333 13:0.333333 14:0.333333 15:0.104167 16:0.333333 17:0.0185185 18:0.0625 19:0.333333 21:0.333333 25:0.125 30:0.333333 31:0.0526316 32:0.333333 34:0.333333 35:0.333333 39:0.0350877 41:0.333333 42:0.333333 43:0.333333 48:0.333333 50:0.333333 51:0.333333 52:0.166667 53:0.105263 55:0.333333 56:0.333333 57:0.105263 58:0.333333 59:0.122807 60:0.0833333 61:0.333333 62:0.111111 63:0.333333 66:0.117647 67:0.0666667 68:0.333333 71:0.102564 72:0.047619 74:0.111111 75:0.0701754 77:0.0512821 78:0.0834697 79:0.333333 80:0.166667 81:0.333333 82:0.0666667 83:0.190476 84:0.333333 86:0.0648148 87:0.0625 88:0.08 89:0.333333 92:0.333333 93:0.0666667 94:0.0666667 95:0.0666667 98:0.333333 100:0.333333 101:0.0555556 102:0.111111 105:0.166667 106:0.333333 108:0.333333 109:0.025641 110:0.0441176 111:0.0222222 112:0.0555556 113:0.035461 114:0.333333 
0.01078262643206935 0 0 0 2:0.0588235 3:0.0265957 5:0.166667 6:0.0151515 10:0.0833333 12:0.166667 13:0.166667 14:0.166667 15:0.0625 16:0.166667 17:0.00925926 18:0.0364583 19:0.166667 21:0.166667 25:0.0694444 30:0.166667 31:0.0263158 32:0.166667 34:0.166667 35:0.166667 39:0.0175439 41:0.166667 42:0.166667 43:0.166667 48:0.166667 50:0.166667 51:0.166667 52:0.0833333 53:0.0526316 55:0.166667 56:0.166667 57:0.0526316 58:0.166667 59:0.0657895 60:0.0416667 61:0.166667 62:0.0555556 63:0.166667 66:0.0588235 67:0.0333333 68:0.166667 71:0.0512821 72:0.0357143 74:0.0555556 75:0.0350877 77:0.025641 78:0.0409165 79:0.166667 80:0.0833333 81:0.166667 82:0.0333333 83:0.0952381 84:0.166667 86:0.0324074 87:0.03125 88:0.04 89:0.166667 92:0.166667 93:0.0333333 94:0.0333333 95:0.0333333 98:0.166667 100:0.166667 101:0.0277778 102:0.0555556 105:0.0833333 106:0.166667 108:0.166667 109:0.0128205 110:0.0220588 111:0.0111111 112:0.0277778 113:0.0177305 114:0.166667 
0.01908113448129357 0 0 0 2:0.176471 3:0.0797872 5:0.5 6:0.0454545 10:0.25 12:0.5 13:0.5 14:0.5 15:0.1875 16:0.5 17:0.0277778 18:0.109375 19:0.5 21:0.5 25:0.208333 30:0.5 31:0.0789474 32:0.5 34:0.5 35:0.5 39:0.0789474 41:0.5 42:0.5 43:0.5 48:0.5 50:0.5 51:0.5 52:0.25 53:0.157895 55:0.5 56:0.5 57:0.157895 58:0.5 59:0.197368 60:0.125 61:0.5 62:0.166667 63:0.5 66:0.176471 67:0.1 68:0.5 71:0.153846 72:0.142857 74:0.166667 75:0.105263 77:0.0769231 78:0.126023 79:0.5 80:0.25 81:0.5 82:0.116667 83:0.285714 84:0.5 86:0.0972222 87:0.125 88:0.12 89:0.5 92:0.5 93:0.1 94:0.1 95:0.1 98:0.5 100:0.5 101:0.0833333 102:0.166667 105:0.25 106:0.5 108:0.5 109:0.115385 110:0.0661765 111:0.0333333 112:0.0833333 113:0.0638298 114:0.5 
0 0.06777088847120891 0 0 2:0.176471 3:0.0797872 5:0.5 6:0.0454545 10:0.25 12:0.5 13:0.5 14:0.5 15:0.21875 16:0.5 17:0.0277778 18:0.109375 19:0.5 21:0.5 25:0.208333 30:0.5 31:0.0789474 32:0.5 33:0.0416667 34:0.5 35:0.5 39:0.0789474 41:0.5 42:0.5 43:0.5 48:0.5 50:0.5 51:0.5 52:0.25 53:0.157895 55:0.5 56:0.5 57:0.157895 58:0.5 59:0.197368 60:0.125 61:0.5 62:0.166667 63:0.5 66:0.176471 67:0.1 68:0.5 71:0.153846 72:0.142857 74:0.166667 75:0.105263 77:0.0769231 78:0.126023 79:0.5 80:0.25 81:0.5 82:0.116667 83:0.285714 84:0.5 86:0.0972222 87:0.125 88:0.12 89:0.5 92:0.5 93:0.1 94:0.1 95:0.1 98:0.5 100:0.5 101:0.0833333 102:0.166667 105:0.25 106:0.5 108:0.5 109:0.115385 110:0.0661765 111:0.0333333 112:0.0833333 113:0.0638298 114:0.5 
0 0.2452387839291665 0 0 2:0.176471 3:0.0851064 5:0.5 6:0.0909091 10:0.25 12:0.5 13:0.5 14:0.5 15:0.21875 16:0.5 17:0.0277778 18:0.109375 19:0.5 21:0.5 25:0.208333 30:0.5 31:0.0789474 32:0.5 33:0.0416667 34:0.5 35:0.5 39:0.131579 41:0.5 42:0.5 43:0.5 48:0.5 50:0.5 51:0.5 52:0.25 53:0.184211 55:0.5 56:0.5 57:0.157895 58:0.5 59:0.197368 60:0.125 61:0.5 62:0.166667 63:0.5 66:0.205882 67:0.1 68:0.5 71:0.153846 72:0.142857 74:0.166667 75:0.157895 77:0.0769231 78:0.126023 79:0.5 80:0.25 81:0.5 82:0.116667 83:0.285714 84:0.5 86:0.0972222 87:0.125 88:0.12 89:0.5 92:0.5 93:0.1 94:0.1 95:0.1 98:0.5 100:0.5 101:0.0833333 102:0.166667 104:0.5 105:0.25 106:0.5 108:0.5 109:0.115385 110:0.132353 111:0.0666667 112:0.0833333 113:0.0744681 114:0.5 
0 1 0 0 2:0.0588235 3:0.0319149 5:0.166667 6:0.030303 10:0.0833333 12:0.166667 13:0.166667 14:0.166667 15:0.0729167 16:0.166667 17:0.00925926 18:0.0364583 19:0.166667 21:0.166667 25:0.0694444 30:0.166667 31:0.0350877 32:0.166667 33:0.0138889 34:0.166667 35:0.166667 39:0.0438596 41:0.166667 42:0.166667 43:0.166667 48:0.166667 50:0.166667 51:0.166667 52:0.125 53:0.0614035 55:0.166667 56:0.166667 57:0.0614035 58:0.166667 59:0.0657895 60:0.0416667 61:0.166667 62:0.0555556 63:0.166667 66:0.0686275 67:0.0333333 68:0.166667 71:0.0512821 72:0.047619 74:0.0555556 75:0.0526316 77:0.0320513 78:0.0409165 79:0.166667 80:0.0833333 81:0.166667 82:0.0444444 83:0.0952381 84:0.166667 86:0.0324074 87:0.0416667 88:0.04 89:0.166667 92:0.166667 93:0.0444444 94:0.0333333 95:0.0333333 98:0.166667 100:0.166667 101:0.0277778 102:0.0555556 104:0.166667 105:0.0833333 106:0.166667 108:0.166667 109:0.0384615 110:0.0441176 111:0.0222222 112:0.0277778 113:0.0248227 114:0.166667 
0 0.1228006947322747 0 0 2:0.117647 3:0.0638298 5:0.333333 6:0.0606061 10:0.166667 12:0.333333 13:0.333333 14:0.333333 15:0.145833 16:0.333333 17:0.0185185 18:0.0729167 19:0.333333 21:0.333333 25:0.138889 30:0.333333 31:0.0701754 32:0.333333 33:0.0277778 34:0.333333 35:0.333333 39:0.0877193 41:0.333333 42:0.333333 43:0.333333 48:0.333333 50:0.333333 51:0.333333 52:0.25 53:0.122807 55:0.333333 56:0.333333 57:0.122807 58:0.333333 59:0.131579 60:0.0833333 61:0.333333 62:0.111111 63:0.333333 66:0.137255 67:0.0666667 68:0.333333 71:0.102564 72:0.0952381 74:0.111111 75:0.105263 77:0.0641026 78:0.0834697 79:0.333333 80:0.166667 81:0.333333 82:0.0888889 83:0.190476 84:0.333333 86:0.0648148 87:0.0833333 88:0.08 89:0.333333 92:0.333333 93:0.0888889 94:0.0666667 95:0.0666667 98:0.333333 100:0.333333 101:0.0555556 102:0.111111 104:0.333333 105:0.166667 106:0.333333 108:0.333333 109:0.0769231 110:0.0882353 111:0.0444444 112:0.0555556 113:0.0496454 114:0.333333 
0 0.029644689081658 0 0 2:0.117647 3:0.070922 5:0.333333 6:0.0606061 10:0.166667 11:0.166667 12:0.333333 13:0.333333 14:0.333333 15:0.145833 16:0.333333 17:0.037037 18:0.0729167 19:0.333333 21:0.333333 22:0.333333 25:0.138889 28:0.333333 30:0.333333 31:0.0877193 32:0.333333 33:0.0277778 34:0.333333 35:0.333333 39:0.0877193 41:0.333333 42:0.333333 43:0.333333 48:0.333333 49:0.333333 50:0.333333 51:0.333333 52:0.25 53:0.122807 55:0.333333 56:0.333333 57:0.122807 58:0.333333 59:0.140351 60:0.0833333 61:0.333333 62:0.111111 63:0.333333 65:0.166667 66:0.156863 67:0.0666667 68:0.333333 71:0.102564 72:0.0952381 74:0.111111 75:0.122807 76:0.333333 77:0.0641026 78:0.0834697 79:0.333333 80:0.166667 81:0.333333 82:0.0888889 83:0.190476 84:0.333333 86:0.0740741 87:0.0833333 88:0.08 89:0.333333 92:0.333333 93:0.0888889 94:0.0666667 95:0.0666667 98:0.333333 100:0.333333 101:0.0555556 102:0.111111 104:0.333333 105:0.166667 106:0.333333 108:0.333333 109:0.0769231 110:0.0980392 111:0.0444444 112:0.0555556 113:0.0567376 114:0.333333 
0.04897356307083348 0 0 0 1:0.25 2:0.0882353 3:0.0531915 5:0.25 6:0.0454545 10:0.125 11:0.125 12:0.25 13:0.25 14:0.25 15:0.109375 16:0.25 17:0.0416667 18:0.0546875 19:0.25 21:0.25 22:0.25 25:0.104167 28:0.25 30:0.25 31:0.0657895 32:0.25 33:0.0208333 34:0.25 35:0.25 39:0.0657895 41:0.25 42:0.25 43:0.25 48:0.25 49:0.25 50:0.25 51:0.25 52:0.1875 53:0.0921053 55:0.25 56:0.25 57:0.105263 58:0.25 59:0.105263 60:0.0625 61:0.25 62:0.0833333 63:0.25 65:0.125 66:0.117647 67:0.05 68:0.25 70:0.25 71:0.0769231 72:0.0714286 74:0.0833333 75:0.0921053 76:0.25 77:0.0480769 78:0.0621931 79:0.25 80:0.125 81:0.25 82:0.0666667 83:0.178571 84:0.25 86:0.0555556 87:0.0625 88:0.06 89:0.25 92:0.25 93:0.0666667 94:0.05 95:0.05 98:0.25 100:0.25 101:0.0416667 102:0.0833333 104:0.25 105:0.125 106:0.25 108:0.25 109:0.0576923 110:0.0735294 111:0.0333333 112:0.0416667 113:0.0425532 114:0.25 
0 0.6515338396047847 0 0 1:0.166667 2:0.0588235 3:0.035461 5:0.166667 6:0.030303 10:0.0833333 11:0.0833333 12:0.166667 13:0.166667 14:0.166667 15:0.0833333 16:0.166667 17:0.0277778 18:0.0364583 19:0.166667 21:0.166667 22:0.166667 25:0.0763889 28:0.166667 30:0.166667 31:0.0526316 32:0.166667 33:0.0138889 34:0.166667 35:0.166667 39:0.0438596 41:0.166667 42:0.166667 43:0.166667 48:0.166667 49:0.166667 50:0.166667 51:0.166667 52:0.125 53:0.0614035 55:0.166667 56:0.166667 57:0.0789474 58:0.166667 59:0.0701754 60:0.0416667 61:0.166667 62:0.0555556 63:0.166667 65:0.0833333 66:0.0784314 67:0.0333333 68:0.166667 70:0.166667 71:0.0512821 72:0.047619 74:0.0555556 75:0.0614035 76:0.166667 77:0.0384615 78:0.0474632 79:0.166667 80:0.0833333 81:0.166667 82:0.0555556 83:0.119048 84:0.166667 86:0.037037 87:0.0520833 88:0.0466667 89:0.166667 92:0.166667 93:0.0444444 94:0.0333333 95:0.0333333 98:0.166667 100:0.166667 101:0.0277778 102:0.0555556 104:0.166667 105:0.0833333 106:0.166667 108:0.166667 109:0.0384615 110:0.0490196 111:0.0222222 112:0.0347222 113:0.0283688 114:0.166667 
0 1 0 0 1:0.0526316 2:0.0185759 3:0.0117581 5:0.0526316 6:0.0143541 10:0.0263158 11:0.0263158 12:0.0526316 13:0.0526316 14:0.0526316 15:0.0263158 16:0.0526316 17:0.00877193 18:0.0115132 19:0.0526316 21:0.0526316 22:0.0526316 25:0.0241228 28:0.0526316 30:0.0526316 31:0.0166205 32:0.0526316 33:0.00877193 34:0.0526316 35:0.0526316 39:0.0138504 41:0.0526316 42:0.0526316 43:0.0526316 48:0.0526316 49:0.0526316 50:0.0526316 51:0.0526316 52:0.0394737 53:0.0221607 55:0.0526316 56:0.0526316 57:0.0249307 58:0.0526316 59:0.0221607 60:0.0131579 61:0.0526316 62:0.0175439 63:0.0526316 65:0.0263158 66:0.0247678 67:0.0105263 68:0.0526316 70:0.0526316 71:0.0161943 72:0.0150376 74:0.0175439 75:0.0193906 76:0.0526316 77:0.0121457 78:0.0138686 79:0.0526316 80:0.0263158 81:0.0526316 82:0.0175439 83:0.037594 84:0.0526316 86:0.0116959 87:0.0164474 88:0.0147368 89:0.0526316 92:0.0526316 93:0.0140351 94:0.0105263 95:0.0105263 98:0.0526316 100:0.0526316 101:0.00877193 102:0.0175439 104:0.0526316 105:0.0263158 106:0.0526316 108:0.0526316 109:0.0161943 110:0.0154799 111:0.00701754 112:0.0109649 113:0.00895857 114:0.0526316 
0 0.0116980002919037 0 0 1:0.333333 2:0.137255 3:0.0886525 5:0.333333 6:0.0909091 10:0.166667 11:0.166667 12:0.333333 13:0.333333 14:0.333333 15:0.1875 16:0.333333 17:0.0555556 18:0.0729167 19:0.333333 21:0.333333 22:0.333333 25:0.166667 28:0.333333 30:0.333333 31:0.105263 32:0.333333 33:0.111111 34:0.333333 35:0.333333 39:0.105263 41:0.333333 42:0.333333 43:0.333333 48:0.333333 49:0.333333 50:0.333333 51:0.333333 52:0.25 53:0.140351 55:0.333333 56:0.333333 57:0.157895 58:0.333333 59:0.140351 60:0.166667 61:0.333333 62:0.111111 63:0.333333 65:0.166667 66:0.196078 67:0.0666667 68:0.333333 70:0.333333 71:0.102564 72:0.0952381 74:0.111111 75:0.122807 76:0.333333 77:0.0897436 78:0.12275 79:0.333333 80:0.166667 81:0.333333 82:0.122222 83:0.238095 84:0.333333 85:0.166667 86:0.0925926 87:0.125 88:0.106667 89:0.333333 92:0.333333 93:0.0888889 94:0.0666667 95:0.0666667 96:0.0208333 98:0.333333 100:0.333333 101:0.111111 102:0.222222 104:0.333333 105:0.166667 106:0.333333 108:0.333333 109:0.102564 110:0.156863 111:0.0666667 112:0.0833333 113:0.0638298 114:0.333333 
0 0.009791947859588717 0 0 1:0.1 2:0.0411765 3:0.0276596 5:0.1 6:0.0272727 10:0.05 11:0.05 12:0.1 13:0.1 14:0.1 15:0.05625 16:0.1 17:0.0166667 18:0.021875 19:0.1 21:0.1 22:0.1 25:0.05 28:0.1 30:0.1 31:0.0315789 32:0.1 33:0.0333333 34:0.1 35:0.1 39:0.0315789 41:0.1 42:0.1 43:0.1 48:0.1 49:0.1 50:0.1 51:0.1 52:0.075 53:0.0421053 55:0.1 56:0.1 57:0.0473684 58:0.1 59:0.0421053 60:0.05 61:0.1 62:0.0333333 63:0.1 65:0.05 66:0.0588235 67:0.02 68:0.1 70:0.1 71:0.0307692 72:0.0285714 74:0.0333333 75:0.0421053 76:0.1 77:0.0269231 78:0.0376432 79:0.1 80:0.05 81:0.1 82:0.0366667 83:0.0714286 84:0.1 85:0.05 86:0.0277778 87:0.0375 88:0.032 89:0.1 92:0.1 93:0.0266667 94:0.02 95:0.02 96:0.00625 98:0.1 100:0.1 101:0.0333333 102:0.0666667 104:0.1 105:0.05 106:0.1 108:0.1 109:0.0307692 110:0.0470588 111:0.02 112:0.025 113:0.0191489 114:0.1 
0 0.2606768453699219 0 0 1:0.142857 2:0.0588235 3:0.0410334 5:0.142857 6:0.038961 10:0.0714286 11:0.0714286 12:0.142857 13:0.142857 14:0.142857 15:0.0803571 16:0.142857 17:0.0238095 18:0.0357143 19:0.142857 21:0.142857 22:0.142857 25:0.0714286 28:0.142857 30:0.142857 31:0.0451128 32:0.142857 33:0.047619 34:0.142857 35:0.142857 39:0.0451128 41:0.142857 42:0.142857 43:0.142857 48:0.142857 49:0.142857 50:0.142857 51:0.142857 52:0.107143 53:0.0601504 55:0.142857 56:0.142857 57:0.0676692 58:0.142857 59:0.0601504 60:0.0714286 61:0.142857 62:0.047619 63:0.142857 65:0.0714286 66:0.0840336 67:0.0285714 68:0.142857 70:0.142857 71:0.043956 72:0.0408163 74:0.047619 75:0.0601504 76:0.142857 77:0.0384615 78:0.0544774 79:0.142857 80:0.0714286 81:0.142857 82:0.052381 83:0.102041 84:0.142857 85:0.0714286 86:0.0396825 87:0.0535714 88:0.0457143 89:0.142857 92:0.142857 93:0.0380952 94:0.0285714 95:0.0285714 96:0.00892857 98:0.142857 100:0.142857 101:0.047619 102:0.0952381 104:0.142857 105:0.0714286 106:0.142857 108:0.142857 109:0.043956 110:0.0672269 111:0.0285714 112:0.0357143 113:0.0273556 114:0.142857 
0 0.04713958041276926 0 0 1:0.25 2:0.102941 3:0.0718085 5:0.25 6:0.0681818 10:0.125 11:0.125 12:0.25 13:0.25 14:0.25 15:0.140625 16:0.25 17:0.0416667 18:0.0625 19:0.25 21:0.25 22:0.25 25:0.125 28:0.25 30:0.25 31:0.0789474 32:0.25 33:0.0833333 34:0.25 35:0.25 39:0.0789474 41:0.25 42:0.25 43:0.25 48:0.25 49:0.25 50:0.25 51:0.25 52:0.1875 53:0.105263 55:0.25 56:0.25 57:0.118421 58:0.25 59:0.105263 60:0.125 61:0.25 62:0.0833333 63:0.25 65:0.125 66:0.147059 67:0.05 68:0.25 70:0.25 71:0.0769231 72:0.0714286 74:0.0833333 75:0.105263 76:0.25 77:0.0673077 78:0.096563 79:0.25 80:0.125 81:0.25 82:0.0916667 83:0.178571 84:0.25 85:0.125 86:0.0694444 87:0.09375 88:0.08 89:0.25 92:0.25 93:0.0666667 94:0.05 95:0.05 96:0.015625 98:0.25 100:0.25 101:0.0833333 102:0.166667 104:0.25 105:0.125 106:0.25 108:0.25 109:0.0961538 110:0.117647 111:0.05 112:0.0625 113:0.0478723 114:0.25 
0 0.2234469888869362 0 0 1:0.5 2:0.205882 3:0.159574 5:0.5 6:0.136364 10:0.25 11:0.25 12:0.5 13:0.5 14:0.5 15:0.28125 16:0.5 17:0.0833333 18:0.140625 19:0.5 21:0.5 22:0.5 25:0.25 28:0.5 30:0.5 31:0.184211 32:0.5 33:0.166667 34:0.5 35:0.5 39:0.157895 41:0.5 42:0.5 43:0.5 48:0.5 49:0.5 50:0.5 51:0.5 52:0.375 53:0.210526 55:0.5 56:0.5 57:0.236842 58:0.5 59:0.210526 60:0.25 61:0.5 62:0.166667 63:0.5 65:0.25 66:0.294118 67:0.1 68:0.5 70:0.5 71:0.192308 72:0.142857 74:0.166667 75:0.210526 76:0.5 77:0.134615 78:0.224223 79:0.5 80:0.5 81:0.5 82:0.2 83:0.357143 84:0.5 85:0.5 86:0.138889 87:0.1875 88:0.16 89:0.5 92:0.5 93:0.133333 94:0.1 95:0.1 96:0.03125 98:0.5 100:0.5 101:0.166667 102:0.5 104:0.5 105:0.25 106:0.5 108:0.5 109:0.192308 110:0.235294 111:0.1 112:0.125 113:0.117021 114:0.5 
0 0.09255184169145148 0 0 1:0.125 2:0.0514706 3:0.0412234 5:0.125 6:0.0454545 10:0.0625 11:0.0625 12:0.125 13:0.125 14:0.125 15:0.0703125 16:0.125 17:0.0208333 18:0.0351563 19:0.125 21:0.125 22:0.125 25:0.0625 28:0.125 30:0.125 31:0.0526316 32:0.125 33:0.0416667 34:0.125 35:0.125 39:0.0394737 41:0.125 42:0.125 43:0.125 48:0.125 49:0.125 50:0.125 51:0.125 52:0.09375 53:0.0526316 55:0.125 56:0.125 57:0.0592105 58:0.125 59:0.0559211 60:0.0625 61:0.125 62:0.0416667 63:0.125 65:0.0625 66:0.0735294 67:0.025 68:0.125 70:0.125 71:0.0480769 72:0.0446429 74:0.0416667 75:0.0526316 76:0.125 77:0.0336538 78:0.0548282 79:0.125 80:0.125 81:0.125 82:0.05 83:0.0892857 84:0.125 85:0.125 86:0.0347222 87:0.046875 88:0.04 89:0.125 92:0.125 93:0.0333333 94:0.025 95:0.075 96:0.015625 98:0.125 100:0.125 101:0.0416667 102:0.125 104:0.125 105:0.0625 106:0.125 108:0.125 109:0.0480769 110:0.0588235 111:0.025 112:0.0364583 113:0.0319149 114:0.125 
0 0.1154284770298249 0 0 1:0.2 2:0.0823529 3:0.0680851 5:0.2 6:0.0727273 10:0.1 11:0.1 12:0.2 13:0.2 14:0.2 15:0.1125 16:0.2 17:0.0333333 18:0.05625 19:0.2 21:0.2 22:0.2 25:0.1 28:0.2 30:0.2 31:0.0842105 32:0.2 33:0.0666667 34:0.2 35:0.2 39:0.0631579 41:0.2 42:0.2 43:0.2 48:0.2 49:0.2 50:0.2 51:0.2 52:0.15 53:0.0842105 55:0.2 56:0.2 57:0.0947368 58:0.2 59:0.0894737 60:0.1 61:0.2 62:0.0666667 63:0.2 65:0.1 66:0.117647 67:0.04 68:0.2 70:0.2 71:0.0769231 72:0.0714286 74:0.0666667 75:0.0842105 76:0.2 77:0.0538462 78:0.088707 79:0.2 80:0.2 81:0.2 82:0.08 83:0.142857 84:0.2 85:0.2 86:0.0555556 87:0.075 88:0.064 89:0.2 92:0.2 93:0.0533333 94:0.04 95:0.12 96:0.025 98:0.2 100:0.2 101:0.0666667 102:0.2 104:0.2 105:0.1 106:0.2 108:0.2 109:0.0769231 110:0.0941176 111:0.04 112:0.0583333 113:0.0510638 114:0.2 
0 0.07746226466885003 0 0 1:0.25 2:0.102941 3:0.087766 5:0.25 6:0.0909091 10:0.125 11:0.125 12:0.25 13:0.25 14:0.25 15:0.140625 16:0.25 17:0.0416667 18:0.0703125 19:0.25 21:0.25 22:0.25 25:0.125 28:0.25 30:0.25 31:0.105263 32:0.25 33:0.0833333 34:0.25 35:0.25 38:0.25 39:0.0789474 41:0.25 42:0.25 43:0.25 44:0.0833333 48:0.25 49:0.25 50:0.25 51:0.25 52:0.1875 53:0.105263 55:0.25 56:0.25 57:0.118421 58:0.25 59:0.111842 60:0.125 61:0.25 62:0.0833333 63:0.25 65:0.25 66:0.161765 67:0.05 68:0.25 70:0.25 71:0.0961538 72:0.0892857 74:0.0833333 75:0.105263 76:0.25 77:0.0673077 78:0.111293 79:0.25 80:0.25 81:0.25 82:0.108333 83:0.214286 84:0.25 85:0.25 86:0.0694444 87:0.09375 88:0.08 89:0.25 92:0.25 93:0.0666667 94:0.05 95:0.15 96:0.03125 98:0.25 100:0.25 101:0.0833333 102:0.25 104:0.25 105:0.125 106:0.25 108:0.25 109:0.0961538 110:0.125 111:0.05 112:0.0729167 113:0.0638298 114:0.25 
0 0.01719366380109992 0 0 1:0.0833333 2:0.0343137 3:0.0292553 5:0.0833333 6:0.030303 10:0.0416667 11:0.0416667 12:0.0833333 13:0.0833333 14:0.0833333 15:0.046875 16:0.0833333 17:0.0138889 18:0.0234375 19:0.0833333 21:0.0833333 22:0.0833333 25:0.0416667 28:0.0833333 30:0.0833333 31:0.0350877 32:0.0833333 33:0.0277778 34:0.0833333 35:0.0833333 38:0.0833333 39:0.0263158 41:0.0833333 42:0.0833333 43:0.0833333 44:0.0277778 48:0.0833333 49:0.0833333 50:0.0833333 51:0.0833333 52:0.0625 53:0.0350877 55:0.0833333 56:0.0833333 57:0.0394737 58:0.0833333 59:0.0372807 60:0.0416667 61:0.0833333 62:0.0277778 63:0.0833333 65:0.0833333 66:0.0539216 67:0.0166667 68:0.0833333 70:0.0833333 71:0.0320513 72:0.0297619 74:0.0277778 75:0.0350877 76:0.0833333 77:0.0224359 78:0.0360065 79:0.0833333 80:0.0833333 81:0.0833333 82:0.0361111 83:0.0714286 84:0.0833333 85:0.0833333 86:0.0231481 87:0.03125 88:0.0266667 89:0.0833333 92:0.0833333 93:0.0222222 94:0.0166667 95:0.05 96:0.0104167 98:0.0833333 100:0.0833333 101:0.0277778 102:0.0833333 104:0.0833333 105:0.0416667 106:0.0833333 108:0.0833333 109:0.0320513 110:0.0416667 111:0.0166667 112:0.0277778 113:0.0248227 114:0.0833333 
0 1 0 0 1:0.142857 2:0.0588235 3:0.0516717 5:0.142857 6:0.0649351 10:0.0714286 11:0.0714286 12:0.142857 13:0.142857 14:0.142857 15:0.0803571 16:0.142857 17:0.031746 18:0.0401786 19:0.142857 21:0.142857 22:0.142857 25:0.0714286 28:0.142857 30:0.142857 31:0.0601504 32:0.142857 33:0.047619 34:0.142857 35:0.142857 38:0.142857 39:0.0451128 41:0.142857 42:0.142857 43:0.142857 44:0.047619 48:0.142857 49:0.142857 50:0.142857 51:0.142857 52:0.107143 53:0.075188 55:0.142857 56:0.142857 57:0.0676692 58:0.142857 59:0.0676692 60:0.0714286 61:0.142857 62:0.047619 63:0.142857 65:0.142857 66:0.092437 67:0.0285714 68:0.142857 70:0.142857 71:0.0549451 72:0.0612245 74:0.047619 75:0.0601504 76:0.142857 77:0.0384615 78:0.0628946 79:0.142857 80:0.142857 81:0.142857 82:0.0619048 83:0.122449 84:0.142857 85:0.142857 86:0.047619 87:0.0535714 88:0.0457143 89:0.142857 92:0.142857 93:0.0380952 94:0.0285714 95:0.0857143 96:0.0178571 98:0.142857 100:0.142857 101:0.047619 102:0.142857 104:0.142857 105:0.0714286 106:0.142857 108:0.142857 109:0.0549451 110:0.0714286 111:0.0285714 112:0.047619 113:0.0425532 114:0.142857 
0 0.02428792615239836 0 0 1:0.125 2:0.0514706 3:0.0478723 5:0.125 6:0.0568182 10:0.0625 11:0.0625 12:0.125 13:0.125 14:0.125 15:0.0703125 16:0.125 17:0.0277778 18:0.0351563 19:0.125 21:0.125 22:0.125 25:0.0677083 28:0.125 30:0.125 31:0.0526316 32:0.125 33:0.0416667 34:0.125 35:0.125 38:0.125 39:0.0394737 41:0.125 42:0.125 43:0.125 44:0.0416667 48:0.125 49:0.125 50:0.125 51:0.125 52:0.09375 53:0.0723684 55:0.125 56:0.125 57:0.0592105 58:0.125 59:0.0592105 60:0.0625 61:0.125 62:0.0625 63:0.125 65:0.125 66:0.0808824 67:0.025 68:0.125 70:0.125 71:0.0480769 72:0.0535714 74:0.0416667 75:0.0526316 76:0.125 77:0.0336538 78:0.0646481 79:0.125 80:0.125 81:0.125 82:0.0583333 83:0.107143 84:0.125 85:0.125 86:0.0416667 87:0.046875 88:0.045 89:0.125 92:0.125 93:0.0333333 94:0.025 95:0.075 96:0.0234375 98:0.125 100:0.125 101:0.0416667 102:0.125 104:0.125 105:0.0625 106:0.125 108:0.125 109:0.0576923 110:0.0625 111:0.0333333 112:0.0416667 113:0.037234 114:0.125 
0 0 0 0.2292135309219223 1:0.5 2:0.205882 3:0.191489 5:0.5 6:0.227273 10:0.25 11:0.25 12:0.5 13:0.5 14:0.5 15:0.28125 16:0.5 17:0.111111 18:0.140625 19:0.5 21:0.5 22:0.5 25:0.270833 27:0.5 28:0.5 30:0.5 31:0.210526 32:0.5 33:0.208333 34:0.5 35:0.5 38:0.5 39:0.157895 41:0.5 42:0.5 43:0.5 44:0.166667 48:0.5 49:0.5 50:0.5 51:0.5 52:0.375 53:0.289474 55:0.5 56:0.5 57:0.236842 58:0.5 59:0.236842 60:0.25 61:0.5 62:0.25 63:0.5 64:0.5 65:0.5 66:0.323529 67:0.1 68:0.5 70:0.5 71:0.192308 72:0.214286 74:0.166667 75:0.210526 76:0.5 77:0.134615 78:0.273322 79:0.5 80:0.5 81:0.5 82:0.233333 83:0.428571 84:0.5 85:0.5 86:0.166667 87:0.1875 88:0.18 89:0.5 92:0.5 93:0.133333 94:0.1 95:0.3 96:0.15625 98:0.5 100:0.5 101:0.166667 102:0.5 104:0.5 105:0.25 106:0.5 108:0.5 109:0.230769 110:0.25 111:0.133333 112:0.166667 113:0.148936 114:0.5 
0 0.04335816968093053 0 0 1:0.2 2:0.0823529 3:0.0765957 5:0.2 6:0.0909091 10:0.1 11:0.1 12:0.2 13:0.2 14:0.2 15:0.1125 16:0.2 17:0.0444444 18:0.05625 19:0.2 21:0.2 22:0.2 25:0.108333 27:0.2 28:0.2 30:0.2 31:0.0947368 32:0.2 33:0.0833333 34:0.2 35:0.2 38:0.2 39:0.0631579 41:0.2 42:0.2 43:0.2 44:0.0666667 48:0.2 49:0.2 50:0.2 51:0.2 52:0.15 53:0.115789 55:0.2 56:0.2 57:0.0947368 58:0.2 59:0.0947368 60:0.1 61:0.2 62:0.1 63:0.2 64:0.2 65:0.2 66:0.129412 67:0.04 68:0.2 70:0.2 71:0.0769231 72:0.0857143 74:0.0666667 75:0.0842105 76:0.2 77:0.0538462 78:0.108347 79:0.2 80:0.2 81:0.2 82:0.0933333 83:0.171429 84:0.2 85:0.2 86:0.0666667 87:0.075 88:0.072 89:0.2 92:0.2 93:0.0533333 94:0.04 95:0.12 96:0.0625 98:0.2 100:0.2 101:0.0666667 102:0.2 104:0.2 105:0.1 106:0.2 108:0.2 109:0.0923077 110:0.1 111:0.0533333 112:0.0666667 113:0.0595745 114:0.2 
0 0 0 0.001169523846794286 1:1 2:0.411765 3:0.393617 5:1 6:0.454545 10:0.5 11:0.5 12:1 13:1 14:1 15:0.5625 16:1 17:0.222222 18:0.28125 19:1 21:1 22:1 25:0.541667 27:1 28:1 30:1 31:0.473684 32:1 33:0.416667 34:1 35:1 38:1 39:0.315789 41:1 42:1 43:1 44:0.333333 48:1 49:1 50:1 51:1 52:0.75 53:0.578947 55:1 56:1 57:0.473684 58:1 59:0.473684 60:0.5 61:1 62:0.5 63:1 64:1 65:1 66:0.647059 67:0.2 68:1 70:1 71:0.384615 72:0.428571 74:0.333333 75:0.421053 76:1 77:0.269231 78:0.548282 79:1 80:1 81:1 82:0.466667 83:0.857143 84:1 85:1 86:0.333333 87:0.375 88:0.36 89:1 92:1 93:0.266667 94:0.2 95:0.6 96:0.3125 98:1 100:1 101:0.333333 102:1 104:1 105:0.5 106:1 108:1 109:0.461538 110:0.5 111:0.266667 112:0.333333 113:0.297872 114:1 
0 0 0.06357251913579567 0 1:0.25 2:0.102941 3:0.101064 5:0.25 6:0.113636 10:0.125 11:0.125 12:0.25 13:0.25 14:0.25 15:0.140625 16:0.25 17:0.0694444 18:0.0703125 19:0.25 21:0.25 22:0.25 25:0.135417 27:0.25 28:0.25 30:0.25 31:0.118421 32:0.25 33:0.104167 34:0.25 35:0.25 38:0.25 39:0.0789474 41:0.25 42:0.25 43:0.25 44:0.0833333 48:0.25 49:0.25 50:0.25 51:0.25 52:0.1875 53:0.144737 55:0.25 56:0.25 57:0.118421 58:0.25 59:0.125 60:0.125 61:0.25 62:0.125 63:0.25 64:0.25 65:0.25 66:0.161765 67:0.05 68:0.25 70:0.25 71:0.0961538 72:0.107143 74:0.0833333 75:0.105263 76:0.25 77:0.0673077 78:0.135843 79:0.25 80:0.25 81:0.25 82:0.116667 83:0.214286 84:0.25 85:0.25 86:0.0833333 87:0.09375 88:0.09 89:0.25 92:0.25 93:0.0666667 94:0.05 95:0.15 96:0.078125 98:0.25 100:0.25 101:0.0833333 102:0.25 104:0.25 105:0.125 106:0.25 108:0.25 109:0.115385 110:0.125 111:0.0666667 112:0.0833333 113:0.0744681 114:0.25 
0 1 0 0 1:0.0277778 2:0.0114379 3:0.0115248 5:0.0277778 6:0.0126263 10:0.0138889 11:0.0138889 12:0.0277778 13:0.0277778 14:0.0277778 15:0.0173611 16:0.0277778 17:0.00925926 18:0.00868056 19:0.0277778 21:0.0277778 22:0.0277778 25:0.0162037 27:0.0277778 28:0.0277778 30:0.0277778 31:0.0131579 32:0.0277778 33:0.0115741 34:0.0277778 35:0.0277778 38:0.0277778 39:0.00877193 41:0.0277778 42:0.0277778 43:0.0277778 44:0.00925926 48:0.0277778 49:0.0277778 50:0.0277778 51:0.0277778 52:0.0208333 53:0.0175439 55:0.0277778 56:0.0277778 57:0.0131579 58:0.0277778 59:0.0146199 60:0.0138889 61:0.0277778 62:0.0185185 63:0.0277778 64:0.0277778 65:0.0277778 66:0.0179739 67:0.00555556 68:0.0277778 70:0.0277778 71:0.0106838 72:0.0138889 74:0.00925926 75:0.0131579 76:0.0277778 77:0.00747863 78:0.0141844 79:0.0277778 80:0.0277778 81:0.0277778 82:0.012963 83:0.0238095 84:0.0277778 85:0.0277778 86:0.0108025 87:0.0104167 88:0.0122222 89:0.0277778 92:0.0277778 93:0.00740741 94:0.00555556 95:0.0166667 96:0.00868056 98:0.0277778 100:0.0277778 101:0.00925926 102:0.0277778 104:0.0277778 105:0.0138889 106:0.0277778 108:0.0277778 109:0.0128205 110:0.0138889 111:0.00740741 112:0.0104167 113:0.00827423 114:0.0277778 
0 0.03279706720825754 0 0 1:0.0238095 2:0.00980392 3:0.00987842 5:0.0238095 6:0.0108225 10:0.0119048 11:0.0119048 12:0.0238095 13:0.0238095 14:0.0238095 15:0.014881 16:0.0238095 17:0.00925926 18:0.00744048 19:0.0238095 21:0.0238095 22:0.0238095 25:0.0138889 27:0.0238095 28:0.0238095 30:0.0238095 31:0.0112782 32:0.0238095 33:0.00992063 34:0.0238095 35:0.0238095 38:0.0238095 39:0.0075188 41:0.0238095 42:0.0238095 43:0.0238095 44:0.00793651 48:0.0238095 49:0.0238095 50:0.0238095 51:0.0238095 52:0.0178571 53:0.0150376 55:0.0238095 56:0.0238095 57:0.0112782 58:0.0238095 59:0.0131579 60:0.0119048 61:0.0238095 62:0.015873 63:0.0238095 64:0.0238095 65:0.0238095 66:0.0154062 67:0.0047619 68:0.0238095 70:0.0238095 71:0.010989 72:0.0119048 74:0.00793651 75:0.0112782 76:0.0238095 77:0.00641026 78:0.0119242 79:0.0238095 80:0.0238095 81:0.0238095 82:0.0111111 83:0.0204082 84:0.0238095 85:0.0238095 86:0.00925926 87:0.00892857 88:0.0104762 89:0.0238095 92:0.0238095 93:0.00634921 94:0.0047619 95:0.0142857 96:0.00744048 98:0.0238095 100:0.0238095 101:0.00793651 102:0.0238095 104:0.0238095 105:0.0119048 106:0.0238095 108:0.0238095 109:0.010989 110:0.0119048 111:0.00634921 112:0.00892857 113:0.0070922 114:0.0238095 
0 0 0 0.7612026159231125 1:0.5 2:0.205882 3:0.207447 5:0.5 6:0.227273 10:0.25 11:0.25 12:0.5 13:0.5 14:0.5 15:0.3125 16:0.5 17:0.194444 18:0.15625 19:0.5 21:0.5 22:0.5 25:0.291667 27:0.5 28:0.5 30:0.5 31:0.236842 32:0.5 33:0.208333 34:0.5 35:0.5 38:0.5 39:0.157895 41:0.5 42:0.5 43:0.5 44:0.166667 48:0.5 49:0.5 50:0.5 51:0.5 52:0.375 53:0.315789 55:0.5 56:0.5 57:0.236842 58:0.5 59:0.276316 60:0.25 61:0.5 62:0.333333 63:0.5 64:0.5 65:0.5 66:0.323529 67:0.1 68:0.5 70:0.5 71:0.230769 72:0.25 74:0.166667 75:0.236842 76:0.5 77:0.134615 78:0.283142 79:0.5 80:0.5 81:0.5 82:0.233333 83:0.428571 84:0.5 85:0.5 86:0.194444 87:0.1875 88:0.22 89:0.5 92:0.5 93:0.133333 94:0.1 95:0.3 96:0.15625 98:0.5 100:0.5 101:0.166667 102:0.5 104:0.5 105:0.25 106:0.5 108:0.5 109:0.230769 110:0.25 111:0.133333 112:0.1875 113:0.148936 114:0.5 
0 0.04222286939488491 0 0 1:0.1 2:0.0411765 3:0.043617 5:0.1 6:0.0454545 10:0.05 11:0.05 12:0.1 13:0.1 14:0.1 15:0.0625 16:0.1 17:0.0388889 18:0.034375 19:0.1 21:0.1 22:0.1 25:0.0583333 27:0.1 28:0.1 30:0.1 31:0.0473684 32:0.1 33:0.0416667 34:0.1 35:0.1 38:0.1 39:0.0315789 41:0.1 42:0.1 43:0.1 44:0.0666667 48:0.1 49:0.1 50:0.1 51:0.1 52:0.075 53:0.0631579 55:0.1 56:0.1 57:0.0473684 58:0.1 59:0.0552632 60:0.05 61:0.1 62:0.0666667 63:0.1 64:0.1 65:0.1 66:0.0647059 67:0.02 68:0.1 70:0.1 71:0.0461538 72:0.05 74:0.0333333 75:0.0473684 76:0.1 77:0.0269231 78:0.0553191 79:0.1 80:0.1 81:0.1 82:0.0466667 83:0.0857143 84:0.1 85:0.1 86:0.0416667 87:0.0375 88:0.044 89:0.1 92:0.1 93:0.0266667 94:0.02 95:0.06 96:0.03125 98:0.1 100:0.1 101:0.0333333 102:0.1 104:0.1 105:0.05 106:0.1 108:0.1 109:0.0461538 110:0.05 111:0.0266667 112:0.0375 113:0.0297872 114:0.1 
0 0.1444515329232727 0.01763051427890968 0 1:0.25 2:0.102941 3:0.111702 5:0.25 6:0.113636 10:0.125 11:0.125 12:0.25 13:0.25 14:0.25 15:0.15625 16:0.25 17:0.0972222 18:0.09375 19:0.25 21:0.25 22:0.25 25:0.145833 27:0.25 28:0.25 30:0.25 31:0.118421 32:0.25 33:0.104167 34:0.25 35:0.25 38:0.25 39:0.0789474 41:0.25 42:0.25 43:0.25 44:0.166667 48:0.25 49:0.25 50:0.25 51:0.25 52:0.1875 53:0.157895 55:0.25 56:0.25 57:0.118421 58:0.25 59:0.138158 60:0.125 61:0.25 62:0.166667 63:0.25 64:0.25 65:0.25 66:0.161765 67:0.05 68:0.25 70:0.25 71:0.115385 72:0.125 74:0.0833333 75:0.118421 76:0.25 77:0.0673077 78:0.140753 79:0.25 80:0.25 81:0.25 82:0.116667 83:0.214286 84:0.25 85:0.25 86:0.104167 87:0.09375 88:0.11 89:0.25 92:0.25 93:0.0666667 94:0.05 95:0.15 96:0.078125 98:0.25 100:0.25 101:0.0833333 102:0.25 104:0.25 105:0.125 106:0.25 108:0.25 109:0.115385 110:0.125 111:0.0666667 112:0.09375 113:0.0744681 114:0.25 
0 0.0309602733056675 0 0 1:0.0833333 2:0.0343137 3:0.0381206 5:0.0833333 6:0.0378788 10:0.0416667 11:0.0416667 12:0.0833333 13:0.0833333 14:0.0833333 15:0.0520833 16:0.0833333 17:0.0324074 18:0.03125 19:0.0833333 21:0.0833333 22:0.0833333 25:0.0486111 27:0.0833333 28:0.0833333 30:0.0833333 31:0.0394737 32:0.0833333 33:0.0416667 34:0.0833333 35:0.0833333 38:0.0833333 39:0.0263158 41:0.0833333 42:0.0833333 43:0.0833333 44:0.0555556 48:0.0833333 49:0.0833333 50:0.0833333 51:0.0833333 52:0.0625 53:0.0570175 55:0.0833333 56:0.0833333 57:0.0394737 58:0.0833333 59:0.0460526 60:0.0416667 61:0.0833333 62:0.0555556 63:0.0833333 64:0.0833333 65:0.0833333 66:0.0539216 67:0.0166667 68:0.0833333 70:0.0833333 71:0.0384615 72:0.0416667 74:0.0277778 75:0.0394737 76:0.0833333 77:0.0224359 78:0.0458265 79:0.0833333 80:0.0833333 81:0.0833333 82:0.0388889 83:0.0714286 84:0.0833333 85:0.0833333 86:0.037037 87:0.0364583 88:0.0366667 89:0.0833333 92:0.0833333 93:0.0222222 94:0.0166667 95:0.05 96:0.0260417 98:0.0833333 100:0.0833333 101:0.0277778 102:0.0833333 104:0.0833333 105:0.0416667 106:0.0833333 108:0.0833333 109:0.0384615 110:0.0416667 111:0.0222222 112:0.03125 113:0.0248227 114:0.0833333 
0 0.177850711223999 0 0 1:0.25 2:0.102941 3:0.114362 5:0.25 6:0.113636 10:0.125 11:0.125 12:0.25 13:0.25 14:0.25 15:0.15625 16:0.25 17:0.0972222 18:0.101563 19:0.25 21:0.25 22:0.25 25:0.145833 27:0.25 28:0.25 30:0.25 31:0.118421 32:0.25 33:0.125 34:0.25 35:0.25 38:0.25 39:0.0789474 41:0.25 42:0.25 43:0.25 44:0.166667 48:0.25 49:0.25 50:0.25 51:0.25 52:0.1875 53:0.171053 55:0.25 56:0.25 57:0.118421 58:0.25 59:0.138158 60:0.125 61:0.25 62:0.166667 63:0.25 64:0.25 65:0.25 66:0.161765 67:0.05 68:0.25 70:0.25 71:0.115385 72:0.125 74:0.0833333 75:0.118421 76:0.25 77:0.0673077 78:0.140753 79:0.25 80:0.25 81:0.25 82:0.116667 83:0.214286 84:0.25 85:0.25 86:0.111111 87:0.109375 88:0.11 89:0.25 92:0.25 93:0.0666667 94:0.05 95:0.15 96:0.078125 98:0.25 100:0.25 101:0.0833333 102:0.25 104:0.25 105:0.125 106:0.25 108:0.25 109:0.115385 110:0.125 111:0.0666667 112:0.104167 113:0.0744681 114:0.25 
0 0 0.6761872258234659 0 1:0.5 2:0.205882 3:0.228723 5:0.5 6:0.227273 10:0.25 11:0.25 12:0.5 13:0.5 14:0.5 15:0.3125 16:0.5 17:0.194444 18:0.203125 19:0.5 21:0.5 22:0.5 25:0.291667 26:0.5 27:0.5 28:0.5 30:0.5 31:0.236842 32:0.5 33:0.25 34:0.5 35:0.5 38:0.5 39:0.157895 41:0.5 42:0.5 43:0.5 44:0.333333 48:0.5 49:0.5 50:0.5 51:0.5 52:0.375 53:0.342105 55:0.5 56:0.5 57:0.236842 58:0.5 59:0.276316 60:0.25 61:0.5 62:0.333333 63:0.5 64:0.5 65:0.5 66:0.323529 67:0.1 68:0.5 70:0.5 71:0.230769 72:0.25 74:0.166667 75:0.236842 76:0.5 77:0.134615 78:0.283142 79:0.5 80:0.5 81:0.5 82:0.233333 83:0.428571 84:0.5 85:0.5 86:0.222222 87:0.21875 88:0.22 89:0.5 92:0.5 93:0.166667 94:0.1 95:0.3 96:0.15625 98:0.5 100:0.5 101:0.166667 102:0.5 104:0.5 105:0.25 106:0.5 108:0.5 109:0.230769 110:0.25 111:0.133333 112:0.208333 113:0.159574 114:0.5 
0 0 0.07124049525782668 0.005714872153743575 1:1 2:0.411765 3:0.457447 5:1 6:0.454545 10:0.5 11:0.5 12:1 13:1 14:1 15:0.625 16:1 17:0.388889 18:0.46875 19:1 21:1 22:1 25:0.583333 26:1 27:1 28:1 30:1 31:0.473684 32:1 33:0.5 34:1 35:1 38:1 39:0.315789 41:1 42:1 43:1 44:0.666667 48:1 49:1 50:1 51:1 52:0.75 53:0.684211 55:1 56:1 57:0.473684 58:1 59:0.552632 60:0.5 61:1 62:0.666667 63:1 64:1 65:1 66:0.647059 67:0.2 68:1 70:1 71:0.461538 72:0.5 74:0.333333 75:0.473684 76:1 77:0.269231 78:0.567921 79:1 80:1 81:1 82:0.566667 83:0.857143 84:1 85:1 86:0.444444 87:0.4375 88:0.44 89:1 92:1 93:0.333333 94:0.2 95:0.6 96:0.375 98:1 100:1 101:0.333333 102:1 104:1 105:0.5 106:1 108:1 109:0.461538 110:0.5 111:0.266667 112:0.416667 113:0.319149 114:1 
0 0.5668581627806543 0.02743710355902339 0.02071322377327813 1:0.333333 2:0.137255 3:0.152482 5:0.333333 6:0.151515 10:0.166667 11:0.166667 12:0.333333 13:0.333333 14:0.333333 15:0.208333 16:0.333333 17:0.12963 18:0.15625 19:0.333333 21:0.333333 22:0.333333 25:0.194444 26:0.333333 27:0.333333 28:0.333333 30:0.333333 31:0.157895 32:0.333333 33:0.166667 34:0.333333 35:0.333333 38:0.333333 39:0.105263 41:0.333333 42:0.333333 43:0.333333 44:0.222222 48:0.333333 49:0.333333 50:0.333333 51:0.333333 52:0.25 53:0.22807 55:0.333333 56:0.333333 57:0.157895 58:0.333333 59:0.184211 60:0.166667 61:0.333333 62:0.222222 63:0.333333 64:0.333333 65:0.333333 66:0.215686 67:0.0666667 68:0.333333 70:0.333333 71:0.153846 72:0.166667 74:0.111111 75:0.157895 76:0.333333 77:0.102564 78:0.188216 79:0.333333 80:0.333333 81:0.333333 82:0.188889 83:0.285714 84:0.333333 85:0.333333 86:0.148148 87:0.166667 88:0.146667 89:0.333333 92:0.333333 93:0.111111 94:0.0666667 95:0.2 96:0.125 98:0.333333 100:0.333333 101:0.111111 102:0.333333 104:0.333333 105:0.166667 106:0.333333 108:0.333333 109:0.153846 110:0.171569 111:0.0888889 112:0.138889 113:0.106383 114:0.333333 
0 0.1978089697238297 0 0 1:0.111111 2:0.0457516 3:0.0508274 5:0.111111 6:0.0505051 10:0.0555556 11:0.0555556 12:0.111111 13:0.111111 14:0.111111 15:0.0694444 16:0.111111 17:0.0432099 18:0.0520833 19:0.111111 21:0.111111 22:0.111111 25:0.0648148 26:0.111111 27:0.111111 28:0.111111 30:0.111111 31:0.0526316 32:0.111111 33:0.0555556 34:0.111111 35:0.111111 38:0.111111 39:0.0350877 41:0.111111 42:0.111111 43:0.111111 44:0.0740741 48:0.111111 49:0.111111 50:0.111111 51:0.111111 52:0.0833333 53:0.0760234 55:0.111111 56:0.111111 57:0.0526316 58:0.111111 59:0.0614035 60:0.0555556 61:0.111111 62:0.0740741 63:0.111111 64:0.111111 65:0.111111 66:0.0718954 67:0.0222222 68:0.111111 70:0.111111 71:0.0512821 72:0.0555556 74:0.037037 75:0.0526316 76:0.111111 77:0.034188 78:0.0616476 79:0.111111 80:0.111111 81:0.111111 82:0.062963 83:0.0952381 84:0.111111 85:0.111111 86:0.0493827 87:0.0555556 88:0.0488889 89:0.111111 92:0.111111 93:0.037037 94:0.0222222 95:0.0666667 96:0.0416667 98:0.111111 100:0.111111 101:0.037037 102:0.111111 104:0.111111 105:0.0555556 106:0.111111 108:0.111111 109:0.0512821 110:0.0571895 111:0.0296296 112:0.0462963 113:0.035461 114:0.111111 
0 0.1042095593084701 0 0 1:0.142857 2:0.0588235 3:0.0699088 5:0.142857 6:0.0649351 10:0.0714286 11:0.0714286 12:0.142857 13:0.142857 14:0.142857 15:0.0892857 16:0.142857 17:0.0634921 18:0.0669643 19:0.142857 21:0.142857 22:0.142857 25:0.0833333 26:0.142857 27:0.142857 28:0.142857 30:0.142857 31:0.0676692 32:0.142857 33:0.0714286 34:0.142857 35:0.142857 38:0.142857 39:0.0451128 41:0.142857 42:0.142857 43:0.142857 44:0.0952381 48:0.142857 49:0.142857 50:0.142857 51:0.142857 52:0.107143 53:0.112782 55:0.142857 56:0.142857 57:0.0676692 58:0.142857 59:0.0789474 60:0.0714286 61:0.142857 62:0.0952381 63:0.142857 64:0.142857 65:0.142857 66:0.092437 67:0.0285714 68:0.142857 70:0.142857 71:0.0659341 72:0.0714286 74:0.047619 75:0.0676692 76:0.142857 77:0.043956 78:0.0825345 79:0.142857 80:0.142857 81:0.142857 82:0.0809524 83:0.122449 84:0.142857 85:0.142857 86:0.0634921 87:0.0714286 88:0.0628571 89:0.142857 92:0.142857 93:0.0571429 94:0.0285714 95:0.0857143 96:0.0625 98:0.142857 100:0.142857 101:0.047619 102:0.142857 104:0.142857 105:0.0714286 106:0.142857 108:0.142857 109:0.0659341 110:0.0735294 111:0.0380952 112:0.0595238 113:0.0455927 114:0.142857 
0 0.01514536331979255 0 0 1:0.333333 2:0.137255 3:0.170213 5:0.333333 6:0.151515 10:0.166667 11:0.166667 12:0.333333 13:0.333333 14:0.333333 15:0.208333 16:0.333333 17:0.148148 18:0.166667 19:0.333333 21:0.333333 22:0.333333 25:0.194444 26:0.333333 27:0.333333 28:0.333333 30:0.333333 31:0.157895 32:0.333333 33:0.222222 34:0.333333 35:0.333333 38:0.333333 39:0.105263 41:0.333333 42:0.333333 43:0.333333 44:0.222222 48:0.333333 49:0.333333 50:0.333333 51:0.333333 52:0.25 53:0.263158 55:0.333333 56:0.333333 57:0.192982 58:0.333333 59:0.192982 60:0.166667 61:0.333333 62:0.222222 63:0.333333 64:0.333333 65:0.333333 66:0.215686 67:0.0666667 68:0.333333 70:0.333333 71:0.153846 72:0.190476 74:0.111111 75:0.22807 76:0.333333 77:0.153846 78:0.201309 79:0.333333 80:0.333333 81:0.333333 82:0.222222 83:0.285714 84:0.333333 85:0.333333 86:0.157407 87:0.229167 88:0.173333 89:0.333333 92:0.333333 93:0.155556 94:0.0666667 95:0.2 96:0.208333 98:0.333333 100:0.333333 101:0.111111 102:0.333333 104:0.333333 105:0.166667 106:0.333333 108:0.333333 109:0.179487 110:0.181373 111:0.0888889 112:0.152778 113:0.120567 114:0.333333 
0 0.1190559292837019 0 0 1:0.25 2:0.102941 3:0.12766 5:0.25 6:0.113636 10:0.125 11:0.125 12:0.25 13:0.25 14:0.25 15:0.15625 16:0.25 17:0.111111 18:0.125 19:0.25 21:0.25 22:0.25 25:0.145833 26:0.25 27:0.25 28:0.25 30:0.25 31:0.118421 32:0.25 33:0.166667 34:0.25 35:0.25 38:0.25 39:0.0789474 41:0.25 42:0.25 43:0.25 44:0.166667 48:0.25 49:0.25 50:0.25 51:0.25 52:0.1875 53:0.197368 55:0.25 56:0.25 57:0.144737 58:0.25 59:0.144737 60:0.125 61:0.25 62:0.166667 63:0.25 64:0.25 65:0.25 66:0.161765 67:0.05 68:0.25 70:0.25 71:0.115385 72:0.142857 74:0.0833333 75:0.171053 76:0.25 77:0.115385 78:0.150573 79:0.25 80:0.25 81:0.25 82:0.166667 83:0.214286 84:0.25 85:0.25 86:0.131944 87:0.171875 88:0.13 89:0.25 92:0.25 93:0.116667 94:0.05 95:0.15 96:0.15625 98:0.25 100:0.25 101:0.0833333 102:0.25 104:0.25 105:0.125 106:0.25 108:0.25 109:0.134615 110:0.136029 111:0.0666667 112:0.114583 113:0.0904255 114:0.25 
0 0.2751306895305372 0.3941895923203784 0 1:0.166667 2:0.0686275 3:0.0868794 5:0.166667 6:0.0757576 10:0.0833333 11:0.0833333 12:0.166667 13:0.166667 14:0.166667 15:0.104167 16:0.166667 17:0.0740741 18:0.0833333 19:0.166667 21:0.166667 22:0.166667 25:0.0972222 26:0.166667 27:0.166667 28:0.166667 30:0.166667 31:0.0789474 32:0.166667 33:0.111111 34:0.166667 35:0.166667 38:0.166667 39:0.0526316 41:0.166667 42:0.166667 43:0.166667 44:0.111111 48:0.166667 49:0.166667 50:0.166667 51:0.166667 52:0.125 53:0.131579 55:0.166667 56:0.166667 57:0.0964912 58:0.166667 59:0.0964912 60:0.0833333 61:0.166667 62:0.111111 63:0.166667 64:0.166667 65:0.166667 66:0.107843 67:0.0333333 68:0.166667 70:0.166667 71:0.0769231 72:0.0952381 74:0.0555556 75:0.114035 76:0.166667 77:0.0769231 78:0.0998363 79:0.166667 80:0.166667 81:0.166667 82:0.111111 83:0.142857 84:0.166667 85:0.166667 86:0.087963 87:0.114583 88:0.0866667 89:0.166667 92:0.166667 93:0.0777778 94:0.0333333 95:0.1 96:0.104167 98:0.166667 100:0.166667 101:0.0555556 102:0.166667 104:0.166667 105:0.0833333 106:0.166667 108:0.166667 109:0.0897436 110:0.0906863 111:0.0444444 112:0.0763889 113:0.0638298 114:0.166667 
0 0.09921945406026086 0 0 1:0.25 2:0.102941 3:0.138298 5:0.25 6:0.113636 10:0.125 11:0.125 12:0.25 13:0.25 14:0.25 15:0.15625 16:0.25 17:0.111111 18:0.140625 19:0.25 21:0.25 22:0.25 25:0.15625 26:0.25 27:0.25 28:0.25 30:0.25 31:0.157895 32:0.25 33:0.1875 34:0.25 35:0.25 38:0.25 39:0.131579 41:0.25 42:0.25 43:0.25 44:0.166667 48:0.25 49:0.25 50:0.25 51:0.25 52:0.1875 53:0.197368 55:0.25 56:0.25 57:0.157895 58:0.25 59:0.151316 60:0.125 61:0.25 62:0.166667 63:0.25 64:0.25 65:0.25 66:0.161765 67:0.05 68:0.25 70:0.25 71:0.115385 72:0.160714 74:0.0833333 75:0.171053 76:0.25 77:0.115385 78:0.155483 79:0.25 80:0.25 81:0.25 82:0.175 83:0.214286 84:0.25 85:0.25 86:0.138889 87:0.171875 88:0.13 89:0.25 92:0.25 93:0.133333 94:0.05 95:0.15 96:0.171875 98:0.25 100:0.25 101:0.0833333 102:0.25 104:0.25 105:0.125 106:0.25 108:0.25 109:0.134615 110:0.136029 111:0.1 112:0.114583 113:0.106383 114:0.25 
0.3620227403653782 0 0 0 1:0.333333 2:0.156863 3:0.184397 5:0.333333 6:0.151515 10:0.166667 11:0.166667 12:0.333333 13:0.333333 14:0.333333 15:0.229167 16:0.333333 17:0.166667 18:0.208333 19:0.333333 21:0.333333 22:0.333333 25:0.236111 26:0.333333 27:0.333333 28:0.333333 30:0.333333 31:0.210526 32:0.333333 33:0.25 34:0.333333 35:0.333333 37:0.333333 38:0.333333 39:0.175439 40:0.333333 41:0.333333 42:0.333333 43:0.333333 44:0.222222 48:0.333333 49:0.333333 50:0.333333 51:0.333333 52:0.25 53:0.263158 55:0.333333 56:0.333333 57:0.210526 58:0.333333 59:0.201754 60:0.166667 61:0.333333 62:0.222222 63:0.333333 64:0.333333 65:0.333333 66:0.215686 67:0.0666667 68:0.333333 70:0.333333 71:0.153846 72:0.238095 74:0.111111 75:0.22807 76:0.333333 77:0.166667 78:0.207856 79:0.333333 80:0.333333 81:0.333333 82:0.233333 83:0.333333 84:0.333333 85:0.333333 86:0.185185 87:0.229167 88:0.173333 89:0.333333 92:0.333333 93:0.177778 94:0.133333 95:0.2 96:0.229167 98:0.333333 99:0.111111 100:0.333333 101:0.111111 102:0.333333 103:0.333333 104:0.333333 105:0.166667 106:0.333333 108:0.333333 109:0.179487 110:0.181373 111:0.155556 112:0.166667 113:0.141844 114:0.333333 115:0.333333 
0.7456260469755336 0.1496213786355561 0 0.1216706069960989 1:0.25 2:0.117647 3:0.140957 5:0.25 6:0.113636 10:0.125 11:0.125 12:0.25 13:0.25 14:0.25 15:0.171875 16:0.25 17:0.125 18:0.15625 19:0.25 21:0.25 22:0.25 25:0.177083 26:0.25 27:0.25 28:0.25 30:0.25 31:0.157895 32:0.25 33:0.1875 34:0.25 35:0.25 37:0.25 38:0.25 39:0.131579 40:0.25 41:0.25 42:0.25 43:0.25 44:0.166667 48:0.25 49:0.25 50:0.25 51:0.25 52:0.1875 53:0.197368 55:0.25 56:0.25 57:0.157895 58:0.25 59:0.151316 60:0.125 61:0.25 62:0.166667 63:0.25 64:0.25 65:0.25 66:0.161765 67:0.05 68:0.25 70:0.25 71:0.115385 72:0.178571 74:0.0833333 75:0.171053 76:0.25 77:0.125 78:0.155483 79:0.25 80:0.25 81:0.25 82:0.175 83:0.25 84:0.25 85:0.25 86:0.138889 87:0.171875 88:0.13 89:0.25 92:0.25 93:0.133333 94:0.1 95:0.15 96:0.171875 98:0.25 99:0.0833333 100:0.25 101:0.0833333 102:0.25 103:0.25 104:0.25 105:0.125 106:0.25 108:0.25 109:0.134615 110:0.136029 111:0.116667 112:0.125 113:0.106383 114:0.25 115:0.25 
0.4489937158442252 0 0 0.6366194509897277 1:0.5 2:0.235294 3:0.303191 5:0.5 6:0.227273 10:0.25 11:0.25 12:0.5 13:0.5 14:0.5 15:0.34375 16:0.5 17:0.25 18:0.34375 19:0.5 21:0.5 22:0.5 25:0.354167 26:0.5 27:0.5 28:0.5 30:0.5 31:0.315789 32:0.5 33:0.375 34:0.5 35:0.5 37:0.5 38:0.5 39:0.263158 40:0.5 41:0.5 42:0.5 43:0.5 44:0.333333 48:0.5 49:0.5 50:0.5 51:0.5 52:0.375 53:0.394737 55:0.5 56:0.5 57:0.315789 58:0.5 59:0.302632 60:0.25 61:0.5 62:0.333333 63:0.5 64:0.5 65:0.5 66:0.323529 67:0.1 68:0.5 70:0.5 71:0.230769 72:0.357143 74:0.166667 75:0.342105 76:0.5 77:0.269231 78:0.342062 79:0.5 80:0.5 81:0.5 82:0.35 83:0.5 84:0.5 85:0.5 86:0.291667 87:0.34375 88:0.26 89:0.5 92:0.5 93:0.266667 94:0.2 95:0.3 96:0.34375 98:0.5 99:0.166667 100:0.5 101:0.166667 102:0.5 103:0.5 104:0.5 105:0.25 106:0.5 108:0.5 109:0.269231 110:0.272059 111:0.266667 112:0.270833 113:0.212766 114:0.5 115:0.5 
0.1718601710695012 0 0 0 1:0.166667 2:0.0882353 3:0.102837 5:0.166667 6:0.0757576 10:0.0833333 11:0.0833333 12:0.166667 13:0.166667 14:0.166667 15:0.114583 16:0.166667 17:0.101852 18:0.114583 19:0.166667 21:0.166667 22:0.166667 25:0.125 26:0.166667 27:0.166667 28:0.166667 30:0.166667 31:0.105263 32:0.166667 33:0.125 34:0.166667 35:0.166667 37:0.166667 38:0.166667 39:0.0877193 40:0.166667 41:0.166667 42:0.166667 43:0.166667 44:0.111111 48:0.166667 49:0.166667 50:0.166667 51:0.166667 52:0.125 53:0.131579 55:0.166667 56:0.166667 57:0.105263 58:0.166667 59:0.100877 60:0.0833333 61:0.166667 62:0.111111 63:0.166667 64:0.166667 65:0.166667 66:0.107843 67:0.0333333 68:0.166667 70:0.166667 71:0.0769231 72:0.119048 74:0.0555556 75:0.114035 76:0.166667 77:0.102564 78:0.116203 79:0.166667 80:0.166667 81:0.166667 82:0.116667 83:0.166667 84:0.166667 85:0.166667 86:0.0972222 87:0.114583 88:0.0933333 89:0.166667 92:0.166667 93:0.0888889 94:0.0666667 95:0.1 96:0.114583 98:0.166667 99:0.0555556 100:0.166667 101:0.0555556 102:0.166667 103:0.166667 104:0.166667 105:0.0833333 106:0.166667 108:0.166667 109:0.0897436 110:0.0906863 111:0.0888889 112:0.0902778 113:0.070922 114:0.166667 115:0.166667 
0.1633108149994312 0 0 0 1:0.333333 2:0.176471 3:0.205674 5:0.333333 6:0.151515 10:0.166667 11:0.166667 12:0.333333 13:0.333333 14:0.333333 15:0.229167 16:0.333333 17:0.203704 18:0.229167 19:0.333333 21:0.333333 22:0.333333 25:0.25 26:0.333333 27:0.333333 28:0.333333 30:0.333333 31:0.210526 32:0.333333 33:0.25 34:0.333333 35:0.333333 37:0.333333 38:0.333333 39:0.175439 40:0.333333 41:0.333333 42:0.333333 43:0.333333 44:0.222222 48:0.333333 49:0.333333 50:0.333333 51:0.333333 52:0.25 53:0.263158 55:0.333333 56:0.333333 57:0.210526 58:0.333333 59:0.201754 60:0.166667 61:0.333333 62:0.222222 63:0.333333 64:0.333333 65:0.333333 66:0.215686 67:0.0666667 68:0.333333 70:0.333333 71:0.153846 72:0.238095 74:0.111111 75:0.22807 76:0.333333 77:0.205128 78:0.234043 79:0.333333 80:0.333333 81:0.333333 82:0.233333 83:0.333333 84:0.333333 85:0.333333 86:0.194444 87:0.229167 88:0.186667 89:0.333333 92:0.333333 93:0.177778 94:0.133333 95:0.2 96:0.229167 98:0.333333 99:0.111111 100:0.333333 101:0.111111 102:0.333333 103:0.333333 104:0.333333 105:0.166667 106:0.333333 108:0.333333 109:0.179487 110:0.181373 111:0.177778 112:0.180556 113:0.141844 114:0.333333 115:0.333333 
0.2534504140454127 0 0 0 1:0.111111 2:0.0588235 3:0.0685579 5:0.111111 6:0.0505051 10:0.0555556 11:0.0555556 12:0.111111 13:0.111111 14:0.111111 15:0.0763889 16:0.111111 17:0.0679012 18:0.0763889 19:0.111111 21:0.111111 22:0.111111 25:0.0833333 26:0.111111 27:0.111111 28:0.111111 30:0.111111 31:0.0701754 32:0.111111 33:0.0833333 34:0.111111 35:0.111111 37:0.111111 38:0.111111 39:0.0584795 40:0.111111 41:0.111111 42:0.111111 43:0.111111 44:0.0740741 48:0.111111 49:0.111111 50:0.111111 51:0.111111 52:0.0833333 53:0.0877193 55:0.111111 56:0.111111 57:0.0701754 58:0.111111 59:0.0672515 60:0.0555556 61:0.111111 62:0.0740741 63:0.111111 64:0.111111 65:0.111111 66:0.0718954 67:0.0222222 68:0.111111 70:0.111111 71:0.0512821 72:0.0793651 74:0.037037 75:0.0760234 76:0.111111 77:0.0683761 78:0.0769231 79:0.111111 80:0.111111 81:0.111111 82:0.0777778 83:0.111111 84:0.111111 85:0.111111 86:0.0648148 87:0.0763889 88:0.0622222 89:0.111111 92:0.111111 93:0.0592593 94:0.0444444 95:0.0666667 96:0.0763889 98:0.111111 99:0.037037 100:0.111111 101:0.037037 102:0.111111 103:0.111111 104:0.111111 105:0.0555556 106:0.111111 108:0.111111 109:0.0598291 110:0.0604575 111:0.0592593 112:0.0648148 113:0.0472813 114:0.111111 115:0.111111 
0.008995065642672787 0 0 0.07062331238641674 1:0.5 2:0.264706 3:0.308511 5:0.5 6:0.227273 10:0.25 11:0.25 12:0.5 13:0.5 14:0.5 15:0.34375 16:0.5 17:0.305556 18:0.34375 19:0.5 21:0.5 22:0.5 25:0.375 26:0.5 27:0.5 28:0.5 30:0.5 31:0.315789 32:0.5 33:0.375 34:0.5 35:0.5 37:0.5 38:0.5 39:0.263158 40:0.5 41:0.5 42:0.5 43:0.5 44:0.333333 48:0.5 49:0.5 50:0.5 51:0.5 52:0.375 53:0.394737 55:0.5 56:0.5 57:0.315789 58:0.5 59:0.302632 60:0.25 61:0.5 62:0.333333 63:0.5 64:0.5 65:0.5 66:0.323529 67:0.1 68:0.5 70:0.5 71:0.230769 72:0.357143 74:0.166667 75:0.342105 76:0.5 77:0.307692 78:0.351882 79:0.5 80:0.5 81:0.5 82:0.35 83:0.5 84:0.5 85:0.5 86:0.305556 87:0.34375 88:0.28 89:0.5 92:0.5 93:0.266667 94:0.2 95:0.3 96:0.34375 98:0.5 99:0.166667 100:0.5 101:0.166667 102:0.5 103:0.5 104:0.5 105:0.25 106:0.5 108:0.5 109:0.269231 110:0.272059 111:0.266667 112:0.291667 113:0.212766 114:0.5 115:0.5 
0 0 0 0.321994478796174 1:0.333333 2:0.176471 3:0.219858 5:0.333333 6:0.181818 10:0.166667 11:0.166667 12:0.333333 13:0.333333 14:0.333333 15:0.25 16:0.333333 17:0.203704 18:0.25 19:0.333333 21:0.333333 22:0.333333 25:0.25 26:0.333333 27:0.333333 28:0.333333 30:0.333333 31:0.22807 32:0.333333 33:0.25 34:0.333333 35:0.333333 37:0.333333 38:0.333333 39:0.192982 40:0.333333 41:0.333333 42:0.333333 43:0.333333 44:0.222222 48:0.333333 49:0.333333 50:0.333333 51:0.333333 52:0.25 53:0.263158 55:0.333333 56:0.333333 57:0.22807 58:0.333333 59:0.201754 60:0.166667 61:0.333333 62:0.222222 63:0.333333 64:0.333333 65:0.333333 66:0.254902 67:0.133333 68:0.333333 70:0.333333 71:0.153846 72:0.238095 74:0.111111 75:0.22807 76:0.333333 77:0.217949 78:0.240589 79:0.333333 80:0.333333 81:0.333333 82:0.244444 83:0.333333 84:0.333333 85:0.333333 86:0.212963 87:0.270833 88:0.186667 89:0.333333 92:0.333333 93:0.222222 94:0.266667 95:0.2 96:0.229167 98:0.333333 99:0.111111 100:0.333333 101:0.166667 102:0.333333 103:0.333333 104:0.333333 105:0.166667 106:0.333333 108:0.333333 109:0.230769 110:0.181373 111:0.2 112:0.208333 113:0.156028 114:0.333333 115:0.333333 
0 0 0 0.004739980602269293 1:1 2:0.529412 3:0.659574 5:1 6:0.636364 10:0.5 11:0.5 12:1 13:1 14:1 15:0.75 16:1 17:0.611111 18:0.75 19:1 21:1 22:1 25:0.75 26:1 27:1 28:1 30:1 31:0.736842 32:1 33:0.75 34:1 35:1 37:1 38:1 39:0.578947 40:1 41:1 42:1 43:1 44:0.666667 48:1 49:1 50:1 51:1 52:0.75 53:0.789474 55:1 56:1 57:0.684211 58:1 59:0.605263 60:0.5 61:1 62:0.666667 63:1 64:1 65:1 66:0.764706 67:0.4 68:1 70:1 71:0.461538 72:0.714286 74:0.333333 75:0.684211 76:1 77:0.653846 78:0.744681 79:1 80:1 81:1 82:0.733333 83:1 84:1 85:1 86:0.638889 87:0.8125 88:0.56 89:1 92:1 93:0.666667 94:0.8 95:0.6 96:0.75 98:1 99:0.333333 100:1 101:0.5 102:1 103:1 104:1 105:0.5 106:1 108:1 109:0.692308 110:0.544118 111:0.6 112:0.625 113:0.468085 114:1 115:1 
1 0 0 0 1:0.0142857 2:0.00840336 3:0.00987842 5:0.0142857 6:0.0103896 10:0.00714286 11:0.00714286 12:0.0142857 13:0.0142857 14:0.0142857 15:0.0107143 16:0.0142857 17:0.00873016 18:0.0111607 19:0.0142857 21:0.0142857 22:0.0142857 25:0.0107143 26:0.0142857 27:0.0142857 28:0.0142857 30:0.0142857 31:0.0105263 32:0.0142857 33:0.0119048 34:0.0142857 35:0.0142857 37:0.0142857 38:0.0142857 39:0.00902256 40:0.0142857 41:0.0142857 42:0.0142857 43:0.0142857 44:0.00952381 48:0.0142857 49:0.0142857 50:0.0142857 51:0.0142857 52:0.0142857 53:0.0112782 55:0.0142857 56:0.0142857 57:0.0112782 58:0.0142857 59:0.00977444 60:0.00714286 61:0.0142857 62:0.00952381 63:0.0142857 64:0.0142857 65:0.0142857 66:0.0109244 67:0.00666667 68:0.0142857 70:0.0142857 71:0.00769231 72:0.0112245 74:0.0047619 75:0.00977444 76:0.0142857 77:0.00934066 78:0.00930559 79:0.0142857 80:0.0142857 81:0.0142857 82:0.0114286 83:0.0142857 84:0.0142857 85:0.0142857 86:0.00912698 87:0.0116071 88:0.00914286 89:0.0142857 92:0.0142857 93:0.00952381 94:0.0114286 95:0.00857143 96:0.0116071 98:0.0142857 99:0.0047619 100:0.0142857 101:0.00952381 102:0.0142857 103:0.0142857 104:0.0142857 105:0.00714286 106:0.0142857 108:0.0142857 109:0.00989011 110:0.00777311 111:0.00857143 112:0.00952381 113:0.00668693 114:0.0142857 115:0.0142857 
0 0.2277484275453232 0 0 1:0.25 2:0.147059 3:0.18617 5:0.25 6:0.204545 10:0.125 11:0.125 12:0.25 13:0.25 14:0.25 15:0.1875 16:0.25 17:0.152778 18:0.195313 19:0.25 21:0.25 22:0.25 25:0.197917 26:0.25 27:0.25 28:0.25 30:0.25 31:0.197368 32:0.25 33:0.208333 34:0.25 35:0.25 37:0.25 38:0.25 39:0.171053 40:0.25 41:0.25 42:0.25 43:0.25 44:0.166667 48:0.25 49:0.25 50:0.25 51:0.25 52:0.25 53:0.197368 55:0.25 56:0.25 57:0.197368 58:0.25 59:0.190789 60:0.125 61:0.25 62:0.166667 63:0.25 64:0.25 65:0.25 66:0.191176 67:0.133333 68:0.25 70:0.25 71:0.134615 72:0.196429 74:0.166667 75:0.184211 76:0.25 77:0.173077 78:0.199673 79:0.25 80:0.25 81:0.25 82:0.2 83:0.25 84:0.25 85:0.25 86:0.159722 87:0.203125 88:0.16 89:0.25 92:0.25 93:0.183333 94:0.2 95:0.15 96:0.203125 98:0.25 99:0.0833333 100:0.25 101:0.166667 102:0.25 103:0.25 104:0.25 105:0.125 106:0.25 107:0.25 108:0.25 109:0.173077 110:0.136029 111:0.15 112:0.1875 113:0.12234 114:0.25 115:0.25 
0 0.1396371680223955 0 0 1:0.125 2:0.0735294 3:0.0944149 5:0.125 6:0.102273 10:0.0625 11:0.0625 12:0.125 13:0.125 14:0.125 15:0.09375 16:0.125 17:0.0763889 18:0.0976563 19:0.125 21:0.125 22:0.125 25:0.104167 26:0.125 27:0.125 28:0.125 30:0.125 31:0.0986842 32:0.125 33:0.104167 34:0.125 35:0.125 37:0.125 38:0.125 39:0.0855263 40:0.125 41:0.125 42:0.125 43:0.125 44:0.0833333 48:0.125 49:0.125 50:0.125 51:0.125 52:0.125 53:0.0986842 55:0.125 56:0.125 57:0.0986842 58:0.125 59:0.0953947 60:0.0625 61:0.125 62:0.0833333 63:0.125 64:0.125 65:0.125 66:0.102941 67:0.075 68:0.125 70:0.125 71:0.0769231 72:0.0982143 74:0.0833333 75:0.0921053 76:0.125 77:0.0865385 78:0.101473 79:0.125 80:0.125 81:0.125 82:0.1 83:0.125 84:0.125 85:0.125 86:0.0833333 87:0.101563 88:0.08 89:0.125 92:0.125 93:0.0916667 94:0.1 95:0.075 96:0.101563 98:0.125 99:0.0416667 100:0.125 101:0.0833333 102:0.125 103:0.125 104:0.125 105:0.0625 106:0.125 107:0.125 108:0.125 109:0.0865385 110:0.0680147 111:0.075 112:0.09375 113:0.0611702 114:0.125 115:0.125 
0 0 0.005940043028036246 0 1:0.2 2:0.117647 3:0.155319 5:0.2 6:0.163636 8:0.2 10:0.1 11:0.2 12:0.2 13:0.2 14:0.2 15:0.1625 16:0.2 17:0.122222 18:0.15625 19:0.2 21:0.2 22:0.2 25:0.175 26:0.2 27:0.2 28:0.2 30:0.2 31:0.178947 32:0.2 33:0.166667 34:0.2 35:0.2 37:0.2 38:0.2 39:0.136842 40:0.2 41:0.2 42:0.2 43:0.2 44:0.133333 48:0.2 49:0.2 50:0.2 51:0.2 52:0.2 53:0.157895 55:0.2 56:0.2 57:0.157895 58:0.2 59:0.163158 60:0.1 61:0.2 62:0.133333 63:0.2 64:0.2 65:0.2 66:0.164706 67:0.12 68:0.2 70:0.2 71:0.123077 72:0.157143 74:0.133333 75:0.157895 76:0.2 77:0.146154 78:0.163339 79:0.2 80:0.2 81:0.2 82:0.16 83:0.2 84:0.2 85:0.2 86:0.138889 87:0.175 88:0.128 89:0.2 91:0.2 92:0.2 93:0.146667 94:0.16 95:0.12 96:0.1625 98:0.2 99:0.0666667 100:0.2 101:0.133333 102:0.2 103:0.2 104:0.2 105:0.1 106:0.2 107:0.2 108:0.2 109:0.138462 110:0.108824 111:0.12 112:0.15 113:0.102128 114:0.2 115:0.2 116:0.2 
0 0.2466278360375804 0 0 1:0.2 2:0.117647 3:0.155319 5:0.2 6:0.163636 8:0.2 10:0.1 11:0.2 12:0.2 13:0.2 14:0.2 15:0.1625 16:0.2 17:0.122222 18:0.15625 19:0.2 21:0.2 22:0.2 25:0.175 26:0.2 27:0.2 28:0.2 30:0.2 31:0.178947 32:0.2 33:0.166667 34:0.2 35:0.2 37:0.2 38:0.2 39:0.136842 40:0.2 41:0.2 42:0.2 43:0.2 44:0.133333 48:0.2 49:0.2 50:0.2 51:0.2 52:0.2 53:0.157895 55:0.2 56:0.2 57:0.157895 58:0.2 59:0.163158 60:0.1 61:0.2 62:0.133333 63:0.2 64:0.2 65:0.2 66:0.164706 67:0.133333 68:0.2 70:0.2 71:0.123077 72:0.157143 74:0.133333 75:0.157895 76:0.2 77:0.146154 78:0.163339 79:0.2 80:0.2 81:0.2 82:0.16 83:0.2 84:0.2 85:0.2 86:0.144444 87:0.175 88:0.128 89:0.2 91:0.2 92:0.2 93:0.146667 94:0.16 95:0.12 96:0.1625 98:0.2 99:0.0666667 100:0.2 101:0.133333 102:0.2 103:0.2 104:0.2 105:0.1 106:0.2 107:0.2 108:0.2 109:0.138462 110:0.108824 111:0.12 112:0.15 113:0.102128 114:0.2 115:0.2 116:0.2 
0.09879721343662516 0 0 0 1:0.5 2:0.323529 3:0.388298 4:0.5 5:0.5 6:0.409091 8:0.5 9:0.5 10:0.25 11:0.5 12:0.5 13:0.5 14:0.5 15:0.40625 16:0.5 17:0.333333 18:0.390625 19:0.5 20:0.5 21:0.5 22:0.5 23:0.5 24:0.5 25:0.4375 26:0.5 27:0.5 28:0.5 29:0.5 30:0.5 31:0.447368 32:0.5 33:0.416667 34:0.5 35:0.5 36:0.5 37:0.5 38:0.5 39:0.342105 40:0.5 41:0.5 42:0.5 43:0.5 44:0.333333 45:0.5 47:0.5 48:0.5 49:0.5 50:0.5 51:0.5 52:0.5 53:0.394737 54:0.5 55:0.5 56:0.5 57:0.394737 58:0.5 59:0.421053 60:0.25 61:0.5 62:0.333333 63:0.5 64:0.5 65:0.5 66:0.411765 67:0.333333 68:0.5 70:0.5 71:0.307692 72:0.392857 73:0.5 74:0.333333 75:0.421053 76:0.5 77:0.365385 78:0.430442 79:0.5 80:0.5 81:0.5 82:0.4 83:0.5 84:0.5 85:0.5 86:0.388889 87:0.4375 88:0.32 89:0.5 90:0.5 91:0.5 92:0.5 93:0.366667 94:0.5 95:0.4 96:0.4375 98:0.5 99:0.166667 100:0.5 101:0.333333 102:0.5 103:0.5 104:0.5 105:0.25 106:0.5 107:0.5 108:0.5 109:0.346154 110:0.272059 111:0.333333 112:0.375 113:0.255319 114:0.5 115:0.5 116:0.5 
0.9380736152708784 0 0 0 1:1 2:0.647059 3:0.787234 4:1 5:1 6:0.818182 8:1 9:1 10:0.5 11:1 12:1 13:1 14:1 15:0.8125 16:1 17:0.666667 18:0.78125 19:1 20:1 21:1 22:1 23:1 24:1 25:0.875 26:1 27:1 28:1 29:1 30:1 31:0.894737 32:1 33:0.833333 34:1 35:1 36:1 37:1 38:1 39:0.684211 40:1 41:1 42:1 43:1 44:0.666667 45:1 47:1 48:1 49:1 50:1 51:1 52:1 53:0.789474 54:1 55:1 56:1 57:0.789474 58:1 59:0.842105 60:0.5 61:1 62:0.666667 63:1 64:1 65:1 66:0.823529 67:0.666667 68:1 70:1 71:0.615385 72:0.785714 73:1 74:0.666667 75:0.842105 76:1 77:0.730769 78:0.86252 79:1 80:1 81:1 82:0.8 83:1 84:1 85:1 86:0.777778 87:0.875 88:0.64 89:1 90:1 91:1 92:1 93:0.733333 94:1 95:0.8 96:0.875 98:1 99:0.333333 100:1 101:0.666667 102:1 103:1 104:1 105:0.5 106:1 107:1 108:1 109:0.692308 110:0.544118 111:0.666667 112:0.75 113:0.531915 114:1 115:1 116:1 
0 0.05255112445973817 0 0 1:0.142857 2:0.092437 3:0.112462 4:0.142857 5:0.142857 6:0.116883 8:0.142857 9:0.142857 10:0.0714286 11:0.142857 12:0.142857 13:0.142857 14:0.142857 15:0.116071 16:0.142857 17:0.0952381 18:0.111607 19:0.142857 20:0.142857 21:0.142857 22:0.142857 23:0.142857 24:0.142857 25:0.125 26:0.142857 27:0.142857 28:0.142857 29:0.142857 30:0.142857 31:0.12782 32:0.142857 33:0.119048 34:0.142857 35:0.142857 36:0.142857 37:0.142857 38:0.142857 39:0.0977444 40:0.142857 41:0.142857 42:0.142857 43:0.142857 44:0.0952381 45:0.142857 47:0.142857 48:0.142857 49:0.142857 50:0.142857 51:0.142857 52:0.142857 53:0.112782 54:0.142857 55:0.142857 56:0.142857 57:0.112782 58:0.142857 59:0.120301 60:0.0714286 61:0.142857 62:0.0952381 63:0.142857 64:0.142857 65:0.142857 66:0.117647 67:0.0952381 68:0.142857 70:0.142857 71:0.0879121 72:0.112245 73:0.142857 74:0.0952381 75:0.120301 76:0.142857 77:0.10989 78:0.121814 79:0.142857 80:0.142857 81:0.142857 82:0.114286 83:0.142857 84:0.142857 85:0.142857 86:0.111111 87:0.133929 88:0.0914286 89:0.142857 90:0.142857 91:0.142857 92:0.142857 93:0.104762 94:0.142857 95:0.114286 96:0.125 98:0.142857 99:0.047619 100:0.142857 101:0.0952381 102:0.142857 103:0.142857 104:0.142857 105:0.0714286 106:0.142857 107:0.142857 108:0.142857 109:0.0989011 110:0.0777311 111:0.0952381 112:0.107143 113:0.0759878 114:0.142857 115:0.142857 116:0.142857 
0.2014852609306019 0 0 0 1:0.25 2:0.161765 3:0.199468 4:0.25 5:0.25 6:0.204545 8:0.25 9:0.25 10:0.125 11:0.25 12:0.25 13:0.25 14:0.25 15:0.203125 16:0.25 17:0.180556 18:0.195313 19:0.25 20:0.25 21:0.25 22:0.25 23:0.25 24:0.25 25:0.21875 26:0.25 27:0.25 28:0.25 29:0.25 30:0.25 31:0.223684 32:0.25 33:0.208333 34:0.25 35:0.25 36:0.25 37:0.25 38:0.25 39:0.171053 40:0.25 41:0.25 42:0.25 43:0.25 44:0.166667 45:0.25 47:0.25 48:0.25 49:0.25 50:0.25 51:0.25 52:0.25 53:0.197368 54:0.25 55:0.25 56:0.25 57:0.197368 58:0.25 59:0.210526 60:0.125 61:0.25 62:0.166667 63:0.25 64:0.25 65:0.25 66:0.205882 67:0.166667 68:0.25 70:0.25 71:0.153846 72:0.196429 73:0.25 74:0.166667 75:0.210526 76:0.25 77:0.192308 78:0.214403 79:0.25 80:0.25 81:0.25 82:0.2 83:0.25 84:0.25 85:0.25 86:0.194444 87:0.234375 88:0.16 89:0.25 90:0.25 91:0.25 92:0.25 93:0.183333 94:0.25 95:0.2 96:0.21875 98:0.25 99:0.0833333 100:0.25 101:0.166667 102:0.25 103:0.25 104:0.25 105:0.125 106:0.25 107:0.25 108:0.25 109:0.173077 110:0.136029 111:0.166667 112:0.1875 113:0.132979 114:0.25 115:0.25 116:0.25 
0 1 0 0.02879641592008286 1:0.142857 2:0.092437 3:0.113982 4:0.142857 5:0.142857 6:0.116883 8:0.142857 9:0.142857 10:0.0714286 11:0.142857 12:0.142857 13:0.142857 14:0.142857 15:0.116071 16:0.142857 17:0.103175 18:0.116071 19:0.142857 20:0.142857 21:0.142857 22:0.142857 23:0.142857 24:0.142857 25:0.125 26:0.142857 27:0.142857 28:0.142857 29:0.142857 30:0.142857 31:0.12782 32:0.142857 33:0.119048 34:0.142857 35:0.142857 36:0.142857 37:0.142857 38:0.142857 39:0.0977444 40:0.142857 41:0.142857 42:0.142857 43:0.142857 44:0.0952381 45:0.142857 46:0.142857 47:0.142857 48:0.142857 49:0.142857 50:0.142857 51:0.142857 52:0.142857 53:0.112782 54:0.142857 55:0.142857 56:0.142857 57:0.112782 58:0.142857 59:0.120301 60:0.0714286 61:0.142857 62:0.0952381 63:0.142857 64:0.142857 65:0.142857 66:0.117647 67:0.0952381 68:0.142857 69:0.142857 70:0.142857 71:0.0879121 72:0.112245 73:0.142857 74:0.0952381 75:0.120301 76:0.142857 77:0.10989 78:0.121814 79:0.142857 80:0.142857 81:0.142857 82:0.119048 83:0.142857 84:0.142857 85:0.142857 86:0.111111 87:0.133929 88:0.0914286 89:0.142857 90:0.142857 91:0.142857 92:0.142857 93:0.104762 94:0.142857 95:0.114286 96:0.125 98:0.142857 99:0.047619 100:0.142857 101:0.0952381 102:0.142857 103:0.142857 104:0.142857 105:0.0714286 106:0.142857 107:0.142857 108:0.142857 109:0.10989 110:0.0777311 111:0.114286 112:0.107143 113:0.0820669 114:0.142857 115:0.142857 116:0.142857 
0 0 0 0.04547674518244907 1:0.333333 2:0.215686 3:0.265957 4:0.333333 5:0.333333 6:0.272727 8:0.333333 9:0.333333 10:0.166667 11:0.333333 12:0.333333 13:0.333333 14:0.333333 15:0.270833 16:0.333333 17:0.240741 18:0.28125 19:0.333333 20:0.333333 21:0.333333 22:0.333333 23:0.333333 24:0.333333 25:0.291667 26:0.333333 27:0.333333 28:0.333333 29:0.333333 30:0.333333 31:0.298246 32:0.333333 33:0.277778 34:0.333333 35:0.333333 36:0.333333 37:0.333333 38:0.333333 39:0.22807 40:0.333333 41:0.333333 42:0.333333 43:0.333333 44:0.222222 45:0.333333 46:0.333333 47:0.333333 48:0.333333 49:0.333333 50:0.333333 51:0.333333 52:0.333333 53:0.263158 54:0.333333 55:0.333333 56:0.333333 57:0.263158 58:0.333333 59:0.280702 60:0.166667 61:0.333333 62:0.222222 63:0.333333 64:0.333333 65:0.333333 66:0.27451 67:0.222222 68:0.333333 69:0.333333 70:0.333333 71:0.205128 72:0.261905 73:0.333333 74:0.222222 75:0.280702 76:0.333333 77:0.25641 78:0.286416 79:0.333333 80:0.333333 81:0.333333 82:0.277778 83:0.333333 84:0.333333 85:0.333333 86:0.259259 87:0.3125 88:0.213333 89:0.333333 90:0.333333 91:0.333333 92:0.333333 93:0.244444 94:0.333333 95:0.266667 96:0.291667 98:0.333333 99:0.111111 100:0.333333 101:0.222222 102:0.333333 103:0.333333 104:0.333333 105:0.166667 106:0.333333 107:0.333333 108:0.333333 109:0.25641 110:0.181373 111:0.266667 112:0.25 113:0.191489 114:0.333333 115:0.333333 116:0.333333 
0 1 0 0.02806060372133823 1:0.0909091 2:0.0588235 3:0.0725338 4:0.0909091 5:0.0909091 6:0.0743802 8:0.0909091 9:0.0909091 10:0.0454545 11:0.0909091 12:0.0909091 13:0.0909091 14:0.0909091 15:0.0738636 16:0.0909091 17:0.0656566 18:0.0767045 19:0.0909091 20:0.0909091 21:0.0909091 22:0.0909091 23:0.0909091 24:0.0909091 25:0.0795455 26:0.0909091 27:0.0909091 28:0.0909091 29:0.0909091 30:0.0909091 31:0.0813397 32:0.0909091 33:0.0757576 34:0.0909091 35:0.0909091 36:0.0909091 37:0.0909091 38:0.0909091 39:0.062201 40:0.0909091 41:0.0909091 42:0.0909091 43:0.0909091 44:0.0606061 45:0.0909091 46:0.0909091 47:0.0909091 48:0.0909091 49:0.0909091 50:0.0909091 51:0.0909091 52:0.0909091 53:0.0717703 54:0.0909091 55:0.0909091 56:0.0909091 57:0.0717703 58:0.0909091 59:0.076555 60:0.0454545 61:0.0909091 62:0.0606061 63:0.0909091 64:0.0909091 65:0.0909091 66:0.0748663 67:0.0606061 68:0.0909091 69:0.0909091 70:0.0909091 71:0.0559441 72:0.0714286 73:0.0909091 74:0.0606061 75:0.076555 76:0.0909091 77:0.0699301 78:0.0769231 79:0.0909091 80:0.0909091 81:0.0909091 82:0.0757576 83:0.0909091 84:0.0909091 85:0.0909091 86:0.0707071 87:0.0852273 88:0.0581818 89:0.0909091 90:0.0909091 91:0.0909091 92:0.0909091 93:0.0727273 94:0.0909091 95:0.0727273 96:0.0795455 98:0.0909091 99:0.030303 100:0.0909091 101:0.0606061 102:0.0909091 103:0.0909091 104:0.0909091 105:0.0454545 106:0.0909091 107:0.0909091 108:0.0909091 109:0.0699301 110:0.0494652 111:0.0727273 112:0.0681818 113:0.0522244 114:0.0909091 115:0.0909091 116:0.0909091 
0 0.03456547439762422 0 0.03011836409799306 1:0.25 2:0.161765 3:0.199468 4:0.25 5:0.25 6:0.204545 8:0.25 9:0.25 10:0.125 11:0.25 12:0.25 13:0.25 14:0.25 15:0.203125 16:0.25 17:0.180556 18:0.210938 19:0.25 20:0.25 21:0.25 22:0.25 23:0.25 24:0.25 25:0.229167 26:0.25 27:0.25 28:0.25 29:0.25 30:0.25 31:0.223684 32:0.25 33:0.208333 34:0.25 35:0.25 36:0.25 37:0.25 38:0.25 39:0.171053 40:0.25 41:0.25 42:0.25 43:0.25 44:0.166667 45:0.25 46:0.25 47:0.25 48:0.25 49:0.25 50:0.25 51:0.25 52:0.25 53:0.197368 54:0.25 55:0.25 56:0.25 57:0.223684 58:0.25 59:0.210526 60:0.125 61:0.25 62:0.166667 63:0.25 64:0.25 65:0.25 66:0.205882 67:0.166667 68:0.25 69:0.25 70:0.25 71:0.153846 72:0.196429 73:0.25 74:0.166667 75:0.210526 76:0.25 77:0.192308 78:0.214403 79:0.25 80:0.25 81:0.25 82:0.208333 83:0.25 84:0.25 85:0.25 86:0.194444 87:0.234375 88:0.16 89:0.25 90:0.25 91:0.25 92:0.25 93:0.2 94:0.25 95:0.2 96:0.21875 98:0.25 99:0.0833333 100:0.25 101:0.166667 102:0.25 103:0.25 104:0.25 105:0.125 106:0.25 107:0.25 108:0.25 109:0.192308 110:0.136029 111:0.2 112:0.1875 113:0.148936 114:0.25 115:0.25 116:0.25 
0 0 0 0.06817281720845672 1:0.333333 2:0.215686 3:0.27305 4:0.333333 5:0.333333 6:0.272727 8:0.333333 9:0.333333 10:0.166667 11:0.333333 12:0.333333 13:0.333333 14:0.333333 15:0.270833 16:0.333333 17:0.259259 18:0.28125 19:0.333333 20:0.333333 21:0.333333 22:0.333333 23:0.333333 24:0.333333 25:0.305556 26:0.333333 27:0.333333 28:0.333333 29:0.333333 30:0.333333 31:0.298246 32:0.333333 33:0.277778 34:0.333333 35:0.333333 36:0.333333 37:0.333333 38:0.333333 39:0.263158 40:0.333333 41:0.333333 42:0.333333 43:0.333333 44:0.222222 45:0.333333 46:0.333333 47:0.333333 48:0.333333 49:0.333333 50:0.333333 51:0.333333 52:0.333333 53:0.263158 54:0.333333 55:0.333333 56:0.333333 57:0.298246 58:0.333333 59:0.289474 60:0.25 61:0.333333 62:0.222222 63:0.333333 64:0.333333 65:0.333333 66:0.27451 67:0.244444 68:0.333333 69:0.333333 70:0.333333 71:0.205128 72:0.261905 73:0.333333 74:0.222222 75:0.298246 76:0.333333 77:0.25641 78:0.286416 79:0.333333 80:0.333333 81:0.333333 82:0.277778 83:0.333333 84:0.333333 85:0.333333 86:0.277778 87:0.3125 88:0.213333 89:0.333333 90:0.333333 91:0.333333 92:0.333333 93:0.266667 94:0.333333 95:0.266667 96:0.291667 98:0.333333 99:0.111111 100:0.333333 101:0.222222 102:0.333333 103:0.333333 104:0.333333 105:0.166667 106:0.333333 107:0.333333 108:0.333333 109:0.25641 110:0.181373 111:0.266667 112:0.263889 113:0.212766 114:0.333333 115:0.333333 116:0.333333 
0 0 0 0.1347881586300609 1:0.25 2:0.161765 3:0.207447 4:0.25 5:0.25 6:0.204545 8:0.25 9:0.25 10:0.125 11:0.25 12:0.25 13:0.25 14:0.25 15:0.203125 16:0.25 17:0.194444 18:0.210938 19:0.25 20:0.25 21:0.25 22:0.25 23:0.25 24:0.25 25:0.229167 26:0.25 27:0.25 28:0.25 29:0.25 30:0.25 31:0.223684 32:0.25 33:0.208333 34:0.25 35:0.25 36:0.25 37:0.25 38:0.25 39:0.197368 40:0.25 41:0.25 42:0.25 43:0.25 44:0.166667 45:0.25 46:0.25 47:0.25 48:0.25 49:0.25 50:0.25 51:0.25 52:0.25 53:0.197368 54:0.25 55:0.25 56:0.25 57:0.223684 58:0.25 59:0.223684 60:0.1875 61:0.25 62:0.166667 63:0.25 64:0.25 65:0.25 66:0.205882 67:0.183333 68:0.25 69:0.25 70:0.25 71:0.153846 72:0.232143 73:0.25 74:0.166667 75:0.236842 76:0.25 77:0.192308 78:0.214403 79:0.25 80:0.25 81:0.25 82:0.208333 83:0.25 84:0.25 85:0.25 86:0.208333 87:0.234375 88:0.16 89:0.25 90:0.25 91:0.25 92:0.25 93:0.2 94:0.25 95:0.25 96:0.21875 98:0.25 99:0.0833333 100:0.25 101:0.166667 102:0.25 103:0.25 104:0.25 105:0.125 106:0.25 107:0.25 108:0.25 109:0.192308 110:0.139706 111:0.216667 112:0.197917 113:0.164894 114:0.25 115:0.25 116:0.25 
0 0 0 0.01971194903260693 1:0.142857 2:0.092437 3:0.121581 4:0.142857 5:0.142857 6:0.12987 8:0.142857 9:0.142857 10:0.142857 11:0.142857 12:0.142857 13:0.142857 14:0.142857 15:0.116071 16:0.142857 17:0.111111 18:0.120536 19:0.142857 20:0.142857 21:0.142857 22:0.142857 23:0.142857 24:0.142857 25:0.130952 26:0.142857 27:0.142857 28:0.142857 29:0.142857 30:0.142857 31:0.12782 32:0.142857 33:0.119048 34:0.142857 35:0.142857 36:0.142857 37:0.142857 38:0.142857 39:0.120301 40:0.142857 41:0.142857 42:0.142857 43:0.142857 44:0.0952381 45:0.142857 46:0.142857 47:0.142857 48:0.142857 49:0.142857 50:0.142857 51:0.142857 52:0.142857 53:0.120301 54:0.142857 55:0.142857 56:0.142857 57:0.12782 58:0.142857 59:0.12782 60:0.107143 61:0.142857 62:0.0952381 63:0.142857 64:0.142857 65:0.142857 66:0.117647 67:0.104762 68:0.142857 69:0.142857 70:0.142857 71:0.0879121 72:0.132653 73:0.142857 74:0.0952381 75:0.135338 76:0.142857 77:0.10989 78:0.12462 79:0.142857 80:0.142857 81:0.142857 82:0.119048 83:0.142857 84:0.142857 85:0.142857 86:0.119048 87:0.133929 88:0.0971429 89:0.142857 90:0.142857 91:0.142857 92:0.142857 93:0.114286 94:0.142857 95:0.142857 96:0.125 98:0.142857 99:0.047619 100:0.142857 101:0.0952381 102:0.142857 103:0.142857 104:0.142857 105:0.0714286 106:0.142857 107:0.142857 108:0.142857 109:0.10989 110:0.0798319 111:0.12381 112:0.113095 113:0.0942249 114:0.142857 115:0.142857 116:0.142857 
0 0 0 0.005138503921083341 1:0.125 2:0.0882353 3:0.107713 4:0.125 5:0.125 6:0.113636 8:0.125 9:0.125 10:0.125 11:0.125 12:0.125 13:0.125 14:0.125 15:0.109375 16:0.125 17:0.0972222 18:0.109375 19:0.125 20:0.125 21:0.125 22:0.125 23:0.125 24:0.125 25:0.114583 26:0.125 27:0.125 28:0.125 29:0.125 30:0.125 31:0.118421 32:0.125 33:0.104167 34:0.125 35:0.125 36:0.125 37:0.125 38:0.125 39:0.105263 40:0.125 41:0.125 42:0.125 43:0.125 44:0.0833333 45:0.125 46:0.125 47:0.125 48:0.125 49:0.125 50:0.125 51:0.125 52:0.125 53:0.105263 54:0.125 55:0.125 56:0.125 57:0.111842 58:0.125 59:0.111842 60:0.09375 61:0.125 62:0.0833333 63:0.125 64:0.125 65:0.125 66:0.102941 67:0.0916667 68:0.125 69:0.125 70:0.125 71:0.0769231 72:0.116071 73:0.125 74:0.0833333 75:0.118421 76:0.125 77:0.105769 78:0.108838 79:0.125 80:0.125 81:0.125 82:0.104167 83:0.125 84:0.125 85:0.125 86:0.104167 87:0.117188 88:0.09 89:0.125 90:0.125 91:0.125 92:0.125 93:0.1 94:0.125 95:0.125 96:0.109375 98:0.125 99:0.0416667 100:0.125 101:0.0833333 102:0.125 103:0.125 104:0.125 105:0.0625 106:0.125 107:0.125 108:0.125 109:0.0961538 110:0.0698529 111:0.108333 112:0.0989583 113:0.0851064 114:0.125 115:0.125 116:0.125 
0 0 0 0.02457290445394212 1:0.333333 2:0.235294 3:0.287234 4:0.333333 5:0.333333 6:0.30303 8:0.333333 9:0.333333 10:0.333333 11:0.333333 12:0.333333 13:0.333333 14:0.333333 15:0.291667 16:0.333333 17:0.259259 18:0.291667 19:0.333333 20:0.333333 21:0.333333 22:0.333333 23:0.333333 24:0.333333 25:0.305556 26:0.333333 27:0.333333 28:0.333333 29:0.333333 30:0.333333 31:0.315789 32:0.333333 33:0.277778 34:0.333333 35:0.333333 36:0.333333 37:0.333333 38:0.333333 39:0.280702 40:0.333333 41:0.333333 42:0.333333 43:0.333333 44:0.222222 45:0.333333 46:0.333333 47:0.333333 48:0.333333 49:0.333333 50:0.333333 51:0.333333 52:0.333333 53:0.280702 54:0.333333 55:0.333333 56:0.333333 57:0.298246 58:0.333333 59:0.298246 60:0.25 61:0.333333 62:0.222222 63:0.333333 64:0.333333 65:0.333333 66:0.27451 67:0.244444 68:0.333333 69:0.333333 70:0.333333 71:0.205128 72:0.309524 73:0.333333 74:0.222222 75:0.315789 76:0.333333 77:0.282051 78:0.292962 79:0.333333 80:0.333333 81:0.333333 82:0.277778 83:0.333333 84:0.333333 85:0.333333 86:0.287037 87:0.3125 88:0.24 89:0.333333 90:0.333333 91:0.333333 92:0.333333 93:0.266667 94:0.333333 95:0.333333 96:0.291667 98:0.333333 99:0.111111 100:0.333333 101:0.222222 102:0.333333 103:0.333333 104:0.333333 105:0.166667 106:0.333333 107:0.333333 108:0.333333 109:0.25641 110:0.186275 111:0.311111 112:0.263889 113:0.234043 114:0.333333 115:0.333333 116:0.333333 
0.2637313215060432 0 0 0 1:0.333333 2:0.235294 3:0.297872 4:0.333333 5:0.333333 6:0.30303 7:0.333333 8:0.333333 9:0.333333 10:0.333333 11:0.333333 12:0.333333 13:0.333333 14:0.333333 15:0.291667 16:0.333333 17:0.259259 18:0.302083 19:0.333333 20:0.333333 21:0.333333 22:0.333333 23:0.333333 24:0.333333 25:0.305556 26:0.333333 27:0.333333 28:0.333333 29:0.333333 30:0.333333 31:0.315789 32:0.333333 33:0.305556 34:0.333333 35:0.333333 36:0.333333 37:0.333333 38:0.333333 39:0.280702 40:0.333333 41:0.333333 42:0.333333 43:0.333333 44:0.222222 45:0.333333 46:0.333333 47:0.333333 48:0.333333 49:0.333333 50:0.333333 51:0.333333 52:0.333333 53:0.280702 54:0.333333 55:0.333333 56:0.333333 57:0.298246 58:0.333333 59:0.298246 60:0.25 61:0.333333 62:0.333333 63:0.333333 64:0.333333 65:0.333333 66:0.27451 67:0.266667 68:0.333333 69:0.333333 70:0.333333 71:0.230769 72:0.309524 73:0.333333 74:0.222222 75:0.315789 76:0.333333 77:0.282051 78:0.292962 79:0.333333 80:0.333333 81:0.333333 82:0.277778 83:0.333333 84:0.333333 85:0.333333 86:0.287037 87:0.3125 88:0.24 89:0.333333 90:0.333333 91:0.333333 92:0.333333 93:0.266667 94:0.333333 95:0.333333 96:0.291667 97:0.333333 98:0.333333 99:0.222222 100:0.333333 101:0.277778 102:0.333333 103:0.333333 104:0.333333 105:0.166667 106:0.333333 107:0.333333 108:0.333333 109:0.25641 110:0.186275 111:0.311111 112:0.263889 113:0.234043 114:0.333333 115:0.333333 116:0.333333 
0.3065385201577091 0 0 0 1:0.2 2:0.141176 3:0.185106 4:0.2 5:0.2 6:0.181818 7:0.2 8:0.2 9:0.2 10:0.2 11:0.2 12:0.2 13:0.2 14:0.2 15:0.1875 16:0.2 17:0.155556 18:0.18125 19:0.2 20:0.2 21:0.2 22:0.2 23:0.2 24:0.2 25:0.183333 26:0.2 27:0.2 28:0.2 29:0.2 30:0.2 31:0.189474 32:0.2 33:0.183333 34:0.2 35:0.2 36:0.2 37:0.2 38:0.2 39:0.178947 40:0.2 41:0.2 42:0.2 43:0.2 44:0.133333 45:0.2 46:0.2 47:0.2 48:0.2 49:0.2 50:0.2 51:0.2 52:0.2 53:0.189474 54:0.2 55:0.2 56:0.2 57:0.178947 58:0.2 59:0.189474 60:0.15 61:0.2 62:0.2 63:0.2 64:0.2 65:0.2 66:0.164706 67:0.173333 68:0.2 69:0.2 70:0.2 71:0.138462 72:0.185714 73:0.2 74:0.133333 75:0.189474 76:0.2 77:0.169231 78:0.182979 79:0.2 80:0.2 81:0.2 82:0.173333 83:0.2 84:0.2 85:0.2 86:0.177778 87:0.2 88:0.144 89:0.2 90:0.2 91:0.2 92:0.2 93:0.173333 94:0.2 95:0.2 96:0.175 97:0.2 98:0.2 99:0.133333 100:0.2 101:0.166667 102:0.2 103:0.2 104:0.2 105:0.1 106:0.2 107:0.2 108:0.2 109:0.169231 110:0.111765 111:0.186667 112:0.158333 113:0.144681 114:0.2 115:0.2 116:0.2 
0.1000420882504047 0 0 0 1:0.25 2:0.176471 3:0.234043 4:0.25 5:0.25 6:0.227273 7:0.25 8:0.25 9:0.25 10:0.25 11:0.25 12:0.25 13:0.25 14:0.25 15:0.234375 16:0.25 17:0.194444 18:0.226563 19:0.25 20:0.25 21:0.25 22:0.25 23:0.25 24:0.25 25:0.229167 26:0.25 27:0.25 28:0.25 29:0.25 30:0.25 31:0.236842 32:0.25 33:0.229167 34:0.25 35:0.25 36:0.25 37:0.25 38:0.25 39:0.236842 40:0.25 41:0.25 42:0.25 43:0.25 44:0.166667 45:0.25 46:0.25 47:0.25 48:0.25 49:0.25 50:0.25 51:0.25 52:0.25 53:0.236842 54:0.25 55:0.25 56:0.25 57:0.223684 58:0.25 59:0.243421 60:0.1875 61:0.25 62:0.25 63:0.25 64:0.25 65:0.25 66:0.205882 67:0.216667 68:0.25 69:0.25 70:0.25 71:0.173077 72:0.232143 73:0.25 74:0.166667 75:0.236842 76:0.25 77:0.211538 78:0.234043 79:0.25 80:0.25 81:0.25 82:0.225 83:0.25 84:0.25 85:0.25 86:0.222222 87:0.25 88:0.19 89:0.25 90:0.25 91:0.25 92:0.25 93:0.216667 94:0.25 95:0.25 96:0.21875 97:0.25 98:0.25 99:0.166667 100:0.25 101:0.208333 102:0.25 103:0.25 104:0.25 105:0.125 106:0.25 107:0.25 108:0.25 109:0.211538 110:0.139706 111:0.233333 112:0.197917 113:0.191489 114:0.25 115:0.25 116:0.25 
0.64894401812032 0 0 0 1:0.5 2:0.352941 3:0.478723 4:0.5 5:0.5 6:0.5 7:0.5 8:0.5 9:0.5 10:0.5 11:0.5 12:0.5 13:0.5 14:0.5 15:0.46875 16:0.5 17:0.388889 18:0.453125 19:0.5 20:0.5 21:0.5 22:0.5 23:0.5 24:0.5 25:0.479167 26:0.5 27:0.5 28:0.5 29:0.5 30:0.5 31:0.473684 32:0.5 33:0.458333 34:0.5 35:0.5 36:0.5 37:0.5 38:0.5 39:0.5 40:0.5 41:0.5 42:0.5 43:0.5 44:0.333333 45:0.5 46:0.5 47:0.5 48:0.5 49:0.5 50:0.5 51:0.5 52:0.5 53:0.473684 54:0.5 55:0.5 56:0.5 57:0.473684 58:0.5 59:0.486842 60:0.375 61:0.5 62:0.5 63:0.5 64:0.5 65:0.5 66:0.411765 67:0.433333 68:0.5 69:0.5 70:0.5 71:0.384615 72:0.5 73:0.5 74:0.333333 75:0.473684 76:0.5 77:0.480769 78:0.479542 79:0.5 80:0.5 81:0.5 82:0.45 83:0.5 84:0.5 85:0.5 86:0.458333 87:0.5 88:0.42 89:0.5 90:0.5 91:0.5 92:0.5 93:0.433333 94:0.5 95:0.5 96:0.46875 97:0.5 98:0.5 99:0.333333 100:0.5 101:0.416667 102:0.5 103:0.5 104:0.5 105:0.25 106:0.5 107:0.5 108:0.5 109:0.461538 110:0.279412 111:0.466667 112:0.416667 113:0.414894 114:0.5 115:0.5 116:0.5 
0 1 0 0 1:0.2 2:0.152941 3:0.193617 4:0.2 5:0.2 6:0.2 7:0.2 8:0.2 9:0.2 10:0.2 11:0.2 12:0.2 13:0.2 14:0.2 15:0.2 16:0.2 17:0.177778 18:0.1875 19:0.2 20:0.2 21:0.2 22:0.2 23:0.2 24:0.2 25:0.2 26:0.2 27:0.2 28:0.2 29:0.2 30:0.2 31:0.189474 32:0.2 33:0.2 34:0.2 35:0.2 36:0.2 37:0.2 38:0.2 39:0.2 40:0.2 41:0.2 42:0.2 43:0.2 44:0.133333 45:0.2 46:0.2 47:0.2 48:0.2 49:0.2 50:0.2 51:0.2 52:0.2 53:0.189474 54:0.2 55:0.2 56:0.2 57:0.2 58:0.2 59:0.194737 60:0.15 61:0.2 62:0.2 63:0.2 64:0.2 65:0.2 66:0.164706 67:0.173333 68:0.2 69:0.2 70:0.2 71:0.153846 72:0.2 73:0.2 74:0.133333 75:0.189474 76:0.2 77:0.192308 78:0.190835 79:0.2 80:0.2 81:0.2 82:0.186667 83:0.2 84:0.2 85:0.2 86:0.194444 87:0.2 88:0.192 89:0.2 90:0.2 91:0.2 92:0.2 93:0.173333 94:0.2 95:0.2 96:0.1875 97:0.2 98:0.2 99:0.2 100:0.2 101:0.166667 102:0.2 103:0.2 104:0.2 105:0.1 106:0.2 107:0.2 108:0.2 109:0.184615 110:0.129412 111:0.186667 112:0.166667 113:0.187234 114:0.2 115:0.2 116:0.2 
0 0.0419337603650875 0 0 1:0.142857 2:0.109244 3:0.141337 4:0.142857 5:0.142857 6:0.142857 7:0.142857 8:0.142857 9:0.142857 10:0.142857 11:0.142857 12:0.142857 13:0.142857 14:0.142857 15:0.142857 16:0.142857 17:0.126984 18:0.138393 19:0.142857 20:0.142857 21:0.142857 22:0.142857 23:0.142857 24:0.142857 25:0.142857 26:0.142857 27:0.142857 28:0.142857 29:0.142857 30:0.142857 31:0.135338 32:0.142857 33:0.142857 34:0.142857 35:0.142857 36:0.142857 37:0.142857 38:0.142857 39:0.142857 40:0.142857 41:0.142857 42:0.142857 43:0.142857 44:0.0952381 45:0.142857 46:0.142857 47:0.142857 48:0.142857 49:0.142857 50:0.142857 51:0.142857 52:0.142857 53:0.135338 54:0.142857 55:0.142857 56:0.142857 57:0.142857 58:0.142857 59:0.139098 60:0.142857 61:0.142857 62:0.142857 63:0.142857 64:0.142857 65:0.142857 66:0.12605 67:0.12381 68:0.142857 69:0.142857 70:0.142857 71:0.10989 72:0.142857 73:0.142857 74:0.0952381 75:0.142857 76:0.142857 77:0.137363 78:0.135843 79:0.142857 80:0.142857 81:0.142857 82:0.133333 83:0.142857 84:0.142857 85:0.142857 86:0.138889 87:0.142857 88:0.137143 89:0.142857 90:0.142857 91:0.142857 92:0.142857 93:0.12381 94:0.142857 95:0.142857 96:0.142857 97:0.142857 98:0.142857 99:0.142857 100:0.142857 101:0.119048 102:0.142857 103:0.142857 104:0.142857 105:0.0714286 106:0.142857 107:0.142857 108:0.142857 109:0.131868 110:0.140756 111:0.133333 112:0.125 113:0.133739 114:0.142857 115:0.142857 116:0.142857 
0 0.1892608173564584 0 0 1:0.333333 2:0.254902 3:0.329787 4:0.333333 5:0.333333 6:0.333333 7:0.333333 8:0.333333 9:0.333333 10:0.333333 11:0.333333 12:0.333333 13:0.333333 14:0.333333 15:0.333333 16:0.333333 17:0.296296 18:0.322917 19:0.333333 20:0.333333 21:0.333333 22:0.333333 23:0.333333 24:0.333333 25:0.333333 26:0.333333 27:0.333333 28:0.333333 29:0.333333 30:0.333333 31:0.315789 32:0.333333 33:0.333333 34:0.333333 35:0.333333 36:0.333333 37:0.333333 38:0.333333 39:0.333333 40:0.333333 41:0.333333 42:0.333333 43:0.333333 44:0.222222 45:0.333333 46:0.333333 47:0.333333 48:0.333333 49:0.333333 50:0.333333 51:0.333333 52:0.333333 53:0.315789 54:0.333333 55:0.333333 56:0.333333 57:0.333333 58:0.333333 59:0.324561 60:0.333333 61:0.333333 62:0.333333 63:0.333333 64:0.333333 65:0.333333 66:0.313725 67:0.288889 68:0.333333 69:0.333333 70:0.333333 71:0.25641 72:0.333333 73:0.333333 74:0.222222 75:0.333333 76:0.333333 77:0.333333 78:0.319149 79:0.333333 80:0.333333 81:0.333333 82:0.322222 83:0.333333 84:0.333333 85:0.333333 86:0.324074 87:0.333333 88:0.32 89:0.333333 90:0.333333 91:0.333333 92:0.333333 93:0.288889 94:0.333333 95:0.333333 96:0.333333 97:0.333333 98:0.333333 99:0.333333 100:0.333333 101:0.277778 102:0.333333 103:0.333333 104:0.333333 105:0.166667 106:0.333333 107:0.333333 108:0.333333 109:0.307692 110:0.328431 111:0.311111 112:0.291667 113:0.312057 114:0.333333 115:0.333333 116:0.333333 
0.160553410091055 0.2982385068998235 0 0 1:0.25 2:0.191176 3:0.24734 4:0.25 5:0.25 6:0.25 7:0.25 8:0.25 9:0.25 10:0.25 11:0.25 12:0.25 13:0.25 14:0.25 15:0.25 16:0.25 17:0.222222 18:0.242188 19:0.25 20:0.25 21:0.25 22:0.25 23:0.25 24:0.25 25:0.25 26:0.25 27:0.25 28:0.25 29:0.25 30:0.25 31:0.236842 32:0.25 33:0.25 34:0.25 35:0.25 36:0.25 37:0.25 38:0.25 39:0.25 40:0.25 41:0.25 42:0.25 43:0.25 44:0.166667 45:0.25 46:0.25 47:0.25 48:0.25 49:0.25 50:0.25 51:0.25 52:0.25 53:0.236842 54:0.25 55:0.25 56:0.25 57:0.25 58:0.25 59:0.243421 60:0.25 61:0.25 62:0.25 63:0.25 64:0.25 65:0.25 66:0.235294 67:0.216667 68:0.25 69:0.25 70:0.25 71:0.192308 72:0.25 73:0.25 74:0.166667 75:0.25 76:0.25 77:0.25 78:0.238953 79:0.25 80:0.25 81:0.25 82:0.241667 83:0.25 84:0.25 85:0.25 86:0.243056 87:0.25 88:0.24 89:0.25 90:0.25 91:0.25 92:0.25 93:0.216667 94:0.25 95:0.25 96:0.25 97:0.25 98:0.25 99:0.25 100:0.25 101:0.208333 102:0.25 103:0.25 104:0.25 105:0.125 106:0.25 107:0.25 108:0.25 109:0.25 110:0.246324 111:0.233333 112:0.21875 113:0.234043 114:0.25 115:0.25 116:0.25 
0 1 0 0 1:0.111111 2:0.0915033 3:0.109929 4:0.111111 5:0.111111 6:0.111111 7:0.111111 8:0.111111 9:0.111111 10:0.111111 11:0.111111 12:0.111111 13:0.111111 14:0.111111 15:0.111111 16:0.111111 17:0.0987654 18:0.107639 19:0.111111 20:0.111111 21:0.111111 22:0.111111 23:0.111111 24:0.111111 25:0.111111 26:0.111111 27:0.111111 28:0.111111 29:0.111111 30:0.111111 31:0.111111 32:0.111111 33:0.111111 34:0.111111 35:0.111111 36:0.111111 37:0.111111 38:0.111111 39:0.111111 40:0.111111 41:0.111111 42:0.111111 43:0.111111 44:0.111111 45:0.111111 46:0.111111 47:0.111111 48:0.111111 49:0.111111 50:0.111111 51:0.111111 52:0.111111 53:0.111111 54:0.111111 55:0.111111 56:0.111111 57:0.111111 58:0.111111 59:0.111111 60:0.111111 61:0.111111 62:0.111111 63:0.111111 64:0.111111 65:0.111111 66:0.104575 67:0.0962963 68:0.111111 69:0.111111 70:0.111111 71:0.0854701 72:0.111111 73:0.111111 74:0.0740741 75:0.111111 76:0.111111 77:0.111111 78:0.105292 79:0.111111 80:0.111111 81:0.111111 82:0.107407 83:0.111111 84:0.111111 85:0.111111 86:0.108025 87:0.111111 88:0.106667 89:0.111111 90:0.111111 91:0.111111 92:0.111111 93:0.103704 94:0.111111 95:0.111111 96:0.111111 97:0.111111 98:0.111111 99:0.111111 100:0.111111 101:0.0925926 102:0.111111 103:0.111111 104:0.111111 105:0.0555556 106:0.111111 107:0.111111 108:0.111111 109:0.111111 110:0.109477 111:0.103704 112:0.101852 113:0.106383 114:0.111111 115:0.111111 116:0.111111 
0.09626678567546086 0.688148411938615 0 0.03445425551212793 1:0.166667 2:0.137255 3:0.164894 4:0.166667 5:0.166667 6:0.166667 7:0.166667 8:0.166667 9:0.166667 10:0.166667 11:0.166667 12:0.166667 13:0.166667 14:0.166667 15:0.166667 16:0.166667 17:0.157407 18:0.166667 19:0.166667 20:0.166667 21:0.166667 22:0.166667 23:0.166667 24:0.166667 25:0.166667 26:0.166667 27:0.166667 28:0.166667 29:0.166667 30:0.166667 31:0.166667 32:0.166667 33:0.166667 34:0.166667 35:0.166667 36:0.166667 37:0.166667 38:0.166667 39:0.166667 40:0.166667 41:0.166667 42:0.166667 43:0.166667 44:0.166667 45:0.166667 46:0.166667 47:0.166667 48:0.166667 49:0.166667 50:0.166667 51:0.166667 52:0.166667 53:0.166667 54:0.166667 55:0.166667 56:0.166667 57:0.166667 58:0.166667 59:0.166667 60:0.166667 61:0.166667 62:0.166667 63:0.166667 64:0.166667 65:0.166667 66:0.156863 67:0.144444 68:0.166667 69:0.166667 70:0.166667 71:0.128205 72:0.166667 73:0.166667 74:0.166667 75:0.166667 76:0.166667 77:0.166667 78:0.158756 79:0.166667 80:0.166667 81:0.166667 82:0.161111 83:0.166667 84:0.166667 85:0.166667 86:0.162037 87:0.166667 88:0.16 89:0.166667 90:0.166667 91:0.166667 92:0.166667 93:0.155556 94:0.166667 95:0.166667 96:0.166667 97:0.166667 98:0.166667 99:0.166667 100:0.166667 101:0.138889 102:0.166667 103:0.166667 104:0.166667 105:0.0833333 106:0.166667 107:0.166667 108:0.166667 109:0.166667 110:0.164216 111:0.155556 112:0.152778 113:0.159574 114:0.166667 115:0.166667 116:0.166667 
0 0.8668507227393665 0 0 1:1 2:0.823529 3:0.989362 4:1 5:1 6:1 7:1 8:1 9:1 10:1 11:1 12:1 13:1 14:1 15:1 16:1 17:0.944444 18:1 19:1 20:1 21:1 22:1 23:1 24:1 25:1 26:1 27:1 28:1 29:1 30:1 31:1 32:1 33:1 34:1 35:1 36:1 37:1 38:1 39:1 40:1 41:1 42:1 43:1 44:1 45:1 46:1 47:1 48:1 49:1 50:1 51:1 52:1 53:1 54:1 55:1 56:1 57:1 58:1 59:1 60:1 61:1 62:1 63:1 64:1 65:1 66:1 67:0.866667 68:1 69:1 70:1 71:0.769231 72:1 73:1 74:1 75:1 76:1 77:1 78:0.96072 79:1 80:1 81:1 82:0.966667 83:1 84:1 85:1 86:0.972222 87:1 88:0.96 89:1 90:1 91:1 92:1 93:0.933333 94:1 95:1 96:1 97:1 98:1 99:1 100:1 101:0.833333 102:1 103:1 104:1 105:0.5 106:1 107:1 108:1 109:1 110:1 111:0.933333 112:0.916667 113:0.957447 114:1 115:1 116:1 
0 0.03080032973620995 0 0 1:0.0833333 2:0.0686275 3:0.0833333 4:0.0833333 5:0.0833333 6:0.0833333 7:0.0833333 8:0.0833333 9:0.0833333 10:0.0833333 11:0.0833333 12:0.0833333 13:0.0833333 14:0.0833333 15:0.0833333 16:0.0833333 17:0.0787037 18:0.0833333 19:0.0833333 20:0.0833333 21:0.0833333 22:0.0833333 23:0.0833333 24:0.0833333 25:0.0833333 26:0.0833333 27:0.0833333 28:0.0833333 29:0.0833333 30:0.0833333 31:0.0833333 32:0.0833333 33:0.0833333 34:0.0833333 35:0.0833333 36:0.0833333 37:0.0833333 38:0.0833333 39:0.0833333 40:0.0833333 41:0.0833333 42:0.0833333 43:0.0833333 44:0.0833333 45:0.0833333 46:0.0833333 47:0.0833333 48:0.0833333 49:0.0833333 50:0.0833333 51:0.0833333 52:0.0833333 53:0.0833333 54:0.0833333 55:0.0833333 56:0.0833333 57:0.0833333 58:0.0833333 59:0.0833333 60:0.0833333 61:0.0833333 62:0.0833333 63:0.0833333 64:0.0833333 65:0.0833333 66:0.0833333 67:0.0777778 68:0.0833333 69:0.0833333 70:0.0833333 71:0.0833333 72:0.0833333 73:0.0833333 74:0.0833333 75:0.0833333 76:0.0833333 77:0.0833333 78:0.0785597 79:0.0833333 80:0.0833333 81:0.0833333 82:0.0833333 83:0.0833333 84:0.0833333 85:0.0833333 86:0.0810185 87:0.0833333 88:0.08 89:0.0833333 90:0.0833333 91:0.0833333 92:0.0833333 93:0.0777778 94:0.0833333 95:0.0833333 96:0.0833333 97:0.0833333 98:0.0833333 99:0.0833333 100:0.0833333 101:0.0694444 102:0.0833333 103:0.0833333 104:0.0833333 105:0.0416667 106:0.0833333 107:0.0833333 108:0.0833333 109:0.0833333 110:0.0833333 111:0.0777778 112:0.0833333 113:0.0797872 114:0.0833333 115:0.0833333 116:0.0833333 
0.01892477674490728 0.0927903859072588 0 0 1:0.111111 2:0.0915033 3:0.111111 4:0.111111 5:0.111111 6:0.111111 7:0.111111 8:0.111111 9:0.111111 10:0.111111 11:0.111111 12:0.111111 13:0.111111 14:0.111111 15:0.111111 16:0.111111 17:0.104938 18:0.111111 19:0.111111 20:0.111111 21:0.111111 22:0.111111 23:0.111111 24:0.111111 25:0.111111 26:0.111111 27:0.111111 28:0.111111 29:0.111111 30:0.111111 31:0.111111 32:0.111111 33:0.111111 34:0.111111 35:0.111111 36:0.111111 37:0.111111 38:0.111111 39:0.111111 40:0.111111 41:0.111111 42:0.111111 43:0.111111 44:0.111111 45:0.111111 46:0.111111 47:0.111111 48:0.111111 49:0.111111 50:0.111111 51:0.111111 52:0.111111 53:0.111111 54:0.111111 55:0.111111 56:0.111111 57:0.111111 58:0.111111 59:0.111111 60:0.111111 61:0.111111 62:0.111111 63:0.111111 64:0.111111 65:0.111111 66:0.111111 67:0.111111 68:0.111111 69:0.111111 70:0.111111 71:0.111111 72:0.111111 73:0.111111 74:0.111111 75:0.111111 76:0.111111 77:0.111111 78:0.107474 79:0.111111 80:0.111111 81:0.111111 82:0.111111 83:0.111111 84:0.111111 85:0.111111 86:0.108025 87:0.111111 88:0.106667 89:0.111111 90:0.111111 91:0.111111 92:0.111111 93:0.103704 94:0.111111 95:0.111111 96:0.111111 97:0.111111 98:0.111111 99:0.111111 100:0.111111 101:0.0925926 102:0.111111 103:0.111111 104:0.111111 105:0.111111 106:0.111111 107:0.111111 108:0.111111 109:0.111111 110:0.111111 111:0.103704 112:0.111111 113:0.106383 114:0.111111 115:0.111111 116:0.111111 
0.09004326599122633 0 0 0 1:0.027027 2:0.027027 3:0.027027 4:0.027027 5:0.027027 6:0.027027 7:0.027027 8:0.027027 9:0.027027 10:0.027027 11:0.027027 12:0.027027 13:0.027027 14:0.027027 15:0.027027 16:0.027027 17:0.027027 18:0.027027 19:0.027027 20:0.027027 21:0.027027 22:0.027027 23:0.027027 24:0.027027 25:0.027027 26:0.027027 27:0.027027 28:0.027027 29:0.027027 30:0.027027 31:0.027027 32:0.027027 33:0.027027 34:0.027027 35:0.027027 36:0.027027 37:0.027027 38:0.027027 39:0.027027 40:0.027027 41:0.027027 42:0.027027 43:0.027027 44:0.027027 45:0.027027 46:0.027027 47:0.027027 48:0.027027 49:0.027027 50:0.027027 51:0.027027 52:0.027027 53:0.027027 54:0.027027 55:0.027027 56:0.027027 57:0.027027 58:0.027027 59:0.027027 60:0.027027 61:0.027027 62:0.027027 63:0.027027 64:0.027027 65:0.027027 66:0.027027 67:0.027027 68:0.027027 69:0.027027 70:0.027027 71:0.027027 72:0.027027 73:0.027027 74:0.027027 75:0.027027 76:0.027027 77:0.027027 78:0.0254346 79:0.027027 80:0.027027 81:0.027027 82:0.027027 83:0.027027 84:0.027027 85:0.027027 86:0.027027 87:0.027027 88:0.027027 89:0.027027 90:0.027027 91:0.027027 92:0.027027 93:0.027027 94:0.027027 95:0.027027 96:0.027027 97:0.027027 98:0.027027 99:0.027027 100:0.027027 101:0.027027 102:0.027027 103:0.027027 104:0.027027 105:0.027027 106:0.027027 107:0.027027 108:0.027027 109:0.027027 110:0.027027 111:0.027027 112:0.027027 113:0.027027 114:0.027027 115:0.027027 116:0.027027 
0 0.08970335750812575 0 0 1:1 2:1 3:1 4:1 5:1 6:1 7:1 8:1 9:1 10:1 11:1 12:1 13:1 14:1 15:1 16:1 17:1 18:1 19:1 20:1 21:1 22:1 23:1 24:1 25:1 26:1 27:1 28:1 29:1 30:1 31:1 32:1 33:1 34:1 35:1 36:1 37:1 38:1 39:1 40:1 41:1 42:1 43:1 44:1 45:1 46:1 47:1 48:1 49:1 50:1 51:1 52:1 53:1 54:1 55:1 56:1 57:1 58:1 59:1 60:1 61:1 62:1 63:1 64:1 65:1 66:1 67:1 68:1 69:1 70:1 71:1 72:1 73:1 74:1 75:1 76:1 77:1 78:1 79:1 80:1 81:1 82:1 83:1 84:1 85:1 86:1 87:1 88:1 89:1 90:1 91:1 92:1 93:1 94:1 95:1 96:1 97:1 98:1 99:1 100:1 101:1 102:1 103:1 104:1 105:1 106:1 107:1 108:1 109:1 110:1 111:1 112:1 113:1 114:1 115:1 116:1 
0.2427151502826973 0.1864252237628907 0 0 1:0.5 2:0.5 3:0.5 4:0.5 5:0.5 6:0.5 7:0.5 8:0.5 9:0.5 10:0.5 11:0.5 12:0.5 13:0.5 14:0.5 15:0.5 16:0.5 17:0.5 18:0.5 19:0.5 20:0.5 21:0.5 22:0.5 23:0.5 24:0.5 25:0.5 26:0.5 27:0.5 28:0.5 29:0.5 30:0.5 31:0.5 32:0.5 33:0.5 34:0.5 35:0.5 36:0.5 37:0.5 38:0.5 39:0.5 40:0.5 41:0.5 42:0.5 43:0.5 44:0.5 45:0.5 46:0.5 47:0.5 48:0.5 49:0.5 50:0.5 51:0.5 52:0.5 53:0.5 54:0.5 55:0.5 56:0.5 57:0.5 58:0.5 59:0.5 60:0.5 61:0.5 62:0.5 63:0.5 64:0.5 65:0.5 66:0.529412 67:0.5 68:0.5 69:0.5 70:0.5 71:0.5 72:0.5 73:0.5 74:0.5 75:0.5 76:0.5 77:0.5 78:0.499182 79:0.5 80:0.5 81:0.5 82:0.5 83:0.5 84:0.5 85:0.5 86:0.5 87:0.5 88:0.5 89:0.5 90:0.5 91:0.5 92:0.5 93:0.5 94:0.5 95:0.5 96:0.5 97:0.5 98:0.5 99:0.5 100:0.5 101:0.5 102:0.5 103:0.5 104:0.5 105:0.5 106:0.5 107:0.5 108:0.5 109:0.5 110:0.5 111:0.5 112:0.5 113:0.5 114:0.5 115:0.5 116:0.5 
-1 1 0 0 78:0.00116904 87:0.00892857 110:0.00210084 114:0.142857 
-1 1 0.08907436613844413 0 2:0.0110294 3:0.00265957 15:0.00390625 18:0.00195313 21:0.0625 25:0.0078125 34:0.0625 35:0.0625 41:0.0625 53:0.00657895 55:0.0625 57:0.00986842 59:0.00164474 67:0.00833333 68:0.0625 71:0.00480769 78:0.00572831 81:0.0625 82:0.00208333 83:0.0267857 84:0.0625 86:0.00520833 87:0.00390625 88:0.0025 93:0.00416667 102:0.0208333 110:0.000919118 114:0.0625 
-1 1 0 0 2:0.0490196 3:0.0159574 6:0.0151515 15:0.0104167 16:0.166667 18:0.0104167 21:0.166667 25:0.0347222 31:0.00877193 34:0.166667 35:0.166667 39:0.00877193 41:0.166667 53:0.0438596 55:0.166667 57:0.0526316 59:0.0350877 63:0.166667 67:0.0222222 68:0.166667 71:0.0128205 72:0.0119048 75:0.0175439 78:0.0310966 81:0.166667 82:0.0111111 83:0.0952381 84:0.166667 86:0.0185185 87:0.0104167 88:0.00666667 93:0.0222222 102:0.0555556 106:0.166667 109:0.0128205 110:0.00490196 112:0.00694444 113:0.0070922 114:0.166667 
-1 1 0.7761133254852267 0.5130278256970036 2:0.0441176 3:0.0199468 5:0.125 6:0.0113636 10:0.0625 12:0.125 13:0.125 14:0.125 15:0.0390625 16:0.125 17:0.00694444 18:0.0234375 19:0.125 21:0.125 25:0.046875 30:0.125 31:0.0197368 32:0.125 34:0.125 35:0.125 39:0.0131579 41:0.125 42:0.125 43:0.125 48:0.125 50:0.125 51:0.125 52:0.0625 53:0.0394737 55:0.125 56:0.125 57:0.0394737 58:0.125 59:0.0460526 60:0.03125 61:0.125 62:0.0416667 63:0.125 66:0.0441176 67:0.025 68:0.125 71:0.0384615 72:0.0178571 74:0.0416667 75:0.0263158 77:0.0192308 78:0.0302782 79:0.125 80:0.0625 81:0.125 82:0.025 83:0.0714286 84:0.125 86:0.0243056 87:0.015625 88:0.03 89:0.125 92:0.125 93:0.0166667 94:0.025 95:0.025 98:0.125 100:0.125 101:0.0208333 102:0.0416667 105:0.0625 106:0.125 108:0.125 109:0.00961538 110:0.0165441 111:0.00833333 112:0.0208333 113:0.0132979 114:0.125 
